tree
version=v3
num_class=1
num_tree_per_iteration=1
label_index=0
max_feature_idx=86
objective=binary sigmoid:1
feature_names=Column_0 Column_1 Column_2 Column_3 Column_4 Column_5 Column_6 Column_7 Column_8 Column_9 Column_10 Column_11 Column_12 Column_13 Column_14 Column_15 Column_16 Column_17 Column_18 Column_19 Column_20 Column_21 Column_22 Column_23 Column_24 Column_25 Column_26 Column_27 Column_28 Column_29 Column_30 Column_31 Column_32 Column_33 Column_34 Column_35 Column_36 Column_37 Column_38 Column_39 Column_40 Column_41 Column_42 Column_43 Column_44 Column_45 Column_46 Column_47 Column_48 Column_49 Column_50 Column_51 Column_52 Column_53 Column_54 Column_55 Column_56 Column_57 Column_58 Column_59 Column_60 Column_61 Column_62 Column_63 Column_64 Column_65 Column_66 Column_67 Column_68 Column_69 Column_70 Column_71 Column_72 Column_73 Column_74 Column_75 Column_76 Column_77 Column_78 Column_79 Column_80 Column_81 Column_82 Column_83 Column_84 Column_85 Column_86
feature_infos=[-18.510000000000002:726.59000000000003] [-1164.79:8776] [-506.98000000000002:1180.3199999999999] [-764:2052498] [-506.98000000000002:1180.3199999999999] [-764:2052498] [0:12109447000] [0:1215279900.4100001] [-774:41406] [-376.13:408.38] [0:83.189999999999998] [0:538.51999999999998] [-1164.79:8776] [0:15975] [-308.38:476.13] [-393.42000000000002:5623.0500000000002] [0:50] [0:25.399999999999999] [-108918.83:2421.3299999999999] [-2.71:16985.009999999998] [-5523.0500000000002:493.42000000000002] [-18.969999999999999:103.33] [-0.27000000000000002:0.34000000000000002] [-3497.2600000000002:653357.80000000005] [0:1298053.53] [0:7.7400000000000002] [0:1153069527.03] [0:73553443.75] [0:12.92] [0:45380.449999999997] [-0.64000000000000001:16986.16] [0:7.9400000000000004] [-178500:40300] [-11841777.779999999:137802405.41] [-666620.80000000005:5297878.1299999999] [-774:18875] [-1.1599999999999999:2.3500000000000001] [0:5085.3000000000002] [-31.84:20.870000000000001] [-5083.5900000000001:2.3100000000000001] [0:1395.48] [-26340:697500] [-185.11000000000001:52830] [-28120:697500] [-187.91:24747.200000000001] [-178500:61500] [-636:23281.700000000001] [0:9.9499999999999993] [0:11.630000000000001] [-174.78999999999999:121.95999999999999] [-0.64000000000000001:17221.77] [0:538.51999999999998] [-5523.0500000000002:493.42000000000002] [-5083.5900000000001:146.65000000000001] [-5277.2799999999997:328.42000000000002] [-51.920000000000002:101.97] [-1318.8:4437.6400000000003] [-2.8199999999999998:362103.70000000001] [-392.67000000000002:38.490000000000002] [1.0261064131207782:116.01576876538225] [0.38682855783849451:116.05750570244503] [2.0202394842208982:120.80178453517492] [0.40350464342160541:116.11989245939657] [2.5724907287904575:116.7238548505981] [0.14442702992802225:115.9538730396723] [0.19213906378381468:115.9505117229149] [0.85181934651694857:114.39767938157291] [0.23368477303054677:115.90959921909622] [0.43820459563063879:115.70994154224739] [3.7170560367144265:118.47209370610017] [0.52302931216347992:116.03191170504381] [0.23420533730944851:115.98001011594755] [4.1525756462015977:116.58264723270959] [10.689549618698576:105.76884523727291] [1.1740751385479933:115.98435049093895] [2.404018669590088:116.53951542183714] [0.34592282127676927:115.92505733294898] [3.3473513068381768:116.94473423686124] [0.37870316181922214:115.96597916306683] [3.9931696325360169:118.14303880767686] [0.60408474627777842:115.95075852912788] [0.56554045100804351:116.02985127071142] [0.15351423469451669:115.95023107176044] [3.2744548257700798:117.37630506884481] [0.38566370309454401:116.0284639756452] [0.2794775348023032:115.97002092373641] [0:26]
tree_sizes=1672 1680 1681 1685 1682 1669 1668 1681 1679 1679 1683 1674 1688 1664 1675 1661 1680 1680 1683 1661 1693 1676 1668 1674 1699 1667 1675

Tree=0
num_leaves=15
num_cat=0
split_feature=23 0 24 23 13 49 19 46 61 49 41 74 56 56
split_gain=219.359 41.0202 40.0243 28.6634 27.7826 20.9915 18.4637 15.7241 14.9383 16.1442 16.0538 13.9939 12.051 11.7518
threshold=213.65000000000001 106.57500000000002 5114.1100000000006 3663.0750000000003 14.250000000000002 1.4150000000000003 3.1950000000000007 10.805000000000001 35.248339093554996 4.8500000000000005 58.680000000000007 5.5894680273478929 35.250000000000007 27.600000000000005
decision_type=2 2 2 2 2 2 2 2 2 2 2 2 2 2
left_child=2 3 5 11 6 -1 -5 -3 9 10 -8 -2 -10 -6
right_child=1 7 -4 4 13 -7 8 -9 12 -11 -12 -13 -14 -15
leaf_value=-0.96822219894627326 -0.78591500158214134 -0.78822381659785934 -0.83041102980711545 -0.77563349344111165 -0.89348627020179194 -0.81852023898721071 -0.64429979734020049 -0.85534565782946115 -0.64761322481925365 -0.86060643194978259 -0.79306488034049383 -0.84866624799130019 -0.8500848837091397 -0.71988072423118288
leaf_weight=123.13354340195656 96.099077612161636 47.310315132141113 30.836187541484833 58.2930668592453 16.89654111862183 10.137924671173094 16.262920826673511 133.06026130914688 40.762905448675156 9.5043043792247754 13.094819366931914 56.392205983400345 3.1681014597415915 5.068962335586547
leaf_count=583 455 224 146 276 80 48 77 630 193 45 62 267 15 24
internal_value=-0.832863 -0.7997 -0.933079 -0.777955 -0.748808 -0.956834 -0.732521 -0.83774 -0.702166 -0.747328 -0.710655 -0.809121 -0.662215 -0.853423
internal_weight=0 495.913 164.108 315.543 163.052 133.271 141.086 180.371 82.7931 38.862 29.3577 152.491 43.931 21.9655
internal_count=3125 2348 777 1494 772 631 668 854 392 184 139 722 208 104
shrinkage=1


Tree=1
num_leaves=15
num_cat=0
split_feature=19 24 0 18 62 41 75 76 42 64 41 71 52 11
split_gain=179.466 40.7785 28.2473 26.8021 17.2269 15.2265 13.0907 12.9116 13.5762 12.2939 15.5252 13.3498 11.3528 11.1672
threshold=0.31500000000000006 5114.1100000000006 106.57500000000002 13.860000000000001 10.220681171781871 8.0800000000000018 12.964807928585122 1.6377915659024598 97.075000000000017 0.90555052542147785 14.885000000000003 0.35978647712880363 99.88000000000001 1.5950000000000004
decision_type=2 2 2 2 2 2 2 2 2 2 2 2 2 2
left_child=1 -1 3 4 9 -4 -6 8 -5 10 -2 -11 -3 -13
right_child=2 12 5 7 6 -7 -8 -9 -10 11 -12 13 -14 -15
leaf_value=-0.12766336565005004 0.098995861284148196 -0.027338012231451339 0.066332161129977502 0.14703729944725394 -0.038354228516736727 -0.016010949131560873 0.15821185526008824 0.059903470894565825 -0.076183778988660841 -0.1446873422591613 -0.04336809590201899 0.035972027703740396 0.12670622267556927 0.10061240087868742
leaf_weight=111.59215342998505 10.250247269868849 24.946452200412754 26.194866359233856 35.222960367798805 51.287296369671822 157.36526991426945 3.6276473850011817 86.120716989040375 2.9530612081289283 3.1976478248834601 30.314841002225876 64.934907644987106 5.9194971323013297 45.420603707432747
leaf_count=557 48 118 124 161 243 748 17 398 14 15 141 302 28 211
internal_value=0 -0.0995253 0.0272417 0.0445894 0.0227234 -0.00426021 -0.0253692 0.0813621 0.12977 0.0398596 -0.00739466 0.0567404 0.00220472 0.062577
internal_weight=0 142.458 516.89 333.33 209.033 183.56 54.9149 124.297 38.176 154.118 40.5651 113.553 30.8659 110.356
internal_count=3125 703 2422 1550 977 872 260 573 175 717 189 528 146 513
shrinkage=0.1


Tree=2
num_leaves=15
num_cat=0
split_feature=23 24 0 49 23 13 18 14 74 49 71 76 3 18
split_gain=156.672 32.4998 25.3124 18.3757 16.6999 15.3041 13.7116 11.8688 13.7901 13.6049 14.3018 14.8735 12.8256 12.9378
threshold=213.65000000000001 5114.1100000000006 63.960000000000008 0.90500000000000014 3663.0750000000003 14.800000000000002 47.070000000000007 32.080000000000005 5.297159689309578 3.0950000000000002 1.7961097388306981 1.903468850148639 36.115000000000002 6.3850000000000007
decision_type=2 2 2 2 2 2 2 2 2 2 2 2 2 2
left_child=1 3 4 -1 -2 -6 7 9 -9 12 11 -11 13 -4
right_child=2 -3 6 -5 5 -7 -8 8 -10 10 -12 -13 -14 -15
leaf_value=-0.12807373058166879 0.021125866740564096 0.0019130608028283165 -0.017822926619655077 -0.011060957180212928 0.096239466452527289 -0.030757633756029291 0.14699959774184376 -0.048288377802186894 0.13933785669447113 0.055922137916224059 0.0060911464730119755 0.22463088518985508 -0.022780838322259217 0.13890712648748038
leaf_weight=104.87910617887974 75.545506238937378 30.876268565654755 10.236793756484987 15.390120044350622 91.781245276331902 10.583181843161581 7.1420771330595008 52.935187593102455 4.2302851825952521 62.451511964201927 71.837161064147949 5.7028202116489402 103.08676302433014 10.848663046956061
leaf_count=556 352 146 48 75 409 50 33 249 20 288 339 27 483 50
internal_value=0 -0.0896052 0.0264104 -0.1131 0.0567896 0.0831096 0.0099561 0.00691008 -0.0344039 0.0158505 0.0372238 0.0700389 -0.00824577 0.0628161
internal_weight=0 151.145 506.381 120.269 177.91 102.364 328.471 321.329 57.1655 264.164 139.991 68.1543 124.172 21.0855
internal_count=3125 777 2348 631 811 459 1537 1504 269 1235 654 315 581 98
shrinkage=0.1


Tree=3
num_leaves=15
num_cat=0
split_feature=23 25 0 18 30 32 30 68 76 13 23 63 84 1
split_gain=131.863 29.5901 22.0528 16.2136 13.3062 12.5442 19.4411 11.2322 10.0326 11.5606 9.81275 9.3193 8.99402 8.87373
threshold=213.65000000000001 4.1700000000000008 106.57500000000002 13.860000000000001 0.14500000000000005 6.0550000000000006 1.7550000000000001 0.96338198191340896 2.0708071900173355 14.250000000000002 11112.155000000001 4.8806435868872837 2.6693389479738818 7.3050000000000006
decision_type=2 2 2 2 2 2 2 2 2 2 2 2 2 2
left_child=1 4 3 10 -1 6 13 12 9 -5 -2 -3 -7 -4
right_child=2 11 5 8 -6 7 -8 -9 -10 -11 -12 -13 -14 -15
leaf_value=-0.12390716049177707 0.0091078645787984278 0.12339604867739098 0.057264350915535833 0.099327528296450418 -0.039729110046833799 0.081713596970748884 0.163669652496789 -0.039954338699215663 0.031379826758193674 -0.051696554077379969 0.061217135493346508 -0.021123749710233682 -0.051152968269253002 -0.024735612724611559
leaf_weight=92.921715587377548 155.32361125946045 5.5765827596187618 21.968552708625793 73.227752879261971 23.534299239516258 15.494089230895044 9.3926391154527646 92.438674867153168 49.413011759519577 5.4455034285783759 47.094822615385056 22.324384838342667 7.5907137244939795 33.052900239825249
leaf_count=523 719 26 101 320 120 73 44 442 220 26 209 108 36 158
internal_value=0 -0.0847351 0.0235138 0.0388505 -0.106896 -0.00465614 0.0307032 -0.024372 0.066694 0.0888741 0.0212316 0.00776151 0.0380246 0.00800472
internal_weight=0 144.357 510.442 330.505 116.456 179.938 64.4141 115.523 128.086 78.6733 202.418 27.901 23.0848 55.0215
internal_count=3125 777 2348 1494 643 854 303 551 566 346 928 134 109 259
shrinkage=0.1


Tree=4
num_leaves=15
num_cat=0
split_feature=49 47 19 0 54 32 49 23 51 58 3 41 76 63
split_gain=114.35 22.3829 25.6224 20.7493 12.0591 11.5638 11.448 10.9258 10.7727 13.4385 12.4645 10.0012 11.4122 9.7257
threshold=0.78500000000000014 0.65500000000000014 0.41500000000000004 105.84500000000001 27.805000000000003 13.560000000000002 3.1950000000000007 396.59000000000009 1.1450000000000002 0.46500000000000002 76.355000000000004 10.155000000000003 1.2411482146847062 13.045540185037417
decision_type=2 2 2 2 2 2 2 2 2 2 2 2 2 2
left_child=1 2 -1 7 6 -3 13 -2 10 -10 -9 -12 -13 -5
right_child=3 5 -4 4 -6 -7 -8 8 9 -11 11 12 -14 -15
leaf_value=-0.1207386576471591 -0.036432209651303116 0.066124834592427781 -0.025055601124442373 -0.051762213161911222 -0.046847567850303397 -0.058672301910309359 0.036705272606388957 0.058959192754420492 0.048155555087761148 0.12432362001117936 0.16860455198344593 0.094476945617321173 -0.020157045480073091 0.03477605370914047
leaf_weight=90.869277060031891 17.855668798089027 15.1216326802969 40.442273616790771 37.700259149074554 46.787924855947495 14.5875047147274 78.94625860452652 63.78423473238945 110.53932419419289 29.304176136851311 3.4009438008069983 9.8695489317178708 72.324924781918526 19.811473831534386
leaf_count=545 86 71 190 182 228 71 369 285 490 129 15 43 325 96
internal_value=0 -0.0735353 -0.0912695 0.0235921 -0.00303767 0.0048481 0.0119836 0.0394831 0.0441699 0.0641166 0.0254966 0.000560809 -0.0063923 -0.0219518
internal_weight=0 161.021 131.312 490.325 183.246 29.7091 136.458 307.079 289.223 139.844 149.38 85.5954 82.1945 57.5117
internal_count=3125 877 735 2248 875 142 647 1373 1287 619 668 383 368 278
shrinkage=0.1


Tree=5
num_leaves=15
num_cat=0
split_feature=49 24 18 62 13 19 58 74 11 58 18 23 49 18
split_gain=95.9884 19.979 24.868 14.1763 15.1039 14.0844 12.1666 11.1294 11.7438 18.4643 11.6946 10.1321 9.79056 9.47018
threshold=0.78500000000000014 5114.1100000000006 3.1850000000000005 9.4784753688632524 1.6100000000000003 1.1150000000000004 0.40500000000000008 5.2326858256674562 1.675 0.075000000000000025 14.285000000000002 3516.1000000000004 3.1150000000000007 6.8600000000000003
decision_type=2 2 2 2 2 2 2 2 2 2 2 2 2 2
left_child=1 2 -1 -2 11 6 -6 -7 10 12 -9 -5 13 -10
right_child=3 -3 -4 4 5 7 -8 8 9 -11 -12 -13 -14 -15
leaf_value=-0.1174661695642953 0.067882275409785059 0.0030161907306141779 -0.020811159296333981 0.019256538470213826 -0.10686426550978728 -0.003567246575560862 -0.0071843226528443731 -0.024327523446124547 0.085675725740669145 0.1559181944402632 0.12559918745379525 0.070441465973667974 0.1254444084546798 -0.10853978236602238
leaf_weight=84.98660135269165 57.169434189796448 30.628147944808006 38.758797079324722 100.38821288943291 20.315638169646263 153.0203506052494 30.822651401162148 27.948756992816925 3.7914846986532229 18.045676916837692 6.3926729410886756 62.908474192023277 4.9882481992244712 7.432152271270752
leaf_count=546 252 146 185 463 99 707 147 127 17 78 28 274 22 34
internal_value=0 -0.0692948 -0.0871925 0.0210604 0.0149218 0.000521433 -0.046784 0.0114371 0.0449065 0.0863328 0.0035814 0.038975 0.00887632 -0.0429314
internal_weight=0 154.374 123.745 493.224 436.054 272.758 51.1383 221.619 68.599 34.2576 34.3414 163.297 16.2119 11.2236
internal_count=3125 877 731 2248 1996 1259 246 1013 306 151 155 737 73 51
shrinkage=0.1


Tree=6
num_leaves=15
num_cat=0
split_feature=50 24 23 13 60 3 18 23 50 42 71 65 62 62
split_gain=81.7059 25.9024 13.8504 18.4766 11.5502 10.0148 9.88567 14.8347 21.3858 12.556 10.2984 10.2213 9.21003 9.20821
threshold=0.18500000000000003 5114.1100000000006 3478.7900000000004 14.250000000000002 3.1322396103368031 137.50500000000002 6.3850000000000007 1758.8550000000002 1.135 34.525000000000006 2.008466765333262 1.7603932240834255 10.199604807325272 16.557214801895203
decision_type=2 2 2 2 2 2 2 2 2 2 2 2 2 2
left_child=1 12 4 13 6 -6 7 10 9 -9 -2 -8 -1 -4
right_child=2 -3 3 -5 5 -7 11 8 -10 -11 -12 -13 -14 -15
leaf_value=0.053027574714609643 -0.065838967462873779 0.0027111854789590951 0.041837897136071667 -0.025860505290363173 -0.017100454442074042 -0.12502440003843088 0.038930439437658879 0.16494014697171919 0.27433403137102996 -0.10493011016268564 0.056959501567810503 -0.01818153494048964 -0.11111910200202176 0.22321989150020083
leaf_weight=3.5658915340900412 44.068304792046547 30.664397224783897 218.70522183179855 45.41100911796093 29.716086357831955 12.099021524190901 110.51430441439152 2.5712936967611295 3.7591521590948105 5.2319763898849487 8.0818726420402509 43.738991111516953 82.526197627186775 2.8351812064647666
leaf_count=17 218 146 955 215 141 59 507 12 17 25 40 201 560 12
internal_value=0 -0.07621 0.0162517 0.0322481 -0.000186289 -0.0483278 0.00904929 -0.0240877 0.0783902 -0.0160038 -0.0468085 0.0227362 -0.10432 0.0441591
internal_weight=0 116.756 526.732 266.951 259.781 41.8151 217.966 63.7126 11.5624 7.80327 52.1502 154.253 86.0921 221.54
internal_count=3125 723 2402 1182 1220 200 1020 312 54 37 258 708 577 967
shrinkage=0.1


Tree=7
num_leaves=15
num_cat=0
split_feature=49 25 18 0 35 3 62 68 29 70 76 78 74 60
split_gain=69.4398 17.2233 18.8078 12.9184 9.35528 8.32105 11.0841 7.83352 9.32393 8.31139 10.6359 8.49103 7.45981 8.2312
threshold=0.78500000000000014 4.9350000000000014 4.455000000000001 106.57500000000002 7.870000000000001 872.49000000000012 9.4784753688632524 0.94526858964391269 18.815000000000001 3.6737479424002335 2.8107764404236852 3.5952966836282965 4.6849545703068474 2.6059903879878901
decision_type=2 2 2 2 2 2 2 2 2 2 2 2 2 2
left_child=1 2 -1 5 12 6 -2 -6 -9 -10 -11 -12 -5 -14
right_child=3 -3 -4 4 7 -7 -8 8 9 10 11 -13 13 -15
leaf_value=-0.099427340051907495 0.078300075772687674 0.025775807401083786 -0.011175987065495165 -0.033127378640914848 0.042757169037418295 -0.092222207585109836 0.02383351111192886 -0.040722871438251741 -0.035372527725254781 0.26508862865139732 -0.042238920637512375 0.16510586741986999 -0.029429438995358017 0.084478115581782767
leaf_weight=90.319676026701927 43.441961646080017 19.293480947613716 32.961787104606628 12.273634508252142 18.427483320236206 5.5370046943426123 267.00411574542522 94.552538961172104 9.4170455783605593 2.6982180029153815 5.1818525046110135 3.1914245784282684 8.3167964965105039 26.743396654725075
leaf_count=627 181 92 158 57 85 26 1177 463 46 13 26 15 38 121
internal_value=0 -0.0620819 -0.0758316 0.01709 -0.00422812 0.029288 0.0314552 -0.0177745 -0.0274705 0.0336876 0.0924278 0.0367893 0.0339689 0.0574576
internal_weight=0 142.575 123.281 496.785 180.802 315.983 310.446 133.469 115.041 20.4885 11.0715 8.37328 47.3338 35.0602
internal_count=3125 877 785 2248 864 1384 1358 648 563 100 54 41 216 159
shrinkage=0.1


Tree=8
num_leaves=15
num_cat=0
split_feature=50 47 21 62 33 25 84 62 41 81 29 70 77 13
split_gain=59.5469 23.8092 12.2214 10.983 9.25889 10.2014 9.20588 13.8745 11.6834 11.5769 13.7829 9.62843 9.48764 9.26392
threshold=0.17500000000000002 0.65500000000000014 0.20500000000000004 10.191844458506838 6708048.1900000004 4.535000000000001 2.8367803805061258 10.229759055662774 8.3150000000000031 3.9166173813886145 6.495000000000001 1.2092413982882479 15.985149608459256 14.250000000000002
decision_type=2 2 2 2 2 2 2 2 2 2 2 2 2 2
left_child=1 3 6 -1 5 -3 8 13 9 -2 11 -11 -9 -8
right_child=2 4 -4 -5 -6 -7 7 12 -10 10 -12 -13 -14 -15
leaf_value=0.11506996242005188 -0.039448118993372014 -0.1342809875349382 -0.072076239663276573 -0.10621589670982641 -0.037106999022969232 0.12175662530666186 0.048235912867954159 -0.020296103503111146 -0.0098278512737485675 0.15508202267500695 0.16700741799599286 -0.10091904010131603 0.066304364448807898 -0.01450561746233759
leaf_weight=2.3141559064388266 8.020881801843645 1.8706764429807687 16.364951238036156 72.851941734552383 18.186637654900551 9.2552484869956952 189.67751094698906 76.471090599894524 179.53710389137268 2.235630854964259 12.174602791666983 4.2853010296821594 15.15849284827709 26.866769507527351
leaf_count=11 37 10 85 560 89 43 815 361 833 10 55 20 68 128
internal_value=0 -0.0695922 0.0129988 -0.0994031 0.00685167 0.0787073 0.0157052 0.0266491 -0.000646709 0.0610515 0.104169 -0.0131518 -0.00596959 0.0404515
internal_weight=0 104.479 530.792 75.1661 29.3126 11.1259 514.427 308.174 206.254 26.7164 18.6955 6.52093 91.6296 216.544
internal_count=3125 713 2412 571 142 53 2327 1372 955 122 85 30 429 943
shrinkage=0.1


Tree=9
num_leaves=15
num_cat=0
split_feature=23 24 21 18 18 56 12 54 62 42 58 8 71 64
split_gain=51.2202 18.8179 11.2934 9.81719 9.50929 13.9186 9.57462 9.10929 8.95859 9.87562 9.82886 10.425 8.75621 9.47355
threshold=213.65000000000001 5114.1100000000006 1.0000000180025095e-35 7.8850000000000007 13.860000000000001 34.220000000000006 54.290000000000006 37.070000000000007 10.220681171781871 9.2050000000000018 1.8950000000000002 4.3500000000000005 0.35978647712880363 0.90555052542147785
decision_type=2 2 2 2 2 2 2 2 2 2 2 2 2 2
left_child=1 2 -1 -4 8 6 7 -6 12 10 11 -10 -2 -14
right_child=4 -3 3 -5 5 -7 -8 -9 9 -11 -12 -13 13 -15
leaf_value=-0.11084327597670962 -0.14944042733466098 0.0047525779765520901 -0.060714080650254493 0.10499413527933615 0.041888236239846222 -0.041792301800003824 -0.035483704696890828 0.20298568485708476 -0.045922509260432197 -0.043697870032504665 0.22763579597876729 0.10293543651041828 -0.012924853301323681 0.030619789392623883
leaf_weight=58.27978103607893 3.2950870245695105 30.210103169083595 17.320305161178116 4.5051163434982291 165.91378059983253 24.568198457360268 16.06333814561367 3.5858633220195761 12.470623746514326 68.844334855675697 2.3206187039613715 7.554870903491973 78.437629476189613 137.62581543624401
leaf_count=504 15 146 104 23 711 119 76 16 58 337 10 35 368 603
internal_value=0 -0.0625019 -0.0878657 -0.0265093 0.01251 0.0289389 0.0383036 0.0452963 0.00139349 -0.024949 0.0328128 0.010236 0.0123444 0.0148118
internal_weight=0 110.315 80.1052 21.8254 520.68 210.131 185.563 169.5 310.549 91.1904 22.3461 20.0255 219.359 216.063
internal_count=3125 777 631 127 2348 922 803 727 1426 440 103 93 986 971
shrinkage=0.1


Tree=10
num_leaves=15
num_cat=0
split_feature=49 51 62 54 45 18 54 49 54 58 54 15 73 1
split_gain=44.0405 14.9188 13.6099 8.8682 9.51133 8.24999 14.082 11.8897 10.839 10.3016 11.599 8.74766 8.73936 7.53957
threshold=0.78500000000000014 0.43500000000000005 10.216756207191301 27.805000000000003 55.830000000000005 13.860000000000001 26.060000000000006 5.2650000000000006 11.055000000000001 1.2050000000000003 8.5250000000000004 29.600000000000005 26.807928198926586 60.070000000000007
decision_type=2 2 2 2 2 2 2 2 2 2 2 2 2 2
left_child=1 -1 -3 5 -5 6 9 13 -9 -2 11 -11 -8 -7
right_child=3 2 -4 4 -6 7 12 8 -10 10 -12 -13 -14 -15
leaf_value=-0.0074761667734805221 -0.0066601974236377122 0.00082530717319270741 -0.099685913711689167 -0.033172417124603192 0.087921911498009056 0.063335988307705413 0.20862609862857506 -0.065791935760876011 0.025843946147454479 -0.019473741760264066 0.11218366675806646 0.12714432159629063 -0.008079420554847094 -0.08907006582403551
leaf_weight=45.940577812492847 207.28857971727848 17.022683650255203 64.58197071403265 61.836426675319672 7.2463464289903632 94.084071114659309 5.483834967017172 16.806319192051888 55.647943958640099 22.772190630435947 16.718195602297783 4.9546428322792044 2.8169054388999939 3.3619391173124304
leaf_count=253 952 82 542 301 32 396 25 71 244 101 75 22 13 16
internal_value=0 -0.0530582 -0.0787193 0.0127861 -0.0204704 0.0181298 0.00693267 0.0352672 0.0045883 0.00270691 0.0463945 0.00672615 0.135086 0.0580779
internal_weight=0 127.545 81.6047 499.017 69.0828 429.935 260.034 169.9 72.4543 251.734 44.445 27.7268 8.30074 97.446
internal_count=3125 877 624 2248 333 1915 1188 727 315 1150 198 123 38 412
shrinkage=0.1


Tree=11
num_leaves=15
num_cat=0
split_feature=19 28 49 21 60 10 52 17 84 62 71 60 29 19
split_gain=38.6005 20.4168 9.65924 7.83755 7.27741 7.06144 7.33446 9.3221 6.85273 9.57608 8.46074 11.0864 8.0848 14.5043
threshold=0.31500000000000006 7.1100000000000003 2.3750000000000004 0.20500000000000004 2.6769022611991153 23.355000000000004 99.995000000000019 10.870000000000003 2.8312696327266149 10.229759055662774 0.490134362946198 2.5423879744132694 5.1550000000000011 17.050000000000004
decision_type=2 2 2 2 2 2 2 2 2 2 2 2 2 2
left_child=1 2 -1 8 -5 -3 -7 -8 -2 10 -10 -12 -13 -14
right_child=3 5 -4 4 -6 6 7 -9 9 -11 11 12 13 -15
leaf_value=-0.1046399197533992 -0.002461244357316861 0.20357763085458563 0.076762889892603436 0.033301140715594667 -0.10412007440937375 -0.033422353598435747 -0.08931096796741253 0.17300983995936209 -0.049136469994275289 -0.0065555041013288995 0.12490582932331946 0.055906814730197402 0.0084383851999775238 0.21617424000506968
leaf_weight=56.515499822795391 204.86361594498158 1.7153880894184137 3.0961232334375373 5.8616959899663952 11.248979456722735 21.347705088555816 1.9848350659012783 4.2672634571790695 12.09681513905525 89.433924466371536 13.39250238239765 77.982084974646568 115.5471915602684 3.461747631430625
leaf_count=542 951 8 15 31 59 107 12 19 53 423 56 333 502 14
internal_value=0 -0.0616167 -0.0952182 0.00954312 -0.057043 0.00671103 -0.00552466 0.0897316 0.0117478 0.0210802 0.0321894 0.0368655 0.0308801 0.014481
internal_weight=0 88.9268 59.6116 533.889 17.1107 29.3152 27.5998 6.2521 516.778 311.914 222.48 210.384 196.991 119.009
internal_count=3125 703 557 2422 90 146 138 31 2332 1381 958 905 849 516
shrinkage=0.1


Tree=12
num_leaves=15
num_cat=0
split_feature=19 25 49 62 44 81 46 15 67 0 19 1 44 58
split_gain=32.9411 18.7595 9.0744 6.84336 7.82309 9.46183 8.37769 10.27 9.28762 12.1438 10.3795 13.6229 9.89181 9.46783
threshold=0.31500000000000006 3.5000000000000004 1.4850000000000001 9.5167821735390277 7.5750000000000011 1.6915862854681232 6.6250000000000009 53.765000000000008 1.3488400495411597 161.60000000000005 1.0950000000000004 5.5500000000000007 37.335000000000008 0.44500000000000006
decision_type=2 2 2 2 2 2 2 2 2 2 2 2 2 2
left_child=1 2 -1 -2 5 -5 7 -6 9 10 13 -12 -11 -8
right_child=3 -3 -4 4 6 -7 8 -9 -10 12 11 -13 -14 -15
leaf_value=-0.10669886776770945 0.039387258925300685 0.0044759972671371924 0.034924483641164898 -0.14973028056554868 -0.081356832158744896 0.033202539698034078 -0.087404598015960663 0.10578742646704083 -0.021097018926632828 0.23266026475998897 0.16538135841734505 0.016122823370762353 -0.017766563682111127 0.0020530560695420645
leaf_weight=49.370730273425579 63.493047773838043 30.300810530781746 4.9806888699531546 2.9065888524055472 22.704378306865696 103.81983177363873 18.246846050024033 3.3672523200511923 117.25055968761444 4.4677173718810073 6.3652680665254584 155.48157005012035 2.4380315840244293 33.646342545747757
leaf_count=525 270 153 25 14 103 458 96 15 556 22 28 683 12 165
internal_value=0 -0.0585717 -0.0937207 0.00856998 0.00441297 0.0282205 -0.00256813 -0.0571864 0.00164614 0.0137318 0.00951491 0.021993 0.144249 -0.0294023
internal_weight=0 84.6522 54.3514 534.187 470.694 106.726 363.968 26.0716 337.896 220.646 213.74 161.847 6.90575 51.8932
internal_count=3125 703 550 2422 2152 472 1680 118 1562 1006 972 711 34 261
shrinkage=0.1


Tree=13
num_leaves=15
num_cat=0
split_feature=23 7 49 11 58 28 34 8 29 82 29 61 19 54
split_gain=28.1007 14.7568 8.86099 8.60251 9.88439 8.05381 7.6807 7.47766 8.33388 12.0113 8.8825 10.8252 10.4822 8.88581
threshold=213.65000000000001 99354631.785000011 1.4150000000000003 1.155 0.29500000000000004 7.995000000000001 768786.00000000012 7.7950000000000008 5.0850000000000009 0.45354373023683808 0.88500000000000012 35.245227401708696 2.9350000000000005 9.0200000000000014
decision_type=2 2 2 2 2 2 2 2 2 2 2 2 2 2
left_child=1 2 5 -4 -5 -1 -7 -2 9 -9 11 -11 -13 -14
right_child=7 -3 3 4 -6 6 -8 8 -10 10 -12 12 13 -15
leaf_value=-0.095782177656839496 0.02934898304164496 0.052469321410219233 -0.13648412993834944 -0.049799476062018996 0.18603738536813816 0.025883693911102353 -0.13818489918451174 0.10629748129983491 -0.0088645652365842813 -0.086257690152481636 0.032605476021908102 -0.090959774503012847 -0.037862242747101281 0.099311905023429209
leaf_weight=56.591799579560757 128.80576306581497 12.007845588028429 2.4898250699043256 3.2475748956203461 3.9250591397285461 11.654359072446821 3.7783694416284552 14.969723775982855 259.29965268075466 17.162076950073242 73.55276857316494 6.9921015202999142 7.313714504241946 13.327580228447912
leaf_count=594 560 58 13 16 19 58 19 64 1192 76 334 33 32 57
internal_value=0 -0.0510406 -0.0662564 0.0236646 0.0792568 -0.0783197 -0.0142849 0.00844135 0.0015822 0.0219009 0.0112256 -0.0238794 0.0148615 0.0507078
internal_weight=0 93.6948 81.687 9.66246 7.17263 72.0245 15.4327 521.423 392.618 133.318 118.348 44.7955 27.6334 20.6413
internal_count=3125 777 719 48 35 671 77 2348 1788 596 532 198 122 89
shrinkage=0.1


Tree=14
num_leaves=15
num_cat=0
split_feature=49 51 18 56 66 57 56 51 61 85 71 51 57 58
split_gain=24.5594 11.0992 11.0097 6.91813 8.20877 7.65584 8.98135 7.65441 12.0096 7.31804 6.91695 6.81367 6.54041 9.6372
threshold=0.78500000000000014 0.43500000000000005 3.1850000000000005 34.220000000000006 2.1716262958137706 121.38000000000001 30.190000000000005 2.0350000000000006 35.279534541050673 1.0952678543037362 1.6198475919061674 0.38500000000000006 100.105 0.32500000000000007
decision_type=2 2 2 2 2 2 2 2 2 2 2 2 2 2
left_child=1 -1 -3 5 -5 6 12 10 -9 -7 -6 -12 -2 -14
right_child=3 2 -4 4 7 9 -8 8 -10 -11 11 -13 13 -15
leaf_value=-0.0041026011851744747 0.01607542251943957 -0.10506920732210626 -0.023868457509574083 0.11976602028571293 0.04398155910554364 -0.049157895475224006 0.1345910336293169 -0.078393648805429983 0.22334326576971791 0.0066360656036119894 0.037330846678373823 -0.086711032547581723 0.0046694802842701527 0.13009191897629646
leaf_weight=44.293451130390167 182.41261696815491 37.107740171253681 30.357956066727638 3.5869555026292792 6.4388511478900901 26.49849471449852 7.4178370535373679 2.5721408277750006 2.7076654732227325 208.32288312166929 5.1830797195434561 30.412615180015564 11.581163406372072 13.00681112706661
leaf_count=253 784 468 156 16 29 123 33 12 13 951 27 155 50 55
internal_value=0 -0.042996 -0.0685308 0.00885549 -0.0260845 0.0128144 0.0264758 -0.0371416 0.0763474 0.000339978 -0.0513965 -0.0686493 0.0226015 0.0710168
internal_weight=0 111.759 67.4657 500.141 50.9013 449.24 214.418 47.3144 5.27981 234.821 42.0345 35.5957 207.001 24.588
internal_count=3125 877 624 2248 252 1996 922 236 25 1074 211 182 889 105
shrinkage=0.1


Tree=15
num_leaves=15
num_cat=0
split_feature=18 7 49 68 67 28 34 47 54 62 19 84 57 18
split_gain=21.1813 10.77 11.2017 8.19517 7.84237 6.18651 6.66189 6.85963 6.14668 6.49113 8.44258 8.09539 8.66214 7.69478
threshold=4.455000000000001 99354631.785000011 1.3550000000000002 1.5151738814356479 2.0910357572583345 7.995000000000001 768786.00000000012 1.4450000000000001 -27.895 10.227033282100537 0.65500000000000014 2.8367803805061258 19.290000000000003 20.190000000000001
decision_type=2 2 2 2 2 2 2 2 2 2 2 2 2 2
left_child=1 2 5 -4 -5 -1 7 -7 -2 10 -10 12 -12 -11
right_child=8 -3 3 4 -6 6 -8 -9 9 13 11 -13 -14 -15
leaf_value=-0.083897868338627321 0.26434048335699806 0.046763857354956147 -0.08397885594227962 0.17861297073472321 0.0069604360967973873 -0.026208755248016153 -0.13314183246729236 0.14092598134306622 0.10251921978749537 -0.024305088483860829 0.15015785074455593 0.024227853360879969 -0.011930121041454037 0.02476614466979107
leaf_weight=60.502522304654121 0.93300481140613456 12.219897992908953 5.2043727934360531 4.0866937786340696 7.6327882260084152 8.2565910890698415 3.5308174192905417 3.4951825141906729 10.673094093799589 107.66894496232271 3.3865974098443976 211.02451460063457 124.67165891826153 45.442048162221909
leaf_count=644 4 58 27 18 35 41 19 17 50 526 14 899 569 204
internal_value=0 -0.0414806 -0.053112 0.0204449 0.0668173 -0.0695383 -0.0126898 0.0235 0.00790631 0.00743053 0.0149477 0.0121913 -0.00764358 -0.00974116
internal_weight=0 104.929 92.709 16.9239 11.7195 75.7851 15.2826 11.7518 503.8 502.867 349.756 339.083 128.058 153.111
internal_count=3125 859 801 80 53 721 77 58 2266 2262 1532 1482 583 730
shrinkage=0.1


Tree=16
num_leaves=15
num_cat=0
split_feature=50 47 62 33 25 21 33 83 71 18 58 8 49 49
split_gain=18.9327 13.7802 7.77927 6.82359 6.93286 5.73806 5.41546 7.40311 5.06945 6.60472 6.18012 5.99148 8.6312 11.3414
threshold=0.17500000000000002 0.65500000000000014 10.191844458506838 6708048.1900000004 4.535000000000001 0.23500000000000001 5398134.1300000008 11.777593913004546 0.490134362946198 7.6650000000000009 0.50500000000000012 8.4450000000000021 5.0750000000000011 14.150000000000002
decision_type=2 2 2 2 2 2 2 2 2 2 2 2 2 2
left_child=1 2 -1 4 -3 8 7 -6 9 -2 -11 12 -10 -14
right_child=5 3 -4 -5 6 -7 -8 -9 11 10 -12 -13 13 -15
leaf_value=0.092306423019189829 -0.15160349096671205 -0.126155309678118 -0.091215157950950698 -0.032430774301609365 -0.098611891831544118 -0.070304324982677691 0.22316914402104882 0.12240560836962769 0.040264574859378663 -0.077630377461873179 0.094724379409133128 0.0023450712506222007 -0.047742212497434502 0.10181745364998299
leaf_weight=2.438622146844863 4.5338583290576926 1.5897545590996767 43.705708064138889 17.473175570368767 2.194262780249117 9.6627118363976461 2.5823741555213928 4.8993935734033585 107.64369764924049 4.7401193082332593 3.7077136635780334 367.89516994357109 26.056893303990364 6.2953653633594504
leaf_count=11 21 10 560 89 11 61 11 21 472 21 16 1681 112 28
internal_value=0 -0.0476623 -0.0815165 0.00669525 0.0673795 0.00605141 0.0991769 0.0540388 0.00746788 -0.0542391 -0.0019847 0.00904511 0.0266521 -0.0186397
internal_weight=0 74.8833 46.1443 28.739 11.2658 530.536 9.67603 7.09366 520.873 12.9817 8.44783 507.891 139.996 32.3523
internal_count=3125 713 571 142 53 2412 43 32 2351 58 37 2293 612 140
shrinkage=0.1


Tree=17
num_leaves=15
num_cat=0
split_feature=19 47 49 62 33 30 33 83 17 32 32 29 29 77
split_gain=16.281 13.2326 6.89523 5.52863 5.50761 5.28253 5.08759 7.67692 4.75668 7.07267 4.49361 4.47084 13.1967 10.029
threshold=0.31500000000000006 0.65500000000000014 2.3750000000000004 6.2346456734019613 6708048.1900000004 1.7750000000000001 5398134.1300000008 11.777593913004546 10.545000000000002 13.720000000000002 20.210000000000004 0.53500000000000014 5.0850000000000009 14.904482893006696
decision_type=2 2 2 2 2 2 2 2 2 2 2 2 2 2
left_child=1 2 -1 5 6 -2 7 -3 -6 -10 -11 13 -13 -5
right_child=3 4 -4 11 8 -7 -8 -9 9 10 -12 12 -14 -15
leaf_value=-0.094978223926229705 0.023271486057326429 -0.10270384443108782 0.058364938592000808 -0.074187543008245802 -0.1400681860320816 0.21330776374609195 0.17621375338330789 0.094565484123588034 0.10168887128862497 -0.091797092257979107 0.064141335979323241 0.03646079432340129 -0.0022327819793438774 0.0070162211577936839
leaf_weight=37.383993770927191 3.6121017783880225 3.1363764256238955 3.1819686889648429 22.557364396750927 3.1799210757017162 2.4582203924655914 2.8332752585411063 5.3171003237366676 4.3290987014770499 7.2375252544879896 2.4815539866685867 119.10443352162838 339.06932363659143 46.689168348908424
leaf_count=546 15 18 15 101 16 10 12 23 20 40 13 535 1555 206
internal_value=0 -0.0462558 -0.0829501 0.00533861 0.00594638 0.100228 0.0602439 0.0213754 -0.0296259 -0.0046264 -0.0519816 0.00424648 0.0078258 -0.0194363
internal_weight=0 69.0808 40.566 533.491 28.5149 6.07032 11.2868 8.45348 17.2281 14.0482 9.71908 527.42 458.174 69.2465
internal_count=3125 703 561 2422 142 25 53 41 89 73 53 2397 2090 307
shrinkage=0.1


Tree=18
num_leaves=15
num_cat=0
split_feature=49 11 65 82 64 42 32 61 69 78 56 3 73 66
split_gain=14.1125 8.96271 9.73814 7.21481 9.43722 6.18784 5.57775 7.79144 5.75646 5.40981 5.33511 7.28706 16.8714 7.29567
threshold=0.78500000000000014 0.88500000000000012 0.72616777568490465 1.6054001565392262 1.9634788912211694 26.795000000000005 5.5050000000000008 35.251749384094225 24.361740799804444 3.1558747199342245 34.220000000000006 94.00500000000001 26.640994483506137 2.1716262958137706
decision_type=2 2 2 2 2 2 2 2 2 2 2 2 2 2
left_child=1 2 -1 4 6 9 7 8 -3 -4 -2 -12 13 -13
right_child=10 3 5 -5 -6 -7 -8 -9 -10 -11 11 12 -14 -15
leaf_value=0.33498965208417597 0.0097273106479689453 0.012504198681248122 0.13330653525259326 -0.11057103747896789 0.19011562683384128 -0.12616688441015073 -0.081111267446732638 -0.073816956195803932 0.21550555237999852 -0.0075681311682629804 -0.054314955890927635 0.099486323639175672 0.21525176711043503 -0.061881677322772992
leaf_weight=0.83695692196488281 450.24066818505526 3.8425240777432936 2.9316705390810958 19.96945409476757 1.7719577364623535 4.1177822500467292 18.91943196952343 6.1194269731640816 2.1947268173098564 38.845123145729303 31.236072532832623 3.7084248363971737 3.7187035977840415 11.459616497159002
leaf_count=6 1996 22 22 283 15 43 181 63 12 230 160 16 17 59
internal_value=0 -0.0349453 -0.00304569 -0.0631692 -0.034352 -0.00921028 -0.0471511 0.00570107 0.0863014 0.00231769 0.00628203 -0.024666 0.0243692 -0.0224289
internal_weight=0 99.5491 46.7315 52.8175 32.8481 45.8946 31.0761 12.1567 6.03725 41.7768 500.363 50.1228 18.8867 15.168
internal_count=3125 877 301 576 293 295 278 97 34 252 2248 252 92 75
shrinkage=0.1


Tree=19
num_leaves=15
num_cat=0
split_feature=30 17 62 17 52 47 18 49 54 58 63 32 14 29
split_gain=12.3457 10.4643 6.34626 6.25856 6.58268 5.42427 4.72177 12.8981 7.30874 6.90161 6.46594 6.31615 11.2795 11.1924
threshold=0.18500000000000003 10.365 10.191844458506838 11.650000000000002 99.88000000000001 1.155 13.860000000000001 5.2650000000000006 11.055000000000001 -3.0549999999999997 12.685467548333376 17.185000000000006 4.9750000000000005 18.815000000000001
decision_type=2 2 2 2 2 2 2 2 2 2 2 2 2 2
left_child=1 2 -1 5 -5 -3 9 -8 -9 -2 -11 13 -13 -10
right_child=6 3 -4 4 -6 -7 7 8 11 10 -12 12 -14 -15
leaf_value=0.073954814423450019 0.26840671187115123 -0.021474945961751063 -0.077487752990185191 -0.065544172172940923 0.086872498832599607 0.14806361164293297 0.041164659996079787 -0.069495751367765257 -0.028651142643924439 -0.1463410414661602 -0.002485463520555948 -0.12137275919741922 0.070164440791887592 0.10174845207971839
leaf_weight=2.9568374305963507 0.93333767354488273 2.986016198992731 43.117037940770388 10.45270188897848 3.8874287754297248 5.1280137449502945 104.63922476768494 16.440991461277008 57.706839829683304 3.1560520231723777 312.35893386974931 3.5549865067005184 22.75116802752018 7.4296703338623038
leaf_count=13 4 16 594 60 17 23 438 70 270 15 1459 15 98 33
internal_value=0 -0.0404889 -0.0677688 0.0154869 -0.0242259 0.0856723 0.00462141 0.0161502 -0.00811192 -0.00312121 -0.00392443 0.00292462 0.0442803 -0.0137774
internal_weight=0 68.528 46.0739 22.4542 14.3401 8.11403 528.971 212.523 107.884 316.448 315.515 91.4427 26.3062 65.1365
internal_count=3125 723 607 116 77 39 2402 924 486 1478 1474 416 113 303
shrinkage=0.1


Tree=20
num_leaves=15
num_cat=0
split_feature=49 45 3 3 18 64 11 67 13 42 46 21 14 14
split_gain=10.5557 7.91888 6.81137 9.27546 9.89599 11.459 6.38147 5.27225 5.16218 8.39369 8.33391 6.89582 6.81357 7.72272
threshold=0.78500000000000014 7.2950000000000008 208.17500000000004 90.77500000000002 7.7250000000000005 0.84524771709134594 0.87500000000000011 0.57393309564034267 1.6100000000000003 5.0850000000000009 5.660000000000001 0.18500000000000003 3.3050000000000002 4.0650000000000004
decision_type=2 2 2 2 2 2 2 2 2 2 2 2 2 2
left_child=1 2 3 6 5 -5 -1 -7 11 -10 -11 -2 -12 -14
right_child=8 -3 -4 4 -6 7 -8 -9 9 10 12 -13 13 -15
leaf_value=0.00034900088352903127 0.021371991967736814 -0.072836525557131937 -0.13014327344217114 0.28085062989996651 0.25190363599817589 0.083057999824416737 -0.084321656038579329 -0.1207825378836736 -0.15024941727696728 0.088591522706638712 -0.089259637767307609 -0.1408438722531396 0.18270490314109111 -0.0022882221870274256
leaf_weight=38.436868384480476 175.12660353630781 30.762844190001488 4.4689674153923979 1.3841952905058841 2.6699341088533401 2.0689640268683434 11.583984985947607 3.2811273075640202 3.7886565178632727 10.15971767157316 8.9855321049690229 2.6604003086686125 2.2739034295082083 296.97954486310482
leaf_count=229 759 377 42 8 12 11 156 42 18 44 42 15 10 1360
internal_value=0 -0.0311522 -0.0110826 -0.00212885 0.0889876 0.0243965 -0.0192593 -0.0419542 0.00526583 -0.00228229 -0.000521618 0.0189446 -0.00345883 -0.000882536
internal_weight=0 94.6569 63.894 59.4251 9.40422 6.73429 50.0209 5.35009 499.974 322.187 318.399 177.787 308.239 299.253
internal_count=3125 877 500 458 73 61 385 53 2248 1474 1456 774 1412 1370
shrinkage=0.1


Tree=21
num_leaves=15
num_cat=0
split_feature=23 44 60 67 15 62 8 81 58 66 14 49 53 81
split_gain=9.70902 7.97509 6.92703 7.9285 6.78743 6.51107 5.51435 6.22432 6.23008 8.62473 7.22313 9.7737 7.06408 6.54885
threshold=343.76000000000005 27.945000000000004 2.6987645270012499 0.52294221511248928 43.205000000000005 10.2135700209419 7.7950000000000008 2.314771553070869 0.025000000000000005 2.9593816271766333 28.785000000000004 3.9750000000000005 9.8750000000000018 3.2732248827883152
decision_type=2 2 2 2 2 2 2 2 2 2 2 2 2 2
left_child=1 2 4 -4 5 -1 7 -2 9 12 -10 -12 -9 -13
right_child=6 -3 3 -5 -6 -7 -8 8 10 -11 11 13 -14 -15
leaf_value=0.07327931629854588 -0.085584878082872906 -0.10369969989232704 0.19562965229277868 -0.0066397411281992466 0.082863311107331972 -0.10663111905763777 -0.0011557613485664812 0.049072283872242779 0.0036592832546860072 0.032670349831548644 0.15572344135719907 -0.085286535413748948 0.23855686863820247 0.12127068370710765
leaf_weight=2.2749885916709962 5.0564991831779471 12.924734916537998 2.0146720781922332 50.853608723729849 2.7156899757683268 17.374293349683285 379.54616672545671 3.4513586163520831 78.840146861970425 18.21093375980854 7.8763562440872175 4.1702176034450531 4.5761073529720306 2.4289150238037109
leaf_count=12 22 231 10 370 23 211 1731 15 337 81 33 19 19 11
internal_value=0 -0.0311341 -0.0186676 0.00106822 -0.0653209 -0.0858011 0.00483676 0.0230891 0.0276855 0.0707355 0.0155807 0.0805103 0.157089 -0.00925989
internal_weight=0 88.158 75.2333 52.8683 22.365 19.6493 504.157 124.611 119.554 26.2384 93.3156 14.4755 8.02747 6.59913
internal_count=3125 857 626 380 246 223 2268 537 515 115 400 63 34 30
shrinkage=0.1


Tree=22
num_leaves=15
num_cat=0
split_feature=19 51 60 43 60 70 3 21 11 14 85 74 67 13
split_gain=8.75372 8.15818 5.96427 5.67968 6.85309 5.86282 5.33577 5.45684 9.76784 8.12982 7.33532 6.41361 5.03221 5.50952
threshold=1.175 1.2950000000000002 2.6059903879878901 15.055000000000001 2.6576279243882754 2.8196658164530279 180.44000000000003 0.10500000000000002 1.2850000000000004 2.8600000000000008 1.3812937532250398 5.4411932179642735 0.44876187635649939 3.0250000000000004
decision_type=2 2 2 2 2 2 2 2 2 2 2 2 2 2
left_child=1 2 12 5 -5 -4 7 10 9 -9 -7 -11 -1 -14
right_child=-2 -3 3 4 -6 6 -8 8 -10 11 -12 -13 13 -15
leaf_value=0.087391493531089159 0.0072836234793811558 -0.067376865835068397 0.13302559214754428 0.081770162962093246 -0.11773556417442553 0.28392382272900452 -0.05326445605893923 -0.12824049391823841 -0.047970036292449635 0.092461171771785339 -0.0020084959783563472 0.27252533539944285 -0.033550539041213627 -0.13237173542773714
leaf_weight=2.5229011476039913 419.19360592961311 29.520649928599596 3.6392292603850356 2.2381620556116086 7.4625935778021812 0.90923656523227592 14.041089653968809 1.0886659696698178 4.6826376393437377 5.0971969775855523 67.814239237457514 3.2325871512293816 21.173142928630117 7.6910939700901499
leaf_count=12 1856 330 17 14 79 4 96 7 32 28 394 17 181 58
internal_value=0 -0.0195566 -0.00958654 0.00136643 -0.0717055 0.00841935 0.00373792 0.0134014 0.0700667 0.128752 0.00177449 0.16234 -0.0480443 -0.0598822
internal_weight=0 171.113 141.593 110.206 9.70076 100.505 96.8657 82.8246 14.1011 9.41845 68.7235 8.32978 31.3871 28.8642
internal_count=3125 1269 939 688 93 595 578 482 84 52 398 45 251 239
shrinkage=0.1


Tree=23
num_leaves=15
num_cat=0
split_feature=23 44 49 74 84 54 84 29 74 51 21 51 43 18
split_gain=7.51305 6.49566 9.12973 8.21428 10.2477 6.5976 8.11269 6.36532 6.348 6.2573 6.0433 8.96079 6.0208 5.92927
threshold=1758.8550000000002 19.780000000000005 2.1850000000000005 5.0358289163775813 2.6903167780451116 7.785000000000001 2.7719141153133333 15.725000000000001 5.5775490200243878 0.76500000000000012 0.10500000000000002 0.63500000000000012 17.605000000000004 9.6250000000000018
decision_type=2 2 2 2 2 2 2 2 2 2 2 2 2 2
left_child=1 2 7 4 13 8 -7 -1 12 10 -3 -12 -5 -4
right_child=-2 9 3 5 -6 6 -8 -9 -10 -11 11 -13 -14 -15
leaf_value=-0.010333577881461194 0.0083616582541315206 -0.033831277799593072 -0.042882618733652553 0.11834322193013654 -0.13190718672256341 0.003490284065987061 0.15548058333260478 -0.093877214111347043 -0.12057831347916846 -0.059113318213643753 0.0090364935697860253 0.23119231990272679 -0.063444632831631861 0.10813118026297797
leaf_weight=90.604821272194386 365.00949492305517 19.088985159993175 4.907500281929968 5.157974988222124 5.4646320044994345 5.0554756522178677 11.501298010349272 10.140701267868279 2.8133695125579834 50.517491295933723 7.583395838737486 2.3871970996260643 2.816876620054245 5.5294397473335266
leaf_count=616 1608 144 24 22 26 23 48 102 13 409 42 12 12 24
internal_value=0 -0.0149167 -0.00224513 0.0361872 -0.0209643 0.0694218 0.109072 -0.0187428 0.00857086 -0.0378455 -0.000873234 0.0622259 0.0541321 0.0371238
internal_weight=0 223.569 143.992 43.2466 15.9016 27.345 16.5568 100.746 10.7882 79.5771 29.0596 9.97059 7.97485 10.4369
internal_count=3125 1517 910 192 74 118 71 718 47 607 198 54 34 48
shrinkage=0.1


Tree=24
num_leaves=15
num_cat=0
split_feature=50 52 45 84 52 27 29 29 18 77 67 58 68 13
split_gain=6.71293 9.02351 5.31322 6.51511 4.30112 4.40561 4.25044 9.43952 9.35075 8.50585 7.98289 8.54494 10.5719 10.3451
threshold=0.18500000000000003 67.815000000000012 2.2650000000000001 2.8526584961767942 69.060000000000016 6086184.4500000011 0.53500000000000014 5.0850000000000009 122.50500000000001 14.904482893006696 0.77432671297800859 0.15500000000000003 1.6349408603661284 1.9900000000000002
decision_type=2 2 2 2 2 2 2 2 2 2 2 2 2 2
left_child=1 -1 3 -3 -5 -6 9 -8 10 -2 11 -9 13 -13
right_child=6 2 -4 4 5 -7 7 8 -10 -11 -12 12 -14 -15
leaf_value=-0.10022489435753941 -0.07113900346149464 0.20202971816212859 -0.067390416681410603 0.24066050158560862 -0.031716279848500915 0.047365113096071082 0.031002150462888317 -0.099423160402371299 0.16186600035049567 0.0041553051095544512 0.0048411163890815026 0.062655727010458795 -0.10277233312326191 -0.031369203713001372
leaf_weight=14.669820822775362 22.079518292099237 1.67824101820588 12.022581223398445 0.72592958807945152 21.262392949312929 10.535078175365923 118.19687238335609 15.076698988676069 3.4543913304805747 46.8160863481462 259.37395449355245 18.934393629431725 11.265040874481199 30.633724436163902
leaf_count=277 103 11 241 3 141 50 529 70 14 210 1196 83 53 144
internal_value=0 -0.0318931 -0.0102072 0.00989392 -2.04855e-05 -0.00551518 0.0031791 0.0066702 -0.00182001 -0.0199749 -0.00350645 -0.032029 -0.0153262 0.00454713
internal_weight=0 60.894 46.2242 34.2016 32.5234 31.7975 525.831 456.935 338.738 68.8956 335.284 75.9099 60.8332 49.5681
internal_count=3125 723 446 205 194 191 2402 2089 1560 313 1546 350 280 227
shrinkage=0.1


Tree=25
num_leaves=15
num_cat=0
split_feature=19 41 59 81 21 8 53 62 51 9 9 57 13 43
split_gain=6.02942 11.0144 6.06881 5.89422 4.69887 9.41639 7.75673 9.31624 7.52739 6.14488 5.72842 6.3494 7.22181 5.62486
threshold=1.175 15.165000000000001 2.0521845693838019 3.0766654666501001 0.065000000000000016 9.6250000000000018 1.3950000000000002 10.210695285817126 0.78500000000000014 79.475000000000009 95.215000000000018 199.50000000000003 8.6750000000000025 2.8500000000000001
decision_type=2 2 2 2 2 2 2 2 2 2 2 2 2 2
left_child=1 3 -3 -1 6 9 7 -5 10 -6 11 -7 -13 -9
right_child=-2 2 -4 4 5 8 -8 13 -10 -11 -12 12 -14 -15
leaf_value=-0.14078907485941369 0.0059355866501980339 0.57779224433464982 -0.066785183569614964 0.1763856623779872 -0.046781236110123185 -0.058630014447664539 -0.050012176378207401 0.012373637960127068 -0.043129997452482118 0.14235315557397518 -0.096626041474315902 0.13192931110181205 -0.032104927260734613 -0.12837687501946687
leaf_weight=3.0158438272774211 419.12685164064169 0.14664078503847022 37.357883159071207 3.2758030742406836 2.1287765465676776 3.4502073600888314 34.549074506387115 32.987073929980397 19.456261340528727 8.8978114426135999 2.553279109299182 11.078015044331549 3.5421523079276076 3.1067046336829653
leaf_count=21 1856 4 412 14 13 18 281 226 112 45 14 53 18 38
internal_value=0 -0.0166049 -0.0642649 -0.00264474 0.000687566 0.0240027 -0.0154322 0.0149137 0.0014882 0.105839 0.0435808 0.0633915 0.0921873 0.0002588
internal_weight=0 165.546 37.5045 128.041 125.025 51.1065 73.9187 39.3696 40.0799 11.0266 20.6237 18.0704 14.6202 36.0938
internal_count=3125 1269 416 853 832 273 559 278 215 58 103 89 71 264
shrinkage=0.1


Tree=26
num_leaves=15
num_cat=0
split_feature=30 28 62 70 19 32 17 60 31 34 34 71 18 59
split_gain=5.28464 7.49079 5.05486 4.8478 4.26759 3.95055 5.64483 8.45095 4.7701 4.16403 4.33812 3.8328 5.46308 5.00994
threshold=0.18500000000000003 7.1100000000000003 10.228796416986233 3.0407452251126572 -1.0000000180025095e-35 13.945000000000002 10.545000000000002 13.71641537912353 2.3150000000000004 1415296.0850000002 311190.60000000003 0.490134362946198 7.6650000000000009 2.1284938155973907
decision_type=2 2 2 2 2 2 2 2 2 2 2 2 2 2
left_child=1 2 3 -1 -4 6 8 -8 -3 10 -7 12 -2 -13
right_child=11 5 4 -5 -6 9 7 -9 -10 -11 -12 13 -14 -15
leaf_value=-0.038915078457485541 -0.14473411255745514 0.10314588273103019 0.10054126834750073 0.16430538329377548 -0.090680406657984824 0.095208784038980435 -0.025765541379945307 0.17243417845961775 -0.070627212475856405 0.082352711880480961 -0.10308974860147678 0.031324080419276194 -0.0049389907790658794 0.00048356330102761387
leaf_weight=3.7612341120839146 4.2098085135221472 2.1833179593086305 1.2261691391468108 1.7063888646662233 24.226953638717529 1.3107575923204402 3.5795223861932737 5.3917043134570122 5.713298037648201 2.226745903491973 6.9677661135792732 59.612166989594698 8.3206975311040861 452.50540589168668
leaf_count=33 21 10 9 9 526 8 17 24 32 11 44 261 37 2083
internal_value=0 -0.0290011 -0.0627291 0.0245079 -0.0814686 0.009098 0.0390786 0.0933524 -0.0225811 -0.0390405 -0.0716927 0.00273652 -0.0519052 0.0040735
internal_weight=0 58.2939 30.9207 5.46762 25.4531 27.3731 16.8678 8.97123 7.89662 10.5053 8.27852 524.648 12.5305 512.118
internal_count=3125 723 577 42 535 146 83 41 42 63 52 2402 58 2344
shrinkage=0.1


end of trees

feature_importances:
Column_49=24
Column_18=21
Column_62=18
Column_19=14
Column_23=14
Column_58=12
Column_29=11
Column_13=10
Column_54=10
Column_51=9
Column_3=8
Column_21=8
Column_60=8
Column_71=8
Column_0=7
Column_32=7
Column_74=7
Column_84=7
Column_11=6
Column_14=6
Column_24=6
Column_41=6
Column_47=6
Column_56=6
Column_67=6
Column_8=5
Column_17=5
Column_25=5
Column_30=5
Column_33=5
Column_42=5
Column_50=5
Column_52=5
Column_76=5
Column_81=5
Column_28=4
Column_34=4
Column_44=4
Column_57=4
Column_61=4
Column_64=4
Column_68=4
Column_70=4
Column_1=3
Column_15=3
Column_43=3
Column_45=3
Column_46=3
Column_63=3
Column_66=3
Column_77=3
Column_7=2
Column_9=2
Column_53=2
Column_59=2
Column_65=2
Column_73=2
Column_78=2
Column_82=2
Column_83=2
Column_85=2
Column_10=1
Column_12=1
Column_27=1
Column_31=1
Column_35=1
Column_69=1
Column_75=1

parameters:
[boosting: gbdt]
[objective: binary]
[metric: binary_logloss]
[tree_learner: serial]
[device_type: cpu]
[data: ]
[valid: ]
[num_iterations: 10000]
[learning_rate: 0.1]
[num_leaves: 15]
[num_threads: 0]
[force_col_wise: 0]
[force_row_wise: 0]
[histogram_pool_size: -1]
[max_depth: -1]
[min_data_in_leaf: 10]
[min_sum_hessian_in_leaf: 0.001]
[bagging_fraction: 0.8]
[pos_bagging_fraction: 1]
[neg_bagging_fraction: 1]
[bagging_freq: 0]
[bagging_seed: 10961]
[feature_fraction: 0.8]
[feature_fraction_bynode: 1]
[feature_fraction_seed: 53]
[extra_trees: 0]
[extra_seed: 11644]
[early_stopping_round: 50]
[first_metric_only: 0]
[max_delta_step: 0]
[lambda_l1: 0]
[lambda_l2: 0]
[min_gain_to_split: 0]
[drop_rate: 0.1]
[max_drop: 50]
[skip_drop: 0.5]
[xgboost_dart_mode: 0]
[uniform_drop: 0]
[drop_seed: 30626]
[top_rate: 0.2]
[other_rate: 0.1]
[min_data_per_group: 100]
[max_cat_threshold: 32]
[cat_l2: 10]
[cat_smooth: 10]
[max_cat_to_onehot: 4]
[top_k: 20]
[monotone_constraints: ]
[monotone_constraints_method: basic]
[monotone_penalty: 0]
[feature_contri: ]
[forcedsplits_filename: ]
[refit_decay_rate: 0.9]
[cegb_tradeoff: 1]
[cegb_penalty_split: 0]
[cegb_penalty_feature_lazy: ]
[cegb_penalty_feature_coupled: ]
[path_smooth: 0]
[interaction_constraints: ]
[verbosity: -1]
[saved_feature_importance_type: 0]
[max_bin: 255]
[max_bin_by_feature: ]
[min_data_in_bin: 3]
[bin_construct_sample_cnt: 200000]
[data_random_seed: 4071]
[is_enable_sparse: 1]
[enable_bundle: 1]
[use_missing: 1]
[zero_as_missing: 0]
[feature_pre_filter: 1]
[pre_partition: 0]
[two_round: 0]
[header: 0]
[label_column: ]
[weight_column: ]
[group_column: ]
[ignore_column: ]
[categorical_feature: ]
[forcedbins_filename: ]
[objective_seed: 602]
[num_class: 1]
[is_unbalance: 0]
[scale_pos_weight: 1]
[sigmoid: 1]
[boost_from_average: 1]
[reg_sqrt: 0]
[alpha: 0.9]
[fair_c: 1]
[poisson_max_delta_step: 0.7]
[tweedie_variance_power: 1.5]
[lambdarank_truncation_level: 20]
[lambdarank_norm: 1]
[label_gain: ]
[eval_at: ]
[multi_error_top_k: 1]
[auc_mu_weights: ]
[num_machines: 1]
[local_listen_port: 12400]
[time_out: 120]
[machine_list_filename: ]
[machines: ]
[gpu_platform_id: -1]
[gpu_device_id: -1]
[gpu_use_dp: 0]

end of parameters

pandas_categorical:null
