tree
version=v3
num_class=1
num_tree_per_iteration=1
label_index=0
max_feature_idx=58
objective=binary sigmoid:1
feature_names=Column_0 Column_1 Column_2 Column_3 Column_4 Column_5 Column_6 Column_7 Column_8 Column_9 Column_10 Column_11 Column_12 Column_13 Column_14 Column_15 Column_16 Column_17 Column_18 Column_19 Column_20 Column_21 Column_22 Column_23 Column_24 Column_25 Column_26 Column_27 Column_28 Column_29 Column_30 Column_31 Column_32 Column_33 Column_34 Column_35 Column_36 Column_37 Column_38 Column_39 Column_40 Column_41 Column_42 Column_43 Column_44 Column_45 Column_46 Column_47 Column_48 Column_49 Column_50 Column_51 Column_52 Column_53 Column_54 Column_55 Column_56 Column_57 Column_58
feature_infos=[0:1] [0:1] [0:1] [0:1] [0:1] [0:1] [0:0.63259234121673757] [0:1] [0.0048403742429264469:0.79436225027872365] [0:0.30826267023976989] [0:0.89692722371967648] [0:0.60700712589073635] [0:1] [0:0.50814353550001423] [0:1] [0:1] [0:1] [0:1] [0:1] [0:1] [0:0.88297788031418412] [0:0.29370400654129192] [0:1] [0:0.6433689782239228] [0:0.79913836121014803] [0:1] [0:0.29253904403218506] [0:0.94555049191697438] [0:1] [0:0.91478088211578767] [0:1] [0:1] [0:0.83537102376599626] [0:0.73059819077620924] [0:0.85262682364582376] [0.0059419582893115493:0.60780116101916304] [0:1] [0:1] [0:1] [0:1] [0:1] [0:0.043585184571175953] [0:0.7170045703452177] [0:0.045930914252639121] [0:0.53406024943117869] [0:0.76545095833333343] [0:0.53955774036618609] [0:1] [0:0.98710232158211519] [0:1] [0:1] [0:0.94908267102428889] [0:0.88297788031418412] [0:0.9984853346780046] [0:1] [0:1] [0:1] [0:0.79830039372850981] [-104.73999999999999:696.33000000000004]
tree_sizes=1696 1699 1700 1702 1709 1709 1704 1703 1715 1704 1697 1698 1714 1701 1701 1707 1715 1698 1716 1683 1713 1712 1709 1708 1716 1697 1708 1726 1698 1713 1703 1712 1686 1695 1720 1695 1705 1705 1698 1720 1704 1701 1720 1705 1715 1697 1700 1708 1707 1701 1695 1699 1697 1709 1709 1700 1694 1718 1709 1702 1724 1700 1701 1711 1709 1693 1702 1707 1707 1707 1697 1714 1691 1708 1705 1708 1710

Tree=0
num_leaves=15
num_cat=0
split_feature=23 57 47 30 23 23 32 58 15 0 35 0 58 32
split_gain=225.45 42.7639 38.7994 19.9686 19.3811 15.5751 14.1535 13.5449 13.1538 11.758 10.7608 10.5104 11.9968 10.2772
threshold=0.003667419793217309 0.00027495783590369971 0.055778894472361819 4.6212353121247091e-05 0.0068788773125917392 0.0061820685803225962 0.81587653107861069 0.38500000000000006 0.17853809305765914 0.20611998389477923 0.017944820379562184 0.13311636022010473 0.60500000000000009 0.81585939213893977
decision_type=2 2 2 2 2 2 2 2 2 2 2 2 2 2
left_child=2 4 3 -1 -2 13 -4 -5 -7 -6 -10 12 -12 -3
right_child=1 5 6 7 9 8 -8 -9 10 -11 11 -13 -14 -15
leaf_value=-0.97976545583532559 -0.7999580808204737 -0.87693777032972664 -0.76627639835159012 -0.95105043229673547 -0.72922356820237788 -0.78737978049060153 -0.90658283511653015 -0.82036162556054515 -0.63573474320073409 -0.83750424075482754 -0.7290149470567987 -0.87856895810507707 -0.98069549708353898 -0.8101879349110741
leaf_weight=107.52211600542068 108.99790975451469 80.957828521728516 15.3904205262661 16.866214275360111 97.824042797088623 100.35397493839264 13.492971420288084 14.968765169382094 2.3191044628620139 11.173866957426069 10.330556243658064 44.062984794378281 2.3191044628620139 32.256634801626205
leaf_count=510 517 384 73 80 464 476 64 71 11 53 49 209 11 153
internal_value=-0.837413 -0.803156 -0.937305 -0.959168 -0.770141 -0.829558 -0.831821 -0.889601 -0.809413 -0.740324 -0.846869 -0.855503 -0.775156 -0.85792
internal_weight=0 490.596 168.24 139.357 217.996 272.6 28.8834 31.835 159.386 108.998 59.0317 56.7126 12.6497 113.214
internal_count=3125 2327 798 661 1034 1293 137 151 756 517 280 269 60 537
shrinkage=1


Tree=1
num_leaves=15
num_cat=0
split_feature=23 25 57 30 19 23 21 0 58 56 49 15 33 48
split_gain=188.611 36.1109 33.1486 16.8044 15.6477 12.5202 11.7469 14.8819 11.7272 11.3735 16.5046 10.3991 10.2559 14.1555
threshold=0.003667419793217309 0.58333333333333348 0.00027495783590369971 4.6212353121247091e-05 0.00034054010779551353 0.0061820685803225962 0.1555600981193786 0.16081733995436856 0.38500000000000006 0.13788184476921708 0.60618365627632687 0.17853809305765914 0.399036646799311 0.052450558899398113
decision_type=2 2 2 2 2 2 2 2 2 2 2 2 2 2
left_child=1 3 4 -1 -2 -4 7 9 -5 10 -6 -7 13 -3
right_child=2 12 5 8 6 11 -8 -9 -10 -11 -12 -13 -14 -15
leaf_value=-0.13149771851714726 0.029341283339967286 -0.039903354574344234 -0.018637306188713947 -0.10754123336602946 0.10649811583277105 0.04412191196857141 0.018111462713007516 0.013663016587083375 0.01523789506887855 0.15412354515280113 -0.061111681342079449 -0.0086616359364757901 -0.046571614639345602 0.18495950231112104
leaf_weight=108.2139276266098 99.406889170408249 4.8315721154212969 112.27595727145672 16.081171035766605 37.447031334042549 102.30693435668945 23.026930645108223 17.597209990024567 15.0692121386528 39.169515237212181 6.968189448118209 58.763766348361969 10.432130873203276 6.6566402614116669
leaf_count=543 462 23 537 80 172 476 106 82 71 180 32 280 50 31
internal_value=0 -0.0941012 0.0303561 -0.112867 0.0589107 0.00699649 0.0825756 0.0972464 -0.048146 0.114843 0.0802022 0.0248648 0.0252082 0.0903894
internal_weight=0 161.285 496.962 139.364 223.616 273.347 124.209 101.182 31.1504 83.5847 44.4152 161.071 21.9203 11.4882
internal_count=3125 798 2327 694 1034 1293 572 466 151 384 204 756 104 54
shrinkage=0.1


Tree=2
num_leaves=15
num_cat=0
split_feature=23 24 0 30 30 3 13 33 23 19 58 11 1 8
split_gain=158.479 36.6736 27.9451 19.5573 17.8499 12.358 12.1501 10.9812 10.742 14.6747 10.182 9.99848 9.79704 9.60645
threshold=0.003667419793217309 0.0039875913829053441 0.16735337538585429 0.00017631337273647777 4.6212353121247091e-05 0.00079823958169975408 4.9048878273479492e-05 0.399036646799311 0.0078409800422868017 0.0002828513773478726 0.38500000000000006 0.002072446555819478 0.12070268057166483 0.015460214089854464
decision_type=2 2 2 2 2 2 2 2 2 2 2 2 2 2
left_child=1 4 3 8 -1 -5 -4 -3 9 12 -6 -12 -2 -14
right_child=2 7 6 5 10 -7 -8 -9 -10 -11 11 -13 13 -15
leaf_value=-0.13220988986667315 0.0047786527205848093 0.090076976053824642 0.035987261342290168 0.071480015655792886 -0.1020115704730703 -0.11869309353445434 -0.020885731797649087 -0.039150586750566103 0.056048125204347779 -0.073100653026467163 -0.031940159643973016 0.15837947392253857 0.28711545410494727 0.058684520734870453
leaf_weight=97.03028878569603 65.028043568134308 11.733819961547853 53.007986024022102 168.99206358194351 15.29855251312256 3.4875458776950827 128.92591404914856 14.958417505025862 49.484508499503136 21.968103766441345 11.528593271970747 3.6293719559907904 2.3220271468162528 8.8868647962808591
leaf_count=519 306 54 248 764 80 16 612 74 226 102 54 17 11 42
internal_value=0 -0.0889296 0.0269807 0.0447645 -0.111246 0.0676347 -0.0043153 0.0176574 0.0180554 -0.00108879 -0.044458 0.0136293 0.0196618 0.106006
internal_weight=0 154.179 502.103 320.169 127.487 172.48 181.934 26.6922 147.69 98.205 30.4565 15.158 76.2369 11.2089
internal_count=3125 798 2327 1467 670 780 860 128 687 461 151 71 359 53
shrinkage=0.1


Tree=3
num_leaves=15
num_cat=0
split_feature=19 24 18 13 52 29 41 52 56 0 43 52 19 58
split_gain=135 39.4481 19.6932 15.0008 11.2145 10.7622 9.77539 11.0451 10.0073 8.95637 12.9977 11.368 11.1067 8.70586
threshold=0.00017865846623325558 0.0039875913829053441 0.99770759608045845 0.00040518638573743931 0.8252380449203387 0.00046917835832930178 0.036419436615826709 0.82012859122022241 0.13956365342183977 0.16735337538585429 0.038764298117471958 0.82303884446949171 0.0002010275657945858 1.3950000000000002
decision_type=2 2 2 2 2 2 2 2 2 2 2 2 2 2
left_child=1 -1 9 6 -3 -5 8 -8 13 -2 11 -11 -13 -4
right_child=2 4 3 5 -6 -7 7 -9 -10 10 -12 12 -14 -15
leaf_value=-0.12063862907010453 0.016016279391266198 -0.016924252436568005 0.054495745735906723 -0.032877840914281302 0.14385383049618414 0.14388057189987447 0.032511288584284745 0.10250313014218092 -0.03381999291268506 -0.0054387585766967365 -0.046835469004448751 0.22111193512872826 -0.050148951348735087 -0.034076044545460593
leaf_weight=101.7247371673584 168.85173723101616 21.344372764229778 100.70111304521561 35.576495617628098 5.445109322667121 3.8138705790042868 36.694879934191704 58.474332481622696 18.929415673017502 17.595404490828518 64.480973020195961 5.2206195145845404 2.1233287155628204 12.471789374947546
leaf_count=574 779 103 462 167 25 18 164 258 89 85 308 25 10 58
internal_value=0 -0.0922067 0.0221457 0.0412075 0.0157548 -0.0157637 0.0510816 0.075516 0.0334786 0.00246462 -0.0231249 0.0381791 0.142683 0.044735
internal_weight=0 128.514 524.934 266.662 26.7895 39.3904 227.272 95.1692 132.102 258.272 89.4203 24.9394 7.34395 113.173
internal_count=3125 702 2423 1216 128 185 1031 422 609 1207 428 120 35 520
shrinkage=0.1


Tree=4
num_leaves=15
num_cat=0
split_feature=19 24 19 58 13 51 19 48 22 49 41 49 49 29
split_gain=114.549 35.7438 16.5592 16.0036 11.6627 10.7474 9.4937 9.17048 9.7297 8.83728 8.11077 7.9239 7.87931 8.32885
threshold=0.00017865846623325558 0.0039875913829053441 0.00023693585719566844 0.38500000000000006 0.00028576302994114138 0.00039924236797147746 0.00036879581250456222 0.37274290627687018 0.60389610389610404 0.59428812131423758 0.036410484361184804 0.61026116259477681 0.5908845829823085 0.00011802531849701662
decision_type=2 2 2 2 2 2 2 2 2 2 2 2 2 2
left_child=1 9 3 -2 5 -4 11 8 -3 -1 -5 12 -7 -14
right_child=2 7 4 10 -6 6 -8 -9 -10 -11 -12 -13 13 -15
leaf_value=-0.12402375417793964 -0.056136011652430019 0.2154017111375989 -0.09726134426736803 0.034808001683763988 -0.0050882171877308612 -0.07954526618765724 0.061454039211966342 -0.13653803105596637 0.013407217523879203 0.0072790908141388243 -0.032752042363824473 -0.028699702092419704 0.06547804427133308 0.018001274910819376
leaf_weight=89.69287633895874 48.869370654225349 2.6954268068075242 5.7183644771575919 61.878576874732971 75.748557388782501 5.8646373450756064 131.86119313538074 3.5152220875024787 20.680721670389175 5.4366037398576728 24.928554266691208 22.99707368016243 65.276951104402542 85.15172865986824
leaf_count=547 237 12 26 292 353 27 577 18 98 27 117 107 298 389
internal_value=0 -0.0877437 0.0197549 -0.0103623 0.0301624 0.0385892 0.0410859 0.0140532 0.0366985 -0.11652 0.0154067 0.0261059 0.03417 0.0386033
internal_weight=0 122.021 528.295 135.677 392.619 316.87 311.152 26.8914 23.3761 95.1295 86.8071 179.29 156.293 150.429
internal_count=3125 702 2423 646 1777 1424 1398 128 110 574 409 821 714 687
shrinkage=0.1


Tree=5
num_leaves=15
num_cat=0
split_feature=23 24 57 30 49 9 19 58 9 23 53 58 29 14
split_gain=99.6988 26.9593 17.6561 14.189 10.4428 9.76898 8.50799 8.14652 9.08374 7.9852 9.98311 14.1953 8.72179 9.05301
threshold=0.003667419793217309 0.0039875913829053441 0.00027495783590369971 4.6212353121247091e-05 0.59165964616680722 0.17349917876256415 0.00034760403397277577 0.38500000000000006 0.18486683379568872 0.0061820685803225962 0.97231867947160533 0.52500000000000013 3.0438638929204973e-05 0.81452018515171287
decision_type=2 2 2 2 2 2 2 2 2 2 2 2 2 2
left_child=1 3 4 -1 -2 6 -6 -5 -9 -4 11 -11 -12 -14
right_child=2 -3 9 7 5 -7 -8 8 -10 10 12 -13 13 -15
leaf_value=-0.12157559458568071 -0.030800750009352163 0.01251559960057683 -0.018088809073346441 -0.094818235999711203 -0.036398184834531867 0.060443169994399221 0.039338188426521994 -0.026007217493113917 0.17335653647102858 0.11670505979061246 0.097916302335260538 0.013676171731157385 0.07549922772565576 -0.020812657649207894
leaf_weight=78.41926620900631 19.222830444574356 26.913129463791847 111.72298973798752 14.127051159739496 22.061776012182236 148.49222746491432 45.265891924500465 12.457279413938521 2.7989587336778632 20.511344194412231 8.1042534261941892 38.425179451704025 10.990873515605925 87.120167627930641
leaf_count=519 87 128 537 80 100 650 197 58 13 92 37 174 49 404
internal_value=0 -0.0770163 0.01967 -0.0993681 0.0398265 0.0461172 0.0145211 -0.0400998 0.0105687 0.00255888 0.0165268 0.0495327 -0.00178751 -0.0100233
internal_weight=0 134.716 511.918 107.803 235.043 215.82 67.3277 29.3833 15.2562 276.875 165.152 58.9365 106.215 98.111
internal_count=3125 798 2327 670 1034 947 297 151 71 1293 756 266 490 453
shrinkage=0.1


Tree=6
num_leaves=15
num_cat=0
split_feature=23 24 57 21 58 23 18 52 9 52 30 23 53 12
split_gain=84.4909 24.377 14.0578 13.9415 9.42729 9.17385 8.08204 7.81369 10.2999 7.78258 7.22233 7.83284 7.86761 7.81132
threshold=0.003667419793217309 0.0039875913829053441 0.00027495783590369971 0.15515126737530666 0.38500000000000006 0.0068788773125917392 0.99775433615369347 0.82143842532257882 0.17893742092151485 0.8252380449203387 5.9163585843125255e-05 0.0062917396917725596 0.97378368363550238 0.12142646610581251
decision_type=2 2 2 2 2 2 2 2 2 2 2 2 2 2
left_child=1 3 5 -1 -5 10 7 -4 -9 -3 -2 13 -13 -12
right_child=2 9 6 4 -6 -7 -8 8 -10 -11 11 12 -14 -15
leaf_value=-0.11834779325416007 -0.11937048819089061 -0.016710804790490193 -0.020141511404299543 -0.096179036888518324 0.021059415838940842 0.054720356100132587 0.1850545836963266 0.12206909215226201 0.0085805572734915982 0.11430597406268102 0.034614273928456896 -0.087097904933946022 0.08724134562439384 -0.15351536776773686
leaf_weight=73.70218400657177 3.8448942601680747 21.275322079658512 108.80187951028347 13.123114109039308 14.368406385183333 121.00874571502209 2.3981873989105216 8.4257504194974882 157.1721675246954 5.7617336809635153 95.547051012516022 11.471439868211744 3.3428337424993506 2.2592239379882804
leaf_count=521 18 103 518 80 69 517 11 38 726 25 424 50 15 10
internal_value=0 -0.0731415 0.0175882 -0.0956786 -0.0349045 0.0354381 0.00227426 0.000676801 0.0143549 0.0112095 0.0154037 0.0200049 -0.0477583 0.0302687
internal_weight=0 128.231 514.272 101.194 27.4915 237.474 276.798 274.4 165.598 27.0371 116.465 112.621 14.8143 97.8063
internal_count=3125 798 2327 670 149 1034 1293 1282 764 128 517 499 65 434
shrinkage=0.1


Tree=7
num_leaves=15
num_cat=0
split_feature=49 49 18 0 11 13 49 8 18 58 9 3 43 11
split_gain=72.635 19.9937 19.5218 14.1073 13.2051 11.0114 9.72449 9.0269 11.9058 8.47081 8.43209 11.2195 8.22503 8.14118
threshold=0.59165964616680722 0.58625105307497904 0.99769971966229642 0.16735337538585429 0.0019418052256532068 5.6583923341579238e-05 0.59978096040438078 0.014735438575345769 0.99770958421016365 1.2050000000000003 0.17824781723734159 0.00041169855576151515 0.038777852043769476 0.0012648456057007128
decision_type=2 2 2 2 2 2 2 2 2 2 2 2 2 2
left_child=1 -1 -3 4 7 12 13 10 -9 -6 -2 -12 -5 -7
right_child=3 2 -4 5 9 6 -8 8 -10 -11 11 -13 -14 -15
leaf_value=0.0014556997569982223 0.014086839762436019 -0.11764386814794994 -0.028355279512928006 0.040711581968768285 0.045329686009045356 0.028531278224088293 -0.002848143890311287 -0.026328585258135195 0.043810945183983714 0.13685598805950969 0.131046991898012 -0.086899561713310966 -0.1043512043070972 -0.086626572416625858
leaf_weight=35.276070281863213 30.660237148404121 67.888370379805565 38.301437735557556 56.337816298007965 137.22777843475342 7.6894257366657248 87.013006016612053 78.534813642501831 34.980272501707077 10.916297182440756 16.093868359923366 2.7682424932718268 4.2000301778316489 30.447656229138374
leaf_count=176 134 517 182 259 597 38 414 355 152 48 69 12 19 153
internal_value=0 -0.0637705 -0.0854385 0.0174472 0.0304634 -0.00436587 -0.0213025 0.010827 -0.00471472 0.052074 0.0464518 0.0990607 0.0306473 -0.0634078
internal_weight=0 141.466 106.19 496.869 311.182 185.688 125.15 163.037 113.515 148.144 49.5223 18.8621 60.5378 38.1371
internal_count=3125 875 699 2250 1367 883 605 722 507 645 215 81 278 191
shrinkage=0.1


Tree=8
num_leaves=15
num_cat=0
split_feature=19 24 23 13 48 38 51 11 19 9 18 45 5 57
split_gain=62.6009 25.98 12.4979 12.7884 7.69765 7.70545 7.45777 7.31545 10.1493 7.05701 8.38427 9.98262 9.20366 10.2248
threshold=0.00017865846623325558 0.0039875913829053441 0.0068503747731330092 0.00040518638573743931 0.37274290627687018 0.56092436974789928 0.0010677412166679048 0.0010154394299287412 0.00023693585719566844 0.16086430328416387 0.99770274466347475 0.74385547916666672 0.00043375614022954698 0.0011150541134746052
decision_type=2 2 2 2 2 2 2 2 2 2 2 2 2 2
left_child=1 -1 9 6 5 -3 7 8 -4 -2 11 -11 13 -12
right_child=2 4 3 -5 -6 -7 -8 -9 -10 10 12 -13 -14 -15
leaf_value=-0.10506090771123139 -0.04949713123942507 0.20019000954234178 0.17170805219281493 -0.020863590893940909 -0.13278005647418248 0.01078708661518186 0.046768985692049181 -0.056471291885092548 0.0056062687392197455 -0.042177218484847623 0.026118816052927697 0.067626038848298639 -0.019809118811441505 0.22165677680455032
leaf_weight=71.924976699054241 28.504048928618431 2.3883009105920854 4.3013172298669842 44.582408785820007 3.3173433393239966 21.343854621052742 180.95874361693859 14.763378217816351 25.411096155643463 58.131155431270599 113.95842605829239 9.6548433452844602 52.197530835866928 2.7384492307901374
leaf_count=574 134 10 19 209 18 100 778 67 110 286 516 45 246 13
internal_value=0 -0.0736415 0.01293 0.0280739 0.00990314 0.0298478 0.0377519 0.00106407 0.029652 -0.00248994 0.00317126 -0.0265378 0.015095 0.0307074
internal_weight=0 98.9745 535.201 270.017 27.0495 23.7322 225.435 44.4758 29.7124 265.184 236.68 67.786 168.894 116.697
internal_count=3125 702 2423 1183 128 110 974 196 129 1240 1106 331 775 529
shrinkage=0.1


Tree=9
num_leaves=15
num_cat=0
split_feature=49 49 0 43 50 49 19 20 35 14 11 23 14 20
split_gain=54.1957 23.2569 10.392 8.13187 10.1232 14.4754 10.032 9.22703 13.3607 9.09006 8.0366 9.84878 10.6541 7.5327
threshold=0.5908845829823085 0.58899747262005064 0.16735337538585429 0.038760273972602746 0.00013441788925011076 0.60470092670598163 0.00028402869837741625 0.82314451175842118 0.018012904836655103 0.81480309948368146 0.0019299287410926367 0.0048495944500011887 0.82524342420646468 0.82417476782548471
decision_type=2 2 2 2 2 2 2 2 2 2 2 2 2 2
left_child=1 -1 10 7 13 6 -6 8 9 -4 -2 12 -12 -5
right_child=2 -3 3 4 5 -7 -8 -9 -10 -11 11 -13 -14 -15
leaf_value=-4.6425352581556152e-05 0.0085353081682147322 -0.098673068075059212 -0.031126680039044587 -0.056082648332126339 0.041378668046682207 -0.0095353522928426707 0.22350413381744791 0.14155591860308278 -0.059504514892030062 0.17053007114016605 0.013813034904831776 0.052737982049670999 -0.15149671647372698 0.04167437695043881
leaf_weight=36.061178162693977 175.0927025899291 70.950340986251831 3.4922504350543075 60.846305526793003 9.0153457522392255 77.116249397397041 4.5513054132461539 7.1260000318288794 12.121636144816874 6.2106633931398392 29.800910152494907 124.04076506197453 4.4855222254991522 9.0554157868027669
leaf_count=182 777 575 17 306 42 357 21 33 60 29 137 525 21 43
internal_value=0 -0.0654375 0.0126703 -0.00602662 -0.0148214 0.0072224 0.102478 0.042757 0.0104978 0.0979502 0.0232986 0.0396253 -0.00781361 -0.0434187
internal_weight=0 107.012 522.955 189.535 160.585 90.6829 13.5667 28.9506 21.8245 9.70291 333.42 158.327 34.2864 69.9017
internal_count=3125 757 2368 908 769 420 63 139 106 46 1460 683 158 349
shrinkage=0.1


Tree=10
num_leaves=15
num_cat=0
split_feature=19 24 23 13 41 33 25 35 20 53 21 41 43 32
split_gain=47.4781 22.6401 8.52574 9.96996 7.21201 6.77496 7.7884 6.50433 5.93248 9.15846 7.18661 6.04163 7.12925 6.94276
threshold=0.00017865846623325558 0.0039875913829053441 0.0068503747731330092 0.00040518638573743931 0.036394127155172422 0.399036646799311 0.58333333333333348 0.017827030800992256 0.82309241191457405 0.97149927036298489 0.1573589533932952 0.036400744639699389 0.038762403186240739 0.81583274680073148
decision_type=2 2 2 2 2 2 2 2 2 2 2 2 2 2
left_child=1 -1 8 4 -4 6 -3 -6 -2 -10 11 -11 -13 -14
right_child=2 5 3 -5 7 -7 -8 -9 9 10 -12 12 13 -15
leaf_value=-0.10063920028971306 -0.012557400446588594 -0.10202171853378489 0.13411172117896158 -0.020267905206138678 -0.12379998532954001 -0.037137047974779097 0.10169246265682171 0.030374189832021881 -0.051228080371909984 0.17445354858665479 -0.10721468213282459 -0.15077310823598664 0.18981448010272528 0.033433628314029649
leaf_weight=63.015709280967712 177.94341498613358 2.3097096681594875 6.6532337069511405 44.402025520801544 2.771102473139762 14.631371408700941 10.011790335178373 218.50222493708134 15.105786710977553 3.2629225105047217 3.4037825316190711 2.00210416316986 2.9823423177003852 59.066191762685776
leaf_count=574 844 11 28 209 12 74 43 934 70 14 18 9 14 271
internal_value=0 -0.0678318 0.0106718 0.0230828 0.0315279 0.00887168 0.0635055 0.0284434 -0.00214216 0.0194525 0.0345505 0.041719 0.0349571 0.04095
internal_weight=0 89.9686 536.095 272.329 227.927 26.9529 12.3215 221.273 263.767 85.8231 70.7173 67.3136 64.0506 62.0485
internal_count=3125 702 2423 1183 974 128 54 946 1240 396 326 308 294 285
shrinkage=0.1


Tree=11
num_leaves=15
num_cat=0
split_feature=23 17 30 17 39 0 8 0 1 46 46 56 18 23
split_gain=41.3542 14.8604 12.4984 7.89202 8.81924 7.80908 8.05622 7.70923 8.30396 8.65238 7.4158 7.02287 6.99339 6.97864
threshold=0.0037490536128457559 0.41003937007874025 4.6212353121247091e-05 0.45984251968503947 0.99951434357734137 0.13718963897463429 0.014920846265103807 0.12813045228828349 0.12262103917294299 0.01165575083945755 0.010622161021201547 0.13927980604973714 0.99773402203414674 0.0078409800422868017
decision_type=2 2 2 2 2 2 2 2 2 2 2 2 2 2
left_child=1 2 -1 -3 -5 -4 -7 8 9 13 12 -10 -9 -2
right_child=7 3 5 4 -6 6 -8 10 11 -11 -12 -13 -14 -15
leaf_value=-0.10340905128830827 0.01109972764957089 0.091449286378976147 -0.085358730621236611 0.070766154778096266 -0.098375636778739561 0.051368329115547444 -0.085049911093145483 0.018957178380007801 -0.073065621467090877 0.22179918336509996 -0.0099191431629063482 0.039465907293407362 0.1398677012897836 0.04725024709012899
leaf_weight=55.016865901648998 110.55414232611656 8.8037777617573756 13.745238058269022 5.1043443530797941 7.7832603082060814 14.858827620744707 6.10870337486267 64.92488919198513 15.034063071012499 2.3425135165452948 200.61659480631351 8.7873244285583478 5.1641418039798728 103.29257136583328
leaf_count=541 489 41 78 24 42 77 35 292 67 10 940 39 22 428
internal_value=0 -0.0558078 -0.0737637 0.0184696 -0.0313843 -0.0267783 0.0116241 0.0114325 0.0244806 0.030655 -0.000136146 -0.0315546 0.0278658 0.0285612
internal_weight=0 111.421 89.7296 21.6914 12.8876 34.7128 20.9675 510.716 240.011 216.189 270.706 23.8214 70.089 213.847
internal_count=3125 838 731 107 66 190 112 2287 1033 927 1254 106 314 917
shrinkage=0.1


Tree=12
num_leaves=15
num_cat=0
split_feature=49 49 18 52 52 23 35 51 42 8 12 3 0 23
split_gain=35.4365 13.1266 15.8506 7.92554 11.7114 10.0637 11.8325 9.85417 9.72269 8.21025 7.97615 7.86492 7.83026 8.90452
threshold=0.59165964616680722 0.58625105307497904 0.99769971966229642 0.82309828231951465 0.8225934274946286 0.0053021579674206384 0.018040069263508818 0.00084490826710242905 0.0027279657980806261 0.014655305541326427 0.11822752517657047 0.0004976909912130066 0.18304925513353915 0.0053936550369579998
decision_type=2 2 2 2 2 2 2 2 2 2 2 2 2 2
left_child=1 -1 -3 4 5 6 9 -5 -9 -2 -10 -12 13 -7
right_child=3 2 -4 7 -6 12 -8 8 10 -11 11 -13 -14 -15
leaf_value=0.0022560097121584288 -0.029728183023044391 -0.11007188601411111 -0.022377000408572458 -0.042539006331058629 -0.054704000151785462 0.22341474206427017 -0.048114991984511912 0.083363688382296117 -0.044344435877532701 0.065357260608283521 0.055056738897247132 -0.013404977600036422 -0.0078688722671191851 0.029444463770234183
leaf_weight=34.159986563026905 15.86083762347698 46.641697064042091 36.93061950057745 16.509462863206863 32.169171869754791 2.403646081686019 55.952186591923237 36.454957485198975 14.974059671163557 21.243598282337189 57.517535865306854 23.692306071519852 69.73672915995121 153.90640576183796
leaf_count=176 76 517 182 73 147 11 278 154 65 98 256 107 331 654
internal_value=0 -0.0499716 -0.0713195 0.0110043 0.00280392 0.00860136 -0.0190769 0.0303177 0.0393862 0.0247116 0.0227181 0.0350836 0.0199956 0.0324272
internal_weight=0 117.732 83.5723 500.421 351.273 319.103 93.0566 149.148 132.639 37.1044 96.1839 81.2098 226.047 156.31
internal_count=3125 875 699 2250 1595 1448 452 655 582 174 428 363 996 665
shrinkage=0.1


Tree=13
num_leaves=15
num_cat=0
split_feature=23 25 21 42 53 47 57 21 0 49 46 53 53 3
split_gain=30.6605 12.194 11.0523 7.14392 6.90628 5.76362 5.46031 7.69282 5.45146 7.23016 7.4552 6.95734 7.12787 8.43217
threshold=0.0037490536128457559 0.58333333333333348 0.15515126737530666 0.0028777499938801494 0.97123950430524042 0.15477386934673371 0.00037493649095688108 0.15621422730989373 0.16735337538585429 0.74668913226621747 0.010635075752714974 0.97451714073972207 0.97407210036138048 0.00040224530527521577
decision_type=2 2 2 2 2 2 2 2 2 2 2 2 2 2
left_child=1 2 -1 6 5 -3 7 -4 11 10 -10 12 -2 -14
right_child=8 4 3 -5 -6 -7 -8 -9 9 -11 -12 -13 13 -15
leaf_value=-0.098089338500514378 0.016084817707835954 0.01802597558888288 0.015062920986060518 -0.10544654538317558 -0.065171697741050333 0.16066425050699784 0.081518806263659593 -0.13044386611272826 0.026017073464775515 0.18223400112288046 -0.020005830436685763 0.067418812317770152 0.074726182995409327 -0.10281517295693871
leaf_weight=48.88357438147068 296.09917640686035 10.520114392042162 13.277634181082254 7.9708343297243109 6.9123330265283576 3.8767800480127326 6.5730262845754615 5.0023524090647689 49.011385723948479 2.0420347601175299 124.87929730117321 25.209629729390144 3.6054094582796088 10.367376059293745
leaf_count=545 1281 50 71 51 37 17 35 32 221 9 610 106 15 45
internal_value=0 -0.0503816 -0.0679517 -0.0230685 0.0169883 0.0564355 0.00335167 -0.0247553 0.00941825 -0.00483738 -0.0070342 0.0168986 0.0127912 -0.057004
internal_weight=0 103.017 81.7074 32.8238 21.3092 14.3969 24.853 18.28 511.214 175.933 173.891 335.282 310.072 13.9728
internal_count=3125 838 734 189 104 67 138 103 2287 840 831 1447 1341 60
shrinkage=0.1


Tree=14
num_leaves=15
num_cat=0
split_feature=30 24 21 14 30 52 43 0 53 0 41 23 9 53
split_gain=26.6556 19.4327 5.9917 6.32955 8.46062 5.80125 8.70441 6.7256 6.71648 6.29483 7.30189 6.21446 5.85187 7.3659
threshold=4.503496832834908e-05 0.0039875913829053441 0.1555600981193786 0.83092135767444419 0.00068523794946664484 0.82309828231951465 0.038764125850996395 0.21191115286538723 0.97202262256755834 0.076828613608911564 0.03643528956675509 0.041757096931534149 0.18584131649469146 0.97234924018428115
decision_type=2 2 2 2 2 2 2 2 2 2 2 2 2 2
left_child=1 -1 3 -2 -5 -4 8 9 -7 -8 11 12 13 -11
right_child=2 -3 5 4 -6 6 7 -9 -10 10 -12 -13 -14 -15
leaf_value=-0.098977723336145393 0.020881599358284944 0.0098186496252935483 -0.017401698622334344 -0.04935381836684926 0.067966950954933478 0.027085224310594527 -0.048283443176406288 -0.080100616469088615 0.21505925011540278 0.10512407389635406 0.11373444452115176 -0.12475652893736798 -0.074663526428447619 0.0066998905133065657
leaf_weight=44.160120420157909 279.94265393912792 26.132772609591484 145.50882412493229 28.09405317902565 7.8684173822402945 3.9337483197450629 12.137073852121828 8.1456260457634908 3.678197979927063 11.494546934962271 8.9732990711927396 2.9829060435295096 5.1205585002899161 22.462841726839542
leaf_count=543 1227 128 701 130 33 19 55 41 16 52 39 13 24 104
internal_value=0 -0.0585305 0.00693236 0.0158082 -0.0236846 -0.00556076 0.0162685 0.0054192 0.117917 0.0164466 0.0318408 0.0143696 0.0249894 0.0400164
internal_weight=0 70.2929 540.343 315.905 35.9625 224.438 78.9288 71.3169 7.61195 63.1712 51.0342 42.0609 39.0779 33.9574
internal_count=3125 671 2454 1390 163 1064 363 328 35 287 232 193 180 156
shrinkage=0.1


Tree=15
num_leaves=15
num_cat=0
split_feature=23 42 52 32 7 23 49 23 11 0 1 1 42 1
split_gain=22.9712 11.0726 9.02277 6.65805 5.65656 5.38831 7.71993 6.34964 5.19631 5.51092 6.28308 7.99993 7.06719 7.7965
threshold=0.0037490536128457559 0.0028777499938801494 0.81422223004942895 0.81587653107861069 0.10141168907954555 0.13558088949197175 0.59513058129738849 0.11500011665472336 0.00044536817102137769 0.12813045228828349 0.12262103917294299 0.12097378578563675 0.0034921694986361188 0.12152706173251823
decision_type=2 2 2 2 2 2 2 2 2 2 2 2 2 2
left_child=1 2 -1 -4 -5 7 -7 8 -2 10 11 -10 13 -13
right_child=5 -3 3 4 -6 6 -8 -9 9 -11 -12 12 -14 -15
leaf_value=-0.099785819634952824 -0.072671480620430787 -0.10570932507055696 0.013134294265848324 -0.083439357748673795 0.068933451759876058 -0.030254106167067397 0.16979356269886833 -0.11659059280871918 0.020537616898540299 -0.0010212795539244787 -0.029860131759033251 0.12907763812962217 0.1872825842139576 -0.073507692272973282
leaf_weight=13.591404020786284 7.9455937892198554 23.177593633532524 40.692932315170765 15.457549422979357 2.8921905755996695 3.2317066341638547 4.7857837080955505 4.1543507128953925 192.74957217276096 263.01384930312634 22.587553054094315 4.2729212790727598 5.5219186544418335 3.4203392416238785
leaf_count=165 35 285 256 117 15 15 21 18 819 1222 101 18 23 15
internal_value=0 -0.0455294 -0.0263259 -0.00941567 -0.0594231 0.00782292 0.0891579 0.00652821 0.00755217 0.00884889 0.0202073 0.0256981 0.100965 0.0390104
internal_weight=0 95.8117 72.6341 59.0427 18.3497 511.684 8.01749 503.666 499.512 491.566 228.552 205.965 13.2152 7.69326
internal_count=3125 838 553 388 132 2287 36 2251 2233 2198 976 875 56 33
shrinkage=0.1


Tree=16
num_leaves=15
num_cat=0
split_feature=49 51 23 46 23 58 20 52 51 23 1 52 43 51
split_gain=20.4721 10.1759 11.3251 8.43145 9.30435 5.71934 5.63418 9.6985 7.67155 7.23241 8.76983 7.05656 13.3624 8.76803
threshold=0.59165964616680722 0.00080776944217484975 0.0043209311111643512 0.010691176688333803 0.0050863761132812777 0.095000000000000015 0.82309241191457405 0.8225934274946286 0.00084490826710242905 0.0053021579674206384 0.11796849143780323 0.82338519836098301 0.038772153468757758 0.0028318354007279213
decision_type=2 2 2 2 2 2 2 2 2 2 2 2 2 2
left_child=1 -1 -3 5 -5 -4 7 9 -8 10 -2 12 -10 -14
right_child=6 2 3 4 -6 -7 8 -9 11 -11 -12 -13 13 -15
leaf_value=-0.00089491469830810678 0.014358873714220559 -0.094251273388567272 0.088700742920391915 0.21494340513522858 -0.018122618431971962 -0.079331709115856783 -0.040713777261222391 -0.052513303496351797 0.18696072385984105 0.015623598692120926 -0.047489137863860574 0.022154191686779293 -0.035688128596339568 0.14537068721773458
leaf_weight=39.424507237970829 44.318322025239468 43.775197185575962 2.4608725607395199 3.0801665037870398 3.8587328642606735 11.452840879559515 16.339357756078243 31.033159419894218 7.9826369285583523 227.07261967658997 47.498190119862556 113.89685086905956 8.5222393721342069 3.8979586064815512
leaf_count=234 207 543 11 15 18 54 73 145 35 996 245 496 37 16
internal_value=0 -0.0409343 -0.0653593 -0.00470738 0.085335 -0.0496124 0.00781473 0.000853763 0.0239845 0.00604726 -0.0176361 0.0318559 0.0860148 0.0211354
internal_weight=0 104.052 64.6278 20.8526 6.9389 13.9137 500.561 349.922 150.639 318.889 91.8165 134.3 20.4028 12.4202
internal_count=3125 875 641 98 33 65 2250 1593 657 1448 452 584 88 53
shrinkage=0.1


Tree=17
num_leaves=15
num_cat=0
split_feature=19 24 49 13 48 22 23 56 23 21 11 38 10 36
split_gain=17.6095 15.0954 6.11448 5.41171 5.29727 5.22998 4.97488 7.42908 5.17376 4.78873 4.22111 4.187 6.27966 4.22668
threshold=0.00017865846623325558 0.0039875913829053441 0.59428812131423758 3.0566692257385772e-05 0.37274290627687018 0.60389610389610404 0.13558088949197175 0.13817347589009765 0.11500011665472336 0.15793131643499594 0.00033847980997624708 0.58621525533290253 0.28938005390835581 0.23305084745762716
decision_type=2 2 2 2 2 2 2 2 2 2 2 2 2 2
left_child=1 2 -1 -4 5 -3 8 -8 9 10 -2 -7 13 -13
right_child=6 4 3 -5 -6 11 7 -9 -10 -11 -12 12 -14 -15
leaf_value=-0.10290663151894158 -0.098402812638297657 0.15269886019839168 0.089239547448052292 -0.12678062703383539 -0.12306581481083452 0.11706268752412022 -0.050052311011202472 0.1545966577398773 -0.1085689117511919 -0.13131152674632349 0.0065768084669426729 0.10624057643241676 -0.064040040410653004 -0.054213653021938972
leaf_weight=34.838250122964382 3.8587241023778907 2.8308322727680268 3.337636984884738 1.7772162109613416 2.6837008446454993 2.9893397241830852 2.7007298469543448 5.1685786694288254 4.0329977720975867 2.5597762390971175 517.37967801839113 5.313358053565028 9.8082054406404477 2.3757762908935547
leaf_count=547 18 12 16 11 18 13 12 22 18 16 2337 24 49 12
internal_value=0 -0.0493227 -0.0879169 0.0141808 0.00998069 0.0252935 0.00543751 0.0843616 0.00426085 0.00512959 0.00579965 0.00768875 -0.0109973 0.0566637
internal_weight=0 65.9543 39.9531 5.11485 26.0012 23.3175 535.7 7.86931 527.831 523.798 521.238 20.4867 17.4973 7.68913
internal_count=3125 702 574 27 128 110 2423 34 2389 2371 2355 98 85 36
shrinkage=0.1


Tree=18
num_leaves=15
num_cat=0
split_feature=30 24 18 48 22 21 3 9 13 8 54 18 13 11
split_gain=15.2394 13.4848 4.596 4.59308 4.22599 4.22555 12.2101 7.54721 5.97163 7.80826 8.65523 10.8913 7.45917 7.02279
threshold=4.7389737914145108e-05 0.0039875913829053441 0.99769988137619603 0.37274290627687018 0.60389610389610404 0.15621422730989373 0.00040884699565861543 0.18085888075946782 6.966362421450711e-05 0.016089413776478743 0.94360918350964207 0.99770115606222698 7.5350450680997487e-05 0.0071199524940617582
decision_type=2 2 2 2 2 2 2 2 2 2 2 2 2 2
left_child=1 2 -1 4 -3 8 -7 -8 9 10 -2 -12 -10 -14
right_child=5 3 -4 -5 -6 6 7 -9 12 -11 11 -13 13 -15
leaf_value=-0.10226152024728863 0.0067558336685835472 0.13715589742479545 -0.014369287506271115 -0.12041984815019223 0.0068612997269782748 -0.096250989679202481 -0.075490590771877225 0.042013734187672569 -0.064928683417536062 -0.1572627545227287 0.25334152150199779 0.040212915718356987 -0.0021763171236311839 0.084377561914653176
leaf_weight=30.288591422140598 158.43806011974812 2.8359261155128541 7.403783753514289 2.4789096787571898 20.365493804216385 15.502414453774689 7.2339163124561336 22.367619752883911 18.230306893587112 2.496427819132804 2.4705669730901709 81.301519364118576 217.69958383589983 9.7960804104804975
leaf_count=522 694 12 45 18 98 85 39 113 83 11 12 350 1002 41
internal_value=0 -0.0469217 -0.0849972 0.00896359 0.0227873 0.00493655 -0.0243541 0.0132985 0.00763035 0.0186879 0.0205014 0.0464984 -0.00338134 0.00155074
internal_weight=0 63.3727 37.6924 25.6803 23.2014 535.536 45.104 29.6015 490.433 244.707 242.21 83.7721 245.726 227.496
internal_count=3125 695 567 128 110 2430 237 152 2193 1067 1056 362 1126 1043
shrinkage=0.1


Tree=19
num_leaves=15
num_cat=0
split_feature=49 11 58 23 11 17 17 38 58 14 43 18 29 58
split_gain=13.3 8.74733 5.11649 6.3517 9.11349 7.4378 5.18111 6.17409 4.98067 7.04771 8.60112 6.22746 12.3696 8.53328
threshold=0.59165964616680722 0.0013242280285035632 1.8950000000000002 0.0039121204610171175 0.00074228028503562954 0.41003937007874025 0.45984251968503947 0.67170329670329687 1.0050000000000001 0.82311370798525707 0.038765338606984383 0.99770981726843055 0.0010328979196903728 0.115
decision_type=2 2 2 2 2 2 2 2 2 2 2 2 2 2
left_child=1 2 3 5 -5 -1 -7 -8 11 -10 -11 -2 -13 -14
right_child=8 -3 -4 4 -6 6 7 -9 9 10 -12 12 13 -15
leaf_value=-0.076058358696144301 -0.01004509345105079 -0.067253673674039602 -0.11472191051835523 -0.046736346638965004 0.12888031589978755 0.076774165819976342 0.046647026809358026 -0.099316874144119688 0.01933241064120644 -0.012617065681174303 0.21427702894198106 0.0072396110464668824 0.0027545934991006979 0.16023275299802497
leaf_weight=13.87176078557968 221.14314279705286 44.354155443608761 4.0238492265343657 4.7126993983983976 7.9226645231246948 8.7888658121228236 5.9015880823135358 5.6937066540122032 79.762708194553852 2.7719670832157126 4.2055174857378006 178.16495078802109 5.4396572262048712 9.3646717816591245
leaf_count=158 1026 491 59 22 38 41 30 36 359 13 18 772 23 39
internal_value=0 -0.0347885 -0.00650686 0.00277932 0.0633794 -0.0195731 0.018866 -0.0250265 0.00597407 0.0277631 0.124138 0.00141013 0.0145378 0.102369
internal_weight=0 95.2693 50.9151 46.8913 12.6354 34.2559 20.3842 11.5953 500.853 86.7402 6.97748 414.112 192.969 14.8043
internal_count=3125 875 384 325 60 265 107 66 2250 390 31 1860 834 62
shrinkage=0.1


Tree=20
num_leaves=15
num_cat=0
split_feature=19 24 49 23 56 23 21 51 41 58 14 30 58 44
split_gain=11.8213 11.9557 5.22528 4.01693 5.75561 4.25817 3.9132 3.82976 7.04144 7.32401 8.72616 7.73045 7.0766 6.86819
threshold=0.00017865846623325558 0.0039875913829053441 0.59823083403538335 0.13558088949197175 0.13817347589009765 0.11500011665472336 0.15793131643499594 0.0023676000891331805 0.036408992318744483 1.0050000000000001 0.82317264847108385 0.00076353403819436289 0.79500000000000015 0.0049170967764580907
decision_type=2 2 2 2 2 2 2 2 2 2 2 2 2 2
left_child=1 2 -1 5 -5 6 7 8 -2 11 13 12 -10 -11
right_child=3 -3 -4 4 -6 -7 -8 -9 9 10 -12 -13 -14 -15
leaf_value=-0.094101088939311878 0.017377624316321953 0.0084542046683448151 0.060751865972197894 -0.045186460423288083 0.13526103106560247 -0.10107151724884018 -0.12674650585083874 0.015482860049328903 -0.021646834583262477 0.026754399224683596 0.19803517520278738 0.072421162740649872 -0.099836644240752545 -0.095526005482428539
leaf_weight=30.558443509042263 117.35373616218567 25.216726832091808 2.3463829010725012 2.6591172069311133 5.2724029719829559 3.8975178003311148 2.2847075536847106 195.42083372175694 143.34391999989748 36.831139490008354 2.6669192612171164 8.0687139928340894 12.591899305582045 5.247815713286399
leaf_count=562 546 128 12 12 22 18 16 866 651 165 11 34 58 24
internal_value=0 -0.0433548 -0.0830588 0.00412778 0.0747643 0.0030661 0.00384096 0.00441304 -0.00222065 -0.0132383 0.0226219 -0.0230221 -0.0279607 0.0115044
internal_weight=0 58.1216 32.9048 535.639 7.93152 527.707 523.81 521.525 326.104 208.75 44.7459 164.005 155.936 42.079
internal_count=3125 702 574 2423 34 2389 2371 2355 1489 943 200 743 709 189
shrinkage=0.1


Tree=21
num_leaves=15
num_cat=0
split_feature=30 47 9 21 58 19 54 58 56 23 19 54 23 9
split_gain=10.0486 13.5927 4.09826 5.08582 6.43756 7.69499 7.64518 7.79947 9.98226 8.24636 6.49005 6.34857 6.11871 5.78038
threshold=4.1502813949655035e-05 0.055778894472361819 0.17030853379647459 0.1555600981193786 0.38500000000000006 0.00032700091595576109 0.94603439356369423 1.7050000000000003 0.13877697587868149 0.025768812905275995 0.00022398532587068783 0.94245946090586374 0.0080820223944550497 0.18085888075946782
decision_type=2 2 2 2 2 2 2 2 2 2 2 2 2 2
left_child=1 -1 -2 -4 10 6 7 9 -9 11 -5 -6 -7 -13
right_child=2 -3 3 4 5 12 -8 8 -10 -11 -12 13 -14 -15
leaf_value=-0.099352638729570841 -0.014477817024739246 0.0061284843932385659 0.017786090439233435 -0.066099822745508935 -0.069927653193959452 -0.13536900977580879 0.18468350538555056 0.20716365845325427 0.012856086183430152 0.1014378720749068 -0.007010739825554931 -0.031192915344420515 -0.0074531343494604191 0.032464006679293424
leaf_weight=23.226482830941677 103.565708424896 25.772888638079166 232.36024871096015 25.606219079345465 11.844291210174559 5.612451612949374 2.8441956043243399 4.7268755584955198 5.9999169111251831 8.4519806951284391 67.819287195801735 22.079828400164843 11.205528005957602 40.302303038537502
leaf_count=509 473 137 1010 153 58 26 13 23 29 39 308 111 47 189
internal_value=0 -0.0438712 0.00341521 0.00763781 -0.00378174 0.0122681 0.0231731 0.0182551 0.0984798 0.00784664 -0.023206 -0.00281037 -0.0501409 0.00993297
internal_weight=0 48.9994 542.419 438.853 206.493 113.067 96.2494 93.4052 10.7268 82.6784 93.4255 74.2264 16.818 62.3821
internal_count=3125 646 2479 2006 996 535 462 449 52 397 461 358 73 300
shrinkage=0.1


Tree=22
num_leaves=15
num_cat=0
split_feature=30 24 18 15 18 57 30 42 9 57 18 19 30 23
split_gain=8.66026 9.73898 4.01243 3.79564 5.01882 6.87724 5.25285 4.05284 5.84416 9.56372 15.5614 8.16466 7.08618 7.54312
threshold=4.7389737914145108e-05 0.0039875913829053441 0.99769988137619603 0.18661136745212686 0.99771896837262342 0.00012598192377098237 0.00012745190383121015 0.0027230969664338695 0.17811225411994 0.00022658889010729839 0.99770274466347475 0.00024458844388770254 0.00017395860315068176 0.0044036668330914618
decision_type=2 2 2 2 2 2 2 2 2 2 2 2 2 2
left_child=1 2 -1 7 6 -6 -5 8 -2 10 -10 -12 -13 -14
right_child=3 -3 -4 4 5 -7 -8 -9 9 -11 11 12 13 -15
leaf_value=-0.098258551575127223 -0.00068808143852730876 0.0072330731824908068 -0.012678455022532393 0.047799779693099467 -0.06692666188386541 0.17367824404492363 -0.11981899964008416 -0.0018249621828265426 -0.095537053908009956 0.12022457234517592 0.13658080963398447 -0.02185493158530101 0.19303769719809996 0.03766971411924034
leaf_weight=22.332842577248815 96.274466432631016 25.303873047232628 7.2592988461256018 2.4001176916062823 2.6752585023641577 2.1368560642004013 8.458344951272009 330.00757608935237 9.823329631239174 11.412247352302073 7.6152066290378562 20.228360325098038 3.3905531167984 39.873896583914757
leaf_count=522 426 128 45 13 11 10 39 1528 52 54 33 87 14 163
internal_value=0 -0.0383162 -0.0772648 0.0033931 -0.0450951 0.0399158 -0.0827691 0.0048582 0.0165511 0.0345242 0.0224394 0.0387375 0.0270023 0.0498456
internal_weight=0 54.896 29.5921 534.296 15.6706 4.81211 10.8585 518.626 188.618 92.3436 80.9313 71.108 63.4928 43.2644
internal_count=3125 695 567 2430 73 21 52 2357 829 403 349 297 264 177
shrinkage=0.1


Tree=23
num_leaves=15
num_cat=0
split_feature=23 42 52 32 7 56 0 53 54 15 23 51 15 9
split_gain=7.62658 8.47989 6.29973 5.27667 4.33652 3.82194 3.5534 8.91623 5.59626 10.3226 6.4204 5.31768 5.20246 5.97869
threshold=0.0037490536128457559 0.0028777499938801494 0.81422223004942895 0.81587653107861069 0.10141168907954555 0.13963682066035252 0.20226815192591599 0.97157949223375895 0.9456865333499832 0.17601235133199492 0.0042347966328138134 0.010018198024214517 0.17648198372723753 0.17329092237930957
decision_type=2 2 2 2 2 2 2 2 2 2 2 2 2 2
left_child=1 2 -1 5 -5 -4 8 -8 -2 -10 -11 12 -12 -14
right_child=6 -3 3 4 -6 -7 7 -9 9 10 11 -13 13 -15
leaf_value=-0.092312652764266728 0.0037999024983605616 -0.099315986022570704 0.028939503982639558 -0.074715811205866928 0.059975095872182763 -0.090885420652138241 0.079484674309431888 -0.020176909415738752 0.13901015990156174 0.18158434106152288 -0.13628995572223671 0.13946927114640195 -0.043500596820995843 0.041742576305650626
leaf_weight=8.7916962131857854 345.14647671580315 14.333936285227535 34.286920413374901 12.765216432511805 2.9411093741655341 2.8859404921531668 9.8205022439360601 104.49898950755596 8.615142881870268 2.3015552908182135 2.6134921461343756 2.9393942505121222 13.122809723019598 22.057993218302727
leaf_count=165 1512 285 226 117 15 30 46 505 36 10 11 12 59 96
internal_value=0 -0.0300321 -0.0139288 -0.000896641 -0.0494941 0.0196368 0.00391853 -0.0116156 0.008394 0.0390934 0.0190912 0.00990998 -0.000166303 0.00994598
internal_weight=0 76.0048 61.6709 52.8792 15.7063 37.1729 511.116 114.319 396.797 51.6504 43.0352 40.7337 37.7943 35.1808
internal_count=3125 838 553 388 132 256 2287 551 1736 224 188 178 166 155
shrinkage=0.1


Tree=24
num_leaves=15
num_cat=0
split_feature=49 11 11 19 21 29 20 30 15 45 30 49 56 43
split_gain=7.2223 6.64637 4.05909 7.09247 8.32776 11.0634 6.63316 8.7622 8.13915 6.54551 6.93685 6.44822 6.38633 6.20592
threshold=0.59165964616680722 0.0013242280285035632 0.0019418052256532068 0.00022163068381160042 0.15531479967293543 0.00012407273020480569 0.82349893745670588 0.00011450067110933198 0.17658618341493199 0.74378781250000003 0.00013098405820990421 0.59182813816343727 0.13851388516998672 0.038760273972602746
decision_type=2 2 2 2 2 2 2 2 2 2 2 2 2 2
left_child=1 -1 11 -4 -5 6 7 12 -9 -7 -11 -2 -6 -13
right_child=2 -3 3 4 5 9 -8 8 -10 10 -12 13 -14 -15
leaf_value=-0.0023973660865813824 0.12566739699938595 -0.058480275156069399 -0.045247450864825442 -0.015110551824582725 0.24176618661348967 0.16690613982801755 0.11232614360864289 -0.11056481160786964 0.040412181827173571 -0.08741275896776364 0.0095634574779498525 0.032983253480823191 0.024914523062444596 -0.011420934522100298
leaf_weight=47.596144918352365 3.7932464554905883 38.003511045128107 18.305749543011189 51.036953002214432 3.5757914781570426 2.369521126151084 17.359720289707184 3.8414741754531851 50.664614975452423 8.3844728171825391 61.337178304791451 36.218376211822033 2.1897455155849457 240.29839402809739
leaf_count=384 18 491 100 218 15 10 72 17 219 41 265 167 10 1098
internal_value=0 -0.0272964 0.00414176 0.0143402 0.0197735 0.0316647 0.05786 0.0421724 0.0297716 0.00345636 -0.00209855 -0.00382842 0.159406 -0.00560484
internal_weight=0 85.5997 499.375 219.065 200.759 149.723 77.6313 60.2716 54.5061 72.0912 69.7217 280.31 5.76554 276.517
internal_count=3125 875 2250 967 867 649 333 261 236 316 306 1283 25 1265
shrinkage=0.1


Tree=25
num_leaves=15
num_cat=0
split_feature=19 17 49 25 21 58 48 48 48 19 19 58 29 9
split_gain=6.43888 6.91649 7.34601 4.50059 4.81543 5.88823 4.35873 4.09108 4.82419 3.20493 7.51026 9.35909 11.32 7.30531
threshold=0.00018454507138097406 0.41003937007874025 0.59823083403538335 0.86498708010335934 0.15564186426819299 0.84500000000000008 0.37274290627687018 0.25752364574376613 0.21625107480653485 0.00019808426322072656 0.00021574407866388197 0.56500000000000006 0.00018172472181906147 0.17973115279731547
decision_type=2 2 2 2 2 2 2 2 2 2 2 2 2 2
left_child=1 2 3 4 -1 -6 7 8 -3 13 11 -11 -13 -2
right_child=9 6 -4 -5 5 -7 -8 -9 -10 10 -12 12 -14 -15
leaf_value=-0.10238010313009471 -0.039635842150518144 0.034589787154449513 0.081505643368752018 0.087672409685992242 -0.072839689700159041 0.090429297531937569 -0.11674268438928757 0.1591987613654896 -0.13718482521676201 -0.09895822771885536 0.0047578148947235947 -0.046680445849263112 0.1102836773678825 0.069349006030957394
leaf_weight=23.795905498787761 8.9143028259277362 13.840031385421758 3.5259763598442069 1.7266490533947934 6.815325450152157 3.2681389972567558 2.2038784064352503 2.2246744036674491 1.8539713174104679 16.238850180059671 457.29324973374605 14.958416268229486 6.6314942836761466 19.837048463523388
leaf_count=542 49 67 17 9 58 19 19 11 10 93 2028 73 31 99
internal_value=0 -0.0316783 -0.0561779 -0.0698123 -0.0778385 -0.0199228 0.0159655 0.0322877 0.0142976 0.00310033 0.00121552 -0.0416056 0.0015322 0.0355585
internal_weight=0 59.2546 39.132 35.606 33.8794 10.0835 20.1226 17.9187 15.694 523.873 495.122 37.8288 21.5899 28.7514
internal_count=3125 752 645 628 619 77 107 88 77 2373 2225 197 104 148
shrinkage=0.1


Tree=26
num_leaves=15
num_cat=0
split_feature=19 24 49 8 15 46 14 49 49 18 56 41 18 0
split_gain=5.49637 7.7756 3.8968 3.57398 3.38777 4.76473 5.31709 4.51163 5.55267 6.83837 7.21306 7.14276 8.05883 8.22531
threshold=0.00017865846623325558 0.0039875913829053441 0.59428812131423758 0.014623854973332934 0.18643598910452844 0.011186872052027451 0.83353635056229225 0.69624262847514762 0.61120471777590579 0.99770981726843055 0.1396752204876571 0.036408453525641031 0.9977077768195225 0.23604885250301974
decision_type=2 2 2 2 2 2 2 2 2 2 2 2 2 2
left_child=1 2 -1 -3 7 6 -6 8 9 10 -2 -12 13 -13
right_child=4 3 -4 -5 5 -7 -8 -9 -10 -11 11 12 -14 -15
leaf_value=-0.094929055254586364 -0.0077626990823890657 0.16406360999806899 0.0040898588992345228 -0.0027807478488457017 0.032482249165418503 0.078976854224966947 -0.10484022761600478 0.096309864444285284 -0.020055243749685758 0.026359077229290345 0.13504071192823436 0.023750435149236269 0.14505256890824503 -0.11304063841317247
leaf_weight=18.573062103241686 243.99329835176468 1.3577406257391 5.0564149618148795 23.605483442544937 3.9410438090562847 2.7211422622203818 9.9090651124715787 5.2338773459196082 86.778423726558685 134.31091766059399 6.2323909103870383 29.644467994570732 4.5449953228235236 5.1610927507281295
leaf_count=547 1146 6 27 122 18 14 47 24 387 569 31 138 20 29
internal_value=0 -0.0326248 -0.0737402 0.00629386 0.00250826 -0.0419973 -0.0657652 0.00393783 0.00299109 0.00770915 -0.000941034 0.0355735 0.0198198 0.00346657
internal_weight=0 48.5927 23.6295 24.9632 532.471 16.5713 13.8501 515.899 510.666 423.887 289.576 45.5829 39.3506 34.8056
internal_count=3125 702 574 128 2423 79 65 2344 2320 1933 1364 218 187 167
shrinkage=0.1


Tree=27
num_leaves=15
num_cat=0
split_feature=23 52 44 49 49 51 30 30 32 23 30 11 23 32
split_gain=4.88806 6.89536 5.92099 5.92328 5.36625 6.30131 6.06893 5.36954 7.32463 6.29794 5.69794 5.28073 11.4867 8.86266
threshold=0.0068503747731330092 0.8133871649466381 0.0031026405634158767 0.60089300758214004 0.61418702611625953 0.0011605882789868531 0.00019220806744060098 0.0001792568347187228 0.81588069012797093 0.0065031580128092183 0.00015394306167141548 0.0026187648456057013 0.0054421632248168863 0.81590500457038406
decision_type=2 2 2 2 2 2 2 2 2 2 2 2 2 2
left_child=1 2 3 -1 7 6 -6 10 9 -9 -3 12 -10 -13
right_child=-2 4 -4 -5 5 -7 -8 8 11 -11 -12 13 -14 -15
leaf_value=-0.049278147196295294 0.0091831590954358673 -0.0036578332128811841 -0.11461436402155514 0.076776628888185053 -0.095665898171967717 -0.11131614043962541 0.13688058880744011 0.099627032924144404 0.02411681319099556 -0.075976461514932106 -0.068158878722004254 0.11575229744114444 -0.14602732982253641 -0.012922609063835792
leaf_weight=18.419074913486842 276.87514311075211 181.08588077686727 10.407262429594992 4.6735806167125693 2.0390591025352469 9.3524754196405393 2.4960121661424637 16.333154320716861 10.384311959147455 2.3342417776584616 14.816286355257033 8.2799101769924182 6.4216330498456946 15.140979059040545
leaf_count=184 1196 1200 138 21 10 43 11 69 47 10 67 35 27 67
internal_value=0 -0.00920982 -0.0519899 -0.0237667 -0.00387593 -0.0644098 0.032323 -0.000576566 0.0258996 0.0776689 -0.00853611 0.00187587 -0.0408961 0.0325674
internal_weight=0 302.184 33.4999 23.0927 268.684 13.8875 4.53507 254.796 58.8942 18.6674 195.902 40.2268 16.8059 23.4209
internal_count=3125 1929 343 205 1586 64 21 1522 255 79 1267 176 74 102
shrinkage=0.1


Tree=28
num_leaves=15
num_cat=0
split_feature=49 49 11 18 56 45 45 10 52 33 31 13 54 54
split_gain=4.38375 6.44128 3.47066 3.40626 3.6725 3.30588 3.92676 2.93268 4.75226 2.96918 5.35954 2.92783 10.0315 8.68839
threshold=0.5908845829823085 0.58899747262005064 0.00044536817102137769 0.99769988137619603 0.13785278544044607 0.74361910416666677 0.74368210416666669 0.275256064690027 0.8224334589599992 0.399036646799311 0.25905118601747817 0.00025306377775882174 0.94388479583281315 0.9463269529229178
decision_type=2 2 2 2 2 2 2 2 2 2 2 2 2 2
left_child=1 7 -2 -3 -5 -4 -7 9 -9 10 -1 -8 -13 -14
right_child=2 3 5 4 -6 6 11 8 -10 -11 -12 12 13 -15
leaf_value=0.019888485258820893 -0.069706876191299325 -0.09722552489422806 -0.11761939611633282 -0.053157321592641762 0.074840105533560464 0.12978806943866555 0.0072787808139543539 -0.07994649288133393 0.018551059272912129 -0.052926563158243935 0.19181391889453145 -0.064729819233150548 0.035275118690905556 -0.031777245150194249
leaf_weight=5.6504969596862811 6.5643464475870124 13.637971023097636 2.2447307705879203 10.756924994289873 2.8316983729600897 2.4698505550622931 402.0552882887423 7.6858513467013863 13.505920253694056 2.3175749629735938 2.6699845790863037 26.460581157356501 44.919979184865952 33.914851948618889
leaf_count=30 30 500 10 60 15 10 1817 46 83 12 11 125 210 166
internal_value=0 -0.0262104 0.00254415 -0.061919 -0.0264843 0.00347037 0.00400352 0.00433402 -0.0171721 0.0471758 0.0750582 0.00339119 -0.011453 0.0064291
internal_weight=0 59.0564 518.63 27.2266 13.5886 512.065 509.821 31.8298 21.1918 10.6381 8.32048 507.351 105.295 78.8348
internal_count=3125 757 2368 575 75 2338 2328 182 129 53 41 2318 501 376
shrinkage=0.1


Tree=29
num_leaves=15
num_cat=0
split_feature=23 5 23 52 57 49 42 52 49 41 41 19 0 43
split_gain=4.06991 4.754 5.51137 4.97258 4.89321 8.20275 6.76511 6.40262 5.91777 4.62689 5.71364 4.72783 4.54203 7.16281
threshold=0.0048495944500011887 0.00051888166244736433 0.0047939753193082706 0.82289722095030127 0.0011150541134746052 0.60170176916596474 0.0028225699018835752 0.82360827374872336 0.59614153327716946 0.036403252099911583 0.036398927939876223 0.00027873075374446965 0.20611998389477923 0.038758826934207992
decision_type=2 2 2 2 2 2 2 2 2 2 2 2 2 2
left_child=1 3 -3 -1 5 6 8 -6 9 10 -5 -11 -2 -14
right_child=12 2 -4 4 7 -7 -8 -9 -10 11 -12 -13 13 -15
leaf_value=-0.023042317471114081 0.010605136321857098 -0.12281082015807697 0.19595208998297498 0.0075370688969505694 0.16715165987386604 0.098746446848534647 -0.064588067129766571 -0.010913063320052794 0.11347438072179082 -0.085077278465197026 0.19255723832296587 0.086702252882413094 0.059079213539525569 -0.027597279021394628
leaf_weight=105.82643538154662 318.0461575165391 6.2111142110079518 0.59430450201034535 13.599006207659846 4.365759698674081 7.5385159999132147 16.831786574795842 3.7570753879845142 5.0212345868349066 9.0311903860419971 1.9025822915136803 1.9477555155754078 11.027144417166708 70.417240053415298
leaf_count=797 1367 108 3 90 22 32 152 40 21 84 11 9 50 339
internal_value=0 -0.0130198 -0.0949739 -0.00973561 0.0122693 0.00172589 -0.0134063 0.0847909 0.0139408 -0.00493274 0.0302455 -0.0546022 0.00520932 -0.0158617
internal_weight=0 176.627 6.80542 169.821 63.9949 55.8721 48.3336 8.12284 31.5018 26.4805 15.5016 10.9789 399.491 81.4444
internal_count=3125 1369 111 1258 461 399 367 62 215 194 101 93 1756 389
shrinkage=0.1


Tree=30
num_leaves=15
num_cat=0
split_feature=23 0 56 50 51 51 43 1 32 23 53 46 13 45
split_gain=3.54489 6.44425 4.44643 6.54153 6.42739 6.6711 12.2896 6.97481 6.16698 5.00948 5.79139 4.66348 5.75147 4.53015
threshold=0.0068503747731330092 0.26924573882700314 0.13860313882264058 5.0805897664728695e-05 0.00043638119289905671 0.0023676000891331805 0.038777404150932997 0.12110606903475478 0.81583384369287038 0.0055405116779801518 0.97541868176365887 0.010717828745724568 4.194034519036652e-05 0.74381677083333342
decision_type=2 2 2 2 2 2 2 2 2 2 2 2 2 2
left_child=1 2 -1 -4 -5 8 7 11 -6 -8 -11 12 -7 -10
right_child=-2 -3 3 4 5 6 9 -9 13 10 -12 -13 -14 -15
leaf_value=-0.014275398424104663 0.0077803620953278809 -0.058783417048233567 -0.094041101835840718 0.2425037041544981 0.10062712483626852 0.22151340883100953 -0.01527963745072404 -0.037919622856614467 -0.039260213253379146 0.12038581038300052 -0.063558187135062658 0.2350934913285343 0.010496455640066276 0.017522174986468141
leaf_weight=162.05544370040298 276.78134502470493 23.005509113892913 5.5679401643574229 1.250716060400008 4.9677900373935691 2.2287497557699663 21.437482561916116 2.0591596812009803 33.557514242827892 6.722686901688574 2.296283021569252 4.8258065208792686 3.0719866305589676 24.170161452144384
leaf_count=1019 1196 179 211 6 23 11 101 11 173 28 11 24 15 117
internal_value=0 -0.00794685 -0.00368182 0.0116249 0.0171447 0.0144689 0.0449834 0.129855 -0.00628541 0.011026 0.0735526 0.163971 0.0992207 -0.0154858
internal_weight=0 297.217 274.212 112.156 106.588 105.338 42.6422 12.1857 62.6955 30.4565 9.01897 10.1265 5.30074 57.7277
internal_count=3125 1929 1750 731 520 514 201 61 313 140 39 50 26 290
shrinkage=0.1


Tree=31
num_leaves=15
num_cat=0
split_feature=52 30 44 57 18 0 54 44 23 23 3 8 8 49
split_gain=3.09273 6.40222 4.65396 5.66967 4.88314 4.44667 3.88979 7.34775 5.41191 5.86839 5.10183 3.83513 5.26299 4.55858
threshold=0.8133871649466381 4.9744507499941143e-05 0.0029916453269289421 6.1045401508767202e-05 0.99771947253948634 0.29143739095423432 0.94502470699466612 0.0031159007111339226 0.018507105350067703 0.0094583620309503114 0.00039723863783579498 0.014763499261759126 0.014774139723385666 0.60759898904802034
decision_type=2 2 2 2 2 2 2 2 2 2 2 2 2 2
left_child=1 -1 -3 4 -4 6 7 10 9 -8 -5 13 -13 -2
right_child=11 2 3 5 -6 -7 8 -9 -10 -11 -12 12 -14 -15
leaf_value=-0.10478852486450248 0.025048860242839734 0.048663808994516312 -0.14482194215086683 -0.014012294091015268 -0.023233227308492421 -0.11483427738239103 0.020425393388425667 -0.060428450116462709 -0.046778750727998357 0.22717476097892375 0.11367520134712794 -0.076066366803775709 -0.0010988219670068028 -0.020027886659667475
leaf_weight=7.8985925819724789 115.06771552935243 11.360033914446829 6.0257262885570508 6.7899976335465926 7.3101039379835129 3.2199015170335761 2.7059338986873609 14.007702611386774 2.7380689233541489 2.7867499142885208 5.8039056062698364 9.622396092861889 349.43182992748916 27.868498504161835
leaf_count=223 595 53 28 31 30 16 13 65 13 12 25 48 1855 118
internal_value=0 -0.0199399 -0.00925938 -0.0220641 -0.0781725 -0.00240029 0.0079931 -0.0105951 0.0680698 0.125321 0.0448325 0.00240695 -0.0031079 0.0162602
internal_weight=0 70.6467 62.7481 51.3881 13.3358 38.0523 34.8324 26.6016 8.23075 5.49268 12.5939 501.99 359.054 142.936
internal_count=3125 509 286 233 58 175 159 121 38 25 56 2616 1903 713
shrinkage=0.1


Tree=32
num_leaves=15
num_cat=0
split_feature=21 19 17 48 25 20 49 48 28 34 33 23 43 41
split_gain=3.13536 2.85431 5.8563 3.76435 3.4123 3.49345 5.16057 3.21887 3.67427 4.47844 4.25218 3.1249 4.75165 5.46334
threshold=0.15793131643499594 0.00017865846623325558 0.41003937007874025 0.37274290627687018 0.86498708010335934 0.82431639134467505 0.5955012636899748 0.25752364574376613 0.60894495412844052 0.38784292463621367 0.39092398033806441 0.13558088949197175 0.038782503238609746 0.036414559847480113
decision_type=2 2 2 2 2 2 2 2 2 2 2 2 2 2
left_child=1 2 4 7 5 -1 -7 8 -4 10 -10 -3 13 -13
right_child=-2 11 3 -5 -6 6 -8 -9 9 -11 -12 12 -14 -15
leaf_value=-0.08882771542996569 -0.1190782369413308 0.0012075392390441197 -0.051300771108888171 -0.11477693276914891 0.075850859776225785 -0.049419416235288817 0.2040272833833762 0.14086081302868658 -0.0021492424118331886 -0.064485039781142756 0.15353610376561477 0.13277922910354734 0.18044015971210858 -0.070539865025826154
leaf_weight=17.505057738162584 2.2149814711883655 518.35472166538239 5.5058267042040887 1.9802627861499775 1.7643056288361538 3.4088912196457377 1.0511028617620466 2.3031397163867942 2.9479027763009054 2.5061175227165222 4.3329910337924957 2.2379180639982215 2.4442321360111237 3.2277763187885284
leaf_count=444 27 2373 31 19 9 126 5 11 14 13 19 10 10 14
internal_value=0 0.000128728 -0.0245491 0.0159381 -0.0579502 -0.0686976 0.0103113 0.0306489 0.0140507 0.0508151 0.0905019 0.00215943 0.0645391 0.0127087
internal_weight=0 569.57 43.3056 19.5762 23.7294 21.9651 4.45999 17.596 15.2928 9.78701 7.28089 526.265 7.90993 5.46569
internal_count=3125 3098 691 107 584 575 131 88 77 46 33 2407 34 24
shrinkage=0.1


Tree=33
num_leaves=15
num_cat=0
split_feature=32 23 30 11 3 18 51 11 21 8 46 1 19 41
split_gain=2.94668 7.29533 4.21869 7.51239 6.25259 7.28189 6.32462 4.79181 7.08782 5.02223 5.2138 36.2726 5.31204 4.70075
threshold=0.81620532449725791 0.014715841533167859 0.00068523794946664484 0.0047684085510688841 0.0004056813012659856 0.99771652363896701 0.0027389883384089735 0.0069596199524940621 0.15605069501226496 0.015604660710519181 0.01050280257899785 0.1173090871047472 0.00026224825933085792 0.036478033819628657
decision_type=2 2 2 2 2 2 2 2 2 2 2 2 2 2
left_child=2 -2 7 4 -4 -6 -7 13 9 10 -9 -12 -13 -1
right_child=1 -3 3 -5 5 6 -8 8 -10 -11 11 12 -14 -15
leaf_value=-0.0016255037140617938 -0.10663988715521376 0.10176214629143061 0.13098939758923847 -0.023807217853491394 0.15874518827522935 -0.12566226482610948 0.046319197665915413 -0.030000841523457007 -0.071066199061688748 -0.092533857218093277 3.9757776932199196 -0.030539800226383182 0.15873222318395203 -0.05484935045401286
leaf_weight=491.05389568209648 6.9788966970518214 2.2121795564889908 9.611918047070505 13.660519808530806 2.9450832009315482 3.5701106041669828 5.3317614793777466 2.3889003209769752 3.8372110463678828 1.469442581757902 0.024519672617315247 1.8054387569427479 8.2981883436441404 17.174515657126904
leaf_count=2687 40 9 40 59 12 15 22 34 20 12 1 18 34 122
internal_value=0 -0.0564801 0.000603506 0.0341604 0.0710621 0.0224406 -0.0226543 -0.00163676 0.0493275 0.0823577 0.102889 0.134234 0.124911 -0.00342409
internal_weight=0 9.19108 561.172 35.1194 21.4589 11.847 8.90187 526.052 17.8237 13.9865 12.517 10.1281 10.1036 508.228
internal_count=3125 49 3076 148 89 49 37 2928 119 99 87 53 52 2809
shrinkage=0.1


Tree=34
num_leaves=15
num_cat=0
split_feature=49 30 49 43 19 30 29 19 51 30 30 30 49 46
split_gain=2.88703 5.84098 3.5379 4.68109 2.90879 6.7887 5.89367 10.8794 8.02335 7.28427 7.883 7.06976 5.82798 7.6066
threshold=0.7074810446503792 0.00038235571149363036 0.66370682392586355 0.038778596234943917 0.00022280800484114413 8.977559045847366e-05 0.00011520319303338172 0.00025577299366836756 0.00062207531753695326 0.00052217015565026988 0.0003917747898368145 8.977559045847366e-05 0.5930075821398485 0.010880702429779234
decision_type=2 2 2 2 2 2 2 2 2 2 2 2 2 2
left_child=2 -2 4 -4 5 -1 7 12 -9 10 -8 -10 -6 -14
right_child=1 -3 3 -5 6 -7 9 8 11 -11 -12 -13 13 -15
leaf_value=-0.0053190346508643375 -0.044561320438807006 0.1816624015843 0.036006121963358319 -0.12828620313536074 0.12706369288149388 -0.079469439248700605 -0.0061670269624453178 -0.087623735788318766 -0.14640693149651438 0.051722792722285652 -0.077640148053625929 0.014768939386990138 -0.0096624878547259922 0.1068205723931472
leaf_weight=123.68031148333102 2.097685992717742 2.5033874958753586 2.710401624441146 4.8153871297836304 11.306177720427511 13.716235309839247 200.30888328701258 8.6561559587717039 2.7764419019222251 19.775877475738525 16.719452276825905 137.47359252721071 13.315917685627939 9.6826743930578214
leaf_count=1126 10 11 13 24 51 79 903 40 14 83 74 594 59 44
internal_value=0 0.0785242 -0.00101068 -0.0691166 -9.11644e-05 -0.0127214 0.00404049 0.0175078 0.00581147 -0.00637889 -0.0116732 0.0115782 0.0682776 0.0393782
internal_weight=0 4.60107 564.938 7.52579 557.412 137.397 420.015 183.211 148.906 236.804 217.028 140.25 34.3048 22.9986
internal_count=3125 21 3104 37 3067 1205 1862 802 648 1060 977 608 154 103
shrinkage=0.1


Tree=35
num_leaves=15
num_cat=0
split_feature=23 52 18 5 5 8 13 54 54 15 14 53 9 49
split_gain=2.75269 4.57502 5.45098 4.47461 5.11476 4.66424 3.9538 6.19314 8.34724 6.18443 5.14106 6.49704 5.38891 4.69676
threshold=0.0068503747731330092 0.81422223004942895 0.99771358900732088 0.00038319269533064953 0.00038253520495679566 0.014093715159550428 0.00040518638573743931 0.94432809461797829 0.94518436591326693 0.17928290068448924 0.82232194079231735 0.97416091743259459 0.15944580225859945 0.68978938500421239
decision_type=2 2 2 2 2 2 2 2 2 2 2 2 2 2
left_child=1 2 3 4 -1 -5 -2 -8 9 -9 11 -10 -12 -14
right_child=6 -3 -4 5 -6 -7 7 8 10 -11 12 -13 13 -15
leaf_value=-0.038258407647685906 0.012017270569179677 -0.002675163936357952 0.016952612840229975 0.16812602628826789 0.23313231056161932 -0.11907126041154142 -0.073959587141465902 0.029463264585268868 -0.028934255837908204 0.2447192050935513 0.067846045011552517 0.17275061747248407 -0.099729051400911761 0.068318556842313111
leaf_weight=7.8961158301681298 231.97824643552303 260.08496651425958 10.504161637276409 0.59138820134103198 0.76140385027974833 12.910094413906334 14.585710868239401 3.3108653575181988 3.8374130725860622 2.2362065613269806 3.1984972506761578 2.736053541302681 11.879099935293196 1.933923453092574
leaf_count=123 987 1571 54 4 6 171 68 15 17 10 16 12 61 10
internal_value=0 -0.00710534 -0.0423812 -0.0705076 -0.0143904 -0.106492 0.00681853 -0.0207674 0.0058647 0.11624 -0.020095 0.0550124 -0.0491175 -0.0762012
internal_weight=0 292.748 32.6632 22.159 8.65752 13.5015 275.696 43.7178 29.1321 5.54707 23.585 6.57347 17.0115 13.813
internal_count=3125 1929 358 304 129 175 1196 209 141 25 116 29 87 71
shrinkage=0.1


Tree=36
num_leaves=15
num_cat=0
split_feature=32 23 9 43 19 30 18 42 49 54 56 9 0 0
split_gain=2.71155 6.05476 3.11297 3.07194 3.49383 4.53675 4.20444 6.46983 7.02915 5.09496 6.71115 3.82646 3.60781 7.04682
threshold=0.81620532449725791 0.014715841533167859 0.16363647080088334 0.038893518646123323 0.0050068520083919451 0.00068523794946664484 0.99772254034728491 0.0025287494365341715 0.62143218197135652 0.94282159230782969 0.13727056103185528 0.17349917876256415 0.057616427325191254 0.063977989531606508
decision_type=2 2 2 2 2 2 2 2 2 2 2 2 2 2
left_child=3 2 -2 4 5 12 11 -8 9 10 -9 -7 -1 -14
right_child=1 -3 -4 -5 -6 6 7 8 -10 -11 -12 -13 13 -15
leaf_value=-0.023968880503884814 0.012704785376252914 0.089750572887095301 -0.14172528391201558 0.096629233662232875 -0.092656677240740282 -0.00020957480806392556 0.12334146019949316 -0.11123755701193101 0.085777192854206374 -0.12960432761790816 0.11884378130078783 0.14601507438679115 0.081753720986367337 -0.00029286078820882578
leaf_weight=62.606154759414494 1.7642426081001739 2.1882623136043549 5.0177782662212849 3.3070339411497107 4.0431883484125128 2.6173310130834597 4.2709175646305111 2.4043938219547254 4.6838275492191306 5.3668860048055649 2.6817398220300674 5.6588223427534103 10.717592706903813 449.88589688483626
leaf_count=444 15 9 25 15 17 11 20 10 20 22 11 24 55 2427
internal_value=0 -0.054885 -0.101553 0.000535119 -3.75349e-05 0.000642227 0.0400936 0.0146449 -0.0160243 -0.0616398 0.0100763 0.0997716 -0.00144521 0.00161625
internal_weight=0 8.97028 6.78202 558.244 554.937 550.894 27.6839 19.4078 15.1368 10.453 5.08613 8.27615 523.21 460.603
internal_count=3125 49 40 3076 3061 3044 118 83 63 43 21 35 2926 2482
shrinkage=0.1


Tree=37
num_leaves=15
num_cat=0
split_feature=21 52 19 43 11 3 3 3 18 18 3 53 42 44
split_gain=2.61047 2.25231 6.16444 5.5798 6.08084 5.27585 4.13905 4.72578 4.57148 4.72321 3.79961 3.66661 3.13108 6.29581
threshold=0.15793131643499594 0.8133871649466381 0.00018807703446960518 0.038753720955872227 0.0013123515439429931 0.00039614038539650568 0.0004074321737800632 0.00041389749578962651 0.99772329184128827 0.99771470197945233 0.00038877892835887485 0.97038666941713092 0.0027230969664338695 0.0031855554870881268
decision_type=2 2 2 2 2 2 2 2 2 2 2 2 2 2
left_child=1 2 -1 4 -4 10 -7 -8 9 -9 11 -5 13 -3
right_child=-2 12 3 5 -6 6 7 8 -10 -11 -12 -13 -14 -15
leaf_value=-0.11401680329323004 -0.11625151494987594 0.008139866702266834 0.12469264554371094 -0.15191826135605016 -0.04844459190739369 0.069432975192243646 -0.11745121040373208 0.002373372223303374 -0.062822013697029402 0.14035527919009544 -0.13505713060772015 -0.017549782313590983 -0.0035069995667152132 0.085108683812271088
leaf_weight=5.97379171475768 1.9353431202471245 166.40513255819678 5.901358485221861 2.3369003385305467 3.0910583920776844 7.9242448210716274 3.7283928543329266 8.64877498149872 6.3421890884637824 3.4786086827516547 4.8390478044748297 15.504883527755736 318.94712751265615 11.352279918268321
leaf_count=217 27 845 27 11 15 35 16 41 28 15 23 73 1695 57
internal_value=0 8.70003e-05 -0.0170142 -0.00763687 0.0651784 -0.0200374 0.00739117 -0.0147566 0.00597408 0.041952 -0.056465 -0.0351492 0.00242024 0.0130554
internal_weight=0 564.474 67.7693 61.7955 8.99242 52.803 30.1222 22.198 18.4696 12.1274 22.6808 17.8418 496.705 177.757
internal_count=3125 3098 501 284 42 242 135 100 84 56 107 84 2597 902
shrinkage=0.1


Tree=38
num_leaves=15
num_cat=0
split_feature=49 23 18 14 56 18 14 43 51 58 44 43 41 46
split_gain=2.40605 5.09104 5.29521 6.25674 4.89195 5.25194 4.83929 4.50436 6.08253 4.38206 7.45879 9.9483 7.47187 6.57411
threshold=0.59391743892165128 0.13558088949197175 0.99770162217876068 0.82214904870055883 0.13849105284023808 0.99769029269321619 0.83307661477284334 0.038797903861525325 0.0031289460001485557 1.0050000000000001 0.0048483000100621133 0.038767033709103942 0.036398181918656063 0.010597236411975
decision_type=2 2 2 2 2 2 2 2 2 2 2 2 2 2
left_child=4 2 3 7 6 -6 -1 8 -2 -4 11 12 -11 -14
right_child=1 -3 9 -5 5 -7 -8 -9 -10 10 -12 -13 13 -15
leaf_value=0.00054561007963642221 0.036818117822223752 0.092706430659159275 -0.004901650868555301 0.17254583714517757 0.12756159391542862 -0.062104048573206963 -0.12006115651747605 0.13025516953630109 -0.11700258056593814 0.076417424357107494 -0.084361497586022516 0.071939996227585248 -0.11184697713162076 0.025424607287719621
leaf_weight=117.69657158199698 11.755197450518613 6.3110724091529837 332.3656907454133 3.5008442252874366 1.5530489794909978 24.358909514732659 3.4236672939732662 3.4242185503244391 3.2902574688196173 5.9893765822052982 5.6332562714815131 31.613848745822906 8.6326902657747251 5.8550407439470282
leaf_count=825 59 27 1506 18 8 372 23 15 16 28 27 135 39 27
internal_value=0 0.00357083 0.00220564 0.0499721 -0.0113003 -0.0507363 -0.00286354 0.0267388 0.00317941 -0.000484647 0.0249477 0.0367687 -0.0175311 -0.0563703
internal_weight=0 418.371 412.06 21.9705 147.032 25.912 121.12 18.4697 15.0455 390.09 57.7242 52.091 20.4771 14.4877
internal_count=3125 1897 1870 108 1228 380 848 90 75 1762 256 229 94 66
shrinkage=0.1


Tree=39
num_leaves=15
num_cat=0
split_feature=48 48 6 47 30 24 34 27 0 0 49 19 9 29
split_gain=2.26505 4.27437 2.68208 2.5587 4.28622 6.00821 3.56512 2.87638 2.62175 6.28127 5.99259 8.14981 4.95611 4.26362
threshold=0.37274290627687018 0.27300085984522787 0.17489667437745096 0.14522613065326637 4.1502813949655035e-05 0.014731591267952369 0.3702748360788844 0.094333443089127986 0.057616427325191254 0.063977989531606508 0.60716090985678195 0.00072758439625800317 0.18332652243274891 0.00011520319303338172
decision_type=2 2 2 2 2 2 2 2 2 2 2 2 2 2
left_child=1 2 3 4 5 -1 -5 -7 10 -10 11 -6 -13 -11
right_child=-2 -3 -4 6 8 7 -8 -9 9 13 -12 12 -14 -15
leaf_value=-0.080676728823864646 -0.11288155019597079 0.14782532715967484 -0.098109123604161574 0.11559835647047219 -0.051783654664748671 0.072491555992081583 -0.046303713658806422 -0.060058709270634718 0.075898095312771446 0.014366470578567436 -0.109723094201936 0.00067345446531367472 0.086832150739620251 -0.0056543015057243682
leaf_weight=14.757738724350931 1.7809465825557698 1.951141521334647 2.7977139502763739 4.2429004460573188 24.286397447809577 5.0382606983184806 2.0017859861254692 2.4251757115125656 11.761576659977434 170.51541819609702 6.3870657682418814 24.388456746935844 9.1930253803729993 282.75552240386605
leaf_count=537 19 9 15 20 119 24 11 11 50 789 28 108 39 1346
internal_value=0 7.20532e-05 -0.00044224 4.76612e-05 -0.000673061 -0.0436983 0.0636993 0.0294206 0.00113328 0.00374942 -0.0178005 -0.00765474 0.0242596 0.00187729
internal_weight=0 562.502 560.551 557.753 551.509 22.2212 6.24469 7.46344 529.287 465.033 64.2549 57.8679 33.5815 453.271
internal_count=3125 3106 3097 3082 3051 572 31 35 2479 2185 294 266 147 2135
shrinkage=0.1


Tree=40
num_leaves=15
num_cat=0
split_feature=21 49 30 0 8 29 44 49 58 49 0 20 18 18
split_gain=2.25581 1.99623 4.42216 3.4727 5.94654 3.12438 3.47195 2.79365 3.28606 3.14932 3.37224 4.91353 2.70075 8.33936
threshold=0.15793131643499594 0.7074810446503792 0.00038235571149363036 0.32427862031942023 0.014671501642209301 0.00037786244154168692 0.0032732284637650867 0.66370682392586355 0.25500000000000006 0.65408593091828149 0.31073010334183332 0.82187063388632564 0.99772366758829001 0.99771896837262342
decision_type=2 2 2 2 2 2 2 2 2 2 2 2 2 2
left_child=1 3 -3 7 -5 -6 -7 9 -9 10 12 -12 13 -1
right_child=-2 2 -4 4 5 6 -8 8 -10 -11 11 -13 -14 -15
leaf_value=-0.0005268737028446621 -0.11437651138826646 -0.043393102206707057 0.15271667013323578 0.076459837336694259 -0.11303607510069563 -0.13900741681561354 0.046844757442557061 -0.121044500830313 0.034177189914063842 0.099253567938047002 -0.030771908195422856 0.18859126747856228 -0.020358260758247763 0.055626948941160242
leaf_weight=442.51226275041699 1.7272196449339379 2.0745872259140006 2.5795495212078094 3.1785138156265047 8.2940458590164763 1.4585795775055874 3.233512232080102 3.9115250259637824 2.0939948707818985 3.2864991873502722 1.8391609387472261 2.2956059128046036 56.23373656347394 28.127932980656624
leaf_count=2525 27 10 11 28 58 10 19 20 10 15 13 11 247 121
internal_value=0 8.104e-05 0.0653005 -0.000464439 -0.0461364 -0.0761432 -0.0109291 0.000901968 -0.0669221 0.00166431 0.00106032 0.0910176 0.000354358 0.00282917
internal_weight=0 561.12 4.65414 556.465 16.1647 12.9861 4.69209 540.301 6.00552 534.295 531.009 4.13477 526.874 470.64
internal_count=3125 3098 21 3077 115 87 29 2962 30 2932 2917 24 2893 2646
shrinkage=0.1


Tree=41
num_leaves=15
num_cat=0
split_feature=32 23 15 51 18 13 23 23 42 15 19 51 9 18
split_gain=2.04135 4.79107 4.00292 2.55537 6.51141 7.08062 6.08831 7.75051 7.71582 6.31246 5.55584 5.18476 4.94309 7.97028
threshold=0.81620532449725791 0.014715841533167859 0.18442757681424868 0.0033146401247864522 0.99770190755623045 0.00012155591572123178 0.0042169213288577373 0.0056024336898214183 0.0025561366145471767 0.17841114555082013 0.00027637611168538219 0.0031289460001485557 0.17721242936965118 0.99770905150555356
decision_type=2 2 2 2 2 2 2 2 2 2 2 2 2 2
left_child=3 2 -2 11 5 -5 8 -8 -6 -9 -7 -1 -11 -14
right_child=1 -3 -4 4 6 10 7 9 -10 12 -12 -13 13 -15
leaf_value=-0.0013248634259799689 -0.13152251160659054 0.080436986138966035 0.066744218887817078 -0.095145902400037091 -0.080336408055259004 -0.056892571865792135 -0.039176228770634286 0.0041295114856199503 0.13610568987595148 0.036973917047632053 0.16121309495473093 -0.072534536471427685 0.019576678871694585 0.20272904126835709
leaf_weight=425.63382667861879 5.12733212020248 2.148797869682312 1.2706614881753919 10.170540190301834 2.0405163299292317 2.3060918832197776 20.956570237874985 40.534035682678223 8.5407693870365602 20.941077739000324 2.3663967847824097 10.476374034769831 4.191675052046774 5.4853014945983887
leaf_count=2365 34 9 6 156 16 29 96 173 39 90 10 61 18 23
internal_value=0 -0.048756 -0.0921461 0.000491422 0.0135781 -0.0483318 0.0225267 0.0142739 0.0943666 0.0300167 0.0535677 -0.00303548 0.0642876 0.123395
internal_weight=0 8.54679 6.39799 553.643 117.533 14.843 102.69 92.1087 10.5813 71.1521 4.67249 436.11 30.6181 9.67698
internal_count=3125 49 40 3076 650 195 455 400 55 304 39 2426 131 41
shrinkage=0.1


Tree=42
num_leaves=15
num_cat=0
split_feature=21 52 52 9 10 16 19 9 53 51 11 11 46 29
split_gain=1.9428 1.78506 5.00786 4.6678 4.11663 6.25136 5.9523 3.77822 6.55139 8.39251 6.93832 6.44876 7.04073 5.8761
threshold=0.15793131643499594 0.82306599509234168 0.8225934274946286 0.18522637075923207 0.28711590296495965 0.027500000000000004 0.00017865846623325558 0.18036771004424465 0.97155275161016752 0.0012905741662333806 0.0017399049881235155 0.0023574821852731594 0.010936967884270845 0.00050495887760038712
decision_type=2 2 2 2 2 2 2 2 2 2 2 2 2 2
left_child=1 2 3 4 5 6 -1 13 9 -9 -10 -12 -13 -8
right_child=-2 -3 -4 -5 -6 -7 7 8 10 -11 11 12 -14 -15
leaf_value=-0.080192844423148127 -0.11259115178815099 0.008403354990913714 -0.040045828507829867 -0.14855194365608931 -0.078830636271975868 0.12057236900968892 -0.0082038221727405904 0.1732080261103173 -0.036160797587331338 0.017835112397147766 0.10392545137020158 -0.078317105552485153 0.082556980567024332 0.032629445677041284
leaf_weight=8.8611598922871035 1.5350215537473548 175.96594133786857 34.605779522098601 2.1070718038827172 6.3824460953474036 4.4059266895055762 230.57209999486804 6.1535580605268461 19.73947075009346 7.9911436960101128 10.118189550936224 6.1075537502765638 4.9055488482117653 41.600478053092957
leaf_count=338 27 974 183 11 44 20 1080 28 97 38 48 27 23 187
internal_value=0 6.43003e-05 -0.00376151 -0.000163092 0.000738385 0.00223005 0.000678468 0.00286869 0.0267702 0.0854291 0.00646926 0.0462915 -0.00665922 -0.00196262
internal_weight=0 559.516 383.55 348.945 346.838 340.455 336.049 327.188 55.0155 14.1447 40.8708 21.1313 11.0131 272.173
internal_count=3125 3098 2124 1941 1930 1886 1866 1528 261 66 195 98 50 1267
shrinkage=0.1


Tree=43
num_leaves=15
num_cat=0
split_feature=49 49 0 8 29 44 29 49 23 13 23 57 14 11
split_gain=1.72324 3.43215 2.66428 5.26683 3.29884 2.82701 2.58468 2.56329 2.65526 4.81175 6.08959 3.67809 5.85321 4.06057
threshold=0.69624262847514762 0.66370682392586355 0.32427862031942023 0.014671501642209301 0.00037786244154168692 0.0032732284637650867 0.00024260199967747139 0.65408593091828149 0.052569084719596627 0.00019633768375558022 0.081182451062853836 0.00056383772708106731 0.82058712582614923 0.0013598574821852732
decision_type=2 2 2 2 2 2 2 2 2 2 2 2 2 2
left_child=1 2 7 6 -5 -6 -4 8 -1 10 -10 -11 13 -13
right_child=-2 -3 3 4 5 -7 -8 -9 9 11 -12 12 -14 -15
leaf_value=-0.0012027766505454918 0.054052502533432217 -0.077002912665565526 -0.077201152250157029 -0.11970548660296408 -0.13272786771483538 0.039615528517269044 0.12641736155121117 0.088394034687933928 0.1258934324144404 -0.096659907057815603 0.011007595697400049 -0.1213743306042171 0.11440420573996109 0.045904873631990042
leaf_weight=498.13405252527446 5.7856401801109305 5.8491957038640967 0.85327710118144695 6.6241032266989333 1.3347746552899478 3.3171068262308836 2.3141056140884757 3.3467011600732794 8.1961406320333499 4.0554960370063773 10.555829495191572 3.2023646384477598 3.752663254737854 2.653547465801239
leaf_count=2800 27 31 11 52 10 19 17 15 34 18 46 15 18 12
internal_value=0 -0.000807069 5.71958e-06 -0.0423741 -0.0743788 -0.00983534 0.0715635 0.00115221 0.00060189 0.028334 0.0612221 -0.0168001 0.0169064 -0.0455734
internal_weight=0 554.189 548.34 14.4434 11.276 4.65188 3.16738 533.897 530.55 32.416 18.752 13.6641 9.60858 5.85591
internal_count=3125 3098 3067 109 81 29 28 2958 2943 143 80 63 45 27
shrinkage=0.1


Tree=44
num_leaves=15
num_cat=0
split_feature=49 11 5 57 51 18 0 9 56 58 19 58 19 58
split_gain=1.68992 4.11361 3.44008 3.72366 3.62803 4.06355 8.67049 6.00416 7.88573 2.7226 5.48935 6.37575 6.60079 8.24841
threshold=0.59165964616680722 0.0013242280285035632 0.000419739419518795 0.00096840405538998271 0.027417737502785419 0.99770260673103095 0.06822574151120657 0.18140899196051777 0.13804582241013927 1.0050000000000001 0.00019808426322072656 0.7350000000000001 0.00022280800484114413 0.56500000000000006
decision_type=2 2 2 2 2 2 2 2 2 2 2 2 2 2
left_child=1 -1 -3 4 5 7 -7 8 -4 10 -2 12 13 -12
right_child=9 2 3 -5 -6 6 -8 -9 -10 -11 11 -13 -14 -15
leaf_value=0.0054775821871375285 0.0469967719307701 -0.084253965164767949 0.31331171447691775 -0.10120348464194624 -0.14417533736867547 -0.037873214533226382 0.17767757487850686 -0.12468014501187751 -0.12533416310892448 0.018104483062124713 -0.075359143166998932 -0.051176625437827833 0.0031717508862785975 0.062626003760500037
leaf_weight=42.307299435604364 22.006881846114993 12.053831876721235 0.88594139926135695 3.8917608056217423 1.3787571317516256 3.6242668628692627 3.8469279855489731 3.1870885770767927 0.76263847108930349 85.357871882617474 21.878795940428976 27.034375965595245 325.57633342593908 5.4017610251903525
leaf_count=384 124 268 10 95 15 18 18 46 21 390 128 124 1458 26
internal_value=0 -0.0145348 -0.0431083 -0.0148923 0.00965188 0.0268854 0.0731142 -0.0445389 0.110393 0.00188454 -0.00156036 -0.00437325 -0.000787372 -0.048037
internal_weight=0 71.9385 29.6312 17.5774 13.6856 12.3069 7.47119 4.83567 1.64858 487.256 401.898 379.891 352.857 27.2806
internal_count=3125 875 491 223 128 113 36 77 31 2250 1860 1736 1612 154
shrinkage=0.1


Tree=45
num_leaves=15
num_cat=0
split_feature=18 18 53 3 54 23 49 18 18 21 0 56 29 8
split_gain=1.7145 5.33849 7.18547 6.07018 5.50577 6.22815 4.96345 4.81176 4.65997 4.57259 4.43959 5.00415 4.95677 4.71139
threshold=0.99772366758829001 0.99771896837262342 0.97281433603031631 0.00038243049352688555 0.94259949694061407 0.01008794982565751 0.62690817186183667 0.99771601471581273 0.99771979121099419 0.15523303352412104 0.026117299691316605 0.13822692429837291 4.1323980003225298e-06 0.01484579805345467
decision_type=2 2 2 2 2 2 2 2 2 2 2 2 2 2
left_child=1 6 4 -4 5 -3 -1 -8 -5 10 -2 12 -12 -13
right_child=9 2 3 8 -6 -7 7 -9 -10 -11 11 13 -14 -15
leaf_value=0.00065736107817536004 0.11476761980270256 0.090728898130733704 0.14032896846938545 0.062623897728314754 0.14319590690793466 -0.090367456816215372 -0.11308964397111275 0.039370707997369143 -0.075371452316491477 -0.047621644811201541 -0.093619378005165454 0.18029390253710553 0.00047905085055607806 0.017311927089939019
leaf_weight=448.94839833816513 3.4222316686063996 5.5725810378789955 2.2734475433826438 3.3714540451765052 8.4385755062103254 2.8808092027902603 7.307766914367674 2.8882634490728378 8.9256656765937787 26.425808906555176 7.673436805605891 2.4025772884488088 20.697537729516625 6.7756469547748566
leaf_count=2633 16 24 10 15 36 12 39 13 41 120 34 11 90 31
internal_value=0 0.00182113 0.0416704 -0.00978522 0.0860547 0.0290135 -0.000909515 -0.0699017 -0.0375378 -0.0151887 0.00572994 -0.00420775 -0.0249715 0.0599756
internal_weight=0 490.607 31.4625 14.5706 16.892 8.45339 459.144 10.196 12.2971 67.3972 40.9714 37.5492 28.371 9.17822
internal_count=3125 2823 138 66 72 36 2685 52 56 302 182 166 124 42
shrinkage=0.1


Tree=46
num_leaves=15
num_cat=0
split_feature=51 41 9 8 1 46 0 29 5 44 29 3 1 45
split_gain=1.71642 4.57341 5.08088 5.11122 6.41579 6.00604 5.69933 5.69947 5.49377 5.93827 6.81395 7.99142 5.19653 4.8462
threshold=0.0023676000891331805 0.036410138980990277 0.17864861254096367 0.014757566968993887 0.1202243483666791 0.011065539383350363 0.081988994765803264 0.00027263747782615711 0.00041272131856528793 0.0032564582769452053 0.00015390662796323177 0.00040310491306029143 0.11724973568499082 0.74378487500000012
decision_type=2 2 2 2 2 2 2 2 2 2 2 2 2 2
left_child=1 2 -1 6 5 8 -4 -8 9 -5 13 -12 -10 -11
right_child=-2 -3 3 4 -6 -7 7 -9 12 10 11 -13 -14 -15
leaf_value=-0.010714853489328368 0.0072525172900579056 -0.014720853393031487 -0.16195403064984057 -0.091290594465800345 0.070991467640736786 -0.12364886012853318 0.10243410073082869 -0.020420403812469481 -0.16830806974038626 -0.1401334542862438 0.21824534576690177 -0.047018515240826279 0.042617006456116713 0.061821828997243616
leaf_weight=77.400661108549684 198.1728128339164 194.52366098435596 1.0584224481135631 9.8618853325024265 13.554668638855217 4.0271972594782701 17.27901790197939 4.8322130329906932 1.2237986177206064 3.0689616724848729 2.6869848910719156 1.967183521017432 25.635114848613739 1.9388721138238905
leaf_count=496 1124 1019 8 57 80 31 86 28 6 19 15 11 135 10
internal_value=0 -0.00434126 0.00793015 0.0244923 0.00991571 -0.00650686 0.0647342 0.0755853 0.00366402 -0.0367022 0.0190156 0.106126 0.0330064 -0.0619429
internal_weight=0 359.059 164.535 87.1343 63.9647 50.41 23.1697 22.1112 46.3828 19.5239 9.662 4.65417 26.8589 5.00783
internal_count=3125 2001 982 486 364 284 122 114 253 112 55 26 141 29
shrinkage=0.1


Tree=47
num_leaves=15
num_cat=0
split_feature=23 43 23 45 52 52 9 10 16 30 15 0 51 0
split_gain=1.66406 4.2865 3.50713 2.85882 1.7479 4.09604 3.71218 3.37193 5.06711 6.64745 3.36451 5.16837 3.39841 3.12917
threshold=0.13558088949197175 0.038782503238609746 0.11500011665472336 0.7438104375000002 0.82306599509234168 0.8225934274946286 0.18522637075923207 0.28711590296495965 0.027500000000000004 4.7389737914145108e-05 0.1767725687717939 0.18186149510132868 0.0016991012404367529 0.14096094483961888
decision_type=2 2 2 2 2 2 2 2 2 2 2 2 2 2
left_child=2 3 4 -2 5 6 7 8 9 -1 -6 12 13 -12
right_child=1 -3 -4 -5 10 -7 -8 -9 -10 -11 11 -13 -14 -15
leaf_value=-0.087183775426805998 0.060522663594813897 0.16018390595066512 -0.09743988588139596 -0.082204004369495848 0.0041538704767834543 -0.037367092969779303 -0.13884381661078188 -0.073478659841463206 0.10686294711282179 0.0022706746699096589 -0.1187493552887518 0.16753378495460219 0.078706133567341172 0.044297076498215071
leaf_weight=8.5293623781762999 3.2339656576514226 2.3031993359327316 3.7357088327407828 2.4792663753032684 158.49348569754511 33.586721297353506 1.9358263593167055 6.1270503737032405 4.4930178523063651 318.83317503612489 2.4342963472008687 3.1977189639583221 4.954206851311028 2.2791433185338974
leaf_count=338 15 10 18 11 903 184 11 44 20 1508 11 15 27 10
internal_value=0 0.0450148 -0.000877956 -0.00141381 -0.000215906 -0.00405226 -0.000760487 3.03982e-05 0.0013876 -6.00423e-05 0.00814608 0.0573276 0.0208753 -0.0399097
internal_weight=0 8.01643 548.6 5.71323 544.864 373.505 339.918 337.983 331.856 327.363 171.359 12.8654 9.66765 4.71344
internal_count=3125 36 3089 26 3071 2105 1921 1910 1866 1846 966 63 48 21
shrinkage=0.1


Tree=48
num_leaves=15
num_cat=0
split_feature=29 19 29 54 51 0 21 14 19 15 49 21 20 58
split_gain=1.60594 5.34966 7.98819 6.55817 9.15113 5.90154 7.28199 5.75834 5.56326 6.08068 5.40501 5.98114 5.35758 5.02507
threshold=0.00011520319303338172 0.00021927604175251306 1.5420899854862121e-05 0.94434682555256255 0.0053758449082671042 0.19651053549859079 0.15539656582174982 0.83048716276218704 0.00019455230013209549 0.18334008429901497 0.60577927548441457 0.15580539656582176 0.82106785601070775 5.330000000000001
decision_type=2 2 2 2 2 2 2 2 2 2 2 2 2 2
left_child=1 8 3 10 -5 7 -7 -4 9 -1 11 13 -8 -3
right_child=-2 2 5 4 -6 6 12 -9 -10 -11 -12 -13 -14 -15
leaf_value=-0.0043341901440824664 -0.0049892585257952787 -0.012504546260015431 0.043967953733892284 -0.011469745888825831 0.12318615536134753 -0.080107746237046154 -0.058475224190747965 -0.087350150620819522 -0.059928953877085689 0.21507392533936676 -0.10123736066026867 -0.097828140947723075 0.13318147100669986 0.11054463492954861
leaf_weight=35.040490377694368 310.1696974504739 27.475886180996898 96.06053164601326 15.861523479223253 7.40213519334793 9.7249217778444272 2.3806733936071387 3.4595001339912406 22.232457175850868 1.3103619809262443 9.4176972061395627 7.3627947382628909 3.7655715197324753 3.774788409471511
leaf_count=449 1704 122 418 70 31 46 12 18 126 14 42 39 17 17
internal_value=0 0.00583907 0.0141123 -0.0122041 0.0313757 0.0303719 -0.0262582 0.0394031 -0.0205249 0.00357495 -0.0333118 -0.0167449 0.0589456 0.00235864
internal_weight=0 245.269 186.686 71.2948 23.2637 115.391 15.8712 99.52 58.5833 36.3509 48.0312 38.6135 6.14624 31.2507
internal_count=3125 1421 832 321 101 511 75 436 589 463 220 178 29 139
shrinkage=0.1


Tree=49
num_leaves=15
num_cat=0
split_feature=49 54 49 54 53 19 11 41 14 44 1 49 30 57
split_gain=1.51431 3.10436 2.56341 1.88946 4.5828 4.57731 4.27196 4.90138 3.65987 4.06189 2.36625 2.29069 8.09469 5.12406
threshold=0.69624262847514762 0.95392368482080758 0.66370682392586355 0.94871559305706699 0.97533177473698696 0.00045415158714648006 0.0025118764845605706 0.036415982813881524 0.82975826542079589 0.003134464917939186 0.12623342812794558 0.62197135636057299 0.00052217015565026988 0.00012598192377098237
decision_type=2 2 2 2 2 2 2 2 2 2 2 2 2 2
left_child=2 -2 3 11 5 8 7 -6 9 -5 -8 -1 -13 -14
right_child=1 -3 -4 4 6 -7 10 -9 -10 -11 -12 12 13 -15
leaf_value=0.00038568751900754442 0.15098739380596427 -0.0031706635814854785 -0.068979748572319782 -0.028394042138951244 0.064939465433156318 0.20178517439470173 0.011378091846662166 -0.1056791138355361 -0.076613009031219315 0.17817859147430989 0.18056752211429297 -0.059688068793395332 -0.017473478862842628 0.15449796383720502
leaf_weight=495.42188810743392 2.0122345536947241 3.7234776467084885 5.4498552903532973 1.6140854423865696 2.4592183558270317 2.4479506611824036 1.9647611118853094 5.3391466345638037 1.8661736757494507 2.3201540610753 1.4270340474322436 21.170396655797962 3.6244719773530951 3.3193817585706711
leaf_count=2815 9 18 31 12 14 10 11 31 16 16 10 102 16 14
internal_value=0 0.0509119 -0.000738319 -5.33779e-05 0.0305606 0.0871153 -0.0111263 -0.0518745 0.0387211 0.0934288 0.0825614 -0.00119005 -0.0289574 0.0647343
internal_weight=0 5.73571 548.425 542.975 19.4385 8.24836 11.1902 7.79836 5.80041 3.93424 3.3918 523.536 28.1143 6.94385
internal_count=3125 27 3098 3067 120 54 66 45 44 28 21 2947 132 30
shrinkage=0.1


Tree=50
num_leaves=15
num_cat=0
split_feature=32 23 15 50 11 5 21 11 49 9 15 50 20 11
split_gain=1.73649 3.52539 3.49182 2.48634 3.85596 4.26137 5.60626 3.47143 4.76461 4.95692 5.6395 3.76208 3.44065 3.38408
threshold=0.81620532449725791 0.014715841533167859 0.18442757681424868 0.00067586359864850519 0.0047684085510688841 0.00040590289987346972 0.15531479967293543 0.0069596199524940621 0.59459140690817203 0.18607707843799856 0.1779561891679288 0.00038641514166716507 0.81827134185716144 0.00083729216152019002
decision_type=2 2 2 2 2 2 2 2 2 2 2 2 2 2
left_child=3 2 -2 7 5 13 12 -1 9 10 -9 -10 -7 -5
right_child=1 -3 -4 4 -6 6 -8 8 11 -11 -12 -13 -14 -15
leaf_value=-0.0027660535259971131 -0.12439702351994675 0.066127600634370148 0.06357471504958509 0.0067953270242668415 -0.015316263601121824 0.043363793826020958 0.1257072553849958 -0.14488863242762959 0.13542617556976932 0.18372411140054543 0.041808274227756848 0.0030408609809354581 -0.087759678132101143 0.14384971008940711
leaf_weight=494.82593064336106 4.7377946246415359 2.0728339403867722 1.2487169280648229 2.4961618632078189 13.132670089602469 3.5473321676254255 3.1952818632125846 3.1556700197979834 6.2673257887363416 1.0640875790268181 3.3203340219333768 3.2647952139377594 4.5911412984132767 6.4745158553123474
leaf_count=2809 34 9 6 11 59 15 14 51 27 10 17 14 20 29
internal_value=0 -0.0462704 -0.0851883 0.000489282 0.0269089 0.0542196 0.0134623 -0.00123644 0.0430983 -0.0163002 -0.0491666 0.0900836 -0.0306066 0.105713
internal_weight=0 8.05935 5.98651 545.335 33.4371 20.3044 11.3338 511.898 17.0722 7.54009 6.476 9.53212 8.13847 8.97068
internal_count=3125 49 40 3076 148 89 49 2928 119 78 68 41 35 40
shrinkage=0.1


Tree=51
num_leaves=15
num_cat=0
split_feature=32 14 57 50 11 44 56 29 8 54 46 41 11 35
split_gain=1.46847 3.43655 3.79467 2.04327 3.19195 4.53485 6.23073 4.84314 3.9408 3.15098 5.19826 3.33312 2.841 4.10284
threshold=0.81620532449725791 0.83822604855124283 6.7571020449393802e-06 0.00067586359864850519 0.0047684085510688841 0.0030112235450302917 0.13745840883569652 1.0000000180025095e-35 0.014955404224545759 0.94342811780865909 0.010561206778835637 0.036476320733863844 0.0069596199524940621 0.019004117433551192
decision_type=2 2 2 2 2 2 2 2 2 2 2 2 2 2
left_child=3 2 -2 12 5 -5 -7 8 -8 10 11 -6 -1 -14
right_child=1 -3 -4 4 9 6 7 -9 -10 -11 -12 -13 13 -15
leaf_value=-0.0024913731007425569 0.061574902604713037 0.081766996885530421 -0.12317004203692479 0.14685194267629217 -0.071128249857091083 -0.087516557325726829 -0.11008732074661404 0.1142487190369661 0.063884382019151933 0.084420016070480219 -0.14327078103484045 0.066354994305262829 0.05647826310446688 -0.10262005635768237
leaf_weight=494.46365855447948 1.4654543921351422 1.7136311605572698 4.6071160365827382 3.8724937140941647 3.0302780717611295 3.7022789269685772 2.3118257671594602 7.1069829761981964 2.9809704571962357 2.6149411946535102 3.2535436302423477 4.2179428339004517 15.007309757638724 1.8171519921161223
leaf_count=2809 10 8 31 17 16 16 10 33 13 11 14 18 105 14
internal_value=0 -0.0432952 -0.0785867 0.000442241 0.024524 0.0496918 0.0263251 0.0603155 -0.0121042 -0.0138023 -0.0382597 0.0088771 -0.00111636 0.0392946
internal_weight=0 7.7862 6.07257 544.379 33.0913 19.9746 16.1021 12.3998 5.2928 13.1167 10.5018 7.24822 511.288 16.8245
internal_count=3125 49 41 3076 148 89 72 56 23 59 48 34 2928 119
shrinkage=0.1


Tree=52
num_leaves=15
num_cat=0
split_feature=8 8 42 8 21 18 45 45 20 30 9 3 0 21
split_gain=1.42546 7.4417 3.99938 3.38624 5.2772 6.86871 6.33644 8.29177 5.02431 3.82943 4.82163 3.61271 3.54812 3.44287
threshold=0.014647584144393891 0.014638732786934646 0.0026399210924684456 0.014706342091782929 0.15539656582174982 0.99770274466347475 0.74379160416666679 0.74382143750000018 0.82099520974956863 4.9744507499941143e-05 0.17698845552350942 0.00038715224847096964 0.35744195410012086 0.15523303352412104
decision_type=2 2 2 2 2 2 2 2 2 2 2 2 2 2
left_child=1 2 -1 4 13 9 11 8 -8 -6 -11 -7 -5 -2
right_child=3 -3 -4 12 5 6 7 -9 -10 10 -12 -13 -14 -15
leaf_value=0.0055937345236420667 0.030423108224637875 -0.094108845026021681 -0.11247174058466509 -8.9478872575425746e-05 0.40611413164559074 0.22332228236693458 -0.12322145117863093 0.11179465076745561 0.034836605660276354 0.072958956685334295 -0.11731940437674604 0.090673508489665919 -0.068681820934412524 -0.040695102421051448
leaf_weight=57.290749981999397 12.707782345823945 9.8400609502568823 3.0203686207532874 414.78681929223239 0.1856039315462138 3.5521396547555941 3.4227335602045077 8.1181980520486814 4.8764991462230682 1.9798358827829359 4.0681348815560341 4.8654863983392715 7.6809602123685172 14.659642294049261
leaf_count=405 85 55 19 2297 1 15 16 35 22 9 27 22 55 62
internal_value=0 -0.0134748 -0.000318961 0.00178429 0.0243467 0.0525511 0.0761077 0.0399391 -0.030349 -0.0413002 -0.0550308 0.14665 -0.00133657 -0.00767209
internal_weight=0 70.1512 60.3111 480.904 58.4361 31.0686 24.8351 16.4174 8.29923 6.23357 6.04797 8.41763 422.468 27.3674
internal_count=3125 479 424 2646 294 147 110 73 38 37 36 37 2352 147
shrinkage=0.1


Tree=53
num_leaves=15
num_cat=0
split_feature=23 13 54 53 9 32 13 43 41 3 13 13 54 5
split_gain=1.42648 3.88708 5.22458 7.3331 4.07775 3.20956 3.00115 6.54107 8.89636 3.99361 5.01968 4.16652 3.88114 3.58971
threshold=0.0073952287297448568 0.0004415820751229777 0.94432809461797829 0.9735840839808384 0.17747569687301076 0.81585139396709339 0.00049048878273479492 0.038770155177641194 0.036419664566755092 0.00052019664319507219 0.00028576302994114138 0.00027893883818135294 0.9441497047647931 0.00050786748111054513
decision_type=2 2 2 2 2 2 2 2 2 2 2 2 2 2
left_child=6 -2 5 -4 -5 -3 9 -8 12 10 13 -11 -9 -1
right_child=1 2 3 4 -6 -7 7 8 -10 11 -12 -13 -14 -15
leaf_value=-0.003761210833723971 0.010378767102938016 0.013982581761879163 0.099729399101187444 -0.056070069591038718 0.065028322574911965 -0.1168588484306755 -0.080970308010552994 0.317186185966847 0.01063923595592195 -0.10975893991986774 -0.080963350425925451 0.027627265389437102 0.11802289235418598 0.10001111718243277
leaf_weight=263.51263743126765 215.11453627794981 2.464790150523184 5.5971185714006451 13.914606474339964 3.4750747084617606 7.8323047608137131 3.6331818047910955 1.5119722913950671 8.2364768837578577 7.2467514080926758 8.3990221042186004 3.1743813827633858 2.7729086722247303 3.3761795163154593
leaf_count=1723 938 12 25 77 15 39 34 8 70 73 51 19 23 18
internal_value=0 0.00545815 -0.0263439 0.000173256 -0.0318703 -0.0855397 -0.00477331 0.0371594 0.0714358 -0.00714426 -0.00484396 -0.0679097 0.1883 -0.00244848
internal_weight=0 248.398 33.2839 22.9868 17.3897 10.2971 301.864 16.1545 12.5214 285.709 275.288 10.4211 4.28488 266.889
internal_count=3125 1106 168 117 92 51 2019 135 101 1884 1792 92 31 1741
shrinkage=0.1


Tree=54
num_leaves=15
num_cat=0
split_feature=55 22 40 30 6 6 12 55 11 11 40 18 58 14
split_gain=1.48046 2.98075 2.50276 4.0504 3.27603 3.25104 3.52017 2.62589 2.48965 2.34935 2.24136 2.15618 1.85713 4.09938
threshold=0.55254578057925341 0.70779220779220797 0.08516782755754293 4.1502813949655035e-05 0.19704724209164964 0.08883148713562232 0.11740264103758354 0.5430908004129763 0.00033847980997624708 0.00036223277909738723 0.035833548313125234 0.99823555391186602 1.0050000000000001 0.82311370798525707
decision_type=2 2 2 2 2 2 2 2 2 2 2 2 2 2
left_child=1 2 3 5 -4 7 -7 11 -5 -10 -8 -1 -11 -14
right_child=-2 -3 4 8 -6 6 10 -9 9 12 -12 -13 13 -15
leaf_value=-0.10260449980167315 0.074113432634977605 -0.080619040387906044 0.081730251619436714 -0.086692825832034998 -0.075288258082289117 0.15168209052453746 -0.11897574946577011 0.23766491809717283 0.16122378265111392 -0.0017809679536307705 0.020514207713545386 0.19511251148035114 0.0078357396392227108 0.087226381418872484
leaf_weight=9.2376881968229956 2.6705042235553256 4.6072674617171279 7.2303183041512948 3.2313006594777098 1.6279314160346983 1.3118288032710541 1.865696422755718 0.24372109770774919 0.91763377189636131 418.78264267835766 3.0110075809061527 0.24984313547611314 87.258523244410753 7.0278128609061232
leaf_count=510 19 27 41 18 10 7 12 1 4 2012 18 1 413 32
internal_value=0 -0.00052455 0.000156297 -0.000719625 0.0528741 -0.0504014 0.0062659 -0.0864387 0.000809564 0.00135967 -0.0328509 -0.0947645 0.00107375 0.0137533
internal_weight=0 546.603 541.996 533.138 8.85825 15.9198 6.18853 9.73125 517.218 513.987 4.8767 9.48753 513.069 94.2863
internal_count=3125 3106 3079 3028 51 549 37 512 2479 2461 30 511 2457 445
shrinkage=0.1


Tree=55
num_leaves=15
num_cat=0
split_feature=49 32 0 58 49 51 29 0 56 49 49 14 14 23
split_gain=1.43765 3.93652 2.27954 4.15488 4.27519 5.91077 3.81318 2.17235 4.71765 2.58957 2.56342 1.75026 5.13537 4.26832
threshold=0.69624262847514762 0.81587993601462527 0.32427862031942023 0.085000000000000006 0.59843302443133961 0.00062207531753695326 0.00037786244154168692 0.31073010334183332 0.14042661170302198 0.66370682392586355 0.65792754844144918 0.83092135767444419 0.83230056504279093 0.0050622517989558991
decision_type=2 2 2 2 2 2 2 2 2 2 2 2 2 2
left_child=2 -2 7 -4 -5 -6 -7 9 -9 10 11 -1 -13 -14
right_child=1 -3 3 4 5 6 -8 8 -10 -11 -12 12 13 -15
leaf_value=0.0013956138580711915 0.11474193118421816 -0.059109287444877645 -0.12730005885929602 -0.12321281552402796 -0.12898028440438777 0.00074704194866747481 0.16116901664442951 0.1396731064580361 -0.04988783994060221 -0.086897886238728891 0.11358572391664962 -0.11276810889021266 -0.078963276512025032 0.015062032399867146
leaf_weight=484.12606740300544 3.514968052506446 2.0691383481025696 3.9552347250282756 2.3944873227737826 1.801146402955055 3.0832501351833344 2.8525076657533646 3.2528500030748537 2.2014030208811164 3.428440533578395 1.9896787703037251 5.2773583391681305 6.1667070928961065 22.240079335868359
leaf_count=2735 17 10 34 41 11 15 13 18 14 20 9 29 54 105
internal_value=0 0.050323 -0.000677353 -0.0403792 -0.00644578 0.0296923 0.07784 0.000380493 0.063164 -0.000273977 0.000297368 -0.000137941 -0.022179 -0.00534952
internal_weight=0 5.58411 542.769 14.0866 10.1314 7.7369 5.93576 528.683 5.45425 523.228 519.8 517.81 33.6841 28.4068
internal_count=3125 27 3098 114 80 39 28 2984 32 2952 2932 2923 188 159
shrinkage=0.1


Tree=56
num_leaves=15
num_cat=0
split_feature=21 58 23 23 23 29 57 49 56 54 58 53 57 1
split_gain=1.37748 6.01629 3.61112 5.22367 4.55966 3.91604 3.83554 3.51381 6.42484 6.64979 3.50759 6.62026 5.79455 8.64747
threshold=0.15580539656582176 3.8550000000000004 0.014495216206257933 0.0099568087600860559 0.0086497371507564761 0.0018614941138526046 0.00050689288342012633 0.5963437236731256 0.13865918181384182 0.94290989528515623 1.7050000000000003 0.97183734824696111 0.00073272118618468278 0.11904285273102037
decision_type=2 2 2 2 2 2 2 2 2 2 2 2 2 2
left_child=-1 2 3 4 5 10 -5 8 9 -4 12 -12 13 -2
right_child=1 -3 7 6 -6 -7 -8 -9 -10 -11 11 -13 -14 -15
leaf_value=-0.0026903903129021746 -0.010332247014909132 -0.10190970494325519 0.0026916659397985643 -0.16284061726273799 0.126456812810888 0.1465094911856803 0.0090266536418714769 0.1740700443862882 -0.074413507200268444 0.19618582956425284 0.13601614719682462 -0.06652288024648384 -0.0505443346336516 0.074698095653606592
leaf_weight=436.25461936276406 40.746964634396136 4.6226802244782439 3.7987430691719037 3.0098502933979026 3.4390826821327201 2.0218958035111418 2.2837289571762085 2.3766872137784949 3.3680480420589447 3.3357817828655243 5.0477841123938552 2.3722702413797379 17.870350586250424 16.929526014719158
leaf_count=2525 233 26 17 13 15 11 10 10 16 14 24 13 104 94
internal_value=0 0.0097765 0.0146197 0.00779684 0.0135731 0.00900528 -0.0886945 0.0642692 0.0394217 0.0931608 0.00565431 0.0712623 -0.000789567 0.0146263
internal_weight=0 111.223 106.601 93.7215 88.4279 84.9888 5.29358 12.8793 10.5026 7.13452 82.9669 7.42005 75.5468 57.6765
internal_count=3125 600 574 517 494 479 23 57 47 31 468 37 431 327
shrinkage=0.1


Tree=57
num_leaves=15
num_cat=0
split_feature=41 19 41 32 57 19 57 57 11 32 51 32 51 45
split_gain=1.38696 5.09896 4.2336 3.21452 3.26804 7.86224 6.03592 7.50652 6.0508 3.70129 3.30751 4.98761 4.35814 3.33768
threshold=0.036410138980990277 0.00023693585719566844 0.03641078138815209 0.81568340950639862 0.0009935475297203364 0.00025930495675699868 0.00075514197828811943 0.00080990426696554002 0.0018942992874109268 0.81587945612431456 0.0024790165639159184 0.81606478519195624 0.0025904330386986563 0.74380222916666672
decision_type=2 2 2 2 2 2 2 2 2 2 2 2 2 2
left_child=-1 -2 -3 -4 6 -6 10 -8 9 -9 -5 12 -12 -14
right_child=1 2 3 4 5 -7 7 8 -10 -11 11 -13 13 -15
