tree
version=v3
num_class=1
num_tree_per_iteration=1
label_index=0
max_feature_idx=58
objective=binary sigmoid:1
feature_names=Column_0 Column_1 Column_2 Column_3 Column_4 Column_5 Column_6 Column_7 Column_8 Column_9 Column_10 Column_11 Column_12 Column_13 Column_14 Column_15 Column_16 Column_17 Column_18 Column_19 Column_20 Column_21 Column_22 Column_23 Column_24 Column_25 Column_26 Column_27 Column_28 Column_29 Column_30 Column_31 Column_32 Column_33 Column_34 Column_35 Column_36 Column_37 Column_38 Column_39 Column_40 Column_41 Column_42 Column_43 Column_44 Column_45 Column_46 Column_47 Column_48 Column_49 Column_50 Column_51 Column_52 Column_53 Column_54 Column_55 Column_56 Column_57 Column_58
feature_infos=[0:1] [0:1] [0:1] [0:1] [0:1] [0:1] [0:0.63259234121673757] [0:1] [0.0048403742429264469:0.79436225027872365] [0:1] [0:0.89692722371967648] [0:0.60700712589073635] [0:1] [0:0.34971139355682562] [0:1] [0:1] [0:1] [0:1] [0:1] [0:1] [0:1] [0:0.29370400654129192] [0:1] [0:0.6433689782239228] [0:0.79913836121014803] [0:1] [0:0.29253904403218506] [0:0.94555049191697438] [0:0.98776758409785936] [0:0.91478088211578767] [0:1] [0:0.9912609238451936] [0:0.85213053016453388] [0:0.73059819077620924] [0:0.85262682364582376] [0.0059419582893115493:0.37517194504231871] [0:0.37182203389830509] [0:1] [0:1] [0:1] [0:1] [0:0.048127652519893899] [0:0.7170045703452177] [0:0.050371516771864064] [0:0.31810860372984556] [0:0.77762837500000004] [0:0.26425185865196527] [0:1] [0:0.98710232158211519] [0:1] [0:1] [0:0.94908267102428889] [0:1] [0:1] [0:0.99407924077278487] [0:1] [0:1] [0:0.79830039372850981] [-104.73999999999999:696.33000000000004]
tree_sizes=1704 1706 1713 1693 1701 1714 1708 1703 1718 1708 1709 1702 1710 1701 1708 1722 1713 1701 1703 1702 1702 1717 1699 1700 1713 1714

Tree=0
num_leaves=15
num_cat=0
split_feature=23 0 47 30 49 13 46 23 11 19 32 41 19 15
split_gain=231.656 42.697 41.8583 35.4852 20.2244 20.063 18.9489 18.144 15.9624 14.5545 13.1385 11.2082 11.7554 11.114
threshold=0.0037423687389005387 0.16550798550530132 0.05427135678391961 0.00017454729554713074 0.59155855096882914 0.00040518638573743931 0.010630962780895412 0.0078046270611180453 0.0022505938242280287 0.00032758957647053297 0.81587723948811708 0.036430675287356336 0.00022633996792977519 0.18775903161800103
decision_type=2 2 2 2 2 2 2 2 2 2 2 2 2 2
left_child=2 3 4 7 -1 13 -3 8 -2 -7 -4 12 -10 -5
right_child=1 6 10 5 -6 9 -8 -9 11 -11 -12 -13 -14 -15
leaf_value=-0.97683689152290309 -0.86253227517516562 -0.78475157138449325 -0.76825906354308138 -0.72855618767652253 -0.88492561870067532 -0.61620549639455857 -0.85954858253677946 -0.76469946851490389 -0.88625263165033508 -0.8613342773733893 -0.90084977409659339 -0.8948782158231241 -0.66784633052047182 -0.90206620263378157
leaf_weight=116.35575556755066 74.197873115539551 45.319723635911942 16.441574156284336 136.59153914451599 30.142885953187943 2.7402623593807247 134.06206619739532 45.741302460432053 3.1618411839008358 20.868151813745499 13.701311796903608 4.637367069721221 11.171838849782942 3.7942094206809989
leaf_count=552 352 215 78 648 143 13 636 217 15 99 65 22 53 18
internal_value=-0.837871 -0.801987 -0.935845 -0.77909 -0.957926 -0.747589 -0.840652 -0.816279 -0.841603 -0.832882 -0.828528 -0.759744 -0.716024 -0.733246
internal_weight=0 482.286 176.642 302.904 146.499 163.994 179.382 138.91 93.1689 23.6084 30.1429 18.971 14.3337 140.386
internal_count=3126 2288 838 1437 695 778 851 659 442 112 143 90 68 666
shrinkage=1


Tree=1
num_leaves=15
num_cat=0
split_feature=23 25 0 30 18 46 46 29 23 44 11 0 18 19
split_gain=193.358 41.1126 33.4496 25.9151 20.9521 15.225 14.6016 16.8983 14.3901 13.4996 13.312 11.9793 11.8177 11.4981
threshold=0.0037423687389005387 0.58591731266149882 0.16784995302643943 0.00017454729554713074 0.99770337725019898 0.010642314583117403 0.010734116114130034 1.9452507660054832e-05 0.0078046270611180453 0.0030333757918063211 0.0022505938242280287 0.025942826466246145 0.99770337725019898 0.00030580913742397458
decision_type=2 2 2 2 2 2 2 2 2 2 2 2 2 2
left_child=1 4 3 8 -1 12 7 11 10 -6 -2 -5 -4 -8
right_child=2 -3 5 6 9 -7 13 -9 -10 -11 -12 -13 -14 -15
leaf_value=-0.1241288850352565 -0.022157755900798576 0.033432225015631624 -0.068004449977204715 0.19334137685695396 -0.12226927826661582 -0.021514618291507557 0.18873037136931148 0.13433428569925132 0.064521078393595041 0.075233141754231903 0.069034653047692171 0.013805011783517715 0.067128336402894548 0.036621590434394634
leaf_weight=132.12868838012218 74.948639824986458 22.5820651948452 7.7389325946569434 4.3910762667655971 5.526982069015502 126.6339299082756 5.3181270360946646 61.985817804932594 47.868453398346901 9.2575084269046766 20.355127170681953 24.188942030072212 39.518180504441261 75.817461937665939
leaf_count=659 359 107 36 20 27 606 24 283 221 45 94 111 184 350
internal_value=0 -0.0921874 0.0317638 0.0512047 -0.111496 -0.00343878 0.0774017 0.105003 0.0197876 0.00139953 -0.00268074 0.0413892 0.0449987 0.0465917
internal_weight=0 169.495 488.765 314.874 146.913 173.891 171.701 90.5658 143.172 14.7845 95.3038 28.58 47.2571 81.1356
internal_count=3126 838 2288 1462 731 826 788 414 674 72 453 131 220 374
shrinkage=0.1


Tree=2
num_leaves=15
num_cat=0
split_feature=23 24 0 18 30 33 18 43 25 23 19 49 13 0
split_gain=162.021 39.1481 26.3066 20.2662 19.8988 15.1329 12.8998 13.7613 12.5313 11.4205 12.762 11.2355 11.1838 10.3643
threshold=0.0037423687389005387 0.0039875913829053441 0.16784995302643943 0.99770337725019898 0.00017454729554713074 0.40347837370812673 0.99770040456822351 0.038764628869105047 0.58591731266149882 0.0075902360525467736 0.00027990807477401331 0.5985004212299917 0.00040518638573743931 0.20499932894913434
decision_type=2 2 2 2 2 2 2 2 2 2 2 2 2 2
left_child=1 3 4 -1 9 8 -4 -8 -3 10 -2 -9 -6 -13
right_child=2 5 6 -5 12 -7 7 11 -10 -11 -12 13 -14 -15
leaf_value=-0.12308457050067803 0.017371993460525929 -0.10092723982258339 -0.14189798567987422 0.0010656636127062366 0.077888446937302153 -0.051128350319486454 0.049175095136177863 -0.083052028860049087 0.14225175959954964 0.055535430488705309 -0.069881648361643373 0.040472999840926095 0.0050480090184440536 -0.025960781935207386
leaf_weight=119.43560712039471 70.857128754258156 2.6209296882152584 6.4500233530998221 14.77513514459133 151.6399177312851 14.413741827011107 45.449815437197685 20.38432839512825 11.06667250394821 51.268108800053596 21.95758131146431 37.010214895009995 24.481921181082726 64.252250239253044
leaf_count=632 337 13 31 72 674 70 214 98 51 232 105 176 114 307
internal_value=0 -0.0869446 0.0282226 -0.109417 0.0452157 0.0203826 -0.00313075 0.00222575 0.0956874 0.0176544 -0.00326998 -0.0153155 0.0677632 -0.00168003
internal_weight=0 162.312 493.751 134.211 320.205 28.1013 173.547 167.097 13.6876 144.083 92.8147 121.647 176.122 101.262
internal_count=3126 838 2288 704 1462 134 826 795 64 674 442 581 788 483
shrinkage=0.1


Tree=3
num_leaves=15
num_cat=0
split_feature=19 24 19 58 0 45 33 11 0 18 52 29 52 18
split_gain=134.583 41.2772 22.578 14.6608 14.0951 19.8085 11.9822 11.73 10.2354 9.8194 12.151 10.6854 9.81781 9.3657
threshold=0.00018219042932188671 0.0039875913829053441 0.00023987915976952771 0.38500000000000006 0.20499932894913434 0.74378897916666675 0.40347837370812673 0.0044952494061757725 0.24626224667829824 0.99770981726843055 0.81767109295199192 0.0033210369295274961 0.82366991300059889 0.997714721004617
decision_type=2 2 2 2 2 2 2 2 2 2 2 2 2 2
left_child=1 -1 3 -2 9 -6 12 -7 -5 -4 13 -12 -3 -11
right_child=2 6 4 8 5 7 -8 -9 -10 10 11 -13 -14 -15
leaf_value=-0.11797982281423457 -0.055599894801635942 0.036468688317627437 0.026364667251818547 -0.0009607938872038341 0.099596054204580786 -0.046552938388708942 -0.047086840747356744 0.19648808409867533 0.10124723636440727 -0.045562561450424151 0.07392318602837937 0.25338965158520399 0.23202457250959563 0.04961662491727778
leaf_weight=106.38017024099827 49.872412443161011 10.726791217923166 162.92612273991108 72.001207947731018 13.545434847474096 48.431593954563141 14.102614879608153 2.0707220733165732 11.341223642230032 15.256322488188742 107.34023520350456 3.423401102423667 3.3750345259904853 32.072348743677139
leaf_count=593 243 49 742 347 64 234 70 10 53 69 479 15 15 143
internal_value=0 -0.089464 0.0227706 -0.0127149 0.035047 -0.00778621 0.0180906 -0.0365876 0.0129477 0.0435928 0.0613476 0.07947 0.0832717 0.0189358
internal_weight=0 134.585 518.281 133.215 385.066 64.0478 28.2044 50.5023 83.3424 321.018 158.092 110.764 14.1018 47.3287
internal_count=3126 727 2399 643 1756 308 134 244 400 1448 706 494 64 212
shrinkage=0.1


Tree=4
num_leaves=15
num_cat=0
split_feature=49 24 19 57 33 25 48 19 57 20 19 35 52 33
split_gain=120.534 29.5149 24.2681 19.5495 9.55322 9.32052 9.06329 9.04548 10.405 8.80527 10.1677 14.6502 9.85064 8.26134
threshold=0.59165964616680722 0.0039875913829053441 0.00018513373189574592 0.00027743801202133653 0.40347837370812673 0.58591731266149882 0.10533104041272572 0.00036879581250456222 7.7028758711315503e-05 0.82304251347257951 0.00022516264690023154 0.018006200424920998 0.82335584633628034 0.38555973529612503
decision_type=2 2 2 2 2 2 2 2 2 2 2 2 2 2
left_child=1 2 -1 7 5 -3 13 8 -2 10 11 -5 -11 -7
right_child=3 4 -4 9 -6 6 -8 -9 -10 12 -12 -13 -14 -15
leaf_value=-0.12476543719573011 -0.04199899103333337 -0.099286892985398195 -0.029974451289859157 0.09009707452251603 -0.043328541051349499 0.18210570067462806 0.26761407237059809 0.0658549160254287 0.039120679241346316 0.1070124974709086 0.0071690919380389606 -0.069420387865362629 0.016522725879710438 -0.014018049444208175
leaf_weight=91.160986766219139 18.872286930680275 2.5788033157587078 38.379309549927711 6.7057320475578299 13.809172302484511 3.502539709210394 2.8030497729778281 111.1430558860302 97.512001693248749 14.482518479228018 131.21106545627117 40.71062508225441 71.039063513278961 5.5527910888195038
leaf_count=548 88 13 184 31 70 15 12 484 450 67 608 200 332 24
internal_value=0 -0.0764854 -0.0966814 0.0239664 0.016135 0.073012 0.110481 0.0454514 0.0259667 0.00546 -0.00717312 -0.0468611 0.0318466 0.0618413
internal_weight=0 157.787 129.54 491.676 28.2464 14.4372 11.8584 227.527 116.384 264.149 178.627 47.4164 85.5216 9.05533
internal_count=3126 866 732 2260 134 64 51 1022 538 1238 839 231 399 39
shrinkage=0.1


Tree=5
num_leaves=15
num_cat=0
split_feature=23 24 30 57 58 3 23 58 44 46 32 23 49 44
split_gain=101.888 28.1203 15.9798 15.5935 9.12304 9.10955 10.4674 14.7997 11.2963 12.5738 10.7917 9.84434 15.4769 10.8232
threshold=0.0037423687389005387 0.0039875913829053441 4.6212353121247091e-05 0.00027743801202133653 0.38500000000000006 0.00041961522689262261 0.0050420306674395596 1.7050000000000003 0.0038029323646665432 0.011157011876617428 0.81586345978062169 0.0039440756276783217 0.59711878685762432 0.0031605172081616991
decision_type=2 2 2 2 2 2 2 2 2 2 2 2 2 2
left_child=1 2 -1 -2 -4 11 7 10 -8 -10 -7 12 -5 -13
right_child=3 -3 4 5 -6 6 8 -9 9 -11 -12 13 -14 -15
leaf_value=-0.1222295946778254 0.039607691892343394 0.014428982453582651 -0.090064766262846152 -0.046215692931074484 0.011654886677982465 -0.079443366595212339 0.06177438826723395 0.16938259910952591 -0.12092285081164303 0.016808428867493872 0.031019151980546458 0.053693038742536295 0.28326342751940609 -0.05357158533623757
leaf_weight=78.953621998429298 232.82278330624104 28.109115079045296 18.398004785180092 3.2145372778177252 16.93158084154129 27.72128863632679 60.134845361113548 3.5251969397068015 7.1940078735351554 84.291721776127815 12.987916484475134 11.248576715588568 2.5619658976793289 57.453843429684639
leaf_count=514 1027 134 101 16 89 136 272 17 33 389 61 51 12 274
internal_value=0 -0.0751765 -0.0972159 0.0206381 -0.041316 0.00430068 0.0156207 -0.02718 0.0281076 0.00597789 -0.0442013 -0.0254673 0.0999132 -0.0360093
internal_weight=0 142.392 114.283 503.157 35.3296 270.334 195.855 44.2344 151.621 91.4857 40.7092 74.4789 5.7765 68.7024
internal_count=3126 838 704 2288 190 1261 908 214 694 422 197 353 28 325
shrinkage=0.1


Tree=6
num_leaves=15
num_cat=0
split_feature=49 24 23 57 23 9 53 41 48 11 41 11 45 23
split_gain=88.6556 23.7735 21.331 12.7912 9.16684 9.26729 10.6233 10.5707 8.80779 8.79375 11.1351 13.5155 10.4857 7.78524
threshold=0.59165964616680722 0.0039875913829053441 0.0043335172840868489 0.00027743801202133653 0.0068750867686843417 0.1725050492349525 0.97061109965084391 0.036409772877984088 0.37274290627687018 0.0022862232779097395 0.036429763483642803 0.0016686460807600952 0.74383739583333341 0.0053365275244518003
decision_type=2 2 2 2 2 2 2 2 2 2 2 2 2 2
left_child=1 2 -1 4 5 6 -2 -7 -3 10 -9 -12 -11 -5
right_child=3 8 -4 13 -6 7 -8 9 -10 12 11 -13 -14 -15
leaf_value=-0.11155555605655798 0.13358224743940458 0.034166702829894605 -0.0070416633351523044 -0.021620739957496703 0.057102310084030952 0.10578423891323457 -0.054059327320337108 -0.048064518670717073 -0.13378145529582117 0.11897998583676846 -0.016293100017937184 0.20687849102684239 0.0069302280917665771 0.015765213370070124
leaf_weight=91.805776655673981 3.4214335978031185 24.67853203415871 24.80441115796566 79.803793579339981 112.71769259870052 16.38798676431179 25.536748647689819 28.645957961678505 3.5749429017305365 14.471954643726347 7.1570039987564069 4.3709238767623901 19.748569801449776 184.41389030218124
leaf_count=617 15 115 115 393 483 75 116 132 19 64 32 19 86 845
internal_value=0 -0.0693838 -0.0893242 0.0195258 0.0366349 0.017368 -0.0318893 0.0330803 0.012916 0.0170647 -0.0146666 0.0683245 0.0543164 0.00447323
internal_weight=0 144.864 116.61 496.676 232.458 119.741 28.9582 90.7824 28.2535 74.3944 40.1739 11.5279 34.2205 264.218
internal_count=3126 866 732 2260 1022 539 131 408 134 333 183 51 150 1238
shrinkage=0.1


Tree=7
num_leaves=15
num_cat=0
split_feature=49 49 18 0 43 49 18 0 51 37 41 1 42 18
split_gain=74.7606 21.6222 16.5344 13.6731 12.676 10.9193 10.088 9.26522 9.36584 8.72175 8.70158 9.37002 9.38582 8.19591
threshold=0.59165964616680722 0.57597304128053917 0.99770091824766893 0.16784995302643943 0.038764125850996395 0.5985004212299917 0.99771415500596905 0.056770903234465174 0.0023861695015969697 0.00043950209427172441 0.036403763262599476 0.11793227701218917 0.0028331866597799751 0.99770341054423717
decision_type=2 2 2 2 2 2 2 2 2 2 2 2 2 2
left_child=1 9 -3 6 10 -6 7 8 -2 -1 11 -5 -13 -12
right_child=3 2 -4 4 5 -7 -8 -9 -10 -11 13 12 -14 -15
leaf_value=0.038070405151672926 -0.099813608649852822 -0.11437924303869916 -0.027277857392140416 0.075339114382532338 -0.075570790643692515 -0.0054143970303121257 0.058713080588701089 0.026314780429173058 0.017434999117195947 -0.069039252149499422 0.29161418330318789 -0.13895287345281546 0.016220789298645091 0.047636726079216075
leaf_weight=23.216464966535568 12.427585542201998 72.90681104362011 31.086774408817291 19.215335339307785 28.032763198018074 106.35109697282314 88.102403461933136 202.57534639537334 15.079676330089567 11.303795531392096 2.5145541280508033 5.1194279044866589 16.337006077170372 3.0432838052511215
leaf_count=110 55 541 153 86 146 501 372 904 65 62 12 26 79 14
internal_value=0 -0.0655787 -0.088342 0.0174644 -0.00451089 -0.0200492 0.0299384 0.0189202 -0.0355371 0.00299693 0.040657 0.0246192 -0.0208031 0.15802
internal_weight=0 138.514 103.994 498.798 180.613 134.384 318.185 230.083 27.5073 34.5203 46.2296 40.6718 21.4564 5.55784
internal_count=3126 866 694 2260 864 647 1396 1024 120 172 217 191 105 26
shrinkage=0.1


Tree=8
num_leaves=15
num_cat=0
split_feature=23 24 18 13 23 3 51 49 30 45 18 55 3 9
split_gain=64.2208 21.0394 14.2855 9.80643 13.9522 10.0196 9.99392 11.6449 9.83962 11.7158 8.13761 7.63005 7.60242 7.10857
threshold=0.0037423687389005387 0.0039875913829053441 0.99770091824766893 0.00028576302994114138 0.0078046270611180453 0.0005200407936249734 0.00099346356681274625 0.59459140690817203 0.00019279675983704998 0.74385487500000014 0.99770517988454877 0.47755800684670985 0.00050786748111054513 0.18280784615747328
decision_type=2 2 2 2 2 2 2 2 2 2 2 2 2 2
left_child=1 2 -1 4 5 8 7 -6 9 12 -10 -3 13 -2
right_child=3 11 -4 -5 6 -7 -8 -9 10 -11 -12 -13 -14 -15
leaf_value=-0.10948789952224898 -0.026991384502021133 0.19166583067444257 -0.020755694462183213 -0.014424342749456198 0.08435424636068263 -0.098794361838917988 0.055512289907753122 -0.042613806592072472 -0.060274413693758834 0.13038451451998276 0.05505036840948524 -0.0040132923913454533 0.17974770157160547 0.016064412261495561
leaf_weight=72.158778555691242 98.273375704884529 2.1572126895189312 24.238704562187195 91.78417906165123 10.300842732191084 8.745699927210806 137.86204716563225 24.179157212376595 6.8281391710042945 6.3839380145072928 58.880493238568306 26.126773446798325 2.1352097243070594 62.882385849952698
leaf_count=575 464 9 129 425 45 42 591 106 29 29 248 125 10 299
internal_value=0 -0.0649254 -0.0871766 0.0151642 0.021685 0.00630651 0.0434693 -0.00468231 0.0102115 -0.00251186 0.0430663 0.0109111 -0.00770751 -0.0101912
internal_weight=0 124.681 96.3975 508.255 416.471 244.129 172.342 34.48 235.384 169.675 65.7086 28.284 163.291 161.156
internal_count=3126 838 704 2288 1863 1121 742 151 1079 802 277 134 773 763
shrinkage=0.1


Tree=9
num_leaves=15
num_cat=0
split_feature=49 49 19 19 0 32 49 50 20 49 11 44 23 14
split_gain=55.1345 17.9802 14.8916 10.3541 9.51895 11.0421 8.24722 8.85632 8.82661 8.55839 8.08114 11.1527 9.44464 10.672
threshold=0.59165964616680722 0.57597304128053917 0.00021456675763433829 0.00030934110051260565 0.16784995302643943 0.81584124771480815 0.60065711878685768 6.9966979069712091e-05 0.82304251347257951 0.60207245155855105 0.0019418052256532068 0.0029957793729822155 0.004845407221266273 0.82528271786368246
decision_type=2 2 2 2 2 2 2 2 2 2 2 2 2 2
left_child=1 -1 -3 -4 10 6 7 8 -6 -8 11 -2 13 -12
right_child=4 2 3 -5 5 -7 9 -9 -10 -11 12 -13 -14 -15
leaf_value=0.002710103646688417 0.13828308720268029 -0.10364232608472897 0.045916932588402577 -0.098877667887940585 -0.0088586122613303116 -0.022532131014094143 0.21636249589683065 -0.082173106791236628 0.12310722466317921 0.04874523220763196 0.0152364707244418 0.004040503744352603 0.053694371746045334 -0.15505595615431514
leaf_weight=34.193144544959068 6.438932701945304 72.237340532243252 13.223718270659448 7.8824714720249167 17.787854462862018 115.75921370089054 3.4616171568632152 10.130495384335516 7.0880420804023734 25.38177452981472 28.42707684636116 159.22867116332054 122.9199326634407 4.2273300141096106
leaf_count=172 27 592 65 37 88 561 15 50 35 115 128 704 518 19
internal_value=0 -0.0593271 -0.0820523 -0.00815911 0.0143196 -0.00411749 0.0292681 -0.00335484 0.0287432 0.0688617 0.0246279 0.00925805 0.040995 -0.00680902
internal_weight=0 127.537 93.3435 21.1062 500.851 179.609 63.8498 35.0064 24.8759 28.8434 321.242 165.668 155.574 32.6544
internal_count=3126 866 694 102 2260 864 303 173 123 130 1396 731 665 147
shrinkage=0.1


Tree=10
num_leaves=15
num_cat=0
split_feature=19 24 23 13 9 43 19 58 8 9 12 58 58 53
split_gain=48.6164 24.6125 9.03909 9.03571 7.95697 10.1173 9.18012 8.1921 7.61222 9.26966 10.9369 8.53888 7.92629 8.51822
threshold=0.00017865846623325558 0.0039875913829053441 0.0067045808556611235 0.00028576302994114138 0.16907864232555583 0.038757290317245945 0.000238701838739984 0.38500000000000006 0.014761898484346283 0.18136773362043901 0.11787041070176515 0.58500000000000008 1.7050000000000003 0.97191757011773516
decision_type=2 2 2 2 2 2 2 2 2 2 2 2 2 2
left_child=1 -1 4 -4 -2 -6 7 -7 11 -10 -11 -9 13 -12
right_child=2 -3 3 -5 5 6 -8 8 9 10 12 -13 -14 -15
leaf_value=-0.10267189483159707 -0.044631119144612597 0.0095263673409003019 0.033589831577219398 -0.0086812587275570015 0.16933389865588933 -0.062551686366424372 0.019471860260050031 0.24479398114856307 -0.086529708083767171 -0.12090861779116138 -0.071530292561187786 0.030157984707742364 0.16466083149079427 0.061026294744926116
leaf_weight=63.208511292934418 38.345338560640812 28.307878047227859 210.6018767952919 66.546514317393303 3.673153541982173 32.534216947853565 124.55200035870075 2.290386050939559 13.843300223350523 5.1409219652414349 7.4960456639528337 9.7173831909894925 4.1929199248552314 13.7221792191267
leaf_count=568 184 134 901 305 17 176 557 11 72 26 39 47 20 69
internal_value=0 -0.0679667 0.0109321 0.0234401 -0.00263513 0.00478028 0.00194909 -0.0225906 0.000459549 -0.0186463 0.012112 0.0710981 0.0390234 0.0141963
internal_weight=0 91.5164 532.656 277.148 255.508 217.163 213.489 88.9374 56.4031 44.3954 30.5521 12.0078 25.4111 21.2182
internal_count=3126 702 2424 1206 1218 1034 1017 460 284 226 154 58 128 108
shrinkage=0.1


Tree=11
num_leaves=15
num_cat=0
split_feature=49 49 0 29 8 29 11 9 49 43 53 41 43 9
split_gain=41.4152 22.4033 7.14773 14.1908 9.97125 9.75887 8.60698 7.9399 10.3447 8.05877 7.93941 7.48765 8.65446 7.47237
threshold=0.59064869418702615 0.57597304128053917 0.10951550127499667 1.3001935171746495e-05 0.017101293428149582 0.00010391469117884214 0.00728622327790974 0.18284517513183024 0.59391743892165128 0.038759812298448236 0.97371301198743965 0.036433320899646342 0.038783123397921782 0.18314773629240769
decision_type=2 2 2 2 2 2 2 2 2 2 2 2 2 2
left_child=1 -1 3 10 5 -5 7 8 -4 -9 -2 12 13 -11
right_child=2 -3 6 4 -6 -7 -8 9 -10 11 -12 -13 -14 -15
leaf_value=0.0027042083325331694 -0.030175263205591937 -0.099008656001076431 -0.072847284559893324 0.091575028228933056 -0.094727599880663635 0.030956208104341233 0.17346188862897052 0.10498933733793113 -0.0028477730464736228 0.14444403744208256 0.092025539844251325 0.1179539472348044 -0.13479468517817589 0.0062384334735960043
leaf_weight=34.057693064212799 48.224685594439507 59.465116307139397 23.413530096411705 38.603470005095005 4.960062399506568 85.106508761644363 2.894402250647544 10.863815553486345 214.7732879370451 4.1214916333556166 5.9754534214735022 6.4308417588472357 4.1501284986734381 76.99244225025177
leaf_count=172 211 558 129 168 22 360 12 52 987 20 26 28 19 362
internal_value=0 -0.0619684 0.0102462 0.0262182 0.0442981 0.0498722 0.00174654 0.000287934 -0.00972866 0.0235509 -0.0167029 0.0139022 0.00605439 0.0132608
internal_weight=0 93.5228 526.51 182.87 128.67 123.71 343.64 340.746 238.187 102.559 54.2001 91.6949 85.2641 81.1139
internal_count=3126 730 2396 787 550 528 1609 1597 1116 481 237 429 401 382
shrinkage=0.1


Tree=12
num_leaves=15
num_cat=0
split_feature=23 47 30 0 21 12 51 49 53 23 11 43 53 53
split_gain=36.7333 14.2033 12.54 7.76282 10.4857 7.09082 8.36425 8.03195 8.50429 10.3933 8.44654 7.43142 7.31955 7.21518
threshold=0.0037423687389005387 0.05427135678391961 4.6212353121247091e-05 0.14167225875721381 0.15613246116107934 0.12261902726040888 0.0023676000891331805 0.70822240943555193 0.9731858396937817 0.0070465231769819845 0.00044536817102137769 0.038787450731787992 0.97308842742212753 0.97261664642019463
decision_type=2 2 2 2 2 2 2 2 2 2 2 2 2 2
left_child=1 2 -1 -4 -5 6 7 8 9 13 -11 -10 -12 -2
right_child=5 -3 3 4 -6 -7 -8 -9 11 10 12 -13 -14 -15
leaf_value=-0.10988618757143161 0.0043995962689120727 0.0052661186692963113 -0.07985074927939205 0.084404179257171752 -0.078555418224157222 -0.019447168990581298 0.033385851722818626 0.16486210415258626 -0.048493371258627453 -0.089847895002730327 0.038383600462293693 0.040808807361278787 0.20393246201956791 -0.057503797346203006
leaf_weight=45.810711979866028 99.017976991832256 29.309305295348167 15.054866492748262 9.912114545702936 6.5629568845033637 68.376533761620522 160.34841001033783 3.0992020368576041 47.091778114438057 5.0218026041984549 89.363886475563049 11.617378979921339 2.753020003437995 23.249607726931572
leaf_count=505 472 143 91 54 45 317 690 14 221 21 380 50 12 111
internal_value=0 -0.054015 -0.0764803 -0.0279441 0.0194881 0.010519 0.0151593 0.00476658 0.00298254 0.0120281 0.0364462 -0.0308222 0.0433312 -0.00737155
internal_weight=0 106.65 77.3406 31.5299 16.4751 509.94 441.563 281.215 278.115 219.406 97.1387 58.7092 92.1169 122.268
internal_count=3126 838 695 190 99 2288 1971 1281 1267 996 413 271 392 583
shrinkage=0.1


Tree=13
num_leaves=15
num_cat=0
split_feature=23 25 18 44 53 47 44 51 0 51 54 32 43 9
split_gain=31.0705 14.3491 10.5428 8.86944 6.4245 7.50289 6.42122 7.41903 8.0299 10.9914 12.3893 7.29836 6.94931 6.62619
threshold=0.0037423687389005387 0.58591731266149882 0.99770337725019898 0.0030333757918063211 0.97123950430524042 0.15477386934673371 0.0031534971299580282 0.0016991012404367529 0.16550798550530132 0.0018105177152194906 0.94382235938419845 0.81621286563071305 0.038758792480912886 0.16907864232555583
decision_type=2 2 2 2 2 2 2 2 2 2 2 2 2 2
left_child=1 2 -1 -4 5 -3 13 12 11 -10 -11 -9 -8 -2
right_child=6 4 3 -5 -6 -7 7 8 9 10 -12 -13 -14 -15
leaf_value=-0.087699754539156155 -0.0029494574104572771 0.019659368892838997 -0.10748478446850525 0.06267760645453381 -0.058154138553405614 0.19042823487323243 0.09086229502477737 0.031602766767480764 0.12600846821784803 -0.12949761504375115 -0.0066145448088166013 -0.10269862253716913 -0.019364896248545184 0.041570140992661188
leaf_weight=65.666895687580109 50.077614918351173 12.083145797252657 4.5204555466771117 9.5017312467098218 7.2584115564823142 3.2688613235950461 5.958617851138114 138.82920369505882 5.1790444254875174 9.6989407539367658 53.255356878042221 4.1678325682878485 142.57573509216309 100.57818114757538
leaf_count=659 218 56 27 45 37 14 27 593 25 50 258 19 669 429
internal_value=0 -0.0509424 -0.0708918 0.00782086 0.0193682 0.0560207 0.00944016 0.00218025 0.0142268 -0.0140261 -0.0255463 0.0276884 -0.014943 0.0267719
internal_weight=0 102.3 79.6891 14.0222 22.6104 15.352 510.321 359.665 211.13 68.1333 62.9543 142.997 148.534 150.656
internal_count=3126 838 731 72 107 70 2288 1641 945 333 308 612 696 647
shrinkage=0.1


Tree=14
num_leaves=15
num_cat=0
split_feature=30 24 21 8 14 23 48 12 0 51 53 53 1 44
split_gain=27.3282 20.7373 6.68178 13.8265 9.4715 6.39301 6.38996 6.20125 7.55614 6.50374 8.70344 14.1481 8.38246 10.7134
threshold=4.503496832834908e-05 0.0039875913829053441 0.15621422730989373 0.015099097538192668 0.81938473991528282 0.0039574110941639094 0.37274290627687018 0.12261902726040888 0.069453764595356335 0.0023676000891331805 0.97235497031790785 0.97205700336931866 0.1209763006763044 0.0038127604741516824
decision_type=2 2 2 2 2 2 2 2 2 2 2 2 2 2
left_child=1 -1 7 -4 5 -5 -3 9 -9 10 11 12 13 -2
right_child=2 6 3 4 -6 -7 -8 8 -10 -11 -12 -13 -14 -15
leaf_value=-0.10111890370190911 0.011849977444332105 0.025674542055342649 -0.083923780210297338 -0.088240235148322813 -0.08832968006461428 0.084380733036382938 -0.12626142134281615 -0.15222608046003364 -0.010052529325132939 0.030562839547032011 -0.01510613170403759 0.091959868491816088 0.1866399469636329 -0.10835488089442068
leaf_weight=44.144147783517838 115.05788610130548 24.952314808964733 23.132024705410004 2.4914589673280778 5.6233605816960326 15.448399953544138 3.1134562939405432 4.006320893764495 55.857194140553474 162.50629058480263 117.97457592189312 23.779694557189941 2.5683224946260443 7.9252779930829993
leaf_count=535 512 115 138 17 30 71 19 18 262 708 545 107 11 38
internal_value=0 -0.0583892 0.00713988 -0.0290037 0.0249113 0.0604074 0.00881963 0.0105865 -0.0195674 0.0147863 0.0051951 0.0212335 0.00783776 0.00410374
internal_weight=0 72.2099 536.371 46.6952 23.5632 17.9399 28.0658 489.676 59.8635 429.812 267.306 149.331 125.551 122.983
internal_count=3126 669 2457 256 118 88 134 2201 280 1921 1213 668 561 550
shrinkage=0.1


Tree=15
num_leaves=15
num_cat=0
split_feature=19 17 43 29 30 51 19 18 18 45 11 30 0 23
split_gain=23.84 16.2945 5.60952 6.02619 6.93709 5.83484 8.09824 9.1578 14.2578 7.70213 11.3212 8.20215 7.29432 6.17543
threshold=0.00017865846623325558 0.34468503937007883 0.038758792480912886 0.00012649169488792133 0.0001769020651329268 0.0016805318279729633 0.00022104202329682859 0.99772317293400947 0.99771559616219052 0.74378722916666684 0.0019299287410926367 0.00014099182894953733 0.027848610924708098 0.0070027850017404187
decision_type=2 2 2 2 2 2 2 2 2 2 2 2 2 2
left_child=1 -1 3 4 -2 12 -7 8 9 10 11 -8 -4 -9
right_child=2 -3 5 -5 -6 6 7 13 -10 -11 -12 -13 -14 -15
leaf_value=-0.092666825977530898 -0.044887158837057656 0.0039247026886356663 0.18593706055399439 0.078483660252916754 0.11399680970982425 -0.036064107074377329 -0.063951688514909386 -0.096068965030740069 0.083333952115177842 0.0090661516494272947 0.16748511286956544 0.15043179425228884 -0.011520680933828673 -0.0039247904624465577
leaf_weight=43.91957264393568 10.899372331798075 28.994631074368954 1.8892594277858723 21.476307705044746 3.674413561820983 30.676550082862377 5.9163459241390246 9.6239155828952772 36.234949514269829 179.43400424718857 7.8354302495717993 2.5554468482732773 191.89141677320004 29.778347417712212
leaf_count=559 53 143 8 97 15 173 28 43 153 785 34 11 897 127
internal_value=0 -0.0542568 0.0067171 0.0448035 -0.00482856 0.00394801 0.0126368 0.0181419 0.0257128 0.0150462 0.0808463 0.000715332 -0.00959557 -0.0264308
internal_weight=0 72.9142 531.886 36.0501 14.5738 495.836 302.055 271.378 231.976 195.741 16.3072 8.47179 193.781 39.4023
internal_count=3126 702 2424 165 68 2259 1354 1181 1011 858 73 39 905 170
shrinkage=0.1


Tree=16
num_leaves=15
num_cat=0
split_feature=49 49 19 38 20 20 23 20 53 29 53 56 3 56
split_gain=21.3213 10.5724 10.356 6.64846 6.44308 9.49655 8.25311 8.64531 7.8511 9.16716 7.48785 9.05753 7.12697 6.87105
threshold=0.59165964616680722 0.57597304128053917 0.00018513373189574592 0.61619263089851339 0.82304251347257951 0.82264626113909356 0.0051442920980989638 0.82248482500322884 0.97450950056155317 0.00035216094178358337 0.97131972617601436 0.1369483138324481 0.00039462815753664172 0.13919470372976489
decision_type=2 2 2 2 2 2 2 2 2 2 2 2 2 2
left_child=1 3 -3 -1 5 6 10 -8 -6 -10 11 -2 -12 -14
right_child=4 2 -4 -5 8 -7 7 -9 9 -11 12 -13 13 -15
leaf_value=0.068512483234109009 -0.0044304712232876671 -0.10320223053661795 -0.024716180173213628 -0.027294849048530318 0.01873650846403652 -0.056423011573654071 0.011574301948185274 0.12294647694918071 0.15909254338332507 -0.052209915498245767 0.0029885788634901015 0.21531422421917409 -0.083033529801703532 0.0021356566758808037
leaf_weight=10.683760315179823 5.6291958093643171 34.914796225726604 32.423359930515289 22.490787468850613 138.94971676915884 27.131271675229073 227.86880031228065 7.1898275315761557 8.2557174414396268 2.7328179925680152 35.840683840215206 2.8131197839975357 30.886872507631779 13.662286467850207
leaf_count=53 26 519 175 119 617 126 999 31 36 13 171 12 159 70
internal_value=0 -0.0426471 -0.0654112 0.00355961 0.00781927 0.000407289 0.00516778 0.0149809 0.0251715 0.106542 -0.0207987 0.0687921 -0.0302072 -0.0569139
internal_weight=0 100.513 67.3382 33.1745 500.96 351.022 323.891 235.059 149.938 10.9885 88.8322 8.44232 80.3898 44.5492
internal_count=3126 866 694 172 2260 1594 1468 1030 666 49 438 38 400 229
shrinkage=0.1


Tree=17
num_leaves=15
num_cat=0
split_feature=49 49 37 9 43 57 0 23 44 49 11 0 19 1
split_gain=17.8921 15.6884 5.59357 5.31858 6.69078 8.4855 5.26713 7.48053 6.35461 6.13293 5.9054 5.87433 7.75464 6.40024
threshold=0.59051390058972208 0.57597304128053917 0.00043950209427172441 0.17044802627959796 0.038757552162288808 0.002409794230920755 0.10951550127499667 0.031089639546307748 0.0047957274244035085 0.59777590564448191 0.00728622327790974 0.025942826466246145 0.0022878290906607839 0.12838868943011575
decision_type=2 2 2 2 2 2 2 2 2 2 2 2 2 2
left_child=1 2 -1 -2 5 -5 7 11 9 -9 -8 -6 13 -13
right_child=3 -3 -4 4 6 -7 10 8 -10 -11 -12 12 -14 -15
leaf_value=0.030002868656792327 -0.015008084270250978 -0.090521060157810543 -0.059800222534005687 0.13946550480891981 0.19674390181297194 -0.044029409799952346 -0.00081480853937269536 0.060701890279712317 -0.029042099676863956 0.17997044646886334 0.16246803707206178 0.020830162749422006 -0.11384824516236397 -0.11770350314258338
leaf_weight=23.222334541380405 99.660782679915428 38.812527488917112 9.8897989317774755 8.3833757378160936 1.7276606559753407 3.6034059822559348 273.24091148376465 13.034705787897115 4.7322532981634131 6.4422098845243445 2.2330754846334449 105.06777586042881 4.7695689350366584 3.4442438632249823
leaf_count=110 455 547 62 38 7 18 1293 53 21 26 9 451 20 16
internal_value=0 -0.0473833 0.00318084 0.00579144 0.0106496 0.0843042 0.00852065 0.0243738 0.0748974 0.100151 0.000508812 0.0137387 0.0109477 0.016433
internal_weight=0 71.9247 33.1121 526.34 426.679 11.9868 414.692 139.218 24.2092 19.4769 275.474 115.009 113.282 108.512
internal_count=3126 719 172 2407 1952 56 1896 594 100 79 1302 494 487 467
shrinkage=0.1


Tree=18
num_leaves=15
num_cat=0
split_feature=19 24 48 38 49 43 23 32 3 9 49 42 11 19
split_gain=15.6145 14.4047 5.13328 5.26675 4.99758 4.46222 5.0125 5.10406 6.78013 5.85167 4.99145 4.81 4.68073 9.08232
threshold=0.00017865846623325558 0.0039875913829053441 0.37274290627687018 0.56973173884938599 0.59425442291491171 0.038760329097874927 0.069402116432070532 0.81583087294332735 0.00043463522921088497 0.18165850668385111 0.59203032855939353 0.0027116011139345828 0.0018942992874109268 0.00022104202329682859
decision_type=2 2 2 2 2 2 2 2 2 2 2 2 2 2
left_child=1 4 3 -3 -1 6 7 8 9 11 -11 -2 -7 -14
right_child=5 2 -4 -5 -6 12 -8 -9 -10 10 -12 -13 13 -15
leaf_value=-0.10193003782166721 0.028078627208904656 0.14851524457181248 -0.1218206247648403 0.0050758279792683034 0.0083382154754779916 -0.0072406036988688291 0.16861890350631695 0.17116806684402786 -0.060361009318115832 -0.036618717011036098 0.14559487157556419 -0.12034358131627139 -0.054647500832218115 0.018319218391877418
leaf_weight=32.222929649055004 22.581871539354328 2.8930246531963411 2.7710011005401602 22.223955690860748 4.7110731080174437 251.33958897739649 2.6243638694286338 2.3120001107454291 8.6653868779540044 1.9014370441436748 7.1810632795095444 2.417189121246337 18.545203417539597 212.82625473290682
leaf_count=542 104 12 19 103 26 1176 11 10 43 10 30 11 108 921
internal_value=0 -0.0469024 0.00734718 0.0215975 -0.0878649 0.00509016 0.0342736 0.0264489 0.0186217 0.0387034 0.107448 0.0137275 0.00220735 0.0124707
internal_weight=0 64.822 27.888 25.117 36.934 530.394 47.6833 45.0589 42.7469 34.0816 9.0825 24.9991 482.711 231.371
internal_count=3126 702 134 115 568 2424 219 208 198 155 40 115 2205 1029
shrinkage=0.1


Tree=19
num_leaves=15
num_cat=0
split_feature=49 56 18 52 52 52 13 7 51 20 20 23 44 42
split_gain=13.5473 7.83517 7.81433 5.33694 8.00989 6.51232 6.15767 6.89546 5.02668 6.57814 8.95198 6.84402 7.65087 12.7932
threshold=0.59165964616680722 0.13796383358967815 0.9976920953275662 0.819098335153159 0.82081396099702975 0.82052337595247327 8.3169837072421743e-05 0.082582435524640216 0.00069635296739211185 0.82304251347257951 0.82264626113909356 0.0051442920980989638 0.0035226752426022029 0.0030015670875636383
decision_type=2 2 2 2 2 2 2 2 2 2 2 2 2 2
left_child=1 3 -3 -1 5 -5 7 -6 -2 10 11 12 13 -10
right_child=8 2 -4 4 6 -7 -8 -9 9 -11 -12 -13 -14 -15
leaf_value=-0.070666717163823098 -0.031142791941692217 0.1623100355707906 -0.09287987763737636 0.021025116149349141 -0.048197523007656728 0.27401567246572178 0.11721123469541433 0.042328269830446769 -0.014503812940582755 0.026783815148953768 -0.057850359325727643 0.014801551948351128 -0.078642606642057883 0.1721099855234251
leaf_weight=14.37870893627405 34.09647336602211 1.2583974897861505 25.83752853423357 2.324244573712348 31.175300274044275 1.8097260966897009 3.3407417759299269 11.52491572499275 62.306168794631958 139.7949656099081 24.057322926819324 219.17597117275 17.037078030407429 3.9037669971585265
leaf_count=160 157 7 391 14 214 9 17 54 304 618 114 955 93 19
internal_value=0 -0.0358981 -0.0810283 -0.016955 -0.00156272 0.131777 -0.0135351 -0.0237643 0.00592192 0.00863229 0.000860021 0.00553035 -0.0188792 -0.00350098
internal_weight=0 91.6496 27.0959 64.5536 50.1749 4.13397 46.041 42.7002 500.372 466.275 326.48 302.423 83.247 66.2099
internal_count=3126 866 398 468 308 23 285 268 2260 2103 1485 1371 416 323
shrinkage=0.1


Tree=20
num_leaves=15
num_cat=0
split_feature=30 24 52 43 0 32 45 23 23 49 58 43 0 41
split_gain=11.9314 13.6986 4.38666 4.33397 4.56201 6.57311 9.01662 6.60601 6.11333 8.28618 7.76133 9.80242 9.43083 7.7096
threshold=4.503496832834908e-05 0.0039875913829053441 0.82523290831601581 0.038758792480912886 0.20499932894913434 0.81583939670932371 0.74377939583333341 0.0055151875144851181 0.0046840201619324289 0.60170176916596474 1.2150000000000001 0.03876620683002123 0.12485572406388407 0.036400765362511057
decision_type=2 2 2 2 2 2 2 2 2 2 2 2 2 2
left_child=1 -1 -3 -2 8 6 -6 -8 9 10 13 -12 -13 -5
right_child=3 2 -4 4 5 -7 7 -9 -10 -11 11 12 -14 -15
leaf_value=-0.092390949025075733 0.036508228128733708 -0.013741180345768173 0.086104684366580045 0.21634205308903376 -0.00022827378921451243 -0.033659032481470529 0.017723256681227088 0.27075476133327564 0.01290426857960672 0.062279262821012274 -0.10720675340596023 0.0094234220941332644 0.21709591499360659 -0.049200448519736269
leaf_weight=28.877265173941851 38.286840796470642 22.107207067310814 5.4936803579330435 1.1137295216321934 24.118521425873045 71.509579330682755 1.850360058248042 2.332324244081974 310.32770834118128 11.289601594209669 3.1981684416532508 5.2042043507099134 3.7713811472058296 59.785562325268984
leaf_count=535 179 109 25 6 119 365 10 11 1333 50 17 26 18 323
internal_value=0 -0.0442427 0.00613214 0.00409483 0.00158522 -0.0175148 0.0232773 0.158817 0.0064153 -0.0174543 -0.029773 0.0431196 0.0966837 -0.0443442
internal_weight=0 56.4782 27.6009 532.788 494.501 99.8108 28.3012 4.18268 394.69 84.3626 73.073 12.1738 8.97559 60.8993
internal_count=3126 669 134 2457 2278 505 140 21 1773 440 390 61 44 329
shrinkage=0.1


Tree=21
num_leaves=15
num_cat=0
split_feature=19 47 49 48 51 12 19 19 46 13 14 29 19 44
split_gain=10.473 11.0857 4.50526 4.33828 4.2927 4.12046 8.4446 9.28095 7.10558 9.65236 8.76265 10.9784 9.34267 8.97204
threshold=0.00017865846623325558 0.05427135678391961 0.59425442291491171 0.37274290627687018 0.0020333506647849668 0.12261902726040888 0.00032464627389667367 0.00031051842154214936 0.01134875862284542 0.00025306377775882174 0.82633382319425996 5.3015642638284153e-05 0.00038763294897726136 0.0042517493644879207
decision_type=2 2 2 2 2 2 2 2 2 2 2 2 2 2
left_child=1 2 -1 -3 -4 8 7 -7 9 -2 11 -10 -12 -13
right_child=5 3 4 -5 -6 6 -8 -9 10 -11 12 13 -14 -15
leaf_value=-0.099787198377967568 0.0086967222200129753 0.016964103781894408 -0.094268976680493347 -0.11875443220361499 0.096326443385421401 0.00037727596965815124 -0.054638199849251251 0.19054647995422089 0.21211547646617626 -0.043477463238318886 0.31427076144344418 -0.028086233569008873 0.060444458346623126 0.13343079731365848
leaf_weight=25.308368511497978 390.78140453994274 25.439527422189716 2.2367416471242896 2.5955641865730277 2.5052386373281479 31.170305334031582 33.664111912250519 2.7965760976076117 2.8457097560167375 38.997173555195332 2.4100982993841162 17.66970464587212 3.6405060887336731 4.2703450918197623
leaf_count=533 1784 123 13 20 13 150 156 12 12 181 12 82 16 19
internal_value=0 -0.0408306 -0.0830269 0.00439892 0.00642461 0.00390523 -0.0191437 0.0160344 0.00728945 0.00396255 0.0536578 0.0273197 0.161549 0.00335095
internal_weight=0 58.0854 30.0503 28.0351 4.74198 528.246 67.631 33.9669 460.615 429.779 30.8364 24.7858 6.0506 21.94
internal_count=3126 702 559 143 26 2424 318 162 2106 1965 141 113 28 101
shrinkage=0.1


Tree=22
num_leaves=15
num_cat=0
split_feature=23 46 1 32 18 53 53 47 26 7 25 1 48 12
split_gain=8.88951 8.33736 5.17264 5.53451 4.68242 5.76665 5.75147 5.12387 4.44914 3.81793 3.57657 7.30337 6.02222 3.56164
threshold=0.0037423687389005387 0.010776561983307916 0.11729701562954252 0.81587723948811708 0.99770337725019898 0.97214295537371942 0.97200065705532268 0.15477386934673371 0.068651059423878516 0.10206657197914053 0.74095607235142136 0.1173090871047472 0.052450558899398113 0.12261902726040888
decision_type=2 2 2 2 2 2 2 2 2 2 2 2 2 2
left_child=1 2 -1 4 5 6 7 8 10 -5 11 -4 -12 -2
right_child=13 -3 3 9 -6 -7 -8 -9 -10 -11 12 -13 -14 -15
leaf_value=-0.079482088905238127 0.0075561690403360918 -0.10473272301437436 0.77091713186092747 -0.076926954922537566 0.09201772827375404 -0.097125220926670017 0.21101648141051174 0.11562923543118116 -0.14762504588432915 0.045543303012283959 -0.029269807604686067 -0.032245036335836405 0.18923012688749485 -0.017201820195612765
leaf_weight=11.04543239250779 440.28383983671665 13.137021735310553 0.11427925154568441 13.003950256854298 6.82299581170082 5.0567977987229815 1.4829262904822815 3.7098596841096869 2.1684088334441176 3.1649996489286414 2.6404834687709799 12.195033013820646 2.4151749014854431 66.940093874931335
leaf_count=170 1971 253 3 117 32 62 16 18 11 16 11 119 10 317
internal_value=0 -0.0321856 -0.0172522 -0.00422794 0.0172945 0.000176075 0.0200754 0.00789325 -0.0125684 -0.0529539 0.00429646 -0.0247885 0.0751114 0.00428877
internal_weight=0 76.9574 63.8203 52.7749 36.606 29.783 24.7262 23.2432 19.5334 16.1689 17.365 12.3093 5.05566 507.224
internal_count=3126 838 585 415 282 250 188 172 154 133 143 122 21 2288
shrinkage=0.1


Tree=23
num_leaves=15
num_cat=0
split_feature=19 24 33 8 25 48 34 15 3 43 44 44 46 53
split_gain=7.76316 9.78131 3.89034 5.5514 4.5135 5.3019 5.19652 3.76934 5.51247 4.36356 4.09303 6.27378 5.76755 5.07548
threshold=0.00017865846623325558 0.0039875913829053441 0.3994591545301639 0.015187611112785129 0.58591731266149882 0.092433361994840937 0.3257158869112366 0.18775903161800103 0.00041904540190194922 0.03876940409580773 0.0031534971299580282 0.0031457750439339897 0.010572558581057627 0.97232154453841868
decision_type=2 2 2 2 2 2 2 2 2 2 2 2 2 2
left_child=1 -1 4 -4 -3 6 -6 10 -9 -10 11 -2 -12 -14
right_child=7 2 3 -5 5 -7 -8 8 9 -11 12 -13 13 -15
leaf_value=-0.079098627725360901 0.014082550764680025 -0.087801012418383576 -0.087686616335804754 0.037452720910828428 0.12063544633704906 0.1943263310532431 -0.040264433539095638 -0.10555498868081942 -0.075894869618321897 0.10542348628840732 -0.066463115163581762 0.11885901738255095 0.019211971303458968 -0.0069722625901302814
leaf_weight=27.054016079753637 149.69581767916679 2.1183623597025898 7.7074919044971448 6.5640635341405869 3.6317921131849271 2.6623094975948325 4.4873674660921097 7.5140002816915494 2.3419899791479111 3.0633381009101868 13.099856555461882 5.941634699702262 107.21883625537157 239.14134274423122
leaf_count=568 664 12 43 34 15 11 19 35 12 14 59 26 501 1113
internal_value=0 -0.0365352 0.00584446 -0.03013 0.0456443 0.0718639 0.0317079 0.00319734 -0.0501526 0.0268629 0.00453543 0.0180825 -0.00133013 0.0011333
internal_weight=0 54.2254 27.1714 14.2716 12.8998 10.7815 8.11916 528.017 12.9193 5.40533 515.097 155.637 359.46 346.36
internal_count=3126 702 134 77 57 45 34 2424 61 26 2363 690 1673 1614
shrinkage=0.1


Tree=24
num_leaves=15
num_cat=0
split_feature=49 11 15 58 49 54 51 15 53 20 20 53 29 30
split_gain=7.42814 5.88039 4.56771 4.25684 6.13191 7.14662 4.20426 5.37637 7.02306 4.10849 7.56457 6.53003 6.84412 6.63422
threshold=0.59165964616680722 0.0013242280285035632 0.16420403179411316 1.8950000000000002 0.59080033698399337 0.94185917904989569 0.00069635296739211185 0.18240448851161753 0.97568895306638559 0.82304251347257951 0.82264626113909356 0.97447702980433515 0.00035216094178358337 6.740527939341137e-05
decision_type=2 2 2 2 2 2 2 2 2 2 2 2 2 2
left_child=1 3 -2 4 -1 -6 7 -4 -9 10 -8 13 -13 -11
right_child=2 -3 6 -5 5 -7 9 8 -10 11 -12 12 -14 -15
leaf_value=-0.0098096638135864861 0.15103573434854753 -0.059388345531306723 -0.048402430527123286 -0.11550523058616038 -0.014393556718964513 0.23535037027148289 0.0040927129996042363 0.14592761824497394 -0.084178490984745585 0.082163017645451919 -0.054683187299491114 0.13603361350212725 -0.047768255195089836 0.0062390520773647137
leaf_weight=38.60678730532527 2.1066589504480353 35.049364972859621 28.171825259923935 3.2496709302067748 2.2548018842935553 2.3296397477388382 301.17920296266675 3.4956078380346289 2.1374149769544601 12.802509963512419 23.613879010081291 8.6849920898675901 2.6422392576932898 113.89657501131296
leaf_count=297 9 490 130 56 11 12 1371 15 12 62 114 37 13 497
internal_value=0 -0.0284668 0.00409814 -0.0051301 0.00317443 0.112517 0.00347484 -0.0305697 0.0586153 0.00596149 -0.000180552 0.0204145 0.0931592 0.0139109
internal_weight=0 81.4903 498.731 46.4409 43.1912 4.58444 496.624 33.8048 5.63302 462.819 324.793 138.026 11.3272 126.699
internal_count=3126 866 2260 376 320 23 2251 157 27 2094 1485 609 50 559
shrinkage=0.1


Tree=25
num_leaves=15
num_cat=0
split_feature=23 44 11 0 18 9 13 8 29 3 0 21 51 45
split_gain=6.21921 7.69343 3.8486 4.04531 6.01194 5.77058 8.40463 6.92465 6.56228 6.92965 5.34202 9.26806 5.29376 5.2096
threshold=0.0037423687389005387 0.0034460003884443278 0.00044536817102137769 0.12836532009126295 0.99774380096877291 0.17806313704841767 0.0010591714293838326 0.01476434673215416 0.00056371956136107087 0.0004019433467331495 0.13476043484096098 0.15547833197056421 0.0018847953650746494 0.74385487500000014
decision_type=2 2 2 2 2 2 2 2 2 2 2 2 2 2
left_child=1 -1 -2 -4 5 8 7 -7 -5 -10 11 -9 -6 -12
right_child=2 -3 3 4 12 6 -8 10 9 -11 13 -13 -14 -15
leaf_value=-0.015042730339170411 -0.067069007484061152 -0.11071544541303545 0.01403199663535803 -0.032994141019502064 0.21149566529262176 0.045726142572257683 0.15911553077026722 0.050268801846238047 0.1419164447833276 -0.010858948552732482 -0.0058416220851960588 -0.12905914826148798 0.0063234802779089166 0.094874463727258565
leaf_weight=62.187944898381829 7.6220379695296279 9.7186556402593833 236.10248617082834 94.435643881559372 2.4037006497383109 30.001126319169998 3.5251329019665709 4.3410864472389212 4.5706006065011016 8.4725154489278776 98.638787016272545 8.5744892507791501 2.6373490393161774 5.41787065565586
leaf_count=607 35 231 1014 447 10 132 17 18 21 40 481 39 11 23
internal_value=0 -0.0279735 0.00345304 0.00452998 -0.00399965 -0.00611306 0.00652599 0.00286615 -0.0238111 0.042677 -0.00812661 -0.0687848 0.104155 -0.000597683
internal_weight=0 71.9066 506.743 499.121 263.018 257.977 150.498 146.973 107.479 13.0431 116.972 12.9156 5.04105 104.057
internal_count=3126 838 2288 2253 1239 1218 710 693 508 61 561 57 21 504
shrinkage=0.1


end of trees

feature_importances:
Column_23=29
Column_49=29
Column_19=24
Column_0=21
Column_18=17
Column_53=16
Column_11=13
Column_43=13
Column_44=13
Column_24=11
Column_30=11
Column_51=11
Column_9=10
Column_20=9
Column_29=9
Column_58=8
Column_3=7
Column_13=7
Column_32=7
Column_46=7
Column_48=7
Column_52=7
Column_25=6
Column_41=6
Column_45=6
Column_1=5
Column_8=5
Column_12=5
Column_33=5
Column_47=5
Column_57=5
Column_15=4
Column_14=3
Column_21=3
Column_42=3
Column_56=3
Column_7=2
Column_37=2
Column_38=2
Column_54=2
Column_17=1
Column_26=1
Column_34=1
Column_35=1
Column_50=1
Column_55=1

parameters:
[boosting: gbdt]
[objective: binary]
[metric: binary_logloss]
[tree_learner: serial]
[device_type: cpu]
[data: ]
[valid: ]
[num_iterations: 10000]
[learning_rate: 0.1]
[num_leaves: 15]
[num_threads: 0]
[force_col_wise: 0]
[force_row_wise: 0]
[histogram_pool_size: -1]
[max_depth: -1]
[min_data_in_leaf: 10]
[min_sum_hessian_in_leaf: 0.001]
[bagging_fraction: 0.8]
[pos_bagging_fraction: 1]
[neg_bagging_fraction: 1]
[bagging_freq: 0]
[bagging_seed: 10961]
[feature_fraction: 0.8]
[feature_fraction_bynode: 1]
[feature_fraction_seed: 53]
[extra_trees: 0]
[extra_seed: 11644]
[early_stopping_round: 50]
[first_metric_only: 0]
[max_delta_step: 0]
[lambda_l1: 0]
[lambda_l2: 0]
[min_gain_to_split: 0]
[drop_rate: 0.1]
[max_drop: 50]
[skip_drop: 0.5]
[xgboost_dart_mode: 0]
[uniform_drop: 0]
[drop_seed: 30626]
[top_rate: 0.2]
[other_rate: 0.1]
[min_data_per_group: 100]
[max_cat_threshold: 32]
[cat_l2: 10]
[cat_smooth: 10]
[max_cat_to_onehot: 4]
[top_k: 20]
[monotone_constraints: ]
[monotone_constraints_method: basic]
[monotone_penalty: 0]
[feature_contri: ]
[forcedsplits_filename: ]
[refit_decay_rate: 0.9]
[cegb_tradeoff: 1]
[cegb_penalty_split: 0]
[cegb_penalty_feature_lazy: ]
[cegb_penalty_feature_coupled: ]
[path_smooth: 0]
[interaction_constraints: ]
[verbosity: -1]
[saved_feature_importance_type: 0]
[max_bin: 255]
[max_bin_by_feature: ]
[min_data_in_bin: 3]
[bin_construct_sample_cnt: 200000]
[data_random_seed: 4071]
[is_enable_sparse: 1]
[enable_bundle: 1]
[use_missing: 1]
[zero_as_missing: 0]
[feature_pre_filter: 1]
[pre_partition: 0]
[two_round: 0]
[header: 0]
[label_column: ]
[weight_column: ]
[group_column: ]
[ignore_column: ]
[categorical_feature: ]
[forcedbins_filename: ]
[objective_seed: 602]
[num_class: 1]
[is_unbalance: 0]
[scale_pos_weight: 1]
[sigmoid: 1]
[boost_from_average: 1]
[reg_sqrt: 0]
[alpha: 0.9]
[fair_c: 1]
[poisson_max_delta_step: 0.7]
[tweedie_variance_power: 1.5]
[lambdarank_truncation_level: 20]
[lambdarank_norm: 1]
[label_gain: ]
[eval_at: ]
[multi_error_top_k: 1]
[auc_mu_weights: ]
[num_machines: 1]
[local_listen_port: 12400]
[time_out: 120]
[machine_list_filename: ]
[machines: ]
[gpu_platform_id: -1]
[gpu_device_id: -1]
[gpu_use_dp: 0]

end of parameters

pandas_categorical:null
