tree
version=v3
num_class=1
num_tree_per_iteration=1
label_index=0
max_feature_idx=58
objective=binary sigmoid:1
feature_names=Column_0 Column_1 Column_2 Column_3 Column_4 Column_5 Column_6 Column_7 Column_8 Column_9 Column_10 Column_11 Column_12 Column_13 Column_14 Column_15 Column_16 Column_17 Column_18 Column_19 Column_20 Column_21 Column_22 Column_23 Column_24 Column_25 Column_26 Column_27 Column_28 Column_29 Column_30 Column_31 Column_32 Column_33 Column_34 Column_35 Column_36 Column_37 Column_38 Column_39 Column_40 Column_41 Column_42 Column_43 Column_44 Column_45 Column_46 Column_47 Column_48 Column_49 Column_50 Column_51 Column_52 Column_53 Column_54 Column_55 Column_56 Column_57 Column_58
feature_infos=[0:1] [0:1] [0:1] [0:1] [0:1] [0:1] [0:0.63259234121673757] [0:1] [0.0048403742429264469:0.79436225027872365] [0:1] [0:0.89692722371967648] [0:0.60700712589073635] [0:1] [0:0.50814353550001423] [0:1] [0:1] [0:1] [0:1] [0:1] [0:0.905813140315475] [0:1] [0:0.29370400654129192] [0:1] [0:0.52099721354864592] [0:0.79913836121014803] [0:1] [0:0.29253904403218506] [0:0.94555049191697438] [0:1] [0:0.91478088211578767] [0:0.90575152471330678] [0:1] [0:0.85213053016453388] [0:0.73059819077620924] [0:0.85262682364582376] [0.0059419582893115493:0.60780116101916304] [0:1] [0:1] [0:1] [0:1] [0:1] [0:0.048127652519893899] [0:0.7170045703452177] [0:0.050371516771864064] [0:0.53406024943117869] [0:0.77762837500000004] [0:0.53955774036618609] [0:1] [0:0.98710232158211519] [0:0.97206402695871941] [0:0.89570333071852315] [0:0.94908267102428889] [0:1] [0:1] [0:1] [0:1] [0:1] [0:0.79830039372850981] [-104.73999999999999:696.33000000000004]
tree_sizes=1704 1697 1703 1710 1710 1709 1706 1701 1717 1703 1713 1699 1708 1703 1702 1698 1711 1717 1712 1707 1690 1717 1715 1691 1718 1696 1725 1690

Tree=0
num_leaves=15
num_cat=0
split_feature=23 0 30 47 30 13 32 23 19 0 35 20 49 41
split_gain=236.403 43.0585 39.5153 36.7138 21.3748 19.8824 15.5002 13.7736 13.4346 13.0514 12.7478 12.556 12.7948 11.903
threshold=0.003749719651568503 0.16770903234465176 0.0001769020651329268 0.060301507537688447 4.6212353121247091e-05 0.00029429326964087701 0.81587675959780626 0.0076231021251082056 0.00027990807477401331 0.14230975707958668 0.018717677221876731 0.82440664882063575 0.62796967144060667 0.036413910532714415
decision_type=2 2 2 2 2 2 2 2 2 2 2 2 2 2
left_child=3 2 7 4 -1 11 -5 8 10 -6 -2 12 -4 -9
right_child=1 -3 5 6 9 -7 -8 13 -10 -11 -12 -13 -14 -15
leaf_value=-0.9802038474931638 -0.83528591976449784 -0.84133292276982075 -0.74617249246615791 -0.76369745652862564 -0.95506773175412385 -0.8166729193231711 -0.91226850649406954 -0.70281520824235699 -0.9064588612402944 -0.84160254887354535 -0.71428004720535565 -0.64661620982426293 -0.55943883132577643 -0.8080798845246191
leaf_weight=107.50260025262833 62.39366602897644 174.53363335132599 111.50759908556938 15.176837682724001 19.181836515665054 31.618411839008331 13.068943560123442 15.809205919504164 22.765256524085999 21.500520050525665 10.117891788482664 16.441574156284332 3.7942094206809989 33.515516549348831
leaf_count=510 296 828 529 72 91 150 62 75 108 102 48 78 18 159
internal_value=-0.837871 -0.801651 -0.779162 -0.936924 -0.95684 -0.745461 -0.832439 -0.817235 -0.839442 -0.895102 -0.818401 -0.72837 -0.740028 -0.774341
internal_weight=0 482.497 307.963 176.431 148.185 163.362 28.2458 144.602 95.2768 40.6824 72.5116 131.743 115.302 49.3247
internal_count=3126 2289 1461 837 703 775 134 686 452 193 344 625 547 234
shrinkage=1


Tree=1
num_leaves=15
num_cat=0
split_feature=23 25 0 18 30 11 49 9 18 49 20 29 23 57
split_gain=197.474 33.9115 33.5261 32.3747 18.2804 15.4622 17.2169 12.853 12.0657 14.3317 11.7622 14.7129 11.756 11.5743
threshold=0.003749719651568503 0.5904392764857882 0.16770903234465176 0.99770982202472169 4.6212353121247091e-05 0.0019418052256532068 0.59182813816343727 0.17293924414720976 0.99770771023144633 0.61026116259477681 0.82303737686825651 0.00011258264796000647 0.014309464862764779 0.0016724764516647189
decision_type=2 2 2 2 2 2 2 2 2 2 2 2 2 2
left_child=1 4 3 5 -1 -2 -7 -5 -4 12 -8 -12 13 -10
right_child=2 -3 8 7 -6 6 10 -9 9 -11 11 -13 -14 -15
leaf_value=-0.13231620039887945 0.0019324134006297852 0.021038145414810229 -0.031480836687538746 0.047609416164400328 -0.052878971587531791 -0.068101162278148483 0.050747308948937156 0.11430752949343384 0.080443722731868686 -0.0096115091067717189 0.21788087744732515 0.043173711917133144 0.28875845030837155 -0.083731146409978863
leaf_weight=106.96965032815933 113.19735269248486 22.501963466405869 80.621529266238213 44.713043197989464 39.728479638695717 9.1532183587551099 46.368161499500275 81.653760656714439 28.628010392189026 57.677020937204361 11.248012572526934 8.435230538249014 2.3155008405446997 5.0520018339157096
leaf_count=537 531 107 383 206 193 43 216 374 136 274 52 39 11 24
internal_value=0 -0.0932696 0.0320653 0.0515482 -0.110803 0.025283 0.0604301 0.0907074 -0.00312026 0.021289 0.0782416 0.14301 0.070802 0.0558175
internal_weight=0 169.2 489.063 314.769 146.698 188.402 75.2046 126.367 174.294 93.6725 66.0514 19.6832 35.9955 33.68
internal_count=3126 837 2289 1461 730 881 350 580 828 445 307 91 171 160
shrinkage=0.1


Tree=2
num_leaves=15
num_cat=0
split_feature=23 24 0 18 30 33 23 41 0 53 51 19 1 3
split_gain=165.405 32.2829 27.7468 19.8528 19.2093 12.45 12.0848 15.0688 11.7446 11.4913 11.1457 10.8109 11.704 10.4265
threshold=0.003749719651568503 0.0035834151964902316 0.12832505703932359 0.99770999325120335 4.6212353121247091e-05 0.399036646799311 0.0047002793425171335 0.036510782769672866 0.14230975707958668 0.97213627021782156 0.00062207531753695326 0.00022810594947409075 0.12267536081136408 0.00080420326290556209
decision_type=2 2 2 2 2 2 2 2 2 2 2 2 2 2
left_child=1 4 3 6 -1 -3 -2 11 -6 -10 -5 -8 -13 -12
right_child=2 5 -4 10 8 -7 7 -9 9 -11 13 12 -14 -15
leaf_value=-0.13211714325399188 -0.027139213101941052 0.090480075683730579 0.006527809618611974 -0.062470153351954605 -0.10844765883084749 -0.046333614869230988 -0.02992305850978412 -0.06919405342831661 0.090303127036554132 -0.05996717150817954 0.10236375721381302 0.087406063482076135 -0.017850216397701794 -0.10776144037531975
leaf_weight=95.831022515892982 29.656973540782928 11.476888269186022 266.09726399183273 4.6230178326368323 17.825881019234657 15.819292783737181 12.164625778794287 10.352330461144446 8.6510775089263934 12.358682155609129 87.95775993168354 68.523869723081589 12.489774331450461 2.4266151934862128
leaf_count=513 139 54 1249 21 91 77 57 48 42 60 391 315 58 11
internal_value=0 -0.087974 0.0284684 0.0540532 -0.108074 0.0111907 0.0291414 0.0452633 -0.0487457 0.00190883 0.0889761 0.0579798 0.0711788 0.0967224
internal_weight=0 161.963 494.292 228.195 134.667 27.2962 133.188 103.531 38.8356 21.0098 95.0074 93.1783 81.0136 90.3844
internal_count=3126 837 2289 1040 706 131 617 478 193 102 423 430 373 402
shrinkage=0.1


Tree=3
num_leaves=15
num_cat=0
split_feature=19 24 19 58 13 52 18 32 0 41 29 52 0 41
split_gain=133.922 36.9221 25.171 19.3985 16.5605 15.553 15.3354 10.3965 9.58776 12.4659 10.0696 9.10058 9.27952 7.86999
threshold=0.00017748114520371191 0.0035834151964902316 0.00023811317822521215 0.38500000000000006 0.00040518638573743931 0.8252380449203387 0.99770924175719999 0.81586432815356502 0.16317943900147633 0.036401393954465081 0.0013617763263989683 0.82289061674474318 0.10144275936115958 0.036409980106100803
decision_type=2 2 2 2 2 2 2 2 2 2 2 2 2 2
left_child=1 -1 3 -2 6 -3 -4 -7 -8 -10 -11 12 -5 -14
right_child=2 5 4 11 -6 7 8 -9 9 10 -12 -13 13 -15
leaf_value=-0.12127771381776478 -0.065132972726749699 -0.028136800625672972 0.019838189101962445 0.14774311418916802 -0.015756568310313995 0.27147940827451306 0.078978265030854061 -0.0071038628382121306 0.17028092994629074 0.0062333391922232704 0.22729211408947958 0.053791336941498319 0.0014319343877656359 -0.086052097181524845
leaf_weight=98.944632470607758 49.339191064238548 21.802581340074543 152.10260263085365 3.4077296108007422 55.476824507117271 3.3219742178916922 121.74781399965286 2.2448739111423492 5.7247972339391699 51.616364076733589 2.146290034055709 33.920402735471725 37.369705870747566 14.186623722314833
leaf_count=559 238 105 704 16 259 15 533 11 27 242 10 161 178 68
internal_value=0 -0.0928427 0.0218017 -0.0148512 0.0348319 0.00995437 0.0432512 0.159139 0.0629007 0.0299963 0.0150584 0.0130598 -0.0120771 -0.0226408
internal_weight=0 126.314 527.038 138.224 388.815 27.3694 333.338 5.56685 181.235 59.4875 53.7627 88.8845 54.9641 51.5563
internal_count=3126 690 2436 661 1775 131 1516 26 812 279 252 423 262 246
shrinkage=0.1


Tree=4
num_leaves=15
num_cat=0
split_feature=49 24 19 57 19 9 52 41 21 52 11 41 39 8
split_gain=124.196 25.0531 20.3727 18.3203 13.444 14.138 13.2377 12.4272 12.3099 12.0335 9.0977 8.78213 8.18782 8.11046
threshold=0.59162594776748112 0.0035834151964902316 0.00017748114520371191 0.00027381144338710313 0.00036879581250456222 0.1682082878181804 0.82306232608925378 0.036409828138815221 0.15564186426819299 0.8252380449203387 0.0013242280285035632 0.036399349303713531 0.99950549558583546 0.015372077168770907
decision_type=2 2 2 2 2 2 2 2 2 2 2 2 2 2
left_child=1 2 -1 4 5 -2 8 -7 -5 -3 -4 -8 -11 -6
right_child=3 9 10 6 13 7 11 -9 -10 12 -12 -13 -14 -15
leaf_value=-0.12488526438863415 -0.055927513277904864 -0.025632530095159419 0.017719436561209879 0.0092796717489935562 0.075113389063250519 0.10384131949358291 0.15916883642596155 0.016934697011745645 -0.046311175348139458 0.25796144427233342 -0.076522024218298151 0.030065894783136562 0.020585202021044177 -0.071410329963849217
leaf_weight=85.480730727314949 19.740872219204903 21.553060054779056 16.482287436723709 122.33512133359909 107.54765392839909 21.518742904067039 5.6221095770597449 69.904933109879494 59.065908432006836 2.8389563858509055 27.06221342086792 83.890254244208336 2.9766840785741806 3.9152434617280951
leaf_count=523 92 105 77 565 470 100 27 324 283 12 131 385 14 18
internal_value=0 -0.0780908 -0.0965244 0.0241721 0.0454256 0.0208186 0.00670664 0.0373902 -0.00882124 0.00881143 -0.0408501 0.0381746 0.136463 0.0699666
internal_weight=0 156.394 129.025 493.541 222.627 111.165 270.913 91.4237 181.401 27.3687 43.5445 89.5124 5.81564 111.463
internal_count=3126 862 731 2264 1004 516 1260 424 848 131 208 412 26 488
shrinkage=0.1


Tree=5
num_leaves=15
num_cat=0
split_feature=49 25 23 23 20 51 19 1 57 29 44 1 58 46
split_gain=104.665 22.5498 19.3073 18.1055 13.0231 10.6933 10.2665 12.4579 13.0379 9.76437 8.81167 9.38399 12.3532 11.1196
threshold=0.59162594776748112 0.63759689922480633 0.0067129797998487038 0.0040317380772163383 0.82303737686825651 0.011902993389289166 0.00023811317822521215 0.11806908706450896 0.001120058557729748 1.0000000180025095e-35 0.0035881179716342046 0.11907403737529916 0.18500000000000003 0.010795810691423468
decision_type=2 2 2 2 2 2 2 2 2 2 2 2 2 2
left_child=1 3 4 -1 6 10 7 8 -2 -8 11 13 -13 -4
right_child=2 -3 5 -5 -6 -7 9 -9 -10 -11 -12 12 -14 -15
leaf_value=-0.10875815840609869 -0.015471519153783996 0.028746792598779471 0.051743114150019254 -0.019776210592708784 0.035300123807657811 0.13282825491862027 -0.064280307016193292 -0.08596263133128039 0.24736189794690905 0.018850863721613469 0.011681556052573415 0.049970501026815939 0.19795246231929264 -0.030975465130026192
leaf_weight=101.04560646414757 23.09300318360329 18.715604409575462 114.35177825391293 29.555324643850327 73.885714203119278 11.877001494169233 17.094754964113235 35.543261483311653 2.0552922189235678 81.445833593606949 94.927659317851067 14.290104836225511 9.3203530609607679 18.943247869610786
leaf_count=633 113 89 502 140 336 51 77 176 10 373 436 64 41 85
internal_value=0 -0.0739102 0.021569 -0.0886213 0.000602133 0.0401036 -0.0154982 -0.047853 0.00600904 0.00442932 0.0357305 0.05028 0.108387 0.0399875
internal_weight=0 149.317 496.828 130.601 233.118 263.71 159.232 60.6916 25.1483 98.5406 251.833 156.905 23.6105 133.295
internal_count=3126 862 2264 773 1085 1179 749 299 123 450 1128 692 105 587
shrinkage=0.1


Tree=6
num_leaves=15
num_cat=0
split_feature=23 24 30 30 8 52 43 58 18 23 9 49 42 43
split_gain=89.2813 22.953 14.993 14.3946 12.0623 9.49122 8.79333 9.32249 8.03629 7.99838 9.90844 7.69379 13.4816 8.7607
threshold=0.003749719651568503 0.0035834151964902316 4.6212353121247091e-05 0.00016336214001459962 0.015657109711634077 0.8252380449203387 0.038764277445494898 0.46500000000000002 0.99770238794163768 0.0075824003028673983 0.17998656156923151 0.60690817186183665 0.0032081543192419878 0.038767943276094931
decision_type=2 2 2 2 2 2 2 2 2 2 2 2 2 2
left_child=1 2 -1 9 11 -3 7 -4 -6 10 -2 13 -13 -5
right_child=3 5 6 4 8 -7 -8 -9 -10 -11 -12 12 -14 -15
leaf_value=-0.11924707897092231 -0.041130009408196166 -0.021247930964484834 -0.082738623468404604 0.13282833552638745 0.1732065995774075 0.12214888979298673 -0.070936783021890201 0.11463343115165808 -0.023956422503449711 0.028832791202130961 0.0085584515506436677 0.0064106309510602857 0.1199348641491618 0.050564545196022208
leaf_weight=72.397959813475609 65.755973920226097 21.034457296133045 3.8926213681697828 14.547955706715582 2.1789015084505072 5.9133774638175955 26.674295574426651 6.2122596353292465 40.363755717873573 72.905789002776146 102.98842513561249 77.725998729467392 12.087620139122008 117.53200136125088
leaf_count=513 316 105 21 62 10 26 142 30 186 330 484 342 54 505
internal_value=0 -0.0724334 -0.0928342 0.0187966 0.0349187 0.0102188 -0.0408418 0.0386014 -0.0138584 0.00115438 -0.010804 0.0442705 0.0216894 0.0596255
internal_weight=0 136.125 109.177 506.086 264.436 26.9478 36.7792 10.1049 42.5427 241.65 168.744 221.894 89.8136 132.08
internal_count=3126 837 706 2289 1159 131 193 51 196 1130 800 963 396 567
shrinkage=0.1


Tree=7
num_leaves=15
num_cat=0
split_feature=49 49 0 43 11 19 42 0 0 9 41 49 1 19
split_gain=77.7335 26.2774 14.1895 12.514 11.2019 9.41636 9.04214 7.7629 11.8363 7.72502 7.58475 7.62613 8.19481 10.065
threshold=0.59071609098567823 0.58899747262005064 0.16770903234465176 0.038760218847330566 0.0018705463182897865 0.00021809872072296935 0.0027101134153758519 0.058978660582472156 0.081807811032076252 0.17488820954521525 0.036410891909814329 0.59556866048862689 0.12083144297384817 0.0037321076636535108
decision_type=2 2 2 2 2 2 2 2 2 2 2 2 2 2
left_child=1 -1 4 -4 6 -6 -2 -8 -9 -7 -11 -12 13 -13
right_child=2 -3 3 -5 5 9 7 8 -10 10 11 12 -14 -15
leaf_value=-0.0053742715064641041 0.040894116685118873 -0.10893059442792662 0.056450358791493273 -0.017000485145634719 -0.062287763677654762 0.0138762435064647 -0.086908736585709856 0.09797544494011301 -0.01039741558770629 0.15030912973588623 0.013142933780021149 0.10163644627797819 0.012761767110055243 -0.059658517212660578
leaf_weight=35.982716739177704 61.574413523077965 76.808967962861061 27.103925719857216 160.84976890683174 7.5735565423965445 39.850998163223267 10.925007864832876 11.361679568886755 89.19726699590683 9.5416054129600507 28.680130317807198 56.846596404910088 17.34510725736618 4.1513009816408148
leaf_count=182 271 556 128 764 39 174 50 50 406 41 130 241 77 17
internal_value=0 -0.0758941 0.0156067 -0.00640848 0.0278834 0.0466113 0.010137 -0.00685062 0.00184712 0.0518841 0.0648782 0.0572616 0.0734128 0.0906593
internal_weight=0 112.792 525.001 187.954 337.048 163.989 173.058 111.484 100.559 156.416 116.565 107.023 78.343 60.9979
internal_count=3126 738 2388 892 1496 719 777 506 456 680 506 465 335 258
shrinkage=0.1


Tree=8
num_leaves=15
num_cat=0
split_feature=23 24 30 23 13 51 53 53 51 43 45 18 13 1
split_gain=66.2663 19.5583 13.8188 10.9415 12.4656 9.46179 9.4545 10.5393 8.65301 10.4097 11.5423 8.24394 8.49826 9.23985
threshold=0.003749719651568503 0.0035834151964902316 4.6212353121247091e-05 0.0067129797998487038 0.00040518638573743931 0.0023676000891331805 0.9723578353847212 0.97218115626456414 0.0024047389140607598 0.038771168104517521 0.74382389583333341 0.99771366510797943 0.00012695840086439765 0.11925058270016771
decision_type=2 2 2 2 2 2 2 2 2 2 2 2 2 2
left_child=1 2 -1 5 -5 6 7 11 -7 -10 -11 12 13 -2
right_child=3 -3 -4 4 -6 8 -8 -9 9 10 -12 -13 -14 -15
leaf_value=-0.11506139062642946 -0.015641567603588657 0.0097260227144380876 -0.037024692048478566 0.038199487598224016 -0.019030360191148205 0.21231853685534269 -0.042660409894248692 0.11460488333502213 -0.046545789674309529 0.10644996368075572 0.01150887015519386 0.071674829029391721 -0.097100081055125395 0.12571116069863231
leaf_weight=62.24847599118948 46.579969644546509 26.848120719194412 35.709436595439911 232.00220274925232 45.529093787074089 2.4520775973796836 68.812335804104805 8.2646423131227476 17.391784891486168 18.698392391204834 40.6288842856884 11.97906771302223 11.36832472681999 5.1341208368539801
leaf_count=513 219 131 193 1007 212 11 326 38 81 84 179 52 56 24
internal_value=0 -0.0658895 -0.086614 0.0154238 0.0288109 -0.000638479 -0.0152284 0.00742544 0.0273982 0.0214878 0.0414318 -0.00437555 -0.0188172 -0.00160822
internal_weight=0 124.806 97.9579 508.841 277.531 231.31 152.138 83.3261 79.1711 76.7191 59.3273 75.0615 63.0824 51.7141
internal_count=3126 837 706 2289 1219 1070 715 389 355 344 263 351 299 243
shrinkage=0.1


Tree=9
num_leaves=15
num_cat=0
split_feature=49 25 19 0 43 5 11 23 23 14 18 58 14 8
split_gain=58.1878 16.9562 14.2446 11.3275 10.3504 9.95998 9.2217 12.136 10.8561 9.00185 7.76772 11.7341 10.8253 10.687
threshold=0.59162594776748112 0.5904392764857882 0.00017748114520371191 0.16770903234465176 0.038759474656156125 0.00076345590577335 0.0019893111638954876 0.004831116772788511 0.018333528802638881 0.82529450596084775 0.99771007886444429 1.2850000000000004 0.82805881474612375 0.014734779431705187
decision_type=2 2 2 2 2 2 2 2 2 2 2 2 2 2
left_child=1 2 -1 5 -5 6 8 9 10 -8 13 12 -12 -2
right_child=3 -3 -4 4 -6 -7 7 -9 -10 -11 11 -13 -14 -15
leaf_value=-0.10749322475075662 0.043450734487789952 0.018582382775519789 -0.032055542495611815 0.058334688630272594 -0.014085083264439408 -0.09796317151559604 0.011882532354451974 0.062405502003288815 0.062568208474121492 -0.15183252805321543 0.077091625122131746 -0.08966895943030187 -0.052298763893716453 -0.037833739588363328
leaf_weight=63.69184834510088 21.461787149310112 22.071106418967247 41.236738830804825 22.504802644252777 160.36016876995564 6.3488542586565009 26.374549850821499 112.54606865346432 34.903979197144508 3.8486642241477957 33.503236159682274 6.7915116697549811 8.0123971849679929 65.660861909389496
leaf_count=547 97 107 208 103 764 30 122 472 149 18 139 29 34 307
internal_value=0 -0.0610881 -0.0778464 0.0146754 -0.00517254 0.0260371 0.0285514 0.0472969 0.0128395 -0.00896516 2.30904e-05 0.0321856 0.0521197 -0.0178101
internal_weight=0 127 104.929 502.317 182.865 319.452 313.103 142.769 170.334 30.2232 135.43 48.3071 41.5156 87.1226
internal_count=3126 862 755 2264 867 1397 1367 612 755 140 606 202 173 404
shrinkage=0.1


Tree=10
num_leaves=15
num_cat=0
split_feature=23 47 23 13 32 32 41 30 58 11 9 19 45 19
split_gain=48.7242 20.5481 8.43872 8.88983 8.23317 7.79079 7.63819 7.43233 7.94259 10.2406 6.58231 12.6296 6.66395 7.59816
threshold=0.0036213945585380752 0.060301507537688447 0.0067129797998487038 0.00040518638573743931 0.81587675959780626 0.81598032449725788 0.03650630664235191 4.6212353121247091e-05 0.52500000000000013 0.0014073634204275537 0.16875643433636944 0.00037409375713750881 0.74412277083333345 0.00023811317822521215
decision_type=2 2 2 2 2 2 2 2 2 2 2 2 2 2
left_child=1 7 10 -4 -3 -5 -7 -1 -9 -10 11 -2 13 -12
right_child=2 4 3 5 -6 6 -8 8 9 -11 12 -13 -14 -15
leaf_value=-0.11197563149889692 -0.082523590108825484 0.057724080733865958 0.031234383796803402 -0.031336996273929524 -0.054399282817079689 0.23502685302487492 -0.020990329384494567 -0.08930119787301323 -0.14150877699024766 0.11294819925125102 -0.015902870460439946 0.04703838887745071 -0.15943670756136419 0.022918884388670513
leaf_weight=52.634541004896164 24.12015800178051 15.463118672370912 234.83566279709339 40.456819221377373 11.360390596091746 2.2976112067699423 2.3647084534168243 12.772396549582483 2.225533425807952 5.4663086980581284 86.798496887087822 10.934536024928091 2.4444486051797858 120.2716049849987
leaf_count=508 116 72 1007 191 62 10 11 77 11 27 435 47 11 541
internal_value=0 -0.0646232 0.0115682 0.0234235 0.0102372 -0.0172306 0.105176 -0.0920932 -0.040955 0.0393244 -0.00200241 -0.0421096 0.00470808 0.0066458
internal_weight=0 99.9223 524.524 279.955 26.8235 45.1191 4.66232 73.0988 20.4642 7.69184 244.569 35.0547 209.515 207.07
internal_count=3126 757 2369 1219 134 212 21 623 115 38 1150 163 987 976
shrinkage=0.1


Tree=11
num_leaves=15
num_cat=0
split_feature=49 49 18 49 58 58 52 11 57 1 9 19 30 58
split_gain=42.8359 20.6474 7.97371 9.40467 8.13296 10.2557 8.5471 9.3798 7.52806 8.77429 13.8915 8.23304 7.94393 7.44627
threshold=0.59071609098567823 0.58899747262005064 0.99770903723668003 0.61132266217354692 1.0550000000000004 3.7450000000000006 0.81440861540629095 0.0113895486935867 0.00024652950609309831 0.11921336231828657 0.18084709266230248 0.00020985747351616349 7.9767819718840519e-05 1.7150000000000001
decision_type=2 2 2 2 2 2 2 2 2 2 2 2 2 2
left_child=1 -1 4 -4 6 8 -2 -8 11 13 -11 -6 -12 -10
right_child=2 -3 3 -5 5 -7 7 -9 9 10 12 -13 -14 -15
leaf_value=-0.0024108002582698229 -0.089249172853609754 -0.099588417275776039 0.038531126532142933 -0.0031707274908104911 -0.05242218985910211 -0.053431241632522775 -0.0077166310357483364 0.13719078209439239 -0.047903768816849629 -0.13595875187668924 0.21662501383405719 0.1662519599569936 0.05504580105974103 0.072724613555457535
leaf_weight=35.005400136113167 12.643104508519171 58.24153146892786 154.94313629716635 83.075008690357208 2.1299894005060187 11.374376237392424 211.6891018524766 4.5632543116807929 15.353722438216211 2.2599800527095786 5.9499647170305234 8.982689291238783 6.2272968143224716 7.6754692196845999
leaf_count=182 62 556 659 370 10 53 997 20 74 12 27 40 28 36
internal_value=0 -0.0631074 0.0104238 0.023976 -0.00074352 0.0320434 -0.00933123 -0.00465886 0.0520565 0.0306175 0.0917373 0.124338 0.133995 -0.00769917
internal_weight=0 93.2469 526.867 238.018 288.849 59.9535 228.895 216.252 48.5791 37.4664 14.4372 11.1127 12.1773 23.0292
internal_count=3126 738 2388 1029 1359 280 1079 1017 227 177 67 50 55 110
shrinkage=0.1


Tree=12
num_leaves=15
num_cat=0
split_feature=49 17 23 48 0 43 5 49 32 11 23 30 49 49
split_gain=36.8451 13.7048 12.6231 7.83489 7.63561 8.28998 7.65746 7.14743 7.23 6.67559 6.64029 5.99499 10.1689 7.24812
threshold=0.59162594776748112 0.40059055118110243 0.0040317380772163383 0.37274290627687018 0.16770903234465176 0.038758861387503112 0.00080637785143834555 0.63932603201347937 0.81592086380255957 0.00046912114014251784 0.0036687616653499023 0.00013687098217439426 0.62416175231676507 0.70328559393428824
decision_type=2 2 2 2 2 2 2 2 2 2 2 2 2 2
left_child=1 2 -1 -3 6 -6 7 9 -9 -2 -11 -7 -13 -14
right_child=4 3 -4 -5 5 11 -8 8 -10 10 -12 12 13 -15
leaf_value=-0.09556889126988044 -0.072063758023452662 0.039424243524299796 -0.015174301579862375 -0.13019242541338227 0.056469695624852538 -0.033999170309237596 -0.11471901535409255 0.23475106313747673 0.0022809371856902095 -0.063723674229259508 0.024888197154980682 0.028022538746337408 -0.06144058906281661 0.094625474446672492
leaf_weight=61.179368413984776 7.6787839680910102 20.018440209329132 28.688786596059799 3.1521155983209601 19.36804236471653 73.104147091507912 4.149766892194747 3.1293332725763312 2.3369009047746658 8.7064122110605222 294.90511856973171 60.479857459664345 26.085088253021244 3.3590348660945883
leaf_count=605 33 99 140 18 87 364 21 13 10 49 1271 278 122 16
internal_value=0 -0.0522241 -0.0699044 0.0163496 0.0109548 -0.00538282 0.0202407 0.0220088 0.135366 0.0200183 0.0223471 -0.012731 0.00455903 -0.0436363
internal_weight=0 113.039 89.8682 23.1706 503.302 182.396 320.906 316.757 5.46623 311.29 303.612 163.028 89.924 29.4441
internal_count=3126 862 745 117 2264 867 1397 1376 23 1353 1320 780 416 138
shrinkage=0.1


Tree=13
num_leaves=15
num_cat=0
split_feature=49 49 23 0 13 0 23 41 32 44 21 52 56 23
split_gain=31.4334 19.7995 7.10322 7.14373 7.03581 6.88963 7.89316 7.545 12.7919 7.35662 6.79829 7.78901 7.35044 6.6638
threshold=0.59048020219039599 0.58899747262005064 0.0067129797998487038 0.27977452690913979 4.6205465040234303e-05 0.12832505703932359 0.011367273086435 0.036420831951812567 0.81590233089579534 0.0033308711059041201 0.1573589533932952 0.82308507390839836 0.14071564824097657 0.048320634292966506
decision_type=2 2 2 2 2 2 2 2 2 2 2 2 2 2
left_child=1 -1 3 10 13 6 7 -6 -9 -10 11 -2 -13 -4
right_child=2 -3 4 -5 5 -7 -8 8 9 -11 -12 12 -14 -15
leaf_value=-0.00091747702989459438 -0.0094235912985394035 -0.10052357751378943 0.035117170032129871 -0.065749812861114518 0.146700946771082 -0.0079939361018234404 0.010246239295517979 -0.067187202346229047 -0.017686888439639611 0.1739174083051524 -0.11525093145630444 0.022836840353889581 0.16878189059194973 0.13812459701060878
leaf_weight=34.610301852226257 156.47580397874117 47.134004309773445 76.781767189502716 17.380601264536381 9.5636474043130892 107.98873953521252 60.948379948735237 6.9980503320693996 2.9541956186294538 6.2291832566261292 4.9507431164383879 69.825500130653381 3.6303384006023398 6.8398315310478202
leaf_count=182 755 535 322 90 40 486 260 30 12 26 28 316 16 28
internal_value=0 -0.0583506 0.00826605 -0.00388715 0.0192821 0.00886145 0.0298572 0.0762837 0.0346653 0.11228 0.000690505 0.00318688 0.0300497 0.0435427
internal_weight=0 81.7443 530.567 252.263 278.304 194.682 86.6935 25.7451 16.1814 9.18338 234.882 229.932 73.4558 83.6216
internal_count=3126 717 2409 1205 1204 854 368 108 68 38 1115 1087 332 350
shrinkage=0.1


Tree=14
num_leaves=15
num_cat=0
split_feature=23 24 30 33 52 25 48 41 43 51 49 3 53 53
split_gain=26.8654 15.9177 6.73997 6.68084 8.48523 6.41557 7.19533 5.75029 5.85958 5.3792 8.61464 9.0841 7.82082 9.87629
threshold=0.003607990529242793 0.0035834151964902316 4.6212353121247091e-05 0.399036646799311 0.82367945240862717 0.6698966408268735 0.053310404127257092 0.036400813715738292 0.038758702902345586 0.0023676000891331805 0.59176074136478529 0.00044491886568786648 0.9723578353847212 0.97220885191042661
decision_type=2 2 2 2 2 2 2 2 2 2 2 2 2 2
left_child=1 2 -1 4 5 -3 -7 8 -4 12 -11 -12 13 -2
right_child=9 3 7 -5 -6 6 -8 -9 -10 10 11 -13 -14 -15
leaf_value=-0.10703067188587467 0.0075659906070526597 -0.10565857278102882 -0.033057186220360545 -0.035264190368385455 0.20490540492533105 -0.039245614465518386 0.1848357518244563 -0.068901493552795567 0.18719278860101191 -0.070362629754045933 0.041690985538083238 -0.0051333139462220595 -0.015848414581380726 0.094084471897911276
leaf_weight=38.822393260896206 156.29606885462999 2.9400635957717913 2.8889524713158634 14.552776694297789 3.2029177546501151 2.7859337478876114 2.9507108181715012 12.017373658716677 2.0758543312549591 9.8198626413941366 121.77153833210468 62.799677848815918 161.10422378778458 14.41046731173992
leaf_count=511 708 15 17 77 13 13 13 78 10 51 522 279 755 64
internal_value=0 -0.0537665 -0.0840454 0.0101588 0.0658029 0.0144546 0.0760133 -0.0314995 0.0590324 0.0076939 0.0209035 0.0257592 -4.49375e-05 0.0148696
internal_weight=0 82.237 55.8046 26.4324 11.8796 8.67671 5.73664 16.9822 4.96481 526.202 194.391 184.571 331.811 170.707
internal_count=3126 747 616 131 54 41 26 105 27 2379 852 801 1527 772
shrinkage=0.1


Tree=15
num_leaves=15
num_cat=0
split_feature=19 17 49 48 22 23 32 49 51 51 57 0 45 8
split_gain=23.7308 16.2396 8.37385 6.32344 6.16915 5.55202 8.0432 7.66672 8.29589 13.2598 8.78671 7.52938 9.09622 7.84326
threshold=0.00017748114520371191 0.40059055118110243 0.59711878685762432 0.37274290627687018 0.60389610389610404 0.0047002793425171335 0.81583359232175512 0.60021903959561929 0.0012534353413058013 0.0023676000891331805 0.0003605294234646531 0.20534827539927528 0.74378897916666675 0.014673761563262725
decision_type=2 2 2 2 2 2 2 2 2 2 2 2 2 2
left_child=1 2 -1 4 -3 6 -2 -8 -9 -10 -11 -7 13 -13
right_child=5 3 -4 -5 -6 11 7 8 9 10 -12 12 -14 -15
leaf_value=-0.10036727143210165 0.030301881626310857 0.17125699526743074 0.071000241324766469 -0.12553107229533805 0.011057781597616525 0.018998641999455997 -0.04370865524416126 0.1478532365082855 -0.10538728023654105 0.1163111925927529 -0.10923860270475601 0.16360653255327973 -0.041411178712386282 0.0088489102991794154
leaf_weight=43.791368819773197 33.08230496942997 2.7928038090467515 3.0500713586807242 2.8618105351924887 17.259653963148594 327.09544487297535 69.068256363272667 4.3367187529802349 7.7073587030172375 8.0830729305744153 2.1965565830469123 3.6868874281644812 50.353230908513069 29.303678914904594
leaf_count=559 167 13 14 18 86 1414 358 21 38 35 10 16 240 137
internal_value=0 -0.0554617 -0.0892087 0.0135241 0.0333695 0.00655135 -0.0119485 -0.0272424 0.0237032 -0.00622975 0.0681156 0.0121618 -0.0146703 0.026144
internal_weight=0 69.7557 46.8414 22.9143 20.0525 534.914 124.474 91.392 22.3237 17.987 10.2796 410.439 83.3438 32.9906
internal_count=3126 690 573 117 99 2436 629 462 104 83 45 1807 393 153
shrinkage=0.1


Tree=16
num_leaves=15
num_cat=0
split_feature=49 49 52 52 23 54 0 46 29 18 0 52 51 51
split_gain=20.3617 16.1187 5.16311 9.41361 9.55093 8.15892 9.19899 8.66508 6.71395 7.76059 9.75679 10.2311 6.56738 6.57884
threshold=0.59048020219039599 0.58899747262005064 0.82306232608925378 0.82258829089030572 0.0051442920980989638 0.94218295663342688 0.052140652261441427 0.010391587820996888 6.1985970004837937e-05 0.99771572933834307 0.14115554959065899 0.82294124898735521 0.00069635296739211185 0.00058493649260937396
decision_type=2 2 2 2 2 2 2 2 2 2 2 2 2 2
left_child=1 -1 3 4 5 6 -2 -8 -5 10 11 -10 13 -4
right_child=2 -3 12 8 -6 -7 7 -9 9 -11 -12 -13 -14 -15
leaf_value=-0.00039301043152659214 -0.082614733298816162 -0.095493010946754095 0.020236706772496043 -0.1421568658462383 0.015359626528890769 -0.036220224928233152 -0.10210543784615295 0.11168342335130495 -0.028522053678880978 0.14045385408285027 -0.10150234317748574 0.21017858206509443 0.026791939134640775 -0.12478246063891132
leaf_weight=33.706912085413933 4.8025293499231365 37.819371215999126 6.5982015132904035 6.5716244727373114 237.56636673212051 77.875041373074055 2.2557294219732276 11.882953375577925 7.3670078516006523 2.448150932788848 13.574939154088495 2.3743479996919632 150.24934034049511 5.9483782649040222
leaf_count=182 26 535 29 30 1044 401 11 55 35 10 68 10 664 26
internal_value=0 -0.0506769 0.00616744 -0.00041175 0.00457059 -0.0219034 0.0369589 0.0775749 -0.0519334 -0.0289205 -0.0467044 0.0296586 0.0209879 -0.0485174
internal_weight=0 71.5263 529.515 366.719 334.383 96.8163 18.9412 14.1387 32.3361 25.7644 23.3163 9.74136 162.796 12.5466
internal_count=3126 717 2409 1690 1537 493 92 66 153 123 113 45 719 55
shrinkage=0.1


Tree=17
num_leaves=15
num_cat=0
split_feature=19 47 49 31 51 13 49 23 3 32 57 21 11 44
split_gain=17.7777 15.6953 7.91435 5.72781 4.7564 6.83488 8.7861 7.39119 7.32257 7.26759 7.08487 7.34881 8.14155 7.63596
threshold=0.00017748114520371191 0.060301507537688447 0.59711878685762432 0.29151061173533088 0.00069635296739211185 0.00028576302994114138 0.59607413647851726 0.0068712031752495009 0.0005189522817838154 0.81598032449725788 0.0011900546392719423 0.15596892886345057 0.0019893111638954876 0.0034981049688893539
decision_type=2 2 2 2 2 2 2 2 2 2 2 2 2 2
left_child=1 2 -1 -3 -2 7 -7 8 10 -8 -6 12 13 -12
right_child=4 3 -4 -5 5 6 9 -9 -10 -11 11 -13 -14 -15
leaf_value=-0.10496376773719174 -0.026687611782077389 0.11847174281317163 0.061645354873083529 -0.010730409011251068 -0.00073066644585641726 -0.096884753483477373 -0.014806020550959188 0.027787878120820165 -0.10184453212217537 0.097533919667574631 0.12502986104199931 0.19280513531964041 0.19623200699394641 -0.085686403525178034
leaf_weight=34.896571855992079 42.559250980615616 4.0682007819414165 3.1048033982515326 21.914425812661648 197.80607230216265 12.104884117841719 63.217263951897621 191.14943942427635 6.7278863713145247 6.3358199149370185 2.5208331942558271 3.7458218336105338 2.2651301920413971 5.4117675274610519
leaf_count=542 197 18 14 116 947 59 300 806 34 27 12 17 10 27
internal_value=0 -0.050398 -0.0913514 0.00949927 0.00538257 0.00816076 -0.0182569 0.013427 0.000862517 -0.0045726 0.00412581 0.0730208 0.0290217 -0.0187247
internal_weight=0 63.984 38.0014 25.9826 533.844 491.285 81.658 409.627 218.478 69.5531 211.75 13.9436 10.1977 7.9326
internal_count=3126 690 556 134 2436 2239 386 1853 1047 327 1013 66 49 39
shrinkage=0.1


Tree=18
num_leaves=15
num_cat=0
split_feature=49 11 20 51 19 58 5 49 54 29 53 45 11 43
split_gain=15.3496 10.0518 5.64737 5.2093 6.8207 7.70608 7.4758 7.40756 8.26928 6.56407 6.79856 9.3426 6.8823 6.8076
threshold=0.59162594776748112 0.0013242280285035632 0.83579596820588697 0.0023676000891331805 0.00022163068381160042 0.56500000000000006 0.00051725741770899199 0.60534119629317618 0.94371532547228709 1.7235123367198842e-05 0.9723578353847212 0.74381572916666683 0.0012054631828978624 0.038753073233924094
decision_type=2 2 2 2 2 2 2 2 2 2 2 2 2 2
left_child=1 -1 3 9 5 -5 7 -6 -9 -2 11 12 13 -11
right_child=2 -3 -4 4 6 -7 -8 8 -10 10 -12 -13 -14 -15
leaf_value=-0.008642257226962673 -0.054690221857776992 -0.075027628288466222 0.16015060171820686 -0.081821906157780261 0.048911412435584091 0.093728194515297181 -0.027700199494891983 -0.078583038797599702 0.021606280325310187 0.14636285106410502 -0.012676398989654237 0.10858031732695871 0.029805961865645186 -0.026836434620859197
leaf_weight=51.541228637099266 22.288309097290039 40.914901476353407 2.3751724809408179 12.094050057232378 97.227433428168297 3.1522806584835044 23.938301354646683 10.164449319243429 43.467520177364349 2.3845701664686194 153.93457987904549 10.526726692914961 73.544365666806698 46.966810673475266
leaf_count=378 98 484 10 66 415 14 108 42 187 10 731 45 330 208
internal_value=0 -0.03802 0.0063189 0.00558769 0.0186207 -0.0455258 0.0242157 0.0324537 0.00261818 -0.00241128 0.00164364 0.0181652 0.0104206 -0.0184678
internal_weight=0 92.4561 502.065 499.689 190.044 15.2463 174.798 150.859 53.632 309.645 287.357 133.422 122.896 49.3514
internal_count=3126 862 2264 2254 832 80 752 644 229 1422 1324 593 548 218
shrinkage=0.1


Tree=19
num_leaves=15
num_cat=0
split_feature=19 47 49 32 37 32 49 49 30 21 9 42 1 35
split_gain=13.729 14.0369 7.22121 5.03828 5.00965 6.20802 4.85152 5.53396 4.56001 4.35314 4.25809 6.50892 7.93675 11.002
threshold=0.00017748114520371191 0.060301507537688447 0.59546756529064881 0.81587675959780626 0.00040017304780445601 0.81589241316270578 0.70328559393428824 0.67363100252738006 0.00038529917347587545 0.15793131643499594 0.16932029831744563 0.0027216092678751381 0.11907403737529916 0.018441987187637992
decision_type=2 2 2 2 2 2 2 2 2 2 2 2 2 2
left_child=1 2 -1 -3 5 -5 7 9 -8 10 -2 -12 -13 -14
right_child=6 3 -4 4 -6 -7 8 -9 -10 -11 11 12 13 -15
leaf_value=-0.10528871718982818 -0.014681040006803767 0.04575811857907177 0.037932108753955966 -0.058109482376141164 -0.12375005657548455 0.15659808935661143 0.013730313112385635 -0.11858349775035404 0.19917086205446929 -0.12524761035840432 0.028011997019047205 -0.017982285862589566 0.069842308563788508 0.0035086365585234808
leaf_weight=29.855455081909895 90.04597631841898 15.4243420958519 3.991054728627204 3.9005716741085035 4.5027394071221352 2.0567487329244614 2.8690320402383795 3.6813945621252051 2.4656330347061157 2.5749841481447211 129.16698013991117 125.85968215763569 30.201476208865643 145.28419625014067
leaf_count=538 410 72 18 21 30 11 13 18 11 18 574 586 136 670
internal_value=0 -0.0460073 -0.0884006 0.00942642 -0.0441481 0.0160177 0.0045542 0.00359337 0.0994392 0.00445315 0.00509473 0.00923103 0.00118086 0.0149248
internal_weight=0 59.7309 33.8465 25.8844 10.4601 5.95732 532.149 526.815 5.33467 523.133 520.558 430.512 301.345 175.486
internal_count=3126 690 556 134 62 32 2436 2412 24 2394 2376 1966 1392 806
shrinkage=0.1


Tree=20
num_leaves=15
num_cat=0
split_feature=19 24 49 33 17 48 33 33 48 21 49 0 30 32
split_gain=11.7456 13.0207 6.69253 5.07891 4.41234 4.23346 4.78297 6.98667 5.21097 3.82764 3.77259 5.29091 5.17809 4.63256
threshold=0.00017748114520371191 0.0035834151964902316 0.59546756529064881 0.38555973529612503 0.40059055118110243 0.37274290627687018 0.39239561056380184 0.399036646799311 0.25752364574376613 0.15793131643499594 0.70328559393428824 0.28515635485169777 6.3873125014717331e-05 0.81587166361974417
decision_type=2 2 2 2 2 2 2 2 2 2 2 2 2 2
left_child=1 2 -1 -3 -5 6 -6 -8 -9 10 11 -2 -13 -12
right_child=9 3 -4 4 5 -7 7 8 -10 -11 13 12 -14 -15
leaf_value=-0.10418901954325244 0.0062463128483597101 0.105293911544991 0.033798739245136065 -0.13419532043419866 -0.081081781751324258 -0.12034435186552904 0.18791679929293792 -0.026120616733452673 0.15340721223370701 -0.12242276271245972 0.19338297142560831 0.042648522868861595 -0.05929559497453385 0.0071689184882441082
leaf_weight=27.541270483285192 494.88470231741667 4.5476006194949177 4.0290693342685691 2.5636846125125912 3.4068025946617189 2.3227337747812262 2.9252435863018027 7.6818604022264463 2.04779452085495 2.38092416524887 2.348325937986373 6.3492170423269298 23.146160557866096 3.0989989042282104
leaf_count=541 2248 21 18 14 16 17 13 39 11 18 10 29 117 14
internal_value=0 -0.0436526 -0.0865787 0.00950107 -0.0112945 0.00584388 0.0240924 0.0524061 0.0116645 0.00408559 0.00465409 0.00379405 -0.037351 0.0874453
internal_weight=0 57.0661 31.5703 25.4957 20.9481 18.3844 16.0617 12.6549 9.72965 532.208 529.827 524.38 29.4954 5.44732
internal_count=3126 690 559 131 110 96 79 63 50 2436 2418 2394 146 24
shrinkage=0.1


Tree=21
num_leaves=15
num_cat=0
split_feature=19 47 49 11 31 57 41 41 20 13 1 30 30 0
split_gain=10.0707 11.5967 6.22509 4.05397 4.02439 3.74911 5.5639 6.69391 5.72759 6.7666 8.41597 5.40937 5.68953 6.3535
threshold=0.00017748114520371191 0.060301507537688447 0.59546756529064881 0.0003503562945368171 0.30961298377028723 7.3743903231067624e-06 0.036510782769672866 0.036500766744031833 0.82386510396487156 5.1039267536751125e-05 0.11810278659945538 0.0035527586125697606 0.00060959097652294738 0.047067507717084962
decision_type=2 2 2 2 2 2 2 2 2 2 2 2 2 2
left_child=1 2 -1 -2 -3 -5 7 11 9 -8 -11 12 13 -7
right_child=3 4 -4 5 -6 6 8 -9 -10 10 -12 -13 -14 -15
leaf_value=-0.10332939301841687 -0.098537031976501488 0.082593237258509547 0.03016485154263094 0.090532877569479114 -0.01333638489936103 -0.064083430956995466 -0.16608730296340599 0.099638345376083945 0.051382410883567521 0.099177054808937778 -0.088132389370426195 -0.14775736820909455 0.053018267680076551 0.0046358595488666795
leaf_weight=24.975741110742096 3.8527127206325522 5.6104229837656048 4.0611824095249167 5.0073180198669425 19.830136179924011 13.864051021635531 5.3936718180775705 7.4744941741228095 4.660720780491828 3.4861696213483793 7.6901811063289642 2.3287853896617881 23.507917657494545 455.03086110949516
leaf_count=538 18 25 18 23 109 62 24 31 21 15 37 10 97 2098
internal_value=0 -0.0414722 -0.0846585 0.00366966 0.00781904 0.00441481 0.00359099 0.00571081 -0.0465526 -0.0740993 -0.0297061 0.00429174 0.00501084 0.002604
internal_weight=0 54.4775 29.0369 532.297 25.4406 528.444 523.437 502.206 21.2307 16.57 11.1764 494.732 492.403 468.895
internal_count=3126 690 556 2436 134 2418 2395 2298 97 76 52 2267 2257 2160
shrinkage=0.1


Tree=22
num_leaves=15
num_cat=0
split_feature=23 3 51 18 9 8 43 51 0 51 12 29 30 14
split_gain=8.92425 6.82151 7.50483 5.70425 9.41721 11.0076 5.95228 5.12413 5.68589 6.07659 5.11998 5.32268 5.03094 4.98178
threshold=0.0047002793425171335 0.00043379510262207165 0.0012905741662333806 0.99770274466347475 0.18320667677823446 0.014673761563262725 0.038764787354262566 0.011902993389289166 0.039189370554288026 0.031094481170615768 0.11924454696256534 8.6780358006773118e-05 0.00013098405820990421 0.83052056237082217
decision_type=2 2 2 2 2 2 2 2 2 2 2 2 2 2
left_child=1 3 10 6 13 -6 -1 -2 9 -9 -3 -12 -8 -5
right_child=7 2 -4 4 5 -7 12 8 -10 -11 11 -13 -14 -15
leaf_value=-0.0031401739978365647 0.0050843936655484883 -0.069370294798577092 -0.084229776865816175 -9.4209653781333221e-05 -0.092731323952404077 0.11360975575863452 -0.073048785623298196 -0.10011220258012132 0.11087636549936485 0.072804153373552061 -0.052819182888707086 0.13640188371415476 0.068164507750123851 -0.11621697090931825
leaf_weight=42.754599448293447 394.55549768358469 4.4370395466685277 27.777229901403189 37.559182293713093 3.1596323400735882 14.224533624947069 28.501346193253998 3.5650805979967135 9.8366070091724378 4.7269134968519211 2.2925579212605953 4.2285739779472351 2.7678993344306937 4.0974979102611533
leaf_count=353 1742 35 254 190 16 63 318 16 41 20 18 25 14 21
internal_value=0 -0.019651 -0.0565832 -0.00889989 0.0142835 0.0761066 -0.0273908 0.00747292 0.0594573 -0.00153994 0.0134964 0.0698797 -0.0605488 -0.0115165
internal_weight=0 171.8 38.7354 133.065 59.0408 17.3842 74.0238 412.684 18.1286 8.29199 10.9582 6.52113 31.2692 41.6567
internal_count=3126 1307 332 975 290 79 685 1819 77 36 78 43 332 211
shrinkage=0.1


Tree=23
num_leaves=15
num_cat=0
split_feature=19 24 52 10 1 43 54 30 1 8 46 58 22 39
split_gain=7.82998 9.67093 4.50958 4.59643 4.47892 4.07004 5.52311 6.73201 4.69221 12.4966 4.27707 4.1774 3.96083 3.86036
threshold=0.00017865846623325558 0.0035834151964902316 0.8252380449203387 0.29288409703504048 0.11901015915234101 0.038759474656156125 0.94127495228071434 0.00020457060776603013 0.11781759799774465 0.015326972911079642 0.010407381632784008 0.95500000000000007 0.69480519480519487 0.99950549558583546
decision_type=2 2 2 2 2 2 2 2 2 2 2 2 2 2
left_child=1 -1 3 12 -5 6 7 10 11 -10 -2 -8 -3 -4
right_child=5 2 13 4 -6 -7 8 -9 9 -11 -12 -13 -14 -15
leaf_value=-0.076763235769654631 -0.012535975285603559 0.11215635701333937 0.17052981212112295 -0.13458507065776334 -0.0035143755880077338 0.00072449845700887146 0.13983135840615701 0.10754533752961214 -0.097000272731756682 0.15029099668261209 -0.14833495455434437 0.032548122475710921 -0.022600592631819835 0.0051752772629448844
leaf_weight=28.4998031668365 8.9797681570053083 4.0251008570194298 2.7950710058212271 4.4886851087212545 6.2196087017655373 489.37027547135949 9.2638081386685389 3.6364561319351187 4.9623503014445287 3.474142923951149 3.126887083053588 5.9674485623836508 4.7611204832792282 2.85301523655653
leaf_count=570 43 18 12 26 37 2245 41 15 24 15 16 26 24 14
internal_value=0 -0.0368824 0.00832358 -0.0144724 -0.0584564 0.00321422 0.0341294 -0.011771 0.0646611 0.00483413 -0.0476099 0.0977989 0.0391336 0.0870044
internal_weight=0 53.6424 25.1426 19.4945 10.7083 528.781 39.4109 15.7431 23.6677 8.43649 12.1067 15.2313 8.78622 5.64809
internal_count=3126 701 131 105 63 2425 180 74 106 39 59 67 42 26
shrinkage=0.1


Tree=24
num_leaves=15
num_cat=0
split_feature=49 49 11 53 19 11 3 51 3 18 5 54 13 32
split_gain=6.87861 9.53275 3.82005 4.4806 7.27582 6.0167 7.19084 6.16464 8.3804 7.63943 7.32508 5.84186 6.12467 5.82699
threshold=0.59048020219039599 0.58899747262005064 0.00044536817102137769 0.9723578353847212 0.00023811317822521215 0.0006710213776722091 0.00042091316159360089 0.0024418777389883391 0.00051186843179292277 0.99770644505799766 0.00048733673539957402 0.94302584868972661 0.00036537860047200667 0.81584165904936023
decision_type=2 2 2 2 2 2 2 2 2 2 2 2 2 2
left_child=1 -1 -2 11 -5 6 -6 13 10 -10 -9 12 -4 -7
right_child=2 -3 3 4 5 7 -8 8 9 -11 -12 -13 -14 -15
leaf_value=0.0012411315113482163 -0.071366792957913816 -0.083356115509582357 0.0088385582799390232 -0.039128302548043961 -0.027117383649330629 0.086058922103159533 0.2142142495518638 0.021837743411850213 0.089985668089986148 -0.082275611357737213 0.14435082745440028 0.042240246107806245 -0.096818258252824252 -0.019318877914144737
leaf_weight=31.798894051462412 6.807097226381301 22.921480026096106 159.87138328328729 49.234425902366638 2.1564043015241614 5.488132417201995 2.8885254412889481 94.993973545730114 3.1941523700952557 13.269787132740019 5.1446154266595832 57.375979792326689 5.6813728660345069 119.6418015435338
leaf_count=182 31 535 722 275 10 25 13 402 14 62 23 258 27 547
internal_value=0 -0.0341953 0.003059 0.00403527 -0.0040285 0.00297424 0.111059 0.000718517 0.0172615 -0.0488554 0.0281318 0.0147426 0.00521267 -0.0146971
internal_weight=0 54.7204 525.748 518.941 296.012 246.777 5.04493 241.732 116.603 16.4639 100.139 222.929 165.553 125.13
internal_count=3126 717 2409 2378 1371 1096 23 1073 501 76 425 1007 749 572
shrinkage=0.1


Tree=25
num_leaves=15
num_cat=0
split_feature=23 3 9 0 18 58 51 51 11 35 0 45 8 46
split_gain=6.22744 5.86448 5.03691 6.88324 8.00255 5.92448 10.0341 10.282 9.90019 9.22277 4.68911 6.54179 6.62267 6.78862
threshold=0.0047002793425171335 0.0005189522817838154 0.18285892791185648 0.1248490135552275 0.99769969588084073 0.38500000000000006 0.00080776944217484975 0.0014205600534799082 0.0017755344418052259 0.018084225906309318 0.20534827539927528 0.74378897916666675 0.014673761563262725 0.010738640383131553
decision_type=2 2 2 2 2 2 2 2 2 2 2 2 2 2
left_child=1 2 -1 -4 -5 9 -7 -8 -9 -6 -2 12 -12 -14
right_child=10 -3 3 4 5 6 7 8 -10 -11 11 -13 13 -15
leaf_value=-0.025462031551500203 0.011545132334247284 -0.11927546609237281 -0.036671067714246552 -0.079298941592426106 0.13343335608473791 -0.07879502736177324 0.20744408085741584 -0.039281622923708501 0.16998394375080067 -0.087399530675317486 0.13415047719793841 -0.038374009601000715 -0.052917559295406882 0.042437254167824047
leaf_weight=109.36094097606838 328.09908772259951 5.4028301350772372 18.250464854761958 4.806164337322115 2.9041716232895869 2.9811868295073536 7.4879526421427753 5.3105761706829053 3.9365099593997002 5.4219022542238235 4.3182624429464331 49.268055886030197 13.000619173049929 17.538158930838108
leaf_count=829 1418 98 153 93 13 15 34 25 19 28 18 240 60 83
internal_value=0 -0.0168016 -0.0133512 0.0125681 0.0399252 0.060359 0.0902284 0.120338 0.0498033 -0.010372 0.00614457 -0.0149183 0.0182347 0.00184389
internal_weight=0 165.863 160.46 51.0989 32.8485 28.0423 19.7162 16.735 9.24709 8.32607 412.224 84.1251 34.857 30.5388
internal_count=3126 1307 1209 380 227 134 93 78 44 41 1819 401 161 143
shrinkage=0.1


Tree=26
num_leaves=15
num_cat=0
split_feature=49 11 20 58 58 19 11 24 33 13 42 8 13 15
split_gain=5.20238 7.07678 4.80227 4.51889 4.65127 4.80583 8.24192 5.24973 3.88917 3.7953 6.88556 13.292 7.11241 6.00871
threshold=0.59162594776748112 0.0013242280285035632 0.83579596820588697 1.9000000000000001 1.7050000000000003 0.00021574407866388197 0.00076603325415676969 0.0035834151964902316 0.38555973529612503 6.966362421450711e-05 0.0026976708456119187 0.014824799620333265 7.5350450680997487e-05 0.18371212121212124
decision_type=2 2 2 2 2 2 2 2 2 2 2 2 2 2
left_child=1 3 9 4 5 7 -7 -1 -9 13 -11 -12 -13 -2
right_child=2 -3 -4 -5 -6 6 -8 8 -10 10 11 12 -14 -15
leaf_value=-0.077999575940821603 0.0088020733024328762 -0.061530534377648986 0.14545539506453303 -0.12003808187297478 0.18626529412867623 -0.026709138641474131 0.17522089012872247 0.094098703892743565 -0.0087947455745755708 -0.06079451584209325 0.094890260241622046 -0.075592948539059263 -0.0020510792094669125 0.093383684921339388
leaf_weight=9.3546467218548042 222.9289654456079 31.007639992982149 2.3658280968666068 2.9293486867099991 1.4203102383762587 4.1549723818898183 3.9360690414905548 4.4954163730144527 20.092335410416126 20.782416298985481 13.692063406109808 14.003166705369948 216.00841344892979 8.7278571948409063
leaf_count=147 989 484 10 53 8 21 18 21 110 93 62 65 1007 38
internal_value=0 -0.0245461 0.00332109 0.00017839 0.00828255 0.00226851 0.0715243 -0.0142404 0.0100174 0.00264334 -0.00554209 -0.000830302 -0.00652833 0.0119888
internal_weight=0 77.3907 498.509 46.3831 43.4538 42.0334 8.09104 33.9424 24.5878 496.143 264.486 243.704 230.012 231.657
internal_count=3126 862 2264 378 325 317 39 278 131 2254 1227 1134 1072 1027
shrinkage=0.1


Tree=27
num_leaves=15
num_cat=0
split_feature=23 52 15 8 49 11 10 29 15 15 58 29 18 15
split_gain=4.76758 5.49082 5.99545 4.6255 5.47005 4.94137 7.715 5.08086 4.83365 7.39135 6.74253 4.89152 5.01091 4.76894
threshold=0.0047002793425171335 0.82303884446949171 0.17673661254153314 0.015657109711634077 0.59833192923336154 0.00095605700712589087 0.275256064690027 0.00019381954523463958 0.1805032111115025 0.18169196811196039 0.13500000000000004 9.2223028543783278e-05 0.99770850928836119 0.1782643854273068
decision_type=2 2 2 2 2 2 2 2 2 2 2 2 2 2
left_child=1 3 -3 4 5 6 7 -1 11 -10 -11 -6 13 -13
right_child=-2 2 -4 -5 8 -7 -8 -9 9 10 -12 12 -14 -15
leaf_value=0.093097927250759022 0.0053149445890507364 0.0003846545675288122 0.12075123320539781 -0.1075206661960057 -0.11844693630371826 -0.052779692563201169 -0.060123795433471051 -0.080220541526293321 0.20655978341711267 -0.13756619252378788 0.11871378213519335 0.070666314407951181 0.14762675678473833 -0.067836080821919498
leaf_weight=9.1665889881551283 411.74358700215816 53.85821539349854 4.4826095532625905 6.9473204333335152 3.3625663518905702 52.655343005433679 9.845594070851801 2.0741186365485182 3.0193266272544852 1.9024201035499571 2.2298519164323807 4.1187242865562421 2.3910801559686652 6.27143894135952
leaf_count=69 1819 435 25 93 17 486 59 26 14 10 11 20 10 32
internal_value=0 -0.0149211 0.009633 -0.0286972 -0.0230539 -0.0363985 0.00450762 0.0611175 0.0191885 0.0876275 0.000727315 -0.0111295 0.0171042 -0.0129329
internal_weight=0 162.325 58.3408 103.984 97.0371 73.7416 21.0863 11.2407 23.2954 7.1516 4.13227 16.1438 12.7812 10.3902
internal_count=3126 1307 460 847 754 640 154 95 114 35 21 79 62 52
shrinkage=0.1


end of trees

feature_importances:
Column_49=38
Column_23=28
Column_0=22
Column_19=22
Column_11=17
Column_30=17
Column_51=17
Column_58=14
Column_18=13
Column_52=13
Column_32=12
Column_41=12
Column_13=11
Column_1=10
Column_43=10
Column_8=9
Column_9=9
Column_24=9
Column_29=8
Column_3=7
Column_53=7
Column_57=7
Column_20=6
Column_33=6
Column_15=5
Column_21=5
Column_45=5
Column_47=5
Column_48=5
Column_5=4
Column_25=4
Column_42=4
Column_46=4
Column_54=4
Column_14=3
Column_17=3
Column_35=3
Column_44=3
Column_10=2
Column_22=2
Column_31=2
Column_39=2
Column_12=1
Column_37=1
Column_56=1

parameters:
[boosting: gbdt]
[objective: binary]
[metric: binary_logloss]
[tree_learner: serial]
[device_type: cpu]
[data: ]
[valid: ]
[num_iterations: 10000]
[learning_rate: 0.1]
[num_leaves: 15]
[num_threads: 0]
[force_col_wise: 0]
[force_row_wise: 0]
[histogram_pool_size: -1]
[max_depth: -1]
[min_data_in_leaf: 10]
[min_sum_hessian_in_leaf: 0.001]
[bagging_fraction: 0.8]
[pos_bagging_fraction: 1]
[neg_bagging_fraction: 1]
[bagging_freq: 0]
[bagging_seed: 10961]
[feature_fraction: 0.8]
[feature_fraction_bynode: 1]
[feature_fraction_seed: 53]
[extra_trees: 0]
[extra_seed: 11644]
[early_stopping_round: 50]
[first_metric_only: 0]
[max_delta_step: 0]
[lambda_l1: 0]
[lambda_l2: 0]
[min_gain_to_split: 0]
[drop_rate: 0.1]
[max_drop: 50]
[skip_drop: 0.5]
[xgboost_dart_mode: 0]
[uniform_drop: 0]
[drop_seed: 30626]
[top_rate: 0.2]
[other_rate: 0.1]
[min_data_per_group: 100]
[max_cat_threshold: 32]
[cat_l2: 10]
[cat_smooth: 10]
[max_cat_to_onehot: 4]
[top_k: 20]
[monotone_constraints: ]
[monotone_constraints_method: basic]
[monotone_penalty: 0]
[feature_contri: ]
[forcedsplits_filename: ]
[refit_decay_rate: 0.9]
[cegb_tradeoff: 1]
[cegb_penalty_split: 0]
[cegb_penalty_feature_lazy: ]
[cegb_penalty_feature_coupled: ]
[path_smooth: 0]
[interaction_constraints: ]
[verbosity: -1]
[saved_feature_importance_type: 0]
[max_bin: 255]
[max_bin_by_feature: ]
[min_data_in_bin: 3]
[bin_construct_sample_cnt: 200000]
[data_random_seed: 4071]
[is_enable_sparse: 1]
[enable_bundle: 1]
[use_missing: 1]
[zero_as_missing: 0]
[feature_pre_filter: 1]
[pre_partition: 0]
[two_round: 0]
[header: 0]
[label_column: ]
[weight_column: ]
[group_column: ]
[ignore_column: ]
[categorical_feature: ]
[forcedbins_filename: ]
[objective_seed: 602]
[num_class: 1]
[is_unbalance: 0]
[scale_pos_weight: 1]
[sigmoid: 1]
[boost_from_average: 1]
[reg_sqrt: 0]
[alpha: 0.9]
[fair_c: 1]
[poisson_max_delta_step: 0.7]
[tweedie_variance_power: 1.5]
[lambdarank_truncation_level: 20]
[lambdarank_norm: 1]
[label_gain: ]
[eval_at: ]
[multi_error_top_k: 1]
[auc_mu_weights: ]
[num_machines: 1]
[local_listen_port: 12400]
[time_out: 120]
[machine_list_filename: ]
[machines: ]
[gpu_platform_id: -1]
[gpu_device_id: -1]
[gpu_use_dp: 0]

end of parameters

pandas_categorical:null
