tree
version=v3
num_class=1
num_tree_per_iteration=1
label_index=0
max_feature_idx=58
objective=binary sigmoid:1
feature_names=Column_0 Column_1 Column_2 Column_3 Column_4 Column_5 Column_6 Column_7 Column_8 Column_9 Column_10 Column_11 Column_12 Column_13 Column_14 Column_15 Column_16 Column_17 Column_18 Column_19 Column_20 Column_21 Column_22 Column_23 Column_24 Column_25 Column_26 Column_27 Column_28 Column_29 Column_30 Column_31 Column_32 Column_33 Column_34 Column_35 Column_36 Column_37 Column_38 Column_39 Column_40 Column_41 Column_42 Column_43 Column_44 Column_45 Column_46 Column_47 Column_48 Column_49 Column_50 Column_51 Column_52 Column_53 Column_54 Column_55 Column_56 Column_57 Column_58
feature_infos=[0:1] [0:1] [0:1] [0:1] [0:1] [0:1] [0:0.30987844163486572] [0:0.20046534263243324] [0.0048403742429264469:0.79436225027872365] [0:1] [0:0.72452830188679251] [0:0.60700712589073635] [0:1] [0:0.50814353550001423] [0:0.99738304242929099] [0:0.3313726180831954] [0:1] [0:0.75314960629921257] [0:1] [0:1] [0:1] [0:0.29370400654129192] [0:1] [0:0.6433689782239228] [0:0.79913836121014803] [0:1] [0:0.16764932972248303] [0:0.18439897370542899] [0:1] [0:0.91478088211578767] [0:1] [0:1] [0:0.85213053016453388] [0:0.544342529523131] [0:0.58931634643715802] [0.0059419582893115493:0.60780116101916304] [0:1] [0:1] [0:1] [0:1] [0:1] [0:0.048127652519893899] [0:0.7170045703452177] [0:0.050371516771864064] [0:0.53406024943117869] [0:0.77762837500000004] [0:0.53955774036618609] [0:1] [0:0.89681857265692166] [0:1] [0:1] [0:0.94908267102428889] [0.6686273819168046:1] [0:1] [0:1] [0:1] [0:1] [0:0.79830039372850981] [-104.73999999999999:696.33000000000004]
tree_sizes=1703 1703 1703 1707 1711 1706 1705 1708 1711 1697 1710 1693 1711 1718 1715 1692 1704 1712 1696 1714 1711

Tree=0
num_leaves=15
num_cat=0
split_feature=23 0 47 30 30 13 19 46 32 23 19 35 19 49
split_gain=231.601 39.0212 36.818 33.7487 24.281 15.8474 19.956 13.9321 13.6445 13.0523 14.4049 12.3657 10.65 10.6251
threshold=0.0037509978582349513 0.16507851295128173 0.054773869346733679 0.0001769020651329268 4.6212353121247091e-05 0.00040518638573743931 0.00032700091595576109 0.010643137177481317 0.81587648537477153 0.0078557014569969278 0.00028167405631832884 0.0186914375414691 0.00021574407866388197 0.605206402695872
decision_type=2 2 2 2 2 2 2 2 2 2 2 2 2 2
left_child=2 3 4 9 -1 -5 -7 -3 -4 10 11 12 -2 -8
right_child=1 7 8 5 -6 6 13 -9 -10 -11 -12 -13 -14 -15
leaf_value=-0.97876016762343521 -0.90279787046490012 -0.79209502460174086 -0.76294091399732988 -0.73511265649641477 -0.88783688330405774 -0.5486622167726235 -0.93029483425556281 -0.85495430506481318 -0.90321122914387031 -0.77173416160475627 -0.90674067632584654 -0.71417403807722413 -0.80746772023728686 -0.78384941756210946
leaf_weight=108.4108227789402 15.607783824205397 48.510679453611374 14.764119833707811 139.8373064249754 40.28495554625988 2.3200759738683727 10.123967885971071 129.08059054613113 13.076791852712629 48.088847458362579 21.935263752937317 10.545799881219862 47.034267470240593 9.702135890722273
leaf_count=514 74 230 70 663 191 11 48 612 62 228 104 50 223 46
internal_value=-0.836354 -0.800514 -0.934366 -0.778828 -0.954127 -0.74756 -0.826157 -0.837784 -0.828825 -0.814194 -0.835659 -0.814355 -0.83122 -0.85863
internal_weight=0 482.787 176.537 305.195 148.696 161.983 22.1462 177.591 27.8409 143.212 95.1231 73.1879 62.6421 19.8261
internal_count=3126 2289 837 1447 705 768 105 842 132 679 451 347 297 94
shrinkage=1


Tree=1
num_leaves=15
num_cat=0
split_feature=23 48 0 30 30 13 32 5 19 9 49 58 39 23
split_gain=193.325 32.7487 30.4039 26.2947 22.6642 12.6271 11.064 10.7671 12.2371 11.1193 10.7035 10.5219 10.5137 9.79812
threshold=0.0037509978582349513 0.032244196044711959 0.16681653469332977 0.00017866814232227383 4.6212353121247091e-05 2.4879865790895395e-05 0.81587648537477153 0.00043768647157547361 0.00031758234771941154 0.1847391294097307 0.59071609098567823 0.38500000000000006 0.99945437385713443 0.006368329247544908
decision_type=2 2 2 2 2 2 2 2 2 2 2 2 2 2
left_child=1 4 3 10 -1 13 12 9 -9 -5 -2 -6 -3 -4
right_child=2 6 5 7 11 -7 -8 8 -10 -11 -12 -13 -14 -15
leaf_value=-0.13661713977697579 -0.081403421389900713 0.26834871551753708 0.0041889430893177785 0.083968858574347036 -0.094602455371528046 -0.014670459358973018 -0.061933379958687765 0.19363686528433757 0.028911740143647963 0.1813456876246746 0.026647751388504864 0.0090962450933869399 0.030508421997367363 0.11504902802435968
leaf_weight=102.0645976960659 9.8212678730487806 2.1687895059585598 17.478832125663757 95.797252476215363 21.481331944465637 141.76001939177513 12.723742485046385 4.9234263002872458 53.680179193615913 13.362048491835592 137.79868130385876 17.969960376620293 12.99439164996147 14.658508554100989
leaf_count=514 47 10 82 438 104 674 62 22 249 61 647 87 60 69
internal_value=0 -0.0922186 0.0317303 0.0502406 -0.111737 -0.00184028 0.00682778 0.0773263 0.0427507 0.0958886 0.019459 -0.047368 0.0645267 0.0547545
internal_weight=0 169.403 489.28 315.383 141.516 173.897 27.8869 167.763 58.6036 109.159 147.62 39.4513 15.1632 32.1373
internal_count=3126 837 2289 1464 705 825 132 770 271 499 694 191 70 151
shrinkage=0.1


Tree=2
num_leaves=15
num_cat=0
split_feature=49 24 0 19 18 11 53 58 8 49 14 21 58 23
split_gain=164.012 29.0939 28.6659 27.2373 17.8679 15.6064 13.7118 11.8478 11.3838 10.9762 10.642 9.84104 9.52689 9.71242
threshold=0.59165964616680722 0.0036855904882274236 0.16681653469332977 0.00017748114520371191 0.99771006459557088 0.0019418052256532068 0.9713426467105214 0.15500000000000003 0.014764723385663063 0.59502948609941042 0.81481095821512495 0.15621422730989373 1.3950000000000002 0.003667419793217309
decision_type=2 2 2 2 2 2 2 2 2 2 2 2 2 2
left_child=1 3 4 -1 5 8 10 -7 -2 -9 -4 -8 13 -6
right_child=2 -3 6 -5 12 7 11 9 -10 -11 -12 -13 -14 -15
leaf_value=-0.13220727001660912 0.055430294329630342 0.010109650551119204 -0.0011460968609029263 -0.038114933708433149 -0.099967186921298523 0.025108267141594344 -0.0017133713418635869 0.043598729938214786 -0.018310984510204565 0.15346976434679796 0.21631081854185827 -0.093545108482336839 -0.011631772455728124 0.090709094298863174
leaf_weight=98.278429552912712 29.197312578558922 27.179715946316719 4.1188659369945508 44.783974573016167 2.7379960864782324 41.269629761576653 160.16147167980671 16.750347748398781 73.97531071305275 19.888474956154823 4.9612669497728348 12.586671590805052 10.952016100287436 109.77846316993237
leaf_count=526 135 129 19 214 14 188 764 77 342 91 23 61 50 493
internal_value=0 -0.0847339 0.0293107 -0.102753 0.0480692 0.0280683 -0.00210849 0.0618519 0.00255741 0.103239 0.11767 -0.00840436 0.0774028 0.0860691
internal_weight=0 170.242 486.378 143.062 304.55 181.081 181.828 77.9085 103.173 36.6388 9.08013 172.748 123.468 112.516
internal_count=3126 869 2257 740 1390 833 867 356 477 168 42 825 557 507
shrinkage=0.1


Tree=3
num_leaves=15
num_cat=0
split_feature=19 24 19 58 13 52 30 32 19 32 0 0 14 58
split_gain=135.415 34.1462 23.2842 18.4029 12.5888 12.0821 11.3608 10.818 10.3076 10.2104 9.56064 10.0628 11.171 9.15567
threshold=0.000181013108292343 0.0036855904882274236 0.000238701838739984 0.38500000000000006 0.00040518638573743931 0.82290088995338906 0.00027639108013280904 0.81582077239488127 0.00025047504903542096 0.81584143053016456 0.055811300496577641 0.12854650382498997 0.81690138077911467 1.3650000000000004
decision_type=2 2 2 2 2 2 2 2 2 2 2 2 2 2
left_child=1 -1 3 7 6 -5 10 -2 -6 -3 -4 12 -12 -13
right_child=2 9 4 5 8 -7 -8 -9 -10 -11 11 13 -14 -15
leaf_value=-0.11647674359687982 0.10435443973020953 0.17169188355206363 -0.045760231270410782 -0.014246272258911147 0.19613255236312577 0.063989079552438821 0.068420075106955774 -0.075879370095197796 -0.018048153571600167 -0.013947888259650537 0.025350524423975687 0.020510913186897239 0.094174471796141107 -0.12464639483327621
leaf_weight=105.20882864296436 3.5965162962675086 3.3819640129804638 15.783700451254843 53.40453827381134 2.3458031862974158 31.313839793205261 111.23780620098114 44.97870546579361 53.333622977137566 23.903965294361115 48.228291645646095 106.38576185703278 46.15215103328228 4.5302597582340232
leaf_count=592 17 15 73 254 11 149 493 216 250 114 220 493 208 21
internal_value=0 -0.0906235 0.0225935 -0.0134644 0.0349809 0.0146713 0.042354 -0.0625348 -0.00902461 0.0090613 0.0292387 0.0350048 0.0590055 0.0145821
internal_weight=0 132.495 521.291 133.294 387.997 84.7184 332.318 48.5752 55.6794 27.2859 221.08 205.296 94.3804 110.916
internal_count=3126 721 2405 636 1769 403 1508 233 261 129 1015 942 428 514
shrinkage=0.1


Tree=4
num_leaves=15
num_cat=0
split_feature=49 49 18 57 20 19 35 14 15 19 57 21 19 42
split_gain=120.393 23.9781 21.8598 16.8239 10.3042 11.8501 13.9193 13.5293 9.85315 9.34797 8.64385 10.4526 10.0821 9.24574
threshold=0.59165964616680722 0.58675652906486953 0.99769969588084073 0.00027469328378448512 0.82304251347257951 0.00023046059153317814 0.018013251616572384 0.81481095821512495 0.18779865685134964 0.00034054010779551353 0.00011204884549234716 0.15588716271463618 0.0002339925546218092 0.002640800187071332
decision_type=2 2 2 2 2 2 2 2 2 2 2 2 2 2
left_child=1 -1 -3 8 5 6 7 -5 9 10 11 -2 -13 -12
right_child=3 2 -4 4 -6 -7 -8 -9 -10 -11 13 12 -14 -15
leaf_value=-0.0033951046246731712 -0.058379093958299572 -0.12514432805383222 -0.033001803216930616 -0.10676167905155275 0.035519556345409861 0.0096788759428744157 -0.068598958135966268 0.16675957454078696 -0.071120641292939352 0.065650409605296126 0.10659851131082893 -0.069616710117383296 0.1692879891258991 0.021805009494066926
leaf_weight=34.825035437941551 20.954612851142887 85.619824334979057 36.818744421005249 2.734655946493147 84.90528978407383 128.2778073400259 44.51299412548542 5.3390553742647171 7.2203982323408118 124.58800917863846 17.321381106972694 2.8381128311157218 4.6782031506299973 49.918286979198456
leaf_count=168 96 522 179 13 394 592 218 24 32 544 80 14 21 229
internal_value=0 -0.0766112 -0.097436 0.0238682 0.00678113 -0.00670987 -0.0466879 0.0741149 0.043828 0.0475955 0.0240932 -0.0220902 0.0790791 0.0436484
internal_weight=0 157.264 122.439 493.289 265.77 180.865 52.5867 8.07371 227.519 220.299 95.7106 28.4709 7.51632 67.2397
internal_count=3126 869 701 2257 1241 847 255 37 1016 984 440 131 35 309
shrinkage=0.1


Tree=5
num_leaves=15
num_cat=0
split_feature=23 24 30 23 19 58 45 8 52 58 51 57 32 53
split_gain=102.161 23.5285 17.4984 14.8162 11.4563 11.1542 17.428 9.69466 9.24864 8.51624 8.90808 7.5966 8.99505 10.4326
threshold=0.0037509978582349513 0.0036855904882274236 4.6212353121247091e-05 0.0067207763707796834 0.000238701838739984 1.7050000000000003 0.74376495833333345 0.014795608973393199 0.82520282249069543 0.38500000000000006 0.0018290871276832803 0.00027730573596172921 0.81598823126142606 0.97230530915980962
decision_type=2 2 2 2 2 2 2 2 2 2 2 2 2 2
left_child=1 2 -1 4 5 7 -7 -2 -3 -4 -11 -5 13 -13
right_child=3 8 9 11 -6 6 -8 -9 -10 10 -12 12 -14 -15
leaf_value=-0.12169066783172251 0.016722443536358638 -0.020374961998875823 -0.083887883137541516 0.054817630111059404 0.019484864135629942 -0.016712124726031098 0.25206778149235037 -0.062327374205552954 0.12610308094799835 -0.065634986848015192 0.076614196937505513 0.05329338278981615 0.19623073761077131 -0.0023448020040636383
leaf_weight=78.265077620744705 21.611191272735596 21.910381957888607 19.64401476085186 123.59481610357761 143.682289108634 7.7979243546724302 3.4930762499570847 54.991850003600121 5.3662884235382071 8.0988901853561419 9.6452682167291623 52.851085022091866 2.8815946131944647 93.011111751198769
leaf_count=517 102 105 104 537 645 37 16 270 24 40 47 239 13 430
internal_value=0 -0.0751022 -0.0948061 0.0206837 0.00208871 -0.0263492 0.0664398 -0.0400259 0.00844246 -0.0385283 0.011688 0.0364956 0.0212713 0.0178149
internal_weight=0 142.93 115.653 503.915 231.576 87.894 11.291 76.603 27.2767 37.3882 17.7442 272.339 148.744 145.862
internal_count=3126 837 708 2289 1070 425 53 372 129 191 87 1219 682 669
shrinkage=0.1


Tree=6
num_leaves=15
num_cat=0
split_feature=49 49 18 23 20 19 52 20 57 58 53 58 35 48
split_gain=88.0653 20.0055 19.2448 13.9323 11.3733 10.1048 9.71991 8.14465 8.49467 8.05203 7.6885 12.3345 7.66773 7.65299
threshold=0.59165964616680722 0.58675652906486953 0.99769969588084073 0.0067207763707796834 0.82304251347257951 0.00022280800484114413 0.82326779026217245 0.82449837389783165 0.00027984102710420237 1.2450000000000003 0.97230530915980962 0.52500000000000013 0.018308014546261599 0.34952708512467762
decision_type=2 2 2 2 2 2 2 2 2 2 2 2 2 2
left_child=1 13 -3 4 5 9 -6 8 12 -2 11 -10 -5 -1
right_child=3 2 -4 7 6 -7 -8 -9 10 -11 -12 -13 -14 -15
leaf_value=0.013207033685951067 -0.075119997348428169 -0.11947159251895934 -0.030490018518410534 0.040777474503977111 0.14571018993005033 0.00208614604484867 0.022230523950087271 0.098380075630187178 0.11453764751356153 0.033474934846897279 -0.0036625703981621079 0.0077446249048684192 0.12011852831744002 -0.13995274508240374
leaf_weight=30.956273093819618 35.556809619069099 73.679211422801018 36.271622091531754 97.00783696770668 7.0584560781717292 114.89219351112843 65.824274972081184 18.846373811364174 16.928296834230423 8.4506430178880674 89.705943241715431 29.949242427945137 13.929737344384192 3.6467624455690375
leaf_count=150 183 522 179 415 32 521 301 81 74 41 415 134 60 18
internal_value=0 -0.0692477 -0.0901175 0.0194093 0.00148129 -0.0135209 0.0341891 0.0350095 0.0301844 -0.0542668 0.0134886 0.0463094 0.0507398 -0.00293425
internal_weight=0 144.554 109.951 498.15 231.782 158.9 72.8827 266.367 247.521 44.0075 136.583 46.8775 110.938 34.603
internal_count=3126 869 701 2257 1078 745 333 1179 1098 224 623 208 475 168
shrinkage=0.1


Tree=7
num_leaves=15
num_cat=0
split_feature=49 49 0 43 9 18 11 19 0 29 51 51 58 18
split_gain=75.1301 25.8893 11.5444 12.2704 9.36405 9.1891 9.41224 10.0896 11.9104 9.16569 11.2358 9.14757 8.94184 8.40412
threshold=0.59071609098567823 0.58899747262005064 0.16601127365454305 0.038760349769851994 0.18320667677823446 0.99771006459557088 0.0019299287410926367 0.00021338943660479458 0.075439538317004437 1.3405095952265765e-05 0.00075206120478348069 0.0037788754363811934 0.15500000000000003 0.9977068921493667
decision_type=2 2 2 2 2 2 2 2 2 2 2 2 2 2
left_child=1 -1 5 4 -4 6 -2 -8 -9 -7 -11 -5 13 -10
right_child=2 -3 3 11 -6 9 7 8 12 10 -12 -13 -14 -15
leaf_value=-0.0039784922723593904 -0.0057345913816704234 -0.10696159862596044 0.012931484454902728 -0.023402121156819805 0.13140663578279266 0.0046927144481586835 -0.11509025693492199 -0.020566823560327574 0.065041461504690354 -0.048531719632066019 0.073517498062495662 0.056796415642714475 0.10781640988120643 -0.042305215352384302
leaf_weight=35.647664904594421 115.49826560914516 77.44410651922226 18.680247187614444 143.11699666082859 10.377340808510779 37.29517836868763 4.1220271736383429 20.759777143597603 23.922823876142502 8.2485986948013288 88.151726394891739 15.791714131832121 28.8251963108778 10.491646125912665
leaf_count=174 527 567 90 688 49 160 21 90 106 36 373 74 125 46
internal_value=0 -0.0745003 0.0153528 -0.00450673 0.0552425 0.0264193 0.0130452 0.0376592 0.0451549 0.0467883 0.0630742 -0.0154323 0.0667295 0.0323156
internal_weight=0 113.092 525.282 187.966 29.0576 337.315 203.62 88.1215 83.9994 133.696 96.4003 158.909 63.2397 34.4145
internal_count=3126 741 2385 901 139 1484 915 388 367 569 409 762 277 152
shrinkage=0.1


Tree=8
num_leaves=15
num_cat=0
split_feature=23 24 49 23 13 51 48 39 18 19 58 43 57 51
split_gain=65.3578 22.0413 11.2129 9.80963 8.99092 8.04955 8.01569 9.84511 7.3286 7.11917 9.66547 12.8423 7.71245 6.90809
threshold=0.0036376978152147265 0.0036855904882274236 0.59411962931760753 0.0067207763707796834 0.00040518638573743931 0.0020147812523211776 0.34952708512467762 0.99945437385713443 0.99770247831116976 0.000238701838739984 1.7050000000000003 0.038766261955293417 0.0011287887776638295 0.0014576988784074875
decision_type=2 2 2 2 2 2 2 2 2 2 2 2 2 2
left_child=1 2 -1 9 13 -4 7 -3 -6 10 -2 12 -12 -5
right_child=3 6 5 4 8 -7 -8 -9 -10 -11 11 -13 -14 -15
leaf_value=-0.10757334963696724 -0.034209159260796464 0.21221852276596681 -0.13651912410335379 0.010250735928847175 0.14773838690620664 0.068250628311717035 -0.13462640911121332 0.0065843108549059406 -0.023061904638661302 0.013229232882046743 -0.072771875793263358 0.22979523868504681 0.11857739613872298 0.047138647179706415
leaf_weight=75.775739118456841 82.107499495148659 2.6169031858444276 2.7066144794225675 75.131680101156235 2.6663762480020514 6.6032222062349319 3.4135123044252387 21.10774801671505 43.429121524095535 149.83766429126263 5.6163706183433515 3.2945974916219702 3.3704657107591629 156.55599857866764
leaf_count=592 416 11 14 332 12 32 18 100 202 667 27 14 16 673
internal_value=0 -0.0698203 -0.094849 0.0142982 0.027152 0.00871867 0.00865152 0.0292664 -0.013182 -0.000321673 -0.0218331 0.0609074 -0.00100734 0.0351766
internal_weight=0 112.224 85.0856 522.01 277.783 9.30984 27.1382 23.7247 46.0955 244.227 94.3889 12.2814 8.98684 231.688
internal_count=3126 767 638 2359 1219 46 129 111 214 1140 473 57 43 1005
shrinkage=0.1


Tree=9
num_leaves=15
num_cat=0
split_feature=23 24 49 18 13 51 52 37 5 0 12 53 41 58
split_gain=55.6406 19.9137 10.3842 7.90162 9.28807 6.76743 6.72149 6.85463 6.42169 6.23625 10.6205 9.22128 7.17974 7.90465
threshold=0.0036376978152147265 0.0036855904882274236 0.59411962931760753 0.99770807170957443 0.00040518638573743931 0.0020147812523211776 0.82520282249069543 0.0004572001651819952 0.00038689655777002647 0.16787008455240909 0.13365889431322864 0.97587518240925386 0.036476755912908936 2.1050000000000004
decision_type=2 2 2 2 2 2 2 2 2 2 2 2 2 2
left_child=1 2 -1 9 -5 -4 7 -3 -7 11 -11 12 13 -2
right_child=3 6 5 4 -6 8 -8 -9 -10 10 -12 -13 -14 -15
leaf_value=-0.10473685250268312 0.008493609455942781 0.018436490441782045 -0.13189928762326586 0.03287003996945382 -0.020848610497937743 -0.089805093921088208 0.10604241893381877 -0.10609514110456258 0.12309421761718009 -0.028957890111561236 0.15231558828469954 0.14271904563198326 -0.050274729628629479 0.10041090824175095
leaf_weight=70.32664529979229 142.79204800724983 15.291882231831556 2.530341222882269 223.4804879873991 37.602271631360054 2.0168738663196564 5.5310819149017325 6.2170080244541159 4.761631965637207 81.38739587366581 3.3656996935605994 5.1769742816686621 19.258986338973045 10.011957928538321
leaf_count=592 648 73 14 963 177 10 24 32 22 405 16 22 84 44
internal_value=0 -0.0664227 -0.0915991 0.0128212 0.0251332 0.0076544 0.00772425 -0.0175586 0.0597482 0.00055186 -0.0217592 0.0112206 0.00726414 0.0145162
internal_weight=0 106.675 79.6355 523.076 261.083 9.30885 27.04 21.5089 6.77851 261.993 84.7531 177.24 172.063 152.804
internal_count=3126 767 638 2359 1140 46 129 105 32 1219 421 798 776 692
shrinkage=0.1


Tree=10
num_leaves=15
num_cat=0
split_feature=19 24 23 43 48 22 9 30 29 21 13 42 53 29
split_gain=48.58 22.4072 7.95822 6.67515 6.36232 9.19988 6.3143 9.0903 8.09823 8.91949 6.33671 10.2869 6.86304 6.82074
threshold=0.00017748114520371191 0.0036855904882274236 0.0067207763707796834 0.038755643449739544 0.34952708512467762 0.60389610389610404 0.17585286882991349 0.00035733628464454761 6.1985970004837937e-05 0.15531479967293543 0.0010591714293838326 0.0046627853963722614 0.97277518011720032 7.629817771327207e-05
decision_type=2 2 2 2 2 2 2 2 2 2 2 2 2 2
left_child=1 -1 -2 -4 5 -3 -5 10 9 -9 11 12 13 -8
right_child=2 4 3 6 -6 -7 7 8 -10 -11 -12 -13 -14 -15
leaf_value=-0.10238143862105645 -0.0019067478257948425 0.21257034840181921 0.11645883049909111 -0.0023605806594521207 -0.12882699189566549 0.0038293860449630131 0.1040349004829686 -0.053353487919621446 0.11085857028455377 0.12503672539202779 0.15090287601840724 -0.060753971402955666 -0.00057180425098679838 0.029747349756479819
leaf_weight=61.741752661764622 258.73724961280823 2.3405654281377855 7.3548392206430426 86.614310652017593 3.0622424185276023 21.562700882554054 15.76156924664974 7.8689505457878095 23.07833831012249 4.3535169512033463 3.5847726166248313 15.473047494888304 56.774388462305069 57.260039761662483
leaf_count=564 1223 10 31 379 18 101 68 32 96 18 16 70 251 249
internal_value=0 -0.0691669 0.0107164 0.0224596 0.00688313 0.0242689 0.0199063 0.0303792 0.0760024 0.0101873 0.0195596 0.0163185 0.0255064 0.0457822
internal_weight=0 88.7073 536.861 278.124 26.9655 23.9033 270.769 184.155 35.3008 12.2225 148.854 145.269 129.796 73.0216
internal_count=3126 693 2433 1210 129 111 1179 800 146 50 654 638 568 317
shrinkage=0.1


Tree=11
num_leaves=15
num_cat=0
split_feature=49 49 52 23 56 54 0 46 54 52 41 0 56 8
split_gain=42.7833 19.6194 7.15538 11.1904 9.73748 8.08731 9.26833 9.9147 7.99254 8.75991 7.57503 6.7671 6.61392 9.44049
threshold=0.59071609098567823 0.58899747262005064 0.82309828231951465 0.005142705358788891 0.14095590661992272 0.94218295663342688 0.052925781774258503 0.010374231079918335 0.9472893661808518 0.82265873574959214 0.036399556531830246 0.27971413233123071 0.13773551029219158 0.014720184108235156
decision_type=2 2 2 2 2 2 2 2 2 2 2 2 2 2
left_child=1 -1 3 5 8 6 -2 -8 9 -5 -4 -12 -7 -14
right_child=2 -3 10 4 -6 12 7 -9 -10 -11 11 -13 13 -15
leaf_value=-0.002999646778598773 -0.085825145590735771 -0.097676984739594963 0.12770604682142514 0.021796342205196769 -0.049779044145052416 -0.11448258712715338 -0.14237401310362374 0.10016450477188737 0.099724150772200024 -0.05050666035750398 0.026905169829480127 -0.11618765522932817 0.037384286682155425 -0.044696298665572731
leaf_weight=34.67798887193203 4.9821303188800838 59.340776056051254 7.3401522338390341 208.55695000290871 21.693297028541565 9.6251316890120489 1.919051520526408 13.846635982394217 12.001796692609785 18.22059477865696 143.78959695994854 3.3827140629291526 17.896073132753372 64.570174500346184
leaf_count=174 25 567 33 911 102 48 10 64 53 82 633 16 87 321
internal_value=0 -0.0627561 0.0104632 0.00297262 0.0143682 -0.0233323 0.0330698 0.0706419 0.020196 0.0159871 0.028561 0.0236162 -0.0360395 -0.0268839
internal_weight=0 94.0188 527.824 373.312 260.473 112.839 20.7478 15.7657 238.779 226.778 154.512 147.172 92.0914 82.4662
internal_count=3126 741 2385 1703 1148 555 99 74 1046 993 682 649 456 408
shrinkage=0.1


Tree=12
num_leaves=15
num_cat=0
split_feature=49 51 21 32 0 11 43 49 23 29 9 1 30 57
split_gain=36.6603 12.0987 11.7656 9.32561 7.18814 9.07759 9.70776 7.46177 7.3696 7.25389 6.66128 10.3896 9.94711 6.52205
threshold=0.59165964616680722 0.00080776944217484975 0.15531479967293543 0.81583823126142607 0.15595222117836535 0.0057066508313539195 0.038764160304291508 0.59438921651221566 0.0037810087795069605 9.5246734397677805e-05 0.18297287951778826 0.1176551360606149 0.00012097628747027106 0.00053141906947231255
decision_type=2 2 2 2 2 2 2 2 2 2 2 2 2 2
left_child=1 -1 -3 -4 8 6 9 -8 -2 -6 11 -11 -13 -12
right_child=4 2 3 -5 5 -7 7 -9 -10 10 13 12 -14 -15
leaf_value=-0.0084363832259322091 -0.053766580330127794 -0.10677856923082352 0.039524064051709884 -0.078295818204995427 -0.082073081776162377 0.16903283930469004 -0.10425074431667312 -0.012723103284049334 0.024128254954275116 0.10327847259469994 -0.01914796598684558 -0.069943836597246276 0.11345527541473495 0.12930063904009503
leaf_weight=41.345440462231636 12.681573733687399 46.169719032943249 12.520705059170725 14.495680063962935 4.9016798287630072 3.0042075812816611 9.4982939884066564 143.10992039740086 287.49350629746914 8.8051286190748232 3.8339300602674511 13.597909204661848 3.7792890369892111 12.97766801714897
leaf_count=231 66 483 70 85 24 13 51 674 1224 38 18 72 17 60
internal_value=0 -0.0516786 -0.0761076 -0.0236924 0.0110011 -0.00350754 -0.00609277 -0.0184198 0.0208374 0.0331843 0.0463247 0.0147837 -0.0300572 0.0954465
internal_weight=0 114.532 73.1861 27.0164 503.683 203.508 200.504 152.608 300.175 47.8956 42.9939 26.1823 17.3772 16.8116
internal_count=3126 869 638 155 2257 967 954 725 1290 229 205 127 89 78
shrinkage=0.1


Tree=13
num_leaves=15
num_cat=0
split_feature=50 48 38 43 0 21 0 29 43 58 29 13 23 49
split_gain=31.8845 18.0455 6.26676 6.1454 8.46434 8.40691 8.11005 9.19382 9.61927 8.97937 8.92251 7.55614 7.55025 7.26018
threshold=4.6741425851550406e-05 0.032244196044711959 0.63130252100840345 0.038760101706127183 0.16681653469332977 0.15621422730989373 0.055811300496577641 9.7464118690533802e-05 0.038784976985198873 0.26500000000000007 0.00011742057732623772 0.00025306377775882174 0.048684864424781642 0.61145745577085098
decision_type=2 2 2 2 2 2 2 2 2 2 2 2 2 2
left_child=1 -1 -3 -2 6 -6 -5 12 -9 10 -10 -11 -8 -12
right_child=3 2 -4 4 5 -7 7 8 9 11 13 -13 -14 -15
leaf_value=-0.094379662648480883 0.042436497127613576 0.075846167627573846 -0.027009142577970349 -0.018815779370226986 -0.007864923864433283 -0.096161363598838881 0.039147347555299139 -0.0091095375314313217 0.19819552858468573 0.12454064607886704 -0.022826520585698663 -0.039483220292298088 0.16483437826062639 0.099277172828616284
leaf_weight=51.974139399826527 47.601418696343899 8.7687716186046618 18.256970286369324 62.069578304886818 143.35351626574993 11.660363078117369 93.888648137450218 116.09243576973677 2.3992446959018698 16.157547831535343 27.754286959767342 3.3994874060153952 5.0358306169509879 5.9057361334562293
leaf_count=565 218 40 92 273 686 69 415 512 10 68 118 15 21 24
internal_value=0 -0.0599156 0.00636329 0.00814052 0.00479322 -0.0145067 0.0137855 0.0212626 0.00727273 0.0414688 0.0118774 0.0960293 0.0455455 -0.00140312
internal_weight=0 78.9999 27.0257 535.318 487.717 155.014 332.703 270.633 171.709 55.6163 36.0593 19.557 98.9245 33.66
internal_count=3126 697 132 2429 2211 755 1456 1183 747 235 152 83 436 142
shrinkage=0.1


Tree=14
num_leaves=15
num_cat=0
split_feature=49 49 52 51 57 49 53 23 29 53 30 41 53 53
split_gain=27.3632 16.024 5.91205 5.89019 9.09288 9.49575 9.0646 8.61165 7.44943 6.25502 6.07151 7.56799 5.99623 8.32955
threshold=0.59071609098567823 0.58899747262005064 0.82425548589341713 0.0023490306766693904 0.00098288828391698184 0.59182813816343727 0.97235688036245016 0.0067207763707796834 0.00047240364457345595 0.97220885191042661 0.00026638330939317593 0.036422697004862954 0.97298050990549101 0.9734876267314555
decision_type=2 2 2 2 2 2 2 2 2 2 2 2 2 2
left_child=1 -1 3 6 5 -5 9 10 -9 -2 11 -8 -10 -14
right_child=2 -3 -4 4 -6 -7 7 8 12 -11 -12 -13 13 -15
leaf_value=-0.0016410305555330741 0.006718862955913946 -0.090889213704469854 0.036887848954484721 -0.084485649190986611 -0.04497246032978789 0.031487827766430561 -0.057945170424953597 -0.010918127212372949 -0.040677685411544713 0.083374568681572822 -0.15851837482650341 0.032918594612346787 0.29697046916518621 0.050155892923304704
leaf_weight=34.297291457653046 130.16801408678293 48.658250831067562 61.671396560966969 7.4030791968107215 20.276589393615723 152.39643512666225 49.133194461464882 70.997005730867386 2.4764007031917554 11.592892274260519 4.7407983094453803 11.268718436360357 2.2257199436426163 3.5454903244972229
leaf_count=174 589 567 268 41 96 659 250 319 11 53 21 51 10 17
internal_value=0 -0.0539903 0.0077907 0.00394177 0.0181106 0.0261151 -0.00497483 -0.0226105 -0.000468022 0.0129876 -0.0495464 -0.0409934 0.0894885 0.145342
internal_weight=0 82.9555 527.896 466.224 180.076 159.8 286.148 144.387 79.2446 141.761 65.1427 60.4019 8.24761 5.77121
internal_count=3126 741 2385 2117 796 700 1321 679 357 642 322 301 38 27
shrinkage=0.1


Tree=15
num_leaves=15
num_cat=0
split_feature=19 48 49 21 48 39 22 9 43 0 0 9 41 57
split_gain=24.8608 16.6898 8.47808 5.43646 5.38028 7.21326 5.03331 5.00516 9.66447 6.93546 6.9957 8.04049 6.13054 5.6941
threshold=0.00017748114520371191 0.032244196044711959 0.59711878685762432 0.15793131643499594 0.34952708512467762 0.99945437385713443 0.69480519480519487 0.16942639119193384 0.03875747636503956 0.092168836397798964 0.055811300496577641 0.16477795154306196 0.036431372955349255 7.8153105217977508e-06
decision_type=2 2 2 2 2 2 2 2 2 2 2 2 2 2
left_child=1 2 -1 7 5 -3 -7 9 -9 10 -2 12 -12 -10
right_child=3 4 -4 -5 -6 6 -8 8 13 -11 11 -13 -14 -15
leaf_value=-0.10615550946453403 -0.015172534724975246 0.17726641807885424 0.063359012473753848 -0.13254732381263806 -0.12499374952352232 0.04083076673576725 -0.058241564278984928 0.11239303281006426 0.16898678232430464 -0.03307072101776224 0.075829785428244104 0.24053668677324322 -0.094738710195507253 0.0090876459344847883
leaf_weight=41.012521028518677 21.854715138673782 2.6355408281087938 3.1791252493858329 2.7860934883356085 2.8138399720191947 13.080117315053942 8.4348621219396573 9.4099240750074369 2.2388805598020545 62.470454283058643 10.570783495903013 2.4077093899250022 2.6318011581897727 421.94864469021559
leaf_count=546 96 11 15 17 18 61 42 42 9 289 45 10 11 1914
internal_value=0 -0.05613 -0.0939607 0.00677775 0.00587042 0.0211177 0.00198985 0.0075053 0.0121552 -0.0126696 0.0213479 0.0724771 0.0418287 0.0099316
internal_weight=0 71.156 44.1916 536.319 26.9644 24.1505 21.515 533.533 433.597 99.9355 37.465 15.6103 13.2026 424.188
internal_count=3126 693 561 2433 132 114 103 2416 1965 451 162 66 56 1923
shrinkage=0.1


Tree=16
num_leaves=15
num_cat=0
split_feature=19 24 49 33 47 55 51 32 8 41 23 44 29 54
split_gain=21.316 15.6957 7.69996 5.04296 10.0343 4.89362 4.02733 6.94422 5.77393 6.52127 5.76252 5.02277 4.99069 4.87422
threshold=0.00017748114520371191 0.0036855904882274236 0.59711878685762432 0.40412092495512936 0.14522613065326637 0.52108351899146887 0.00088204709203000824 0.81588160420475331 0.016755054690089498 0.036398810510610086 0.0067454295982084201 0.0031375849526963733 6.3598613126915026e-05 0.93790249210624899
decision_type=2 2 2 2 2 2 2 2 2 2 2 2 2 2
left_child=1 2 -1 4 5 -3 7 8 9 -2 -9 12 -11 -8
right_child=6 3 -4 -5 -6 -7 13 10 -10 11 -12 -13 -14 -15
leaf_value=-0.10472267263620938 0.038451216015449291 0.046282174640989854 0.055920329263728301 -0.038296086760673954 0.20505118593476782 -0.10390730988839264 0.22399930186237027 -0.030676910999109682 0.11650807995771251 0.11316080286463755 0.1268586365005491 -0.073114593529619964 -0.031029803457851952 0.0089672091230602793
leaf_weight=37.944357879459858 9.974516347050665 7.3156793564558047 3.2384220212697974 12.803522348403929 3.1668719649314871 3.0840238183736801 1.0565359145402897 3.9144078195095044 2.6226190179586402 2.9363317787647274 5.7076549977064133 32.264344617724419 13.152184903621672 465.14145547151566
leaf_count=549 47 32 15 67 14 16 5 18 12 13 24 155 57 2102
internal_value=0 -0.053519 -0.0920905 0.00671894 0.0492021 0.0017436 0.00608441 -0.0161786 -0.0286421 -0.0351686 0.0627707 -0.0503554 -0.00471343 0.00945453
internal_weight=0 67.5529 41.1828 26.3701 13.5666 10.3997 536.77 70.5721 60.95 58.3274 9.62206 48.3529 16.0885 466.198
internal_count=3126 693 564 129 62 48 2433 326 284 272 42 225 70 2107
shrinkage=0.1


Tree=17
num_leaves=15
num_cat=0
split_feature=19 24 49 55 21 11 10 38 17 48 13 57 1 13
split_gain=18.2627 14.327 7.28084 5.62395 4.72296 4.20826 4.02857 4.20557 4.26183 4.08812 3.97508 7.87365 8.60096 7.08638
threshold=0.00017748114520371191 0.0036855904882274236 0.59553496208930079 0.47706895614845407 0.15793131643499594 0.0003503562945368171 0.275256064690027 0.63130252100840345 0.45984251968503947 0.11177987962166812 6.966362421450711e-05 0.0018032754286064002 0.11910572499771145 8.1748130455799149e-05
decision_type=2 2 2 2 2 2 2 2 2 2 2 2 2 2
left_child=1 2 -1 -3 5 -2 -5 -8 9 -9 11 12 -7 -12
right_child=4 3 -4 6 -6 10 7 8 -10 -11 13 -13 -14 -15
leaf_value=-0.10542958876858069 -0.099793259615330171 0.182819282125772 0.034854996601529735 0.074152319609882444 -0.12901156988941764 0.012681442892898062 0.036899939530500241 -0.078433422765210425 -0.11944306148064968 0.08089384821275987 -0.049882747485485254 -0.11346365925306078 0.080182843797449055 0.0038323646899165714
leaf_weight=33.908536333590746 3.725924849510192 1.6830576360225702 4.1527512148022643 4.9766560345888164 2.5993282794952384 230.77573695033789 6.7900030165910747 3.4310385137796384 6.2517796158790588 3.0349604189395905 27.262687876820564 4.6253647804260245 20.558063894510269 247.76031997054815
leaf_count=544 17 7 20 24 17 1029 31 18 35 14 128 22 89 1131
internal_value=0 -0.0509627 -0.0901236 0.00599777 0.00545789 0.00611158 -0.00615693 -0.0266447 -0.0605711 -0.00364962 0.00685472 0.0158235 0.0182028 -0.00149235
internal_weight=0 64.2288 38.0613 26.1675 537.307 534.708 24.4844 19.5078 12.7178 6.466 530.982 255.959 251.334 275.023
internal_count=3126 693 564 129 2433 2416 122 98 67 32 2399 1140 1118 1259
shrinkage=0.1


Tree=18
num_leaves=15
num_cat=0
split_feature=23 46 35 18 51 53 8 1 10 10 49 38 45 53
split_gain=15.7852 8.76248 8.42417 6.56031 8.51161 5.86664 5.80032 6.53411 7.07452 5.40142 4.7995 4.23496 4.11456 7.85569
threshold=0.0037509978582349513 0.010773765162470614 0.017922626464856171 0.99770335346874328 0.0027389883384089735 0.97214486541826173 0.014623854973332934 0.11787443452683338 0.33811320754716984 0.35940700808625342 0.59668070766638592 0.63130252100840345 0.74385439583333335 0.97329280218814707
decision_type=2 2 2 2 2 2 2 2 2 2 2 2 2 2
left_child=1 2 -1 5 10 6 -4 9 -9 -8 -5 -10 13 -2
right_child=12 -3 3 4 -6 -7 7 8 11 -11 -12 -13 -14 -15
leaf_value=-0.09366022693899273 0.0096788823233618232 -0.10356591953533814 0.20288131123970465 -0.05834547985174892 0.24124498242871661 -0.090687120577649438 -0.10802983598927172 0.057062982469250845 0.055341411459908098 0.059536991757789808 0.13157595463390995 -0.099986800054101752 0.023365327919071702 -0.022244558310099333
leaf_weight=13.913138858973978 299.49262822419405 17.365252144634724 1.3204374611377705 3.5840664133429518 2.2669545039534569 9.5661536492407304 9.1073496714234334 16.296879939734939 2.465898782014845 2.438805177807807 2.1162799596786499 6.0910439342260361 108.93260599672794 103.80050349235535
leaf_count=184 1350 253 9 19 11 98 87 104 13 13 10 36 459 480
internal_value=0 -0.0400572 -0.0241125 -0.00660011 0.0773447 -0.020744 -0.00300589 -0.0104746 0.0184032 -0.072636 0.0121637 -0.0552251 0.00612036 0.00146235
internal_weight=0 86.5323 69.167 55.2539 7.9673 47.2866 37.7204 36.4 24.8538 11.5462 5.70035 8.55694 512.226 403.293
internal_count=3126 837 584 400 40 360 262 253 153 100 29 49 2289 1830
shrinkage=0.1


Tree=19
num_leaves=15
num_cat=0
split_feature=19 19 23 9 43 18 56 3 19 49 32 0 58 30
split_gain=13.7559 12.2452 5.34585 4.15879 7.52759 5.53471 9.77179 10.9918 5.99152 9.26846 8.67318 5.73422 6.77316 7.92761
threshold=0.00017748114520371191 0.00015805534821624096 0.0083053510550043595 0.16942639119193384 0.03875747636503956 0.99770807170957443 0.14040377937327334 0.00037883621281648423 0.0020223431984986808 0.60230834035383329 0.81597621115173691 0.052925781774258503 1.7050000000000003 6.6227894600513366e-05
decision_type=2 2 2 2 2 2 2 2 2 2 2 2 2 2
left_child=1 -1 -3 -2 -5 11 7 -7 10 -10 -9 -6 -13 -14
right_child=3 2 -4 4 5 6 -8 8 9 -11 -12 12 13 -15
leaf_value=-0.00038986737785129356 -0.013912548710154973 -0.1015988926901172 0.089876566537345645 0.096158202189257608 -0.064633414775430387 0.18857058667195278 -0.056644265355930937 0.020231572493978479 0.085586929983039156 -0.15729891449413005 0.11338630357854428 -0.0037444864699306608 0.14204844907441261 -0.011880955576487981
leaf_weight=29.111234940588474 100.02393851429224 28.135189410299066 1.5378078818321217 9.6226147562265378 14.330581247806547 4.0856408625841132 15.400810420513151 149.59328570961952 2.4626618921756736 4.3396600335836411 10.710251688957213 213.33688431978226 7.097028121352194 6.3299613147974014
leaf_count=158 454 528 7 42 67 17 71 641 10 18 44 1010 32 27
internal_value=0 -0.0464689 -0.0916756 0.00448263 0.00869008 0.00672211 0.0196531 0.026517 0.0225549 -0.0693663 0.0264555 -0.00328567 0.00059127 0.0694806
internal_weight=0 58.7842 29.673 537.333 437.309 427.687 186.592 171.192 167.106 6.80232 160.304 241.094 226.764 13.427
internal_count=3126 693 535 2433 1979 1937 801 730 713 28 685 1136 1069 59
shrinkage=0.1


Tree=20
num_leaves=15
num_cat=0
split_feature=49 56 52 32 58 51 45 13 54 3 23 0 18 43
split_gain=12.094 7.2373 6.67825 6.66065 5.50555 4.35236 7.58493 5.59989 10.0535 7.80798 6.24753 6.04405 7.57698 9.8744
threshold=0.59165964616680722 0.13805516290867278 0.81913429138341975 0.81573948811700203 1.7050000000000003 0.00088204709203000824 0.74383335416666674 0.00028576302994114138 0.9438946072747384 0.00041807864753743074 0.0077976826279646987 0.11068312978123744 0.99772372942007503 0.038763974256497899
decision_type=2 2 2 2 2 2 2 2 2 2 2 2 2 2
left_child=1 2 -1 -3 -4 6 -2 10 -9 -10 -7 12 -12 -14
right_child=5 3 4 -5 -6 7 -8 8 9 -11 11 -13 13 -15
leaf_value=-0.076785864036135909 -0.034548247368535782 0.11540867508472062 -0.0085859826274372955 -0.097259493746839551 0.13359537387674977 0.0033049675785345304 0.063473977348561195 -0.077009118554884598 -0.084832545627145858 0.020938496228028573 0.07317939556662538 0.011828772238692921 0.17342582393741551 -0.033917466351000618
leaf_weight=14.826222725212572 51.634622946381569 1.5811027996242071 48.637451320886612 21.47793297842145 2.8849676847457877 218.08112778514624 9.3187955617904645 19.80267508327961 8.1496749520301801 48.593538656830788 48.037745326757431 82.363339945673943 2.7016943991184261 15.327355101704596
leaf_count=177 242 12 301 355 24 1001 40 89 39 225 196 352 11 62
internal_value=0 -0.0344164 -0.0176436 -0.0826773 -0.000624621 0.00549156 -0.0195622 0.00893833 -0.0156621 0.00574726 0.0140761 0.0299017 0.0524326 -0.0028466
internal_weight=0 89.4077 66.3486 23.059 51.5224 504.011 60.9534 443.057 76.5459 56.7432 366.511 148.43 66.0668 18.029
internal_count=3126 869 502 367 325 2257 282 1975 353 264 1622 621 269 73
shrinkage=0.1


end of trees

feature_importances:
Column_49=26
Column_19=22
Column_23=20
Column_0=17
Column_58=15
Column_51=11
Column_53=11
Column_13=10
Column_18=10
Column_30=10
Column_32=9
Column_43=9
Column_57=9
Column_24=8
Column_29=8
Column_48=8
Column_52=8
Column_9=7
Column_21=7
Column_8=5
Column_41=5
Column_11=4
Column_35=4
Column_54=4
Column_56=4
Column_1=3
Column_10=3
Column_14=3
Column_20=3
Column_38=3
Column_39=3
Column_45=3
Column_46=3
Column_3=2
Column_5=2
Column_22=2
Column_42=2
Column_47=2
Column_55=2
Column_12=1
Column_15=1
Column_17=1
Column_33=1
Column_37=1
Column_44=1
Column_50=1

parameters:
[boosting: gbdt]
[objective: binary]
[metric: binary_logloss]
[tree_learner: serial]
[device_type: cpu]
[data: ]
[valid: ]
[num_iterations: 10000]
[learning_rate: 0.1]
[num_leaves: 15]
[num_threads: 0]
[force_col_wise: 0]
[force_row_wise: 0]
[histogram_pool_size: -1]
[max_depth: -1]
[min_data_in_leaf: 10]
[min_sum_hessian_in_leaf: 0.001]
[bagging_fraction: 0.8]
[pos_bagging_fraction: 1]
[neg_bagging_fraction: 1]
[bagging_freq: 0]
[bagging_seed: 10961]
[feature_fraction: 0.8]
[feature_fraction_bynode: 1]
[feature_fraction_seed: 53]
[extra_trees: 0]
[extra_seed: 11644]
[early_stopping_round: 50]
[first_metric_only: 0]
[max_delta_step: 0]
[lambda_l1: 0]
[lambda_l2: 0]
[min_gain_to_split: 0]
[drop_rate: 0.1]
[max_drop: 50]
[skip_drop: 0.5]
[xgboost_dart_mode: 0]
[uniform_drop: 0]
[drop_seed: 30626]
[top_rate: 0.2]
[other_rate: 0.1]
[min_data_per_group: 100]
[max_cat_threshold: 32]
[cat_l2: 10]
[cat_smooth: 10]
[max_cat_to_onehot: 4]
[top_k: 20]
[monotone_constraints: ]
[monotone_constraints_method: basic]
[monotone_penalty: 0]
[feature_contri: ]
[forcedsplits_filename: ]
[refit_decay_rate: 0.9]
[cegb_tradeoff: 1]
[cegb_penalty_split: 0]
[cegb_penalty_feature_lazy: ]
[cegb_penalty_feature_coupled: ]
[path_smooth: 0]
[interaction_constraints: ]
[verbosity: -1]
[saved_feature_importance_type: 0]
[max_bin: 255]
[max_bin_by_feature: ]
[min_data_in_bin: 3]
[bin_construct_sample_cnt: 200000]
[data_random_seed: 4071]
[is_enable_sparse: 1]
[enable_bundle: 1]
[use_missing: 1]
[zero_as_missing: 0]
[feature_pre_filter: 1]
[pre_partition: 0]
[two_round: 0]
[header: 0]
[label_column: ]
[weight_column: ]
[group_column: ]
[ignore_column: ]
[categorical_feature: ]
[forcedbins_filename: ]
[objective_seed: 602]
[num_class: 1]
[is_unbalance: 0]
[scale_pos_weight: 1]
[sigmoid: 1]
[boost_from_average: 1]
[reg_sqrt: 0]
[alpha: 0.9]
[fair_c: 1]
[poisson_max_delta_step: 0.7]
[tweedie_variance_power: 1.5]
[lambdarank_truncation_level: 20]
[lambdarank_norm: 1]
[label_gain: ]
[eval_at: ]
[multi_error_top_k: 1]
[auc_mu_weights: ]
[num_machines: 1]
[local_listen_port: 12400]
[time_out: 120]
[machine_list_filename: ]
[machines: ]
[gpu_platform_id: -1]
[gpu_device_id: -1]
[gpu_use_dp: 0]

end of parameters

pandas_categorical:null
