tree
version=v3
num_class=1
num_tree_per_iteration=1
label_index=0
max_feature_idx=58
objective=binary sigmoid:1
feature_names=Column_0 Column_1 Column_2 Column_3 Column_4 Column_5 Column_6 Column_7 Column_8 Column_9 Column_10 Column_11 Column_12 Column_13 Column_14 Column_15 Column_16 Column_17 Column_18 Column_19 Column_20 Column_21 Column_22 Column_23 Column_24 Column_25 Column_26 Column_27 Column_28 Column_29 Column_30 Column_31 Column_32 Column_33 Column_34 Column_35 Column_36 Column_37 Column_38 Column_39 Column_40 Column_41 Column_42 Column_43 Column_44 Column_45 Column_46 Column_47 Column_48 Column_49 Column_50 Column_51 Column_52 Column_53 Column_54 Column_55 Column_56 Column_57 Column_58
feature_infos=[0:1] [0:1] [0:1] [0:1] [0:1] [0:1] [0:0.63259234121673757] [0:1] [0.0048403742429264469:0.79436225027872365] [0:1] [0:0.89692722371967648] [0:0.60700712589073635] [0:1] [0:0.50814353550001423] [0:1] [0:1] [0:1] [0:1] [0:1] [0:1] [0:1] [0:0.29370400654129192] [0:1] [0:0.6433689782239228] [0:0.79913836121014803] [0:1] [0:0.29253904403218506] [0:0.94555049191697438] [0:1] [0:0.91478088211578767] [0:1] [0:1] [0:0.85213053016453388] [0:0.73059819077620924] [0:0.85262682364582376] [0.0059419582893115493:0.60780116101916304] [0:1] [0:1] [0:1] [0:0.99992331740694851] [0:1] [0:0.048127652519893899] [0:0.7170045703452177] [0:0.050371516771864064] [0:0.53406024943117869] [0:0.77762837500000004] [0:0.53955774036618609] [0:1] [0:0.98710232158211519] [0:1] [0:1] [0:0.94908267102428889] [0:1] [0:1] [0:1] [0:1] [0:1] [0:0.66089312530894728] [-104.73999999999999:696.33000000000004]
tree_sizes=1720 1695 1715 1704 1713 1710 1698 1715 1702 1705 1718 1705 1709 1715 1705 1694 1714 1709 1714 1704 1698 1714 1702 1695 1703 1705 1703 1700 1709 1717

Tree=0
num_leaves=15
num_cat=0
split_feature=23 0 47 30 30 13 23 21 19 44 58 30 11 57
split_gain=240.832 40.9579 33.8285 33.4892 25.8868 23.5841 15.9364 14.5495 13.4395 13.2628 12.3706 12.0828 12.6354 13.3744
threshold=0.0037744414418069338 0.16555495906589721 0.065326633165829165 0.00017749075752937577 4.503496832834908e-05 0.00040518638573743931 0.0069526313064488645 0.15547833197056421 0.00032700091595576109 0.0031579431794870202 0.38500000000000006 0.00014982221489627244 0.0019418052256532068 0.00016354832469945446
decision_type=2 2 2 2 2 2 2 2 2 2 2 2 2 2
left_child=2 3 4 6 -1 7 11 -5 -7 -3 -6 12 13 -2
right_child=1 9 -4 5 10 8 -8 -9 -10 -11 -12 -13 -14 -15
leaf_value=-0.98022348724486497 -0.75735710967205516 -0.78785707886444656 -0.83674927900650298 -0.70782222181838028 -0.9383946765146719 -0.62532871042346994 -0.77412003740407898 -0.77548976536284797 -0.87010260170979414 -0.85340906114625426 -0.83132127981310033 -0.92924577776158002 -0.75696365569776247 -0.8824134988104233
leaf_weight=109.82128378748894 11.171838849782942 39.839198917150497 29.088938891887665 90.007079035043716 23.397624760866165 2.5294729471206692 57.967088371515274 49.113933056592941 19.814204752445221 137.0131179690361 20.024994164705276 13.490522384643553 19.181836515665054 36.466568320989609
leaf_count=521 53 189 138 427 111 12 275 233 94 650 95 64 91 173
internal_value=-0.837871 -0.800477 -0.935613 -0.77796 -0.954379 -0.747027 -0.814079 -0.731711 -0.842392 -0.838642 -0.889016 -0.842921 -0.825493 -0.853086
internal_weight=0 476.595 182.333 299.743 153.244 161.465 138.278 139.121 22.3437 176.852 43.4226 80.3108 66.8202 47.6384
internal_count=3126 2261 865 1422 727 766 656 660 106 839 206 381 317 226
shrinkage=1


Tree=1
num_leaves=15
num_cat=0
split_feature=23 0 25 18 18 9 18 49 56 11 5 23 33 48
split_gain=200.84 31.9548 31.5871 26.3744 22.7285 16.3583 13.7329 13.2609 12.528 12.5423 11.0251 11.2006 10.6027 13.4565
threshold=0.0037744414418069338 0.16790363709569187 0.58333333333333348 0.99770983153730397 0.99769990991394286 0.17298246717014942 0.99770771974402872 0.60786857624262847 0.14037212546157635 0.0021555819477434685 0.00050907044497974449 0.005588681949134114 0.40347837370812673 0.10533104041272572
decision_type=2 2 2 2 2 2 2 2 2 2 2 2 2 2
left_child=2 3 4 8 -1 -5 -3 10 9 -2 11 -8 13 -4
right_child=1 6 12 5 -6 -7 7 -9 -10 -11 -12 -13 -14 -15
leaf_value=-0.12897945689316467 0.0027540316802235213 -0.032375279664144746 0.02125620955054755 0.038829179455043702 -0.035174994710694907 0.11419861113570758 0.0090648217845918193 0.00072773910043814243 0.12631922613766172 0.060175460786635077 -0.10587605262972433 0.15541015468798802 -0.061942277937581926 0.26314256400151659
leaf_weight=118.73883464932442 117.45515389740467 78.527412176132202 10.406856745481493 44.593917489051819 33.011112689971924 81.292540863156319 7.8428787738084855 66.725931867957115 12.166367575526236 56.258902668952942 2.7233134508132926 15.696570456027983 9.8740580976009351 2.9523622989654532
leaf_count=594 552 373 50 205 160 372 37 317 57 261 13 74 47 14
internal_value=0 0.0330844 -0.0919491 0.0521568 -0.108574 0.0874998 -0.00158365 0.0244194 0.028221 0.0213505 0.0846128 0.106651 0.0166348 0.0747126
internal_weight=0 483.283 174.983 311.767 151.75 125.886 171.516 92.9887 185.88 173.714 26.2628 23.5394 23.2333 13.3592
internal_count=3126 2261 865 1447 754 577 814 441 870 813 124 111 111 64
shrinkage=0.1


Tree=2
num_leaves=15
num_cat=0
split_feature=23 24 57 30 23 23 3 1 58 13 11 33 25 23
split_gain=168.147 29.6936 26.5877 23.5537 15.7468 13.2481 11.9246 12.6689 10.8052 10.4675 11.5665 9.57495 12.2593 8.88802
threshold=0.0037744414418069338 0.0039875913829053441 0.00027727266694682737 4.503496832834908e-05 0.0068786520347884567 0.0059963906969826867 0.00041768171816358561 0.11769336239876309 0.38500000000000006 0.00040518638573743931 0.001609263657957245 0.40347837370812673 0.58333333333333348 0.0062810096120553644
decision_type=2 2 2 2 2 2 2 2 2 2 2 2 2 2
left_child=1 3 4 -1 13 -4 7 -7 -5 10 -8 12 -3 -2
right_child=2 11 5 8 -6 6 9 -9 -10 -11 -12 -13 -14 -15
leaf_value=-0.13227995931706182 0.038874960658335102 -0.13807056003915838 -0.02122210114248092 -0.090843195557332806 0.080910433756076997 0.1132334064257951 0.015539444218997056 -0.048190090321219625 0.011434068839721966 -0.0015362513693948187 0.090283959509753611 -0.049610635588496328 0.11106603710617223 -0.045094361474475965
leaf_weight=98.102745771408081 97.540287926793098 2.396450042724612 98.454438075423241 21.788625568151474 113.17981570959091 5.7212089598178855 34.98437038064003 32.369631543755531 19.640289887785912 41.252604618668556 50.717960759997368 14.432062312960623 11.233624309301375 14.476477712392805
leaf_count=524 448 12 469 111 512 26 161 153 95 194 232 71 52 66
internal_value=0 -0.0867037 0.0293726 -0.10558 0.0546034 0.00780951 0.0251277 -0.0239444 -0.0423564 0.039851 0.0597727 0.00715595 0.0672627 0.0280232
internal_weight=0 167.594 488.697 139.532 225.197 263.5 165.046 38.0908 41.4289 126.955 85.7023 28.0621 13.6301 112.017
internal_count=3126 865 2261 730 1026 1235 766 179 206 587 393 135 64 514
shrinkage=0.1


Tree=3
num_leaves=15
num_cat=0
split_feature=19 24 19 13 18 43 43 56 29 58 41 1 58 42
split_gain=138.74 35.6533 24.9922 15.6414 14.7683 12.1284 13.7983 10.936 9.27329 9.06216 8.4949 8.40065 16.3255 8.8567
threshold=0.00017748114520371191 0.0039875913829053441 0.00022869460998886261 0.00040518638573743931 0.99770927029494694 0.038764242992199778 0.038763540144979472 0.13943548102529618 0.0007309304950814386 1.8750000000000002 0.036427732648099037 0.11750524857682336 1.1950000000000001 0.0026282899946456378
decision_type=2 2 2 2 2 2 2 2 2 2 2 2 2 2
left_child=1 -1 5 4 11 6 -2 8 -6 -7 -9 12 -4 -13
right_child=2 -3 3 -5 7 9 -8 10 -10 -11 -12 13 -14 -15
leaf_value=-0.1212418960051686 0.0034448183326822022 0.006297108761869368 -0.068758673484138597 -0.013536072786230239 0.064359484844963594 -0.052546307453043464 0.18639403525682113 -0.020441229460544576 0.14239212283718691 0.11149436244896123 0.093407148235389426 0.11586212329739776 0.16479186155076814 0.022539175773309147
leaf_weight=100.57613563537598 42.086195588111877 28.026462808251381 20.323893442749981 58.818947687745094 132.4554650336504 67.164311766624451 4.5702152848243704 24.463916316628456 17.207857131958008 3.5454319119453421 8.9523390978574735 11.027973771095274 3.5098767578601828 130.62050610780716
leaf_count=569 200 135 94 277 589 325 22 113 76 17 40 51 16 602
internal_value=0 -0.0934472 0.0224502 0.034164 0.0422132 -0.0182088 0.0213656 0.0617828 0.0733315 -0.0443212 0.0100592 0.0205627 -0.0343649 0.0298048
internal_weight=0 128.603 524.747 407.381 348.562 117.366 46.6564 183.08 149.663 70.7097 33.4163 165.482 23.8338 141.648
internal_count=3126 704 2422 1858 1581 564 222 818 665 342 153 763 110 653
shrinkage=0.1


Tree=4
num_leaves=15
num_cat=0
split_feature=49 24 19 57 19 14 9 52 19 35 14 49 19 58
split_gain=125.071 23.2086 23.3402 19.6384 10.8692 10.7367 11.5209 10.6994 13.8946 10.8646 10.215 10.0626 13.4647 9.72315
threshold=0.59165964616680722 0.0039875913829053441 0.00017748114520371191 0.00027345870722815036 0.00037850871099829767 0.82767570158824977 0.16769943495720924 0.82306232608925378 0.00022516264690023154 0.018013945176406948 0.81545733887635874 0.60375737152485265 0.0030192397802648041 1.0950000000000004
decision_type=2 2 2 2 2 2 2 2 2 2 2 2 2 2
left_child=1 2 -1 4 13 11 -7 8 9 10 -5 -6 -13 -2
right_child=3 -3 -4 7 5 6 -8 -9 -10 -11 -12 12 -14 -15
leaf_value=-0.12484099444091171 0.012826776963192552 0.0056524605901586119 -0.036672733426606575 -0.10461387032902125 0.1169185075952955 0.055735004918850452 -0.096294697283470759 0.035364414600997617 0.0089817057067589912 -0.074911462478159538 0.14354411707976111 0.073193253862643415 -0.090332681316740257 0.091824165008237216
leaf_weight=86.926973059773445 98.94059419631958 28.096606984734535 45.867525190114975 2.5377293825149527 46.635906547307968 16.342941701412204 7.1720905601978293 84.945547461509705 131.0991048514843 39.818686723709106 4.7890770137310028 32.386094212532043 5.9622477591037741 18.492601990699768
leaf_count=532 454 135 216 12 203 73 32 395 607 196 22 140 26 83
internal_value=0 -0.0769174 -0.0943875 0.0247228 0.0463495 0.0691682 0.00936591 0.00615764 -0.00776136 -0.0543194 0.0575916 0.0857154 0.0477689 0.0252668
internal_weight=0 160.891 132.794 489.123 225.932 108.499 23.515 263.19 178.245 47.1455 7.32681 84.9842 38.3483 117.433
internal_count=3126 883 748 2243 1011 474 105 1232 837 230 34 369 166 537
shrinkage=0.1


Tree=5
num_leaves=15
num_cat=0
split_feature=49 49 19 57 23 20 58 45 23 32 53 58 42 9
split_gain=105.102 21.2768 16.9374 15.5481 11.2355 9.94398 9.98509 11.0291 9.49314 10.7439 11.3146 23.2838 10.8485 9.9797
threshold=0.59165964616680722 0.58758213984835728 0.00017748114520371191 0.00027345870722815036 0.0068786520347884567 0.82317386378312396 1.0150000000000003 0.74377985416666681 0.0059963906969826867 0.81599111060329077 0.97231103929343643 0.53500000000000014 0.0028480636453672866 0.18080386963936282
decision_type=2 2 2 2 2 2 2 2 2 2 2 2 2 2
left_child=1 -1 -3 4 5 6 -2 -8 13 10 11 -10 -12 -5
right_child=3 2 -4 8 -6 -7 7 -9 9 -11 12 -13 -14 -15
leaf_value=-0.0062706010755926248 -0.012612659586589367 -0.12142095953411328 -0.041777696074028571 -0.055000753595660194 0.063715870127332139 0.065096912408577109 -0.023406640064206258 0.1819573949344474 0.13383870812623647 0.20472118344686249 -0.10967781968072797 0.0010169192103292042 0.007122774565261062 0.0089339013512243215
leaf_weight=36.795619279146194 72.114191845059395 76.001436367630959 41.165279224514961 43.243177577853203 112.23058645427227 33.784314319491386 4.6817209422588331 5.9243777990341187 21.790545150637627 3.098078802227973 8.6608531326055509 33.471361488103867 97.1687952876091 56.071065574884415
leaf_count=182 330 504 197 213 483 151 21 26 96 14 41 151 447 270
internal_value=0 -0.0726066 -0.0934391 0.0220592 0.0411348 0.0193821 0.000711424 0.0913061 0.00550061 0.0202626 0.0167151 0.0533904 -0.00243592 -0.0189044
internal_weight=0 153.962 117.167 492.239 228.735 116.505 82.7203 10.6061 263.504 164.19 161.092 55.2619 105.83 99.3142
internal_count=3126 883 701 2243 1011 528 377 47 1232 749 735 247 488 483
shrinkage=0.1


Tree=6
num_leaves=15
num_cat=0
split_feature=23 24 18 21 58 54 53 11 21 23 58 11 3 49
split_gain=90.1907 23.3762 13.6433 13.5489 13.8423 12.5127 12.3232 11.8678 11.5563 9.5814 17.645 10.5485 9.60911 8.90506
threshold=0.003667419793217309 0.0039875913829053441 0.99770862819564032 0.15515126737530666 0.38500000000000006 0.94625559698164385 0.97464702376859425 0.0014073634204275537 0.15621422730989373 0.0046840201619324289 1.2150000000000001 0.002238717339667459 0.00039470851747122387 0.59139005897219887
decision_type=2 2 2 2 2 2 2 2 2 2 2 2 2 2
left_child=1 3 9 -1 -5 6 -4 -6 -9 10 -2 -11 -13 -12
right_child=2 -3 5 4 7 -7 -8 8 -10 11 13 12 -14 -15
leaf_value=-0.11857839577444317 -0.045266717129566203 0.0057156663131730095 0.042847709574264661 -0.1076714431990228 -0.13782138051858234 -0.013844752972313832 0.26316789849652716 0.1898641809648246 -0.027673142545514881 0.00015308815606622045 -0.07529936023718399 -0.0500789584784656 0.070953078853595766 0.11327486124470112
leaf_weight=75.94741578400135 71.844136580824852 28.089733764529228 200.76304203271866 12.888997524976732 2.9218345433473578 42.817797139286995 2.5712246894836417 5.4084522873163206 4.4524049907922745 126.35909584164619 3.1699649244546881 7.6747837513685218 45.147260501980782 11.923912927508352
leaf_count=534 348 135 873 73 15 196 11 26 22 585 16 34 202 56
internal_value=0 -0.0750294 0.0183189 -0.0973491 -0.0345442 0.0352875 0.0456337 0.0391911 0.0916411 0.00262353 -0.0246171 0.0158406 0.0533677 0.0736711
internal_weight=0 129.709 512.271 101.619 25.6717 246.152 203.334 12.7827 9.86086 266.119 86.938 179.181 52.822 15.0939
internal_count=3126 805 2321 670 136 1080 884 63 48 1241 420 821 236 72
shrinkage=0.1


Tree=7
num_leaves=15
num_cat=0
split_feature=49 25 19 0 11 29 19 43 13 19 21 51 32 51
split_gain=76.0124 18.2946 17.7002 16.494 10.0818 9.46275 12.242 15.5693 10.527 9.32137 8.49523 8.52239 8.35269 8.33542
threshold=0.59165964616680722 0.62790697674418616 0.00017748114520371191 0.16790363709569187 0.0021555819477434685 1.4412997903563942e-05 0.00034348341036937282 0.038798413770293 0.00013221871534590125 0.00022163068381160042 0.15547833197056421 0.0012534353413058013 0.81607538848263272 0.00049208943029042582
decision_type=2 2 2 2 2 2 2 2 2 2 2 2 2 2
left_child=1 2 -1 4 5 -2 7 -7 13 -6 11 -10 -11 -8
right_child=3 -3 -4 -5 9 6 8 -9 10 12 -12 -13 -14 -15
leaf_value=-0.10888687116858356 -0.039575031197487197 0.022807293561366578 -0.029521935369908506 -0.0061163430223570075 -0.072327083176376913 0.00072804687025245082 -0.089677208678181131 0.25556399115244732 -0.12249646567196769 0.068080471808362089 -0.15109840458110207 0.089908699395585656 -0.018525222977177121 0.10174029051300425
leaf_weight=77.011509448289871 25.571090906858444 20.224779665470123 44.245885893702507 181.86056444048882 5.6331976205110541 105.50564014911652 2.4198788404464713 2.4531838893890372 2.5625278502702695 109.25905233621597 3.3213476687669745 7.1869179308414459 12.399967342615126 37.973495468497276
leaf_count=570 113 97 216 861 28 481 10 11 11 469 15 31 53 160
internal_value=0 -0.0652414 -0.0799272 0.0178527 0.0317223 0.016945 0.0258984 0.00651877 0.0650313 0.0534303 -0.0129743 0.0340805 0.0592533 0.0902729
internal_weight=0 141.482 121.257 496.147 314.286 186.994 161.423 107.959 53.4642 127.292 13.0708 9.74945 121.659 40.3934
internal_count=3126 883 786 2243 1382 832 719 492 227 550 57 42 522 170
shrinkage=0.1


Tree=8
num_leaves=15
num_cat=0
split_feature=23 24 21 58 51 57 21 9 30 18 49 45 23 11
split_gain=65.9427 20.6946 12.4639 11.8588 11.9918 10.5254 10.9584 8.60628 8.49953 10.1241 9.13338 10.725 12.601 8.38057
threshold=0.003667419793217309 0.0039875913829053441 0.15515126737530666 0.38500000000000006 0.0020890589021763358 0.00027345870722815036 0.15629599345870812 0.17264454171807589 7.0937433772105422e-05 0.99770806219699215 0.60375737152485265 0.74402985416666678 0.0046840201619324289 0.0087232779097387182
decision_type=2 2 2 2 2 2 2 2 2 2 2 2 2 2
left_child=1 2 -1 -4 -5 6 7 -2 -9 13 -11 12 -12 -10
right_child=5 -3 3 4 -6 -7 -8 8 9 10 11 -13 -14 -15
leaf_value=-0.1142019950144728 0.0058221146973085345 0.0073649829250272197 -0.1025737702753089 -0.047112972625484771 0.14839931601737122 0.0014736883911964727 -0.080995972290513085 0.19604563876362849 0.0066774855290659728 0.099646542444549777 0.26246764884765011 -0.13346637727897187 0.033845133314895096 0.14801392065444338
leaf_weight=65.365004315972328 73.056742951273918 27.818684011697769 11.969532728195192 7.4002436548471433 5.4457633048295975 274.88854424655437 8.5590111911296827 3.7506233155727378 65.902948647737503 42.5842474848032 2.5841539204120627 3.5076648592948905 35.943781852722168 4.4805513918399802
leaf_count=534 318 135 73 37 26 1280 39 17 294 177 11 15 151 19
internal_value=0 -0.068036 -0.0912955 -0.0309588 0.0357699 0.0148387 0.0301229 0.0342257 0.0472967 0.0436974 0.0670055 0.0339385 0.0491794 0.0156748
internal_weight=0 117.999 90.1805 24.8155 12.846 515.258 240.37 231.811 158.754 155.003 84.6198 42.0356 38.5279 70.3835
internal_count=3126 805 670 136 63 2321 1041 1002 684 667 354 177 162 313
shrinkage=0.1


Tree=9
num_leaves=15
num_cat=0
split_feature=23 47 21 0 58 51 49 37 29 49 11 29 44 21
split_gain=56.0424 19.4011 12.1573 10.6404 10.1991 9.60298 9.09001 8.82671 8.69062 8.02258 9.332 7.72551 8.3073 7.58968
threshold=0.003667419793217309 0.065326633165829165 0.15515126737530666 0.16790363709569187 0.38500000000000006 0.001791948302755701 0.63775905644481889 0.00043950209427172441 0.0002720327366553782 0.59165964616680722 0.0021555819477434685 1.8041444928237386e-05 0.0029981193990501059 0.15629599345870812
decision_type=2 2 2 2 2 2 2 2 2 2 2 2 2 2
left_child=1 2 -1 6 -4 -6 9 -3 13 -2 11 -11 -13 -7
right_child=3 7 4 -5 5 8 -8 -9 -10 10 -12 12 -14 -15
leaf_value=-0.11260869274480773 -0.027156234221630923 0.049538083012100227 -0.098366135017301737 -0.006413803922803875 -0.092705379547885658 0.25026951739826336 0.14920069730705524 -0.067839065543836105 -0.043534246719773698 -0.03981633187138417 0.048143561686438241 0.14305463777601446 0.016082353603158191 0.0088198833981939749
leaf_weight=60.183428265154362 30.630487695336342 17.951540336012844 11.269885137677194 178.93429107964039 4.2017449140548697 3.6671187281608564 5.6786590367555609 9.9619399607181531 3.1022060289978981 24.653228133916855 120.32504588365555 5.3348219394683829 151.01116590201855 2.0184600949287415
leaf_count=531 146 86 73 845 21 16 24 52 16 109 507 22 668 10
internal_value=0 -0.0646273 -0.0885186 0.013301 -0.0287551 0.0316404 0.0237492 0.00764778 0.0910944 0.0216031 0.0265596 0.012211 0.0204149 0.164552
internal_weight=0 112.356 84.4428 516.568 24.2594 12.9895 337.633 27.9135 8.78778 331.955 301.324 180.999 156.346 5.68558
internal_count=3126 805 667 2321 136 63 1476 138 42 1452 1306 799 690 26
shrinkage=0.1


Tree=10
num_leaves=15
num_cat=0
split_feature=23 47 30 23 13 43 32 20 19 3 53 20 43 23
split_gain=47.9343 15.3036 15.2731 8.56625 10.4758 8.45154 8.33341 7.96767 10.2343 7.40922 7.90744 7.19336 7.17851 6.71437
threshold=0.0037744414418069338 0.065326633165829165 4.503496832834908e-05 0.0067263446503955894 0.00040518638573743931 0.038764422149334364 0.81587653107861069 0.82303884446949171 0.00022516264690023154 0.0004682086358194912 0.97360222940398977 0.82370660303147725 0.038748552961605252 0.0042170780438513253
decision_type=2 2 2 2 2 2 2 2 2 2 2 2 2 2
left_child=1 2 -1 7 12 -4 -3 8 -2 10 -9 -11 -5 -10
right_child=3 6 5 4 -6 -7 -8 9 13 11 -12 -13 -14 -15
leaf_value=-0.11195505109932913 -0.057122907908338072 0.057091513950344619 0.046502642483951501 0.20625382570629527 -0.018162320687912899 -0.058940413693182592 -0.052517945909866241 0.025123653666844749 0.056903493166266798 0.05245406384567506 0.12223614967045854 -0.080536424833594772 0.031573199543137961 -0.009783199650826073
leaf_weight=53.593727141618729 41.529353111982346 15.120495915412905 10.704627826809881 2.3770997673273078 47.583557039499283 26.222419336438179 12.81490522623062 48.049571692943573 18.043754950165749 6.4010216444730785 10.157078638672827 11.154831752181051 228.11160393059254 92.489998355507851
leaf_count=521 209 72 58 10 219 148 66 217 82 30 44 51 981 418
internal_value=0 -0.0578916 -0.077859 0.0127773 0.0245557 -0.028374 0.00680998 -0.00159877 -0.0147989 0.0248953 0.0420698 -0.0320469 0.0333747 0.00110287
internal_weight=0 118.456 90.5208 505.898 278.072 36.927 27.9354 227.826 152.063 75.7625 58.2067 17.5559 230.489 110.534
internal_count=3126 865 727 2261 1210 206 138 1051 709 342 261 81 991 500
shrinkage=0.1


Tree=11
num_leaves=15
num_cat=0
split_feature=49 49 18 0 31 43 49 29 56 18 29 58 23 8
split_gain=41.4807 13.7583 15.2611 8.86104 7.52821 7.44305 10.5418 8.53077 8.50627 9.68659 8.157 7.63239 7.79252 7.15652
threshold=0.59165964616680722 0.58758213984835728 0.99769971966229642 0.16790363709569187 0.33895131086142333 0.038764580634491889 0.5985004212299917 9.5045154007418169e-05 0.1388216027050084 0.99771475429865519 0.001292835832930173 0.03500000000000001 0.016220232011454772 0.014831767710247992
decision_type=2 2 2 2 2 2 2 2 2 2 2 2 2 2
left_child=1 4 -3 -2 -1 7 -7 -5 9 13 11 12 -10 -8
right_child=3 2 -4 5 -6 6 8 -9 10 -11 -12 -13 -14 -15
leaf_value=0.053099336121534391 0.022127696572117366 -0.11074473666578898 -0.025204078249686138 -0.10114229730131846 -0.040399167979311104 -0.073866754785133742 0.23169007532580285 0.041657189514959655 0.035324411617477666 -0.024027557650345182 0.10368161759906658 -0.058557921137837754 -0.055870457349137884 0.062437214626882565
leaf_weight=14.995166450738905 318.4276260882616 49.692892603576183 35.941277645528316 4.6261124908924094 20.228697314858437 26.797303929924965 3.511417984962466 43.720333553850651 27.009429186582565 9.3619325459003431 5.1710449159145346 37.616461768746376 14.347188577055929 8.6579777002334577
leaf_count=74 1382 522 179 22 108 139 15 207 127 42 24 177 67 41
internal_value=0 -0.0532036 -0.0748427 0.0120884 -0.000595879 -0.00559097 -0.0178476 0.0279932 -0.00364224 0.0524443 -0.017994 -0.0259612 0.00368764 0.111274
internal_weight=0 120.858 85.6342 499.247 35.2239 180.819 132.473 48.3464 105.675 21.5313 84.1441 78.9731 41.3566 12.1694
internal_count=3126 883 701 2243 182 861 632 229 493 98 395 371 194 56
shrinkage=0.1


Tree=12
num_leaves=15
num_cat=0
split_feature=49 49 23 52 53 53 49 0 18 29 0 21 18 30
split_gain=35.3717 18.9512 8.26714 7.90931 8.69976 11.471 9.59243 9.5349 7.94235 9.4544 7.46686 13.1372 8.98445 7.39132
threshold=0.59071609098567823 0.58758213984835728 0.0067263446503955894 0.82303884446949171 0.97150309045206928 0.97234733013973884 0.59324347093513075 0.21191115286538723 0.99770275417605692 1.0000000180025095e-35 0.10951550127499667 0.15580539656582176 0.99771456880329989 0.00077942873289848613
decision_type=2 2 2 2 2 2 2 2 2 2 2 2 2 2
left_child=1 -1 3 8 -5 -6 -7 -8 -2 -10 11 12 -11 -4
right_child=2 -3 13 4 5 6 7 -9 9 10 -12 -13 -14 -15
leaf_value=-0.00058096150147924578 -0.053976761737086092 -0.094261086775685621 0.015958367802248477 -0.05306722122824066 0.092703924019609252 -0.11769130256710228 0.052277307343813063 -0.055478800472528483 -0.078221407176789395 -0.028245498217218046 -0.0095345683619694407 0.19522149017006379 0.096452251994674804 0.071729226835804905
leaf_weight=35.144021861255169 42.185953415930271 56.010018549859524 249.5570754557848 13.269175529479979 23.241280034184456 5.4663286358118048 30.429426193237305 11.24672496318817 14.96631048619747 15.258524030447012 78.79269003868103 5.1090084463357917 9.2993437349796277 26.264281570911407
leaf_count=182 223 570 1084 60 106 30 133 54 70 70 373 23 40 108
internal_value=0 -0.0581431 0.00934068 -0.00385847 0.0212052 0.0352074 0.00686163 0.0231982 -0.0165185 -0.00371554 0.00656551 0.0493259 0.0189739 0.021269
internal_weight=0 91.154 525.086 249.265 83.6529 70.3838 47.1425 41.6762 165.612 123.426 108.46 29.6669 24.5579 275.821
internal_count=3126 752 2374 1182 383 323 217 187 799 576 506 133 110 1192
shrinkage=0.1


Tree=13
num_leaves=15
num_cat=0
split_feature=23 47 21 58 51 48 39 29 13 18 23 0 51 20
split_gain=30.6996 14.1665 10.8368 8.62273 7.80795 7.26032 8.78364 6.53437 6.38 8.56332 6.39569 8.05827 9.7913 8.17176
threshold=0.003667419793217309 0.065326633165829165 0.15515126737530666 0.38500000000000006 0.001791948302755701 0.37833190025795366 0.99945437385713443 0.0002720327366553782 0.00028576302994114138 0.99770862819564032 0.014432740794595559 0.075721379680579806 0.0010677412166679048 0.82303884446949171
decision_type=2 2 2 2 2 2 2 2 2 2 2 2 2 2
left_child=1 2 -1 -4 -5 6 -3 -6 9 10 11 -2 -13 -14
right_child=8 5 3 4 7 -7 -8 -9 -10 -11 -12 12 13 -15
leaf_value=-0.10686260684246696 -0.063192302253714611 0.18951573058951271 -0.091335809305232107 -0.084147018803343673 0.14778266360633202 -0.13076170506598531 0.0039297435000261198 -0.035612162355295955 -0.015408920981348573 0.029011925706997163 0.038046639617055553 -0.046290129902988288 -0.0064901290446886754 0.044666415636411147
leaf_weight=44.145876094698906 22.372909516096115 2.8932565748691621 9.9288759529590624 3.9081363081932059 5.768507853150366 3.3647279962897292 21.511872127652168 2.9294246360659599 89.18501290678978 201.27078466117382 38.148365765810013 35.013781353831291 81.138491302728653 50.760851189494133
leaf_count=531 100 13 73 21 26 19 106 16 413 851 164 172 389 232
internal_value=0 -0.0530671 -0.0780599 -0.0216356 0.0332621 0.00694552 0.0259312 0.0860161 0.00892572 0.0139881 0.000692661 -0.00683559 0.000718419 0.0131972
internal_weight=0 94.4507 66.6808 22.5349 12.6061 27.7699 24.4051 8.69793 517.89 428.705 227.434 189.286 166.913 131.899
internal_count=3126 805 667 136 63 138 119 42 2321 1908 1057 893 793 621
shrinkage=0.1


Tree=14
num_leaves=15
num_cat=0
split_feature=30 24 21 48 22 49 14 30 5 44 49 0 9 49
split_gain=26.4131 18.2717 7.69211 6.09616 8.34568 5.67599 5.93748 6.87365 10.6448 9.52611 6.91622 6.73125 6.37375 6.32242
threshold=4.503496832834908e-05 0.0039875913829053441 0.157113654946852 0.37833190025795366 0.60389610389610404 0.70328559393428824 0.82753424442226542 0.00027639108013280904 0.00044440748428598015 0.0037778160848711858 0.59701769165964624 0.0582673466648772 0.17723797024684276 0.60375737152485265
decision_type=2 2 2 2 2 2 2 2 2 2 2 2 2 2
left_child=1 -1 5 4 -3 6 7 -2 9 13 -10 -12 -13 -9
right_child=2 3 -4 -5 -6 -7 -8 8 10 -11 11 12 -14 -15
leaf_value=-0.097159521170926688 0.0047359780593806741 0.19222007837184213 -0.082969973010187603 -0.12748276000751524 0.0028995621857940087 0.11222794085072299 -0.020142891881065366 0.076181183418306084 0.11074201380329851 0.22041566330099199 -0.13123159339764554 -0.082150547751525804 0.026625632299565494 0.016776179079915302
leaf_weight=44.453104503452778 344.83692093193531 2.6052671223878923 9.3368155956268293 3.0233639478683463 21.913886874914169 5.2326997965574256 67.386222556233406 36.441502794623375 4.0216158479452124 3.3131428807973853 5.2979925274848965 7.818227797746661 17.320741191506386 35.241961851716042
leaf_count=553 1591 12 56 18 105 24 306 151 17 14 23 35 74 147
internal_value=0 -0.0575055 0.00700239 0.00649536 0.0230157 0.0085967 0.00755722 0.011666 0.0334991 0.0546378 -0.0125077 -0.0287926 -0.0072038 0.0469757
internal_weight=0 71.9956 536.248 27.5425 24.5192 526.911 521.678 454.292 109.455 74.9966 34.4586 30.437 25.139 71.6835
internal_count=3126 688 2438 135 117 2382 2358 2052 461 312 149 132 109 298
shrinkage=0.1


Tree=15
num_leaves=15
num_cat=0
split_feature=23 17 21 58 11 48 39 13 32 48 10 11 0 3
split_gain=22.9908 12.1644 8.23605 7.47688 7.34317 6.62513 7.13239 6.19583 6.37111 5.42851 6.19348 5.41466 5.76427 9.83128
threshold=0.003667419793217309 0.41003937007874025 0.15515126737530666 0.38500000000000006 0.0014073634204275537 0.37833190025795366 0.99945437385713443 3.2841422843981922e-05 0.81583845978062175 0.26354256233877904 0.27471698113207549 0.0003503562945368171 0.11019326264930883 0.00079701957178382509
decision_type=2 2 2 2 2 2 2 2 2 2 2 2 2 2
left_child=1 2 -1 -4 -5 6 -3 -6 -9 10 -8 -2 13 -13
right_child=11 5 3 4 7 -7 9 8 -10 -11 -12 12 -14 -15
leaf_value=-0.09482193687943348 -0.10650871493988523 0.19924497083633594 -0.087549160012770535 -0.12691038831733115 0.13968478892064409 -0.12380610245594664 0.11040456827439143 0.10152413290152257 -0.13386777672071926 0.17187163606264166 -0.043161259519220577 0.025493974875008252 0.00037365637698808635 -0.15362558575922564
leaf_weight=43.556622520089149 4.1416485905647269 2.4072162508964601 9.2683243453502673 2.3836799114942542 5.513898625969885 2.902731016278266 3.4559327661991146 2.2740395963191986 2.325849711894989 1.940614491701125 10.940313391387461 181.03829914331436 329.58969983458519 3.117006078362464
leaf_count=558 19 10 73 15 25 19 16 10 13 10 56 772 1516 14
internal_value=0 -0.0481919 -0.0697211 -0.0194905 0.0309829 0.0167757 0.0385463 0.0681961 -0.0174975 0.0148676 -0.00629657 0.00737336 0.00829144 0.0224622
internal_weight=0 86.9692 65.3224 21.7658 12.4975 21.6468 18.7441 10.1138 4.59989 16.3369 14.3962 517.887 513.745 184.155
internal_count=3126 805 694 136 63 111 92 48 23 82 72 2321 2302 786
shrinkage=0.1


Tree=16
num_leaves=15
num_cat=0
split_feature=49 51 23 30 47 51 18 56 53 20 51 53 29 49
split_gain=20.0431 9.83271 10.394 6.26312 7.59551 6.33392 6.08723 8.17211 12.7159 6.57881 5.44714 8.24523 10.6811 11.7111
threshold=0.59165964616680722 0.0007892000297110601 0.0043369307325409273 5.3865354275084197e-05 0.065326633165829165 0.00054779766768179466 0.99770494682628186 0.13745010617033335 0.97154129134291412 0.82477134772756633 0.0023676000891331805 0.97258799575206101 0.00033391791646508631 0.63775905644481889
decision_type=2 2 2 2 2 2 2 2 2 2 2 2 2 2
left_child=1 3 -3 4 -1 -5 7 -4 -9 -8 11 -2 -13 -14
right_child=10 2 6 5 -6 -7 9 8 -10 -11 -12 12 13 -15
leaf_value=-0.10737129056678657 0.013969570188277583 -0.093151032021409119 -0.099459447734066994 -0.0022735799412376963 0.0067422817966061857 0.21774584768057609 -0.11658634517465881 0.30707841893073784 0.018208138266380264 0.070122570089384523 0.020848143735459665 -0.030296871982975499 0.086425236467267186 -0.12306448035736867
leaf_weight=7.4215837419033042 171.37390810251236 42.995896436274052 2.6832011938095111 2.8319717943668357 27.247944124042988 2.4321170151233673 6.5870646983385068 2.1759047508239746 5.0850615352392197 2.6449851840734482 192.29656967520714 116.88119159638882 15.671138480305673 3.2162043899297705
leaf_count=76 765 551 14 14 138 11 31 10 26 12 842 550 71 15
internal_value=0 -0.0409743 -0.0658448 -0.00225392 -0.0176856 0.0993799 -0.00462007 0.0496666 0.104774 -0.0630942 0.00764957 -0.00061383 -0.0190217 0.0507526
internal_weight=0 102.106 62.1721 39.9336 34.6695 5.26409 19.1762 9.94417 7.26097 9.23205 499.439 307.142 135.769 18.8873
internal_count=3126 883 644 239 214 25 93 50 36 43 2243 1401 636 86
shrinkage=0.1


Tree=17
num_leaves=15
num_cat=0
split_feature=19 25 49 33 48 24 23 51 14 49 14 11 19 32
split_gain=16.906 14.2668 9.00862 6.33684 6.25146 5.37896 4.81298 6.90205 5.87606 5.42051 7.00363 7.2204 7.04397 6.99999
threshold=0.00017748114520371191 0.58333333333333348 0.59711878685762432 0.40347837370812673 0.10533104041272572 0.059471782215235691 0.0067263446503955894 0.012088687513927061 0.83114140215486421 0.70328559393428824 0.82417856609586082 0.0003503562945368171 0.00043178248758514985 0.81588999085923219
decision_type=2 2 2 2 2 2 2 2 2 2 2 2 2 2
left_child=1 2 5 4 -3 -1 8 9 -2 10 11 -8 -12 -14
right_child=6 3 -4 -5 -6 -7 7 -9 -10 -11 12 -13 13 -15
leaf_value=-0.10358072306673688 -0.00085140710431146386 0.01978164164058983 0.08602815468776584 -0.048779235194794344 0.17724777347611587 0.068487349586581245 -0.15378612475344081 0.087006032985933068 -0.064714535750061059 0.11764618092843145 0.011911527166734895 0.019826295572344593 -0.12229213539402939 -0.019132627482892243
leaf_weight=37.702935412526131 238.84137950092554 9.8225895166397112 2.9438172429800025 8.9492682665586454 3.3917797803878775 1.9087363183498371 2.4243323504924765 12.47705318033695 15.332284376025198 4.6749667674303046 30.39064684510231 201.56110242009163 10.474849954247476 17.680247142910957
leaf_count=569 1147 50 14 47 14 10 11 51 73 21 135 860 49 75
internal_value=0 -0.048863 -0.0827466 0.0161956 0.060199 -0.0952894 0.00525631 0.0143079 -0.00470376 0.0109133 0.00901272 0.0177629 -0.0214749 -0.0575122
internal_weight=0 64.7191 42.5555 22.1636 13.2144 39.6117 533.857 279.683 254.174 267.206 262.531 203.985 58.5457 28.1551
internal_count=3126 704 593 111 64 579 2422 1202 1220 1151 1130 871 259 124
shrinkage=0.1


Tree=18
num_leaves=15
num_cat=0
split_feature=49 51 23 58 9 30 11 24 13 23 58 51 18 32
split_gain=14.7167 8.1783 8.92161 5.28238 6.12575 5.10079 7.82195 6.456 4.82394 11.0101 10.9957 7.07376 7.52378 8.48861
threshold=0.59165964616680722 0.0007892000297110601 0.0043369307325409273 0.095000000000000015 0.1804462973586804 5.3865354275084197e-05 0.00080166270783847996 0.0039875913829053441 6.966362421450711e-05 0.00513416928898192 1.2150000000000001 0.0014019906410161185 0.99770221195886466 0.81584124771480815
decision_type=2 2 2 2 2 2 2 2 2 2 2 2 2 2
left_child=1 5 -3 -4 -5 7 -7 -1 -2 10 -10 -11 -13 -14
right_child=8 2 3 4 -6 6 -8 -9 9 11 -12 12 13 -15
leaf_value=-0.10304264153522713 0.01673998555467781 -0.088825949703404058 0.10711277915964337 -0.12255772052550594 0.012673350581767896 -0.015771520191017428 0.22815603801281639 0.0062982379705774152 -0.053717831672895899 -0.023398259062812878 0.091130427010067724 0.096806586667398428 0.093051448268700529 0.0052323019377319389
leaf_weight=6.7570015564560881 234.80019463598728 37.769172098487616 3.4495323449373272 4.8756480813026419 10.702881596982477 3.0497818887233725 2.3105555027723312 26.889972932636738 55.603973627090454 52.429729729890823 5.7861387133598319 11.547075033187864 12.046647444367407 127.5043878108263
leaf_count=79 1034 551 16 24 53 15 10 135 282 243 27 50 52 555
internal_value=0 -0.0364819 -0.0606949 -0.00485693 -0.0296502 -0.00122624 0.0893726 -0.0156596 0.00630373 -0.00294606 -0.0400656 0.00825031 0.0192321 0.0128132
internal_weight=0 95.8045 56.7972 19.0281 15.5785 39.0073 5.36034 33.647 499.718 264.918 61.3901 203.528 151.098 139.551
internal_count=3126 883 644 93 77 239 25 214 2243 1209 309 900 657 607
shrinkage=0.1


Tree=19
num_leaves=15
num_cat=0
split_feature=19 47 49 37 21 32 23 56 23 49 9 42 44 23
split_gain=12.6601 12.458 8.86165 4.97472 4.38746 4.25866 3.7949 7.5354 4.53365 4.052 5.0564 6.86505 7.87471 15.2252
threshold=0.00017748114520371191 0.065326633165829165 0.59546756529064881 0.00043950209427172441 0.15793131643499594 0.81587429159049363 0.13578532420110664 0.13825650254372912 0.097813736707801538 0.70328559393428824 0.17242449723765593 0.0027228264757868273 0.0033782956342133653 0.049011115657369549
decision_type=2 2 2 2 2 2 2 2 2 2 2 2 2 2
left_child=1 2 -1 -3 6 -5 8 -8 9 10 -2 -12 13 -13
right_child=4 3 -4 5 -6 -7 7 -9 -10 -11 11 12 -14 -15
leaf_value=-0.1046589887602673 -0.014606242170163323 0.03550881726974163 0.058113349068120837 0.016230587600091599 -0.13257411152228032 -0.12435298490709451 -0.02246559062661159 0.16676934821444811 -0.069512795500423177 0.10061764797817274 0.029064293293119423 -0.034319893485859364 0.011896934174345885 0.16813408190546675
leaf_weight=28.873400274664164 111.5436021015048 18.333850570023063 3.7828783988952628 4.1612801030278188 2.3308505788445464 4.4688213616609573 4.2361814975738508 4.1812983900308609 8.2894782572984678 4.3972381353378287 123.49810188263655 79.807029947638512 190.67966814339161 3.8959314674139014
leaf_count=548 513 86 18 22 15 30 18 18 36 19 544 370 873 16
internal_value=0 -0.0442666 -0.0858036 0.00603925 0.00432398 -0.0565661 0.00492544 0.071535 0.00385156 0.00503514 0.0042101 0.00948515 0.000672687 -0.0248967
internal_weight=0 59.6202 32.6563 26.964 532.859 8.6301 530.529 8.41748 522.111 513.822 509.424 397.881 274.383 83.703
internal_count=3126 704 566 138 2422 52 2407 36 2371 2335 2316 1803 1259 386
shrinkage=0.1


Tree=20
num_leaves=15
num_cat=0
split_feature=23 44 52 32 1 14 13 52 51 54 19 54 42 0
split_gain=10.8086 9.4135 5.04183 6.0721 4.6013 7.41326 7.29812 6.57111 5.80491 5.7076 9.91915 9.25026 9.07679 5.96381
threshold=0.0037744414418069338 0.0033007627704972641 0.81433230014206381 0.81585783820840951 0.12262103917294299 0.82861285531289552 0.0010591714293838326 0.81968244044474203 0.0019590730149298082 0.94473036373691077 0.0003199369897784989 0.94637690208180969 0.0044262413255340069 0.10208025768353242
decision_type=2 2 2 2 2 2 2 2 2 2 2 2 2 2
left_child=1 2 -1 -4 -2 6 9 -8 -9 10 13 -11 -13 -6
right_child=4 -3 3 -5 5 -7 7 8 -10 11 -12 12 -14 -15
leaf_value=-0.078059034151309714 0.0086682758992482935 -0.095799323481213089 0.033072929409259974 -0.034384474049850157 0.1191359318666408 -0.11348829218025523 -0.042127198474619709 0.22907428178206263 0.029638050249910442 0.071037725361725798 -0.12305266474023475 -0.13004405081929982 0.07436029783536928 -0.032175873910958261
leaf_weight=10.78593925014138 439.40881462395191 18.979447584599257 24.861809369176626 28.802847161889076 3.2356561720371309 7.4523823410272589 3.1139550209045392 3.1800622045993805 2.6973611116409302 12.767880961298944 11.65056988596916 6.2479559034109098 3.3305013328790665 13.360633224248884
leaf_count=175 1952 299 188 203 14 37 16 15 12 57 52 30 15 61
internal_value=0 -0.0339 -0.0156718 -0.00313275 0.00494525 -0.0194582 -0.00769762 0.0753202 0.137546 -0.0224515 -0.0523258 0.0153112 -0.0589711 -0.00267573
internal_weight=0 83.43 64.4506 53.6647 506.446 67.037 59.5846 8.99138 5.87742 50.5932 28.2469 22.3463 9.57846 16.5963
internal_count=3126 865 566 391 2261 309 272 43 27 229 127 102 45 75
shrinkage=0.1


Tree=21
num_leaves=15
num_cat=0
split_feature=49 41 30 23 54 53 25 3 33 19 0 53 53 19
split_gain=9.72704 7.38106 10.4349 7.81453 6.95961 6.63895 6.22549 4.90113 4.73844 4.73825 9.47932 6.85919 11.9035 8.47023
threshold=0.59165964616680722 0.036404550729442979 5.3865354275084197e-05 0.0043369307325409273 0.94224450113277569 0.97137225240092606 0.58333333333333348 0.00042245948154692395 0.40347837370812673 0.00070756993875576021 0.050731445443564636 0.97237025067424565 0.97209806932697673 0.000238701838739984
decision_type=2 2 2 2 2 2 2 2 2 2 2 2 2 2
left_child=1 2 6 -3 -4 -5 -1 -7 -8 10 -2 12 -12 -13
right_child=9 3 4 5 -6 7 8 -9 -10 -11 11 13 -14 -15
leaf_value=-0.061102102899730532 -0.074745702421983293 -0.10369117579281667 0.038202286089312039 -0.089121395135727255 0.26035035261604084 -0.077903473130323142 0.052577272849029334 0.074942119735141116 -0.042905525955267719 0.032561980200679318 0.0063145877537506175 -0.04431688369180603 0.072791110351104249 0.0026441422911806789
leaf_weight=21.262436788529158 15.743456736207007 21.609099555760622 4.0128706395626059 7.1770972609519985 2.1744336374104023 2.8435570150613776 13.196976944804193 8.000745162367819 8.5741658732295019 55.06441168487072 123.34465007483959 46.349280007183552 34.462153181433678 224.16386488080025
leaf_count=265 71 387 21 36 11 14 64 38 47 234 546 246 154 992
internal_value=0 -0.0310183 -0.00515599 -0.0631392 0.116273 -0.014514 -0.0226148 0.0348635 0.0149731 0.00489319 0.00146222 0.00426334 0.0208319 -0.00540208
internal_weight=0 88.8514 49.2209 39.6305 6.1873 18.0214 43.0336 10.8443 21.7711 499.128 444.063 428.32 157.807 270.513
internal_count=3126 883 408 475 32 88 376 52 111 2243 2009 1938 700 1238
shrinkage=0.1


Tree=22
num_leaves=15
num_cat=0
split_feature=19 47 18 37 32 32 33 32 32 1 18 30 46 42
split_gain=8.15132 10.4245 4.66098 4.01612 4.15743 4.22618 3.94605 3.58636 3.56796 3.54959 6.21491 7.13605 5.60912 7.12443
threshold=0.00017748114520371191 0.065326633165829165 0.99770445692829235 0.00043950209427172441 0.8158986745886655 0.81587653107861069 0.39456705585730328 0.81584156764168203 0.81587429159049363 0.12289968905891786 0.9977019598754332 0.00011037982433418892 0.011360274943940195 0.0043475961699065372
decision_type=2 2 2 2 2 2 2 2 2 2 2 2 2 2
left_child=1 2 -1 4 5 6 7 -3 -5 12 11 -11 13 -2
right_child=9 3 -4 8 -6 -7 -8 -9 -10 10 -12 -13 -14 -15
leaf_value=-0.093821830185962962 0.0043417732620464125 0.089111052704099275 0.052051963220583211 0.01293673079683956 0.17172338144911498 -0.053303055665945877 0.11940194016691677 -0.070399264910026363 -0.11989887903789725 -0.032260340030898484 -0.031487676966445978 0.1437969786238367 0.046613869193115207 -0.15185610502597136
leaf_weight=24.892577964812521 432.22494351118803 2.4548813700676053 2.4017333462834349 4.1718170270323736 1.9359983950853337 5.6396266743540755 4.9267464429140091 3.3101421892642975 3.9239606559276581 4.5284212529659253 55.150500282645226 4.6831177026033401 32.082077592611313 2.9399752467870703
leaf_count=552 1962 10 14 22 10 29 22 15 30 23 257 20 146 14
internal_value=0 -0.0376672 -0.0809858 0.00718148 0.0331649 0.0167395 0.0536851 -0.00247605 -0.0514477 0.0032287 -0.018788 0.0572467 0.00626144 0.0032865
internal_weight=0 53.6575 27.2943 26.3632 18.2674 16.3314 10.6918 5.76502 8.09578 531.609 64.362 9.21154 467.247 435.165
internal_count=3126 704 566 138 86 76 47 25 52 2422 300 43 2122 1976
shrinkage=0.1


Tree=23
num_leaves=15
num_cat=0
split_feature=23 3 21 52 15 15 58 58 58 0 46 57 32 54
split_gain=7.32075 6.87413 6.29516 7.55414 6.58659 5.39624 5.07356 6.61516 5.11729 4.84009 11.5825 6.2472 7.6474 5.89172
threshold=0.0047101425924260479 0.0005188402649053068 0.157113654946852 0.822944917990443 0.17673294353844529 0.1765993918260482 1.1050000000000002 2.7550000000000003 2.1350000000000002 0.20534156489061869 0.010539408028191956 0.00064913373951783887 0.8158924817184644 0.94387409244162213
decision_type=2 2 2 2 2 2 2 2 2 2 2 2 2 2
left_child=1 2 3 -1 5 6 -5 8 -8 13 -11 12 -12 -2
right_child=9 -3 -4 4 -6 -7 7 -9 -10 10 11 -13 -14 -15
leaf_value=-0.026842472627620718 0.00081849052035366527 -0.1207813475276685 -0.12530873009667262 -0.0012067369490348853 0.12453160048459624 -0.13740673082299176 0.071779377783985798 -0.080609263853720928 0.25371378105705994 0.11064288656497788 -0.067502757409474576 0.0020556121154909558 0.094371429757520262 0.028070680136777212
leaf_weight=102.64954281225801 187.85542383790016 6.2499142549931994 4.9251929000020018 40.279682639986277 5.3021056279540053 2.4469955191016188 5.8843955360352975 2.0810885950922966 2.0969270318746567 6.8295201212167731 35.187417045235634 41.027587212622166 3.1824496090412131 137.31972056627274
leaf_count=764 804 99 42 279 30 15 48 36 13 30 166 193 14 593
internal_value=0 -0.0178304 -0.0139465 -0.0105343 0.018283 0.00761146 0.0146604 0.0781763 0.119579 0.00674152 -0.014322 -0.0250711 -0.0540767 0.0123269
internal_weight=0 171.916 165.666 160.741 58.0912 52.7891 50.3421 10.0624 7.98132 411.402 86.227 79.3975 38.3699 325.175
internal_count=3126 1326 1227 1185 421 391 376 97 61 1800 403 373 180 1397
shrinkage=0.1


Tree=24
num_leaves=15
num_cat=0
split_feature=49 45 3 3 30 17 51 48 48 25 30 45 51 19
split_gain=6.48871 6.29936 6.00492 6.61098 4.41914 7.41331 6.8464 4.50398 4.57954 5.037 3.97186 4.08838 3.741 6.4648
threshold=0.59165964616680722 0.74378627083333348 0.00047752064763288861 0.00045321542014608955 5.3865354275084197e-05 0.41003937007874025 0.0019776424273935975 0.37833190025795366 0.26354256233877904 0.58333333333333348 9.0364282854922662e-05 0.74386591666666668 0.0023676000891331805 0.00022163068381160042
decision_type=2 2 2 2 2 2 2 2 2 2 2 2 2 2
left_child=1 2 3 4 5 -1 -6 8 9 -7 -3 -12 -2 -14
right_child=12 10 -4 -5 6 7 -8 -9 -10 -11 11 -13 13 -15
leaf_value=-0.063981113340024695 -0.0030307495980657338 -0.1056170927818853 -0.1250493519079206 0.13801075672069682 0.094547901853513402 -0.09605038247605896 -0.078299668882174739 -0.1164821481177728 0.17062095694970233 0.045105143130054301 0.036520431131413247 -0.10740011680196682 -0.050386880152625761 0.019930141406749115
leaf_weight=22.440118413418531 305.7434888035059 13.596034374088051 4.215045476332306 3.2118321917951098 8.1367136314511281 3.1555529646575513 3.1899987794458857 2.1751947030425063 2.2120075672864905 12.711515687406061 5.2011500895023328 3.1809743717312813 14.110091850161551 178.19443817436695
leaf_count=306 1401 294 46 24 38 21 20 19 11 60 25 19 78 764
internal_value=0 -0.0262914 -0.00985753 -0.00137398 -0.00966112 -0.0243928 0.045868 0.0194678 0.0358247 0.0170329 -0.0722382 -0.0180967 0.00384269 0.0147707
internal_weight=0 83.4261 61.448 57.2329 54.0211 42.6944 11.3267 20.2543 18.0791 15.8671 21.9782 8.38212 498.048 192.305
internal_count=3126 883 545 499 475 417 58 111 92 81 338 44 2243 842
shrinkage=0.1


Tree=25
num_leaves=15
num_cat=0
split_feature=49 45 32 23 3 3 3 11 44 8 29 3 3 30
split_gain=5.46932 5.64462 5.44035 5.13886 4.99877 7.04343 7.27203 5.43047 4.89765 5.56014 4.26535 3.8387 3.91503 3.76159
threshold=0.59165964616680722 0.74377750000000009 0.81583388939670953 0.0043369307325409273 0.00047752064763288861 0.00041640813495793524 0.0004260391513601285 0.0013242280285035632 0.003734447601746284 0.01474419576942779 9.978229317851961e-06 0.00042898568229480702 0.00057103282484164233 5.7397508653778236e-05
decision_type=2 2 2 2 2 2 2 2 2 2 2 2 2 2
left_child=1 4 -3 -4 5 7 -7 13 9 -8 -5 -12 -13 -1
right_child=-2 2 3 10 -6 6 8 -9 -10 -11 11 12 -14 -15
leaf_value=-0.011411388882195294 0.0034560885567368098 0.51372109786111941 -0.10954476722967497 -0.1380534546336101 -0.12226019289431965 0.2126514433142257 0.17427777089330743 -0.095104146064614481 0.17009092992760849 -0.097995460384730795 -0.077829037152484293 0.11732450027919941 -0.052772918989024101 0.08955616828965654
leaf_weight=32.463682631030679 497.99779243767262 0.16199366748333233 13.480655908584597 2.3689147830009452 3.5193542875349513 2.8878799155354482 0.96880633756518353 7.1694617960602036 1.5663764309138057 3.3212579526007175 3.0999405831098539 3.9572751969099045 2.0562271326780319 4.1630137860774985
leaf_count=242 2243 5 330 13 39 17 9 119 15 32 16 18 10 18
internal_value=0 -0.0245352 -0.0639222 -0.0676707 -0.0068827 0.000845706 0.0827865 -0.0155145 0.0187485 -0.0365092 -0.0185093 0.0125646 0.0591622 6.46484e-05
internal_weight=0 81.1848 25.125 24.963 56.0598 52.5405 8.74432 43.7962 5.85644 4.29006 11.4824 9.11344 6.0135 36.6267
internal_count=3126 883 392 387 491 452 73 379 56 41 57 44 28 260
shrinkage=0.1


Tree=26
num_leaves=15
num_cat=0
split_feature=23 3 49 30 18 14 29 53 53 23 15 11 14 45
split_gain=4.70652 5.92759 6.81986 7.86538 6.94897 5.99901 5.99458 5.59516 9.33878 6.36802 4.87366 7.13449 10.4213 4.97597
threshold=0.0047101425924260479 0.00043104581879954923 0.59826453243470945 0.00019986106859443806 0.99770357701442769 0.82478172373415481 1.4412997903563942e-05 0.97247339307952674 0.97350672717687781 0.0042738186662171053 0.17910458713442054 0.0020011876484560573 0.82097613303260597 0.74381495833333344
decision_type=2 2 2 2 2 2 2 2 2 2 2 2 2 2
left_child=1 2 5 4 -4 10 -5 -6 9 -9 13 12 -12 -1
right_child=-2 -3 3 6 7 -7 -8 8 -10 -11 11 -13 -14 -15
leaf_value=-0.0068084550880391573 0.0052813956834915242 -0.048874085239274341 0.10008018021576454 -0.010827106271261946 -0.11065670758189464 -0.1048469939697922 0.17637854139966153 0.23268663833322045 -0.080763223225690517 -0.0071402253886198646 0.13581321372857855 0.17946620186407553 -0.13026432942268437 -0.074101660310453718
leaf_weight=69.51393423601985 411.41382095962763 38.809091644361615 5.6073505952954354 2.4240867048501951 5.4904533624649039 7.1559106595814219 5.8105508685112 2.3769290894269925 4.7379615604877472 2.0725176781415939 2.7689334973692876 3.2145987693220377 3.1426392383873463 13.051552373915909
leaf_count=561 1800 360 28 12 26 72 24 12 24 10 17 17 26 137
internal_value=0 -0.0146591 -0.0042337 0.0388455 0.00538607 -0.0166631 0.12127 -0.0307897 0.0169393 0.120977 -0.00978092 0.0595645 -0.00563573 -0.0174458
internal_weight=0 166.177 127.367 28.5198 20.2852 98.8476 8.23464 14.6779 9.18741 4.44945 91.6917 9.12617 5.91157 82.5655
internal_count=3126 1326 966 136 100 830 36 72 46 22 758 60 43 698
shrinkage=0.1


Tree=27
num_leaves=15
num_cat=0
split_feature=49 41 23 30 53 17 21 53 53 48 52 10 52 20
split_gain=4.17907 5.09051 6.25525 6.25265 5.13755 4.8515 4.48259 4.32414 4.26628 3.91139 4.02355 6.71762 3.69829 8.31139
threshold=0.59165964616680722 0.036404550729442979 0.0043369307325409273 5.3865354275084197e-05 0.97137225240092606 0.41003937007874025 0.15637775960752251 0.96826556495297478 0.97111153132091044 0.37833190025795366 0.82245694057976138 0.28339622641509438 0.82306232608925378 0.82258975849154081
decision_type=2 2 2 2 2 2 2 2 2 2 2 2 2 2
left_child=1 3 -3 5 -4 6 -1 -5 -9 10 11 -7 13 -2
right_child=12 2 4 7 -6 9 -8 8 -10 -11 -12 -13 -14 -15
leaf_value=-0.065554806066478399 0.0021594466256652728 -0.098176043074596112 -0.080162121409223644 0.24905645536339358 0.032245074544867275 0.1153954689811062 0.10660405550461632 -0.045668487458538798 0.1407337791962901 -0.11443997710265684 0.074922721277682097 -0.084005709082796642 0.016107576868112546 -0.051787181920696305
leaf_weight=17.692321697250012 316.91912603750825 15.470254898071287 6.5691619068384197 1.3746045976877201 10.670622691512106 2.4814753234386506 1.6537834033370007 2.4329219534993172 2.4789228141307831 1.9701620861887921 10.303133606910704 5.2937375754117966 149.35415094345808 31.387620232999325
leaf_count=252 1444 387 36 6 52 11 13 13 13 19 51 30 653 146
internal_value=0 -0.0218981 -0.0520125 -0.000334535 -0.0105873 -0.0151136 -0.050838 0.0922801 0.0484055 0.0193591 0.0339404 -0.0203664 0.00294302 -0.00270195
internal_weight=0 78.3911 32.71 45.6811 17.2398 39.3946 19.3461 6.28645 4.91184 20.0485 18.0783 7.77521 497.661 348.307
internal_count=3126 883 475 408 88 376 265 32 26 111 92 41 2243 1590
shrinkage=0.1


Tree=28
num_leaves=15
num_cat=0
split_feature=23 52 18 52 49 23 15 19 51 29 45 18 29 52
split_gain=3.86895 5.53225 6.67592 5.57573 11.6341 10.7804 5.89186 5.52929 5.37078 5.05231 4.99469 6.9555 6.04954 5.13616
threshold=0.0067263446503955894 0.8182126378077561 0.99771354144440916 0.81947404106935318 0.59870261162594784 0.0047101425924260479 0.17987214258039522 0.00024105648079907139 0.0015505459407264357 0.00013495807127882604 0.74415693750000012 0.99771905398586436 0.00016156668279309792 0.82027241614126556
decision_type=2 2 2 2 2 2 2 2 2 2 2 2 2 2
left_child=1 2 -1 4 5 -3 10 -4 9 -9 11 13 -13 -5
right_child=-2 3 7 6 -6 -7 -8 8 -10 -11 -12 12 -14 -15
leaf_value=-0.058299566373890457 0.007937515096715763 -0.13123675545320748 -0.13372710189496997 0.125487832472953 0.18213082010485027 0.13013553853534221 -0.078785916876574255 0.026193865380163956 -0.0059140606737396037 0.23289877864789746 -0.15414578125586023 0.13095780503173166 -0.0128894469651127 -0.0066729447448606871
leaf_weight=39.928711738437414 281.8602722287178 3.7667389344423992 1.979359284043311 2.9847008511424056 4.9264630079269409 2.7157731205224991 10.423499291762708 2.3558633923530561 7.5618054196238518 2.3740637749433517 2.1311535239219657 7.2746361792087537 4.8880881518125534 198.93810380063951
leaf_count=405 1210 35 13 14 22 12 60 10 36 10 10 31 21 1237
internal_value=0 -0.00848351 -0.0373178 -0.00191844 0.0662938 -0.0217379 -0.00535221 0.0213866 0.0463649 0.129944 -0.00181208 -0.000295647 0.0731469 -0.00471942
internal_weight=0 292.249 54.1998 238.049 11.409 6.48251 226.64 14.2711 12.2917 4.72993 216.217 214.086 12.1627 201.923
internal_count=3126 1916 474 1442 69 47 1373 69 56 20 1313 1303 52 1251
shrinkage=0.1


Tree=29
num_leaves=15
num_cat=0
split_feature=19 53 43 9 11 51 45 58 13 53 50 13 13 19
split_gain=3.41742 7.63408 4.21938 6.21318 7.30418 5.84884 5.4683 6.8103 6.00452 4.32098 4.29781 4.23049 4.44029 4.66939
threshold=0.00017865846623325558 0.97165780405999069 0.038758075852374528 0.1608151862126416 0.0011698337292161522 0.00065921414246453256 0.74376464583333346 0.60500000000000009 3.9807785265432635e-06 0.96991775348201126 0.00022209435264867113 0.00028576302994114138 0.00033410105490630954 0.00032464627389667367
decision_type=2 2 2 2 2 2 2 2 2 2 2 2 2 2
left_child=1 -1 3 4 5 9 7 8 -4 -2 -6 -8 -13 -14
right_child=2 -3 6 -5 10 -7 11 -9 -10 -11 -12 12 13 -15
leaf_value=-0.0049995375097637608 0.09272656553506603 -0.1018840977293381 -0.048328013581397045 0.10129264690753755 -0.1127673731050296 0.15104670275578738 0.0071775338946796999 -0.07179031287722254 0.099165327870583811 -0.093058648896707202 0.037513637556094145 -0.087777207582454858 0.020178760155590482 -0.029748739161905808
leaf_weight=37.62733387760818 2.312203295528894 10.375560507178305 5.5898183211684209 10.330993488430975 5.7175500653684121 4.2843224108219147 376.69959989562631 21.935595080256462 5.4525056928396225 2.7298922538757324 2.8523655384778976 8.1111206710338575 30.931880339980125 47.49246184527874
leaf_count=397 12 319 25 47 32 19 1711 107 25 12 12 36 151 221
internal_value=0 -0.0259406 0.00193562 0.0395432 0.00389716 0.0651371 -0.000203702 -0.0395479 0.0245016 -0.0078613 -0.0627486 0.00259723 -0.0173414 -0.0100565
internal_weight=0 48.0029 524.44 28.2273 17.8963 9.32642 496.213 32.9779 11.0423 5.0421 8.56992 463.235 86.5355 78.4243
internal_count=3126 716 2410 134 87 43 2276 157 50 24 44 2119 408 372
shrinkage=0.1


end of trees

feature_importances:
Column_23=39
Column_49=32
Column_19=23
Column_58=20
Column_18=18
Column_30=18
Column_51=17
Column_53=17
Column_11=15
Column_21=15
Column_3=14
Column_32=14
Column_0=13
Column_29=13
Column_13=12
Column_52=10
Column_48=9
Column_9=8
Column_14=8
Column_24=8
Column_45=8
Column_43=7
Column_47=7
Column_20=6
Column_25=6
Column_44=6
Column_57=6
Column_33=5
Column_42=5
Column_54=5
Column_56=5
Column_1=4
Column_15=4
Column_17=3
Column_37=3
Column_41=3
Column_5=2
Column_8=2
Column_10=2
Column_39=2
Column_46=2
Column_22=1
Column_31=1
Column_35=1
Column_50=1

parameters:
[boosting: gbdt]
[objective: binary]
[metric: binary_logloss]
[tree_learner: serial]
[device_type: cpu]
[data: ]
[valid: ]
[num_iterations: 10000]
[learning_rate: 0.1]
[num_leaves: 15]
[num_threads: 0]
[force_col_wise: 0]
[force_row_wise: 0]
[histogram_pool_size: -1]
[max_depth: -1]
[min_data_in_leaf: 10]
[min_sum_hessian_in_leaf: 0.001]
[bagging_fraction: 0.8]
[pos_bagging_fraction: 1]
[neg_bagging_fraction: 1]
[bagging_freq: 0]
[bagging_seed: 10961]
[feature_fraction: 0.8]
[feature_fraction_bynode: 1]
[feature_fraction_seed: 53]
[extra_trees: 0]
[extra_seed: 11644]
[early_stopping_round: 50]
[first_metric_only: 0]
[max_delta_step: 0]
[lambda_l1: 0]
[lambda_l2: 0]
[min_gain_to_split: 0]
[drop_rate: 0.1]
[max_drop: 50]
[skip_drop: 0.5]
[xgboost_dart_mode: 0]
[uniform_drop: 0]
[drop_seed: 30626]
[top_rate: 0.2]
[other_rate: 0.1]
[min_data_per_group: 100]
[max_cat_threshold: 32]
[cat_l2: 10]
[cat_smooth: 10]
[max_cat_to_onehot: 4]
[top_k: 20]
[monotone_constraints: ]
[monotone_constraints_method: basic]
[monotone_penalty: 0]
[feature_contri: ]
[forcedsplits_filename: ]
[refit_decay_rate: 0.9]
[cegb_tradeoff: 1]
[cegb_penalty_split: 0]
[cegb_penalty_feature_lazy: ]
[cegb_penalty_feature_coupled: ]
[path_smooth: 0]
[interaction_constraints: ]
[verbosity: -1]
[saved_feature_importance_type: 0]
[max_bin: 255]
[max_bin_by_feature: ]
[min_data_in_bin: 3]
[bin_construct_sample_cnt: 200000]
[data_random_seed: 4071]
[is_enable_sparse: 1]
[enable_bundle: 1]
[use_missing: 1]
[zero_as_missing: 0]
[feature_pre_filter: 1]
[pre_partition: 0]
[two_round: 0]
[header: 0]
[label_column: ]
[weight_column: ]
[group_column: ]
[ignore_column: ]
[categorical_feature: ]
[forcedbins_filename: ]
[objective_seed: 602]
[num_class: 1]
[is_unbalance: 0]
[scale_pos_weight: 1]
[sigmoid: 1]
[boost_from_average: 1]
[reg_sqrt: 0]
[alpha: 0.9]
[fair_c: 1]
[poisson_max_delta_step: 0.7]
[tweedie_variance_power: 1.5]
[lambdarank_truncation_level: 20]
[lambdarank_norm: 1]
[label_gain: ]
[eval_at: ]
[multi_error_top_k: 1]
[auc_mu_weights: ]
[num_machines: 1]
[local_listen_port: 12400]
[time_out: 120]
[machine_list_filename: ]
[machines: ]
[gpu_platform_id: -1]
[gpu_device_id: -1]
[gpu_use_dp: 0]

end of parameters

pandas_categorical:null
