tree
version=v3
num_class=1
num_tree_per_iteration=1
label_index=0
max_feature_idx=58
objective=binary sigmoid:1
feature_names=Column_0 Column_1 Column_2 Column_3 Column_4 Column_5 Column_6 Column_7 Column_8 Column_9 Column_10 Column_11 Column_12 Column_13 Column_14 Column_15 Column_16 Column_17 Column_18 Column_19 Column_20 Column_21 Column_22 Column_23 Column_24 Column_25 Column_26 Column_27 Column_28 Column_29 Column_30 Column_31 Column_32 Column_33 Column_34 Column_35 Column_36 Column_37 Column_38 Column_39 Column_40 Column_41 Column_42 Column_43 Column_44 Column_45 Column_46 Column_47 Column_48 Column_49 Column_50 Column_51 Column_52 Column_53 Column_54 Column_55 Column_56 Column_57 Column_58
feature_infos=[0:1] [0:1] [0:1] [0:1] [0:1] [0:1] [0:0.63259234121673757] [0:1] [0.0048403742429264469:0.79436225027872365] [0:1] [0:0.89692722371967648] [0:0.60700712589073635] [0:1] [0:0.50814353550001423] [0:1] [0:1] [0:1] [0:1] [0:1] [0:0.905813140315475] [0:1] [0:0.29370400654129192] [0:1] [0:0.52099721354864592] [0:0.79913836121014803] [0:1] [0:0.29253904403218506] [0:0.94555049191697438] [0:1] [0:0.91478088211578767] [0:0.90575152471330678] [0:1] [0:0.85213053016453388] [0:0.73059819077620924] [0:0.85262682364582376] [0.0059419582893115493:0.60780116101916304] [0:1] [0:1] [0:1] [0:1] [0:1] [0:0.048127652519893899] [0:0.7170045703452177] [0:0.050371516771864064] [0:0.53406024943117869] [0:0.77762837500000004] [0:0.53955774036618609] [0:1] [0:0.98710232158211519] [0:0.97206402695871941] [0:0.89570333071852315] [0:0.94908267102428889] [0:1] [0:1] [0:1] [0:1] [0:1] [0:0.79830039372850981] [-104.73999999999999:696.33000000000004]
tree_sizes=6727 6704 6659 6754 6680 6749 6726 6726 6748 6684

Tree=0
num_leaves=63
num_cat=0
split_feature=19 47 19 0 58 21 19 13 35 41 52 41 0 41 45 37 1 13 13 53 54 58 1 35 19 33 56 19 54 56 54 54 35 57 13 19 13 57 0 52 58 13 1 19 41 53 1 56 13 53 13 45 56 57 52 12 56 52 13 56 54 53
split_gain=218.499 45.2598 42.0165 25.312 20.6224 19.2945 13.4682 19.1988 13.3296 15.157 13.0638 12.3283 10.8567 10.1169 9.99826 9.79312 9.49151 9.9059 9.87008 11.3141 11.338 10.7618 9.93895 12.1105 9.42378 8.26205 7.58522 10.0713 9.14362 10.48 14.3736 11.3686 9.39414 13.5751 9.13234 7.6267 7.48577 10.4516 7.47806 7.41033 7.35939 7.34661 7.29857 7.29261 6.77713 6.66593 7.4277 6.14795 6.5923 5.58587 6.90868 5.44341 5.42764 6.83814 5.27322 5.22736 13.3625 5.09322 4.99052 7.76303 4.77354 4.7394
threshold=0.00017748114520371191 0.060301507537688447 0.00023811317822521215 0.1558381425312039 0.38500000000000006 0.1555600981193786 0.00034760403397277577 0.00040518638573743931 0.01803787299069937 0.036417702807250228 0.8252380449203387 0.036516039456233433 0.047067507717084962 0.036401393954465081 0.74397195833333341 0.00036674335830727789 0.12072279969700596 0.00027893883818135294 0.00012155591572123178 0.97226710826896479 0.94184758370943877 0.60500000000000009 0.11925058270016771 0.01794146817369513 0.00080087263034709798 0.40800579649968577 0.14025848272941824 0.00024164514131384322 0.94387052464455834 0.13879928929184496 0.94497119003871066 0.94442888488502785 0.018420833612683825 0.0013134902488954839 0.00044783758423611709 0.00035819992323866896 0.00018197844692769202 0.00069878135389044407 0.039860421419943635 0.82160279666091374 0.29500000000000004 0.0001232619636611789 0.11769990111449895 0.00027107816705243559 0.03639867235853228 0.97189464958322824 0.11717630087749566 0.14002081893339816 3.4831812107253555e-05 0.97207228372565657 5.6583923341579238e-05 0.74381206250000009 0.13871833830455424 0.00025058597192105541 0.82177230460357176 0.11729600967327546 0.1372669286157589 0.82108179822244154 0.00064687651056328024 0.13866437097969378 0.94408102467131683 0.97283057140892526
decision_type=2 2 2 2 2 2 2 2 2 2 2 2 2 2 2 2 2 2 2 2 2 2 2 2 2 2 2 2 2 2 2 2 2 2 2 2 2 2 2 2 2 2 2 2 2 2 2 2 2 2 2 2 2 2 2 2 2 2 2 2 2 2
left_child=1 -1 4 5 -2 6 8 12 43 36 15 -7 24 57 58 39 18 -18 19 20 -6 42 23 -23 -8 -12 27 -15 -29 52 31 -31 47 34 -34 -28 37 40 45 -3 -10 -14 -22 -4 -25 46 -26 48 -32 -46 -51 -11 53 -30 -44 -48 -57 -5 -9 -60 -55 -53
right_child=2 10 3 13 16 11 7 14 9 51 25 -13 41 26 -16 -17 17 -19 -20 -21 21 22 -24 44 38 -27 35 28 29 30 32 -33 33 -35 -36 -37 -38 -39 -40 -41 -42 -43 54 -45 49 -47 55 -49 -50 50 -52 61 -54 60 -56 56 -58 -59 59 -61 -62 -63
leaf_value=-1.1090386106619556 -0.97290576257611749 -0.46752570477289301 -0.67964043094508186 -0.73370889055760069 -0.92219079736126264 -0.75231309171459648 -0.90300712108626202 -1.0566246677825986 -0.75946855369805655 -1.1243971148545118 -0.38643046896034661 -0.9950133522626774 -0.49924379466779906 -0.36534570764908475 -0.49185427551665584 -1.0137021179703869 -0.47004245347052287 -0.87470915195798959 -0.99788854698694041 -0.95543019201768709 -0.17558285584772804 -0.39453999254160232 -0.39453999254160121 -0.54051141700418359 -0.87470915195798948 -0.86562958967084336 -1.0105394037736977 -0.95446023264434143 -0.44667264413538094 -0.61349712923547428 -0.67495878164077217 -1.0621797863950504 -0.61836284338422698 -0.96626140502004765 -0.17558285584772804 -0.81942110303090254 -0.31112774999155424 -0.90114670097056249 -0.43732472040132353 -0.85754310450885374 -0.35804713642595576 -0.6561511169031119 -0.36534570764908492 -0.92526325802592735 -0.92347174235895735 -0.94649444129073967 -0.44243686619338585 -0.58221753827920675 -0.9719091089427071 -0.43435038103139623 -0.93463426305315478 -0.58221753827920675 -0.46435241293674911 -0.58221753827920664 -0.7685917677269678 -1.0453292599372794 -0.42859999158287043 -0.3789001970634675 -1.0381412731266222 -0.52060622275928581 -0.88719355010281564 -0.93463426305315478
leaf_weight=117.19891321659088 50.167880117893219 2.7402623593807274 6.74526119232178 3.5834200084209433 12.858154147863386 86.002080202102661 6.3236823678016654 5.9021035432815534 2.7402623593807274 2.3186835348606092 3.7942094206809989 9.2747341394424421 45.108934223651886 2.1078941226005545 2.5294729471206656 12.647364735603331 6.1128929555416089 4.0049988329410553 12.647364735603331 15.387627094984053 2.1078941226005545 2.7402623593807283 2.7402623593807212 2.7402623593807247 4.0049988329410651 2.318683534860611 15.809205919504164 14.12289062142372 2.9510517716407803 2.7402623593807212 4.004998832941058 12.858154147863386 9.4855235517024976 3.7942094206809989 2.3186835348606101 17.706310629844666 4.4265776574611655 3.5834200084209433 6.1128929555416098 6.7452611923217773 5.4805247187614441 16.230784744024277 2.1078941226005554 17.073942393064499 17.917100042104725 3.3726305961608878 6.7452611923217756 2.9510517716407767 11.804207086563109 2.3186835348606101 2.1078941226005554 2.9510517716407776 4.8481564819812766 2.9510517716407758 3.3726305961608887 2.5294729471206665 3.1618411839008331 2.9510517716407776 2.318683534860611 2.318683534860611 6.7452611923217773 3.1618411839008331
leaf_count=556 238 13 32 17 61 408 30 28 13 11 18 44 214 10 12 60 29 19 60 73 10 13 13 13 19 11 75 67 14 13 19 61 45 18 11 84 21 17 29 32 26 77 10 81 85 16 32 14 56 11 10 14 23 14 16 12 15 14 11 11 32 15
internal_value=-0.837871 -1.05427 -0.776576 -0.741664 -0.870327 -0.705098 -0.661592 -0.621863 -0.748997 -0.645935 -0.827008 -0.775939 -0.590155 -0.815669 -0.848935 -0.898489 -0.812612 -0.630223 -0.835958 -0.805114 -0.75977 -0.705032 -0.757959 -0.79375 -0.684098 -0.568196 -0.829173 -0.796973 -0.808126 -0.777487 -0.824139 -0.983357 -0.751857 -0.637168 -0.531388 -0.909571 -0.532928 -0.616104 -0.630705 -0.744871 -0.491854 -0.540762 -0.491854 -0.855706 -0.837361 -0.690365 -0.637826 -0.847215 -0.896682 -0.873767 -0.672581 -0.863473 -0.644274 -0.713244 -0.613497 -0.561541 -0.702702 -0.573473 -0.934634 -0.779374 -0.794375 -0.764502
internal_weight=0 145.445 513.483 374.151 139.332 250.418 155.141 106.659 48.4816 24.6624 28.2458 95.2768 93.5905 123.733 13.0689 22.1329 89.1639 10.1179 79.046 66.3987 51.011 38.1529 30.5645 27.8242 32.2508 6.11289 117.199 83.6834 81.5755 67.4526 49.9571 15.5984 34.3587 15.5984 11.8042 33.5155 16.2308 11.8042 25.9271 9.48552 8.22079 61.3397 7.58842 23.8192 25.0839 19.8142 16.4416 18.7603 15.8092 22.3437 4.42658 8.43158 17.4955 12.6474 5.48052 12.4366 5.69131 6.53447 10.5395 4.63737 9.69631 6.11289
internal_count=3126 690 2436 1775 661 1188 736 506 230 117 134 452 444 587 62 105 423 48 375 315 242 181 145 132 153 29 556 397 387 320 237 74 163 74 56 159 77 56 123 45 39 291 36 113 119 94 78 89 75 106 21 40 83 60 26 59 27 31 50 22 46 29
shrinkage=1


Tree=1
num_leaves=63
num_cat=0
split_feature=23 47 57 49 49 19 23 32 49 8 49 11 44 41 49 42 49 32 42 23 44 53 49 14 14 8 49 11 11 49 23 43 53 19 19 32 15 15 8 53 41 27 11 19 11 44 19 14 14 44 49 44 32 19 19 43 23 35 53 53 42 41
split_gain=171.5 29.5391 23.365 16.6179 16.416 13.8506 13.5339 12.4515 10.2739 9.12517 11.2255 10.7449 8.54973 8.12398 7.70998 7.53206 7.78566 7.45185 8.0676 7.40028 7.20109 7.2041 11.0728 9.75849 9.12383 8.31384 7.00404 6.95035 9.7194 6.89189 6.64814 6.52489 6.96225 6.33217 10.608 8.15493 6.52694 18.5598 6.26549 6.2543 9.29974 6.06616 5.73625 5.53362 5.81908 5.48358 6.20443 6.65823 7.51342 5.23935 5.16909 5.14753 5.11109 6.59093 6.76325 5.37092 5.04438 5.06524 5.4393 6.77983 7.53731 6.44088
threshold=0.003749719651568503 0.060301507537688447 0.00026580874178086175 0.59169334456613321 0.59101937657961245 0.00036879581250456222 0.0058207719572936764 0.81587675959780626 0.59280539174389235 0.015372077168770907 0.60424599831508019 0.0016686460807600952 0.0031316568866577178 0.036414463141025651 0.64859309182813829 0.0025528907267826722 0.62796967144060667 0.81598891681901287 0.0047166130351336258 0.062979588283462104 0.0032131677946892335 0.97230912924889412 0.59260320134793598 0.81687387521906218 0.81620195368063697 0.014947023683972643 0.60062342038753169 0.0013361045130641333 0.00076603325415676969 0.59398483572030336 0.02182090265759833 0.038764277445494898 0.97141331835858413 0.00027755343271492595 0.00030580913742397458 0.81587675959780626 0.1781763293531988 0.17870980240216974 0.01463647286588122 0.97220885191042661 0.036408909427497797 0.033807612033121166 0.0012292161520190026 0.0003252349344114455 0.0013361045130641333 0.0034063759470280503 0.00038527830691817395 0.83889600540680742 0.82379741762084768 0.0031475690639193722 0.60052232518955362 0.0032405460996835509 0.81585395338208422 0.00043354846912946544 0.00057423833215993695 0.038768653013974259 0.035579950181478907 0.018314950144607229 0.97277804518401367 0.97215346061870167 0.0026462776226739331 0.036410719219717072
decision_type=2 2 2 2 2 2 2 2 2 2 2 2 2 2 2 2 2 2 2 2 2 2 2 2 2 2 2 2 2 2 2 2 2 2 2 2 2 2 2 2 2 2 2 2 2 2 2 2 2 2 2 2 2 2 2 2 2 2 2 2 2 2
left_child=1 4 3 27 -1 8 -4 41 -5 10 11 13 26 -7 19 -10 38 18 20 45 -14 22 -22 39 25 -23 -8 28 -2 -13 -15 32 -6 35 42 -26 -36 -38 -17 40 -24 -3 -35 44 -20 46 -12 48 51 -34 -46 52 55 -54 -55 -48 57 58 59 -40 61 -61
right_child=2 7 6 5 31 9 12 -9 15 -11 14 29 17 30 -16 16 -18 -19 43 -21 21 24 23 -25 33 -27 -28 -29 -30 -31 -32 -33 49 34 36 -37 37 -39 56 -41 -42 -43 -44 -45 50 -47 47 -49 -50 -51 -52 -53 53 54 -56 -57 -58 -59 -60 60 -62 -63
leaf_value=-0.25910457516869928 -0.18255050752446406 -0.1166371623684348 -0.040118201011331317 0.33377743250731223 -0.26991148168647006 0.40803678073750183 0.076517351511707951 -0.14034072281377527 -0.19556199359313953 -0.13163245974167773 0.32852433550101007 0.12628806503696369 -0.13228112319647031 0.0059512818990131236 0.31949301857029866 0.32749081804936353 -0.27657011255866765 0.35294463496924777 0.25047298884680685 0.41161824072102632 -0.094638880639184159 -0.20147281411017395 0.21087865711729392 0.27226994409990152 -0.14385174412452856 0.18887696315650765 0.53544162209051638 -0.19321431087347529 0.26246742026820469 0.35338478844481325 0.3497227518882588 -0.15073043687679433 -0.07131239969196855 0.52949025636020519 -0.12196672424505087 0.2700075114635368 0.43245876350759516 -0.024014960329545611 0.021423069804532513 0.32441778576077035 -0.1156528734188158 0.19152681883252298 0.14404192963012613 -0.14174610417285446 -0.19752226416392366 0.2607927213559339 0.11394069314203199 0.33547550184280439 -0.19489852483286391 0.28723250073342116 0.132359026178901 -0.1417831229373131 -0.084240642155767959 0.49853631002877219 0.10484957799751218 -0.30213148266192019 0.26683365536181719 0.28756357707242131 -0.016805480507425932 0.25954023563199768 0.31638100573009054 -0.1671821471358903
leaf_weight=100.91020101308823 3.6119451671838787 3.229814916849139 100.44127237796783 5.4652143120765677 2.102864593267439 3.3522516340017345 2.7121336013078681 12.66073317825794 4.6847833395004264 3.7777294814586631 2.5019508153200176 6.5607798546552649 7.5493712127208701 13.056138038635252 6.1389389634132376 3.7727104574441901 2.5880536139011374 3.0698261708021155 3.6604557484388369 2.4940979629755011 7.1513583213090888 2.4538561701774624 5.7722433507442501 20.069205731153488 17.314836591482166 19.736075311899185 2.6107141375541687 9.7084463089704496 4.3003959506750107 28.853966251015663 2.7187696397304526 25.072271764278412 2.6866180002689362 2.1631125807762137 12.712330833077429 2.1398341953754416 4.2953224331140545 20.894402161240578 20.794719636440277 3.1462640762329093 8.8194585144519788 12.231386095285414 5.3992930799722672 15.156117200851439 4.413455992937088 4.5545154362916938 2.8733724653720953 2.1953123509883872 7.6329928934574118 4.1460561454296112 3.3363347351551056 4.7611668705940238 2.6891733109951002 3.2007184624671936 3.8390673398971558 2.184457391500473 4.5979589521884909 3.4479125887155524 34.829009339213371 2.5356637537479392 8.7548712342977506 3.2009436935186386
leaf_count=538 17 15 481 26 11 15 13 62 23 18 11 30 36 60 28 17 13 14 17 11 34 12 26 91 85 91 12 45 20 127 12 121 13 10 59 10 19 99 97 14 41 57 25 73 21 20 13 10 35 20 16 21 12 14 17 10 21 16 164 12 40 15
internal_value=0 -0.179739 0.0570222 0.106304 -0.218605 0.122863 0.018374 0.00672449 0.0675929 0.173474 0.185046 0.246076 0.0520271 0.125286 0.111182 0.0512852 0.0649672 0.044178 0.0384743 0.078331 0.0576966 0.0685563 0.133576 0.176744 0.0349983 0.14571 0.301607 -0.0798182 0.0593189 0.311314 0.0651995 -0.0984318 0.0483133 -0.0028441 0.0380157 -0.098331 -0.00513718 0.0538224 0.0757553 0.0686635 0.0135178 0.127152 0.254294 -0.0625467 0.0426532 0.0555149 0.0261864 0.00043652 -0.0266234 0.146252 -0.0555062 0.0390838 0.0973208 0.182102 0.283844 -0.0657593 0.0636045 0.0509019 0.0392641 0.0946072 0.199624 0.0214353
internal_weight=0 163.04 490.695 215.678 134.918 198.057 275.017 28.1219 94.6718 103.385 99.6077 54.5419 174.576 19.1272 45.0658 89.2066 84.5218 169.253 166.183 38.9268 139.617 132.068 44.9585 37.8072 87.1091 22.1899 5.32285 17.6208 7.91234 35.4147 15.7749 34.0078 8.93554 64.9191 45.4645 19.4547 37.9021 25.1897 81.9338 17.738 14.5917 15.4612 7.56241 26.5664 11.4102 36.4327 31.8782 29.3763 27.1809 6.83267 7.74979 19.548 14.7868 9.72896 7.03979 5.05783 78.1611 73.5631 70.1152 35.2862 14.4915 5.73661
internal_count=3126 837 2289 990 703 908 1299 134 444 464 446 244 818 87 202 418 395 793 779 174 652 616 206 172 410 103 25 82 37 157 72 165 44 307 212 95 177 118 382 81 67 72 35 127 54 163 143 132 122 33 37 87 66 43 31 23 365 344 328 164 67 27
shrinkage=0.2


Tree=2
num_leaves=63
num_cat=0
split_feature=21 53 0 21 0 15 52 21 15 15 10 44 46 51 11 9 32 9 0 8 58 21 54 53 56 53 24 8 32 20 32 45 52 52 20 45 54 0 11 54 8 21 44 44 9 8 11 38 45 0 54 53 54 21 0 46 1 53 46 51 56 44
split_gain=55.1328 45.4255 14.805 12.2844 10.3061 10.0269 12.6165 10.5385 8.55065 8.83603 8.32392 7.99613 7.79227 6.80151 6.73384 6.7056 7.94917 6.44318 5.98443 5.88879 7.94106 5.75747 6.64607 6.944 5.47558 4.9921 4.96781 4.95181 4.91808 5.35352 4.81494 4.70529 4.63543 7.38516 7.34758 5.30417 5.77508 6.20156 6.14725 5.50123 4.79694 4.64515 4.60861 6.21897 5.72199 5.47167 4.51055 4.24024 4.38319 4.09725 4.43463 3.98138 6.11189 5.66368 7.38273 5.55007 4.7261 7.45144 6.93085 6.94018 3.92997 3.89052
threshold=0.15515126737530666 0.97129680564150755 0.16770903234465176 0.1555600981193786 0.16430680445577778 0.17992204102238976 0.8252380449203387 0.15506950122649224 0.17485734915994508 0.17649152313526587 0.29288409703504048 0.0033853937132859663 0.010642479101990185 0.0022747530268142318 0.00046912114014251784 0.18218504169057034 0.8160774908592322 0.16907864232555583 0.098335793853174078 0.014774610540271795 0.95500000000000007 0.15678659035159445 0.9452691010935298 0.97558485563883357 0.14029376905721161 0.97116596759036422 0.06764816039101941 0.017319940790068402 0.8158263254113346 0.83579596820588697 0.81584376142595982 0.74380472916666684 0.82306232608925378 0.82258829089030572 0.82325458185105627 0.74377435416666671 0.94387052464455834 0.20882431888337136 0.0027375296912114017 0.94486594002533153 0.015429234338747102 0.15621422730989373 0.003192731567029657 0.0031162907154785708 0.16214724119232676 0.014973766083104833 0.0010273159144893113 0.611425339366516 0.7438052291666668 0.13182794255804595 0.94326399914372872 0.97447702980433515 0.94529050787591207 0.15596892886345057 0.079660448261978253 0.010822791786559796 0.12556195231968487 0.97332622796763624 0.010883992807234883 0.0019776424273935975 0.14166422775871629 0.0029860292643660055
decision_type=2 2 2 2 2 2 2 2 2 2 2 2 2 2 2 2 2 2 2 2 2 2 2 2 2 2 2 2 2 2 2 2 2 2 2 2 2 2 2 2 2 2 2 2 2 2 2 2 2 2 2 2 2 2 2 2 2 2 2 2 2 2
left_child=1 5 3 14 8 6 7 10 -5 51 18 28 24 19 -2 16 21 42 -1 20 30 22 31 -24 -4 -19 -12 -27 29 -8 -11 -15 33 41 40 -36 -37 38 39 -38 -34 -14 43 44 -16 -44 61 48 -30 50 -33 52 53 56 -55 -56 57 58 59 -10 -26 -20
right_child=2 -3 12 4 -6 -7 11 -9 9 13 26 -13 32 15 17 -17 -18 25 46 -21 -22 -23 23 -25 60 27 -28 -29 47 -31 -32 49 34 -35 35 36 37 -39 -40 -41 -42 -43 45 -45 -46 -47 -48 -49 -50 -51 -52 -53 -54 54 55 -57 -58 -59 -60 -61 -62 -63
leaf_value=0.10290905802377487 -0.13745689444284354 -0.24351217296477509 0.082602393778179545 -0.18686013219991102 0.32893121368686334 0.29042458154420159 -0.02869371038855404 -0.18046600039101951 0.0017039685561834471 0.21401899609800831 -0.21441168237930938 -0.28554500030558727 -0.034560399812463075 -0.047376151590419073 0.072390864026451687 -0.13716566684989223 -0.21807661038399453 -0.080478902639348884 0.19710152380652218 -0.086811315239634923 0.34164626190315173 -0.19679711497770555 -0.1568796245405194 0.24310984005226879 -0.22844239741885236 0.1391591593345575 0.13397984571242622 -0.084755221562172023 0.52385272162950369 0.29974900049489461 -0.10549314017612713 0.14874639635545386 0.48385398004146851 -0.23537772984748992 0.18156787361677876 -0.21576247196234932 0.096904852107415229 -0.078056277903184978 -0.068480725894582428 0.51240181680114072 0.058715019666635219 -0.23285793551715273 0.30935897097564613 -0.30209030219400251 -0.29011528049259255 0.018902821853240524 -0.2393712374025887 0.071956158356325503 0.14945845488457093 0.064131498092585171 0.3506393543463206 0.28471753792154952 -0.21574906023630336 -0.28855923581904142 -0.10990359608659633 0.21684245004988176 -0.064519600396996474 -0.072997595203456528 0.49347476429337533 0.4129758039196163 0.080513105319710426 -0.11953356722601371
leaf_weight=20.155332744121555 4.7865450978279105 60.131099194288254 40.051683485507965 8.515926927328108 4.106536701321601 3.9804609268903723 8.0854258090257698 24.608402237296104 3.9465124458074659 2.5423794537782651 10.029404357075689 1.935134932398795 81.144182056188583 3.4060891419649151 10.008633330464365 6.7512693107128134 3.3318417072296134 4.6263553500175467 2.8726456463336927 46.880391240119934 3.1513588726520529 2.379861816763877 5.6379029750823957 2.5085573345422745 4.281807228922843 113.09623099863529 1.9565284103155125 4.0935619324445716 3.0142634660005552 2.6310515701770774 7.3139046877622604 8.3737310916185432 2.0709897279739371 9.1190123409032804 4.8358612507581702 6.2152788192033794 3.0228596627712268 14.81282716989517 3.5659789741039276 2.2039564698934555 2.1781238913536072 5.0174348056316367 3.7425177693366996 3.2543351948261252 2.1086642891168585 8.4558201134204847 4.3414745777845383 3.08299720287323 2.138007789850235 6.1787152588367453 9.0607941597700101 4.4032939672470084 2.5402799546718589 2.7042479068040839 3.4063259065151197 5.3379838019609451 2.5915639251470557 2.6350146383047095 4.4833138138055801 2.8097285181283951 2.6761662065982819 3.3768655210733414
leaf_count=92 22 367 192 43 19 19 40 141 18 11 52 10 396 17 44 33 17 22 14 223 15 12 26 11 22 497 10 21 13 12 34 38 10 46 22 31 14 71 17 10 10 26 16 15 10 38 22 14 10 29 40 20 12 13 17 24 12 12 20 13 13 16
internal_value=0 -0.108271 0.0294738 0.056078 0.0163176 -0.0200768 -0.0340854 -0.0762061 0.00780978 0.0194536 -0.0161655 0.101715 -0.0159202 -0.00891617 0.0960511 0.0474904 0.077988 0.103533 0.0389476 -0.0537761 0.0652847 0.104261 0.124635 -0.03371 0.0541524 0.123293 -0.157542 0.131338 0.141257 0.0519438 -0.0230766 0.172377 -0.0404688 -0.0642223 0.0177034 -0.01273 -0.044238 0.000923767 0.133978 0.272105 0.265925 -0.0461078 0.016224 -0.0566189 0.00930718 0.108016 -0.0827751 0.25748 0.368493 0.204075 0.253671 0.106957 0.0812562 0.108284 0.000244425 0.0895593 0.183402 0.22971 0.300677 0.17274 -0.109612 0.0260107
internal_weight=0 152.339 490.366 309.17 154.998 92.208 88.2275 67.3407 150.891 142.375 42.7323 20.8869 181.196 107.517 154.173 47.6288 40.8775 149.386 30.7463 59.888 13.0076 37.5457 35.1658 8.14646 47.0097 121.816 11.9859 117.19 18.9517 10.7165 9.85628 27.0193 134.187 95.2806 38.9059 34.6568 29.8209 23.6056 8.7928 5.22682 4.24911 86.1616 27.57 15.3716 12.1173 12.1983 10.591 8.23527 5.15227 23.6132 17.4345 34.8583 30.455 27.9147 11.4486 8.74431 16.4661 13.8746 11.2396 6.75624 6.95797 6.24951
internal_count=3126 832 2294 1414 729 465 446 347 710 667 206 99 880 506 685 223 190 663 144 283 60 173 161 37 227 540 62 518 89 52 45 124 653 468 185 165 143 112 41 24 20 422 123 69 54 54 52 37 23 107 78 161 141 129 54 41 75 63 51 31 35 30
shrinkage=0.2


Tree=3
num_leaves=63
num_cat=0
split_feature=49 25 19 18 13 52 49 18 0 11 50 43 43 11 29 18 51 0 49 29 49 54 54 0 52 11 13 51 52 27 19 49 18 13 52 13 49 44 19 50 54 18 0 56 5 3 0 3 18 44 42 11 3 18 13 42 11 51 11 52 0 3
split_gain=91.2545 20.1571 17.3048 14.2894 12.0156 9.34529 8.45806 11.5141 7.86965 7.11047 6.94917 7.14541 6.66346 8.01743 8.88662 10.6991 6.52112 7.49716 9.27403 6.32948 6.11407 6.03276 6.00523 5.95082 5.91139 5.87765 5.52722 9.06958 5.43619 6.33499 5.43616 5.41862 5.26849 6.8317 5.37547 6.79767 5.21111 5.19571 6.14184 6.69725 6.24203 5.83384 5.43687 5.12969 6.96159 6.20662 5.10456 4.97619 4.78515 6.5437 4.73013 6.1795 4.72586 4.62035 4.58069 8.77882 4.5627 4.65491 5.01336 5.33671 4.37309 4.32525
threshold=0.59162594776748112 0.5904392764857882 0.00017748114520371191 0.99770924175719999 0.00040518638573743931 0.82317533138435894 0.60690817186183665 0.99771092548427076 0.046705140249630926 0.0013242280285035632 0.00015880472012918056 0.038767943276094931 0.038760218847330566 0.0020011876484560573 0.00011752136752136753 0.99770269234427189 0.00099346356681274625 0.16517246007247352 0.62633529907329411 0.00049770198355104033 0.60119629317607426 0.9434441728954458 0.94186720659328904 0.29451751442759361 0.82256774447301384 0.0021318289786223282 0.00010534846029173422 0.00060350590507316361 0.8252380449203387 0.055052657544671389 0.00078674477799257371 0.59459140690817203 0.99770410496274664 2.3458159174272804e-05 0.82062464043769756 5.715260598822827e-05 0.59978096040438078 0.0031890655261899623 0.00022987193101840631 0.00011583744667558143 0.9427065308525252 0.99770216439595305 0.14115554959065899 0.13790882843164731 0.00041768902361218394 0.00053302988123288709 0.15359012213125758 0.00038135172228385863 0.99771652363896701 0.0032853965993181167 0.0025894745867951069 0.00076603325415676969 0.00037898962723705015 0.99771048314919286 0.00013932724842901422 0.0035407225697801632 0.0016567695961995251 0.0010306023917403258 0.0012292161520190026 0.82385629835746077 0.23362635887800295 0.00055445676197192581
decision_type=2 2 2 2 2 2 2 2 2 2 2 2 2 2 2 2 2 2 2 2 2 2 2 2 2 2 2 2 2 2 2 2 2 2 2 2 2 2 2 2 2 2 2 2 2 2 2 2 2 2 2 2 2 2 2 2 2 2 2 2 2 2
left_child=1 2 -1 5 6 23 10 -8 -9 22 20 -12 -7 31 15 -15 48 18 46 30 53 -22 50 24 26 -16 32 -28 -3 -30 -6 -14 34 -34 35 47 -27 -29 -39 42 -41 -42 -40 -19 52 -46 -18 -2 -10 -50 51 -4 -45 -5 -26 -56 57 -33 -59 -60 61 -43
right_child=3 28 9 4 19 12 7 8 16 -11 11 -13 13 14 25 -17 17 43 -20 -21 21 -23 -24 -25 54 36 27 37 29 -31 -32 56 33 -35 -36 -37 -38 38 39 40 41 60 -44 44 45 -47 -48 -49 49 -51 -52 -53 -54 -55 55 -57 -58 58 59 -61 -62 -63
leaf_value=-0.23061774606821814 0.22186799502746335 -0.027248652115497679 -0.14730583867818112 0.12505933669191249 -0.1059322698377545 0.29923443232400265 0.28789673708922231 -0.22451919278791391 -0.23912294585412786 -0.13756817898307125 0.30869060496516698 0.13793152296451486 0.093117784993960007 -0.082389785372572175 0.33690838640043136 0.35680112691090798 0.04701403728079262 0.28508688867043758 0.39276152961685545 0.27106075129235235 0.34766634750006536 0.015826658083364455 0.16896596751122733 -0.15046286917201421 -0.15216807338465099 -0.10336132853955955 0.3827965360027506 -0.28770839834500389 -0.026854328551294861 0.39269510790842022 0.13398353371259061 -0.13715651723744424 -0.050604805519561882 0.14535238171758891 -0.092347837441627167 0.26871729147828377 0.15117786168045491 -0.12631654465454645 0.35710003897804782 -0.30224586880155169 0.21586223784301695 -0.078603967212975634 0.0056760518496623584 0.1365240925069818 0.18988706010238618 -0.18754565171822912 0.30620571813375735 -0.124892049224668 -0.12538019563474165 0.29576774583018117 -0.23762562534813189 0.29926397763447732 -0.11247373462250201 -0.094935553089724095 0.27661810352439853 -0.13921728817536269 -0.18765156201828814 0.22736450302417574 -0.14488022248579652 0.10531582452192119 0.17701704234277685 0.12035459848955295
leaf_weight=79.681378453969955 2.2816694825887698 16.01174104213715 2.7565237581729907 5.6425285041332307 23.658525094389923 4.4844754189252845 7.3550219982862464 4.7054925113916388 5.1574115008115751 25.315457224845886 11.577821329236029 63.910818099975586 16.675580710172653 2.8651944547891643 2.2204351276159313 9.833163768053053 17.801762983202941 2.5127293914556494 5.0389463156461707 2.3949478119611731 4.3603685647249204 4.4054126292467117 7.1583130955696097 12.736658886075018 18.142901942133907 9.085690110921858 2.0790887475013724 3.2576590627431861 2.6758784353733054 3.1159279942512512 4.4956179708242408 7.7920721024274853 9.4212705045938474 29.090215012431145 16.164347469806671 4.8253715783357611 4.9809691011905661 19.257929250597954 3.6388103216886512 2.9789745211601248 4.3807905912399283 29.974487662315369 3.4122565090656281 3.6120401173830059 9.1348462551832181 2.1536222845315924 3.6650604754686347 6.030875563621521 4.3257152736186981 2.2399205565452576 4.0278082937002182 2.2521367967128754 19.557826280593872 11.813734129071234 3.3677810281515104 5.1150650978088379 7.1880886107683173 4.6274012774229076 6.4925630837678892 7.182857483625412 3.7725559026002875 5.1167359650135031
leaf_count=547 11 81 13 25 116 20 34 22 27 131 50 272 76 14 11 43 75 11 21 11 19 21 34 66 89 44 10 16 13 13 21 38 44 132 79 22 22 101 17 14 19 140 17 17 41 11 16 30 20 10 20 10 94 55 15 25 34 20 31 33 18 24
internal_value=0 -0.14422 -0.17607 0.0374571 0.0753051 0.00651037 0.0941185 0.0484368 0.0263953 -0.0713624 0.13331 0.164121 0.0620825 0.0486109 0.132287 0.257704 0.0420958 0.067406 0.148583 -0.0410711 0.0446107 0.180894 0.0321296 -0.0185446 -0.00879347 0.034505 0.00704334 -0.0293109 0.0328136 0.198859 -0.0676228 6.27516e-05 0.0487882 0.0974143 -0.0151204 0.0798971 -0.0132296 -0.0406158 -0.0295182 0.00547292 -0.0222229 -0.00293302 0.187034 0.00920778 -0.0109095 0.11788 0.0912662 -0.0297116 -0.0949513 0.0182979 -0.0762664 0.0534936 -0.0736565 -0.0238248 -0.0954447 0.0258738 -0.0465601 -0.00769507 0.0474206 -0.0134676 -0.027596 -0.0495933
internal_weight=0 142.995 121.192 487.994 219.52 268.474 188.971 87.2604 79.9054 41.5102 101.711 75.4886 83.4285 78.944 28.9855 12.6984 75.1999 63.4768 26.5058 30.5491 26.222 8.76578 16.1948 185.045 172.309 16.2871 145.683 77.8693 21.8035 5.79181 28.1541 49.9586 67.8137 38.5115 29.3023 13.1379 14.0667 75.7902 72.5325 53.2746 46.2235 43.2446 7.05107 36.9711 34.4583 11.2885 21.4668 8.31255 11.723 6.56564 9.03647 5.00866 23.1699 17.4563 26.6257 8.48285 33.283 26.0949 18.3028 13.6754 38.8638 35.0912
internal_count=3126 862 755 2264 989 1275 841 399 365 208 442 322 386 366 134 57 343 286 112 148 120 40 77 889 823 77 694 376 107 26 137 232 318 176 142 63 66 366 350 249 215 201 34 174 163 52 91 41 57 30 43 23 111 80 129 40 156 122 84 64 182 164
shrinkage=0.2


Tree=4
num_leaves=63
num_cat=0
split_feature=23 24 50 0 23 50 58 23 52 44 11 1 1 52 32 52 58 18 18 18 58 0 0 0 11 45 11 58 45 43 0 18 23 58 50 58 50 31 43 43 3 0 45 11 35 45 18 58 14 32 18 8 43 23 45 0 23 14 32 0 11 1
split_gain=70.5826 20.192 11.8562 11.7274 10.99 7.64849 7.34741 7.18442 7.94878 7.09186 6.58862 6.49989 6.12482 8.18172 5.99773 5.98903 5.87418 5.67778 5.54626 9.6167 7.20978 6.53505 5.01299 5.27454 5.18217 6.16143 4.88008 8.48984 7.16413 12.9203 5.77646 5.61493 4.70742 4.85217 5.66134 4.96707 4.66449 4.62253 4.5451 9.3176 4.25359 4.23291 6.25074 6.13811 6.65244 5.66267 4.68396 4.45819 4.23081 4.22583 4.43941 4.98193 7.15837 3.96478 3.92431 3.91564 3.70466 3.67423 3.63238 3.61145 3.56887 3.54266
threshold=0.003749719651568503 0.0035834151964902316 4.5580148190642321e-05 0.14230975707958668 0.0067129797998487038 0.00017448196855143969 1.0650000000000002 0.0038220289290784933 0.81749351320254082 0.0030748722540769107 0.00050475059382422817 0.11870133057835444 0.11718887533083387 0.81213530109306953 0.81587675959780626 0.82243786176370459 4.2900000000000009 0.9977033344435785 0.99770274466347475 0.99770945103401099 1.7050000000000003 0.17911018655214067 0.12832505703932359 0.055636827271507185 0.0021199524940617586 0.74398233333333341 0.0019418052256532068 0.025000000000000005 0.74380427083333334 0.038766833879992288 0.17256744061199841 0.9977125235981007 0.03851654429413149 0.025000000000000005 0.00028044855510930237 0.12500000000000003 7.228953439152826e-05 0.29151061173533088 0.038776749538325848 0.038774420495576202 0.00037734346615288266 0.21213931015971013 0.74387162500000004 0.0031769596199524943 0.018070123523006538 0.74382768750000017 0.9977068921493667 0.54500000000000015 0.81669115971299922 0.81582038391224876 0.99770119411255631 0.014756813661976079 0.038770658195749846 0.0067862342646637696 0.74378616666666686 0.11164273251912497 0.0060481850023633614 0.81925900021218578 0.81582148080438766 0.066856797745269106 0.0013954869358669836 0.11806908706450896
decision_type=2 2 2 2 2 2 2 2 2 2 2 2 2 2 2 2 2 2 2 2 2 2 2 2 2 2 2 2 2 2 2 2 2 2 2 2 2 2 2 2 2 2 2 2 2 2 2 2 2 2 2 2 2 2 2 2 2 2 2 2 2 2
left_child=1 2 -1 -4 5 6 26 -8 -9 10 -6 17 -7 -14 15 37 18 57 20 21 -10 -20 23 24 -11 -26 31 38 29 48 -30 49 33 34 -12 -35 -25 -3 39 -28 -37 42 43 44 56 47 -45 -46 -29 -2 -51 52 54 -24 -52 -48 -15 60 -55 -38 -5 -53
right_child=4 14 3 11 9 12 7 8 16 22 32 -13 13 41 -16 -17 -18 -19 19 -21 -22 -23 53 36 25 -27 27 28 30 -31 -32 -33 -34 35 -36 40 59 -39 -40 -41 -42 -43 -44 46 45 -47 55 -49 -50 50 51 61 -54 58 -56 -57 -58 -59 -60 -61 -62 -63
leaf_value=-0.23169395321481973 -0.2794679493458242 0.1738967270808274 -0.21278840198833837 -0.1287130248232437 -0.15967003947425196 0.2664714035507651 0.38502276622381137 -0.18334554526028118 -0.10502944025679761 -0.11844174923622448 -0.01984398399760828 -0.21852031360796709 -0.25105200985985215 0.012488508089755658 -0.096450791950091042 0.2220955646031659 -0.20800178251132559 0.2653683929716229 0.30240186807285857 -0.12984598710853629 0.24320926163324824 -0.056638699054002623 0.29172116252460706 -0.124642130773645 0.23094931813754746 -0.057278707024262389 -0.1218225750882638 -0.0075140736439725511 0.2762785023416815 -0.22791497179429332 -0.037142438080777211 0.10814372544524904 0.40693403399081102 -0.10745708377854507 0.35958950065786022 -0.12816595030997355 0.24618508746679468 -0.15407969183511422 -0.2510113250292943 0.34147132613380249 0.16867920131668074 -0.1229163900932458 -0.01759270128506743 0.44852508502084487 0.38715983641518353 -0.0008974179119951366 0.3173519489878151 0.041275214534884676 0.36094472807589162 0.043584520981082772 0.032071076252751678 -0.28168118890112309 -0.15709994839774258 0.16793928606770661 0.35444053823463784 0.055585092395171398 -0.25752890086292629 -0.19373993204836501 0.0036097944600457193 0.094821106254819099 0.15306135922822228 -0.11764566335080889
leaf_weight=63.12243077903986 4.9074901044368735 2.7674170285463351 16.34941428154707 2.6060207933187503 2.754564404487609 4.9472602158784857 2.3405248820781699 6.2004144936799994 8.9911551922559756 9.9894004017114657 2.0732686221599597 3.7892842292785636 3.752404421567916 8.6506376862525958 10.490088880062101 7.812682643532753 2.8983222246170035 4.4246636778116217 11.367566347122194 3.5693672597408286 3.233261063694953 2.4680407792329779 2.0535839349031439 3.6168527901172629 5.5484772175550443 6.3755652010440826 8.8726376146078128 2.1844745427370089 8.5434689670801145 6.1609804928302765 3.2457672953605643 5.5719294399023047 2.8715750724077216 4.1068309843540218 6.5177209973335266 2.1786187887191799 6.8762307167053214 4.5368983894586563 5.7069312930107108 2.1589105129241934 16.980505988001823 5.0206231325864783 21.106235355138779 3.0439245253801337 4.7908145487308484 4.9157341867685318 3.8820860236883146 2.1638211905956268 2.9032239764928818 8.9577542841434461 4.3773382753133756 6.2137841135263434 6.0401351451873779 5.6493434458971015 2.3063176423311234 5.5588074326515198 2.6566533446311942 2.9500256031751624 113.04969997704029 75.922080844640732 5.798810638487339 34.541646644473076
leaf_count=513 25 12 91 13 13 21 11 32 47 49 10 21 18 38 60 36 16 21 51 17 15 12 10 18 24 30 46 11 39 30 17 26 12 18 27 10 29 23 28 10 74 26 95 13 20 22 16 10 13 45 20 31 30 25 10 24 12 17 540 330 30 173
internal_value=0 -0.138564 -0.179495 -0.0877613 0.0299663 -0.00266276 -0.0276713 0.04475 0.0241857 0.0574158 0.138062 0.0166969 0.0518897 0.0356925 0.019744 0.100375 0.0637452 0.0731818 0.0903273 0.162845 -0.0129231 0.238355 0.0442201 0.0754565 -0.0121811 0.0768391 -0.0540638 0.0022864 0.081046 -0.0331319 0.189989 -0.0848032 0.161678 0.13957 0.268021 0.09214 0.0976799 -0.0298179 -0.106114 -0.0311544 0.134924 0.0531062 0.0686737 0.119729 0.0588317 0.163408 0.232783 0.279543 0.202742 -0.100767 -0.0867215 -0.108548 0.00070211 0.0161976 0.143311 0.163223 -0.0509522 -0.00170788 0.0114309 0.107392 0.0656938 -0.142655
internal_weight=0 124.648 99.0407 35.9182 490.815 224.25 153.761 41.0687 38.7281 266.564 37.4831 19.5688 70.489 65.5417 25.6071 15.117 32.5277 15.7795 29.6294 17.405 12.2244 13.8356 229.081 108.329 21.9134 11.924 112.693 39.7764 23.0379 11.2487 11.7892 72.9164 34.7285 31.8569 8.59099 23.266 86.4152 7.30432 16.7385 11.0315 19.1591 61.7893 56.7687 35.6625 23.1777 11.8704 12.4848 6.95464 5.0877 67.3445 62.437 53.4792 12.7238 120.753 6.68366 9.44089 11.3073 11.3549 118.699 82.7983 8.40483 40.7554
internal_count=3126 837 706 193 2289 1070 755 201 190 1219 164 102 315 294 131 71 158 81 142 80 62 63 1055 480 103 54 554 194 110 54 56 360 151 139 37 102 377 35 84 56 84 276 250 155 102 52 53 30 24 334 309 264 60 575 30 40 50 60 565 359 43 204
shrinkage=0.2


Tree=5
num_leaves=63
num_cat=0
split_feature=23 24 23 13 30 58 0 9 33 15 51 51 19 32 51 32 53 5 13 23 32 53 32 30 30 29 15 32 32 5 51 0 0 32 0 30 58 12 19 29 32 32 12 58 30 13 51 29 51 19 56 0 51 23 58 13 58 30 13 58 12 15
split_gain=51.3622 18.1333 8.03302 9.85948 7.97123 9.24248 6.98964 6.14525 6.11899 5.49042 5.2016 4.88397 5.74578 4.65218 4.47088 5.80743 9.35452 6.0088 4.97444 6.01816 5.78789 5.02679 6.15007 7.26953 4.93761 4.40551 4.89927 4.38878 5.7083 4.31426 4.0138 4.54668 5.54483 4.33922 4.0075 4.12459 4.52233 9.35013 4.37903 5.98209 3.99624 4.8691 3.98825 3.841 4.2074 3.8205 4.96355 5.16344 4.95412 4.8494 6.40385 4.99802 4.56874 4.54601 6.32855 6.47274 4.44822 6.10017 5.18072 5.74021 4.08722 4.56757
threshold=0.0036687616653499023 0.0035834151964902316 0.0068712031752495009 0.00040518638573743931 4.6212353121247091e-05 0.49500000000000005 0.27977452690913979 0.18042075648148878 0.399036646799311 0.17755039742641451 0.012255812226101169 0.001791948302755701 0.00021633273917865382 0.81598032449725788 0.0023490306766693904 0.81583388939670953 0.97193571554088642 0.00059261068485171422 6.4545480394665765e-05 0.0060481850023633614 0.81589659506398549 0.97162533330277268 0.81586236288848268 0.00013098405820990421 6.9760048979207405e-05 5.9063054346073221e-05 0.17919484461038124 0.81584092778793427 0.81585738117001838 0.00043536577407072267 0.0027389883384089735 0.15432827808347874 0.19910750234867805 0.81610098263254127 0.24864447725137565 0.00016983775637553872 1.7050000000000003 0.11749820688295397 0.00021574407866388197 0.00018535316884373489 0.81583644881170037 0.81586151736745893 0.11718233661509798 0.39500000000000007 0.00024460169072456267 4.6205465040234303e-05 0.0014576988784074875 0.00026175213675213682 0.0016062541781178047 0.00034760403397277577 0.13888491052840243 0.1459200107368139 0.0049858872465275211 0.012493524977225884 0.71500000000000008 3.7675225340498744e-05 0.80500000000000016 0.00065550898344596991 1.3506212857914641e-05 0.38500000000000006 0.12714935130910121 0.1781763293531988
decision_type=2 2 2 2 2 2 2 2 2 2 2 2 2 2 2 2 2 2 2 2 2 2 2 2 2 2 2 2 2 2 2 2 2 2 2 2 2 2 2 2 2 2 2 2 2 2 2 2 2 2 2 2 2 2 2 2 2 2 2 2 2 2
left_child=1 4 6 10 -1 -6 14 -8 -3 -9 45 -7 -13 27 15 16 34 18 19 20 40 -20 -23 29 -16 -25 -27 -5 -29 -24 31 -26 -33 -32 35 36 38 -38 -2 42 -17 -42 -40 44 -30 52 47 49 -48 50 -47 -52 53 54 -4 -56 57 58 59 -55 61 -50
right_child=2 8 3 13 5 11 7 9 -10 -11 -12 12 -14 -15 24 17 -18 -19 21 -21 -22 22 23 25 30 26 -28 28 43 -31 33 32 -34 -35 -36 -37 37 -39 39 -41 41 -43 -44 -45 -46 46 48 -49 60 -51 51 -53 -54 56 55 -57 -58 -59 -60 -61 -62 -63
leaf_value=-0.22389320179928687 -0.1701641560323362 0.12636131155394226 0.12391993731086109 0.19242865121017069 -0.19323780435282531 -0.1154787468665865 -0.25310727907654035 -0.13831425402000921 -0.072433311487270433 0.23067953947972228 0.19720833998247175 0.28968234800989584 -0.10265469838611847 0.15300582185351358 -0.2818235131116954 -0.2231646806204157 0.29613097812775785 0.25828100680107097 0.18717918084860141 -0.19627755993242732 0.21595570741356354 -0.18296267217298642 -0.056731876870254584 -0.28669027109292483 0.2197303313277526 -0.21364015734181643 0.046289905558478617 -0.27398963579532831 0.081420950363345748 0.25864156729916971 0.037306502083226514 -0.17551217660940011 0.17750112154247544 -0.21995530916845094 0.26051748901520572 0.1722866297691785 -0.12664153696479516 0.3058007191864468 -0.067287199594940797 -0.22264812796176037 0.062896375936497773 -0.10534758585924416 0.22408592846816147 -0.22947001249551904 -0.084408052113626661 0.091107829513222341 0.22919884720687334 0.1709111881701765 -0.010054520085996973 -0.16960401130286196 0.076678313300773487 -0.21787496181725086 -0.10998018626083479 0.08642226056588341 -0.11442263883406563 0.19645337935778767 0.28377167290275257 0.33664687218490497 0.15432472718935245 -0.31284357091327619 0.30192914344591282 0.082393402756559
leaf_weight=53.093149155378342 10.993084505200391 11.09953808784485 25.914409413933754 2.4827922433614722 14.364593997597696 4.3150657266378385 8.1878065764904004 4.1804129779338828 14.011889547109602 2.6263096332550049 11.121292412281035 4.4310599192976952 2.2519200593233109 4.389380306005477 1.8372284621000279 3.1229247897863379 5.222771242260932 2.5786298811435691 2.3959043473005286 5.7649948149919501 5.3499614447355262 23.255654409527779 2.9333015233278301 4.2489090412855175 10.280848927795889 4.6274172365665418 7.7724034637212753 5.2999784201383582 9.9764189869165474 4.2474627792835236 58.643282480537891 3.3499679118394843 3.7971277981996536 2.7453036457300177 2.3897040188312522 4.4513108134269705 3.9091987013816816 4.0949502438306808 3.2073793858289701 3.1726236492395401 23.430077031254768 9.7413753867149335 4.5372755080461502 4.0649442374706259 15.832389891147612 12.98062387108803 6.5327969491481772 4.7399519830942145 38.318472355604172 9.8892553895711881 3.4563412517309171 6.912901446223259 4.1362961232662192 3.1990868598222795 11.222920477390288 3.5190274268388739 9.1395198553800565 3.7936135232448569 8.055360943078993 2.6199042499065399 2.4798740148544303 48.351762354373932
leaf_count=512 60 54 117 12 89 22 47 22 77 13 48 21 12 20 10 16 25 13 12 28 24 125 14 21 46 23 38 28 47 20 272 17 20 14 11 19 21 18 15 16 112 48 20 21 79 59 30 22 172 47 15 37 19 15 52 15 39 16 35 12 11 211
internal_value=0 -0.132486 0.0223793 0.0467702 -0.179832 -0.0875954 -0.00420626 -0.136368 0.0154362 0.00405852 0.0639903 0.0503845 0.157479 -0.0418507 0.00471624 -0.016711 0.0456706 -0.0430375 -0.0510567 -0.00476013 0.0217524 -0.095415 -0.109795 -0.0383886 0.0422944 -0.110936 -0.0507119 -0.0645639 -0.0827042 0.129813 0.0498497 0.134557 0.0120377 0.0258017 0.0100815 -0.00733317 -0.0340608 0.0945974 -0.0810614 0.00866015 -0.00687407 0.0134886 0.103416 -0.0487677 -0.0203067 0.0567724 0.0368019 -0.0243722 0.0610835 -0.0522199 -0.00250474 -0.119693 0.094053 0.106563 0.0644052 -0.0402139 0.170499 0.111903 0.0504523 -0.0933406 0.0487643 0.0415205
internal_weight=0 103.567 495.525 258.429 78.4558 25.3626 237.096 14.9945 25.1114 6.80672 216.383 10.998 6.68298 42.0459 222.101 141.447 41.9783 99.469 96.8904 47.4093 41.6443 49.4811 47.0851 23.8295 80.6538 16.6487 12.3998 37.6565 35.1737 7.18076 78.8165 17.4279 7.1471 61.3886 36.7555 34.3658 29.9145 8.00415 21.9104 10.9173 36.2944 33.1715 7.74465 29.8738 25.8088 205.262 133.662 37.9791 95.6829 33.2391 23.3499 10.3692 71.6001 67.4638 40.6564 14.7419 26.8075 17.668 13.8744 5.81899 89.1501 86.6702
internal_count=3126 787 2339 1179 656 144 1160 82 131 35 972 55 33 207 1078 699 205 494 481 228 200 253 241 116 379 82 61 187 175 34 369 83 37 286 180 169 150 39 111 51 176 160 35 147 126 924 604 180 424 158 111 52 320 301 184 67 117 78 62 27 394 383
shrinkage=0.2


Tree=6
num_leaves=63
num_cat=0
split_feature=49 49 49 13 54 49 54 49 29 54 49 32 5 13 30 0 54 46 29 43 30 43 30 12 30 30 32 46 44 49 5 30 0 0 29 14 54 56 5 46 13 0 49 58 35 14 12 32 43 32 49 43 41 46 32 44 5 41 0 12 58 5
split_gain=36.8465 11.6148 10.2281 5.32604 7.52473 6.72067 8.25586 4.90112 4.78428 4.85894 4.71599 5.65766 4.60692 4.34684 4.30324 4.83834 5.40298 6.2319 5.12602 5.58509 5.23717 4.36559 4.1045 4.03611 7.1263 5.77198 5.02595 4.26554 4.70136 4.26509 9.9539 5.06687 6.70221 5.64074 4.4002 3.86404 3.7419 3.60403 4.22176 5.55219 4.83117 3.39047 5.59132 3.36794 6.03791 6.79849 5.14164 4.92411 4.62563 4.96086 4.05779 4.58796 7.2085 8.34292 5.27942 5.01467 4.57772 4.5488 5.13952 4.04867 3.99615 3.95205
threshold=0.59162594776748112 0.58675652906486953 0.59004212299915759 0.00025306377775882174 0.94387052464455834 0.59546756529064881 0.94445118361667602 0.70328559393428824 0.00014886711820674087 0.9433630055122465 0.64547598989048027 0.81585738117001838 0.00039610385815351382 0.00036537860047200667 0.00019279675983704998 0.19490672392967387 0.94880657188219142 0.011454132960862605 0.0001813215610385422 0.038774751247209291 0.0002098688393340712 0.038766833879992288 0.00067876233310570574 0.11910471904144439 0.00021928791767725531 0.00021163491652341821 0.8158793190127972 0.011023340292481653 0.0036433425868364175 0.60203875315922495 0.00039579946446191479 0.00067876233310570574 0.046705140249630926 0.039860421419943635 0.001047714078374456 0.82171288910544071 0.9481830993453092 0.13805827640818399 0.00047846548565161194 0.010678920032311507 0.00013932724842901422 0.085156354851697771 0.60062342038753169 1.0750000000000004 0.01866635379411908 0.82310584925381347 0.11744992098213522 0.81592330895795262 0.038761052617072307 0.8158135511882999 0.59240101095197983 0.038777466166864206 0.036422904232979669 0.010856435896043815 0.81586263711151741 0.0031331389031673813 0.00039348363725622942 0.036410290948275872 0.254113541806469 0.1197445072272928 0.65500000000000014 0.00038522848034006378
decision_type=2 2 2 2 2 2 2 2 2 2 2 2 2 2 2 2 2 2 2 2 2 2 2 2 2 2 2 2 2 2 2 2 2 2 2 2 2 2 2 2 2 2 2 2 2 2 2 2 2 2 2 2 2 2 2 2 2 2 2 2 2 2
left_child=1 -1 -3 14 8 -6 35 10 9 13 11 -8 -4 -5 36 16 17 21 20 -20 -17 -16 -13 25 -25 26 -23 -26 -29 31 -31 32 33 -27 41 -7 43 38 39 -14 -40 -34 -43 46 45 59 48 50 49 -2 -48 54 -53 -54 56 -56 57 58 61 -45 -55 -52
right_child=3 2 12 4 5 6 7 -9 -10 -11 -12 22 37 -15 15 18 -18 -19 19 -21 -22 23 -24 24 27 29 -28 28 -30 30 -32 -33 34 -35 -36 -37 -38 -39 40 -41 -42 42 -44 44 -46 -47 47 -49 -50 -51 51 52 53 60 55 -57 -58 -59 -60 -61 -62 -63
leaf_value=-0.0077598743635177159 -0.11971893687666249 -0.21484394782501118 -0.22576013866179434 0.23666401210719978 -0.23040523063983984 0.28091709590241143 -0.14804809263044644 0.24423580870868383 -0.23429725913671798 -0.1562778732488514 -0.18140140897688881 0.012042876270676066 -0.0012080654503094309 -0.067853368354027485 0.19101981866748727 0.16672967347527134 0.33011259010676319 -0.15992274732371148 -0.055826741905935812 0.28731274620869079 -0.1883754635597443 0.32746877785521372 0.23794902947116892 -0.14737346099422236 0.27031861931884488 0.11970410909040588 0.013250273368004013 -0.075450968278614639 0.23293001349857445 0.073060116465553313 -0.12936028415531708 0.17423763594182035 0.11128068368774874 -0.19910835885900699 0.30952110002557465 0.058928745265675597 -0.17074135169556617 -0.17045319939179315 -0.26333808167668654 0.29302016681361298 0.12019622401660131 -0.21306094773273718 0.161352541870979 0.037432404190328804 0.25937102041206656 0.342757601860043 0.14569667485080287 0.2591420091342061 -0.18404506521979677 0.21637978153022031 0.46279802360824357 -0.22240090327447512 -0.11028118058031383 0.2217428883816536 -0.10978819889664225 0.2308483741965692 -0.022699205487220295 -0.056065150102157735 -0.0089885707336671925 -0.16449280941874661 -0.085942279039457725 0.16067887534479741
leaf_weight=31.748711839318275 4.1151856780052212 43.89032456278801 6.031924031674861 3.3104030638933244 4.3955748975276938 6.3858268409967405 8.5078795328736287 2.970820225775241 8.8780093938112241 8.3969075232744199 6.3766213357448569 39.420341432094574 11.993841268122202 4.324408270418644 11.223718255758284 2.026039361953738 3.1112665981054297 4.8129334002733222 4.5783661752939215 3.2401202768087387 9.2275180593132955 5.0303069651126844 3.5029708445072165 2.9862422496080425 10.361120074987413 3.1580312699079496 3.4208817780017853 4.0448412597179404 3.8689265847206116 20.744695052504539 18.280074208974838 12.938962429761885 13.355632469058042 7.4723970144987106 3.0926093757152548 6.1639690846204758 4.3651652410626403 5.9224221855401984 3.9864000231027594 3.2634310126304618 1.9594679027795789 3.9938477724790564 2.6566446274518967 46.447795435786247 5.3617790490388861 2.7548886835575095 8.0597936287522298 3.2002025842666617 10.627310179173945 3.0649919509887695 2.2444421052932757 8.6872149929404276 12.72923953831196 6.5672304630279523 2.2076440751552564 7.9682870209217072 63.570768967270851 6.6099846363067618 5.7040254548192015 4.3432280495762816 2.2727961242198944 7.5842689424753189
leaf_count=176 22 498 39 15 24 28 49 15 44 42 34 189 62 23 49 10 13 22 21 15 45 21 15 14 43 14 16 17 17 93 82 57 57 35 13 29 25 37 24 16 10 17 11 220 24 12 40 14 55 13 10 46 61 29 12 36 323 34 30 23 10 36
internal_value=0 -0.109559 -0.151508 0.0194811 -0.0208549 0.00980263 0.0242016 -0.00629267 -0.116513 -0.0512873 -0.0191677 0.000946653 -0.0676696 0.0641833 0.0306064 0.0562555 0.0696184 0.0634524 -0.0380192 0.0863764 -0.124444 0.0719425 0.0304791 0.0603616 0.139067 0.0425872 0.200279 0.185873 0.075312 0.0270353 -0.0217581 0.0678374 0.0270208 -0.104397 0.0875016 0.171885 0.0125716 -0.0325149 0.0060138 0.0617254 -0.136944 0.0531811 -0.0634955 0.0163087 0.0570243 0.0367625 0.000856069 0.0139604 -0.100259 0.023751 0.00811392 -0.000676609 -0.0685781 -0.00662462 0.0207487 0.156948 0.00457907 0.0828938 0.142028 0.0201654 0.142636 0.22967
internal_weight=0 108.797 77.0478 474.745 102.634 77.724 73.3284 60.7786 24.9097 16.0317 57.8078 51.4312 33.1575 7.63481 372.111 153.625 134.553 131.442 19.072 7.81849 11.2536 126.629 42.9233 115.405 21.2611 94.1441 8.45119 18.2749 7.91377 85.6929 39.0248 46.6681 33.7292 10.6304 23.0987 12.5498 218.486 27.1256 21.2031 15.2573 5.94587 20.0061 6.65049 214.121 58.9077 53.5459 155.213 137.406 17.8075 7.18018 134.206 126.146 30.2565 21.5693 95.8894 10.1759 85.7135 22.1427 15.5327 50.791 8.84003 9.82871
internal_count=3126 862 686 2264 507 383 359 302 124 80 287 253 188 38 1757 682 591 578 91 36 55 556 204 507 91 416 37 77 34 379 175 204 147 49 98 57 1075 149 112 78 34 85 28 1050 279 255 771 681 90 35 667 627 146 100 481 48 433 110 76 243 39 46
shrinkage=0.2


Tree=7
num_leaves=63
num_cat=0
split_feature=23 25 30 18 58 54 51 58 19 58 23 56 20 51 51 11 11 51 35 23 3 58 18 19 30 18 51 3 58 18 5 19 30 54 18 35 18 23 30 11 35 45 11 54 54 45 51 54 18 23 45 51 51 18 18 37 22 34 11 23 23 20
split_gain=28.8478 11.3626 8.27908 5.56177 4.98758 4.93369 5.32964 4.83817 7.1237 4.50306 6.40195 4.80354 5.59467 5.15829 4.7229 6.90454 4.75121 4.69015 5.88879 4.34909 4.2124 5.49018 4.59841 5.17312 4.29226 4.06007 3.67548 4.05607 3.59133 3.56625 3.52651 5.67187 4.53796 5.05537 4.23856 8.50561 5.66276 4.44354 5.16177 4.0859 5.44276 5.60016 4.66525 4.79313 5.23368 4.10686 3.81881 5.1614 4.39524 3.77935 3.38331 5.72675 4.4048 3.62874 6.18823 3.34464 5.01298 4.04709 3.29681 3.45278 5.91103 7.95376
threshold=0.0037390826213787504 0.51356589147286835 4.6212353121247091e-05 0.99770903723668003 0.38500000000000006 0.94627343596696234 0.003537473074351928 1.385 0.00044944230302830529 1.2450000000000003 0.0047002793425171335 0.13919470372976489 0.81995247907200652 0.0049301790091361517 0.011902993389289166 0.0043942992874109266 0.0033432304038004752 0.0013834212285523289 0.018141444592660757 0.0047277583371739948 0.00037687591744258651 3.7450000000000006 0.99770074702118727 0.00018925435549914884 8.977559045847366e-05 0.9977169088985508 0.0027018495134813942 0.00042231580772448917 2.2050000000000005 0.99770693971227831 0.00043754036260350607 0.00024635442543201802 0.00013804836696729229 0.94577751217510764 0.99771198138090855 0.018074400475319677 0.99771417878742474 0.0068298842877214418 0.00016807167918619169 0.002630641330166271 0.018395749865333804 0.74396431250000017 0.0009204275534441807 0.94382414328273023 0.94340314322921326 0.74379635416666678 0.0024975859763797076 0.94458051626023531 0.99771366510797943 0.0063126709381035925 0.74378856250000014 0.0024604471514521283 0.00058493649260937396 0.99773080202503095 0.99771919667459907 0.000444418225080133 0.69480519480519487 0.3257158869112366 0.0024406175771971498 0.026855856663608704 0.0087941696067215715 0.82209297547344828
decision_type=2 2 2 2 2 2 2 2 2 2 2 2 2 2 2 2 2 2 2 2 2 2 2 2 2 2 2 2 2 2 2 2 2 2 2 2 2 2 2 2 2 2 2 2 2 2 2 2 2 2 2 2 2 2 2 2 2 2 2 2 2 2
left_child=1 2 -1 9 -4 7 -7 30 25 10 11 12 -2 -14 15 16 19 18 -13 -12 -11 22 -22 -24 -23 -9 -19 -28 -6 -18 34 -32 -33 39 35 37 -36 49 -39 42 41 -41 -34 44 45 -44 47 -45 -49 -5 52 53 -38 54 -52 56 -3 -58 -53 60 -60 -62
right_child=3 55 4 5 28 6 -8 8 -10 20 14 17 13 -15 -16 -17 29 26 -20 -21 21 24 23 -25 -26 -27 27 -29 -30 -31 31 32 33 -35 36 -37 50 38 -40 40 -42 -43 43 46 -46 -47 -48 48 -50 -51 51 58 -54 -55 -56 -57 57 -59 59 -61 61 -63
leaf_value=-0.21004138838098149 -0.23462116386279053 0.14854898414938167 -0.15268714650609619 0.024031002204157555 0.054911036356781844 -0.065602774282887438 0.12095272892975524 -0.25154410467579297 0.12836591765343031 0.36677194308462108 0.35050674307163465 -0.17175885092959092 -0.097402551194250064 0.15823625801848054 0.18119457272926731 -0.1696512290764936 0.20968153794280481 -0.17483289264109489 0.21919030517186761 -0.005226736905824589 -0.13406964713125455 -0.27727505597893842 0.41149551295367348 0.083985791597830387 0.019015462953952237 0.040724594112519441 0.22067025317298761 -0.16879847980654827 -0.20174848648580382 -0.043071157091453233 -0.25320908174688761 0.26438025223003975 -0.18303354500725216 0.28458646048115183 -0.057776081963200346 0.26797931545528497 -0.13986088270643537 0.35061422662637565 0.010290896449388407 0.1702016065736201 -0.14836980785792717 -0.21443781703388667 -0.02564008944341736 0.36620630531283671 -0.1627828697309604 0.24723219840059152 -0.0656299114640507 -0.080372943868720764 0.29094812201196679 -0.29688041223295319 0.027151196947027043 0.28250480515642645 0.16115361911240608 0.098992974790650945 -0.24331813341233516 -0.095239774059467763 0.18758840322121131 -0.17376830932905557 0.15768103093109551 0.29005407031745106 0.13710781561651783 -0.30304909813021963
leaf_weight=38.297244697809219 10.773455969989298 10.185069128870969 14.730872549116613 5.5093578100204486 12.604883745312689 29.831824243068695 7.7082837969064704 6.4491458088159543 5.168639361858367 1.6768906116485585 1.3895820528268803 2.0422038882970828 25.855381853878502 3.5964435189962378 5.8641883581876746 9.1976318359374982 7.6998143792152387 6.3077255114912969 6.2814609259366989 128.3733342140913 3.5145223289728191 3.3452583402395231 2.0880688279867199 25.34582843631506 4.7084152474999428 2.6959763467311859 2.6377951800823212 1.7991176098585127 2.6369319111108771 3.1450081467628479 2.8500858247280112 3.2771029323339453 2.9860810041427639 2.7702901214361182 13.621740229427813 13.048967167735098 2.1068136841058758 3.1493240892887115 4.1080851405858994 5.6506509482860592 11.936770416796206 2.0682933479547501 5.124764025211336 5.0612538307905179 5.0366309881210318 3.8740019500255585 2.2417040616273871 2.9119093716144562 2.2684123516082764 2.0011216402053833 8.0849018841981906 4.0170114040374783 25.241650268435478 6.0987712591886512 5.8190905451774588 8.1074340194463712 1.6880386173725117 4.6681622415781021 8.1198619455099124 2.6851255297660819 3.0848968625068656 3.5113444030284882
leaf_count=509 62 52 102 25 67 150 35 33 23 8 6 12 140 17 25 42 34 37 32 632 20 20 9 118 26 14 12 10 14 15 15 14 14 12 61 56 10 13 18 25 60 11 23 22 24 17 11 14 11 10 37 17 114 28 28 50 10 23 36 12 13 16
internal_value=0 -0.106402 -0.148427 0.0154332 -0.0696989 0.0387371 -0.0272965 0.0523142 -0.0593118 -0.0046325 -0.0161795 -0.0721041 -0.111297 -0.0661858 0.00512177 -0.00177067 0.00921097 0.010576 0.123271 -0.00141732 0.0563864 0.0430414 0.0813201 0.108913 -0.104055 -0.165383 -0.0767269 0.0627451 0.0105073 0.136383 0.0618098 0.0219183 0.0361217 0.0217174 0.0828248 0.150327 0.0600347 0.0463692 0.157973 0.00690419 -0.0637386 0.0671374 0.0539655 0.0806523 0.000463212 0.0918324 0.170812 0.222565 0.0822249 -0.0614739 0.0833704 0.0473243 0.137965 -0.0296279 -0.0860455 0.00999279 0.0615708 -0.0778015 0.119191 0.0814904 0.0434355 -0.0971987
internal_weight=0 92.9186 68.2699 475.762 29.9727 220.12 37.5401 182.58 14.3138 255.642 214.963 59.2936 40.2253 29.4518 155.67 149.805 140.608 19.0683 8.32366 129.763 40.679 39.0021 30.9484 27.4339 8.05367 9.14512 10.7446 4.43691 15.2418 10.8448 168.266 58.058 55.2079 51.9308 110.208 27.8169 82.3912 14.7679 7.25741 49.1605 19.6557 7.71894 29.5048 26.5187 14.0354 8.99877 12.4833 10.2416 5.18032 7.51048 68.7695 41.421 27.3485 20.0028 13.904 24.6487 16.5413 6.3562 21.4182 17.4012 14.7161 6.59624
internal_count=3126 827 692 2299 183 1022 185 837 70 1277 1076 322 219 157 754 729 687 103 44 638 201 193 147 127 46 47 59 22 81 49 767 273 258 244 494 122 372 66 31 232 96 36 136 122 64 40 58 47 25 35 311 187 124 93 65 135 85 33 94 77 65 29
shrinkage=0.2


Tree=8
num_leaves=63
num_cat=0
split_feature=23 47 30 21 43 49 49 30 52 23 5 29 8 12 43 45 51 46 29 23 20 14 15 49 11 29 21 12 44 46 52 45 46 21 21 57 58 57 23 23 9 58 9 49 11 5 9 57 58 43 14 43 23 29 12 23 45 11 43 29 58 49
split_gain=20.6291 9.99286 8.55583 4.43329 3.95914 3.38964 4.77608 3.58809 3.54887 6.04798 4.6404 5.49949 5.95759 6.98088 5.00616 5.22271 6.42307 4.97085 4.19093 3.98868 5.1082 4.70656 6.41078 3.8568 3.71733 3.55963 4.09754 3.48403 4.27513 4.26372 3.84952 3.46859 3.38952 3.37206 7.46132 4.55816 3.97856 5.93398 4.85054 3.7526 3.70009 3.50866 5.75348 3.33905 3.29496 3.75495 4.2497 6.23366 5.26906 4.69807 4.48068 4.71273 4.47998 3.16378 3.14757 4.14949 3.48891 3.83528 5.64773 3.95843 3.88416 3.2396
threshold=0.0037390826213787504 0.060301507537688447 4.6212353121247091e-05 0.15793131643499594 0.038764787354262566 0.70328559393428824 0.67363100252738006 0.00038529917347587545 0.82303884446949171 0.14650390985299097 0.00049492222619422173 0.00010250362844702469 0.014734779431705187 0.1182224953952352 0.038764277445494898 0.74384022916666692 0.0045216519349327794 0.010841958235238957 0.00015249556523141432 0.0050734569209974064 0.82259122609277602 0.83153433872704274 0.18412525095981122 0.59169334456613321 0.00044536817102137769 6.8033381712627006e-05 0.15531479967293543 0.12339763741111119 0.004428187330006857 0.012226795846885576 0.82247235039273014 0.74379727083333347 0.01080189788971642 0.15580539656582176 0.15596892886345057 0.00059755709927596058 0.51500000000000012 0.00026580874178086175 0.0053994828757820352 0.027562440493602864 0.17784112788513681 1.0150000000000003 0.17276242268972944 0.61167649536647006 0.00093230403800475072 0.00049685817007279166 0.18309861922088541 0.00043063573505652 0.49500000000000005 0.038788353408119959 0.82191132207439077 0.038775178468068695 0.0038381901627922055 0.00019381954523463958 0.12120163488012521 0.0053681055956596854 0.74377845833333345 0.0025000000000000005 0.038773504037926197 0.00010905499113046285 0.38500000000000006 0.5963437236731256
decision_type=2 2 2 2 2 2 2 2 2 2 2 2 2 2 2 2 2 2 2 2 2 2 2 2 2 2 2 2 2 2 2 2 2 2 2 2 2 2 2 2 2 2 2 2 2 2 2 2 2 2 2 2 2 2 2 2 2 2 2 2 2 2
left_child=1 2 -1 5 -4 6 8 -7 9 19 11 17 -13 31 -15 18 -17 32 -16 21 23 22 44 -21 -25 -22 -27 28 30 -29 33 -14 43 36 -35 40 -26 41 -39 -40 -36 42 -38 -10 53 46 47 49 -48 52 -49 -52 -46 -2 -12 -56 -57 59 -59 -58 -61 -62
right_child=3 -3 4 -5 -6 7 -8 -9 10 -11 54 12 13 14 15 16 -18 -19 -20 20 25 -23 -24 24 27 26 -28 29 -30 -31 -32 -33 -34 34 35 -37 37 38 39 -41 -42 -43 -44 -45 45 -47 48 50 -50 -51 51 -53 -54 -55 55 56 57 58 -60 60 61 -63
leaf_value=-0.20971314723231096 0.19464653551136027 0.012497269353257817 0.047403206891386183 -0.26536170318584773 -0.11101251958649522 0.019126414814585675 -0.23491882150569837 0.35335724075974773 0.065148886311569051 0.30582753432909821 -0.1608814671121124 0.12312748049507725 -0.23194163778032872 0.25185939091726689 -0.1464572835311144 0.25778675082983787 -0.070418305675906553 0.20222903235145903 0.023235257087093161 -0.11480305036545545 -0.27749170439963766 -0.20510559139048007 0.2573734831701941 -0.22333594656831984 0.03892231796352507 0.23796904972170696 -0.09125656414291379 -0.19464083186589273 0.24411450249677752 0.0050252909798239667 0.21849420019312032 -0.0064959473296411583 -0.13541075878500428 0.26653286498699974 0.040886217084841976 0.24086665196954726 -0.25778929649962562 0.14574183434986268 -0.2055240263521482 0.082236651023897891 -0.30543358142179639 0.12030614410307071 0.04287171037714152 0.32727445532084426 0.28531734700421157 0.14590307174754011 -0.18707845736410816 -0.26358993301661254 0.22297120179267294 -0.16870867791862892 -0.15711757184318217 0.23368556759777181 -0.020682637202457096 -0.081622993848199779 -0.26620440855916899 0.31265831520706672 -0.2777280867216419 -0.097061046891710898 0.27438867912404225 -0.12717986039143367 -0.062661356806651372 0.24515671505134085
leaf_weight=31.924162704497576 4.4715751782059661 24.671030975878239 9.3786661475896853 2.2914333790540686 19.289720132946968 2.761149436235427 3.119698926806449 2.4028543084859848 23.468533389270313 2.5928875207900992 5.9166264683008221 17.319566771388054 7.3499189019203168 3.6322843730449668 9.7656967565417307 5.9793613851070386 3.9678966850042343 15.981582306325434 14.414683081209658 8.09193606674671 3.3879141807556179 6.2917740494012824 3.083395689725875 2.3658384382724753 120.02032262831926 1.7435087710618962 11.395686760544775 5.7037628293037441 3.938521370291709 17.113949559628963 4.3871468454599372 4.3426785990595818 3.0739935636520377 7.1089822798967344 2.5469370037317276 1.8537501022219656 3.4526003897190121 2.3289392814040211 12.765237070620058 2.1127325892448416 2.393830806016922 10.181952461600302 9.6940233409404737 2.1194053888320914 2.051099285483363 3.6489141881465903 1.8019454702734936 10.341793872416021 4.1182985678315163 8.4412183016538602 4.4093090593814841 1.7141183316707609 28.586700022220612 2.6351834833621979 2.1045991182327297 1.5947581827640558 2.6109914034605053 2.711357705295085 4.1333380937576294 5.2289374396204931 2.4001118317246437 3.1791041493415833
leaf_count=510 22 134 51 14 132 13 18 11 111 11 30 80 42 16 50 26 18 75 67 41 19 34 16 11 560 8 59 31 19 89 20 21 15 32 12 10 17 11 64 10 12 46 43 10 11 20 10 64 20 42 30 8 148 15 12 7 14 14 18 26 12 14
internal_value=0 -0.094805 -0.138495 0.0121462 -0.0591879 0.0135097 0.0117054 0.174647 0.0133851 0.00162808 0.0397436 0.0585134 0.0221805 -0.0131738 0.0286411 0.0048834 0.126868 0.112855 -0.0452982 -0.000882414 0.0124649 -0.0389289 -0.0250444 0.0206624 0.0259333 -0.0947019 -0.0475699 0.0288016 0.0380002 -0.0448854 0.0334612 -0.14821 0.0630217 0.0288081 0.123297 -0.0265678 0.0206257 -0.0335481 -0.122648 -0.164661 -0.126908 0.0321712 -0.0360887 0.0868603 -0.0371021 -0.0512153 -0.0629175 -0.0800866 0.0981643 -0.0365961 -0.183308 -0.0477209 -0.000196951 0.0922059 -0.0302451 0.00200967 0.027834 0.00541838 0.127248 -0.0567232 -0.00333369 0.112737
internal_weight=0 85.2636 60.5925 468.646 28.6684 466.355 461.191 5.164 458.071 316.776 141.295 111.416 66.7721 49.4525 37.7599 34.1276 9.94726 44.6435 24.1804 314.183 232.588 81.5953 75.3036 216.06 207.969 16.5271 13.1392 205.603 182.785 22.8177 178.846 11.6926 28.6619 174.459 13.9035 6.79452 160.556 40.5355 17.2069 14.878 4.94077 23.3286 13.1466 25.5879 72.2202 65.1134 61.4645 55.5442 5.92024 39.079 16.4652 6.12343 30.6378 7.10676 29.8798 23.9632 21.8586 20.2638 6.8447 13.4191 10.8082 5.57922
internal_count=3126 827 693 2299 183 2285 2261 24 2243 1565 678 531 320 240 177 161 44 211 117 1554 1114 440 406 1028 987 86 67 976 856 120 837 63 136 817 66 34 751 191 85 74 24 106 60 121 390 353 333 303 30 201 102 38 159 37 147 117 105 98 32 66 52 26
shrinkage=0.2


Tree=9
num_leaves=63
num_cat=0
split_feature=19 24 48 21 24 48 31 17 17 18 58 18 54 0 56 58 20 11 21 58 8 56 0 19 56 15 15 44 14 51 18 20 11 15 58 11 11 18 14 18 13 14 12 15 54 15 11 11 0 12 56 18 14 19 8 54 0 14 14 56 11 19
split_gain=14.452 12.5484 4.2935 4.12425 3.32126 3.99179 3.32001 3.17395 4.2566 3.12598 4.22292 4.35484 4.20703 5.01869 4.20352 4.13022 3.83058 4.371 4.36174 6.29033 4.40817 5.26589 5.73938 4.33914 3.6537 3.6338 3.77383 3.59964 3.44615 3.30333 4.36356 3.29237 3.11239 3.00459 5.33583 4.37926 3.47022 3.77949 3.63152 3.30958 5.43021 5.29224 4.39059 4.97648 4.24046 6.17492 5.75091 3.67549 3.59929 3.35883 4.1767 4.1906 3.93741 4.12866 3.2796 3.10787 4.81061 4.89221 7.54072 4.69823 5.88589 3.79316
threshold=0.00017865846623325558 0.0035834151964902316 0.37274290627687018 0.15793131643499594 0.0061496209254504972 0.25752364574376613 0.27902621722846449 0.40334645669291347 0.45196850393700794 0.99770982202472169 1.385 0.99771107768558798 0.94556344435128536 0.12557374849013558 0.13845888001195586 -4.3949999999999987 0.82311515973371863 0.0019299287410926367 0.1555600981193786 0.39500000000000007 0.01484099572121614 0.13888491052840243 0.20016776271641393 0.00019926158425027026 0.14068451324586481 0.18762327850375121 0.18442757681424868 0.0032405460996835509 0.82869144262733119 0.0015505459407264357 0.99771092548427076 0.824017000692708 0.0017755344418052259 0.17743739213130924 0.95500000000000007 0.0034619952494061761 0.0009204275534441807 0.99770339151907261 0.82065392504341961 0.99770379104752993 6.269726179305639e-05 0.82233569357234371 0.1181068104245236 0.17908550831836381 0.94559644647412466 0.18185780705153046 0.0017161520190023755 0.001787410926365796 0.087196349483290858 0.11730707519221308 0.13756530565224706 0.99770447119716599 0.81874621798549285 0.00031640502668986784 0.015001450116009283 0.94275023636655553 0.16027378875318751 0.81914897797197583 0.82215887211486327 0.13919470372976489 0.0013717339667458433 0.00022280800484114413
decision_type=2 2 2 2 2 2 2 2 2 2 2 2 2 2 2 2 2 2 2 2 2 2 2 2 2 2 2 2 2 2 2 2 2 2 2 2 2 2 2 2 2 2 2 2 2 2 2 2 2 2 2 2 2 2 2 2 2 2 2 2 2 2
left_child=1 -1 4 9 -3 6 -6 -8 -9 15 11 14 25 -14 -11 -2 33 23 31 20 -20 -22 -23 -18 32 26 28 -21 -13 -16 -31 -19 -25 34 35 -17 37 -35 -39 55 49 42 -42 47 -43 46 -46 -44 -49 -41 -51 -52 -53 -54 -37 -38 57 -57 -59 -58 -61 -60
right_child=3 2 -4 -5 5 -7 7 8 -10 10 -12 12 13 -15 29 16 17 18 19 27 21 22 -24 24 -26 -27 -28 -29 -30 30 -32 -33 -34 36 -36 54 39 38 -40 40 41 44 43 -45 45 -47 -48 48 -50 50 51 52 53 -55 -56 56 59 58 61 60 -62 -63
leaf_value=-0.17198173442567821 0.39281388187299515 0.27016377983105944 -0.24098514030493226 -0.25060703799562944 0.17799574182005229 0.27403554268689517 -0.22918226995134081 0.10554308173061484 -0.13993173295101538 0.01644870053573887 -0.080270441965025224 0.047657139807095232 0.1886127988520887 -0.057865923296565439 0.035933629695293609 -0.1671498223031134 0.12917336214664532 0.37319209410419035 0.11756173012333045 0.40893477859755256 -0.25066899496666167 0.16769506739927484 -0.25731673231710173 -0.029408688580568026 0.17218343720441284 -0.14356460612940775 0.20745614203889706 0.11007825143682129 -0.12529841340015299 0.3304803866901439 0.014695519367754371 0.095041982160284325 -0.22778636875314945 0.24336399540959489 0.038988763235193138 -0.16759947162610586 -0.15947844118636953 -0.2084423166436733 0.099244371929144704 -0.18500407472725777 -0.20479585147836765 -0.13452191552407552 -0.094222032741372336 0.27944776577135289 0.39576414398772863 -0.14038732714005514 -0.00065967244151514523 -0.15489909893217235 0.1193518661552633 0.26070793167153233 -0.2146780754600755 -0.16207050600921263 0.067113161141420949 0.311020219641575 0.17519468266957283 0.23069648534806314 -0.21372352602416567 -0.14632322349298135 -0.2393093472096664 0.27426563705533352 -0.11332398867961568 0.15733479268823086
leaf_weight=35.805833369493484 1.0401814132928837 2.2801356762647691 2.3830348774790755 2.4666027277708045 2.9380852580070558 2.1266709715127936 3.2536186873912802 6.2605937346816045 5.1498823165893555 9.6863522753119486 13.468195796012877 109.43381468206644 3.6565809100866309 34.30731925368309 3.9637198671698561 20.153429396450523 8.0249259769916517 3.217483937740325 5.2521114274859491 1.9260355681180943 5.2192656397819501 3.8376142680644989 1.9002580791711805 42.23359077423811 3.3481728211045256 4.0837009325623503 5.675990790128707 9.8906988352537137 4.8107111230492583 7.1662516444921476 2.3159928023815155 3.6143643260002136 3.419650822877883 4.2994722798466665 11.359715044498442 1.7899480089545239 10.166819475591181 2.1906711235642433 5.1216026991605759 1.7997602075338388 2.7816696837544468 21.915685281157494 7.1031590625643792 3.5550768822431555 2.3763213902711851 5.4493783041834831 3.8118161857128143 2.2386077344417563 13.207687601447104 5.0336392223835018 2.0410184487700489 2.2126460969448116 12.146655812859533 3.5983861684799185 2.9667144566774368 3.8496088832616833 9.062733434140684 9.1129269227385539 1.0943378061056126 2.211202234029769 5.3811689615249634 8.1225036233663541
leaf_count=570 5 12 18 18 13 12 17 31 28 46 70 516 16 177 19 122 39 14 26 8 31 18 12 216 15 20 26 47 24 31 11 17 18 20 59 11 60 11 26 10 14 116 39 15 11 30 18 12 60 22 11 10 56 16 13 18 59 49 9 13 36 39
internal_value=0 -0.0966148 0.0140186 0.00734216 0.0416293 0.0152167 -0.0160534 -0.0549329 -0.0052469 0.00867423 0.0278555 0.0357229 0.0241296 -0.0341258 0.116897 -0.00497353 -0.00646171 0.0269521 0.0827461 0.0478161 -0.0330848 -0.105295 0.0269404 -0.00715245 -0.0294784 0.0419645 0.0482824 0.15879 0.0403742 0.189259 0.253351 0.226038 -0.0442681 -0.0229545 -0.074607 -0.12641 -0.0104553 0.0945593 0.00706506 -0.0192742 0.0036501 -0.0286854 0.0340686 0.0595218 -0.0827109 0.0148592 0.151572 0.0248489 0.0796051 0.0788962 0.0978699 0.0568839 0.0877489 0.122856 0.0462001 -0.061038 -0.0352664 0.0257323 -0.0173142 -0.116498 -0.000442384 0.11024
internal_weight=0 60.1979 24.392 480.114 22.009 19.7289 17.6022 14.6641 11.4105 477.647 198.569 185.1 161.968 37.9639 23.1323 279.079 278.039 91.8842 34.8578 28.026 16.2092 10.9571 5.73787 57.0263 49.0014 124.004 119.921 11.8167 114.245 13.446 9.48224 6.83185 45.6532 186.154 36.2698 24.9101 149.885 11.6117 7.31227 138.273 89.2715 62.4394 28.8862 26.1045 33.5532 11.6375 6.18814 22.5495 15.4463 26.8321 25.0323 19.9987 17.9577 15.745 4.75666 49.0013 38.8345 22.1794 18.3298 16.6551 7.59237 9.21684
internal_count=3126 701 131 2425 113 101 89 76 59 2407 956 886 779 193 107 1451 1446 461 173 142 87 61 30 288 249 586 566 55 540 61 42 31 234 985 205 146 780 57 37 723 440 315 140 126 175 59 29 111 72 125 115 93 82 72 24 283 223 115 97 108 49 48
shrinkage=0.2


end of trees

feature_importances:
Column_0=37
Column_11=34
Column_58=32
Column_49=30
Column_23=29
Column_18=28
Column_19=27
Column_54=26
Column_32=24
Column_13=23
Column_51=22
Column_30=18
Column_43=17
Column_52=17
Column_56=17
Column_14=16
Column_44=16
Column_45=16
Column_53=16
Column_15=14
Column_21=13
Column_29=13
Column_12=12
Column_5=11
Column_8=11
Column_46=10
Column_35=9
Column_41=9
Column_1=8
Column_3=7
Column_9=7
Column_20=7
Column_57=7
Column_50=6
Column_24=5
Column_42=5
Column_47=3
Column_17=2
Column_25=2
Column_27=2
Column_31=2
Column_33=2
Column_37=2
Column_48=2
Column_10=1
Column_22=1
Column_34=1
Column_38=1

parameters:
[boosting: gbdt]
[objective: binary]
[metric: binary_logloss]
[tree_learner: serial]
[device_type: cpu]
[data: ]
[valid: ]
[num_iterations: 10000]
[learning_rate: 0.2]
[num_leaves: 63]
[num_threads: 0]
[force_col_wise: 0]
[force_row_wise: 0]
[histogram_pool_size: -1]
[max_depth: -1]
[min_data_in_leaf: 10]
[min_sum_hessian_in_leaf: 0.001]
[bagging_fraction: 1]
[pos_bagging_fraction: 1]
[neg_bagging_fraction: 1]
[bagging_freq: 0]
[bagging_seed: 21709]
[feature_fraction: 0.5]
[feature_fraction_bynode: 1]
[feature_fraction_seed: 24116]
[extra_trees: 0]
[extra_seed: 15571]
[early_stopping_round: 50]
[first_metric_only: 0]
[max_delta_step: 0]
[lambda_l1: 0]
[lambda_l2: 0]
[min_gain_to_split: 0]
[drop_rate: 0.1]
[max_drop: 50]
[skip_drop: 0.5]
[xgboost_dart_mode: 0]
[uniform_drop: 0]
[drop_seed: 15722]
[top_rate: 0.2]
[other_rate: 0.1]
[min_data_per_group: 100]
[max_cat_threshold: 32]
[cat_l2: 10]
[cat_smooth: 10]
[max_cat_to_onehot: 4]
[top_k: 20]
[monotone_constraints: ]
[monotone_constraints_method: basic]
[monotone_penalty: 0]
[feature_contri: ]
[forcedsplits_filename: ]
[refit_decay_rate: 0.9]
[cegb_tradeoff: 1]
[cegb_penalty_split: 0]
[cegb_penalty_feature_lazy: ]
[cegb_penalty_feature_coupled: ]
[path_smooth: 0]
[interaction_constraints: ]
[verbosity: -1]
[saved_feature_importance_type: 0]
[max_bin: 255]
[max_bin_by_feature: ]
[min_data_in_bin: 3]
[bin_construct_sample_cnt: 200000]
[data_random_seed: 4074]
[is_enable_sparse: 1]
[enable_bundle: 1]
[use_missing: 1]
[zero_as_missing: 0]
[feature_pre_filter: 1]
[pre_partition: 0]
[two_round: 0]
[header: 0]
[label_column: ]
[weight_column: ]
[group_column: ]
[ignore_column: ]
[categorical_feature: ]
[forcedbins_filename: ]
[objective_seed: 10917]
[num_class: 1]
[is_unbalance: 0]
[scale_pos_weight: 1]
[sigmoid: 1]
[boost_from_average: 1]
[reg_sqrt: 0]
[alpha: 0.9]
[fair_c: 1]
[poisson_max_delta_step: 0.7]
[tweedie_variance_power: 1.5]
[lambdarank_truncation_level: 20]
[lambdarank_norm: 1]
[label_gain: ]
[eval_at: ]
[multi_error_top_k: 1]
[auc_mu_weights: ]
[num_machines: 1]
[local_listen_port: 12400]
[time_out: 120]
[machine_list_filename: ]
[machines: ]
[gpu_platform_id: -1]
[gpu_device_id: -1]
[gpu_use_dp: 0]

end of parameters

pandas_categorical:null
