tree
version=v3
num_class=1
num_tree_per_iteration=1
label_index=0
max_feature_idx=58
objective=binary sigmoid:1
feature_names=Column_0 Column_1 Column_2 Column_3 Column_4 Column_5 Column_6 Column_7 Column_8 Column_9 Column_10 Column_11 Column_12 Column_13 Column_14 Column_15 Column_16 Column_17 Column_18 Column_19 Column_20 Column_21 Column_22 Column_23 Column_24 Column_25 Column_26 Column_27 Column_28 Column_29 Column_30 Column_31 Column_32 Column_33 Column_34 Column_35 Column_36 Column_37 Column_38 Column_39 Column_40 Column_41 Column_42 Column_43 Column_44 Column_45 Column_46 Column_47 Column_48 Column_49 Column_50 Column_51 Column_52 Column_53 Column_54 Column_55 Column_56 Column_57 Column_58
feature_infos=[0:1] [0:1] [0:1] [0:1] [0:1] [0:1] [0:0.63259234121673757] [0:1] [0.0048403742429264469:0.79436225027872365] [0:1] [0:0.89692722371967648] [0:0.60700712589073635] [0:1] [0:0.50814353550001423] [0:1] [0:1] [0:1] [0:1] [0:1] [0:1] [0:1] [0:0.29370400654129192] [0:1] [0:0.6433689782239228] [0:0.79913836121014803] [0:1] [0:0.29253904403218506] [0:0.94555049191697438] [0:1] [0:0.91478088211578767] [0:1] [0:1] [0:0.85213053016453388] [0:0.73059819077620924] [0:0.85262682364582376] [0.0059419582893115493:0.60780116101916304] [0:1] [0:1] [0:1] [0:0.99992331740694851] [0:1] [0:0.048127652519893899] [0:0.7170045703452177] [0:0.050371516771864064] [0:0.53406024943117869] [0:0.77762837500000004] [0:0.53955774036618609] [0:1] [0:0.98710232158211519] [0:1] [0:1] [0:0.94908267102428889] [0:1] [0:1] [0:1] [0:1] [0:1] [0:0.66089312530894728] [-104.73999999999999:696.33000000000004]
tree_sizes=6701 6712 6636 6731 6700 6693 6691

Tree=0
num_leaves=63
num_cat=0
split_feature=19 47 19 13 19 53 21 0 0 13 37 0 0 35 58 0 13 19 45 52 0 54 19 52 57 19 57 35 57 19 19 0 54 41 1 58 19 19 0 52 19 56 19 45 41 52 1 13 41 58 38 0 0 56 0 52 57 12 35 1 53 53
split_gain=227.12 43.7931 42.0791 23.7715 24.3975 14.5416 12.9433 12.7446 12.3506 13.3847 11.4042 9.69182 9.96685 16.9396 10.1255 9.98332 8.55266 8.501 9.07847 8.31411 8.37653 8.06356 7.93679 7.71577 7.73108 7.62883 7.50717 9.78922 8.6941 9.42626 8.84635 7.49469 7.19977 7.05731 6.90858 10.4019 8.43007 7.36258 7.30518 7.8099 6.86002 7.91813 11.9502 7.08954 12.5466 7.00562 8.06582 6.72741 9.11826 6.40678 6.13881 6.11735 6.03791 6.01636 10.0588 6.77692 5.97753 5.89171 6.205 9.79588 7.19929 11.261
threshold=0.00017748114520371191 0.065326633165829165 0.00022869460998886261 0.00040518638573743931 0.00036938447301933404 0.97248485334678014 0.15662305805396567 0.16555495906589721 0.04685948194873172 0.0001201342091046092 0.00043950209427172441 0.053234465172460083 0.12827137297007116 0.017984468883438024 1.135 0.092900281841363591 4.791151298018142e-05 0.0006904987838273766 0.74402985416666678 0.82314157655595099 0.15526774929539663 0.9450924951388765 0.00021456675763433829 0.81358749251523388 0.00028390851593712677 0.00067489928018592271 0.00015348432116433269 0.018358760007490451 6.5763247634760761e-05 0.00056717440598267471 0.00040882472750904786 0.10208025768353242 0.94259860499134818 0.036403790893015035 0.12057643306014915 0.12500000000000003 0.00024870906749110548 0.00027637611168538219 0.21191115286538723 0.82418210583166041 0.00032464627389667367 0.13980287396761551 0.0003028658348501154 0.74399152083333353 0.036514802995137048 0.81994440726521323 0.1275361414937847 0.00014430322158719331 0.036437230603448285 1.6050000000000002 0.57393341952165489 0.11863508253925649 0.1803918937055429 0.1388216027050084 0.18479398738424377 0.82398251206368223 2.7700811482761279e-05 0.11763099311020551 0.018329861681050334 0.11892012606643938 0.97370537180927064 0.97314286369158143
decision_type=2 2 2 2 2 2 2 2 2 2 2 2 2 2 2 2 2 2 2 2 2 2 2 2 2 2 2 2 2 2 2 2 2 2 2 2 2 2 2 2 2 2 2 2 2 2 2 2 2 2 2 2 2 2 2 2 2 2 2 2 2 2
left_child=1 -1 5 4 11 19 7 8 17 21 50 -4 13 14 33 -16 32 49 23 31 22 26 -21 56 -25 47 28 -28 -10 30 -30 -2 52 -13 35 -34 -37 -38 39 -39 41 42 45 -42 -45 -5 -47 -11 51 -6 -3 -49 -14 54 -18 -55 -19 -15 59 -59 61 -60
right_child=2 10 3 40 6 -7 -8 -9 9 25 -12 12 16 57 15 -17 53 18 -20 20 -22 -23 -24 24 -26 -27 27 -29 29 -31 -32 -33 34 -35 -36 36 37 38 -40 -41 43 -43 -44 44 -46 46 -48 48 -50 -51 -52 -53 -54 55 -56 -57 -58 58 60 -61 -62 -63
leaf_value=-1.1093099623261351 -0.5206062227592857 -0.43435038103139745 -1.0744595222752071 -0.46022713354976358 -0.97614488688470169 -0.97614488688470158 -1.1243971148545115 -0.78683819578479053 -0.49185427551665595 -1.0057953324786633 -0.99667211844975223 -0.70270188862927463 -1.1243971148545115 -0.42527081874425005 -0.41278642059942389 -0.95188543139873272 -0.85145054719502589 -0.85872912233261212 -0.80215830990881154 -1.0019694685310556 -0.62809427168173249 -0.33371856568219194 -0.64998998535111985 -0.42157173781244972 -0.80812569518558375 -0.43914237223850122 -0.24101832198612683 -0.64998998535111985 -0.82477155937868518 -0.97458433711659842 -0.42309961906688903 -0.88816172791812875 -0.49817970391003469 -1.0137021179703869 -1.0295156889538333 -0.50766784650010255 -1.1243971148545115 -0.79437476389563033 -1.0453292599372794 -0.34809453930350709 -0.94424250871398308 -0.9192480858800719 -0.31112774999155424 -0.39453999254160121 -0.98885222071068535 -1.1243971148545115 -0.67789628708661342 -0.72489637422007636 -0.87137997911936926 -0.61349712923547428 -0.78282398161206945 -0.37533322616494574 -0.69311790621506453 -0.90405636276288881 -0.57508359648216323 -0.64998998535111974 -0.46022713354976325 -0.70022132847500829 -0.57003372756964943 -1.1243971148545115 -0.2618386975756174 -0.95695930444154975
leaf_weight=119.30680733919144 2.3186835348606101 2.3186835348606172 4.0049988329410544 2.1078941226005572 6.7452611923217756 40.471567153930664 2.3186835348606101 21.922098875045776 13.912101209163668 3.3726305961608949 10.961049437522886 3.794209420681006 2.9510517716407767 4.0049988329410544 3.3726305961608878 2.318683534860611 15.387627094984056 5.2697353065013912 11.171838849782942 6.5344717800617236 13.701311796903608 8.853155314922331 4.2157882452011108 11.382628262042997 2.5294729471206656 3.7942094206809989 6.1128929555416089 3.7942094206809998 4.0049988329410535 4.0049988329410544 4.8481564819812775 51.643406003713608 10.539470613002782 12.647364735603331 2.1078941226005545 4.2157882452011135 2.7402623593807212 4.8481564819812757 2.5294729471206665 2.318683534860611 33.304727137088776 7.7992082536220542 2.9510517716407767 2.7402623593807212 2.9510517716407776 2.9510517716407776 3.5834200084209442 4.0049988329410535 6.3236823678016654 2.740262359380722 15.809205919504164 4.0049988329410553 2.318683534860611 44.476565986871719 8.0099976658821088 4.637367069721221 2.1078941226005554 35.834200084209442 18.76025769114495 2.3186835348606101 2.3186835348606101 3.5834200084209433
leaf_count=566 11 11 19 10 32 192 11 104 66 16 52 18 14 19 16 11 73 25 53 31 65 42 20 54 12 18 29 18 19 19 23 245 50 60 10 20 13 23 12 11 158 37 14 13 14 14 17 19 30 13 75 19 11 211 38 22 10 170 89 11 11 17
internal_value=-0.837871 -1.05566 -0.774566 -0.742931 -0.722306 -0.878782 -0.655995 -0.647698 -0.619709 -0.566447 -0.835628 -0.766467 -0.760175 -0.710696 -0.862344 -0.632419 -0.801277 -0.704821 -0.656151 -0.82853 -0.731784 -0.505032 -0.863938 -0.579533 -0.491854 -0.6965 -0.546384 -0.397646 -0.601429 -0.719984 -0.604808 -0.872368 -0.719415 -0.941933 -0.680707 -0.653668 -0.752078 -0.834928 -0.753122 -0.64999 -0.860647 -0.763435 -0.658616 -0.908991 -0.702702 -0.77727 -0.879542 -0.751649 -0.691849 -0.87138 -0.738252 -0.550115 -0.934634 -0.840304 -0.756838 -0.880067 -0.744871 -0.660466 -0.675462 -0.726 -0.597278 -0.632088
internal_weight=0 148.396 510.532 391.647 333.258 118.885 133.219 130.9 108.978 67.031 29.0889 200.039 196.034 88.9531 22.1329 5.69131 107.081 41.9471 32.4616 78.4137 24.4516 45.5305 10.7503 21.2897 13.9121 21.5005 36.6774 9.9071 26.7703 12.8582 8.85316 53.9621 34.5695 16.4416 29.2997 27.1918 16.6524 12.4366 9.69631 7.16684 58.3887 19.3926 11.5934 38.996 5.69131 8.64237 6.53447 17.7063 14.3337 9.48552 18.1279 8.01 5.26974 72.5116 23.3976 49.1139 7.37763 66.8202 62.8152 38.1529 24.6624 22.3437
internal_count=3126 704 2422 1858 1581 564 632 621 517 318 138 949 930 422 105 27 508 199 154 372 116 216 51 101 66 102 174 47 127 61 42 256 164 78 139 129 79 59 46 34 277 92 55 185 27 41 31 84 68 45 86 38 25 344 111 233 35 317 298 181 117 106
shrinkage=1


Tree=1
num_leaves=63
num_cat=0
split_feature=23 47 57 49 23 23 32 44 14 11 53 8 43 41 57 23 35 19 49 49 57 14 35 57 11 26 17 6 32 8 14 49 19 23 14 11 53 11 11 11 49 43 19 57 14 11 10 14 14 35 32 44 23 19 57 11 43 53 8 49 53 19
split_gain=171.217 27.3405 25.4169 19.9219 15.2429 13.9889 10.3554 9.72513 8.80389 8.67804 8.96958 9.07817 7.91473 9.07981 8.25558 7.71897 7.18713 9.46193 9.53428 8.55537 6.9011 6.57753 6.17479 7.90798 7.04271 5.94721 8.30392 8.48071 5.80636 8.67153 7.74122 6.05075 6.92993 6.73625 5.67244 5.54014 5.46135 5.55746 6.46576 12.1084 5.46294 5.44419 5.43824 5.431 6.79205 5.86465 5.29157 5.15338 5.11996 8.40363 5.03241 5.94242 6.9306 5.25649 6.53204 5.89853 5.67343 5.24385 5.00868 4.9847 10.0972 9.10037
threshold=0.0037744414418069338 0.065326633165829165 0.00027727266694682737 0.59098567818028658 0.0068786520347884567 0.0059963906969826867 0.81587653107861069 0.0031326708979538035 0.82861285531289552 0.001609263657957245 0.97231103929343643 0.014928473498659117 0.038765807171797916 0.036428499392130866 0.0013240392646491662 0.0062810096120553644 0.01884332714523837 0.00034054010779551353 0.59253580454928401 0.60847514743049713 0.00026978804657404792 0.8420159217899047 0.018246518907597029 0.00042343771281288969 0.0013954869358669836 0.037997733391544282 0.41003937007874025 0.13013597838819563 0.81585955210237671 0.015912386627293825 0.81817056590725123 0.6090480202190397 0.00027814209322969777 0.0048495944500011887 0.82209796694617554 0.0080047505938242291 0.97113445185541736 0.0016448931116389549 0.0010391923990498814 0.0011460807600950122 0.59607413647851726 0.038776418786692766 0.00024753174646156172 9.1292527138968929e-05 0.83226913011701653 0.0029156769596199532 0.28959568733153646 0.82174235934835405 0.81663418391003328 0.018367082725505204 0.81599111060329077 0.0042904377954770421 0.0068786520347884567 0.00027402146962629488 0.00075338932049832279 0.0024049881235154399 0.038776694413053668 0.97285635701024564 0.015001450116009283 0.64802021903959572 0.97429175548373792 0.00045532890817602377
decision_type=2 2 2 2 2 2 2 2 2 2 2 2 2 2 2 2 2 2 2 2 2 2 2 2 2 2 2 2 2 2 2 2 2 2 2 2 2 2 2 2 2 2 2 2 2 2 2 2 2 2 2 2 2 2 2 2 2 2 2 2 2 2
left_child=1 3 4 -1 15 28 25 -7 9 -9 12 -12 14 -14 -11 16 17 43 -19 -20 21 35 23 -5 -25 -3 46 -28 30 31 36 32 33 41 -21 59 -4 38 -38 -40 48 -30 -32 45 -45 -2 -27 -44 49 -41 51 53 -53 57 55 56 -55 -13 -10 60 -6 -61
right_child=2 6 5 22 20 7 -8 8 58 10 11 50 13 -15 -16 -17 -18 18 19 34 -22 -23 -24 24 -26 26 27 -29 29 -31 42 -33 -34 -35 -36 -37 37 -39 39 40 -42 -43 47 44 -46 -47 -48 -49 -50 -51 -52 52 -54 54 -56 -57 -58 -59 -60 61 -62 -63
leaf_value=-0.25732150045745245 -0.16162056071307215 -0.14438901918673613 -0.21172624131359014 -0.10319722794203645 0.1604304842627107 0.3194555875403271 -0.12511501477660358 0.0024988760516097474 0.1970702768450705 -0.28546292950101265 -0.2364521166663526 0.16586092305552891 0.3685965912368383 0.016573740882594827 0.23481274529423102 -0.082871690172162699 -0.29078744324619976 -0.10776916990559895 0.26821938577508592 0.1550154770216928 0.51032094675296824 -0.096933045493734299 -0.25050091330426266 -0.12360861724553213 0.29029545433812032 0.1639073085973978 0.43665854262657383 0.0046113435095345434 0.25450710537705423 -0.16393601295915 -0.20035301518263038 0.36067649681023828 -0.098457639003167466 0.36198395955646917 -0.21977529628051964 0.30012172582522229 -0.21510370684609473 -0.09263810210135498 0.55689552096409833 -0.16436991867147199 -0.055285638416831734 -0.12429485665718501 0.26231367569579805 0.083574679892207904 -0.28545925506294351 0.13644945838191533 -0.28401434811502319 -0.12798095149018851 0.42255898012772813 0.27494958915575246 0.33381639763882459 0.27465270574514455 -0.064547029031115963 0.2145471900032892 0.34110453633058851 0.20037938569960634 -0.14128392940624021 -0.18401928232556861 -0.13449692928729934 -0.0020679519954193816 -0.045024209710905913 0.52103329418361155
leaf_weight=103.1628901809454 9.3981715440750104 2.8854751288890865 5.2453823983669272 21.898869141936306 79.208485513925552 5.2555794864892951 13.736522495746611 61.213373750448227 2.0784526914358166 2.2796498090028789 3.7953615188598624 3.0260468274354926 12.113425076007841 3.8663236051797858 2.6243639588356018 14.125852674245833 2.0979955196380606 4.3636188060045233 22.664916679263118 4.2774080932140341 2.2010656148195258 4.0674262940883628 7.2129000872373572 2.5853208601474753 4.5180252492427826 2.1762394607067099 5.4350329339504224 2.7302167415618896 2.5599255859851926 6.59748950600624 22.25998438894749 3.0295108854770652 7.0473058074712744 3.9977725297212601 2.5954130440950394 10.501792237162588 2.8841082453727749 14.249500617384909 2.1241553127765682 3.1691329181194323 9.3250000178813917 3.7274370938539505 2.1546153873205176 45.914418950676918 2.085547909140586 3.6720107644796363 2.0475618243217468 3.6382142007350922 2.2690846920013428 3.8667141497135162 3.0314345806837073 2.8022551983594921 17.18950355052948 2.6751163303852135 6.2613634318113318 11.140934929251669 5.4313218146562576 3.9501676112413406 14.792038187384604 2.1069088131189337 10.882738485932348 3.6089993566274643
leaf_count=550 45 14 25 106 360 25 66 286 10 11 18 14 54 18 12 66 10 21 100 19 10 19 36 13 22 10 25 13 12 32 109 14 33 19 12 47 14 68 10 15 44 18 10 214 10 17 10 17 11 18 13 13 83 12 29 51 26 19 72 10 50 16
internal_value=0 -0.175754 0.0582969 -0.212521 0.107784 0.0159768 0.000886973 0.0518016 0.0429138 0.0592069 0.102497 0.0628025 0.215216 0.283424 -0.00703942 0.0552623 0.075364 0.0834525 0.168181 0.208947 0.159662 0.152669 -0.0849023 -0.0437176 0.139652 0.114202 0.174429 0.292195 -0.0437133 0.0353343 -0.0736501 0.0999 0.0543193 0.159001 0.0134816 0.162219 -0.0204613 0.00601853 0.0654904 0.104483 0.0529001 0.0299359 -0.155432 0.036418 0.0675405 -0.0778791 -0.0532306 0.0171873 0.161319 0.0770684 0.083264 0.0687902 -0.0170012 0.121588 0.163661 0.105936 -0.02386 -0.032253 -0.0936477 0.147103 0.135612 0.328216
internal_weight=0 168.389 485.445 139.378 223.773 261.672 29.011 163.527 158.271 141.401 80.1873 59.3035 20.8838 15.9797 4.90401 111.195 97.0695 94.9715 33.9014 29.5377 112.577 110.376 36.2151 29.0022 7.10335 15.2745 12.3891 8.16525 98.1453 26.9594 71.1859 20.362 17.3324 10.2851 6.87282 106.309 43.1331 37.8877 23.6382 20.7541 18.6299 6.28736 28.0528 61.0701 48 13.0702 4.2238 5.79283 9.30493 7.03585 55.5081 52.4767 19.9918 32.485 25.5087 19.2474 8.10644 6.97621 16.8705 95.8071 90.0912 5.71591
internal_count=3126 865 2261 727 1026 1235 138 766 741 659 373 278 95 72 23 514 448 438 152 131 512 502 177 141 35 72 58 38 469 128 341 96 82 49 31 483 205 180 112 98 88 30 136 286 224 62 20 27 44 33 260 247 96 151 118 89 38 33 82 436 410 26
shrinkage=0.2


Tree=2
num_leaves=63
num_cat=0
split_feature=21 53 0 21 32 15 21 8 20 21 9 8 20 11 21 54 8 58 9 58 8 20 9 20 58 32 32 8 45 54 58 56 21 11 32 53 0 0 1 44 11 45 1 53 58 1 44 58 58 15 46 1 45 46 1 32 1 8 0 0 32 11
split_gain=65.7306 42.6534 15.9705 13.758 8.78617 8.08172 7.78864 6.63322 7.33932 6.48827 14.0311 9.97756 6.42448 6.18875 5.84218 9.54941 5.73702 6.59981 6.9551 8.05117 7.22349 5.61383 5.55646 5.55247 5.84132 5.32908 6.63901 5.31824 5.23661 8.06709 5.57143 5.22983 5.03233 5.01529 5.70585 6.73827 9.64863 6.03133 5.05271 5.15578 4.8545 9.93921 6.81242 6.30223 5.83843 8.364 5.85083 7.96331 10.8748 7.53037 7.47809 6.89129 7.16498 5.27172 12.2048 5.3329 4.96291 8.1416 4.76532 6.1892 4.72784 7.33956
threshold=0.15515126737530666 0.97129871568604986 0.16790363709569187 0.1555600981193786 0.81582890767824501 0.1779106935296397 0.15621422730989373 0.014756813661976079 0.8245379991311802 0.15506950122649224 0.16769943495720924 0.014845892216831894 0.82420999025512787 0.0016686460807600952 0.15793131643499594 0.94868705068055748 0.016572189411516561 0.91500000000000015 0.18342868594151535 0.65500000000000014 0.014732519510651763 0.82222139058152244 0.18303967873505861 0.82343949960668295 0.90500000000000014 0.81607538848263272 0.81593126142595984 0.014617451863681564 0.74383083333333344 0.94399807338958563 1.2850000000000004 0.13751133832738657 0.15490596892886346 0.0025475059382422806 0.8158439899451555 0.97204363305752295 0.21429338343846463 0.20053013018386795 0.11775774359985473 0.0031336849092498897 0.0021555819477434685 0.74383729166666679 0.11804846496103429 0.97278664038445384 0.35500000000000004 0.11883461978373952 0.0032400780944699726 0.6150000000000001 0.95500000000000007 0.17685695584281405 0.010905051222951042 0.11911125775718026 0.74378627083333348 0.010857093971534946 0.12188618811985767 0.8158986745886655 0.12082943106131404 0.01515945626299455 0.10809958394846331 0.075721379680579806 0.81568882541133469 0.0011104513064133018
decision_type=2 2 2 2 2 2 2 2 2 2 2 2 2 2 2 2 2 2 2 2 2 2 2 2 2 2 2 2 2 2 2 2 2 2 2 2 2 2 2 2 2 2 2 2 2 2 2 2 2 2 2 2 2 2 2 2 2 2 2 2 2 2
left_child=1 9 3 4 5 -2 7 8 33 32 -11 21 13 23 15 31 17 18 19 25 -20 -12 -8 28 -25 26 -15 -23 29 30 -6 -5 60 34 35 36 -4 -37 -36 -40 44 42 -42 -44 45 -33 47 -46 -49 51 -51 52 -48 55 58 -43 57 -47 59 -55 -1 -62
right_child=2 -3 6 14 12 -7 22 -9 -10 10 11 -13 -14 16 -16 -17 -18 -19 20 -21 -22 27 -24 24 -26 -27 -28 -29 -30 -31 -32 40 -34 -35 38 37 -38 -39 39 -41 41 53 43 -45 46 56 49 48 -50 50 -52 -53 -54 54 -56 -57 -58 -59 -60 -61 61 -63
leaf_value=0.23240950490771228 -0.22534619699721367 -0.24467088064807796 -0.28883921478389002 -0.11456566307275778 0.10159667853284349 0.109679613387566 -0.26847417279417102 -0.022952400382680357 0.40380596160882276 -0.19489564947767818 0.34717748297587442 -0.26788204720559666 0.24876077560869025 0.10828631792954019 -0.26380011403896086 0.36309327449489559 -0.065292977103830974 0.36830252355296111 0.011936653003906101 -0.19699795575842768 0.43037925055555792 0.14783190004066529 -0.035612401573193758 -0.25868307687822606 0.13978974922012122 -0.068537549003473849 0.27151504688498973 -0.20613785717084135 -0.025435566227629304 0.30927597446848359 -0.21603843503165257 -0.21846222043476266 0.15454023065230893 0.2997473280587088 -0.13290088541838987 0.52610431087425957 0.15739549162278069 0.11346710592959326 0.2750052964244914 -0.093454281024739932 0.0087436003006998182 -0.30151815990542347 0.41678384671078295 0.1270155671836565 0.29471236859990479 -0.057318118338928727 0.18673365583164211 -0.2052624069158967 0.19287247813640973 0.008640183339006997 -0.24650069275910549 0.14301278724942243 -0.19783698961085047 0.10488541596740249 -0.13697943987746616 -0.012418015906736593 -0.103006342060541 0.36065533370321701 0.069986365158064293 0.52287471354663972 0.0016569138867816441 -0.24355364263500889
leaf_weight=2.945289433002471 6.0176022797822935 62.204470470547676 2.929229602217676 11.298830002546309 15.644056335091596 5.5239117443561554 7.7652827352285412 126.60120411217213 2.5054499804973593 22.526599511504173 3.5722893923521033 3.0526895970106116 13.305091604590414 43.707639947533607 2.8822328001260749 3.24383221566677 5.3394450694322577 5.1281640529632559 2.3225554823875409 3.2091952413320533 5.7003260552883148 6.0015037804841977 8.681114509701727 4.4080305248498908 2.2089725434780121 5.0691411048173896 12.911480009555815 2.367648109793663 14.057924672961233 7.0063141137361518 2.5720278620719901 10.524001121520998 8.4595070630311948 2.9270675629377356 11.021054640412332 2.4192811697721472 5.7288333177566528 3.4196793884038925 3.0961883664131156 2.9821913838386536 5.2331204116344479 3.2412020117044475 6.4531151056289655 5.6143480390310287 6.987163886427882 4.1981338113546354 2.8340601623058337 4.7929642051458341 6.4200423806905746 10.401967391371729 8.2311620414257032 15.925673335790632 6.1281244307756424 2.5003471374511737 6.0396938174962989 12.007595181465147 7.2979114800691605 3.3529285490512848 4.6681447625160217 3.2703100442886353 38.708016142249107 5.5873928964138022
leaf_count=13 29 378 14 55 71 27 42 613 11 129 16 17 57 193 16 15 26 22 10 14 24 29 43 20 10 23 56 12 64 31 12 50 38 13 52 11 27 16 14 14 25 15 28 26 32 20 13 23 29 49 39 72 29 12 29 54 35 16 21 14 190 28
internal_value=0 -0.116411 0.0329437 0.0606302 0.102842 -0.0649987 -0.0143614 -0.00117467 0.0732829 -0.0308254 -0.0951135 0.0547954 0.116427 0.102809 0.0182576 0.0236534 0.135272 0.148993 0.13357 0.111853 0.309244 0.137284 -0.14556 0.0438272 -0.12566 0.12792 0.145509 0.0476932 0.0723782 0.126896 0.0567481 0.0161844 0.0124803 0.0492961 0.0260945 0.118399 0.00642363 0.284437 -0.0521619 0.0942306 0.0270373 0.0773771 0.199324 0.28197 -0.00130043 -0.0820639 0.0319007 0.127122 0.022691 -0.00792015 -0.104068 0.0640642 -0.0762264 0.0108806 0.0893046 -0.0738676 0.0146065 0.128276 0.220228 0.341766 -0.0129588 -0.0292738
internal_weight=0 155.425 487.755 307.679 154.132 11.5415 180.077 163.63 37.029 93.2209 37.5207 14.9941 142.59 129.285 153.547 150.665 83.3879 78.0485 72.9203 64.8975 8.02288 11.9414 16.4464 45.8973 6.617 61.6883 56.6191 8.36915 39.2803 25.2224 18.2161 147.421 55.7002 34.5235 31.5965 14.497 8.65806 5.83896 17.0994 6.07838 136.122 49.0279 17.3006 12.0675 87.0941 25.373 61.7212 18.2002 11.213 43.521 18.6331 24.8879 8.96218 31.7273 16.4785 15.2488 14.849 7.55106 10.4388 5.77066 47.2407 44.2954
internal_count=3126 850 2276 1406 689 56 870 785 172 472 203 74 633 576 717 701 368 342 320 286 34 57 85 208 30 272 249 41 178 114 83 686 269 161 148 68 41 27 80 28 631 224 79 54 407 121 286 84 52 202 88 114 42 145 76 69 71 36 47 26 231 218
shrinkage=0.2


Tree=3
num_leaves=63
num_cat=0
split_feature=49 25 19 0 18 18 29 49 5 43 56 52 0 29 50 44 54 11 42 44 19 50 56 56 52 3 56 29 11 52 3 3 51 56 3 50 18 18 3 54 11 52 50 11 42 3 42 0 29 3 18 29 50 51 11 51 3 52 44 56 49 49
split_gain=89.8555 19.9101 19.8574 13.1649 9.58473 8.52887 10.5767 9.7073 8.80569 7.76635 7.54706 6.81018 7.19285 6.78272 7.93295 6.75999 6.12398 5.98377 10.5414 7.0334 6.01973 9.81478 7.02917 7.64097 6.90102 6.0792 6.71499 6.02671 5.90353 5.5053 5.37439 5.25086 5.22685 5.21622 5.20306 5.11825 5.046 4.84296 7.90387 7.24394 6.35779 4.8419 4.83994 8.92599 4.80379 5.5344 10.4351 6.48401 6.39964 5.70439 4.75617 6.72812 6.56459 5.84115 5.21388 7.36989 4.71149 4.62878 4.49305 4.49235 4.44181 4.39516
threshold=0.59165964616680722 0.58333333333333348 0.00017748114520371191 0.16790363709569187 0.99770983153730397 0.99770771974402872 0.0013617763263989683 0.60766638584667232 0.00050907044497974449 0.038764242992199778 0.1390151585912868 0.82417183262301441 0.2029392027915716 1.2195613610707952e-05 0.00065873475315011097 0.0068678205075204538 0.94504254597998483 0.0019418052256532068 0.0026731238193928547 0.0030398498639274845 0.00022163068381160042 0.00011467616901467335 0.13967781507058305 0.13903695308786509 0.82210031347962398 0.00053999684404620548 0.13777235336974056 0.00012064586357039189 0.0013242280285035632 0.82306232608925378 0.00041640813495793524 0.00039925981194801252 0.0045587907598603596 0.13867215472847175 0.00038259851884464823 0.00016112727545099673 0.99770339151907261 0.99770445692829235 0.00043643236956608563 0.94501935529907077 0.00069477434679334924 0.82300215443861335 5.6612285969269118e-05 0.00074228028503562954 0.0025667533724435762 0.00041733836207946191 0.0036783346864627956 0.22428533082807678 0.00039076358651830351 0.00044083268477184117 0.99771149623921018 0.00011439687147234318 0.00033299636926539317 0.0018290871276832803 0.0021555819477434685 0.0037603060239174038 0.00043230235595847002 0.82227128902351698 0.0030822823366252303 0.13880707304062292 0.59523167649536657 0.6001853411962933
decision_type=2 2 2 2 2 2 2 2 2 2 2 2 2 2 2 2 2 2 2 2 2 2 2 2 2 2 2 2 2 2 2 2 2 2 2 2 2 2 2 2 2 2 2 2 2 2 2 2 2 2 2 2 2 2 2 2 2 2 2 2 2 2
left_child=1 2 -1 4 17 9 7 8 16 10 29 15 -13 -6 35 33 31 18 58 -19 -21 24 23 25 -22 26 -23 -26 42 -5 -30 34 -24 -11 -7 60 -12 40 39 56 -20 -42 57 -44 -9 -46 47 -47 -48 -49 -37 -52 54 -54 -53 -56 -39 -4 -2 -35 -15 -28
right_child=3 -3 28 5 13 6 -8 44 -10 11 36 12 -14 14 -16 -17 -18 19 37 20 21 22 32 -25 27 -27 61 -29 30 -31 -32 -33 -34 59 -36 50 -38 38 -40 -41 41 -43 43 -45 45 46 48 49 -50 -51 51 52 53 -55 55 -57 -58 -59 -60 -61 -62 -63
leaf_value=-0.23039006816623997 0.040710452510346613 0.032404250253516391 -0.22403373107595281 -0.080685509032023817 0.029385512532599547 0.037237824095082903 0.31314301420543972 0.25599430648311733 -0.21267686614853443 -0.26131302608427082 0.41750859032975679 0.32101554501201085 -0.08183182848410607 0.14028722532303234 0.26144458393134568 0.22679454213153394 0.44541978755951495 -0.14336592332665671 0.33076832532070333 -0.11003799890907942 0.48579261438972604 -0.21081529953351197 0.34229136743503985 -0.12112698347222713 0.29054155394233372 -0.13257397444123825 0.1125070963910311 -0.11916495124076765 -0.23720849486924558 0.15622664885825407 -0.053792978872941238 0.036615606087156721 0.06377316568397555 0.12594756825198142 0.37324244066004891 0.24440592600262379 0.011252014815730536 -0.07497036269368515 -0.16742079486250053 0.33880354148021663 -0.07082950487856253 0.076817637549360593 -0.080241647117139617 0.33806026439993214 -0.08364748347736016 0.36250894404738604 -0.13212055973583364 0.19637268434921362 0.22621332937586477 -0.2006623276364782 0.19261392135313504 0.19003160383110393 -0.2145396371318388 0.048122080502266372 -0.21707456963485111 0.21472379410272083 0.21243253742432713 0.10706130136176904 0.23527646436034241 -0.11817853371318131 -0.10646956959775403 0.35788024577260891
leaf_weight=81.05877660214901 9.9328329265117663 22.532801926136017 4.0209392607212058 13.877313137054449 35.581133961677551 2.8893162310123541 5.2156866043806067 2.4036508053541175 2.6941362917423239 9.7633423805236799 3.1335210502147666 3.11836153268814 4.1089406609535217 4.7212086170911771 15.740688592195509 2.2174292206764212 2.8234297186136237 5.5114296227693549 2.4568090289831153 5.4918669015169135 4.1365655511617643 2.344220474362376 6.0336394011974317 9.4273580163717252 4.3500092476606369 4.5942540615797034 24.63509072363377 2.1439459621906281 9.7248934060335177 5.4699025452136985 18.63595524430275 10.548582330346106 4.8711432218551636 3.2779796272516242 5.0926405191421509 11.582781627774237 2.0057392120361328 16.201068148016937 20.543548375368118 2.3370217233896247 19.017871379852295 16.673540890216827 3.8391744345426542 4.3553388863801956 35.208638682961464 4.7271034419536608 12.062921330332754 3.9854471385478973 2.388321489095687 2.2730128318071365 21.098932296037674 14.057074502110483 5.5809330344200125 8.6133161634206754 3.6014000922441474 2.8184774667024612 2.6555650681257239 2.9122233539819717 9.0942474454641324 37.600060105323792 7.6398142129182816 3.3126293271780005
leaf_count=556 48 111 21 70 157 13 25 11 13 49 16 14 21 21 66 10 12 27 11 28 18 11 26 43 19 22 107 10 51 24 91 49 22 16 22 50 10 74 99 10 93 75 19 20 169 21 60 18 12 11 91 61 25 37 16 12 12 14 42 195 35 14
internal_value=0 -0.140597 -0.171896 0.0379192 0.0629731 -0.00553576 0.0364995 0.0199331 0.128046 -0.0514182 0.0435215 -0.0901082 0.0919846 0.103915 0.131696 -0.115006 0.171033 0.0324506 -7.71871e-05 0.0743154 0.0911324 0.10791 0.0740311 0.038633 0.283889 0.0818052 0.114319 0.155279 -0.0628682 -0.013705 -0.116686 0.129226 0.217878 -0.129972 0.251615 0.106075 0.258956 -0.0319416 -0.0790206 0.00666802 0.0195666 -0.00185491 0.0380274 0.142084 -0.0213031 -0.0322936 0.0387884 0.185711 -0.0728996 0.0521734 0.127785 0.103565 0.0493744 -0.055152 0.12183 -0.0275049 -0.0344956 -0.0849597 0.133706 -0.0986022 -0.0122225 0.141591
internal_weight=0 147.08 124.547 483.686 306.8 176.885 92.3129 87.0972 24.0481 84.5726 24.4865 60.0861 7.2273 131.036 95.4546 52.8588 21.354 175.765 98.9125 76.8522 71.3407 65.8489 55.2183 44.3136 10.6305 34.8862 30.2919 6.49396 43.4885 19.3472 28.3608 18.5305 10.9048 50.6414 7.98196 79.7139 5.13926 79.8854 41.7372 21.1937 38.1482 35.6914 15.1277 8.19451 63.0491 60.6454 25.4368 10.9856 14.4512 6.25846 67.3529 55.7701 34.6712 14.1942 20.477 6.41988 18.8566 6.93316 19.0271 40.878 12.361 27.9477
internal_count=3126 883 772 2243 1382 861 436 411 109 425 120 305 35 571 414 270 96 811 464 347 320 292 245 197 47 154 132 29 216 94 142 84 48 260 35 348 26 374 195 96 179 168 74 39 302 291 122 50 72 29 292 242 151 62 89 28 86 35 90 211 56 121
shrinkage=0.2


Tree=4
num_leaves=63
num_cat=0
split_feature=23 24 50 23 58 18 48 22 18 3 52 45 58 44 43 43 58 43 8 50 43 44 58 3 18 44 0 3 11 32 25 11 58 0 0 0 0 8 44 32 43 14 32 11 50 23 0 50 44 14 44 8 50 23 0 23 12 18 44 3 1 43
split_gain=67.2519 19.2142 15.6995 10.7179 10.2374 7.18774 6.37727 8.0024 6.27153 7.41448 7.01642 5.99979 7.37039 7.7398 6.18274 6.00575 5.9192 6.0255 8.2672 5.60792 5.5624 5.42401 5.24789 5.14183 5.00071 5.00083 5.83757 4.89287 4.717 4.63852 5.85897 4.59191 4.44682 4.43256 5.34746 4.39893 7.80314 6.62963 5.77107 9.4963 7.61115 4.97649 4.37888 4.27607 4.10557 5.13219 3.97081 3.87404 3.85792 3.65003 7.6255 4.85931 5.13581 4.71083 4.96738 4.08957 3.74116 3.63609 3.99014 5.48481 5.36547 6.32799
threshold=0.0037744414418069338 0.0039875913829053441 4.441887052973423e-05 0.0067263446503955894 0.38500000000000006 0.99769924878947147 0.37833190025795366 0.60389610389610404 0.99771537737279703 0.00043380484322020285 0.81850542425416517 0.74381172916666671 1.7050000000000003 0.003103108568629455 0.038766475565723116 0.038771140541881431 2.2350000000000008 0.038764787354262566 0.014713498508452107 0.00076876581152115207 0.038776763319643894 0.003291480667094632 0.055000000000000007 0.00041331305990175636 0.99772382454589847 0.0030364958265635083 0.073849147765400622 0.0003972751650787869 0.0020605700712589075 0.8158986745886655 0.58333333333333348 0.0080047505938242291 0.13500000000000004 0.054979197423164684 0.036800429472554026 0.20534156489061869 0.26368943765937464 0.0146783755687468 0.0032826665689055781 0.81584275594149924 0.038760921694550872 0.83551675088607213 0.81613873400365644 0.0014311163895486937 0.00011990191848875972 0.004643475054685208 0.1495302643940411 0.00050022035243615741 0.0030956204852122058 0.82306262623087389 0.0031744013628311825 0.015103146563413387 0.00012280511264102994 0.0062810096120553644 0.11325325459669845 0.0054136264039533087 0.12137063553299084 0.99770869954000763 0.0042904377954770421 0.00054508630656974135 0.12790080064059298 0.038780194867837167
decision_type=2 2 2 2 2 2 2 2 2 2 2 2 2 2 2 2 2 2 2 2 2 2 2 2 2 2 2 2 2 2 2 2 2 2 2 2 2 2 2 2 2 2 2 2 2 2 2 2 2 2 2 2 2 2 2 2 2 2 2 2 2 2
left_child=1 2 -1 8 -4 -5 7 -3 10 22 -2 12 13 44 21 -16 17 18 -6 31 46 -14 -10 43 42 27 48 -26 -19 30 -9 33 -11 34 -7 47 41 -38 -39 40 -40 -37 -21 -24 45 -12 -13 57 -27 51 -51 52 -22 54 -54 -52 -53 -35 59 -59 -60 -62
right_child=3 6 4 5 16 19 -8 29 9 32 11 20 14 -15 15 -17 -18 28 -20 24 49 -23 23 -25 25 26 -28 -29 -30 -31 -32 -33 -34 35 -36 36 37 38 39 -41 -42 -43 -44 -45 -46 -47 -48 -49 -50 50 55 56 53 -55 -56 -57 -58 58 60 -61 61 -63
leaf_value=-0.23181220103791486 -0.1015001427218299 0.38574410324999542 -0.17043269657457749 0.42647280133139492 -0.14748178505457019 0.16885754500133901 -0.25558931015682279 -0.25980649506680364 0.00020308623052461657 0.017875030120897133 -0.010644189456664418 -0.018272190705092992 -0.28252945048129191 -0.077794810643695783 0.38042937571644803 -0.031100843395787781 -0.27857622677837063 -0.12238240117921335 0.34754517050165096 0.36567875977582243 -0.2428414329021088 0.16712206454359577 0.0039255881692262431 0.43755511033096872 0.04519072597041579 -0.28260749521730327 0.19859178147247492 0.38557645729827539 0.1875533037540946 0.29378265811335741 0.031810426457460982 0.20669199161575397 -0.30107431012347963 0.038337076958529392 -0.10726388099610931 -0.10241139050097342 0.33311972592017081 -0.1105291858446129 0.057098743673413416 -0.0040256185649157668 0.49230270676917148 0.22745030144070535 0.041317034262989209 0.24902519611231819 -0.033108057158520297 0.34202986771286192 0.27339765594335635 -0.07555155948233172 0.020990790093151197 0.38297082898072582 -0.083555775142822225 0.16964484887801468 0.10588064361397914 -0.30108378700967536 -0.10241396603433246 0.22195032685103624 -0.013141287640446973 0.10347214560830978 -0.18985107863701611 0.34718458391829837 0.29967401890557505 -0.16668029259201469
leaf_weight=64.554012335836887 32.11810564994812 2.5704664140939775 19.511859767138958 2.0883731395006171 1.8254467993974746 3.462594851851466 3.030936747789382 3.3303392529487672 7.0472669899463716 5.6741580516099912 2.7943074554204923 2.5942349135875684 2.1882124096155149 69.568393185734749 4.387776717543602 2.0961147993803024 2.0966803282499304 6.4153119921684247 5.1753233075141907 5.8026965409517306 4.8678982257843044 2.1056610345840454 4.8054635971784574 3.1286471039056769 3.3577803820371654 3.0225446224212629 3.675630658864975 3.3992663621902466 2.8309408575296402 2.1106654107570639 15.97576294839382 6.7843009978532782 2.5272896885871887 68.698212161660194 14.783239677548407 24.891370579600338 3.3947006314992931 7.6511470228433636 2.972701549530032 13.010919839143751 3.4998369663953781 1.9745697826147068 2.3346142768859863 6.9869291186332703 5.6238970011472702 4.0321528911590576 6.6607356518507004 7.4559132009744635 3.7531518489122391 3.2682177126407606 5.2024083137512207 8.9152327328920382 10.734494835138326 2.067908063530921 7.9872076213359824 2.6431070268154144 9.0011094659566862 67.810770809650421 4.1961534023284894 3.9065348356962195 2.9928660988807678 1.9044122248888014
leaf_count=524 161 12 111 9 11 15 18 19 31 26 14 12 11 350 19 10 11 35 24 24 25 10 22 13 14 13 16 14 14 11 75 29 12 313 68 122 14 37 15 66 16 10 11 30 27 17 31 33 16 14 25 40 47 10 37 11 46 294 21 16 14 10
internal_value=0 -0.132265 -0.171846 0.029973 -0.0695875 0.0568864 0.017762 0.0523016 -0.00281375 0.08186 -0.0163403 0.00111019 -0.0313715 -0.0518038 0.124118 0.24739 0.0376796 0.0784925 0.218467 0.0539709 0.0482492 -0.0620261 0.14244 0.20962 0.14343 0.082341 -0.00434989 0.216429 -0.0274889 0.0122814 -0.018494 0.0444994 -0.0804097 0.0397688 -0.0548631 0.0478236 0.000443644 0.0696218 0.0366567 0.0944565 0.292423 -0.0781675 0.272619 0.149146 0.0934252 0.197668 0.19164 0.0651484 -0.11444 0.0239826 0.126292 -0.00211205 -0.0579233 -0.0146246 0.0170163 0.0193674 0.0778137 0.072165 0.100923 0.116747 -0.0238841 0.118322
internal_weight=0 129.428 102.41 485.851 37.8556 266.824 27.0182 23.9872 219.027 30.1698 188.857 156.739 92.7965 82.0188 10.7778 6.48389 18.3437 16.247 7.00077 264.736 63.9426 4.29387 21.9683 14.921 25.3457 17.2084 10.4513 6.75705 9.24625 21.4168 19.3061 239.39 8.20145 232.606 18.2458 214.36 57.3952 30.5293 27.1346 19.4835 6.47254 26.8659 8.13731 11.7924 12.4504 6.82646 9.25497 156.965 6.7757 54.6876 11.1137 43.5739 25.6575 20.7896 18.7217 7.84552 17.9163 149.509 80.8107 71.7173 9.09343 4.89728
internal_count=3126 865 730 2261 206 1210 135 117 1051 134 917 756 458 408 50 29 95 84 35 1201 298 21 96 65 108 73 45 28 49 105 94 1093 38 1064 83 981 280 148 134 97 31 132 35 52 58 31 43 701 29 255 50 205 119 94 84 36 86 668 355 310 45 24
shrinkage=0.2


Tree=5
num_leaves=63
num_cat=0
split_feature=23 24 30 58 51 23 13 33 25 32 48 34 19 58 30 51 13 58 51 32 19 32 15 29 23 5 13 19 53 13 19 29 34 23 0 53 30 12 46 53 35 58 0 53 13 46 23 12 0 0 5 56 0 58 53 30 51 56 56 29 56 46
split_gain=49.0309 17.581 10.3188 9.30534 8.66059 7.6118 6.58166 6.13908 7.34218 5.93176 5.81787 7.41286 5.5643 5.73752 5.95632 5.55127 5.53931 6.82969 4.7215 7.57546 6.87452 6.30756 4.62043 4.13988 4.12046 6.05725 8.20868 4.04181 6.0439 5.05346 4.94202 5.03183 4.03111 3.98313 5.80829 4.51996 3.93399 3.62733 4.30256 3.53372 3.48781 5.29169 3.51486 4.98934 5.78047 3.43775 4.49448 4.01262 3.59883 5.61731 5.43917 5.30211 4.26597 3.89118 4.77184 8.4313 6.88672 6.14412 4.85172 4.1295 5.02425 4.68138
threshold=0.003667419793217309 0.0039875913829053441 4.503496832834908e-05 0.38500000000000006 0.001791948302755701 0.0067263446503955894 0.00040518638573743931 0.40347837370812673 0.58333333333333348 0.8159047760511885 0.098452278589853823 0.32523753582068377 0.000238701838739984 1.1450000000000002 5.5042739067982201e-05 0.00090061650449379789 0.00012653188887941087 1.385 0.0010491718042041152 0.8158924817184644 0.00023693585719566844 0.81582792504570401 0.17700151456447469 0.0002720327366553782 0.0042170780438513253 0.00041980516855618044 0.00012653188887941087 0.00033465350264779505 0.97243137209959751 0.0011305411015382868 0.0010404574598592397 0.00047452023867118213 0.3445952103700089 0.0045283140211161317 0.21191115286538723 0.97547884816673924 0.00015688652365366052 0.11631319040036053 0.010428193270190992 0.97547884816673924 0.018192190053889602 1.5050000000000001 0.098000268420346273 0.97318201960469719 8.9567516847223431e-05 0.010510041409400281 0.034013226314492558 0.11740364699385059 0.22933834384646357 0.26368943765937464 0.00044927291305249891 0.14090142037847703 0.21748087505032881 0.62500000000000011 0.97223845760083127 0.0010840770480608475 0.011773007502042637 0.13799911991747155 0.1381350760627931 8.9400903080148387e-05 0.13804270891062806 0.010645933998318619
decision_type=2 2 2 2 2 2 2 2 2 2 2 2 2 2 2 2 2 2 2 2 2 2 2 2 2 2 2 2 2 2 2 2 2 2 2 2 2 2 2 2 2 2 2 2 2 2 2 2 2 2 2 2 2 2 2 2 2 2 2 2 2 2
left_child=1 2 -1 -4 -5 12 18 8 -3 -9 11 -10 13 -2 -15 -16 17 -17 19 20 21 22 -7 -6 25 -14 -27 28 -8 36 31 39 -13 34 -26 -35 -30 -20 -39 -29 41 -22 -42 44 -44 46 -40 -47 51 50 -50 52 53 54 55 -49 57 -56 -59 -55 -61 -62
right_child=5 7 3 4 23 6 27 9 10 -11 -12 32 24 14 15 16 -18 -19 37 -21 40 -23 -24 -25 33 26 -28 30 29 -31 -32 -33 -34 35 -36 -37 -38 38 45 -41 42 -43 43 -45 -46 47 -48 48 49 -51 -52 -53 -54 59 56 -57 -58 58 -60 60 61 -63
leaf_value=-0.22394971232038624 -0.076083740440280503 -0.25900716619704828 -0.19471619841659879 -0.18580607820303163 0.2435194413253865 0.073766661386210394 0.36491582316688814 -0.13788730928419887 0.32177883682415204 0.24494142038099778 0.37550045548798389 -0.24257507417099206 0.15953380211268953 -0.07462570780710355 -0.096220898788422493 0.56822131112932706 -0.053473431930146781 0.15628462021757944 0.38456256399705668 0.30204395842347609 -0.1846276774073134 -0.057083183012429289 0.4597670619463296 -0.062889003244149741 -0.1384242748523494 -0.199297100858288 0.18436834342055877 -0.17491795846562791 -0.23108790678791782 0.19391651549093489 0.21308588185926869 0.13848770540759833 0.11924617658031922 0.029013876978757288 0.20640823085449905 -0.15585305250104314 0.046497395563064398 -0.22072911027774578 0.1137078873906954 -0.011167431251367585 -0.14469018505760797 0.092210957950528263 0.010766590457137473 -0.13731477415426868 0.43375878956107838 -0.13971601673076325 0.38780772308134998 0.22847852308185421 -0.28729819898326031 0.064901149813027539 0.1113841288281696 -0.18274556524733154 0.27915778589368706 0.10695463896268864 -0.19537060109809867 -0.16485844973447603 0.30639957327313028 0.28704385183191627 0.060073178633232284 -0.20418452911637203 0.23965988591924614 -0.040286054084202633
leaf_weight=54.157197818160057 62.902603693306446 1.8771224766969705 12.308898620307447 4.3036305531859389 6.4595977663993818 2.3525620996952039 2.2255601137876502 11.415942184627054 2.9547750949859601 1.8864870667457569 3.6708531379699707 2.7121177017688751 17.505712911486629 10.049827620387079 3.2285349965095511 2.4266989827156049 2.4440588355064392 4.783021554350853 1.4824426770210255 3.0385011583566657 14.013178810477262 4.1289294511079788 2.6238903403282166 2.4262807294726372 13.721693411469458 5.4027406871318799 3.7992163002490997 16.486344397068034 3.8208249658346158 3.8947279006242743 2.3215282708406439 3.3634708374738684 2.2563895285129547 91.744399353861809 2.2782571017742148 5.6139647960662833 4.3870750218629837 2.007526606321334 16.80393880605698 7.7491519004106513 3.880110099911688 3.4398045837879172 2.8732051253318787 2.6173934042453766 2.3486330956220627 3.7776648104190818 2.7902135252952567 18.863764554262165 4.4502429664135006 12.663254171609877 1.9768221676349638 2.9959648996591559 4.434681147336959 12.632367953658106 3.5770185738801947 2.4646511226892462 4.8498671650886527 4.0070837885141364 62.921774253249168 5.3807107955217388 3.1095127016305915 10.317317724227903
leaf_count=522 334 12 78 25 32 10 10 61 13 10 16 13 80 54 17 11 13 22 6 13 66 20 12 13 68 26 17 85 20 18 10 15 10 429 11 29 21 9 72 40 19 15 13 13 10 17 12 80 22 59 10 14 21 54 16 11 20 17 277 24 13 46
internal_value=0 -0.12743 -0.174557 -0.0696487 0.0470685 0.0222563 0.0451127 0.012779 0.107947 -0.0835964 0.167357 0.0709249 -0.00476568 -0.0448626 0.0407766 0.130805 0.20673 0.294937 0.0591038 -0.00191671 -0.0260452 0.125665 0.27729 0.159855 0.0198064 0.090478 -0.040893 -0.0253426 0.0620061 0.00630385 -0.0671717 -0.090746 -0.0782582 0.00315586 -0.0893231 0.0183539 -0.0827202 0.0729939 0.0704282 -0.12256 -0.0733976 -0.130066 0.010995 0.088053 0.201016 0.0737116 0.15274 0.0639372 0.0689121 -0.0123885 -0.164672 0.0803617 0.0863082 0.0796332 0.0995087 0.183026 0.0758704 0.0600131 0.0736621 0.0185119 -0.0408919 0.0245465
internal_weight=0 106.429 79.6556 25.4984 13.1895 492.972 267.072 26.7737 13.4713 13.3024 11.5941 7.92328 225.901 85.8347 22.9321 12.8823 9.65378 7.20972 222.823 41.3162 38.2777 9.10538 4.97645 8.88588 140.066 26.7077 9.20196 44.2487 14.3282 12.1026 29.9205 27.599 4.96851 113.358 16 97.3584 8.2079 181.507 180.024 24.2355 29.1723 17.453 11.7193 7.83923 5.22184 178.017 19.5942 158.423 154.645 19.0903 6.42707 135.555 132.559 128.124 96.6842 21.3284 75.3557 70.5059 66.9289 31.4399 18.8075 13.4268
internal_count=3126 805 670 148 70 2321 1210 135 64 71 52 36 1111 451 117 63 46 33 991 191 178 42 22 45 660 123 43 219 69 59 150 140 23 537 79 458 41 800 794 125 136 81 55 36 23 785 84 701 684 91 32 593 579 558 421 91 330 310 294 137 83 59
shrinkage=0.2


Tree=6
num_leaves=63
num_cat=0
split_feature=30 22 21 49 13 21 5 46 0 12 56 29 0 58 0 49 44 14 32 32 32 12 44 14 30 54 29 29 0 49 58 30 21 29 43 49 43 32 58 14 44 46 32 58 0 0 32 30 5 56 13 32 30 49 58 32 32 10 29 43 54 41
split_gain=35.9421 15.1374 5.88796 4.71841 4.66978 4.67051 5.41331 10.2101 4.76224 5.89876 4.58267 4.21225 5.74823 4.86917 5.93393 4.8209 6.12211 4.30887 5.02687 5.91566 8.17127 5.64726 5.42863 4.5974 4.56026 4.31479 4.21408 7.61956 4.24024 4.06303 4.02417 4.55405 6.08713 5.18393 5.31781 4.93827 4.63306 5.00452 6.05795 4.35719 4.12652 5.10843 4.46945 4.11679 4.0437 4.02099 9.16193 4.04274 4.01808 3.92909 4.2768 3.82453 3.70565 3.69333 6.46979 3.67367 4.28266 4.49168 3.65802 4.28784 8.5337 5.85265
threshold=4.7978430310594124e-05 0.56493506493506496 0.1573589533932952 0.70328559393428824 6.966362421450711e-05 0.15621422730989373 0.00044474597007103828 0.010936803365398063 0.22933834384646357 0.11822752517657047 0.13788859068482465 0.00034419851636832775 0.32537914373909543 0.085000000000000006 0.285243591464233 0.60712721145745585 0.0034576225179148499 0.82516090752630711 0.81586245429616089 0.8158342093235833 0.81583073583180998 0.12022988112614792 0.0031475690639193722 0.82575620643315772 0.00022988438081333746 0.94318996735465699 0.0078438961457829408 0.0019501894855668441 0.12642598308951822 0.59004212299915759 0.03500000000000001 6.9760048979207405e-05 0.15482420278004907 0.00059365424931462677 0.038863303106309095 0.59226621735467566 0.038757042253521133 0.81582561700182821 0.6150000000000001 0.81921970655496801 0.0032377380684020822 0.010497044418450464 0.81585477605118839 1.385 0.031901758153268026 0.1336666219299423 0.81589581809872025 0.00066787152377139919 0.00043282104280895479 0.14028806097477445 0.00022036452557650207 0.81582182358318101 0.00038235571149363036 0.5968155012636901 0.34500000000000003 0.81587653107861069 0.81590541590493604 0.29644204851752026 0.00026880745041122403 0.038779974366748439 0.94561250156091126 0.036429100353669329
decision_type=2 2 2 2 2 2 2 2 2 2 2 2 2 2 2 2 2 2 2 2 2 2 2 2 2 2 2 2 2 2 2 2 2 2 2 2 2 2 2 2 2 2 2 2 2 2 2 2 2 2 2 2 2 2 2 2 2 2 2 2 2 2
left_child=1 29 3 4 5 6 7 30 9 53 -11 12 17 14 15 16 -13 18 19 20 -6 25 -20 -19 -23 -21 27 28 -15 -1 -2 32 -32 34 44 -35 -34 43 -39 40 41 -37 -43 51 -33 46 -25 -48 -22 50 -17 -38 -5 54 -8 -3 57 -57 59 -24 -61 -62
right_child=2 55 -4 52 11 -7 8 -9 -10 10 -12 13 -14 26 -16 49 -18 23 22 21 48 24 58 45 -26 -27 -28 -29 -30 -31 31 33 36 35 -36 39 37 38 -40 -41 -42 42 -44 -45 -46 -47 47 -49 -50 -51 -52 -53 -54 -55 -56 56 -58 -59 -60 60 61 -63
leaf_value=-0.21016659281455619 0.099314860971457336 0.064901583119241518 -0.1918521077988615 0.045835688649917196 -0.020082834168657786 -0.079550073723779119 0.22664224080729856 0.27032055471981931 -0.27081011651906089 0.23737688035875815 -0.034387201908151706 0.13842902652161659 -0.211424929029873 0.00839113102441345 -0.28201032873870852 0.078638904821428934 -0.18594103142520871 -0.26274699582965333 -0.35228082417439904 -0.0040115089512628797 0.5049381272377641 0.044291795546460261 0.10913359937436409 0.24601267025357068 -0.21387181422705759 -0.16847324689560025 0.38496919395780371 -0.21794919202677049 0.22764421075337801 -0.068810356176631407 -0.14643081209722478 -0.39167231035992506 0.35646479326733937 -0.14239174226999551 0.16515659490145929 0.18178854063954372 0.22176211839376575 0.50216603099244961 0.10663481062858032 0.30717196087744641 0.31343293542410056 -0.21422038460345291 0.1194516215914036 -0.26115337790905363 -0.0099701336595575361 -0.091407979144104201 -0.17491979999921625 0.043485092586873386 0.13196090765790228 -0.018805400900001129 0.42135773631942597 -0.13306507745133531 0.39228740351611124 -0.2520395788429598 -0.19019181595398316 0.021116599558604968 0.16696379546694096 -0.25870795572026023 0.24293490957464386 -0.041588998684811161 -0.020813797596957586 0.24176175138301828
leaf_weight=46.324657745659351 41.433094784617424 14.690884828567507 5.4069293439388266 2.5696303099393836 10.331862077116964 13.232470482587813 2.5837124884128624 8.3136149793863279 3.2914375215768805 4.8791566044092161 5.051673024892807 3.6336384564638191 5.7869134396314612 5.5433137565851274 2.7974784970283499 3.2594016194343549 6.4746288955211639 4.1063007265329352 1.3793407529592503 9.0790107920765895 2.0884260088205329 20.732168808579448 23.78929091989994 5.5064204484224346 3.1531573683023444 21.472715206444263 2.228009805083274 2.6761016175150862 9.7060011029243451 9.8657472431659681 3.0615218281745937 1.1224224120378483 3.750823691487315 2.8513115048408535 7.0721553117036811 5.3612798154354113 3.0551825910806638 2.1714492440223694 5.402593769133091 4.6969827860593787 2.61742179095745 4.0007259398698807 2.6823178827762604 1.9519520401954649 101.71220807731152 27.143043696880341 6.429697707295416 7.1710538119077682 2.5859295800328255 4.3507826030254364 2.6330728530883789 2.0174294859170914 2.3775143325328827 4.5300131440162659 3.516771525144577 3.8971329480409604 2.1851020678877822 5.5798439458012581 3.670350417494773 38.869944088160992 5.5698093920946112 8.6980743706226331
leaf_count=522 196 72 37 13 50 72 13 36 18 22 23 17 32 25 14 14 31 20 6 44 9 104 110 24 17 116 10 14 45 55 17 5 16 15 30 23 14 10 26 20 11 19 12 12 472 138 32 34 13 21 11 10 11 22 18 19 12 36 17 183 27 39
internal_value=0 -0.126694 0.0157269 0.017989 0.0160317 0.0359535 0.0426827 0.0532595 -0.0474534 -0.0116986 0.0991343 -0.00305572 -0.0148929 0.0536838 -0.00889251 0.0286497 -0.0693391 -0.00925635 0.00759801 -0.0319949 0.0791855 -0.0626431 0.0411375 -0.0599368 0.010211 -0.1196 0.125561 0.0933186 0.147943 -0.185348 0.0440035 0.0290765 0.114641 0.0152097 -0.00259941 0.103339 0.1582 0.10726 0.220032 0.139532 0.0858271 0.0363648 -0.0802972 -0.0143332 -0.0141363 -0.0419304 0.0283559 -0.0597649 0.298601 0.125347 0.231784 0.0806437 0.212335 -0.115237 -0.0136518 -0.00163022 -0.0854413 -0.143638 0.0478705 0.0385635 0.00697 0.139259
internal_weight=0 82.5434 501.58 496.173 491.226 240.36 227.127 203.274 23.8528 20.5613 9.93083 250.866 207.564 43.3024 23.149 20.3515 10.1083 201.777 151.42 69.4433 15.0062 54.4371 81.9768 50.3565 23.8853 30.5517 20.1534 17.9254 15.2493 56.1904 194.961 153.528 21.411 132.117 109.907 22.21 18.3494 14.5986 7.57404 19.3587 14.6617 12.0443 6.68304 7.02456 102.835 46.2502 19.1072 13.6008 4.67436 10.2433 5.89247 5.07261 4.94714 10.6305 6.10048 26.353 11.6621 9.47698 80.5975 76.9271 53.1378 14.2679
internal_count=3126 716 2410 2373 2349 1132 1060 944 116 98 45 1217 1015 202 108 94 48 983 735 353 72 281 382 248 121 160 94 84 70 577 908 712 105 607 507 100 88 72 36 85 65 54 31 36 477 228 90 66 22 46 25 24 24 53 31 139 67 55 376 359 249 66
shrinkage=0.2


end of trees

feature_importances:
Column_0=37
Column_58=25
Column_32=24
Column_19=23
Column_11=20
Column_44=17
Column_23=16
Column_49=15
Column_53=15
Column_56=15
Column_29=13
Column_43=13
Column_3=12
Column_8=12
Column_14=12
Column_13=11
Column_52=11
Column_1=10
Column_21=10
Column_50=10
Column_57=10
Column_18=9
Column_30=9
Column_54=8
Column_35=7
Column_46=7
Column_51=7
Column_12=6
Column_45=6
Column_5=5
Column_41=5
Column_20=4
Column_9=3
Column_15=3
Column_25=3
Column_42=3
Column_10=2
Column_22=2
Column_24=2
Column_34=2
Column_47=2
Column_48=2
Column_6=1
Column_17=1
Column_26=1
Column_33=1
Column_37=1
Column_38=1

parameters:
[boosting: gbdt]
[objective: binary]
[metric: binary_logloss]
[tree_learner: serial]
[device_type: cpu]
[data: ]
[valid: ]
[num_iterations: 10000]
[learning_rate: 0.2]
[num_leaves: 63]
[num_threads: 0]
[force_col_wise: 0]
[force_row_wise: 0]
[histogram_pool_size: -1]
[max_depth: -1]
[min_data_in_leaf: 10]
[min_sum_hessian_in_leaf: 0.001]
[bagging_fraction: 1]
[pos_bagging_fraction: 1]
[neg_bagging_fraction: 1]
[bagging_freq: 0]
[bagging_seed: 21709]
[feature_fraction: 0.5]
[feature_fraction_bynode: 1]
[feature_fraction_seed: 24116]
[extra_trees: 0]
[extra_seed: 15571]
[early_stopping_round: 50]
[first_metric_only: 0]
[max_delta_step: 0]
[lambda_l1: 0]
[lambda_l2: 0]
[min_gain_to_split: 0]
[drop_rate: 0.1]
[max_drop: 50]
[skip_drop: 0.5]
[xgboost_dart_mode: 0]
[uniform_drop: 0]
[drop_seed: 15722]
[top_rate: 0.2]
[other_rate: 0.1]
[min_data_per_group: 100]
[max_cat_threshold: 32]
[cat_l2: 10]
[cat_smooth: 10]
[max_cat_to_onehot: 4]
[top_k: 20]
[monotone_constraints: ]
[monotone_constraints_method: basic]
[monotone_penalty: 0]
[feature_contri: ]
[forcedsplits_filename: ]
[refit_decay_rate: 0.9]
[cegb_tradeoff: 1]
[cegb_penalty_split: 0]
[cegb_penalty_feature_lazy: ]
[cegb_penalty_feature_coupled: ]
[path_smooth: 0]
[interaction_constraints: ]
[verbosity: -1]
[saved_feature_importance_type: 0]
[max_bin: 255]
[max_bin_by_feature: ]
[min_data_in_bin: 3]
[bin_construct_sample_cnt: 200000]
[data_random_seed: 4074]
[is_enable_sparse: 1]
[enable_bundle: 1]
[use_missing: 1]
[zero_as_missing: 0]
[feature_pre_filter: 1]
[pre_partition: 0]
[two_round: 0]
[header: 0]
[label_column: ]
[weight_column: ]
[group_column: ]
[ignore_column: ]
[categorical_feature: ]
[forcedbins_filename: ]
[objective_seed: 10917]
[num_class: 1]
[is_unbalance: 0]
[scale_pos_weight: 1]
[sigmoid: 1]
[boost_from_average: 1]
[reg_sqrt: 0]
[alpha: 0.9]
[fair_c: 1]
[poisson_max_delta_step: 0.7]
[tweedie_variance_power: 1.5]
[lambdarank_truncation_level: 20]
[lambdarank_norm: 1]
[label_gain: ]
[eval_at: ]
[multi_error_top_k: 1]
[auc_mu_weights: ]
[num_machines: 1]
[local_listen_port: 12400]
[time_out: 120]
[machine_list_filename: ]
[machines: ]
[gpu_platform_id: -1]
[gpu_device_id: -1]
[gpu_use_dp: 0]

end of parameters

pandas_categorical:null
