tree
version=v3
num_class=1
num_tree_per_iteration=1
label_index=0
max_feature_idx=58
objective=binary sigmoid:1
feature_names=Column_0 Column_1 Column_2 Column_3 Column_4 Column_5 Column_6 Column_7 Column_8 Column_9 Column_10 Column_11 Column_12 Column_13 Column_14 Column_15 Column_16 Column_17 Column_18 Column_19 Column_20 Column_21 Column_22 Column_23 Column_24 Column_25 Column_26 Column_27 Column_28 Column_29 Column_30 Column_31 Column_32 Column_33 Column_34 Column_35 Column_36 Column_37 Column_38 Column_39 Column_40 Column_41 Column_42 Column_43 Column_44 Column_45 Column_46 Column_47 Column_48 Column_49 Column_50 Column_51 Column_52 Column_53 Column_54 Column_55 Column_56 Column_57 Column_58
feature_infos=[0:1] [0:1] [0:1] [0:1] [0:1] [0:1] [0:0.63259234121673757] [0:1] [0.0048403742429264469:0.79436225027872365] [0:1] [0:0.89692722371967648] [0:0.60700712589073635] [0:1] [0:0.50814353550001423] [0:1] [0:1] [0:1] [0:1] [0:0.99970609925660503] [0:1] [0:1] [0:0.29370400654129192] [0:1] [0:0.6433689782239228] [0:0.79913836121014803] [0:1] [0:0.29253904403218506] [0:0.94555049191697438] [0:1] [0:0.91478088211578767] [0:1] [0:1] [0:0.85213053016453388] [0:0.73059819077620924] [0:0.85262682364582376] [0.0059419582893115493:0.60780116101916304] [0:1] [0:1] [0:1] [0:1] [0:1] [0:0.048127652519893899] [0:0.7170045703452177] [0:0.050371516771864064] [0:0.53406024943117869] [0:0.77762837500000004] [0:0.53955774036618609] [0:1] [0:0.98710232158211519] [0:1] [0:1] [0:0.94908267102428889] [0:1] [0:1] [0:1] [0:1] [0:1] [0:0.79830039372850981] [-67.730000000000004:696.33000000000004]
tree_sizes=6708 6698 6687 6713 6688 6738 6742 6744

Tree=0
num_leaves=63
num_cat=0
split_feature=19 25 19 13 19 58 21 33 48 0 0 35 19 0 0 35 58 13 19 19 0 1 13 52 52 0 54 0 41 13 12 57 19 19 19 56 19 57 35 45 57 0 41 21 45 53 41 52 1 47 12 19 54 58 56 41 56 52 57 57 41 35
split_gain=217.242 54.5426 36.7863 26.4728 21.3236 16.6574 15.2263 14.9824 16.4114 9.92826 11.9275 13.2907 11.3745 9.03812 9.65263 11.9705 13.919 8.86569 7.99356 7.90679 7.8605 7.61469 10.5099 7.38808 7.37638 7.15152 7.05802 7.80739 6.87562 9.22458 6.69662 8.66025 14.0669 14.0236 7.59051 7.42992 6.54054 6.82584 6.85572 6.31175 10.8273 8.96294 6.288 6.17693 9.13252 6.04514 6.01031 5.93085 5.93009 5.90276 5.89304 5.81005 5.79124 5.74781 5.74228 5.71383 7.30778 5.52701 7.99322 10.7875 7.18598 7.1922
threshold=0.00017806980571848376 0.58333333333333348 0.00023693585719566844 0.00040518638573743931 0.00036879581250456222 0.38500000000000006 0.15621422730989373 0.40347837370812673 0.058039552880481522 0.16555495906589721 0.051919205475775061 0.018988165557356246 0.00069491373768816556 0.051919205475775061 0.12909676553482755 0.01798042311773641 1.1150000000000004 0.0001201342091046092 0.00025047504903542096 0.00029697922970239686 0.24677895584485302 0.12071374609060247 0.00027893883818135294 0.82469576626395702 0.8204045002524275 0.17031270970339554 0.94570972403089726 0.07179573211649444 0.036408909427497797 6.966362421450711e-05 0.11763199906647258 0.00025577780726064174 0.00027048950653766376 0.00028520601940695991 0.00034466073139891647 0.13906808808297688 0.00019808426322072656 0.00074115378498464796 0.018517700802911107 0.74398262500000012 7.4074593380085867e-06 0.040229499396054226 0.036403901414677288 0.15605069501226496 0.74378943750000015 0.97187554913780594 0.036407424292661368 0.81358749251523388 0.11849661847800828 0.064824120603015095 0.12128512925029097 0.00019926158425027026 0.94492302477835077 1.385 0.13735722010158316 0.036418635333775422 0.13906808808297688 0.81992752985100925 0.00027495783590369971 0.00022665502813710203 0.036401421584880647 0.018258887391313396
decision_type=2 2 2 2 2 2 2 2 2 2 2 2 2 2 2 2 2 2 2 2 2 2 2 2 2 2 2 2 2 2 2 2 2 2 2 2 2 2 2 2 2 2 2 2 2 2 2 2 2 2 2 2 2 2 2 2 2 2 2 2 2 2
left_child=1 -1 5 4 13 28 9 8 49 10 12 17 -6 -4 15 16 42 52 -5 -18 21 43 50 30 26 -11 27 -19 29 -2 -17 32 -32 -33 35 -35 37 -22 -39 47 -41 -42 -15 44 -7 51 -27 -14 -38 -3 -23 -45 54 57 -12 -34 -57 -16 59 -59 -60 -62
right_child=2 7 3 18 6 20 -8 -9 -10 25 11 -13 39 14 53 23 19 24 -20 -21 36 22 -24 -25 -26 46 -28 -29 -30 -31 31 33 55 34 -36 -37 48 38 -40 40 41 -43 -44 45 -46 -47 -48 -49 -50 -51 -52 -53 -54 -55 -56 56 -58 58 60 -61 61 -63
leaf_value=-1.10500057122916 -0.78553487949494605 -1.1243971148545111 -1.0716852115763569 -0.54051141700418326 -0.87840823288978986 -0.84368283704185376 -1.0685845113835244 -0.95012510809816364 -0.39697284961597756 -1.1243971148545111 -0.37684648654613667 -0.92464674453729401 -0.73178431802411847 -0.72489637422007647 -0.87137997911936926 -0.36534570764908475 -0.74487141125179812 -0.55510855945044191 -0.89108213313153195 -0.27046428174840664 -0.27046428174840642 -0.2618386975756174 -1.0295156889538331 -1.0295156889538333 -0.52863002198978704 -0.43435038103139684 -0.51444509120729365 -1.0105394037736974 -1.0422881885943092 -1.0227384442466418 -1.0227384442466418 -0.45621805921593167 -0.92107977363877214 -0.87688035163535061 -0.41278642059942389 -0.51444509120729354 -0.64998998535111974 -0.78553487949494605 -0.36534570764908492 -0.34809453930350681 -0.91354950174189298 -0.51444509120729354 -1.0169841798726116 -0.62502118906146775 -0.52514600390285882 -1.0072595520141678 -0.77726994692520046 -0.49185427551665584 -1.1243971148545113 -0.71776243242303295 -0.68161712731801261 -0.94193283427628394 -0.36122042826209877 -1.0295156889538333 -0.58221753827920675 -0.52906267783064742 -0.83975283715247651 -0.71409905690563225 -0.53138820297527189 -0.2618386975756174 -1.0027542611356932 -0.79462630532166612
leaf_weight=123.7333849966526 14.75525885820389 2.1078941226005572 3.7942094206809989 2.7402623593807212 11.382628262042997 35.623410671949387 3.5834200084209433 10.32868120074272 6.3236823678016663 2.1078941226005581 6.956050604581832 4.0049988329410544 6.1128929555416134 4.004998832941058 25.294729471206665 3.1618411839008322 4.21578824520111 2.1078941226005572 51.432616591453552 2.1078941226005554 2.1078941226005545 2.3186835348606101 2.1078941226005554 2.1078941226005545 9.0639447271823865 2.3186835348606136 2.9510517716407776 5.2697353065013885 21.922098875045776 11.804207086563109 5.9021035432815578 14.966048270463945 2.9510517716407803 9.6963129639625532 2.5294729471206656 2.9510517716407767 2.1078941226005545 5.9021035432815534 2.1078941226005554 2.3186835348606101 9.4855235517024976 2.9510517716407767 11.171838849782942 4.0049988329410571 4.0049988329410544 17.073942393064499 17.284731805324554 12.647364735603331 2.1078941226005554 4.4265776574611664 3.1618411839008331 5.4805247187614441 9.6963129639625532 4.21578824520111 25.083940058946609 10.750260025262831 4.21578824520111 23.397624760866169 3.3726305961608878 2.3186835348606101 8.2207870781421644 34.569463610649109
leaf_count=587 70 10 18 13 54 169 17 49 30 10 33 19 29 19 120 15 20 10 244 10 10 11 10 10 43 11 14 25 104 56 28 71 14 46 12 14 10 28 10 11 45 14 53 19 19 81 82 60 10 21 15 26 46 20 119 51 20 111 16 11 39 164
internal_value=-0.837871 -1.05225 -0.776355 -0.744019 -0.722209 -0.86523 -0.661813 -0.770748 -0.626658 -0.650749 -0.626361 -0.57169 -0.705672 -0.766171 -0.759806 -0.708207 -0.836032 -0.548565 -0.873349 -0.586736 -0.813422 -0.839753 -0.64999 -0.661808 -0.660303 -0.774349 -0.775853 -0.880416 -0.959386 -0.890959 -0.648239 -0.664815 -0.754947 -0.593592 -0.729058 -0.792312 -0.677896 -0.590689 -0.674959 -0.647006 -0.744871 -0.818847 -0.939905 -0.861509 -0.81149 -0.93614 -0.73671 -0.570034 -0.887194 -0.848935 -0.504019 -0.808126 -0.496646 -0.800893 -0.53763 -0.666734 -0.616581 -0.790974 -0.762679 -0.673321 -0.812458 -0.834611
internal_weight=0 146.92 512.007 375.416 321.243 136.592 135.327 23.1868 12.8582 131.743 110.032 65.1339 44.8981 185.916 182.122 80.7323 21.5005 61.1289 54.1729 6.32368 88.11 73.7763 7.58842 59.2318 19.3926 21.7113 10.3287 7.37763 48.4816 26.5595 57.1239 53.9621 23.8192 30.1429 15.1768 12.6474 14.3337 10.1179 8.01 33.5155 14.7553 12.4366 15.1768 66.1879 39.6284 26.5595 19.6034 18.7603 4.21579 6.53447 5.48052 9.48552 41.7363 101.39 32.04 17.9171 14.966 97.1739 71.8792 25.7163 46.1629 42.7903
internal_count=3126 697 2429 1781 1524 648 642 110 61 625 522 309 213 882 864 383 102 290 257 30 418 350 36 281 92 103 49 35 230 126 271 256 113 143 72 60 68 48 38 159 70 59 72 314 188 126 93 89 20 31 26 45 198 481 152 85 71 461 341 122 219 203
shrinkage=1


Tree=1
num_leaves=63
num_cat=0
split_feature=23 47 57 19 32 23 32 19 15 8 53 14 14 43 19 32 43 53 11 53 14 35 44 49 19 23 19 44 43 11 41 15 41 44 23 43 44 43 10 42 49 23 49 43 43 17 39 53 23 53 57 42 44 44 8 14 19 49 11 57 53 43
split_gain=162.426 34.0348 21.647 19.6213 12.9015 12.227 10.9553 10.7642 10.18 12.7109 10.1527 8.215 10.1765 8.07332 8.0094 7.56408 7.23171 7.13389 9.90579 8.36499 8.26392 7.98823 7.03759 10.7645 6.92265 6.83297 7.7041 6.76349 9.44812 15.7073 11.9729 9.46124 6.76041 7.56066 6.32006 6.28995 7.48031 6.27373 6.20246 6.12181 6.11608 9.70358 9.12494 6.03458 7.69646 6.03041 7.41365 5.93727 7.38392 7.06581 5.91115 5.80069 7.36189 8.508 7.302 6.86314 6.68987 5.55176 5.8898 9.30382 6.0687 8.54697
threshold=0.003749719651568503 0.060301507537688447 0.00027495783590369971 0.00017806980571848376 0.81587730804387582 0.0067164079403334307 0.81586263711151741 0.00034054010779551353 0.18646313972737841 0.015371041371621421 0.97231294933797863 0.81839453975339305 0.81377753503029548 0.038790710013505696 0.00028520601940695991 0.81597989031078622 0.038779292191505201 0.97400524880240213 0.0010273159144893113 0.97379323385821359 0.82309799052236998 0.018783218626242919 0.0030287737405394698 0.59304128053917438 0.00062898376003371875 0.0041447002035316398 0.0023087265389351848 0.0031316568866577178 0.038765951875637396 0.0016211401425178151 0.036401172911140589 0.1765993918260482 0.036416424900530507 0.003032127777903446 0.019493802539068902 0.038777211212480366 0.0035080890801123528 0.038770410132025035 0.28711590296495965 0.0028468464374555975 0.59641112047177758 0.01558679000737403 0.61164279696714419 0.038787299137289497 0.038794472313332058 0.41003937007874025 0.99949468137399478 0.97269113815734187 0.035392455383682096 0.97189082949414385 0.00095609135884153695 0.0032066666206832569 0.0032173798416114357 0.0033310271076419794 0.014676398137825054 0.82106257907848523 0.00040293812236132933 0.5908845829823085 0.0028087885985748225 9.0972859994917967e-05 0.97233013973885873 0.038777728011907063
decision_type=2 2 2 2 2 2 2 2 2 2 2 2 2 2 2 2 2 2 2 2 2 2 2 2 2 2 2 2 2 2 2 2 2 2 2 2 2 2 2 2 2 2 2 2 2 2 2 2 2 2 2 2 2 2 2 2 2 2 2 2 2 2
left_child=1 3 7 -1 38 6 11 57 9 22 13 12 -4 16 -13 17 27 18 -12 39 21 -19 40 -24 -10 -25 43 -7 30 31 -29 -30 33 -5 -23 -8 -37 -31 -3 -20 41 -9 -42 47 -45 -40 -47 49 -49 -27 -38 52 54 -54 -46 -55 -56 -2 59 60 61 -59
right_child=2 4 5 32 -6 10 35 8 24 -11 15 14 -14 -15 -16 -17 -18 20 19 -21 -22 34 23 25 -26 26 -28 28 29 37 -32 -33 -34 -35 -36 36 50 -39 45 -41 42 -43 -44 44 51 46 -48 48 -50 -51 -52 -53 53 55 56 -57 -58 58 -60 -61 -62 -63
leaf_value=-0.26225881321814132 -0.1412111365374305 0.36561146270405587 -0.17586215284366669 -0.28433086637257049 -0.12064319014936394 0.37297330700092124 0.22850068076777622 0.011034966519242356 -0.28829199121665333 -0.2232584721561095 0.3039071344965979 -0.16725004477924779 0.032120103664000886 -0.093475697018158999 0.21466614168550369 0.33468832020630646 0.41348020230815846 -0.18433928881255449 -0.17409238027673923 0.31303798726492027 -0.17195700148906742 0.34362573410350644 -0.083929073164869902 0.43464559843459316 0.092822509579654378 0.056782973990997299 -0.10689007829725015 0.13628604868363944 -0.12020274056944219 0.52818041429763196 -0.20588754542866483 0.22393026592295323 -0.20595783825755831 0.026905401060673108 -0.08649116678930685 -0.29000170471801945 0.11483092400389766 0.20401353110839354 -0.16361582044181563 0.024259271850850427 0.5106866758616746 0.42648154952860601 0.12083975664427167 0.38761173944835942 0.05524205955659528 0.38953954723283091 0.011403388974079588 -0.0051048459412387668 0.3245807854480478 0.34744943018513835 -0.14679959940961917 0.40537099350756733 -0.11334132481713551 0.34543619039247325 0.032734315241694456 0.013375981647948088 0.41606480430781095 -0.20699749504840628 0.18477625492525809 0.070452974472735838 -0.26022555776849793 0.31990100481982542
leaf_weight=99.270395010709763 5.7062902152538291 3.8345854431390789 12.284975230693815 3.7323140054941204 13.786069527268408 4.1422678381204596 7.6687592417001751 6.3747687786817568 3.5598916113376609 3.479931727051734 5.2790899127721778 32.689680323004723 40.216425985097885 5.9631600081920615 2.3546760976314536 2.9060969650745383 3.9238868802785865 3.3496532738208789 7.070546254515647 3.6366538852453223 15.84286993741989 4.0827586054801941 7.7519656568765631 3.5250887274742118 4.1045430451631546 6.3986865133047086 4.4115456938743582 9.5970108360052127 6.7024784982204455 5.2889591157436353 7.1288062930107108 6.1076307892799377 12.714915275573729 19.094062551856041 2.0539486259222031 2.749784559011462 16.707578808069233 4.3539983034133911 3.1605015248060218 51.982671186327934 6.9685409069061262 3.474610835313797 3.6645327061414719 8.2457360774278623 5.5603979378938702 3.3996627479791623 5.3183693140745163 19.500051274895672 3.157337859272956 7.0103192329406738 4.3545616120100012 3.8915121704339972 7.0408929586410549 4.8176998645067197 2.2999301552772513 5.1523834466934204 8.7468894869089109 2.6608217954635602 13.320992976427076 61.882765933871269 6.1847525984048843 2.2923978716135025
leaf_count=531 28 17 58 18 69 19 36 29 17 17 24 160 191 28 11 14 18 15 34 17 76 19 37 16 19 28 21 44 31 24 34 28 62 92 10 13 79 20 15 245 30 15 16 36 25 15 26 88 14 31 21 17 31 21 10 24 38 13 62 289 29 11
internal_value=0 -0.174025 0.0557807 -0.216604 0.0205638 0.017608 -0.0302153 0.102109 0.139358 0.153464 0.0557054 -0.0666005 -0.0165463 0.125808 -0.141589 0.0169334 0.153486 0.00703577 0.0407965 0.0186401 -0.0835585 0.064073 0.164574 0.142188 -0.0841933 0.161717 0.15056 0.129936 0.104241 0.189009 -0.00955372 0.0438737 -0.0890855 -0.0239845 0.199666 0.0709697 0.0202359 0.381812 0.144453 0.000510277 0.271147 0.157594 0.376332 0.16444 0.212663 0.0730597 0.15886 0.103263 0.0408373 0.208745 0.0607393 0.174204 0.147445 0.0549705 0.242167 0.173833 0.336256 0.0498497 0.0624768 0.040166 -0.128109 0.0368562
internal_weight=0 164.311 489.624 134.812 29.4992 268.439 119.026 221.185 129.137 121.473 149.412 87.5458 52.5014 53.2082 35.0444 96.2043 47.245 93.2982 67.969 62.6899 25.3292 9.48636 117.993 97.5104 7.66443 89.7585 86.2334 43.3212 39.1789 22.4531 16.7258 12.8101 35.5413 22.8264 6.13671 31.4807 23.8119 9.64296 15.7131 59.0532 20.4825 9.84938 10.6331 81.8218 45.7554 11.8785 8.71803 36.0664 22.6574 13.409 21.0621 37.5097 33.6182 17.011 16.6072 9.97008 11.0468 92.048 86.3417 73.0207 11.138 4.95322
internal_count=3126 845 2281 703 142 1269 569 1012 580 544 700 420 249 246 171 454 218 440 320 296 120 44 527 437 36 400 384 200 181 103 78 59 172 110 29 149 113 44 73 279 90 44 46 363 202 56 41 161 102 59 100 166 149 76 73 45 48 432 404 342 53 24
shrinkage=0.2


Tree=2
num_leaves=63
num_cat=0
split_feature=21 53 21 9 0 0 56 51 11 20 8 11 1 15 21 9 46 0 32 56 54 56 54 44 58 20 51 53 21 56 44 44 21 58 21 53 46 46 1 46 58 52 56 53 11 0 45 9 45 45 20 7 52 0 11 44 45 21 0 0 9 21
split_gain=57.8436 46.4107 16.0851 11.8928 11.634 10.2129 10.2317 8.78451 9.05075 8.59863 12.3126 7.86261 7.74684 7.42199 11.4133 9.48954 7.84953 7.20428 6.76738 6.50217 6.91512 6.00026 11.5316 10.0227 5.85828 6.49424 7.65329 5.77362 5.73288 5.62254 8.07191 5.9298 5.37295 5.59769 5.34748 5.16668 5.03933 8.52848 5.4373 4.97552 4.9587 4.88668 8.11244 5.64123 5.25963 4.76724 4.61668 4.61269 5.4547 4.54925 4.50417 5.19708 4.65022 7.9201 6.92554 9.10423 4.77323 4.41349 6.69453 13.7155 6.64575 5.38247
threshold=0.15515126737530666 0.97129298555242316 0.1555600981193786 0.18366641256768335 0.16693061334049122 0.15577774795329488 0.13727056103185528 0.0039274307360915106 0.0034026128266033259 0.8246282566071409 0.014759921053424536 0.0014904988123515441 0.11799514927888026 0.17992204102238976 0.15506950122649224 0.18708103137991466 0.010478782823571607 0.15163736411219975 0.81582973034734929 0.13919677939610567 0.94471430865012407 0.13891137527424746 0.9439882619476605 0.0032294699762955366 0.16500000000000004 0.82422760146994956 0.0014019906410161185 0.97364329536164795 0.15588716271463618 0.13906808808297688 0.0035293053164612257 0.0034391363119785157 0.15670482420278006 0.35500000000000004 0.15776778413736714 0.9727312490927289 0.012026905416454851 0.011384788255984787 0.12156579104879996 0.012751282013316158 0.41500000000000004 0.82357451892031519 0.13876659754697754 0.97192903038498868 0.0011223277909738719 0.11987652664071939 0.74376066666666685 0.1804423679929586 0.74380460416666672 0.74383364583333345 0.83579596820588697 0.082803897481601066 0.82121755133669139 0.092900281841363591 0.0010273159144893113 0.0029860292643660055 0.7437332708333334 0.15580539656582176 0.11003892095020804 0.069782579519527599 0.18246992070539977 0.15670482420278006
decision_type=2 2 2 2 2 2 2 2 2 2 2 2 2 2 2 2 2 2 2 2 2 2 2 2 2 2 2 2 2 2 2 2 2 2 2 2 2 2 2 2 2 2 2 2 2 2 2 2 2 2 2 2 2 2 2 2 2 2 2 2 2 2
left_child=1 13 5 4 34 11 -7 21 -9 10 -5 29 -12 14 50 -16 -17 46 -11 -6 28 22 35 -24 27 32 -27 -14 -21 30 31 -2 33 -26 39 -8 37 40 -39 57 -23 43 -43 44 -35 -41 -13 48 -25 -31 51 52 53 56 55 -55 -1 -4 59 -59 -61 -60
right_child=2 -3 3 9 19 6 7 8 -10 18 12 17 24 -15 15 16 -18 -19 -20 20 -22 36 23 47 25 26 -28 -29 -30 49 -32 -33 -34 41 -36 -37 -38 38 -40 45 -42 42 -44 -45 -46 -47 -48 -49 -50 -51 -52 -53 -54 54 -56 -57 -58 58 61 60 -62 -63
leaf_value=0.080822897022079079 0.021174248518869811 -0.24083514792563809 -0.04502997324021725 0.43612380287318342 -0.17781463356039698 0.45417276863620321 -0.0087928887237629233 0.46761322797719135 0.072560171908729737 0.2134101678371243 -0.19033263905388578 -0.13372795861970063 -0.22820452286073922 0.22293950398861453 -0.19161357342767121 0.24755802783968486 -0.20499016156685868 0.44141895561826616 -0.16019050482750744 0.37145651440703681 -0.088904103224817385 -0.025218476419634529 0.35156524290912139 -0.22951575843098368 -0.11655041022225335 0.036423290420085519 0.44606427723306052 0.090697594703602807 -0.047309833563351049 0.39658252706316982 -0.17138859848977761 0.3323230911091386 -0.15912780877159813 0.16843489045337948 -0.27066608638229706 -0.29615881620206813 -0.19006239425049759 0.45179260967012685 0.058523713826898707 0.020210782678004278 -0.2057140215414052 0.45311670280375288 0.099744594310041304 0.24604904509933806 -0.23632383237664675 0.41827618261404109 0.12982565974188251 0.18155705731022972 0.1460870195207081 0.055882788889427618 0.2925635820730938 0.13871966879000172 -0.093055294490962573 0.36009783824537211 -0.24708195650168291 -0.13946996047059321 0.37402445573039539 -0.043212141652506982 -0.074229330922702202 0.31047210289119725 -0.007890704694385825 0.16090242488693582
leaf_weight=9.8470604866743106 25.794306382536892 63.607285171747208 47.13484925031662 4.0518167167901984 28.120496720075607 2.1380334496498099 22.48344869911671 3.1013880372047415 9.2036825418472272 2.4229087084531775 4.0869838893413535 2.7363087385892859 3.9005008488893491 4.8400876820087424 23.241104930639271 4.1510876566171637 2.430919423699379 2.9161155074834815 9.7182769775390607 2.6582306772470501 23.380592525005341 34.376117780804634 7.1881351917982128 3.5390817075967771 3.3668476939201417 2.8813386708497992 4.9729457497596741 5.4353288859128952 2.57370725274086 2.7573004364967337 8.4951303303241712 2.7071130573749533 3.0934274345636359 2.1270142495632189 2.8019285947084418 2.8161214739084235 8.697818771004675 2.1412992775440207 4.0966503024101257 2.5567842274904242 7.3986453413963309 4.6367419213056547 5.9120060950517654 3.6609829068183899 3.2407561987638474 2.2735161632299423 93.603473871946335 5.8342471569776535 2.7470416277647018 3.6335442513227463 2.3502024561166754 10.13316038250923 19.454316183924675 2.4678069204092008 5.3965502381324768 3.5702858567237854 2.8677678853273383 12.983506157994272 22.119715273380283 11.513305217027662 3.3964992463588706 4.7262775599956504
leaf_count=44 117 387 218 19 140 10 107 14 43 12 20 14 20 23 133 19 13 13 49 12 115 163 32 17 16 13 22 25 13 12 38 12 15 10 15 13 43 10 20 12 36 20 27 17 15 11 414 27 13 16 11 48 99 12 27 16 13 64 107 52 16 22
internal_value=0 -0.109843 0.0306181 -0.00788446 -0.0360095 0.0648507 0.0207141 0.0125578 0.17213 0.0657361 0.101514 0.10067 0.0728602 -0.0180299 -0.0316059 -0.131575 0.0804193 0.131714 -0.0856343 -0.109517 -0.0423931 -0.00682211 0.0480556 0.164455 0.0977437 0.136386 0.295788 -0.0425394 0.165456 0.029649 -0.000274546 0.0507277 0.0883023 0.121662 0.00207309 -0.0407799 -0.0499885 -0.0246131 0.193521 0.00923488 -0.0571857 0.162628 0.255071 0.0546229 -0.0759355 0.207571 0.12234 0.0534869 -0.065377 0.202876 0.0215508 0.00969796 -0.0202856 0.0383361 -0.0824412 0.0647066 0.146953 -0.00016912 0.0384596 0.107076 0.237948 -0.032834
internal_weight=0 154.358 488.152 229.747 166.239 258.405 115.762 113.624 12.3051 63.5079 51.3667 142.643 47.3149 90.7504 85.9103 29.8231 6.58201 99.2559 12.1412 56.733 28.6125 101.319 44.6081 19.3085 43.2279 33.8921 7.85428 9.33583 5.23194 43.3874 36.9965 28.5014 26.0378 22.9443 109.506 25.2996 56.7105 48.0127 6.23795 106.704 41.7748 19.5775 10.5487 9.02875 5.36777 4.8303 96.3398 12.1204 6.28612 6.39084 56.0872 53.7369 43.6038 24.1495 11.4346 6.03809 12.7148 101.874 54.7393 27.8933 14.9098 26.846
internal_count=3126 845 2281 1097 797 1184 548 538 57 300 239 636 220 458 435 165 32 441 61 280 140 481 209 89 200 155 35 45 25 195 167 129 120 105 517 120 272 229 30 502 199 89 47 42 25 23 428 57 30 28 270 259 211 112 55 28 57 479 261 132 68 129
shrinkage=0.2


Tree=3
num_leaves=63
num_cat=0
split_feature=50 25 18 13 29 52 0 29 49 43 19 44 11 51 12 49 3 50 29 42 49 11 18 19 49 0 18 3 52 54 0 49 56 34 52 19 3 52 0 49 18 11 18 29 18 11 13 43 3 49 52 13 29 52 50 43 43 52 49 11 51 43
split_gain=82.3992 32.7659 14.7305 12.8358 8.60434 7.4396 9.65069 11.7018 8.66819 10.7088 6.83131 6.66313 6.52658 10.8279 10.3956 7.90184 6.89543 9.63216 8.61848 6.64382 5.88366 5.37795 5.36303 5.81912 5.79099 7.06522 7.32224 7.79902 6.99027 6.83018 6.84327 6.35839 6.27636 5.30375 5.13363 5.07631 5.11102 5.05539 5.9005 4.92734 6.96908 4.8868 7.94967 7.92085 5.30207 5.51347 4.97042 5.38863 4.93551 4.88258 4.83555 4.813 4.66452 5.34986 5.22554 4.80935 6.24392 4.6466 5.90244 4.61035 4.5773 6.24367
threshold=4.4999509360188272e-05 0.58333333333333348 0.99770806219699215 0.00040518638573743931 0.00047583051120786977 0.82311369213248342 0.16629311501811841 3.6990001612643128e-05 0.59071609098567823 0.038760163722058386 0.00022516264690023154 0.0031272888379976558 0.0019299287410926367 0.0008263388546386394 0.11746450734800755 0.60112889637742206 0.00039739205225636096 0.00018551410633006651 0.00010189888727624577 0.0028780881071889517 0.60588037068239264 0.0015617577197149647 0.99770814781023309 0.00036173188632730008 0.60375737152485265 0.0782311099181318 0.99774156551192728 0.00041852915020099726 0.8245446033367384 0.95072872255026131 0.18480740840155688 0.59786015164279716 0.13810549781743689 0.38531023902659028 0.82244153076679238 0.0023087265389351848 0.0004260391513601285 0.81405785871109415 0.074084015568380096 0.61430497051390065 0.99771924899380193 0.002238717339667459 0.99770098483574532 0.00013455491049830674 0.997704742305762 0.0021318289786223282 3.4831812107253555e-05 0.038772449767095735 0.00046966729038963373 0.59304128053917438 0.82134303124229524 0.00019633768375558022 0.00011076842444766975 0.82000090991276597 0.00021715892258981177 0.038777438604228116 0.038766565144290409 0.81826987425592634 0.59930918281381651 0.0013123515439429931 0.002794696575800342 0.038775405859816439
decision_type=2 2 2 2 2 2 2 2 2 2 2 2 2 2 2 2 2 2 2 2 2 2 2 2 2 2 2 2 2 2 2 2 2 2 2 2 2 2 2 2 2 2 2 2 2 2 2 2 2 2 2 2 2 2 2 2 2 2 2 2 2 2
left_child=1 -1 5 22 -5 6 7 50 -7 -10 11 -9 13 19 -14 57 17 21 -18 -12 -17 59 -4 37 31 32 27 29 34 30 -27 35 -26 -3 -29 36 -25 49 -39 52 51 44 -43 -44 45 -11 -46 -48 -45 -24 -2 -41 53 -40 -54 56 -55 -16 60 -15 -59 -62
right_child=2 33 3 4 -6 8 -8 10 9 41 12 -13 14 16 15 20 18 -19 -20 -21 -22 -23 23 24 25 26 -28 28 -30 -31 -32 -33 -34 -35 -36 -37 -38 38 39 40 -42 42 43 48 46 -47 47 -49 -50 -51 -52 -53 54 55 -56 -57 -58 58 -60 -61 61 -63
leaf_value=-0.22255808083233861 -0.059821517942983772 0.10721057662806815 0.38827577201129626 -0.077186517945327243 0.26750245737526296 -0.23132080625241946 -0.089437593705294249 0.14311778322985588 0.36588558652024594 0.073210240341021027 0.08851410513724435 -0.11494859062617585 -0.19059704815449952 -0.063205673860239189 0.44015004665575391 -0.19093196517130923 0.082291415063315859 0.33227261133246255 -0.1967650381937267 0.52619530245539436 0.22113324193658512 -0.23461119118363657 0.11949426879313843 -0.017924184193991111 -0.17032167588844715 0.055766659985995254 0.35975165628420486 0.13281747362545834 -0.14808299265401537 0.29996297829929863 -0.14563140990288248 0.2265699813684508 0.1274798272798186 -0.10958185546147739 0.35599512576240505 0.26628098264739125 0.19926688527244263 -0.21847881811212655 0.46459645753266482 -0.22498234578449164 0.20139498790154076 -0.17138430350282086 0.30000300160123206 0.15110383303627681 0.033148597259400711 -0.22495268317570594 0.083296056181278971 -0.24994529967871071 -0.16039210856748884 -0.11887759760648674 -0.26659359781989628 0.099236875797630478 0.079606734380898436 0.018983815304810994 -0.18338649828326148 -0.13719735668118849 0.27518834326560981 0.31455227092297872 0.45931351053864777 0.30581875436114542 -0.22203775788457536 0.14688252640248853
leaf_weight=83.354866579174995 12.913001433014871 16.567288130521778 2.2545112520456305 33.108044669032097 3.1745935529470435 4.3798219114541999 64.357094943523407 5.1396060883998897 4.2697283923625937 37.375744193792343 3.4437965154647818 18.080415606498718 3.5445912629365912 3.3943695873022062 3.4094378352165284 3.659256935119628 6.573337227106097 4.1584676802158347 13.557769924402235 2.3230897486209869 2.2311451435089111 3.3912238776683807 4.6717458218336132 15.1248548924923 8.16661888360977 22.968084216117859 3.9985276311635962 9.8318949043750816 2.2599607557058325 3.2666739225387564 9.5565445274114591 26.257717743515968 4.3326892405748358 6.2043729126453391 7.0998095721006385 5.115633398294448 6.0745961964130393 2.8658675253391257 2.2708342373371151 6.4487418979406339 3.4498548954725257 3.1311649084091213 9.4974013119936007 5.5132410079240781 9.301259860396387 2.6570770889520636 2.5755834728479368 7.8775465786457062 3.2246973961591721 13.006346195936201 6.9636785984039298 2.5579216033220291 35.989293485879898 6.1635318845510545 3.2990788072347632 2.2145742624998084 9.9429051131010038 4.5958481878042283 2.7524427920579901 2.2530805170536041 2.2321327328681937 10.313635572791098
leaf_count=567 64 77 10 161 15 24 329 26 19 175 16 92 17 16 15 17 30 18 63 10 10 16 22 66 38 99 17 43 10 15 45 110 19 33 30 22 27 14 10 32 16 16 41 25 43 13 12 37 16 63 34 12 164 29 15 10 43 20 12 10 10 46
internal_value=0 -0.164473 0.0287628 0.0631596 -0.0470275 -0.00389311 -0.0274288 0.00729405 0.0430946 0.0571644 0.0364768 -0.0578272 0.0669604 0.0117936 0.132838 0.172109 -0.0319894 0.0803672 -0.105646 0.264826 -0.0348514 -0.0355282 0.081399 0.0782098 0.106553 0.0694947 0.0984404 0.0794371 0.182302 0.0242797 -0.0034091 0.15694 -0.0670935 0.0481433 0.2264 0.0874617 0.0443108 0.0403536 0.0629764 0.0741272 -0.0403186 0.0409217 0.123018 0.17357 0.0115823 0.0534204 -0.0732038 -0.167837 0.0361476 -0.0558837 -0.132263 -0.132903 0.0979347 0.175039 0.057523 0.139149 0.177145 0.224422 0.18745 0.0840186 0.143797 0.0812445
internal_weight=0 106.127 524.562 255.471 36.2826 269.091 179.287 114.93 89.8033 85.4234 95.0536 23.22 71.8336 39.0951 32.7385 29.1939 33.3282 13.1971 20.1311 5.76689 5.8904 9.03867 219.189 216.934 124.054 71.4808 58.9815 54.983 19.1917 35.7913 32.5246 52.5728 12.4993 22.7717 16.9317 26.3151 21.1995 92.8807 75.2026 72.3367 12.4565 81.1537 21.3665 18.2353 59.7872 40.0328 19.7544 10.4531 8.73794 17.6781 19.8767 9.00666 59.8802 20.5918 39.2884 18.321 16.1064 23.3035 19.8941 5.64745 17.1416 12.5458
internal_count=3126 677 2449 1157 176 1292 871 542 421 397 444 118 326 179 147 130 153 60 93 26 27 42 981 971 541 316 259 242 83 159 144 225 57 110 73 115 93 430 345 331 60 378 98 82 280 188 92 49 41 85 98 44 271 92 179 82 72 103 88 26 76 56
shrinkage=0.2


Tree=4
num_leaves=63
num_cat=0
split_feature=23 24 18 23 32 58 58 0 48 38 43 0 45 32 11 14 50 23 3 50 18 23 58 43 45 8 58 50 14 11 58 14 11 45 1 1 44 11 1 8 52 0 35 23 11 3 11 18 23 45 0 23 14 52 0 0 23 45 0 52 0 11
split_gain=64.8603 23.6593 14.2211 8.6528 7.1926 7.0248 6.10445 7.66607 5.29447 5.29524 5.19401 5.43762 5.96235 5.82949 5.61757 4.95345 6.63946 7.05902 5.98661 4.87032 5.73613 8.73571 7.46117 6.57207 6.094 7.34027 8.0631 6.58098 6.34634 5.25351 5.22569 5.15087 5.06631 4.73088 6.74865 8.23761 6.21475 6.05869 4.64248 7.93466 4.43859 5.10028 4.70977 6.84511 6.9727 5.73853 5.05617 5.65978 4.43298 9.55145 4.91044 5.89934 4.94193 4.28652 4.23331 5.55189 4.18504 4.0282 3.94446 3.84381 3.83832 3.76351
threshold=0.0037375938289396691 0.0035834151964902316 0.99769992418281628 0.0067164079403334307 0.81584120201096899 0.38500000000000006 0.79500000000000015 0.14167225875721381 0.37833190025795366 0.58387201034259872 0.038755264463493297 0.20558985371091129 0.74378983333333337 0.81589241316270578 0.00044536817102137769 0.83118658986066474 0.00017680452387325586 0.0062595102738725776 0.00052209849498018285 0.00015067577650282397 0.99770275417605692 0.0038243110911726111 1.7050000000000003 0.038784370607204882 0.74381285416666676 0.014757566968993887 1.2250000000000003 9.7257004101052079e-05 0.82018043647394445 0.0018942992874109268 1.425 0.82415106053580833 0.0013242280285035632 0.74377939583333341 0.11769487133316366 0.11847800828706774 0.0038428688095585388 0.0017636579572446558 0.12139829933033491 0.01506849444059421 0.82433033355640883 0.13311636022010473 0.019071045957586508 0.0072502428739586568 0.0010391923990498814 0.00054743866101841863 0.0096496437054631855 0.99770073750860488 0.0046371232001013642 0.74375735416666677 0.23869279291370285 0.0051983881549479546 0.81795052142683133 0.82317826658682924 0.22688900818682056 0.25936115957589589 0.13602538708456499 0.74381893750000005 0.24677895584485302 0.82139072828243698 0.11149510132868072 0.0011104513064133018
decision_type=2 2 2 2 2 2 2 2 2 2 2 2 2 2 2 2 2 2 2 2 2 2 2 2 2 2 2 2 2 2 2 2 2 2 2 2 2 2 2 2 2 2 2 2 2 2 2 2 2 2 2 2 2 2 2 2 2 2 2 2 2 2
left_child=1 2 -1 15 -3 -4 7 -7 9 -6 -5 14 33 -14 -12 16 19 18 -18 20 22 -22 23 54 25 30 61 -26 -29 32 48 -21 -28 34 -13 -36 -37 -35 39 -25 42 60 45 -44 -45 46 47 -16 49 -23 51 52 -50 -53 -2 58 -49 -30 -56 -19 -42 -27
right_child=3 4 5 10 8 6 -8 -9 -10 -11 11 12 13 -15 40 -17 17 59 -20 31 21 24 -24 38 27 26 29 28 57 -31 -32 -33 -34 37 35 36 -38 -39 -40 -41 41 -43 43 44 -46 -47 -48 56 50 -51 -52 53 -54 -55 55 -57 -58 -59 -60 -61 -62 -63
leaf_value=-0.22840752305447701 -0.15076668162182039 0.3332547002948214 -0.16870644968577378 0.21879050733845579 0.3464391225389083 -0.086182069386652252 -0.090882393868481806 0.32446762106244553 -0.24525451073578464 0.001178072676161818 -0.13600526563520202 0.27724678076964698 -0.081477524003811336 0.2309197045337423 -0.28972765519378918 -0.116305712081826 0.10793239641404427 -0.24862925039273992 -0.20533311364372397 -0.15675518166986904 0.34500800018514211 0.32940251643387858 0.18942735245511064 -0.13487464325095846 -0.18744930975565499 -0.27648831649625683 0.26672929043281668 0.4063672345224989 0.28269413598334353 0.33512463787197699 -0.10122981214749589 0.15728804191171417 -0.11303074394706669 0.40975391059831284 -0.27968045197985003 0.26578122493038719 -0.10281936629861209 0.032226913947730799 -0.14440202399664231 0.34233991254141172 0.16659149469299869 0.35589023164008604 0.33041813656091445 0.28174017582135441 -0.066980038706791992 0.27695743286108954 0.23239547667428348 0.057035054283532352 0.046215656826385371 -0.18710186461223099 0.43875848893309249 -0.21410468879119937 0.43940807451679886 0.16108578359069195 -0.052826871758606245 -0.26485009431989942 0.26933614569973047 -0.083203755246235023 0.30307009829145798 0.021620411049249617 -0.087373358312289637 -0.077148590448547549
leaf_weight=68.662561669945717 29.433750450611115 2.8477558642625835 13.196657985448839 7.3192900270223609 1.9593822360038817 3.0487258136272422 8.1408582255244237 4.5059651583433151 3.1352784484624854 19.073369637131691 5.5221767574548712 3.0334410816431072 32.200468063354492 2.5808329135179511 1.8450084924697865 13.914031773805617 47.956527709960938 3.9748237878084165 2.570961892604827 15.330665588378908 3.3906714469194403 2.1925717741251054 4.5153579562902442 2.1666263043880445 1.8642493039369572 4.3832331597805014 2.0623375475406629 4.1776074767112714 2.0837552845478058 2.8185231387615204 4.9601159691810599 2.4187118858098975 4.4098783880472183 3.2703444659709922 4.2437128573656064 3.450441837310791 3.8951394855976105 3.5419536530971527 2.6684225052595139 3.9065423458814621 9.4807709902524966 4.2568164318799964 2.1816945523023632 2.510154232382777 26.578336998820305 5.3729795068502417 7.002067655324935 134.66160655021667 2.1553216874599439 4.1292056739330292 2.6570889651775351 2.4220925122499466 3.1434945911169052 2.4502248913049698 2.368581920862197 1.9326978325843809 3.8194563388824454 2.8490199595689774 2.6274667531251907 4.4756202399730682 3.1784665733575812 27.920875996351242
leaf_count=545 155 12 71 32 9 16 42 22 21 97 25 13 162 12 9 67 212 19 13 74 16 10 22 10 10 23 10 19 10 12 24 11 21 15 22 16 19 17 13 17 41 18 10 11 127 23 31 598 10 21 12 12 14 11 12 11 16 14 13 20 14 142
internal_value=0 -0.133006 -0.178874 0.0286066 0.032624 -0.0611559 0.0292716 0.158748 -0.00279976 0.0333421 0.0526108 0.0479795 -0.00716467 -0.0582971 0.0629981 -0.000802931 0.00698281 0.0636961 0.0919927 -0.0157034 -0.00225592 0.0308554 -0.0556873 -0.0802257 0.016964 -0.00607886 -0.0569729 0.154922 0.224981 0.107224 0.0817237 -0.11396 0.00797779 0.0758048 0.0116733 -0.0578393 0.0703235 0.213464 0.0754802 0.172092 0.0684685 0.166508 0.0594538 -0.0112611 -0.0368877 0.0739349 0.0665307 0.0582543 0.129111 -0.00796349 0.196662 0.133417 0.279475 -0.0254263 -0.117658 0.0229921 0.0628905 0.0713627 0.134343 -0.105497 0.102826 -0.104196
internal_weight=0 124.571 97.5548 490.276 27.0158 28.8922 15.6955 7.55469 24.168 21.0328 269.945 262.626 56.2163 34.7813 206.41 220.331 206.417 58.9779 50.5275 147.439 129.69 80.0703 49.6194 45.1041 76.6796 65.705 41.5948 10.9746 9.11038 9.29074 24.1101 17.7494 6.47222 21.435 14.6227 11.5893 7.34558 6.8123 8.74159 6.07317 200.887 16.9161 183.971 31.2702 29.0885 152.701 147.328 140.326 19.15 6.32178 12.8282 10.1711 5.29882 4.87232 36.3625 6.92875 138.481 4.93278 4.99605 8.45044 12.6592 32.3041
internal_count=3126 835 696 2291 139 151 80 38 127 106 1231 1199 276 174 923 1060 993 264 225 729 644 391 253 231 375 322 208 53 43 43 114 85 31 102 70 57 35 32 40 27 898 73 825 148 138 677 654 623 90 31 59 47 24 23 191 36 614 24 25 39 55 165
shrinkage=0.2


Tree=5
num_leaves=63
num_cat=0
split_feature=23 24 30 58 9 51 23 13 23 53 48 13 51 51 23 58 58 51 32 19 23 15 29 19 32 32 9 0 23 15 0 13 58 9 58 51 51 32 23 12 12 30 53 32 13 51 56 53 13 9 13 19 32 19 19 32 46 15 32 15 19 51
split_gain=46.7415 18.2767 14.3719 6.49494 6.1414 7.20806 5.46085 6.39756 5.2447 5.18024 5.04862 4.99941 4.60408 5.68606 7.07933 5.33515 5.7783 5.61576 5.19099 7.11068 5.85179 5.01184 4.83583 4.42279 4.38323 4.78612 5.76748 4.04035 6.62224 4.71626 5.07066 4.81494 3.93269 4.05545 5.21854 3.82555 4.39301 3.80218 4.44868 3.78769 5.45514 5.31482 5.23558 6.72515 8.70823 5.58129 5.36953 5.20978 6.06467 5.25097 4.81304 6.51107 4.11389 6.90313 4.97644 3.75538 3.72633 3.66709 4.46197 3.56707 3.94588 3.65917
threshold=0.003749719651568503 0.0035834151964902316 4.5623660724798089e-05 0.38500000000000006 0.17047946120537225 0.0020890589021763358 0.0067164079403334307 4.6489806363558826e-05 0.0035366998991911221 0.97213913528463491 0.37833190025795366 5.1892291506724681e-05 0.0023490306766693904 0.0024975859763797076 0.0047186639702023686 1.7050000000000003 1.8950000000000002 0.0019405036024660184 0.81585285648994532 0.00039204790283805022 0.004236118915572208 0.17893214398929241 0.00036042573778422845 0.00079528035545676546 0.81589056215722133 0.81588619744058521 0.18387073958521619 0.1312843913568649 0.0067822527243579364 0.17830694586312565 0.11488390820024159 0.00016705052745315477 2.1050000000000004 0.18262316596854936 3.2700000000000005 0.00091918591695758754 0.0015691153531902254 0.81583078153564903 0.0069682930111205164 0.11732719431755424 0.11718334257136505 0.00017336991075423273 0.97194049065224208 0.81583384369287038 6.4545480394665765e-05 0.00080776944217484975 0.13915630390246034 0.97223845760083127 5.5162216724956644e-05 0.17956415475413962 2.3458159174272804e-05 0.00021751006020819753 0.81586263711151741 0.00026283691984562975 0.00020338220785367318 0.81583416361974426 0.010794330021568425 0.1774029035022836 0.81587557129798916 0.18238467589494325 0.00042177525883402848 0.0022376142018866525
decision_type=2 2 2 2 2 2 2 2 2 2 2 2 2 2 2 2 2 2 2 2 2 2 2 2 2 2 2 2 2 2 2 2 2 2 2 2 2 2 2 2 2 2 2 2 2 2 2 2 2 2 2 2 2 2 2 2 2 2 2 2 2 2
left_child=1 2 -1 -4 -5 9 12 37 -7 -6 -3 -9 15 14 21 17 -17 23 19 20 -15 -14 -19 39 25 26 57 29 -29 -13 35 -32 -18 -34 -35 -31 -37 59 -39 40 41 -2 50 45 47 -44 -46 -45 49 -49 -41 -52 54 -54 -48 -53 -47 -20 -59 60 61 -8
right_child=6 10 3 4 5 8 7 11 -10 -11 -12 27 13 18 -16 16 32 22 24 -21 -22 -23 -24 -25 -26 -27 -28 28 -30 30 31 -33 33 34 -36 36 -38 38 -40 42 -42 -43 43 44 46 56 52 48 -50 -51 51 55 53 -55 -56 -57 -58 58 -60 -61 -62 -63
leaf_value=-0.22811600289455738 -0.117636604665874 0.054846535962783986 -0.15234229835599222 -0.26471460345763731 0.057279942107790111 0.45823580312161094 -0.016004525376481903 -0.15228179158956276 0.082070764120750067 -0.26889562133409434 -0.23543861886775411 0.014117352616482349 -0.18844901386009552 0.075046002617147334 0.41006781310767909 0.3379548593327853 -0.2100395794452064 -0.18490349929232824 -0.18087152533680587 0.20633735967614275 -0.25353188088981271 0.24697661136652038 0.052674706622961809 0.25773176911503415 -0.0040961326551065477 0.33984036296610842 0.20455295190880063 0.39848526614473406 -0.0076044771260126952 0.3003037789874281 0.036035367030405711 0.37458441982989382 -0.060882802952160947 0.30798071842200486 -0.060244048511527697 -0.17985136572906768 0.079141455912693795 -0.11336815091584132 0.13005408058874501 -0.25568445055140465 0.29321951093227383 0.24037161127758921 -0.10626094424913664 0.24033348957443326 -0.190870964775533 0.075266115574792097 0.14497277678264947 -0.2355446541457612 0.21449913186553299 0.03208756968864241 -0.17157122039597941 0.29137993836016635 0.24011814009618521 -0.07590020653568294 -0.2257412180055825 -0.013494766676163467 0.4229767687163184 0.15846919868096543 -0.13112595895934451 0.22588725723288286 0.14608801155530388 -0.29470627796846144
leaf_weight=53.497294686734676 5.4191321432590467 23.98711666464806 16.665058642625809 2.570235267281535 6.3450938463211042 2.5278737097978583 14.777561053633699 6.4149689674377433 3.58548903465271 2.8102378845214844 2.6625447720289221 44.438775345683098 2.1429022997617713 2.9987852573394758 3.5282886773347855 2.9302023649215725 2.2989598810672751 15.848082482814791 3.5516280978918138 2.5910404771566382 7.8263928145170212 2.0873274058103561 4.3725582361221305 2.272616744041442 29.640307664871216 3.1618043780326834 8.4660501331090909 1.6340405344963063 94.542094692587852 2.7621982842683783 2.5663597285747519 4.8674423396587372 4.9710229039192182 4.3394627273082733 2.3859881162643433 2.8954401016235378 27.505225017666817 3.1795459687709799 54.118620753288269 7.1005498766899136 3.4731253087520599 2.3903014808893204 2.0356900095939627 5.1714981794357326 13.980197533965109 2.0446699112653732 1.8935265541076676 4.3495010733604458 4.4497278630733481 9.0003810077905637 9.5427097305655497 2.2651470005512229 4.5332791805267316 7.0879539400339127 6.1621062010526657 5.6402359455823898 3.104996919631958 6.1184438318014127 3.2631838172674179 3.0609691441059104 5.3073097318410865 2.1597549617290488
leaf_count=512 27 118 102 15 32 11 68 31 18 16 21 198 11 15 15 13 12 81 19 11 42 10 21 10 136 14 38 7 453 12 11 21 25 19 11 13 119 15 236 36 15 10 10 24 74 10 11 23 21 43 52 11 21 35 37 28 14 29 16 13 23 11
internal_value=0 -0.119263 -0.163206 -0.0625655 0.0213036 0.0694501 0.0227406 0.041652 0.237615 -0.04284 0.0258444 0.0212335 -0.00109088 0.0387142 0.20088 -0.0226663 0.0825661 -0.0372492 0.0201071 -0.091275 -0.162509 0.0264036 -0.133529 -0.018147 0.047677 0.110157 0.0762204 0.027376 -0.000704979 0.059136 0.108415 0.257708 0.0290957 0.0760981 0.177346 0.0749499 0.0544743 0.0880306 0.116546 -0.024439 0.0846847 -0.00805791 -0.0383726 -0.00817746 -0.0313052 0.174093 -0.0960987 0.0636297 0.0122902 -0.0551092 -0.116864 -0.0603705 -0.028764 0.0473741 -0.138603 0.0738617 0.284919 -0.00778548 0.0577402 0.0234639 -0.00439058 -0.0515431
internal_weight=0 114.651 88.0013 34.504 17.8389 15.2687 484.67 270.23 6.11336 9.15533 26.6497 187.627 214.44 75.3762 7.75852 139.064 16.9256 122.138 67.6176 13.4162 10.8252 4.23023 20.2206 101.917 54.2014 24.5611 21.3993 181.212 96.1761 85.0354 40.5967 7.4338 13.9954 11.6965 6.72545 33.1629 30.4007 82.6038 57.2982 99.6447 11.2826 7.80943 88.3622 63.8135 56.6282 7.18536 33.6571 22.9711 17.7996 13.3499 24.5486 17.4481 19.6769 11.6212 8.05563 7.90538 5.14967 12.9333 9.38163 25.3056 22.2446 16.9373
internal_count=3126 845 706 194 92 77 2281 1231 29 48 139 865 1050 356 36 694 80 614 320 68 57 21 102 512 252 116 102 834 460 374 176 32 67 55 30 144 132 366 251 502 52 37 450 323 289 34 178 111 87 66 127 91 104 56 48 39 24 64 45 115 102 79
shrinkage=0.2


Tree=6
num_leaves=63
num_cat=0
split_feature=49 49 49 13 44 5 49 29 29 21 46 5 8 0 44 29 49 30 43 35 0 49 44 5 5 32 44 8 41 5 49 30 30 5 14 46 49 29 8 13 35 29 5 43 58 12 56 13 0 41 5 30 43 58 41 32 41 43 21 46 29 46
split_gain=34.4189 12.6144 11.1746 4.87454 5.56297 4.78138 4.38827 4.15582 5.25895 4.03782 5.69053 5.03989 4.74031 4.02391 5.88734 5.13493 4.5192 6.14429 8.82598 6.88585 6.35174 7.36333 4.83392 5.46004 4.83229 3.95951 5.29554 3.92453 5.73256 4.21373 7.30159 4.21549 3.98101 3.83577 5.26559 4.31386 6.23012 3.81209 3.80655 4.27791 5.64652 5.09918 4.77048 3.79268 5.02114 3.80523 3.71643 10.1555 4.52595 4.24483 6.90765 6.71083 4.57852 5.09903 4.84723 4.8276 3.90869 3.68202 6.2259 3.63406 5.26134 4.63387
threshold=0.59165964616680722 0.58842459983150819 0.59010951979780968 6.6820210981261921e-05 0.003817518527156393 0.00039640094639651447 0.69759056444818879 6.0474117077890674e-05 9.8774391227221436e-05 0.15621422730989373 0.010841053381438653 0.00040861322130346741 0.015014350498689247 0.16555495906589721 0.0031168367215610787 0.0091662635058861498 0.63748946925021077 0.00015924129323945658 0.038764566853173844 0.020384070317719768 0.16926587035297277 0.60392586352148281 0.0031963196070004221 0.00051297155453127765 0.00047141572775417857 0.81583041590493621 0.0032758804933086957 0.014955592551300211 0.036412280338196289 0.00039078305642436286 0.61865206402695883 4.9155815103492141e-05 5.3865354275084197e-05 0.00039479618285440441 0.83037910520483804 0.010903406034223217 0.61329401853411969 9.1819867763263992e-05 0.014868303100611688 0.0008672410361397824 0.020152768112893051 0.00013132962425415259 0.00083931081371982743 0.038771188776494589 0.20500000000000004 0.11936626767087928 0.13988538170466178 0.00027893883818135294 0.13640450946181723 0.036421398375331572 0.00061914163901148525 0.00019161937504415198 0.038785893442848884 0.43500000000000005 0.036425446231211321 0.81589090493601468 0.036440822557471268 0.038759440202861005 0.15564186426819299 0.010674889319928337 3.4974197710046774e-05 0.010708368910539574
decision_type=2 2 2 2 2 2 2 2 2 2 2 2 2 2 2 2 2 2 2 2 2 2 2 2 2 2 2 2 2 2 2 2 2 2 2 2 2 2 2 2 2 2 2 2 2 2 2 2 2 2 2 2 2 2 2 2 2 2 2 2 2 2
left_child=1 -1 -3 4 9 -4 13 -7 -9 10 12 -11 27 14 -5 16 17 18 25 -20 -19 -22 -23 24 33 26 -15 29 -29 31 -31 -2 -33 -24 35 -35 -37 -6 59 42 -41 -42 46 45 -45 -12 49 48 -48 50 51 -40 53 -51 -55 -54 -49 58 -28 60 -16 -61
right_child=3 2 5 6 37 7 -8 8 -10 11 43 -13 -14 15 38 -17 -18 20 19 -21 21 22 23 -25 -26 -27 57 28 -30 30 -32 32 -34 34 -36 36 -38 -39 39 40 41 -43 -44 44 -46 -47 47 56 -50 52 -52 -53 55 54 -56 -57 -58 -59 -60 61 -62 -63
leaf_value=-0.0017735864204863245 -0.26867819469885351 -0.2123586719827639 -0.23117628161414233 -0.16122250545487821 0.052551107634590422 -0.15787498397532501 0.22608778365324345 0.15397303252142894 -0.055991137812111937 -0.17794751530705707 0.20416572451284157 0.16271913162500548 -0.13079158396839247 0.25660343342412445 -0.22302804869734583 0.22508070457539381 -0.15586359901155056 -0.27455258329158777 -0.15500772704406451 0.13665236841845629 0.39922540445465171 -0.21799919656041788 0.31265003549797338 -0.11330793326293119 0.34741977010484892 0.15207227540190529 -0.20529203078301539 0.39688207775297452 0.035674645489047987 0.026132001827852136 -0.2622510954629923 0.34573343830216097 0.0753619288731011 -0.078792793967139119 -0.27508593853767027 0.35312308975796602 -0.0054905871522535725 -0.20417334996749795 -0.038208774032690331 0.43170454034025546 -0.1139193182950252 0.28449708006476321 -0.28651358768915031 0.11642326297390003 0.40595084292247813 -0.1773752397197621 0.11040725614511589 -0.28379928775104618 0.37537720947290187 -0.22891922834870504 0.24869048935370022 0.16901508096246393 0.13862641066228618 0.1378219307424069 -0.16424190421682869 -0.039754214068773497 0.053266358405220086 -0.26391206354881541 0.24708024908166731 0.36906139751577405 0.099521559304970253 0.062671147727036636
leaf_weight=33.896960772573948 1.388363905251025 45.359703034162521 5.4636732339859 6.9824391826987258 3.7455157786607725 7.1794948801398304 3.4008504003286353 7.39904257655144 13.437535859644411 6.3535152673721296 2.1488094180822364 2.3907285034656525 5.9529759585857382 2.0007048845291164 2.4608622938394573 2.9792416393756858 12.101145312190054 2.3217025548219672 31.664921954274178 3.6067034602165213 2.4749459028244045 2.6448721736669567 2.2883612513542273 5.2957328557968131 3.0394745022058478 7.9559441581368437 2.6063925027847272 3.162383407354354 3.9561182111501694 84.669964551925659 3.6638303101062766 2.2397181391715995 79.529217407107353 4.2851896435022336 1.9114783704280842 3.8210102617740631 3.9316517859697342 6.0517728105187416 26.993962459266186 2.1663519293069831 3.1487390547990799 2.1708283871412277 2.2253860235214225 5.3391160666942579 4.3465142697095871 2.0365339368581772 7.1786838769912737 2.9345905631780616 4.0239403396844864 9.2399573177099246 5.6144632548093787 8.1349406987428647 7.684850573539733 4.2199579924344999 4.2804170548915863 28.856953740119934 2.5912926495075226 3.4502043724060059 2.2827961891889572 3.8550548255443564 11.364819198846815 4.0475854724645615
leaf_count=183 9 506 33 33 17 40 17 36 73 37 10 11 30 9 12 14 65 12 183 19 11 13 11 26 14 39 14 14 18 391 18 10 371 20 10 17 19 30 134 10 15 10 11 24 18 11 31 15 17 44 25 35 34 19 19 132 12 20 11 16 50 18
internal_value=0 -0.103802 -0.14767 0.0192175 0.0412369 -0.0600263 0.00042563 -0.0266487 0.0185669 0.0482009 0.0540621 -0.0848072 0.0447771 -0.00263388 0.0181052 -0.0335741 -0.0414628 -0.0252868 -0.066715 -0.125184 0.0440323 0.0689428 0.0389098 0.0665619 0.115975 0.0460033 -0.035609 0.0506287 0.19614 0.0445886 0.0141707 0.0769 0.0827676 0.0726515 0.0332802 0.0822454 0.171257 -0.106027 0.0268497 0.0130579 0.159515 0.0486679 0.00343889 0.177605 0.246351 0.0185128 0.00921279 0.0961394 0.205583 -0.00608997 0.0427011 0.00977888 -0.0427118 -0.126076 -0.0142842 -0.00224024 -0.125737 -0.105714 0.00592373 0.103948 0.0421103 0.212134
internal_weight=0 112.736 78.8394 471.214 216.975 33.4797 254.239 28.0161 20.8366 207.178 198.434 8.74424 184.563 250.839 150.176 100.662 97.6832 85.5821 53.5677 35.2716 32.0144 29.6927 27.2178 24.5729 19.2772 18.296 10.3401 178.61 7.1185 171.491 88.3338 83.1573 81.7689 16.2377 13.9493 12.0379 7.75266 9.79729 143.194 121.465 7.48592 5.31957 113.979 13.871 9.68563 4.18534 111.754 16.7285 11.2026 95.0255 40.7434 35.1289 54.2821 17.7403 8.50038 36.5418 5.52588 8.33939 4.88919 21.7283 13.8257 7.90264
internal_count=3126 871 688 2255 1019 182 1236 149 109 972 924 48 861 1219 692 527 513 448 295 202 153 141 130 117 91 93 54 831 32 799 409 390 381 77 66 56 36 47 659 563 35 25 528 63 42 21 517 75 48 442 194 169 248 82 38 166 27 45 25 96 62 34
shrinkage=0.2


Tree=7
num_leaves=63
num_cat=0
split_feature=19 25 18 56 54 18 58 13 54 51 58 13 13 23 21 54 45 30 54 19 45 20 11 54 54 21 35 23 58 13 20 35 18 30 54 18 51 45 3 51 3 23 23 19 23 51 3 51 51 15 18 3 18 13 30 23 51 58 15 19 54 45
split_gain=26.0164 17.5865 5.00956 5.20268 5.08412 5.03162 4.71468 4.46151 4.18315 4.01039 3.88665 5.72421 5.9973 5.76342 5.59187 4.55626 6.65842 4.53651 4.23187 6.82389 5.10442 4.2252 4.30936 4.78519 5.14908 4.18797 4.08767 3.65556 3.62258 3.4976 3.38082 4.19648 3.38041 3.37049 3.34215 4.89504 4.43839 4.49748 4.50748 4.16437 3.80466 4.74586 3.48721 3.20421 3.16668 3.0642 6.98962 5.43339 5.32977 3.23393 2.9953 4.78564 2.95202 2.9403 2.89379 4.52922 3.57086 4.09131 3.88414 3.34964 3.10906 6.30826
threshold=0.00017806980571848376 0.42700258397932817 0.99770983153730397 0.14043180086887397 0.94791997431186126 0.99771056400614266 -5.6149999999999993 0.00040518638573743931 0.94380095260181607 0.0035560424868157172 1.2050000000000003 1.1089311609656234e-05 3.4831812107253555e-05 0.0046979580016746183 0.15580539656582176 0.94198315999785931 0.74375460416666672 6.9760048979207405e-05 0.94561963715503883 0.00022987193101840631 0.74378039583333344 0.82450277670153704 0.0018942992874109268 0.94217760493783131 0.94295449274845256 0.15596892886345057 0.018044924182350753 0.010464575133996708 0.085000000000000006 0.00033410105490630954 0.82110968264590911 0.018239236529334117 0.99770524171633401 6.0929663032472288e-05 0.94390798651372709 0.99770410496274664 0.0011791576914506427 0.74383752083333354 0.00038119343756422714 0.0021076283146401254 0.00039133096506924111 0.0054161632279120069 0.010344511859534474 0.00025047504903542096 0.0083089946786052676 0.0011420188665230634 0.00047444748892250482 0.00084490826710242905 0.0011605882789868531 0.17559335117936439 0.99772121809834247 0.00038641683331206643 0.99772648331265723 0.00019633768375558022 0.00018808722066545791 0.0045090723583097155 0.0025161553888434977 0.62500000000000011 0.1810719065901166 0.00031875966874895525 0.94217760493783131 0.74376272916666675
decision_type=2 2 2 2 2 2 2 2 2 2 2 2 2 2 2 2 2 2 2 2 2 2 2 2 2 2 2 2 2 2 2 2 2 2 2 2 2 2 2 2 2 2 2 2 2 2 2 2 2 2 2 2 2 2 2 2 2 2 2 2 2 2
left_child=1 44 6 4 5 8 -2 29 27 50 11 28 34 18 26 16 17 -12 20 -20 -14 22 23 -17 33 -16 32 -4 -8 54 -26 -32 -15 -25 35 39 -36 38 -38 -13 -37 -42 -43 -30 -1 46 -28 -48 -47 -50 -5 -52 -53 -21 55 -7 57 58 -57 -56 61 -59
right_child=2 -3 3 9 -6 7 10 -9 -10 -11 15 12 13 14 25 21 -18 -19 19 53 -22 -23 -24 24 30 -27 45 -29 43 -31 31 -33 -34 -35 36 40 37 -39 -40 -41 41 42 -44 -45 -46 48 47 -49 49 -51 51 52 -54 -55 59 56 -58 60 -60 -61 -62 -63
leaf_value=-0.20632854076259624 0.43524939913970784 0.005853904851769144 -0.1295764180654321 -0.14931569885761262 0.26206871301449813 0.17073403059518241 -0.0097058382099792038 -0.067065622576920669 0.24961444585086393 0.12195615809114464 -0.10047021414198978 0.0052264018009874624 -0.0026109255794733999 -0.09528554252119531 0.13402885145217072 0.30905321338230407 -0.14288251899561119 0.2862268050903794 -0.20144468967597537 0.03357981045628762 -0.15432792033484605 -0.15525278559567163 0.25465479823692422 0.060532401055236197 0.32169359399002834 0.0049663235995567132 -0.22576544423197731 0.17706340028517722 -0.075084125441439775 0.23021784666524564 -0.14764572059665398 0.15816575862596152 0.16668932739216236 -0.1919320940255981 -0.10349209378623428 0.21339041277715196 0.031898454609796172 -0.0269761861941821 0.31760984517370772 -0.26518522887522938 0.16037977460320715 -0.25667731677552447 0.073660884962560971 -0.28768679824148796 0.1174852012052557 0.41327159305217126 0.28707604030056511 -0.14266686113570973 0.2126463217701709 -0.041940446295800932 0.25164763925568168 -0.25827675554086138 0.067525420881938525 0.31556211871693751 0.2398115406112023 0.0052211046140496313 -0.23414361646019191 -0.14028267478190901 0.26099765766454713 0.047089491653670407 -0.21888522063151972 0.24307022119660715
leaf_weight=42.198010005056858 0.96806289255618949 28.160562932491302 2.9542724043130866 12.627463646233087 4.2746383249759665 4.7421047016978255 6.8913593664765385 16.50879530608654 8.1214300096034986 4.2857544422149649 1.9622404202818859 5.9439449608325976 12.778634428977965 2.7465020567178708 17.322128266096115 2.9068729877472022 9.6912049353122693 3.1802515238523483 3.0122293233871442 3.0976575613021851 29.002128317952156 2.5975942909717551 6.4845576882362357 3.7511678934097308 2.6475635319948188 23.978064253926277 9.6601140871644002 3.283480778336525 5.1067472770810109 3.8665148168802252 2.6146986410021764 5.7246064841747284 6.9704427123069763 4.8500429913401604 2.7690621390938785 5.678922325372695 3.0882066488265973 3.4140763431787482 7.7555178254842758 3.6936116591095924 4.4090360254049283 3.105990543961525 2.1722504943609238 6.3758943676948547 1.2436182796955098 1.0845730453729618 2.3453869596123686 2.3619865328073502 2.061733052134513 62.41766344755888 2.2782587409019461 2.3582376390695572 2.1057520657777786 2.8308810815215111 3.7336045503616324 12.151957422494894 3.3492462486028662 5.4364570230245572 2.9516741335391989 106.73110244423151 5.1346204057335854 2.5096298158168793
leaf_count=540 4 151 14 65 21 23 37 83 35 19 11 29 69 14 81 13 49 14 19 15 173 14 28 19 12 118 53 14 30 18 13 28 31 24 14 25 16 17 34 22 21 15 10 33 6 5 11 12 9 305 11 14 11 13 16 58 18 26 13 473 26 11
internal_value=0 -0.117255 0.0116635 0.0352268 0.0464768 0.0413985 -0.00538341 0.0316367 0.155009 -0.0531113 -0.00686203 -0.0170266 -0.00821247 -0.0239637 -0.0017933 0.0461557 -0.0452738 0.138673 -0.0812015 0.0436808 -0.107925 0.0891057 0.111009 0.0696004 0.0340656 0.0590977 -0.0298452 0.0318352 -0.124338 0.0424559 0.124794 0.0622819 0.0926419 -0.081827 0.0598696 0.0133298 0.128213 0.173213 0.236242 -0.0984094 0.0834117 0.0072149 -0.120727 -0.193135 -0.197059 -0.0447355 -0.128387 0.0714469 -0.0264045 -0.0338 -0.0918468 0.0157859 -0.104589 0.168227 0.0375085 -0.0115024 -0.0389076 -0.015707 0.055207 0.0536033 -0.0975878 -0.0192075
internal_weight=0 71.6022 498.859 209.405 185.75 181.475 289.454 167.116 14.3592 23.6555 288.486 242.075 223.701 181.67 130.949 46.4108 14.8337 5.14249 50.7215 8.94077 41.7808 31.5771 28.9795 22.495 19.5881 41.3002 89.6484 6.23775 18.374 150.607 10.9869 8.33931 9.71694 8.60121 42.0306 25.0038 17.0269 14.2578 10.8437 9.63756 15.3662 9.68728 5.27824 11.4826 43.4416 79.9315 14.3675 4.70737 65.564 64.4794 19.3697 6.74225 4.46399 5.92854 146.74 36.2757 31.5336 28.1843 15.1036 110.465 13.0807 7.94609
internal_count=3126 697 2429 969 849 828 1460 765 63 120 1456 1231 1131 928 639 225 74 25 289 47 242 151 137 109 96 199 440 28 100 682 53 41 45 43 203 122 81 67 50 51 71 46 25 63 546 395 76 23 319 314 101 36 25 28 664 175 152 134 71 489 63 37
shrinkage=0.2


end of trees

feature_importances:
Column_0=32
Column_19=30
Column_23=27
Column_58=22
Column_13=21
Column_11=20
Column_49=20
Column_43=19
Column_51=19
Column_32=16
Column_44=16
Column_52=16
Column_18=15
Column_45=15
Column_21=14
Column_53=14
Column_54=13
Column_29=12
Column_56=12
Column_41=11
Column_3=10
Column_35=10
Column_14=9
Column_15=9
Column_30=9
Column_46=9
Column_5=8
Column_8=8
Column_9=8
Column_57=8
Column_1=7
Column_12=6
Column_50=6
Column_20=5
Column_25=3
Column_42=3
Column_48=3
Column_24=2
Column_47=2
Column_7=1
Column_10=1
Column_17=1
Column_33=1
Column_34=1
Column_38=1
Column_39=1

parameters:
[boosting: gbdt]
[objective: binary]
[metric: binary_logloss]
[tree_learner: serial]
[device_type: cpu]
[data: ]
[valid: ]
[num_iterations: 10000]
[learning_rate: 0.2]
[num_leaves: 63]
[num_threads: 0]
[force_col_wise: 0]
[force_row_wise: 0]
[histogram_pool_size: -1]
[max_depth: -1]
[min_data_in_leaf: 10]
[min_sum_hessian_in_leaf: 0.001]
[bagging_fraction: 1]
[pos_bagging_fraction: 1]
[neg_bagging_fraction: 1]
[bagging_freq: 0]
[bagging_seed: 21709]
[feature_fraction: 0.5]
[feature_fraction_bynode: 1]
[feature_fraction_seed: 24116]
[extra_trees: 0]
[extra_seed: 15571]
[early_stopping_round: 50]
[first_metric_only: 0]
[max_delta_step: 0]
[lambda_l1: 0]
[lambda_l2: 0]
[min_gain_to_split: 0]
[drop_rate: 0.1]
[max_drop: 50]
[skip_drop: 0.5]
[xgboost_dart_mode: 0]
[uniform_drop: 0]
[drop_seed: 15722]
[top_rate: 0.2]
[other_rate: 0.1]
[min_data_per_group: 100]
[max_cat_threshold: 32]
[cat_l2: 10]
[cat_smooth: 10]
[max_cat_to_onehot: 4]
[top_k: 20]
[monotone_constraints: ]
[monotone_constraints_method: basic]
[monotone_penalty: 0]
[feature_contri: ]
[forcedsplits_filename: ]
[refit_decay_rate: 0.9]
[cegb_tradeoff: 1]
[cegb_penalty_split: 0]
[cegb_penalty_feature_lazy: ]
[cegb_penalty_feature_coupled: ]
[path_smooth: 0]
[interaction_constraints: ]
[verbosity: -1]
[saved_feature_importance_type: 0]
[max_bin: 255]
[max_bin_by_feature: ]
[min_data_in_bin: 3]
[bin_construct_sample_cnt: 200000]
[data_random_seed: 4074]
[is_enable_sparse: 1]
[enable_bundle: 1]
[use_missing: 1]
[zero_as_missing: 0]
[feature_pre_filter: 1]
[pre_partition: 0]
[two_round: 0]
[header: 0]
[label_column: ]
[weight_column: ]
[group_column: ]
[ignore_column: ]
[categorical_feature: ]
[forcedbins_filename: ]
[objective_seed: 10917]
[num_class: 1]
[is_unbalance: 0]
[scale_pos_weight: 1]
[sigmoid: 1]
[boost_from_average: 1]
[reg_sqrt: 0]
[alpha: 0.9]
[fair_c: 1]
[poisson_max_delta_step: 0.7]
[tweedie_variance_power: 1.5]
[lambdarank_truncation_level: 20]
[lambdarank_norm: 1]
[label_gain: ]
[eval_at: ]
[multi_error_top_k: 1]
[auc_mu_weights: ]
[num_machines: 1]
[local_listen_port: 12400]
[time_out: 120]
[machine_list_filename: ]
[machines: ]
[gpu_platform_id: -1]
[gpu_device_id: -1]
[gpu_use_dp: 0]

end of parameters

pandas_categorical:null
