tree
version=v3
num_class=1
num_tree_per_iteration=1
label_index=0
max_feature_idx=58
objective=binary sigmoid:1
feature_names=Column_0 Column_1 Column_2 Column_3 Column_4 Column_5 Column_6 Column_7 Column_8 Column_9 Column_10 Column_11 Column_12 Column_13 Column_14 Column_15 Column_16 Column_17 Column_18 Column_19 Column_20 Column_21 Column_22 Column_23 Column_24 Column_25 Column_26 Column_27 Column_28 Column_29 Column_30 Column_31 Column_32 Column_33 Column_34 Column_35 Column_36 Column_37 Column_38 Column_39 Column_40 Column_41 Column_42 Column_43 Column_44 Column_45 Column_46 Column_47 Column_48 Column_49 Column_50 Column_51 Column_52 Column_53 Column_54 Column_55 Column_56 Column_57 Column_58
feature_infos=[0:1] [0:0.48334086123939846] [0:0.89502163219344522] [0:0.011404009814626677] [0:0.89502163219344522] [0:0.011404009814626677] [0:0.63259234121673757] [0:1] [0.0048403742429264469:0.54764290234127821] [0:1] [0:0.89692722371967648] [0:0.51225653206650834] [0:0.48334086123939846] [0:0.50814353550001423] [0:1] [0:1] [0:1] [0:1] [0:1] [0:1] [0:1] [0:0.21112019623875716] [0:1] [0:0.6433689782239228] [0:0.79913836121014803] [0:0.97286821705426352] [0:0.29253904403218506] [0:0.94555049191697438] [0:1] [0:0.87617400419287206] [0:1] [0:1] [0.80870712979890313:0.85213053016453388] [0:0.73059819077620924] [0:0.85262682364582376] [0.0059419582893115493:0.60780116101916304] [0:1] [0:1] [0:1] [0:1] [0:0.90687075414911] [0:0.048127652519893899] [0:0.50063639686982819] [0:0.050371516771864064] [0:0.53406024943117869] [0:0.77762837500000004] [0:0.53955774036618609] [0:0.94572864321608052] [0:0.98710232158211519] [0:1] [0:1] [0:0.79670207234643098] [0:1] [0:1] [0:1] [0:1] [0:1] [0:0.79830039372850981] [-104.73999999999999:696.33000000000004]
tree_sizes=6691 6683 6687 6698 6717 6744 6754 6721 6753

Tree=0
num_leaves=63
num_cat=0
split_feature=19 25 19 0 41 53 21 19 13 53 47 35 0 41 0 19 0 1 1 0 0 56 58 52 58 13 0 45 19 41 41 58 56 56 19 52 19 52 52 0 53 0 41 0 45 1 58 57 58 56 45 19 41 0 21 53 41 53 19 57 41 19
split_gain=207.395 51.0148 35.0118 22.5551 17.5777 17.008 15.7931 17.047 15.4757 14.4853 14.2727 14.0199 12.1434 11.8756 11.8127 11.3318 9.5506 10.6698 8.6332 9.7679 11.2962 10.246 8.61932 15.0554 15.1922 8.09928 7.97123 7.23669 7.13458 8.1538 7.04165 9.15809 6.92509 6.78826 7.28895 8.38613 7.79739 7.44376 10.1355 8.76366 7.77126 7.42847 6.56009 6.29522 6.16261 14.9411 10.3742 13.2882 7.28798 6.27906 6.14159 5.97645 6.19779 5.95462 5.90284 5.88132 5.79797 5.57757 5.50688 5.42943 5.38893 5.33646
threshold=0.00017806980571848376 0.5904392764857882 0.00022516264690023154 0.16758824318883375 0.036408681476569414 0.97123950430524042 0.1555600981193786 0.00034760403397277577 0.00042082515852028782 0.97157376210013224 0.062311557788944739 0.01805578995309224 0.046591061602469473 0.036417702807250228 0.045000671050865665 0.00027225548808197929 0.070111394443698849 0.11750826644562454 0.11758924592512267 0.12741913837068855 0.13785397933163338 0.13998553260560473 0.49500000000000005 0.82218836955373187 0.76500000000000012 0.00013548864056413322 0.1336666219299423 0.74381227083333357 0.0002828513773478726 0.036413033267020341 0.0364119142351901 1.2050000000000003 0.13960101541597394 0.14026678539478141 0.00026048227778654234 0.82399205147171062 0.00026754620396380452 0.81767329435384462 0.8187424418536392 0.20590524761776943 0.97345897606332188 0.18752516440746211 0.036403376436781619 0.12338612266809827 0.74374268750000005 0.11763702884780787 1.7050000000000003 0.0011330546805861648 0.81500000000000006 0.13974112289397708 0.74376460416666679 0.00020573684991276057 0.036400606487621584 0.092980807945242258 0.15531479967293543 0.97124332439432493 0.036439972922192761 0.97355256824589154 0.00034583805242846018 0.0003015232778748317 0.036403203746684355 0.0027605234840225768
decision_type=2 2 2 2 2 2 2 2 2 2 2 2 2 2 2 2 2 2 2 2 2 2 2 2 2 2 2 2 2 2 2 2 2 2 2 2 2 2 2 2 2 2 2 2 2 2 2 2 2 2 2 2 2 2 2 2 2 2 2 2 2 2
left_child=1 -1 4 6 44 10 7 11 12 -5 -3 15 14 26 61 50 55 -18 -19 30 -21 -22 -6 -24 -25 56 43 -15 -28 -30 -20 -32 -10 34 35 -11 -36 -38 -39 40 41 -40 -41 -13 -2 48 49 -48 -46 59 60 52 -50 -33 -43 -8 -14 -42 -23 -47 -4 -9
right_child=2 5 3 9 22 -7 16 8 32 33 -12 13 25 27 -16 -17 17 18 19 20 21 58 23 24 -26 -27 28 -29 29 -31 31 53 -34 -35 36 -37 37 38 39 42 57 54 -44 -45 45 46 47 -49 51 -51 -52 -53 -54 -55 -56 -57 -58 -59 -60 -61 -62 -63
leaf_value=-1.099486774321508 -1.0185737193134261 -1.1239783941109494 -0.58189720943797085 -0.43884800792704554 -1.0750793181739542 -1.0155621571763538 -0.55479315020432218 -0.60448392546601148 -0.92213965513696816 -0.9553309144349118 -0.56122462188688238 -0.56595364518288327 -0.55084047489941446 -1.1239783941109498 -1.1239783941109498 -0.94794172073776584 -1.071276056712188 -0.34781669787463876 -0.98845809794270489 -1.0291141867931783 -0.850640847602117 -0.67755859496849635 -1.0983394191602005 -0.36506473556877883 -0.88681787581652138 -0.67967767629353959 -0.94610800539012851 -0.73859255188250361 -0.27020052825100782 -0.78517765369033776 -0.7089474870957001 -0.72871086362023574 -0.59036722794848584 -0.91249767716050401 -0.49155034532580738 -0.62175612007568959 -0.95149801716954729 -0.34781669787463876 -0.8920881095563975 -0.57060385142395065 -0.27020052825100738 -0.83938577215763566 -0.91439468026936188 -0.2346264505068435 -0.44637691326972573 -0.67462162260571701 -0.934249979475407 -0.25438982703137925 -0.68127875996135012 -0.62175612007568959 -0.44637691326972589 -0.4599289428865504 -1.1239783941109496 -0.35776748885202736 -0.39425372243578571 -0.90164040820992308 -0.37388931299368788 -0.63683787004671855 -0.27020052825100782 -0.91860227517556847 -0.934249979475407 -0.77901764022814479
leaf_weight=122.49088117480278 5.6923473179340354 2.1082767844200161 2.9515874981880206 3.7948982119560233 20.45028480887413 7.3789687454700461 2.1082767844200161 17.70952498912812 9.9089008867740613 18.974491059780124 12.438833028078077 7.168141067028051 40.478914260864258 2.7407598197460157 2.5299321413040152 20.45028480887413 3.7948982119560233 2.3191044628620139 2.9515874981880179 8.4331071376800555 12.438833028078081 3.5840705335140219 7.8006241023540523 3.1624151766300184 7.5897964239120483 16.655386596918106 3.3732428550720197 6.746485710144043 2.1082767844200134 2.9515874981880188 40.478914260864258 2.5299321413040143 3.3732428550720206 33.099945515394211 3.7948982119560233 3.5840705335140219 9.2764178514480573 2.3191044628620139 9.4872455298900622 2.5299321413040188 2.1082767844200117 2.1082767844200125 18.131180346012115 3.3732428550720215 5.9031749963760358 4.0057258903980246 2.1082767844200125 2.5299321413040161 3.1624151766300201 3.5840705335140219 2.9515874981880188 2.1082767844200134 2.1082767844200134 5.4815196394920349 2.7407598197460175 26.985942840576172 9.065590173006056 7.8006241023540497 2.1082767844200134 40.90056961774826 4.2165535688400269 11.595522314310072
leaf_count=581 27 10 14 18 97 35 10 84 47 90 59 34 192 13 12 97 18 11 14 40 59 17 37 15 36 79 16 32 10 14 192 12 16 157 18 17 44 11 45 12 10 10 86 16 28 19 10 12 15 17 14 10 10 26 13 128 43 37 10 194 20 55
internal_value=-0.837413 -1.04919 -0.777957 -0.750571 -0.877367 -0.768238 -0.719836 -0.681357 -0.635284 -0.823352 -0.642783 -0.768238 -0.607836 -0.667225 -0.70934 -0.862284 -0.777733 -0.743571 -0.728088 -0.739394 -0.83788 -0.748934 -0.985528 -0.886818 -0.733361 -0.559023 -0.575874 -0.849926 -0.720806 -0.570604 -0.688536 -0.67028 -0.83788 -0.835936 -0.805351 -0.902333 -0.769067 -0.787706 -0.755533 -0.776588 -0.695027 -0.789164 -0.872298 -0.459929 -0.81886 -0.801741 -0.849173 -0.563417 -0.612013 -0.876507 -0.689184 -0.744522 -0.858359 -0.474908 -0.587789 -0.876507 -0.518462 -0.55883 -0.526685 -0.896839 -0.789164 -0.673544
internal_weight=0 144.417 514.42 403.313 111.106 21.9261 283.563 170.349 111.317 119.75 14.5471 59.0317 98.0349 28.4617 31.835 30.57 113.214 84.1202 80.3253 78.0062 26.5643 18.1312 39.0031 18.5528 10.7522 66.1999 18.9745 9.48725 8.43311 5.05986 51.442 48.4904 13.2821 115.955 82.8553 22.5586 60.2967 56.5018 47.2254 44.9063 24.2452 14.3363 20.6611 10.5414 72.1031 66.4107 53.1286 4.63821 13.2821 48.4904 10.1197 7.37897 5.27069 8.01145 4.84904 29.0942 49.5445 9.9089 5.69235 44.9063 7.16814 29.305
internal_count=3125 685 2440 1913 527 104 1345 808 528 568 69 280 465 135 151 145 537 399 381 370 126 86 185 88 51 314 90 45 40 24 244 230 63 550 393 107 286 268 224 213 115 68 98 50 342 315 252 22 63 230 48 35 25 38 23 138 235 47 27 213 34 139
shrinkage=1


Tree=1
num_leaves=63
num_cat=0
split_feature=23 17 23 19 42 11 32 23 8 49 14 26 43 41 11 35 19 35 23 32 41 53 49 11 23 19 43 44 49 49 32 32 32 2 43 32 15 14 53 43 11 43 14 32 41 32 10 43 14 53 23 14 14 41 15 32 49 14 57 11 53 42
split_gain=160.215 35.2065 19.2036 16.7326 13.6926 13.1642 11.7579 9.53113 15.6444 12.185 8.9171 8.57029 8.56611 7.92862 7.88163 7.01181 11.7697 6.5964 6.31631 6.24422 6.18833 12.0168 6.36854 5.78412 5.7005 12.1345 9.38915 7.80806 6.33778 7.14962 6.0628 9.27271 5.99673 5.6986 5.52785 5.49261 9.1834 8.08039 7.52542 5.40903 8.82154 6.06227 9.01132 5.38507 5.18944 5.01998 5.51105 4.99475 5.19996 4.87942 4.85881 9.66827 6.55724 8.38929 10.3672 5.8825 4.71966 4.7154 6.10605 4.6606 4.63679 4.58856
threshold=0.0037423687389005387 0.37381889763779536 0.006723998822835326 0.00017806980571848376 0.0025495772163564075 0.0024168646080760096 0.81587662248628889 0.0058446856858464218 0.01547659851749179 0.59105307497893855 0.82643795138588738 0.032891268129066835 0.038773524709903258 0.036408681476569414 0.0003503562945368171 0.019073011043784435 0.00025400701212405208 0.017896040004531263 0.0049248176469231962 0.81590454753199282 0.036429031277630426 0.97329853232177388 0.59263689974726208 0.0014311163895486937 0.0060758990695106039 0.00034054010779551353 0.038794734158374915 0.0030310357657384306 0.59624262847514753 0.63288963774220741 0.81589335009140773 0.81588484917733106 0.81587723948811708 0.33918982990576668 0.038769252501309234 0.81583475776965286 0.17561683279912649 0.82036708134572922 0.97182779802425001 0.038777376588296913 0.0031294536817102142 0.038794120889721902 0.8206617837748631 0.81599250457038408 0.036414421695402308 0.81590589579524686 0.27644204851752024 0.038801349191036637 0.82869144262733119 0.97245238258956201 0.012396356783858075 0.81940438674389193 0.82062641948336712 0.036497934626436794 0.1803667241966351 0.81596654478976249 0.59819713563605725 0.82104489693273719 0.00010475161620401132 0.00063539192399049893 0.97164538877046625 0.0025859582083835602
decision_type=2 2 2 2 2 2 2 2 2 2 2 2 2 2 2 2 2 2 2 2 2 2 2 2 2 2 2 2 2 2 2 2 2 2 2 2 2 2 2 2 2 2 2 2 2 2 2 2 2 2 2 2 2 2 2 2 2 2 2 2 2 2
left_child=1 3 5 -1 17 24 11 8 9 -7 34 -3 -9 61 -6 20 -17 23 -12 -14 21 35 -22 -4 25 26 30 -27 -29 57 31 32 -2 -13 60 37 49 59 -39 44 -41 -42 -43 47 -36 46 -8 48 56 -37 -24 -52 -53 54 -54 -56 -18 -30 -59 -16 -11 -5
right_child=2 6 4 13 14 7 45 12 -10 10 18 33 19 -15 15 16 43 -19 -20 -21 22 -23 50 -25 -26 27 -28 28 29 -31 -32 -33 -34 -35 39 36 -38 38 -40 40 41 42 -44 -45 -46 -47 -48 -49 -50 -51 51 52 53 -55 55 -57 -58 58 -60 -61 -62 -63
leaf_value=-0.25737893973180731 -0.02731352419391055 -0.20300852048482507 0.27453444967079266 -0.21034716504063675 -0.29861404767341448 -0.23645913218445253 0.10182744453897669 -0.029513569012660446 -0.19577918230569946 0.2081199828076187 -0.28828456383853956 0.072600157168260959 0.4374519817248726 -0.17650463748123602 -0.29662268413167497 0.24877764845937295 -0.19630372116443448 0.37742652697168516 0.1532203375498597 0.12880602219276469 -0.057844617695823546 -0.012863876200090907 0.096313526371717251 -0.090580210454513518 -0.12158952530035226 0.38680381342604048 0.32590733935840466 -0.2135369889162187 0.32999305457181405 -0.19708576778333931 -0.25019478841095683 0.27875340861237047 -0.24973815496083052 0.34231415010388511 0.19714680190244713 0.49534329560160356 0.11963563172799566 0.38126787465798734 -0.026041210566030065 -0.051296851308316793 0.36127949339550902 0.26277435420802125 -0.21112993677993719 0.19297515198471446 0.55911643975365843 0.13680881895780214 -0.27083049737029113 -0.28329780255910308 -0.23257487606853589 0.19493292742992313 0.3613738845128347 -0.09421678157436876 0.29724734273997899 0.42237465697828003 0.079667209197391051 -0.29093580003922509 0.034308214377761291 0.32638482283379522 -0.068177779682061956 0.013768094774354218 -0.16211250569026603 0.074412744006434897
leaf_weight=100.57025650143623 108.6456985771656 2.2810246050357845 4.1737513244152096 2.8208725601434699 2.1806761026382437 3.9545256197452536 2.0602664947509748 3.8082540035247794 8.7740696966648084 2.2979452311992636 3.1563157737255088 5.8022352457046491 6.789810433983801 20.233395859599113 2.1506554782390657 7.3941849470138541 4.1050408482551601 9.4401916712522489 2.1992701590061188 4.2712714821100235 5.2431314438581458 41.58755661547184 20.929049089550972 2.970963716506958 18.654625296592712 4.0339818000793484 2.9334635138511649 2.5483357757329967 5.3531454503536207 2.2677351087331763 5.0745680034160605 3.8400263637304297 5.0749928951263419 6.8124102056026459 3.314977869391444 4.2365314513444883 52.505428820848465 4.6502203643321982 2.9753887206315994 5.760827228426936 7.8634230643510801 4.9210092425346375 2.3817792534828186 4.0971235632896414 3.0345809310674667 2.4675373136997214 6.9153463244438171 3.3048850297927848 4.2712009251117697 4.4181271940469742 12.261908218264578 3.9178911447525051 6.6450012028217333 4.6824096888303748 5.1541639566421509 2.5661405175924301 26.246126219630241 2.4960959553718567 4.2234522700309753 19.298660814762115 3.2908356636762619 11.455425113439558
leaf_count=535 520 11 19 14 10 19 10 18 42 10 15 26 31 99 10 35 19 43 10 20 25 196 94 14 88 18 14 12 24 11 24 18 24 31 16 19 239 21 14 27 36 22 11 19 14 13 36 16 21 20 55 18 30 21 23 12 123 11 19 90 16 54
internal_value=0 -0.174901 0.054702 -0.216145 0.091829 0.0126816 0.0366245 0.088315 0.0471998 0.0977484 0.132327 0.153747 0.229196 -0.0959794 0.0799153 0.0833172 0.0160898 0.267696 -0.106981 0.318267 0.100511 0.076084 0.152956 0.12271 -0.0174621 -0.00420221 -0.0276987 0.136813 0.077101 0.128748 -0.036157 -0.026918 -0.0372396 0.218256 0.171324 0.117078 0.1511 0.0455124 0.222342 0.208452 0.159393 0.239423 0.108212 -0.0248516 0.370139 -0.115835 -0.18529 -0.0483826 -0.0259587 0.341986 0.172637 0.217982 0.141422 0.18989 0.114111 -0.043517 0.0031176 0.189953 0.0783895 -0.0173538 -0.0098836 0.0181467
internal_weight=0 161.419 492.371 135.08 261.406 230.965 26.3388 65.8189 50.9496 42.1755 38.221 14.8957 14.8693 34.5097 244.822 242.641 49.4186 16.5849 5.35559 11.0611 193.222 131.823 61.3997 7.14472 165.146 146.491 125.569 20.9227 16.8888 14.3404 122.635 117.561 113.721 12.6146 32.8654 90.235 61.1601 29.0749 7.62561 27.2766 20.927 15.1662 7.30279 42.0244 6.34956 11.4432 8.97561 37.9273 34.6224 8.65466 56.1566 35.2275 22.9656 19.0477 14.3653 7.7203 30.3512 12.0727 6.71955 21.4493 5.58878 14.2763
internal_count=3125 829 2296 702 1206 1090 127 307 238 196 177 68 69 167 1130 1120 233 76 25 51 887 609 278 33 783 695 600 95 77 65 586 562 544 57 152 413 278 135 35 126 96 69 33 198 30 59 46 179 163 39 253 159 104 86 65 35 142 54 30 100 26 68
shrinkage=0.2


Tree=2
num_leaves=63
num_cat=0
split_feature=21 53 21 0 52 21 20 44 51 56 58 21 32 15 21 10 53 56 53 58 0 54 32 53 51 48 1 51 45 51 44 8 15 11 51 0 8 11 9 1 8 58 11 54 21 11 54 15 20 51 44 56 54 54 15 15 58 53 11 44 54 1
split_gain=55.3829 46.0168 15.5346 11.6516 10.8894 9.19634 8.91499 8.81732 8.73221 8.19197 8.30639 7.89988 7.88272 7.68004 9.93524 8.33186 7.42589 7.39975 7.3903 6.98107 6.57711 6.29449 10.9385 7.54295 5.97082 5.76246 5.7557 6.25219 5.67772 5.58483 5.6708 6.84203 5.52409 5.17871 9.0102 5.11862 5.05282 4.96767 4.79261 5.36903 7.26004 4.62531 6.77891 6.87907 7.52021 5.83685 6.39021 4.511 9.25389 4.66394 4.46581 4.97276 7.39321 7.184 4.45236 6.78702 4.38858 6.96273 4.36736 4.30317 4.27708 6.16061
threshold=0.15515126737530666 0.97129298555242316 0.1555600981193786 0.15945510669708768 0.82330594789428591 0.15793131643499594 0.82303737686825651 0.003103108568629455 0.00073349179231969115 0.13919470372976489 0.37500000000000006 0.15629599345870812 0.81586885283363808 0.18064703603254553 0.15506950122649224 0.29288409703504048 0.97117838287988878 0.13734372827036803 0.97352964771138473 1.8450000000000004 0.098174741645416744 0.94274577662022596 0.81606519652650833 0.97237980089695697 0.0010306023917403258 0.27730008598452283 0.1176883326174278 0.0019776424273935975 0.74377981250000003 0.0032032236500037143 0.0032780645176387268 0.01479061831440022 0.1826539807215902 0.0033788598574821856 0.0038160142613087727 0.15450946181720579 0.017292162593786728 0.007256532066508314 0.16386437401274687 0.12085156209918929 0.015212752734504476 0.85500000000000009 0.0020011876484560573 0.94326935083932428 0.15596892886345057 0.0016567695961995251 0.94440212640705001 0.17648491892970777 0.82408377654890652 0.0013648518160885392 0.0031319688901334363 0.13895859668350036 0.94374208395026515 0.94798062686194418 0.17767514353140082 0.17975987108590752 0.23500000000000001 0.97177813686615178 0.0010273159144893113 0.0051989139159010237 0.94505146547264396 0.12024094664508556
decision_type=2 2 2 2 2 2 2 2 2 2 2 2 2 2 2 2 2 2 2 2 2 2 2 2 2 2 2 2 2 2 2 2 2 2 2 2 2 2 2 2 2 2 2 2 2 2 2 2 2 2 2 2 2 2 2 2 2 2 2 2 2 2
left_child=1 4 3 8 13 6 12 -6 -2 10 -8 26 19 14 15 20 -10 -5 21 59 -1 54 23 -23 -11 -17 -12 35 -13 50 31 -31 36 34 -32 47 60 38 -20 40 -40 42 45 -44 -45 46 -25 48 49 -28 51 52 -19 -53 -14 -56 57 -34 -22 -4 -18 -62
right_child=2 -3 5 17 7 -7 9 -9 16 24 11 28 18 -15 -16 25 32 29 37 -21 58 22 -24 41 -26 -27 27 -29 -30 30 33 -33 56 -35 -36 -37 -38 -39 39 -41 -42 -43 43 44 -46 -47 -48 -49 -50 -51 -52 53 -54 -55 55 -57 -58 -59 -60 -61 61 -63
leaf_value=0.10675148539931777 -0.10498240507974171 -0.24218181621362042 -0.10212664436779698 0.3419853224598523 0.16589510690819823 -0.26281589714946929 -0.095243830836547166 -0.14522911618859893 -0.094680739516616819 -0.1103983036996717 0.37412905371967753 0.089175908710339313 -0.28290895659791021 0.18386042018669635 -0.1781656674925591 -0.25702816381347632 0.12963416653640256 -0.0048379952934645264 0.15641169570285315 0.1450091844171314 0.023434873752310154 0.4100680945938206 -0.28048084827224795 -0.089928857974173756 0.17498172959957514 0.12122891095654614 0.39149210142618007 0.24437147072848875 -0.24246989727810819 0.092269141788278997 -0.042628413276429994 0.56182686461161679 0.38687489774005179 -0.077998720483941797 0.40203297913385694 0.20901304620253153 -0.067973590367186296 0.18249526173654207 -0.11019682293011118 -0.25545812069427293 0.22740727377344871 0.38608276519091123 -0.11098391885989389 0.40979786665207202 -0.022698342461850943 -0.28860944329546945 0.33860419270956321 -0.2097757682684562 -0.29709388032771056 -0.011607791153219605 -0.034702071809912464 -0.11447656738724361 0.37071072464856203 0.27665726075169234 0.15500585867399963 -0.27399134356860833 -0.18705933134092764 -0.0011093308504386522 -0.23153235668114602 0.15208618248784153 0.33292179748017597 0.097539721345817038
leaf_weight=19.291610509157184 7.7827817648649207 61.421192958950996 68.404657229781151 2.7156983613967887 17.907801881432537 5.5327475368976584 20.275811463594437 4.5742825269699088 6.5664691627025595 3.3396585285663631 3.1810017377138164 3.6033515036106092 2.6441232115030271 4.8873738944530478 23.925799831748009 7.6076624691486341 90.932999700307846 4.0642614811658877 3.0199504345655503 5.3332993686199179 6.1818152815103513 4.1886900812387529 2.4163612723350516 3.8628390431404167 24.057283297181129 2.0437818318605423 2.5157239586114901 6.8998621553182593 4.8360340595245361 3.0182212740182903 4.0074798166751844 2.108353927731514 2.2511679232120541 7.3235231041908264 3.3436174094676971 4.0054010152816764 4.5380709618329993 3.1780667304992667 14.452889114618307 7.2324571907520285 3.0932123512029639 2.2680784314870825 2.2696705013513547 5.552613839507103 2.263779953122139 2.7144092470407486 2.175955519080162 4.485182985663414 2.1193588227033615 2.1119833737611771 74.091460570693016 7.6954148113727552 4.3315089344978333 2.484869509935379 4.7684588730335236 2.1358620822429657 3.4308521598577491 10.386643931269644 4.7537270337343216 2.7714142501354209 10.748465463519098 7.5873648673295966
leaf_count=87 35 371 339 12 86 31 98 24 30 16 14 17 13 23 135 40 397 19 14 25 29 19 12 18 112 11 11 32 24 14 19 10 10 34 15 19 22 14 68 36 15 10 11 25 11 13 10 21 10 10 353 36 19 12 22 11 16 47 25 14 46 33
internal_value=0 -0.10837 0.0295732 0.0631908 -0.018225 -0.00806304 -0.00183128 0.102593 0.101071 0.0511078 0.00593793 0.0667101 -0.0316134 -0.0577674 -0.0762759 -0.0151455 0.112824 0.0157608 0.0178074 -0.0756909 0.0365114 0.0778197 0.126071 0.164907 0.140194 -0.176929 0.122569 0.0864212 -0.100868 0.00788365 0.104297 0.285379 0.123315 0.0410359 0.159624 0.0148987 0.138814 -0.0543797 -0.0814604 -0.110452 -0.0506804 0.116255 0.0837703 0.195534 0.284539 -0.0450118 0.0644842 -0.0543222 0.0490172 0.207526 -0.0127179 0.0749668 0.188913 -0.0190061 -0.0622211 0.0222949 0.0135435 0.0680021 -0.0874005 -0.0922282 0.147402 0.235521
internal_weight=0 152.595 491.119 259.409 91.1739 231.71 226.177 22.4821 144.225 81.4307 54.0337 33.7579 144.747 68.6918 63.8044 39.8786 136.442 115.184 68.2374 76.5094 30.2272 37.2608 27.7124 25.296 27.3969 9.65144 25.3185 22.1375 8.43939 112.469 19.8012 5.12658 129.876 14.6746 7.3511 15.2377 113.807 30.9766 27.7985 24.7786 17.5461 21.1073 18.8393 10.0861 7.81639 8.7532 6.03879 11.2322 6.74707 4.62771 92.6675 18.5761 8.39577 10.1803 9.54844 6.90432 16.0687 12.6378 10.9355 71.1761 109.269 18.3358
internal_count=3125 831 2294 1179 460 1115 1084 110 636 384 256 158 700 350 327 192 601 543 322 378 141 175 129 117 128 51 117 103 41 531 92 24 571 68 34 71 498 147 133 119 83 98 88 47 36 41 28 52 31 21 439 86 38 48 46 33 73 57 54 353 476 79
shrinkage=0.2


Tree=3
num_leaves=63
num_cat=0
split_feature=50 48 50 13 19 48 52 54 18 12 35 29 19 35 11 18 54 12 3 3 29 0 0 0 0 3 56 29 18 51 0 35 49 50 49 0 11 50 56 51 49 10 48 18 29 0 52 11 12 52 0 18 18 50 19 35 43 44 18 50 43 54
split_gain=82.625 29.6305 13.7004 9.67428 7.881 7.5518 8.4083 7.54009 6.29313 6.6835 7.55081 6.07256 6.05722 9.25293 8.90514 8.21605 6.91747 6.82104 8.7914 8.64945 6.73297 6.6622 6.52294 6.43827 5.90968 11.2734 8.40471 7.07403 8.19854 12.52 7.09403 6.63985 6.62729 8.53978 7.57173 5.7561 5.58776 5.44326 5.05917 5.24041 5.04431 5.04057 5.14598 4.88289 4.79434 5.62752 7.26456 6.25491 5.31795 6.89701 4.82048 4.78359 7.48172 4.73055 7.78418 4.69281 4.65287 5.8135 4.62712 4.61524 6.30047 9.70384
threshold=4.6741425851550406e-05 1.0000000180025095e-35 0.00017215941322962352 0.00040518638573743931 0.00032405761338190185 0.37274290627687018 0.82330594789428591 0.94609504611377704 0.99770273515089236 0.12029577126164016 0.018954643498685707 0.00047300838574423481 0.00026754620396380452 0.018006200424920998 0.0019893111638954876 0.99770457583557148 0.94119289294824926 0.11870233653462149 0.00041532692856537551 0.00039532948060208589 0.00011742057732623772 0.23582740571735339 0.23512280230841501 0.18752516440746211 0.1622198362635888 0.00041969802197673757 0.13921805497609874 1.5219319464602486e-05 0.99771556762444369 0.00099346356681274625 0.11903771305864987 0.01884332714523837 0.60601516427969682 0.011881322068165839 0.60261162594776752 0.12539256475640856 0.0029394299287410931 8.7966782813787389e-05 0.13890618610839547 0.0019590730149298082 0.59691659646166817 0.29288409703504048 0.2252794496990542 0.99770675897321426 0.00025741815836155464 0.11903771305864987 0.82130120460709388 0.001609263657957245 0.11972187321128401 0.82446535287004108 0.13992752650650922 0.9977242240743559 0.99773838355314093 6.474122959562571e-05 0.00023281523359226555 0.018824601029705172 0.038774461839530337 0.0032780645176387268 0.99769990991394286 0.0001210631961496678 0.03876474601030843 0.9427716431489378
decision_type=2 2 2 2 2 2 2 2 2 2 2 2 2 2 2 2 2 2 2 2 2 2 2 2 2 2 2 2 2 2 2 2 2 2 2 2 2 2 2 2 2 2 2 2 2 2 2 2 2 2 2 2 2 2 2 2 2 2 2 2 2 2
left_child=1 58 8 24 7 6 41 -5 9 59 53 -6 13 16 15 17 -10 19 -19 -15 36 23 40 -17 27 -26 38 30 31 -30 32 44 33 34 -4 -20 -16 -14 39 -27 -18 -3 -43 -42 48 47 50 -46 49 -29 -47 -31 -53 -11 -55 -37 57 -22 -1 60 61 -2
right_child=2 5 3 4 11 -7 -8 -9 12 10 -12 -13 37 14 20 21 22 18 35 -21 56 -23 -24 -25 25 26 -28 28 29 51 -32 -33 -34 -35 -36 55 -38 -39 -40 -41 43 42 -44 -45 45 46 -48 -49 -50 -51 -52 52 -54 54 -56 -57 -58 -59 -60 -61 -62 -63
leaf_value=-0.24027457675831643 -0.15909511666545303 0.076046866319181797 -0.029917993969449993 0.38974400962656652 -0.086953530438728874 -0.26158399146442807 0.22311973531762685 -0.0982374397152634 -0.063202817550178453 0.42997247744861244 -0.046928268602481026 0.18406475885706153 -0.2686130943919513 0.18745431266454812 0.31071741733245295 -0.1022201086256833 0.17576773617458888 0.47451578897176705 0.32801209585875546 -0.19217827060576043 0.22093374207342895 -0.19627757972726445 0.32719420252394199 0.13471440472007248 -0.039648275980494176 0.40859410657640949 0.38873183796917021 -0.013596666512061102 -0.085184879340762007 0.30556580562542335 0.23886231925886606 -0.095515474018043445 -0.13689384953201542 0.35709016782370401 0.30400044361596423 -0.17339176062220629 -0.017495787692556799 -0.014474962703451978 -0.16663307417714834 0.05031072479202589 0.1495836228284875 -0.23586316695801474 0.1384525706142625 -0.23072999946078557 0.37034455431353291 -0.049328462051105054 -0.24629030256661624 0.14215457945826943 0.21127552542238548 0.30410976087441061 0.34914395524248354 0.024795755072355086 0.29937465765045779 -0.14970483286250674 0.30372851962671021 0.17490479012921778 0.24979717473462226 -0.12021743866327653 -0.088171021144690304 0.082050719493222068 -0.14228101073866031 0.19243733940777696
leaf_weight=72.018324017524719 6.1603414267301542 8.9496707022190183 21.999515905976303 3.2769851982593527 32.29934911429882 3.474756345152854 7.9265675097703925 2.0645218342542648 5.8560822010040274 2.4063036143779772 13.826760724186896 3.6842137575149527 3.5399542748928061 3.7483547329902667 8.1719287931919116 13.092933177948 14.515094324946409 2.8188434243202201 2.4768246412277204 6.676588237285614 2.6113761812448493 14.696283861994742 8.0955583900213224 7.0617336928844443 36.230541780591011 2.2283288389444333 4.6509325355291358 26.267893284559253 5.4531851410865775 19.868523702025414 5.7517768889665595 7.2933924794197074 10.266532912850378 3.223981797695159 3.0989000350236884 3.7860040068626404 2.7809137254953376 70.700578078627586 2.7533093094825736 6.1115854531526566 2.5679196864366522 5.9369005411863318 1.9521743208169935 2.8480577766895294 7.1859220415353837 2.2789655327796927 2.6916170418262482 14.501556470990179 7.201625168323516 3.0505974590778342 2.5996231883764267 8.1609065830707532 7.728532299399375 2.7616864442825317 3.3532120138406754 2.6169329285621643 2.7656394094228736 8.5069240182638151 8.999758765101431 5.9878317415714255 39.805833637714386 6.4087027013301849
leaf_count=500 31 40 100 14 157 20 35 10 28 11 69 17 19 18 37 62 67 13 11 33 12 74 35 34 170 10 22 116 23 82 25 33 45 14 13 19 13 332 13 28 12 34 11 13 30 11 12 64 30 13 11 35 33 14 14 13 12 42 46 27 210 33
internal_value=0 -0.161887 0.0293562 0.0629217 -0.0255544 0.014526 0.0532663 0.201136 -0.00188722 -0.0486715 0.0443354 -0.059205 0.0179933 0.046604 0.0102044 -0.0333619 0.134492 0.0619619 0.166795 -0.055679 0.110144 -0.0938739 0.1758 -0.0192037 0.0802831 0.0217539 0.163053 0.0994608 0.125769 0.197099 0.0316548 0.0855397 0.000769977 0.0506715 0.0113109 0.06911 0.227384 -0.0265928 0.0684353 0.14604 0.114308 -0.0266895 -0.143238 -0.0504089 0.105615 0.165941 0.0174772 0.217763 0.0572859 0.0194608 0.163003 0.240149 0.158349 0.192423 0.0989433 -0.0310401 0.0176542 -0.0400906 -0.223378 -0.0842852 -0.103302 0.0201442
internal_weight=0 109.258 522.568 251.923 41.3251 28.2401 24.7653 5.34151 270.645 80.7107 22.348 35.9836 189.935 115.694 81.8113 56.9745 33.8827 22.1235 11.6986 10.4249 24.8368 34.851 28.0266 20.1547 210.598 51.9747 15.7442 158.623 114.282 41.2111 44.3407 73.0712 38.5889 28.3224 25.0984 8.87976 10.9528 74.2405 11.0932 8.33991 19.9311 16.8387 7.88907 5.41598 65.7778 29.2577 7.57021 21.6875 36.5201 29.3185 4.87859 35.758 15.8894 8.5212 6.1149 6.40294 13.8839 11.1183 81.0181 58.3627 52.3749 12.569
internal_count=3125 686 2439 1131 198 140 120 24 1308 409 108 174 899 548 393 277 155 107 56 51 116 170 127 96 933 243 73 690 493 173 197 320 172 127 113 43 50 351 51 38 92 85 45 25 287 128 34 94 159 129 22 150 68 39 28 32 66 54 546 301 274 64
shrinkage=0.2


Tree=4
num_leaves=63
num_cat=0
split_feature=23 24 50 0 0 18 1 38 17 11 50 32 23 18 11 45 8 3 35 23 36 43 50 0 50 43 0 43 3 8 12 52 52 50 11 14 44 50 14 0 1 11 8 50 18 18 3 44 52 32 23 0 11 58 1 8 43 44 14 23 11 44
split_gain=66.233 22.1412 13.0484 11.2992 8.98178 9.41381 7.41762 7.33563 6.15598 5.3839 7.85269 7.75446 5.8246 8.22266 5.43754 5.94609 8.29771 5.30621 7.40695 6.24596 5.08807 4.63727 4.73745 5.45888 4.93102 4.60619 4.69307 7.09271 4.36648 4.13879 6.97034 7.13015 5.98845 6.82729 5.39478 5.37813 6.94738 5.26812 5.14741 7.65497 5.26958 5.0258 4.68307 4.87432 6.30902 4.64068 5.0286 5.14644 4.46725 4.41696 4.14165 5.36476 4.08463 4.688 4.56492 4.3654 4.07632 4.03648 4.36574 4.02741 6.80467 4.00105
threshold=0.0037423687389005387 0.0035834151964902316 4.6741425851550406e-05 0.14232988860555634 0.12827137297007116 0.99774156551192728 0.11839451391690199 0.61724305106658062 0.52637795275590571 0.0012767220902612829 0.00084599077597153954 0.81621526508226705 0.0045282699450241853 0.99770958421016365 0.0013242280285035632 0.74376006250000015 0.01458750790972369 0.00044598789633276226 0.018257037898421234 0.029241421269433375 0.15836864406779663 0.038753720955872227 0.00029351292879451835 0.10733458596161589 0.00061112236905287948 0.03876937653317164 0.10108039189370556 0.038767178412943422 0.00038477067222789882 0.014805778618133609 0.11835729353502085 0.82254059385016387 0.82389152078710404 0.00034635106236583619 0.0010748218527315918 0.8160035207116868 0.0069564294946245706 0.00016054663662054268 0.81842400999630649 0.22933834384646357 0.11824563238937751 0.0014667458432304039 0.016560701479494986 0.00022093307498776308 0.99770869002742546 0.99770273515089236 0.00037806670556412197 0.0031690973037439645 0.81867199699435278 0.81584874314442424 0.042260445901563047 0.14140383841095158 0.0010035629453681713 0.62500000000000011 0.1179609467658003 0.014674703197034986 0.038779974366748439 0.0033116828921474187 0.81583259330278912 0.0036376978152147265 0.0017755344418052259 0.0031127806763767353
decision_type=2 2 2 2 2 2 2 2 2 2 2 2 2 2 2 2 2 2 2 2 2 2 2 2 2 2 2 2 2 2 2 2 2 2 2 2 2 2 2 2 2 2 2 2 2 2 2 2 2 2 2 2 2 2 2 2 2 2 2 2 2 2
left_child=1 2 -1 -4 9 29 28 -3 20 10 17 12 13 -11 -14 16 -16 18 21 -19 -9 -2 23 52 -24 26 -17 -28 -5 32 31 38 33 45 49 57 37 48 39 -31 -40 -39 43 44 -43 -6 -47 -48 -37 -32 51 -50 54 -54 55 -23 -21 -36 -59 60 -30 -34
right_child=4 7 3 6 5 -7 -8 8 -10 11 -12 -13 14 -15 15 25 -18 19 -20 56 -22 22 24 -25 -26 -27 27 -29 59 30 34 -33 61 -35 35 36 -38 41 40 -41 -42 42 -44 -45 -46 46 47 -49 50 -51 -52 -53 53 -55 -56 -57 -58 58 -60 -61 -62 -63
leaf_value=-0.23253350518943502 0.19648396979975682 0.20073389095881608 -0.20826318674699726 -0.089928168250464957 -0.16678413446804619 0.26456606715710879 -0.15325275546796954 0.19240750802760509 -0.2608829206216372 -0.079993078632741285 0.30548538029307504 -0.13397794581577968 0.30819923430978213 0.19674586307770572 0.10070380867499998 0.36362695608049589 -0.26332920407744992 -0.20016413914684983 0.2374230513831298 -0.10511347782765518 -0.058035802968218746 0.035821902412145036 -0.29709244462767592 -0.11850967210643813 0.058837468672477106 0.090903355263893107 -0.042893163581125743 0.3190429881107571 -0.14038318414395204 -0.11100829736049922 0.28231853937727208 -0.26342365656302069 0.049883747426039106 0.25805477147480688 0.31317524703391186 -0.26709209542779444 0.23311458142711122 -0.15645177123436571 -0.24671016046266045 0.33824053898361595 0.051969054607650771 -0.012576425027847317 -0.1586790609783289 -0.007255321804275041 0.25524933909284819 -0.12454895389901798 0.080777923903670584 -0.075323478051467649 0.1108301695466854 0.040135898714941838 0.12182526965689573 -0.11710174187613032 0.13948454888336995 -0.23334967090865147 -0.11854110855927918 0.32476268671750508 0.23798178607912265 0.013402665877235832 0.26952621613226052 0.3704906118378743 0.26654094217342167 0.33610929241268006
leaf_weight=63.152945548295975 3.9938303530216208 7.2083219811320332 15.364648520946501 3.3033387362957027 5.9547957628965369 5.4092589765787116 6.4970426410436621 4.7623737603426006 3.8829407766461363 16.847645059227947 3.3270016610622397 6.7549127787351599 4.8421783298254004 5.7640184313058844 5.896027594804762 5.1884949803352347 4.3542447537183762 10.391757428646086 5.7643718868494025 2.8314645737409583 10.183108747005461 3.4460927248001152 4.6423497796058646 8.7890933007001859 2.3425581008195877 110.69274596869946 4.7136577665805799 4.0066560357809067 2.8968807160854322 3.1271988600492504 4.3737767636775962 8.6506385505199415 3.6501524895429602 4.4309707283973685 2.1887841373682013 5.285484552383422 3.6584921330213538 7.2507170736789694 5.904227674007414 2.9467751234769821 3.9392151534557343 6.2000823467969886 5.0146953463554373 24.665298193693161 8.13338355720043 8.2990992814302427 36.129519075155258 11.02617599070072 4.6520717591047278 9.6770393550395948 3.98865121603012 36.839236959815025 2.468072146177291 2.9752324670553207 2.0774565190076819 5.3210383802652359 2.711749866604805 33.779981672763824 2.8897983729839316 2.965146541595459 3.7999763637781143 4.2028042078018188
leaf_count=511 17 33 86 19 33 24 35 24 24 84 14 32 22 25 27 22 20 52 25 13 50 16 20 43 10 486 22 18 15 15 21 43 17 20 10 29 17 35 31 13 19 30 26 113 37 40 165 51 22 49 20 188 11 14 10 23 12 158 13 14 18 19
internal_value=0 -0.13477 -0.178333 -0.0800501 0.0287622 0.00345912 0.0211681 0.0291624 -0.0365225 0.0575973 0.00670588 0.0759845 0.0847228 -0.00944858 0.0999659 0.0924888 -0.0539349 -0.0105054 0.0269151 -0.108713 0.0217679 -0.0067396 -0.0320544 0.00851985 -0.177723 0.104534 0.213015 0.123403 0.108572 -0.0020396 -0.0181428 -0.117271 0.037985 0.0182951 -0.002787 -0.0142875 -0.0376797 -0.0473896 -0.0378417 0.106944 -0.127183 -0.00216532 0.0232516 0.0466454 0.139399 0.000995415 0.0190118 0.0442775 -0.0930582 0.115523 -0.0728327 -0.0915457 0.0770661 -0.0643013 0.148024 0.211189 0.0627293 0.0493351 0.0335867 0.176437 0.0905165 0.203068
internal_weight=0 124.017 97.98 34.827 492.411 262.268 19.4624 26.0367 18.8284 230.143 61.0821 169.061 162.306 22.6117 139.694 134.852 10.2503 57.7551 41.8201 15.935 14.9455 36.0557 32.0619 25.077 6.98491 124.602 13.9088 8.72031 12.9653 256.859 183.166 24.5681 73.6935 65.8406 158.597 144.547 105.688 102.03 15.9174 6.07397 9.84344 51.2642 44.0135 38.9988 14.3335 61.4096 55.4548 47.1557 50.7654 14.0508 45.48 41.4913 16.2879 5.4433 10.8446 8.76713 5.54321 38.8586 36.6698 9.662 6.69686 7.85296
internal_count=3125 829 698 187 2296 1258 101 131 98 1038 280 758 726 109 617 595 47 266 189 77 74 164 147 117 30 548 62 40 66 1234 889 121 345 309 768 698 517 500 78 28 50 241 206 180 67 289 256 216 259 70 230 210 74 25 49 39 25 181 171 47 33 36
shrinkage=0.2


Tree=5
num_leaves=63
num_cat=0
split_feature=23 24 30 0 53 19 30 5 5 13 9 23 32 56 30 0 23 9 0 0 51 30 9 46 53 51 12 9 53 46 29 58 32 32 32 58 46 30 30 23 23 13 19 0 46 12 13 29 51 19 19 58 29 9 19 0 23 53 56 51 32 13
split_gain=47.7395 17.519 12.2927 8.35058 6.20926 6.49505 6.19684 5.71773 6.88057 6.38144 6.37669 5.94429 5.67134 5.0623 4.7654 5.34297 4.40846 5.26749 7.89598 5.30937 4.39705 4.22685 3.86318 4.15419 3.64484 3.51576 4.12627 3.88167 4.27167 4.19886 5.94007 4.09077 3.99002 3.77754 3.47478 3.46902 4.90641 4.98831 4.40965 4.44733 4.82657 5.82905 4.72771 5.9266 4.79412 6.08619 6.02787 4.55993 4.23957 3.82385 3.45968 4.87937 3.66434 3.29929 3.26085 3.49815 3.63953 3.2517 4.85437 3.36086 8.51733 4.43655
threshold=0.0037423687389005387 0.0035834151964902316 4.7389737914145108e-05 0.13785397933163338 0.97190610985048187 0.00022398532587068783 0.00027697977252925807 0.00038196050966705664 0.00038279333080727158 6.6820210981261921e-05 0.17485873930230184 0.0050987125216827448 0.81587662248628889 0.13762861347564107 0.00028875362045823822 0.17531203865252987 0.0073952287297448568 0.16835956839846913 0.073620990471077716 0.085411354180646909 0.0011420188665230634 0.00027020980997009451 0.18077243471358856 0.010695947735644496 0.97373593252194646 0.0049858872465275211 0.1184246926049137 0.17424379356684247 0.97562687661876279 0.011064470010677275 0.00032424205773262383 0.18500000000000003 0.81591533363802571 0.815905164533821 0.81590589579524686 1.7050000000000003 0.010531264343989223 6.8582664186309387e-05 5.2099277085737164e-05 0.0071466248791360104 0.0046860280727877689 0.00022036452557650207 0.0003199369897784989 0.20926050194604753 0.011064470010677275 0.1191454602702602 6.1275555176433795e-05 9.2525399129172718e-05 0.0016805318279729633 0.00023163791256272185 0.00044944230302830529 0.015000000000000001 0.00036677552007740693 0.17657390743986109 0.00037527107816705258 0.098671319286001896 0.0053105569116082196 0.96917952126643592 0.14440255057879958 0.00090061650449379789 0.81588160420475331 4.791151298018142e-05
decision_type=2 2 2 2 2 2 2 2 2 2 2 2 2 2 2 2 2 2 2 2 2 2 2 2 2 2 2 2 2 2 2 2 2 2 2 2 2 2 2 2 2 2 2 2 2 2 2 2 2 2 2 2 2 2 2 2 2 2 2 2 2 2
left_child=1 2 -1 -4 13 22 16 20 -9 14 -11 -12 -3 -5 -10 24 17 54 -19 -20 -8 57 -6 -24 -16 27 -27 29 32 30 31 -21 33 35 -14 38 -37 -38 -29 40 41 42 43 47 45 46 -45 49 -39 -40 -22 -52 -53 -13 55 56 -2 -18 59 60 -59 -61
right_child=6 12 3 4 5 -7 7 8 9 10 11 53 34 -15 15 -17 21 18 19 25 50 -23 23 -25 -26 26 -28 28 -30 -31 -32 -33 -34 -35 -36 36 37 48 39 -41 -42 -43 -44 44 -46 -47 -48 -49 -50 -51 51 52 -54 -55 -56 -57 -58 58 -60 61 -62 -63
leaf_value=-0.22474629142140523 0.22610200756523829 0.098107793237023566 -0.19681665314882629 -0.055473909288174632 -0.26699384576786883 0.25921124402382717 0.43219326207914083 -0.22428279301617829 0.31088138989593844 -0.053906933980709594 -0.22943670858904405 0.26359214029149242 -0.16191439470402705 0.31221145577559195 0.083706122699511498 -0.19955792450567089 0.58446058955804647 -0.18091978945171572 0.21305921398689703 -0.18657029819208037 -0.081724054748202601 -0.15327276902762174 0.17384008037336357 -0.14243048973895372 0.26433046865308868 0.31052077830268565 0.03842906184212292 -0.17456985556657589 -0.2727427079487203 0.34699744676264455 0.30014135513612239 0.10606832514955598 0.21285196790688615 -0.25537679683009279 0.10826356070020285 -0.15174872622539259 0.27925594397709935 -0.21118662372099065 0.22563089955496243 -0.22095562304827765 0.033002569193975227 -0.26189726173487793 0.20315236386922414 0.2241702742112783 -0.15010936795765842 0.43776856972492278 -0.14703415043649695 -0.1507586450389013 0.16696994848205382 -0.065979445529467384 0.37770621290722683 -0.042386032066543754 0.26261288170974995 0.070242010456873408 0.13119919085161832 -0.15130524252856703 -0.13532239596722326 -0.062275444839039976 -0.2670146003301534 0.127836861804003 0.2951788881749926 0.036450697887657056
leaf_weight=53.30801348388195 2.2232893705368104 15.635274939239027 12.683516681194304 2.4051271528005627 4.543665796518324 2.1031510531902304 2.2850643992424002 3.6808454841375342 4.2284916788339606 30.642772525548935 2.433137744665145 4.0475087165832546 7.5792701020836812 3.9703732877969742 37.378463953733444 2.4312587082386008 0.44020697474479575 8.9488065689802152 5.084869757294654 3.8484560102224332 2.466537505388259 4.5904795974493018 2.5500405877828598 4.7661169543862343 5.0755465626716605 3.0997180193662626 7.940166100859642 6.7642023116350165 2.4535375088453284 2.3253396898508063 2.7796323448419571 3.7948861718177795 3.2392659187316886 2.4986622035503379 2.5429312437772751 2.6678587943315497 5.6671698391437513 2.0979523956775665 2.6337484419345873 3.8165559619665137 67.279521152377129 4.6893223226070395 3.29453021287918 3.775657653808592 2.9811258167028418 2.133299931883812 3.2612857967615128 19.289998978376389 2.7277327477931976 5.6729496866464615 3.3880182206630689 3.8672862350940704 2.6590061336755753 27.616761684417725 2.3622977882623664 19.652351245284081 2.2346343249082565 22.828565239906315 2.0298137515783301 28.384399384260178 3.0190019756555548 84.532835990190506
leaf_count=511 10 70 79 13 27 10 10 17 18 147 12 17 47 18 159 12 2 47 23 20 12 21 13 27 21 13 36 39 13 11 13 19 14 11 14 13 25 10 14 17 323 27 14 18 15 10 18 105 12 27 15 17 11 122 10 99 11 109 11 126 13 387
internal_value=0 -0.122158 -0.165347 -0.0694587 0.0099645 -0.0647077 0.0225467 0.059538 0.0448454 0.0535462 0.0123052 0.0718089 0.0225976 0.173504 0.107909 0.0887875 0.0088509 -0.00961328 0.00234122 0.0116689 0.177286 0.0355977 -0.12215 -0.0321946 0.1053 0.00567096 0.114825 -0.00187512 -0.0110594 0.103989 0.0497739 -0.0412765 -0.0066159 -0.0116489 -0.0940394 -0.00725982 0.090431 0.152006 -0.0174968 -0.00855549 -0.00150718 -0.0501497 -0.0270806 -0.0461635 0.0702198 0.141846 0.0521348 -0.0974094 0.00256749 0.0264795 0.130239 0.182972 0.0818796 0.0949571 -0.0930502 -0.115022 0.0449299 0.0417364 0.0400395 0.044531 -0.0205247 0.0594228
internal_weight=0 112.087 86.33 33.022 20.3385 13.963 489.265 132.201 117.535 113.854 64.7402 34.0974 25.7575 6.3755 49.1138 44.8853 357.064 211.239 184.766 175.817 14.6659 145.825 11.8598 7.31616 42.454 170.733 11.0399 159.693 146.944 12.7483 10.423 7.64334 144.491 141.252 10.1222 138.753 13.1607 10.4929 125.592 118.828 115.011 47.7319 43.0426 39.7481 12.1514 9.17024 7.03694 27.5967 4.82569 8.3067 12.3808 9.91431 6.52629 31.6643 26.4726 24.1103 4.45792 141.235 140.795 138.765 25.8476 112.917
internal_count=3125 829 698 187 108 77 2296 590 525 508 298 151 131 31 210 192 1706 1037 907 860 65 669 67 40 180 837 49 788 725 63 52 39 712 698 61 687 60 47 627 588 571 248 221 207 61 46 36 146 22 41 55 43 28 139 130 120 21 648 646 635 122 513
shrinkage=0.2


Tree=6
num_leaves=63
num_cat=0
split_feature=49 49 30 29 29 0 43 30 49 29 30 44 44 12 29 43 56 49 29 12 56 0 5 32 13 32 54 30 43 30 43 35 29 58 58 46 32 30 0 58 5 41 41 30 58 30 21 12 14 58 41 14 13 0 30 30 32 5 56 13 13 43
split_gain=35.0605 13.5625 9.19624 5.18232 9.55327 4.53897 6.02521 5.05541 9.65237 7.80025 5.4749 5.10939 5.57403 7.61224 4.64006 4.62066 5.79768 6.36661 4.75846 4.52296 4.58689 6.88034 4.49499 3.57638 3.54683 3.36318 3.45396 3.35658 5.98043 5.30121 6.2348 6.19178 4.63442 4.51375 6.79412 4.4643 5.89061 5.67056 6.51891 5.66345 4.22525 3.73814 4.75168 4.00535 3.65154 6.20906 3.83819 3.80462 4.68992 4.33434 5.75711 3.76504 3.5723 3.52306 4.86355 4.18975 4.57207 4.1974 3.5066 4.03632 4.12922 4.04884
threshold=0.59165964616680722 0.58650379106992434 4.1502813949655035e-05 6.1582809224318665e-05 7.972504434768587e-05 0.16758824318883375 0.038760184394035453 0.00013981444415663932 0.60466722830665554 0.00047300838574423481 0.00016100737042880358 0.0046132053911080587 0.0037647119388909997 0.12232277313976052 9.5649895178197077e-05 0.03877621206692209 0.13935141653849431 0.60500421229991586 0.00019009030801483634 0.11769336239876309 0.13771164012927253 0.31909810763655888 0.00076695521565197245 0.81574129341864732 0.00016705052745315477 0.81584268738574051 0.94807249763633461 0.00019220806744060098 0.038780656541991677 0.00014275790613888436 0.038790496403075997 0.018755013859637366 9.2525399129172718e-05 0.085000000000000006 0.58500000000000008 0.01059197180804596 0.81583532906764178 0.00016336214001459962 0.12259428264662463 0.52500000000000013 0.00046888317224007465 0.036429031277630426 0.036431897933244924 0.00020044976099088709 1.0850000000000002 8.094520451173855e-05 0.15662305805396567 0.11975255487742927 0.8178247817237343 1.2450000000000003 0.036418953083554383 0.81450643237168674 3.2699252182319663e-06 0.026184404777882166 0.0037493818729837291 0.00064079167353474483 0.81588672303473497 0.00052209849498018285 0.13773551029219158 0.00025306377775882174 0.00022036452557650207 0.038812208869656299
decision_type=2 2 2 2 2 2 2 2 2 2 2 2 2 2 2 2 2 2 2 2 2 2 2 2 2 2 2 2 2 2 2 2 2 2 2 2 2 2 2 2 2 2 2 2 2 2 2 2 2 2 2 2 2 2 2 2 2 2 2 2 2 2
left_child=1 23 -3 -4 -5 22 14 15 10 11 24 12 -10 -14 -7 16 -8 18 -18 -16 -21 -22 27 -1 -9 -11 -27 29 32 31 35 33 52 -2 -35 -31 -37 -38 39 -39 44 -30 -43 -44 45 -36 47 48 49 -46 51 -51 -29 -45 55 56 -55 58 -58 60 -60 -61
right_child=5 2 3 4 -6 6 7 8 9 25 -12 -13 13 -15 19 -17 17 -19 -20 20 21 -23 -24 -25 -26 26 -28 28 41 30 -32 -33 -34 34 40 36 37 38 -40 -41 -42 42 43 53 46 -47 -48 -49 -50 50 -52 -53 -54 54 -56 -57 57 -59 59 61 -62 -63
leaf_value=0.25613686766520866 -0.10625871721867464 -0.21694278324997859 -0.19841570897010175 0.2132142462502373 -0.09073779619167241 -0.26531055729710767 -0.095380001339316359 0.16425481452881019 -0.047023403828823557 0.35007015588881973 0.33281474955265261 -0.16897793102091868 0.30691225482866269 -0.053049224128485853 0.20647547484683107 -0.26088330176890201 0.01998411076819584 -0.15344811928171137 0.25381241608791777 -0.17211942656326754 0.24996283781371292 -0.091111090523832303 -0.13534865947501193 -0.014778593861158993 -0.12663416949067902 -0.02465417343193143 0.29474409812432373 0.03336313664492304 -0.037262917253951665 -0.17925533694089205 0.11654422945145455 0.16561659760236352 0.073470320181155443 0.14750966248999972 0.15928817464746503 0.27880320226423433 -0.14710742240243949 0.29898078675424961 -0.10968068670614298 -0.01439405402112273 -0.22096207214322008 0.24646033110783483 -0.2811438979497301 0.24427900212568501 0.28935721960166227 -0.13407470495734836 -0.20073234789102856 -0.15855620859551539 0.24540728520567706 -0.0019658992302876497 0.19761310223372516 -0.28669008386560296 0.2675385712745923 0.21925773182222685 -0.13149755375804303 0.11849218332296128 -0.16046359924213935 -0.24119806921259446 0.04603648278230732 -0.21460271581134102 0.31598665886818711 0.06737780439344096
leaf_weight=2.0824450924992552 9.5864310562610608 40.683995552361012 10.523470677435396 5.1104547753930119 21.696580268442631 1.4242354035377527 38.659212730824947 4.8115180879831296 43.606203764677048 2.5926056504249555 5.0687064230442047 10.605403944849966 4.5929728299379331 4.8119621127843857 10.170274741947653 4.4538547024130812 10.056322395801546 5.2889448702335349 5.3243781030178061 3.377481870353221 5.3419685363769513 4.2463186383247375 6.1493378132581702 30.440547190606594 2.5734203159809113 4.1845422834157944 2.0023301690816879 3.3948039859533301 23.487594500184059 10.578174933791159 9.0160201489925367 14.296765416860579 27.240279421210289 17.336952246725559 3.853464648127555 2.2983530759811392 14.048526242375376 4.4996316581964511 7.8387713283300391 4.733555868268013 3.2110944986343375 4.7724279165267935 1.5123425200581539 3.480665758252143 2.4658501744270422 11.492874354124067 2.0461376756429663 2.3290507048368445 6.9988309741020194 5.7636871188878995 3.9835868552327147 2.7412804514169693 11.210014194250105 4.1854685544967642 6.1982577443122855 25.662721291184425 4.0797363221645346 2.6961862146854392 28.478560313582424 4.6045306622982007 2.4625084400176993 3.6525053083896637
leaf_count=10 53 473 65 25 124 8 206 22 209 11 22 55 21 24 45 27 54 30 26 18 26 24 30 166 13 21 10 15 104 53 40 66 117 82 19 10 67 20 37 21 17 20 8 15 11 57 10 11 32 30 19 14 47 18 29 111 18 13 126 23 10 17
internal_value=0 -0.105934 -0.151167 -0.0794819 -0.0327928 0.0191105 -0.00670695 -0.0218709 0.0101091 -0.0178687 0.17275 -0.0422567 -0.0169048 0.122741 0.0850611 -0.0644135 -0.0496644 0.0358391 0.100929 0.10663 0.0283112 0.0989131 0.0338975 0.00256811 0.0628891 0.158848 0.0787164 0.0374108 0.0574434 0.0147863 -0.0349702 0.0454199 0.122206 0.0214895 0.0411712 -0.0660191 -0.030176 -0.0529952 0.0244498 0.138324 9.85146e-05 0.0339341 0.0521531 0.0414959 0.0171315 -0.0604113 0.0623298 0.0844966 0.110282 0.0470424 -0.000802318 -0.0937368 0.213106 0.0472027 0.0388395 0.0527641 0.0191361 0.000917072 0.0160007 0.0343671 0.067521 -0.0898684
internal_weight=0 110.537 78.0145 37.3305 26.807 475.58 173.193 148.632 84.8497 72.396 12.4536 63.6165 53.0111 9.40493 24.5603 63.7827 59.3289 20.6696 15.3807 23.136 12.9658 9.58829 302.387 32.523 7.38494 8.77948 6.18687 296.238 157.119 139.119 53.013 86.106 41.8451 71.8092 62.2228 43.997 33.4188 31.1205 17.072 9.23319 44.8859 115.274 91.7859 87.0135 41.6748 15.3463 26.3284 24.2823 21.9532 14.9544 12.4886 8.50497 14.6048 85.5011 82.0205 75.8222 50.1595 45.974 43.2778 39.1981 30.9411 8.25704
internal_count=3125 863 687 214 149 2262 872 751 408 351 57 309 254 45 121 343 316 110 80 113 68 50 1390 176 35 42 31 1360 691 669 248 421 179 355 302 208 155 145 78 41 220 512 408 388 203 76 127 117 106 74 63 44 62 380 365 336 225 207 194 176 136 40
shrinkage=0.2


Tree=7
num_leaves=63
num_cat=0
split_feature=23 25 18 11 4 19 45 56 23 3 35 20 56 21 20 3 18 54 56 54 18 23 20 26 22 20 11 37 54 19 58 30 45 58 18 58 18 11 23 19 19 45 3 18 19 19 19 18 51 15 21 54 21 21 23 13 58 20 13 58 45 56
split_gain=26.4561 10.9101 8.31241 5.0885 4.04648 3.75524 5.23439 4.19477 3.86452 3.75102 3.54451 4.66406 3.45317 3.2161 3.20063 3.65477 5.11614 5.69522 4.72866 4.58721 4.4712 4.45179 4.39966 3.18818 3.57804 3.06631 3.04012 2.72682 2.7155 2.70523 2.40499 3.22239 3.17884 2.93075 7.33592 5.10825 4.15124 4.06917 6.05558 5.48373 4.50528 4.57139 4.16027 3.6496 3.87978 4.10847 5.00621 7.90852 4.76449 7.32378 4.09528 3.82602 3.42714 5.91453 7.04618 4.33852 6.07685 5.62009 5.03318 4.83431 4.31861 4.31118
threshold=0.0037423687389005387 0.5904392764857882 0.9977004711562999 0.0003503562945368171 0.36595152018016958 0.00072758439625800317 0.74411481250000011 0.13293968321180311 0.010955861946862924 0.00044440748428598015 0.017924475957748341 0.82466934944172465 0.13956728583793615 0.15776778413736714 0.8245446033367384 0.00046953092201579733 0.99770858538901985 0.94187166633961872 0.13744803050399257 0.94224717698057348 0.99772220740690376 0.027258952113833546 0.81820823500405071 0.080483729375831051 0.69480519480519487 0.81783326288847424 0.007256532066508314 0.0004847304977090831 0.94209019390977045 0.0010216203233865408 3.2700000000000005 8.9186898062024658e-05 0.74381577083333339 1.2250000000000003 0.99771150575179257 1.3650000000000004 0.99771687084822158 0.0021555819477434685 0.0049500781449520843 0.00021927604175251306 0.00018925435549914884 0.74376581250000007 0.0004788575447263915 0.99770858538901985 0.00018689971344006145 0.00019808426322072656 0.00021751006020819753 0.99769990991394286 0.001587684765654015 0.17658618341493199 0.15613246116107934 0.93820486290739802 0.15580539656582176 0.15596892886345057 0.0050420306674395596 4.0376467912081668e-05 0.29500000000000004 0.82390326159698513 1.0236287639682677e-05 0.085000000000000006 0.74382089583333344 0.13774588862389553
decision_type=2 2 2 2 2 2 2 2 2 2 2 2 2 2 2 2 2 2 2 2 2 2 2 2 2 2 2 2 2 2 2 2 2 2 2 2 2 2 2 2 2 2 2 2 2 2 2 2 2 2 2 2 2 2 2 2 2 2 2 2 2 2
left_child=1 2 4 -2 -1 7 14 -5 -8 10 -4 12 28 30 15 16 -7 -18 19 -19 25 -17 -22 24 27 -20 -16 -3 -12 -24 33 -32 -33 43 35 -35 -36 38 40 -40 -37 -42 -41 44 -9 48 47 -47 49 -46 -50 -45 55 54 60 58 -57 61 59 -48 -54 -58
right_child=3 23 9 5 -6 6 8 13 -10 -11 11 -13 -14 -15 26 21 17 18 20 -21 22 -23 29 -25 -26 -27 -28 -29 -30 -31 31 32 -34 34 36 37 -38 -39 39 42 41 -43 -44 51 45 46 52 -49 50 -51 -52 -53 53 -55 -56 56 57 -59 -60 -61 -62 -63
leaf_value=-0.2025559808895333 -0.24369826636062042 0.19971156220833841 -0.19423484647450931 0.2923416416215896 0.00011239697409722949 -0.24038418314228746 -0.17014272465681243 -0.15107560287604005 0.11850855585243847 -0.26272466497553604 0.28652798679721986 0.30583673531715794 -0.20622034989328619 -0.24501725233874147 0.31927481259525514 0.38735078944398615 0.24758683097787482 0.032952511146583895 -0.0023797546993050002 -0.33730197516845406 0.19268293307740461 0.0090041851648101478 -0.24588155348332319 -0.1213606295797223 -0.055115655753295349 0.27115459032891309 0.036204509556351461 -0.037148855990741289 -0.0015173036800279608 0.012073574092876342 -0.26770284024716301 0.16011086655266152 -0.18175359320066839 0.27566857021229546 -0.25334757598682661 0.40098610324926531 0.029437236138597306 0.25286813525929741 -0.27956580204700909 0.10143121949268075 -0.18519421203623035 0.16229530441492734 -0.21142223194413612 0.48848609672705212 0.47983860468371342 0.2858543372205713 0.15575411048622526 -0.13570367479560633 0.12999982772283636 0.072835257781274823 -0.28147460938980812 0.025840529779641987 0.20424260363413693 -0.018043072794890341 0.21808608344281333 -0.0056729082374530199 0.10736823437656516 0.13902288292075102 0.096693921942210062 -0.18648477540667752 -0.12333788249877542 -0.18265978601494581
leaf_weight=44.893062815070152 3.0289158299565306 7.6560958698391968 3.583071403205401 2.0971879512071601 4.3198091387748709 2.3030681461095837 5.6915577501058561 7.7152879759669295 2.7525092959403992 2.7097106128931037 1.4840960204601312 2.0721578672528258 3.0036411285400382 1.9877138584852208 4.4465541392564765 2.9717099964618674 5.7318604663014439 2.8773569315671947 2.3549417406320599 2.5026127398014069 2.792074501514433 2.1396690756082535 3.0249257981777191 4.5586449205875388 5.9749759510159484 5.3941620290279388 2.3039659857749939 2.6058797165751457 11.105645574629305 3.5168923884630203 2.8954980075359336 2.384915828704834 2.0006687939167023 5.7984428480267516 3.9546912088990194 2.2068772166967454 4.372117280960083 4.0723760873079291 3.3136460706591597 6.6645389497280103 1.9864752143621425 6.3715858608484268 2.2824874818325043 0.71801383793353935 2.425418093800543 1.9416033849120165 2.3100574910640734 21.39828222244978 1.8743526786565774 6.5291925966739655 1.9997730180621145 170.76180176436901 2.2973495945334461 26.561740890145302 12.516384094953535 52.759955689311028 2.2663188874721589 2.9202782511711112 21.068152733147144 5.7863904535770416 5.3787610605359077 21.48874543607235
leaf_count=557 18 35 25 10 29 11 28 43 12 16 7 11 18 14 19 13 25 12 10 11 12 10 13 26 29 23 10 14 62 15 17 10 11 27 21 10 21 17 18 31 11 30 11 3 11 10 11 119 10 35 11 792 12 132 55 263 11 13 97 30 29 108
internal_value=0 -0.101401 -0.137732 0.014705 -0.184766 0.0163566 0.0677346 0.0101874 -0.0760512 -0.0411194 -0.0128593 0.0239288 -0.0135331 0.00878193 0.0963971 0.0724607 0.0462298 0.0696416 0.0242355 -0.13928 0.0757315 0.228972 -0.0174983 0.0264311 0.0679247 0.188028 0.222662 0.139564 0.0324379 -0.107204 0.00998588 -0.103956 0.00415502 0.0120008 0.0627249 0.105406 -0.104867 0.0687017 0.0358441 -0.0597813 0.146818 0.0797069 0.0216188 0.00638771 -0.0120222 -0.00642057 -0.0142693 -0.100635 0.102905 0.183075 -0.0823979 0.0277777 -0.00129395 0.043979 0.125565 -0.0207848 -0.0450066 -0.122803 0.045188 -0.0888381 -0.0252978 -0.15499
internal_weight=0 93.9668 73.1712 476.94 49.2129 473.911 50.8039 423.107 8.44407 23.9583 21.2486 17.6655 15.5934 421.01 42.3598 35.6093 30.4979 28.1948 22.463 5.37997 17.083 5.11138 9.33389 20.7956 16.237 7.7491 6.75052 10.262 12.5897 6.54182 419.022 7.28108 4.38558 411.741 41.0232 32.6964 8.32681 26.898 22.8256 12.2607 10.5649 8.35806 8.94703 370.718 199.238 191.523 178.694 23.3399 12.8287 8.95461 3.87413 171.48 155.354 46.7542 20.1925 108.6 79.4353 26.6753 29.1646 8.09645 7.67611 23.7551
internal_count=3125 829 725 2296 586 2278 224 2054 40 139 123 98 87 2044 184 155 132 121 96 23 73 23 40 104 78 33 29 49 69 28 2030 38 21 1992 197 155 42 128 111 60 51 41 42 1795 1000 957 890 129 67 46 21 795 761 228 96 533 395 132 138 41 41 119
shrinkage=0.2


Tree=8
num_leaves=63
num_cat=0
split_feature=49 49 23 23 20 5 11 30 5 14 44 11 51 29 5 58 43 58 9 58 5 8 5 5 29 11 52 9 30 11 44 21 51 44 49 51 23 44 21 29 49 20 57 20 43 57 29 11 51 51 58 49 49 8 15 5 5 49 23 9 30 51
split_gain=19.8077 9.38828 7.49747 3.60477 7.07744 6.03957 10.3632 5.27838 4.67298 5.19627 4.41761 4.44442 4.33144 4.00477 5.35611 6.12523 3.97697 4.00503 3.82082 4.61146 3.75572 6.98957 5.63743 4.89295 6.48382 9.43044 4.21743 6.78372 4.07937 4.22001 4.84753 3.99423 4.9847 4.56346 5.33274 4.54052 3.92365 4.02804 3.75041 4.3906 5.29587 4.21139 4.18409 5.06519 5.88207 4.54849 4.07579 3.87496 4.66331 4.09135 5.50343 3.8541 6.10149 4.89526 4.16012 5.10128 6.85486 3.71539 6.6139 5.18965 4.05936 3.84424
threshold=0.59165964616680722 0.58650379106992434 0.0036376978152147265 0.0050734569209974064 0.82303737686825651 0.00042234989981794832 0.001454869358669834 0.00019220806744060098 0.00039407537859269791 0.82761086705384013 0.0029954673695064965 0.00044536817102137769 0.0012348659288420117 5.7954362199645223e-05 0.00038846722921867749 0.32500000000000007 0.038776432568010812 1.5850000000000002 0.18082941051655446 1.7500000000000002 0.00041978081706085254 0.015604660710519181 0.00042274439404226064 0.00041522465228499827 7.1661828737300441e-05 0.0024406175771971498 0.82433033355640883 0.18612816019238179 0.0019691760661219304 0.0018824228028503566 0.0032739304715854538 0.15547833197056421 0.001791948302755701 0.0035391334259463653 0.60827295703454098 0.001587684765654015 0.0072175041323295141 0.0037647119388909997 0.15523303352412104 0.00026134897597161755 0.64326874473462514 0.8133886325478733 0.00036469611934228293 0.81529137754922354 0.0387662895179295 0.00047470570891568426 0.0001054265441057894 0.0012529691211401429 0.0014391294659436978 0.0021447671395677047 0.045000000000000005 0.6088289806234205 0.64802021903959572 0.01499344622894507 0.18027573292005683 0.00039306235638705633 0.00040120306127518072 0.60005054759898913 0.011356381394380667 0.18313201882952054 0.00021869922528080631 0.0024975859763797076
decision_type=2 2 2 2 2 2 2 2 2 2 2 2 2 2 2 2 2 2 2 2 2 2 2 2 2 2 2 2 2 2 2 2 2 2 2 2 2 2 2 2 2 2 2 2 2 2 2 2 2 2 2 2 2 2 2 2 2 2 2 2 2 2
left_child=1 -1 -3 4 8 7 -7 12 9 13 -5 -12 -6 -2 -15 -16 17 -14 -10 -20 23 22 -22 38 25 -25 -23 -28 29 30 -24 33 36 -32 35 -35 -33 -38 47 41 -41 -40 43 -43 -45 -44 -47 48 -13 -49 -51 53 54 57 55 -53 -57 60 59 -59 61 -46
right_child=3 2 -4 10 5 6 -8 -9 18 -11 11 20 16 14 15 -17 -18 -19 19 -21 21 26 28 24 -26 -27 27 -29 -30 -31 31 32 -34 34 -36 -37 37 -39 39 40 -42 42 45 44 51 46 -48 49 -50 50 -52 52 -54 -55 -56 56 -58 58 -60 -61 -62 -63
leaf_value=0.0013249740678952656 -0.13929993189023734 -0.19533368317183541 -0.056818317707972715 0.16136712963023248 -0.14290212404163358 0.23973721557982089 -0.12482449102627127 0.25038852319758548 -0.12902127402177135 -0.17814196906972954 -0.18502248462207185 0.068545938899495854 0.26667915073746495 0.0063290861742791513 -0.10701680142180831 0.30571818721575694 -0.032529805556869171 -0.043569856573677214 -0.053346154717500698 0.25148572439345185 0.2628363820197156 -0.023702409386434573 -0.16875339018443666 -0.1672133083385654 -0.20680546770536723 0.34240611645353408 0.26454830031452098 -0.079387480865580298 -0.21061349716130981 0.11521454549283772 0.23229706602734704 -0.13026161771958167 -0.21135479362598555 -0.32143283745831452 0.18177966400117437 0.049005571498921006 0.21459317000099906 -0.082028236479495698 -0.17046356137177496 0.081822550333497876 -0.19713745872957111 0.22271096229348833 -0.27944805490368207 0.21470794639566232 -0.074270231766226255 0.20341571378530299 -0.11693414693877802 0.28889188678391292 -0.26325903111623622 0.24005017613044474 -0.091215964177807515 -0.17255111244835919 0.22714240553536513 0.30238470221319869 -0.26913709895642363 0.31959389191474474 -0.1295113310588723 0.046956974123166836 0.25887324110123683 -0.23874517497135736 -0.22722280831072961 0.19256966154967048
leaf_weight=31.611421339213848 4.1625492051243809 34.313090499490499 28.708248361945152 9.057674475014208 3.6266519576311174 4.057858511805537 13.480360470712183 7.697270266711711 32.716429725289345 5.081340178847312 4.1844486072659484 6.8285644203424471 6.4158341884613019 15.895042695105078 1.8871982991695393 6.0461518540978432 5.3964218199253073 2.247344508767128 14.608782656490805 2.297234244644641 6.2959890812635413 59.567742094397545 4.5517494082450858 3.2622250467538825 9.6369328871369344 2.6181143224239349 5.46976640075445 3.9507478326559067 2.0697446763515464 45.030205018818378 7.6963376402854946 3.6169651746749905 4.1102461814880362 2.2916700392961484 4.8092344254255295 3.1329085677862167 5.6802497357130033 2.7025168538093567 7.3034217506647101 32.358928613364697 2.9721924737095824 4.1010366678237906 4.502100467681883 4.483059659600257 9.0369057804346102 2.2033893465995789 5.6938611567020416 5.4552243649959555 2.2534061521291733 3.7868380248546583 4.2658140510320663 7.5123669654130989 2.1478395760059348 2.2190193533897391 5.8224307894706717 2.564444288611412 2.8931438475847244 13.187932863831525 4.8011398911476126 3.1507275998592368 4.8770485967397681 2.8377176672220221
leaf_count=176 22 520 167 41 20 19 74 34 194 27 21 34 30 85 10 28 31 12 82 11 27 295 21 15 46 11 24 19 10 199 35 20 20 11 21 14 26 14 37 149 17 20 26 19 42 11 31 24 10 17 20 36 10 10 28 11 13 59 20 14 22 13
internal_value=0 -0.0876205 -0.132235 0.0128042 -0.0161125 0.0497813 -0.040475 0.112142 -0.050314 0.00792249 0.023583 0.0197774 0.0519755 0.0416997 0.0733183 0.207536 0.102244 0.186196 -0.0891273 -0.0119248 0.0224244 0.0440857 0.0801766 0.00100262 -0.105818 0.0596855 -0.00403723 0.12031 0.0667561 0.0736213 0.0250891 0.0510091 -0.0212671 0.115948 0.0284481 -0.10749 0.0438433 0.118966 0.0122587 -0.00132776 0.0583553 -0.0249312 -0.0119746 0.0070853 -0.00640834 -0.119015 -0.0275542 0.0872397 -0.0137811 0.155161 0.0645652 -0.0226453 -0.0921933 0.0136632 -0.128691 -0.0656426 0.0815169 -0.00324507 0.0525043 -0.00813748 -0.0735981 -0.0105026
internal_weight=0 94.6328 63.0213 462.61 125.616 42.9217 17.5382 25.3835 82.6947 33.0723 336.994 327.936 17.6863 27.9909 23.8284 7.93335 14.0596 8.66318 49.6224 16.906 323.752 160.976 91.9878 162.776 15.5173 5.88034 68.9883 9.42051 85.6918 83.6221 38.5919 34.0401 16.11 17.9302 10.2338 5.42458 11.9997 8.38277 147.259 124.669 35.3311 89.3376 82.0342 69.6348 65.5338 12.3994 7.89725 22.5898 9.08197 13.5079 8.05265 61.0507 20.9402 40.1105 18.7924 12.97 5.45759 37.8915 21.1398 16.3387 16.7517 11.8746
internal_count=3125 863 687 2262 679 220 93 127 459 172 1583 1542 93 145 123 38 73 42 287 93 1521 756 418 765 72 26 338 43 391 381 182 161 80 81 46 25 60 40 693 588 166 422 385 317 297 68 42 105 44 61 37 278 98 180 88 60 24 170 93 73 77 55
shrinkage=0.2


end of trees

feature_importances:
Column_0=38
Column_19=28
Column_11=27
Column_58=27
Column_23=26
Column_32=22
Column_30=20
Column_43=19
Column_49=19
Column_51=19
Column_18=18
Column_53=18
Column_56=18
Column_29=17
Column_44=16
Column_21=15
Column_41=15
Column_54=14
Column_5=13
Column_13=13
Column_14=13
Column_50=13
Column_52=12
Column_8=10
Column_20=10
Column_35=10
Column_1=9
Column_3=9
Column_9=9
Column_12=9
Column_15=9
Column_45=9
Column_46=5
Column_57=5
Column_48=4
Column_10=3
Column_17=2
Column_24=2
Column_25=2
Column_26=2
Column_42=2
Column_2=1
Column_4=1
Column_22=1
Column_36=1
Column_37=1
Column_38=1
Column_47=1

parameters:
[boosting: gbdt]
[objective: binary]
[metric: binary_logloss]
[tree_learner: serial]
[device_type: cpu]
[data: ]
[valid: ]
[num_iterations: 10000]
[learning_rate: 0.2]
[num_leaves: 63]
[num_threads: 0]
[force_col_wise: 0]
[force_row_wise: 0]
[histogram_pool_size: -1]
[max_depth: -1]
[min_data_in_leaf: 10]
[min_sum_hessian_in_leaf: 0.001]
[bagging_fraction: 1]
[pos_bagging_fraction: 1]
[neg_bagging_fraction: 1]
[bagging_freq: 0]
[bagging_seed: 21709]
[feature_fraction: 0.5]
[feature_fraction_bynode: 1]
[feature_fraction_seed: 24116]
[extra_trees: 0]
[extra_seed: 15571]
[early_stopping_round: 50]
[first_metric_only: 0]
[max_delta_step: 0]
[lambda_l1: 0]
[lambda_l2: 0]
[min_gain_to_split: 0]
[drop_rate: 0.1]
[max_drop: 50]
[skip_drop: 0.5]
[xgboost_dart_mode: 0]
[uniform_drop: 0]
[drop_seed: 15722]
[top_rate: 0.2]
[other_rate: 0.1]
[min_data_per_group: 100]
[max_cat_threshold: 32]
[cat_l2: 10]
[cat_smooth: 10]
[max_cat_to_onehot: 4]
[top_k: 20]
[monotone_constraints: ]
[monotone_constraints_method: basic]
[monotone_penalty: 0]
[feature_contri: ]
[forcedsplits_filename: ]
[refit_decay_rate: 0.9]
[cegb_tradeoff: 1]
[cegb_penalty_split: 0]
[cegb_penalty_feature_lazy: ]
[cegb_penalty_feature_coupled: ]
[path_smooth: 0]
[interaction_constraints: ]
[verbosity: -1]
[saved_feature_importance_type: 0]
[max_bin: 255]
[max_bin_by_feature: ]
[min_data_in_bin: 3]
[bin_construct_sample_cnt: 200000]
[data_random_seed: 4074]
[is_enable_sparse: 1]
[enable_bundle: 1]
[use_missing: 1]
[zero_as_missing: 0]
[feature_pre_filter: 1]
[pre_partition: 0]
[two_round: 0]
[header: 0]
[label_column: ]
[weight_column: ]
[group_column: ]
[ignore_column: ]
[categorical_feature: ]
[forcedbins_filename: ]
[objective_seed: 10917]
[num_class: 1]
[is_unbalance: 0]
[scale_pos_weight: 1]
[sigmoid: 1]
[boost_from_average: 1]
[reg_sqrt: 0]
[alpha: 0.9]
[fair_c: 1]
[poisson_max_delta_step: 0.7]
[tweedie_variance_power: 1.5]
[lambdarank_truncation_level: 20]
[lambdarank_norm: 1]
[label_gain: ]
[eval_at: ]
[multi_error_top_k: 1]
[auc_mu_weights: ]
[num_machines: 1]
[local_listen_port: 12400]
[time_out: 120]
[machine_list_filename: ]
[machines: ]
[gpu_platform_id: -1]
[gpu_device_id: -1]
[gpu_use_dp: 0]

end of parameters

pandas_categorical:null
