tree
version=v3
num_class=1
num_tree_per_iteration=1
label_index=0
max_feature_idx=86
objective=binary sigmoid:1
feature_names=Column_0 Column_1 Column_2 Column_3 Column_4 Column_5 Column_6 Column_7 Column_8 Column_9 Column_10 Column_11 Column_12 Column_13 Column_14 Column_15 Column_16 Column_17 Column_18 Column_19 Column_20 Column_21 Column_22 Column_23 Column_24 Column_25 Column_26 Column_27 Column_28 Column_29 Column_30 Column_31 Column_32 Column_33 Column_34 Column_35 Column_36 Column_37 Column_38 Column_39 Column_40 Column_41 Column_42 Column_43 Column_44 Column_45 Column_46 Column_47 Column_48 Column_49 Column_50 Column_51 Column_52 Column_53 Column_54 Column_55 Column_56 Column_57 Column_58 Column_59 Column_60 Column_61 Column_62 Column_63 Column_64 Column_65 Column_66 Column_67 Column_68 Column_69 Column_70 Column_71 Column_72 Column_73 Column_74 Column_75 Column_76 Column_77 Column_78 Column_79 Column_80 Column_81 Column_82 Column_83 Column_84 Column_85 Column_86
feature_infos=[-18.510000000000002:726.59000000000003] [-1164.79:8776] [-506.98000000000002:1180.3199999999999] [-764:2052498] [-506.98000000000002:1180.3199999999999] [-764:2052498] [0:12109447000] [0:1215279900.4100001] [-774:41406] [-376.13:408.38] [0:83.189999999999998] [0:538.51999999999998] [-1164.79:8776] [0:15975] [-308.38:476.13] [-393.42000000000002:5623.0500000000002] [0:50] [0:25.399999999999999] [-108918.83:2421.3299999999999] [-2.71:16985.009999999998] [-5523.0500000000002:493.42000000000002] [-18.969999999999999:103.33] [-0.27000000000000002:0.34000000000000002] [-3497.2600000000002:653357.80000000005] [0:1298053.53] [0:7.7400000000000002] [0:1153069527.03] [0:73553443.75] [0:12.92] [0:45380.449999999997] [-0.64000000000000001:16986.16] [0:7.9400000000000004] [-178500:40300] [-11841777.779999999:137802405.41] [-666620.80000000005:5297878.1299999999] [-774:18875] [-1.1599999999999999:2.3500000000000001] [0:5085.3000000000002] [-31.84:20.870000000000001] [-5083.5900000000001:2.3100000000000001] [0:1395.48] [-26340:697500] [-185.11000000000001:52830] [-28120:697500] [-187.91:24747.200000000001] [-178500:61500] [-636:23281.700000000001] [0:9.9499999999999993] [0:11.630000000000001] [-174.78999999999999:121.95999999999999] [-0.64000000000000001:17221.77] [0:538.51999999999998] [-5523.0500000000002:493.42000000000002] [-5083.5900000000001:146.65000000000001] [-5277.2799999999997:328.42000000000002] [-51.920000000000002:101.97] [-1318.8:4437.6400000000003] [-2.8199999999999998:362103.70000000001] [-392.67000000000002:38.490000000000002] [1.0261064131207782:116.01576876538225] [0.38682855783849451:116.05750570244503] [2.0202394842208982:120.80178453517492] [0.40350464342160541:116.11989245939657] [2.5724907287904575:116.7238548505981] [0.14442702992802225:115.9538730396723] [0.19213906378381468:115.9505117229149] [0.85181934651694857:114.39767938157291] [0.23368477303054677:115.90959921909622] [0.43820459563063879:115.70994154224739] [3.7170560367144265:118.47209370610017] [0.52302931216347992:116.03191170504381] [0.23420533730944851:115.98001011594755] [4.1525756462015977:116.58264723270959] [10.689549618698576:105.76884523727291] [1.1740751385479933:115.98435049093895] [2.404018669590088:116.53951542183714] [0.34592282127676927:115.92505733294898] [3.3473513068381768:116.94473423686124] [0.37870316181922214:115.96597916306683] [3.9931696325360169:118.14303880767686] [0.60408474627777842:115.95075852912788] [0.56554045100804351:116.02985127071142] [0.15351423469451669:115.95023107176044] [3.2744548257700798:117.37630506884481] [0.38566370309454401:116.0284639756452] [0.2794775348023032:115.97002092373641] [0:26]
tree_sizes=1671 1657 1658 1671 1674 1648 1674 1655 1667 1650 1664 1659 1664 1662

Tree=0
num_leaves=15
num_cat=0
split_feature=23 0 24 23 13 49 19 46 61 49 41 74 56 56
split_gain=219.359 41.0202 40.0243 28.6634 27.7826 20.9915 18.4637 15.7241 14.9383 16.1442 16.0538 13.9939 12.051 11.7518
threshold=213.65000000000001 106.57500000000002 5114.1100000000006 3663.0750000000003 14.250000000000002 1.4150000000000003 3.1950000000000007 10.805000000000001 35.248339093554996 4.8500000000000005 58.680000000000007 5.5894680273478929 35.250000000000007 27.600000000000005
decision_type=2 2 2 2 2 2 2 2 2 2 2 2 2 2
left_child=2 3 5 11 6 -1 -5 -3 9 10 -8 -2 -10 -6
right_child=1 7 -4 4 13 -7 8 -9 12 -11 -12 -13 -14 -15
leaf_value=-1.1035811875857189 -0.73896679285745503 -0.74358442288889104 -0.82795884930740327 -0.71840377657539567 -0.95410933009675625 -0.8041772676675939 -0.45573638437357333 -0.87782810535209466 -0.46236323933167961 -0.88834965359273765 -0.75326655037416013 -0.86446928567577264 -0.86730655711145166 -0.60689823815553812
leaf_weight=123.13354340195656 96.099077612161636 47.310315132141113 30.836187541484833 58.2930668592453 16.89654111862183 10.137924671173094 16.262920826673511 133.06026130914688 40.762905448675156 9.5043043792247754 13.094819366931914 56.392205983400345 3.1681014597415915 5.068962335586547
leaf_count=583 455 224 146 276 80 48 77 630 193 45 62 267 15 24
internal_value=-0.832863 -0.766536 -1.0333 -0.723047 -0.664753 -1.08081 -0.632178 -0.842617 -0.571469 -0.661793 -0.588448 -0.785378 -0.491566 -0.873984
internal_weight=0 495.913 164.108 315.543 163.052 133.271 141.086 180.371 82.7931 38.862 29.3577 152.491 43.931 21.9655
internal_count=3125 2348 777 1494 772 631 668 854 392 184 139 722 208 104
shrinkage=1


Tree=1
num_leaves=15
num_cat=0
split_feature=19 24 18 56 62 64 46 76 73 71 68 41 52 11
split_gain=150.879 37.0817 22.8768 26.0988 20.4224 15.9428 15.8233 17.0198 13.2182 12.604 12.5316 11.4674 11.3419 11.155
threshold=0.31500000000000006 5114.1100000000006 13.860000000000001 34.220000000000006 10.212139856220267 0.90555052542147785 78.975000000000009 1.6377915659024598 26.839662992075215 0.35978647712880363 0.87518511180828151 7.4250000000000016 99.88000000000001 1.405
decision_type=2 2 2 2 2 2 2 2 2 2 2 2 2 2
left_child=1 -1 4 6 5 8 7 -4 10 -7 -2 -6 -3 -8
right_child=2 12 3 -5 11 9 13 -9 -10 -11 -12 -13 -14 -15
leaf_value=-0.24531022331851632 0.27669413250696168 -0.055113635036542555 0.25889821555146036 -0.089376171918469582 0.11546943633306815 -0.29230916190282513 0.28528034253599827 0.10851894766753512 0.32523379542134839 0.1083960997076646 -0.064524504985364578 -0.071716688422714808 0.25267854294754377 -0.16203156480425046
leaf_weight=105.16397434473038 4.6189654618501654 24.97046580910683 40.000477030873299 25.279267698526382 14.885007888078688 3.2234686017036429 2.7717336267232886 121.69368042051792 4.1760031431913367 121.15533970296383 63.394817158579826 108.62879784405231 5.9251952767372122 11.410034105181692
leaf_count=557 22 118 179 120 71 15 13 559 19 557 295 517 28 55
internal_value=0 -0.188718 0.0477885 0.100642 0.0145728 0.0546182 0.127954 0.14572 -0.0201455 0.0980112 -0.0413516 -0.0491583 0.003915 -0.0746074
internal_weight=0 136.06 521.238 201.155 320.082 196.569 175.876 161.694 72.1898 124.379 68.0138 123.514 30.8957 14.1818
internal_count=3125 703 2422 926 1496 908 806 738 336 572 317 588 146 68
shrinkage=0.2


Tree=2
num_leaves=15
num_cat=0
split_feature=49 25 18 0 18 54 5 80 33 47 81 51 8 51
split_gain=110.425 22.1628 25.3371 21.7867 14.0873 12.5182 11.9604 15.2508 10.1712 11.4533 9.03845 8.68014 14.1955 13.7033
threshold=0.78500000000000014 4.535000000000001 4.455000000000001 63.960000000000008 47.070000000000007 27.805000000000003 883.31500000000017 3.7751198026207717 6708048.1900000004 0.65500000000000014 1.6915862854681232 1.1450000000000002 17.935000000000006 1.6850000000000003
decision_type=2 2 2 2 2 2 2 2 2 2 2 2 2 2
left_child=1 2 -1 6 5 -5 7 -2 9 -3 -9 12 -12 -13
right_child=3 8 -4 4 -6 -7 -8 10 -10 -11 11 13 -14 -15
leaf_value=-0.225910054819291 0.24857957506072911 -0.27207392504694444 -0.025164837434999639 0.028716858738663548 0.30482817405741686 -0.071332080587623539 -0.28710736713394525 -0.24351692501461175 -0.08762103485390324 0.26887720524712561 0.10911716856064407 0.28480361640918611 -0.0901069248451149 0.086090543586698209
leaf_weight=103.27459719777107 27.1371209025383 1.8961432874202753 33.245135396718979 256.41184221208096 6.5806596726179114 62.148631438612938 3.0638028532266608 3.2830650210380545 12.982813179492949 8.9802215844392759 40.294655412435532 19.207882568240166 22.181632414460182 50.057447627186775
leaf_count=604 116 10 158 1188 30 295 15 15 62 43 180 86 99 224
internal_value=0 -0.145944 -0.177025 0.0452331 0.0151815 0.0091981 0.10437 0.111767 0.0319004 0.17457 0.0842704 0.092439 0.0383845 0.141195
internal_weight=0 160.379 136.52 490.367 325.141 318.56 165.226 162.162 23.8592 10.8764 135.025 131.742 62.4763 69.2653
internal_count=3125 877 762 2248 1513 1483 735 720 115 53 604 589 279 310
shrinkage=0.2


Tree=3
num_leaves=15
num_cat=0
split_feature=23 28 0 30 32 30 18 18 86 11 58 29 54 0
split_gain=80.6933 23.1726 12.9881 11.9567 11.2066 16.039 9.91144 9.24523 12.7777 8.49874 11.03 8.96423 13.4048 12.8625
threshold=213.65000000000001 7.1100000000000003 106.57500000000002 0.14500000000000005 6.0550000000000006 1.7550000000000001 13.860000000000001 6.8600000000000003 5.5000000000000009 0.68500000000000016 1.3950000000000002 0.88500000000000012 16.420000000000005 52.790000000000013
decision_type=2 2 2 2 2 2 2 2 2 2 2 2 2 2
left_child=1 3 6 -1 5 -4 -2 -6 -9 -8 11 12 -11 -13
right_child=2 -3 4 -5 7 -7 9 8 -10 10 -12 13 -14 -15
leaf_value=-0.23241367234803134 0.028367710488544192 0.0084765636327714614 0.013858915497179693 -0.065319647848442672 -0.18552663077804113 0.2920237102230312 -0.056974379793612612 0.090393993840986855 -0.069998774125561866 -0.03026870778462537 -0.11687283360826109 0.26571017398431035 0.26015855042999453 0.1006398338869155
leaf_weight=73.810362592339516 205.53923971951008 29.703200981020927 55.049541592597961 22.306588023900986 16.76130248606205 9.7617990225553495 12.686316624283789 27.660604313015938 70.516453891992569 24.752467975020409 7.6631064713001242 31.979461818933487 8.5536211431026441 46.103062137961388
leaf_count=511 928 146 259 120 82 44 55 129 340 106 33 136 37 199
internal_value=0 -0.145921 0.0326746 -0.193635 -0.010747 0.0557557 0.0558159 -0.0482466 -0.0248094 0.0986408 0.115223 0.131191 0.0443184 0.168246
internal_weight=0 125.82 517.027 96.117 179.75 64.8113 337.277 114.938 98.1771 131.738 119.052 111.389 33.3061 78.0825
internal_count=3125 777 2348 631 854 303 1494 551 469 566 511 478 143 335
shrinkage=0.2


Tree=4
num_leaves=15
num_cat=0
split_feature=30 22 21 62 13 84 23 68 3 80 14 18 84 73
split_gain=58.6717 23.3474 12.3512 11.448 10.0405 13.462 10.7683 9.87457 9.32047 9.27835 9.22097 9.61773 8.83013 9.01156
threshold=0.17500000000000002 1.0000000180025095e-35 0.20500000000000004 10.191844458506838 1.6100000000000003 2.857171522515487 3516.1000000000004 0.94526858964391269 282.39000000000004 4.3646429922881742 7.8250000000000002 8.4150000000000009 3.5137438690167753 26.818799341596105
decision_type=2 2 2 2 2 2 2 2 2 2 2 2 2 2
left_child=1 3 4 -1 6 7 -2 8 -6 -7 12 -12 13 -8
right_child=2 -3 -4 -5 5 9 10 -9 -10 -11 11 -13 -14 -15
leaf_value=0.24003385740924915 0.026689739328480885 0.0074868913522308901 -0.1462824793349172 -0.21474638046985475 0.1204658292644184 0.075504950086060174 0.19908761554846535 -0.063557658630709363 -0.23608022921877253 -0.020326281854226066 -0.016014300866836945 0.28308892568053118 0.20738074486476329 -0.031033189611586159
leaf_weight=2.2849373966455451 111.977180108428 30.484272263944149 16.411875948309898 71.364360123872757 22.338747546076778 123.4127844274044 8.929694250226019 113.90144181251526 3.3758897334337226 60.089315354824066 5.4349805861711529 20.595958769321442 14.507828682661055 28.63342410326004
leaf_count=11 518 149 85 553 100 539 40 534 16 285 24 87 61 123
internal_value=0 -0.13971 0.0245102 -0.200637 0.0299721 0.00851592 0.0664457 -0.0382852 0.0736575 0.0441242 0.123445 0.220639 0.0748565 0.0236723
internal_weight=0 104.134 529.609 73.6493 513.197 323.118 190.079 139.616 25.7146 183.502 78.1019 26.0309 52.0709 37.5631
internal_count=3125 713 2412 564 2327 1474 853 650 116 824 335 111 224 163
shrinkage=0.2


Tree=5
num_leaves=15
num_cat=0
split_feature=49 7 18 13 80 74 78 18 51 41 60 67 14 42
split_gain=43.3607 15.7967 13.1542 8.68181 9.07617 8.96841 8.54191 10.0577 10.5978 8.31231 9.9547 10.6196 8.27731 9.81792
threshold=0.78500000000000014 99354631.785000011 7.4650000000000007 9.0450000000000017 4.1286294389590763 5.1736996467394993 3.2273589250656518 8.4750000000000032 1.135 6.8950000000000005 2.8546511165236148 2.0269277784141049 25.935000000000006 5.9700000000000015
decision_type=2 2 2 2 2 2 2 2 2 2 2 2 2 2
left_child=1 2 -1 4 -2 9 7 -4 -9 10 -6 -12 -7 -14
right_child=3 -3 6 -5 5 12 -8 8 -10 -11 11 -13 13 -15
leaf_value=-0.15969391680916134 0.096570646343161176 0.11291683790206258 0.55679260267069419 -0.029392203842311379 -0.14346713383927251 0.036400586902170858 -0.083841353224413925 0.27997771185074538 -0.28837943919124487 -0.032798759018968969 0.59430236476566944 0.026831783196012728 -0.0095390344854206326 0.30720869301176806
leaf_weight=95.952931858599186 81.904734045267105 11.891071148216723 2.1184048056602505 97.372889339923859 2.5766400992870322 175.13642436265945 12.133912488818167 3.1409094780683517 2.2540534734725952 118.17779825627804 2.8925036936998367 2.4250308573246002 6.3867779970169094 10.111111730337141
leaf_count=726 344 58 10 459 12 791 57 15 11 545 13 11 29 44
internal_value=0 -0.106586 -0.129165 0.0241583 0.0372069 0.021903 0.019929 0.187516 0.0425141 -0.0195258 0.179173 0.335511 0.049158 0.184587
internal_weight=0 127.491 115.6 496.984 399.611 317.706 19.6473 7.51337 5.39496 126.072 7.89417 5.31753 191.634 16.4979
internal_count=3125 877 819 2248 1789 1445 93 36 26 581 36 24 864 73
shrinkage=0.2


Tree=6
num_leaves=15
num_cat=0
split_feature=50 24 62 32 35 1 23 9 66 49 51 35 23 81
split_gain=31.6725 19.8147 8.83783 7.30558 6.41256 9.15514 8.41734 8.7241 8.52069 11.5833 8.44899 8.17305 7.4327 7.28806
threshold=0.17500000000000002 5114.1100000000006 10.191844458506838 13.560000000000002 7.870000000000001 8.1150000000000002 1676.7350000000004 60.475000000000001 2.5504749448114272 3.9550000000000005 0.91500000000000015 7.7350000000000012 106055.59500000002 2.314771553070869
decision_type=2 2 2 2 2 2 2 2 2 2 2 2 2 2
left_child=1 2 -1 -3 11 -6 8 -8 9 -7 -9 13 -12 -2
right_child=4 3 -4 -5 5 6 7 10 -10 -11 12 -13 -14 -15
leaf_value=0.1916371120936049 -0.16631572832539776 0.10971940588648006 -0.19789474470565249 -0.090792607674480677 -0.19856045940567091 -0.012527470425403586 -0.056961669802400042 -0.013119890918156896 -0.098823818815061013 0.35140588457064359 0.062859965661421269 0.36848545176752251 0.30355890843128891 0.047452439286969156
leaf_weight=2.4315175861120215 6.6119222640991202 16.225398585200313 55.69606726616621 13.166270077228544 9.0935221463441831 31.320842437446117 43.418710842728615 71.081370502710342 52.854632697999477 3.9380770325660697 121.1179713010788 3.0782051980495444 5.3587089031934729 181.47530686855316
leaf_count=11 31 77 556 69 42 150 204 323 266 18 537 13 22 806
internal_value=0 -0.113931 -0.1816 0.0198982 0.0159498 -0.000600398 0.00486969 0.0242114 -0.0480267 0.0281203 0.0420513 0.0452281 0.0730582 0.0399377
internal_weight=0 87.5193 58.1276 29.3917 529.349 338.184 329.09 240.977 88.1136 35.2589 197.558 191.165 126.477 188.087
internal_count=3125 713 567 146 2412 1562 1520 1086 434 168 882 850 559 837
shrinkage=0.2


Tree=7
num_leaves=15
num_cat=0
split_feature=23 17 64 17 52 8 3 73 29 82 46 15 29 60
split_gain=23.7953 13.0664 10.0298 8.31132 8.26444 7.55675 8.7769 7.3731 8.42806 13.5828 9.22503 10.4729 7.9757 10.2134
threshold=244.75500000000002 10.365 1.0167888672043823 11.650000000000002 99.88000000000001 7.1150000000000011 173.46000000000001 27.808015897435819 5.0850000000000009 0.45354373023683808 6.5250000000000012 53.765000000000008 0.88500000000000012 2.8029754374555433
decision_type=2 2 2 2 2 2 2 2 2 2 2 2 2 2
left_child=1 2 -1 -3 -5 6 -2 8 9 -7 11 -10 13 -11
right_child=5 3 -4 4 -6 7 -8 -9 10 12 -12 -13 -14 -15
leaf_value=0.017190133373710028 0.067087662117562549 0.20107565023690124 -0.17278416590017814 -0.14011838979936619 0.2021069167340549 0.21932528411585711 -0.32657801022246391 0.23261744505601345 -0.23582179287829996 -0.1637322275051179 -0.013157535030275076 0.21673194702606371 0.056665659968933017 0.029700893615632058
leaf_weight=13.745915919542311 114.33411939442158 8.0331225916743296 58.10924232006073 10.935650840401648 3.8046070486307135 14.834640368819235 2.311199039220809 5.4409049749374381 13.833085492253305 18.56466805934906 241.78356765210629 2.4003832191228858 74.319369554519653 26.51083979010582
leaf_count=98 498 39 583 60 17 64 10 25 62 82 1122 10 339 116
internal_value=0 -0.094603 -0.136442 0.0374085 -0.0517866 0.0145253 0.0592876 0.00139607 -0.00181123 0.0388344 -0.0229565 -0.168904 0.0164087 -0.0499659
internal_weight=0 94.6285 71.8552 22.7734 14.7403 514.333 116.645 397.687 392.247 134.23 258.017 16.2335 119.395 45.0755
internal_count=3125 797 681 116 77 2328 508 1820 1795 601 1194 72 537 198
shrinkage=0.2


Tree=8
num_leaves=15
num_cat=0
split_feature=49 11 59 32 77 32 20 79 19 84 80 74 49 32
split_gain=18.6811 12.7763 10.3855 9.98227 5.74333 5.39609 4.89343 4.86554 4.85494 4.91677 9.68166 5.53052 5.51692 7.70408
threshold=0.78500000000000014 0.88500000000000012 2.3072047567940159 5.4150000000000009 14.9068471493964 13.720000000000002 96.795000000000016 13.53862445105638 -1.0000000180025095e-35 5.1723612097544533 4.960967754668915 6.1332005994085463 1.7950000000000002 10.635000000000003
decision_type=2 2 2 2 2 2 2 2 2 2 2 2 2 2
left_child=1 5 3 4 -3 7 -5 -1 -2 10 11 -10 -11 -14
right_child=8 2 -4 6 -6 -7 -8 -9 9 12 -12 -13 13 -15
leaf_value=0.26763610405240063 0.41851650574137794 0.040750750968794845 -0.2023055475646901 -0.14012597590555284 0.47909699692932917 -0.10455326059127204 0.24075136698386645 0.017131218583465418 0.013515259680979478 -0.038889012220102402 -0.1113421648242414 0.31452355359168127 0.34152044384296509 0.064101264682850392
leaf_weight=3.4663256704807273 1.1834561079740513 2.8926543369889286 38.269754491746426 14.274173624813555 2.0379438623785973 14.04742820560932 1.4901391565799702 29.46011084318161 442.10138113796711 8.0652243122458476 25.5855672955513 2.4551293849945059 6.1466315239667919 11.487427592277525
leaf_count=16 8 16 430 106 12 91 12 194 1985 36 129 10 27 53
internal_value=0 -0.0785896 -0.140582 -0.0264403 0.221931 -0.000772832 -0.104123 0.0435031 0.0139143 0.0129486 0.0082923 0.0151776 0.0981315 0.1608
internal_weight=0 105.939 58.9647 20.6949 4.9306 46.9739 15.7643 32.9264 497.025 495.841 470.142 444.557 25.6993 17.6341
internal_count=3125 877 576 146 28 301 118 210 2248 2240 2124 1995 116 80
shrinkage=0.2


Tree=9
num_leaves=15
num_cat=0
split_feature=18 43 19 21 74 54 67 75 85 60 69 0 66 64
split_gain=14.4155 8.99924 12.7888 7.22407 6.79711 6.4508 6.05683 9.31042 9.16928 9.31616 9.65904 9.52771 5.96495 11.4771
threshold=4.455000000000001 4.6750000000000007 1.5550000000000004 0.055000000000000007 5.5579772232838929 -27.895 0.44417965117626895 11.355707591075442 1.8600648096327344 2.7997604146009576 24.376762764918354 85.27500000000002 2.3557856326637419 1.0749858766909519
decision_type=2 2 2 2 2 2 2 2 2 2 2 2 2 2
left_child=1 3 -3 -1 -4 -2 7 8 9 10 11 12 -7 -14
right_child=5 2 4 -5 -6 6 -8 -9 -10 -11 -12 -13 13 -15
leaf_value=-0.020869196308581681 0.54298465979901389 -0.16523790642155969 0.28760224553797825 0.44263729484316655 -0.13505678769413129 0.24927676779730518 0.0047808480521301195 0.43299435109201617 -0.32300085931885286 0.41805123848663173 -0.15675132868070399 0.44318381204476004 -0.15282906449657385 0.3634443511135742
leaf_weight=43.487443789839745 0.91188666224479575 46.387959755957127 4.162664368748664 1.3879521712660778 2.3991450071334839 4.4633717685938015 466.94831626117229 2.9534666985273352 2.2990428358316413 3.1200306266546241 6.5238891690969458 3.1541283428668967 7.2884829491376859 2.2553680092096329
leaf_count=299 4 521 18 9 12 19 2122 13 10 13 29 14 32 10
internal_value=0 -0.0724258 -0.12827 -0.00653339 0.133069 0.0115254 0.0105543 0.0946487 0.0603139 0.0931901 0.0503965 0.129144 0.0584287 -0.0308252
internal_weight=0 97.8252 52.9498 44.8754 6.56181 499.918 499.006 32.0578 29.1043 26.8053 23.6852 17.1614 14.0072 9.54385
internal_count=3125 859 551 308 30 2266 2262 140 127 117 104 75 61 42
shrinkage=0.2


Tree=10
num_leaves=15
num_cat=0
split_feature=19 47 49 10 38 1 19 19 62 46 54 58 62 18
split_gain=11.2798 13.8727 7.78118 4.54673 4.82427 4.10874 8.99875 16.4744 9.86239 7.89461 7.23403 7.68645 7.19732 6.12867
threshold=0.31500000000000006 0.65500000000000014 2.3750000000000004 25.595000000000002 -5.9149999999999991 55.130000000000003 2.8050000000000002 2.5550000000000002 10.209415169731221 74.815000000000012 13.935 0.10500000000000002 6.2346456734019613 13.860000000000001
decision_type=2 2 2 2 2 2 2 2 2 2 2 2 2 2
left_child=1 2 -1 -3 -5 9 7 8 -7 12 -8 -12 -2 -14
right_child=5 3 -4 4 -6 6 10 -9 -10 -11 11 -13 13 -15
leaf_value=-0.18779338013012123 0.27422891362890217 0.19516713149441864 0.14999291922625824 0.21069386641950036 -0.051654813429514716 0.056503394331382045 -0.30138387351505003 0.55019402207780665 -0.21557159959746378 0.29730088850279324 -0.12849075822753891 0.14882897481072124 -0.010030008344582446 0.036969295314964047
leaf_weight=34.110839668661356 4.1362806558609 5.2082828432321575 2.9649649560451499 3.2948169261217179 18.810135431587693 22.819299876689914 6.7895421683788326 2.2851594537496558 6.9530593529343596 3.9009926617145529 17.874852120876316 5.1495663821697226 270.94376470893621 187.97471165657043
leaf_count=546 17 25 15 16 101 103 32 10 37 18 86 24 1280 815
internal_value=0 -0.081101 -0.16078 0.0270583 -0.0125509 0.00755812 -0.0408725 0.032684 -0.00703721 0.0139752 -0.119964 -0.0664663 0.0115883 0.00922108
internal_weight=0 64.389 37.0758 27.3132 22.105 528.827 61.8715 32.0575 29.7724 466.956 29.814 23.0244 463.055 458.918
internal_count=3125 703 561 142 117 2422 292 150 140 2130 142 110 2112 2095
shrinkage=0.2


Tree=11
num_leaves=15
num_cat=0
split_feature=19 28 49 9 71 18 58 71 80 29 71 35 59 19
split_gain=8.09666 11.1026 6.87482 4.86851 4.77602 5.38547 5.95932 5.29331 8.46055 4.75366 6.1412 4.69022 6.71045 5.69091
threshold=0.31500000000000006 7.1100000000000003 1.4850000000000001 92.565000000000012 0.490134362946198 7.6650000000000009 0.50500000000000012 0.60272744701016701 4.3035810093680178 12.245000000000003 0.55875722902152369 7.870000000000001 2.0948732559616086 12.155000000000001
decision_type=2 2 2 2 2 2 2 2 2 2 2 2 2 2
left_child=1 2 -1 -4 5 -2 -7 8 9 10 -6 12 13 -9
right_child=4 -3 3 -5 7 6 -8 11 -10 -11 -12 -13 -14 -15
leaf_value=-0.18918476897287431 -0.29540643760364133 0.021981443230327885 -0.094506474363834622 0.3208938294586442 0.27675085403099425 -0.17032679751202559 0.16692144189017133 0.22415209676922002 -0.14441340477898007 0.43863982540563617 -0.10983490770539173 -0.0088821710723048196 0.020302070290759134 -0.11409943335232781
leaf_weight=27.629472654312849 4.3531758636236182 27.343433775007725 2.8049249649047843 1.8883110061287878 4.5180417150259 4.7616143077611905 3.7435828894376755 11.427219644188879 3.3027796149253836 2.936603307723999 2.5836425721645355 321.1506252810359 166.41133646667004 2.4090173691511145
leaf_count=532 21 146 15 10 19 21 16 50 16 12 11 1504 742 10
internal_value=0 -0.071819 -0.15117 0.0726287 0.00591016 -0.114486 -0.0218862 0.0089177 0.133253 0.224611 0.136108 0.00560941 0.0314293 0.165259
internal_weight=0 59.6661 32.3227 4.69324 527.598 12.8584 8.5052 514.739 13.3411 10.0383 7.10168 501.398 180.248 13.8362
internal_count=3125 703 557 25 2422 58 37 2364 58 42 30 2306 802 60
shrinkage=0.2


Tree=12
num_leaves=15
num_cat=0
split_feature=49 62 11 65 45 71 29 18 11 29 82 0 82 82
split_gain=6.30981 6.60841 13.12 9.16789 9.62238 6.23158 6.62657 9.69093 8.25961 7.86039 7.39449 6.93451 6.47513 6.56944
threshold=1.2350000000000001 10.217622664103077 0.79500000000000015 0.57523256972994508 2.4150000000000005 0.490134362946198 4.8350000000000009 6.1850000000000014 0.87500000000000011 3.6150000000000007 0.43795327293700304 44.800000000000004 0.89500845220184033 1.2768255677130111
decision_type=2 2 2 2 2 2 2 2 2 2 2 2 2 2
left_child=1 5 -3 4 -4 -1 7 9 -8 -7 -10 -9 -12 -14
right_child=-2 2 3 -5 -6 6 8 11 10 -11 12 -13 13 -15
leaf_value=-0.27930571851830077 0.0095799925359399893 0.0086073175065266971 0.97434189762351786 -0.17345748914558209 0.027499030460190754 -0.2102267809683328 -0.2875909900791988 0.049448417029754076 -0.30970550702181504 0.19480995631359843 0.18342153821454524 0.36694799720164878 -0.20026518970696353 0.17106568043312215
leaf_weight=2.5954724848270407 448.48890442401171 42.262693006545305 0.48811683803796668 41.978782676160336 3.5644991956651211 4.6740119904279736 4.1452794969081905 4.5136743336915952 2.3519911020994213 3.2485697828233242 9.1772530078887957 7.0485894829034805 5.1025449894368631 3.0418528020381927
leaf_count=14 2030 277 4 557 37 23 19 19 11 16 46 30 29 13
internal_value=0 -0.0398525 -0.0718525 -0.145725 0.141541 0.0217043 0.0397458 0.126247 -0.0310161 -0.0441458 0.0230448 0.243003 0.0682268 -0.0615767
internal_weight=0 134.193 88.2941 46.0314 4.05262 45.8992 43.3038 19.4848 23.8189 7.92258 19.6736 11.5623 17.3217 8.1444
internal_count=3125 1095 875 598 41 220 206 88 118 39 99 49 88 42
shrinkage=0.2


Tree=13
num_leaves=15
num_cat=0
split_feature=19 41 51 13 21 45 23 68 76 11 58 41 14 65
split_gain=5.58082 13.2734 6.36941 6.19485 9.3182 6.30967 8.63232 6.50338 6.17591 5.34184 10.0882 6.94464 6.67503 6.26296
threshold=1.175 15.165000000000001 1.2050000000000003 8.3750000000000018 0.065000000000000016 4.0150000000000006 3478.7900000000004 0.94526858964391269 1.5817458243270412 1.5850000000000002 1.1150000000000004 6.8950000000000005 18.665000000000003 1.0377279487583793
decision_type=2 2 2 2 2 2 2 2 2 2 2 2 2 2
left_child=1 2 3 4 5 6 -1 -7 -4 11 13 -2 -12 -11
right_child=9 -3 8 -5 -6 7 -8 -9 -10 10 12 -13 -14 -15
leaf_value=-0.016227153975274522 0.15028216640823489 -0.13696450647504496 0.37904308620531163 -0.14563143158884884 0.10898317707932173 0.58451672565388557 0.2486822012169605 -0.19262574969542445 -0.1469862450143504 0.098667372904994832 0.26209042760714418 -0.019985739867224184 -0.057883187534901494 0.0040686434591739647
leaf_weight=47.958106184378266 10.064772784709929 37.776768574491143 0.9465391337871577 8.7733720522373897 37.304508168250322 0.45014625787734885 5.4828306734561911 9.9823159128427488 15.717081030830739 34.131920829415321 11.736051172018049 199.65029388666153 3.3529114574193946 155.67843110114336
leaf_count=316 44 416 4 57 200 2 23 93 158 154 51 898 15 694
internal_value=0 -0.0329219 -0.00187975 0.0155834 0.0295627 -0.0168219 0.0109515 -0.159093 -0.117106 0.0106251 0.0335918 -0.0118141 0.190989 0.0210795
internal_weight=0 164.392 126.615 109.951 101.178 63.8734 53.4409 10.4325 16.6636 414.614 204.899 209.715 15.089 189.81
internal_count=3125 1269 853 691 634 434 339 95 162 1856 914 942 66 848
shrinkage=0.2


end of trees

feature_importances:
Column_18=12
Column_19=10
Column_49=10
Column_23=8
Column_0=6
Column_11=6
Column_29=6
Column_62=6
Column_32=5
Column_41=5
Column_51=5
Column_71=5
Column_80=5
Column_13=4
Column_46=4
Column_54=4
Column_58=4
Column_74=4
Column_82=4
Column_14=3
Column_21=3
Column_24=3
Column_30=3
Column_35=3
Column_56=3
Column_60=3
Column_64=3
Column_68=3
Column_73=3
Column_84=3
Column_1=2
Column_3=2
Column_8=2
Column_9=2
Column_17=2
Column_28=2
Column_45=2
Column_47=2
Column_52=2
Column_59=2
Column_65=2
Column_66=2
Column_67=2
Column_76=2
Column_81=2
Column_5=1
Column_7=1
Column_10=1
Column_15=1
Column_20=1
Column_22=1
Column_25=1
Column_33=1
Column_38=1
Column_42=1
Column_43=1
Column_50=1
Column_61=1
Column_69=1
Column_75=1
Column_77=1
Column_78=1
Column_79=1
Column_85=1
Column_86=1

parameters:
[boosting: gbdt]
[objective: binary]
[metric: binary_logloss]
[tree_learner: serial]
[device_type: cpu]
[data: ]
[valid: ]
[num_iterations: 10000]
[learning_rate: 0.2]
[num_leaves: 15]
[num_threads: 0]
[force_col_wise: 0]
[force_row_wise: 0]
[histogram_pool_size: -1]
[max_depth: -1]
[min_data_in_leaf: 10]
[min_sum_hessian_in_leaf: 0.001]
[bagging_fraction: 0.8]
[pos_bagging_fraction: 1]
[neg_bagging_fraction: 1]
[bagging_freq: 0]
[bagging_seed: 10961]
[feature_fraction: 0.8]
[feature_fraction_bynode: 1]
[feature_fraction_seed: 53]
[extra_trees: 0]
[extra_seed: 11644]
[early_stopping_round: 50]
[first_metric_only: 0]
[max_delta_step: 0]
[lambda_l1: 0]
[lambda_l2: 0]
[min_gain_to_split: 0]
[drop_rate: 0.1]
[max_drop: 50]
[skip_drop: 0.5]
[xgboost_dart_mode: 0]
[uniform_drop: 0]
[drop_seed: 30626]
[top_rate: 0.2]
[other_rate: 0.1]
[min_data_per_group: 100]
[max_cat_threshold: 32]
[cat_l2: 10]
[cat_smooth: 10]
[max_cat_to_onehot: 4]
[top_k: 20]
[monotone_constraints: ]
[monotone_constraints_method: basic]
[monotone_penalty: 0]
[feature_contri: ]
[forcedsplits_filename: ]
[refit_decay_rate: 0.9]
[cegb_tradeoff: 1]
[cegb_penalty_split: 0]
[cegb_penalty_feature_lazy: ]
[cegb_penalty_feature_coupled: ]
[path_smooth: 0]
[interaction_constraints: ]
[verbosity: -1]
[saved_feature_importance_type: 0]
[max_bin: 255]
[max_bin_by_feature: ]
[min_data_in_bin: 3]
[bin_construct_sample_cnt: 200000]
[data_random_seed: 4071]
[is_enable_sparse: 1]
[enable_bundle: 1]
[use_missing: 1]
[zero_as_missing: 0]
[feature_pre_filter: 1]
[pre_partition: 0]
[two_round: 0]
[header: 0]
[label_column: ]
[weight_column: ]
[group_column: ]
[ignore_column: ]
[categorical_feature: ]
[forcedbins_filename: ]
[objective_seed: 602]
[num_class: 1]
[is_unbalance: 0]
[scale_pos_weight: 1]
[sigmoid: 1]
[boost_from_average: 1]
[reg_sqrt: 0]
[alpha: 0.9]
[fair_c: 1]
[poisson_max_delta_step: 0.7]
[tweedie_variance_power: 1.5]
[lambdarank_truncation_level: 20]
[lambdarank_norm: 1]
[label_gain: ]
[eval_at: ]
[multi_error_top_k: 1]
[auc_mu_weights: ]
[num_machines: 1]
[local_listen_port: 12400]
[time_out: 120]
[machine_list_filename: ]
[machines: ]
[gpu_platform_id: -1]
[gpu_device_id: -1]
[gpu_use_dp: 0]

end of parameters

pandas_categorical:null
