tree
version=v3
num_class=1
num_tree_per_iteration=1
label_index=0
max_feature_idx=58
objective=binary sigmoid:1
feature_names=Column_0 Column_1 Column_2 Column_3 Column_4 Column_5 Column_6 Column_7 Column_8 Column_9 Column_10 Column_11 Column_12 Column_13 Column_14 Column_15 Column_16 Column_17 Column_18 Column_19 Column_20 Column_21 Column_22 Column_23 Column_24 Column_25 Column_26 Column_27 Column_28 Column_29 Column_30 Column_31 Column_32 Column_33 Column_34 Column_35 Column_36 Column_37 Column_38 Column_39 Column_40 Column_41 Column_42 Column_43 Column_44 Column_45 Column_46 Column_47 Column_48 Column_49 Column_50 Column_51 Column_52 Column_53 Column_54 Column_55 Column_56 Column_57 Column_58
feature_infos=[-18.510000000000002:726.59000000000003] [-1164.79:8776] [-506.98000000000002:1180.3199999999999] [-764:2052498] [-506.98000000000002:1180.3199999999999] [-764:2052498] [0:12109447000] [0:1215279900.4100001] [-774:41406] [-376.13:408.38] [0:83.189999999999998] [0:538.51999999999998] [-1164.79:8776] [0:15975] [-308.38:476.13] [-393.42000000000002:5623.0500000000002] [0:50] [0:25.399999999999999] [-108918.83:2421.3299999999999] [-2.71:16985.009999999998] [-5523.0500000000002:493.42000000000002] [-18.969999999999999:103.33] [-0.27000000000000002:0.34000000000000002] [-3497.2600000000002:653357.80000000005] [0:1298053.53] [0:7.7400000000000002] [0:1153069527.03] [0:73553443.75] [0:12.92] [0:45380.449999999997] [-0.64000000000000001:16986.16] [0:7.9400000000000004] [-178500:40300] [-11841777.779999999:137802405.41] [-666620.80000000005:5297878.1299999999] [-774:18875] [-1.1599999999999999:2.3500000000000001] [0:5085.3000000000002] [-31.84:20.870000000000001] [-5083.5900000000001:2.3100000000000001] [0:1395.48] [-26340:697500] [-185.11000000000001:52830] [-28120:697500] [-187.91:24747.200000000001] [-178500:61500] [-636:23281.700000000001] [0:9.9499999999999993] [0:11.630000000000001] [-174.78999999999999:121.95999999999999] [-0.64000000000000001:17221.77] [0:538.51999999999998] [-5523.0500000000002:493.42000000000002] [-5083.5900000000001:146.65000000000001] [-5277.2799999999997:328.42000000000002] [-51.920000000000002:101.97] [-1318.8:4437.6400000000003] [-2.8199999999999998:362103.70000000001] [-392.67000000000002:38.490000000000002]
tree_sizes=7362 8050 8250 8411 8696 8805

Tree=0
num_leaves=71
num_cat=0
split_feature=23 0 24 23 13 49 19 35 49 43 33 13 43 30 41 0 14 43 14 20 46 29 11 11 19 49 42 49 29 58 46 23 19 49 0 18 29 29 14 0 46 13 11 58 11 49 18 3 3 42 5 3 3 19 18 49 15 20 14 9 7 46 43 43 29 0 11 0 11 0
split_gain=219.359 41.0202 40.0243 28.6634 27.7826 20.9915 18.4637 16.5944 12.0574 11.8639 10.4764 10.3147 10.1968 19.793 9.79341 9.58959 11.9262 9.81073 9.5105 13.7376 9.40701 10.357 16.6015 8.7137 8.39075 9.66153 9.55157 8.22273 12.4933 8.62026 8.21443 10.3346 13.8795 7.9086 7.90285 7.62539 7.06782 8.46944 6.86393 6.75427 6.72264 12.0289 6.62402 6.36066 6.10991 5.5994 5.53619 5.29561 5.14712 5.06754 8.46884 6.62885 4.66219 4.20809 4.13236 4.04957 3.78416 3.71349 3.42371 5.66462 3.26964 3.07553 4.02097 2.01105 1.57413 0.352781 0.178009 0.385335 0.147728 5.68434e-14
threshold=213.65000000000001 106.57500000000002 5114.1100000000006 3663.0750000000003 14.250000000000002 1.4150000000000003 3.1950000000000007 7.870000000000001 1.2350000000000001 61.660000000000004 6708048.1900000004 26.500000000000004 9.5250000000000004 1.7550000000000001 17.500000000000004 63.960000000000008 10.185 21.040000000000003 19.695000000000004 84.375000000000014 16.995000000000001 14.025 1.9450000000000001 1.1250000000000002 1.3450000000000004 6.5200000000000005 51.355000000000004 4.8500000000000005 0.88500000000000012 0.36500000000000005 12.155000000000003 2898.9900000000002 3.1250000000000004 6.7350000000000012 24.550000000000001 16.945000000000004 1.175 5.1550000000000011 14.830000000000002 68.325000000000003 3.9750000000000005 1.4750000000000003 1.3050000000000004 0.84500000000000008 2.2150000000000003 1.7550000000000001 5.1650000000000009 37.315000000000005 80.530000000000015 6.7750000000000012 21.010000000000002 10.855000000000002 90.77500000000002 1.9450000000000001 10.025 4.0750000000000011 24.530000000000005 79.705000000000027 13.445000000000002 74.075000000000003 99354631.785000011 73.305000000000021 18.215000000000003 23.745000000000001 4.5750000000000011 130.09500000000003 0.74500000000000011 17.625000000000004 13.295000000000002 194.22000000000003
decision_type=2 2 2 2 2 2 2 2 2 2 2 2 2 2 2 2 2 2 2 2 2 2 2 2 2 2 2 2 2 2 2 2 2 2 2 2 2 2 2 2 2 2 2 2 2 2 2 2 2 2 2 2 2 2 2 2 2 2 2 2 2 2 2 2 2 2 2 2 2 2
left_child=2 3 5 8 6 46 14 47 36 27 -4 64 13 23 35 16 -16 -17 19 -11 30 22 39 56 48 26 53 28 -8 33 31 32 40 -29 -34 42 -2 43 -24 -22 -10 -42 -5 -38 -28 -30 66 49 -14 51 -51 -3 -39 -26 -52 63 -9 -25 -27 61 -12 62 -60 -47 -6 -50 67 -1 69 -68
right_child=1 7 10 4 11 -7 9 12 20 18 60 -13 24 -15 15 17 -18 -19 -20 -21 21 -23 38 57 25 58 44 29 45 -31 -32 -33 34 -35 -36 -37 37 52 -40 -41 41 -43 -44 -45 -46 55 -48 -49 65 50 54 -53 -54 -55 -56 -57 -58 -59 59 -61 -62 -63 -64 -65 -66 -67 68 -69 -70 -71
leaf_value=-1.119823714886883 -1.0606400060332664 -0.82390517061879942 -0.68017330626001593 -0.65849429202792198 -0.91895779392915355 -0.8041772676675939 -0.70553775291156595 -0.63108082886991923 -0.93569662067563097 -0.98454666607861618 -0.98454666607861618 -0.70409424781757535 -0.89960526333854174 -0.49754929036885576 -0.81760903137905294 -1.0317363342675465 -0.4792471014124432 -0.74104797822373603 -0.5336231700510603 -0.5832247546140914 -0.99893784148375098 -1.0097144891127123 -0.44780224661355761 -1.0641214006717143 -1.0310481516064578 -1.0521851904827497 -0.59804081234071116 -0.65849429202792209 -0.55166010989216252 -0.76209107470502191 -0.51281131638824995 -0.93043584655530953 -0.69896178526116415 -0.37762801466855433 -0.42540153100444678 -0.78560982959587089 -0.83775667694624167 -1.0211842001308551 -0.7351296073383744 -0.77696636704524136 -0.55568963900560031 -0.85678500887080866 -0.39569363008969016 -0.59065172984278058 -0.84490584150234083 -0.35701146744026757 -0.94067302862728652 -0.61955387401102846 -1.0566944254430253 -1.0116020758402695 -0.63108082886991912 -0.54592108357908453 -0.83395523438639474 -0.8041772676675939 -0.84926961727034944 -0.47834867698961792 -0.84131214381103958 -0.87844701995448538 -0.8195746553368275 -0.77338249232912659 -0.81346098670345524 -1.0672159736836682 -1.0174518941671136 -0.20444901795094439 -1.0566944254430253 -1.119823714886883 -1.119823714886883 -1.0566944254430253 -1.0882590701649542 -1.119823714886883
leaf_weight=9.9267179071903247 6.7586164474487296 6.7586164474487287 11.82757878303528 8.237063795328142 6.9698232114315051 10.137924671173094 6.7586164474487296 6.5474096834659594 7.6034435033798244 7.3922367393970507 11.82757878303528 8.6594773232936841 9.0818908512592333 7.3922367393970481 9.9267179071903247 9.0818908512592333 7.1810299754142752 9.5043043792247754 8.870684087276457 6.3362029194831848 9.9267179071903247 9.0818908512592298 6.5474096834659559 7.1810299754142788 6.7586164474487322 8.870684087276457 10.34913143515587 8.2370637953281456 7.3922367393970516 9.5043043792247754 8.2370637953281385 8.4482705593109113 7.6034435033798244 7.8146502673625937 9.5043043792247754 7.1810299754142752 9.9267179071903247 10.137924671173097 6.7586164474487305 12.249992311000822 9.9267179071903247 11.405165255069731 7.1810299754142752 7.1810299754142752 6.5474096834659568 7.6034435033798236 7.8146502673625937 11.193958491086958 6.3362029194831839 7.3922367393970516 6.5474096834659559 6.9698232114315033 11.193958491086958 6.3362029194831848 7.392236739397049 6.5474096834659568 7.1810299754142761 10.771544963121412 8.6594773232936912 8.6594773232936841 7.1810299754142752 7.6034435033798209 7.8146502673625937 6.3362029194831848 6.3362029194831848 8.0258570313453657 79.20253649353981 6.3362029194831839 6.3362029194831839 13.517232894897459
leaf_count=47 32 32 56 39 33 48 32 31 36 35 56 41 43 35 47 43 34 45 42 30 47 43 31 34 32 42 49 39 35 45 39 40 36 37 45 34 47 48 32 58 47 54 34 34 31 36 37 53 30 35 31 33 53 30 35 31 34 51 41 41 34 36 37 30 30 38 375 30 30 64
internal_value=-0.832863 -0.766536 -1.0333 -0.723047 -0.664753 -1.08081 -0.632178 -0.842617 -0.785378 -0.571469 -0.827959 -0.873984 -0.878242 -0.792234 -0.718404 -0.783632 -0.675581 -0.883089 -0.695028 -0.799321 -0.748877 -0.819137 -0.770358 -0.860994 -0.913601 -0.879597 -0.793063 -0.525079 -0.461585 -0.611137 -0.698962 -0.727101 -0.689792 -0.521757 -0.546984 -0.615379 -0.872027 -0.838864 -0.593746 -0.876325 -0.774225 -0.716671 -0.536094 -0.734034 -0.693701 -0.402445 -1.10358 -0.739318 -1.01745 -0.777556 -0.838555 -0.682775 -0.922935 -0.921272 -0.746787 -0.348605 -0.741048 -0.952717 -0.941972 -0.912108 -0.919914 -0.962 -0.913439 -0.287665 -0.984547 -1.09197 -1.11462 -1.09523 -1.1178 -1.11982
internal_weight=0 495.913 164.108 315.543 163.052 133.271 141.086 180.371 152.491 82.7931 30.8362 21.9655 134.116 39.0733 58.2931 35.6939 17.1077 18.5862 22.5991 13.7284 107.293 44.5646 35.4827 31.681 95.043 71.5991 29.9914 60.1939 34.6379 25.556 62.7284 54.4913 46.0431 16.0517 17.1077 22.5991 45.1982 38.4396 13.306 22.1767 28.9353 21.3319 15.4181 17.1077 16.8965 27.8793 123.134 46.2543 23.444 35.0603 21.3319 13.7284 21.3319 13.0948 13.9396 20.4871 13.7284 17.9526 41.6077 32.737 19.0086 24.0776 16.4741 13.9396 13.306 14.3621 115.319 16.2629 99.056 92.7198
internal_count=3125 2348 777 1494 772 631 668 854 722 392 146 104 635 185 276 169 81 88 107 65 508 211 168 150 450 339 142 285 164 121 297 258 218 76 81 107 214 182 63 105 137 101 73 81 80 132 583 219 111 166 101 65 101 62 66 97 65 85 197 155 90 114 78 66 63 68 546 77 469 439
shrinkage=1


Tree=1
num_leaves=77
num_cat=0
split_feature=23 47 0 18 49 32 23 41 3 23 11 56 49 11 58 0 49 11 20 19 19 3 43 45 14 11 11 49 30 53 13 49 23 3 3 12 9 11 56 0 58 13 41 41 37 44 18 19 13 53 41 52 11 12 3 51 49 11 32 49 42 30 11 11 19 0 52 0 13 14 51 11 11 41 42 1
split_gain=150.817 32.0468 24.6984 19.929 17.5344 11.4464 9.98534 9.8438 9.7421 10.0829 9.79491 8.83727 12.799 8.36027 8.17099 7.71089 8.50278 7.42173 13.64 14.4997 7.30348 6.72019 11.2868 7.53086 6.54361 7.66591 11.8863 10.0959 15.1296 9.12885 7.64868 5.98858 7.80896 6.64491 12.7082 7.03338 6.88622 6.32194 5.93357 5.91447 5.73206 5.66576 6.75283 5.54758 5.26514 4.76919 5.82177 12.7966 7.508 5.75727 4.07543 3.9156 3.58981 3.46572 3.35506 3.11491 3.056 3.03287 3.01011 2.9305 2.76037 2.31934 2.91576 3.20356 1.95146 1.42094 0.173334 0.436491 0.0716233 0.105092 0.00905322 0.000512598 0.000516269 9.74687e-05 0.000141774 1.42109e-14
threshold=213.65000000000001 0.65500000000000014 105.84500000000001 13.860000000000001 0.90500000000000014 13.560000000000002 11112.155000000001 6.8950000000000005 525.87500000000011 25301.900000000005 1.5450000000000002 32.95000000000001 2.8450000000000002 1.155 1.3950000000000002 38.600000000000009 2.7550000000000003 1.8950000000000002 85.00500000000001 2.4850000000000008 0.52500000000000013 51.015000000000008 13.120000000000003 16.010000000000002 38.550000000000004 0.74500000000000011 1.6250000000000002 4.1850000000000014 3.8150000000000004 14.050000000000002 5.4500000000000011 4.4650000000000007 3286.5750000000003 282.39000000000004 101.15000000000002 14.220000000000001 84.735000000000014 1.4750000000000003 22.415000000000003 137.18500000000003 0.38500000000000006 9.8100000000000005 25.225000000000005 12.545000000000002 2.0250000000000004 17.935000000000006 8.2450000000000028 1.3750000000000002 3.1500000000000008 6.8550000000000013 22.320000000000004 85.810000000000016 1.2050000000000003 7.2300000000000013 78.845000000000013 0.69500000000000006 2.6850000000000005 1.5950000000000004 5.2250000000000005 2.1950000000000007 54.565000000000005 1.9650000000000001 1.4850000000000001 1.0550000000000004 0.38500000000000006 179.83500000000004 99.995000000000019 37.630000000000003 4.9000000000000012 25.395000000000003 0.14500000000000005 12.705000000000002 0.76500000000000012 6.8950000000000005 0.68500000000000016 0.78500000000000014
decision_type=2 2 2 2 2 2 2 2 2 2 2 2 2 2 2 2 2 2 2 2 2 2 2 2 2 2 2 2 2 2 2 2 2 2 2 2 2 2 2 2 2 2 2 2 2 2 2 2 2 2 2 2 2 2 2 2 2 2 2 2 2 2 2 2 2 2 2 2 2 2 2 2 2 2 2 2
left_child=1 4 3 6 64 51 15 13 9 14 -11 12 43 20 24 16 53 21 19 -19 -4 22 -17 -24 25 -5 50 28 -28 -29 -26 32 38 34 35 36 37 -33 57 -36 -6 42 -8 55 -7 58 47 48 -47 -48 52 -3 -27 -2 -44 -9 -30 -14 -23 -20 -45 65 63 -63 66 -13 68 -68 70 -70 -1 72 -72 74 -74 -75
right_child=2 5 7 8 40 44 41 11 -10 10 -12 61 31 -15 -16 17 -18 18 59 -21 -22 45 23 -25 30 26 27 29 56 -31 -32 33 -34 -35 39 -37 -38 -39 -40 -41 -42 -43 54 60 -46 46 49 -49 -50 -51 -52 -53 -54 -55 -56 -57 -58 -59 -60 -61 -62 62 -64 -65 -66 -67 67 -69 69 -71 71 -73 73 75 -76 -77
leaf_value=-0.27403631742319384 -0.053934035501281154 0.043536121742579176 0.075846427895880933 -0.014857816186836875 -0.14988055376911516 0.011620130914719933 0.024071817758089142 0.086757498514978382 -0.076584331335768613 0.11929508940108868 0.40806900819366931 -0.11430532341566997 -0.13526341924014085 -0.048819768925196474 -0.070662512810921577 0.23163787265022717 0.12621528488307809 0.16007914828636763 0.18022321663121876 -0.16880660700910716 0.35889491964600118 -0.031749475690700177 -0.17671397800431088 0.11575532137833811 -0.10285955203204662 0.45390643731756131 -0.025464547127915099 -0.066903130693409738 0.23601935948912978 0.20693562447885427 0.17660959608170146 0.23770157836987083 0.25687118829136968 -0.18916238814493599 0.31996572836064119 -0.19484405840680386 -0.13823782351433719 -0.02812947568650705 0.18802959772036587 0.073796738703656259 0.093509501466848888 -0.0037431628543847214 0.29293971358996862 -0.11619496607507224 -0.22931329147908797 0.10547555509474678 0.045821735977794202 0.28467667951621001 -0.14471415692027009 -0.16774641959496922 0.19495255752949259 0.24954858147804759 0.26353614192977076 -0.21249974591840959 0.14781059637675587 -0.083093099014661942 0.4140234281613675 0.059313639821167302 -0.21434740828400423 0.3660266013365352 -0.27573397481851303 -0.036677715987211944 0.017427254917479981 -0.21257494749237407 -0.14497491094050671 -0.25089328126165455 -0.19639587569580128 -0.26592890288808629 -0.22951397681967958 -0.26547611411277078 -0.26742732357995447 -0.26760539185521942 -0.26526745665557089 -0.26526745665557083 -0.26664918596791098 -0.26526745665557083
leaf_weight=5.8096208423376074 10.980005815625196 8.8763663470745104 8.0637377500534075 7.6707292795181266 7.5680701434612256 6.704911991953848 9.9292918443679792 6.8458552062511471 7.4035123884677878 7.8887036740779903 11.617429867386816 6.0481836497783643 6.520297318696981 8.1325851082801801 7.238116741180419 12.581437796354296 6.5329637378454199 12.657062426209452 6.6094650030136091 9.3032392710447294 6.6565181463956824 6.94810803234577 6.9725751429796201 7.1153964400291443 8.0812276601791364 8.6919227093458193 6.6592820584774044 13.27366314828396 6.9666429460048667 7.6910204142332068 7.6022959053516379 6.7317563891410881 10.191177666187285 6.344338431954383 6.4908388108015087 9.0319989919662458 7.6761363595724097 7.6395232975482941 7.1226692944765082 9.7957930117845518 7.9219563603401184 10.423368558287619 12.41899921000004 11.798002481460573 7.9061279743909836 9.4705667793750816 8.8875660449266451 7.646859645843505 9.7241371124982816 11.690031722187994 8.386335074901579 6.3164813667535773 7.2813198715448371 11.074781224131582 13.084927290678023 11.700376033782957 8.6456020623445493 6.3005890697240829 7.5192073434591293 6.9824789464473724 6.8606670498847953 8.1622117459774071 8.630855128169058 8.4080999791622144 6.2466981858015052 6.1387332677841187 5.6323925703763953 10.063279032707213 5.5710917264223081 7.8030692636966705 5.6537114828824988 5.6616204977035514 6.3072156906127912 5.9362030029296866 5.6144785434007645 34.504179954528809
leaf_count=30 52 41 37 35 37 32 46 32 35 35 51 30 31 38 34 59 30 58 30 43 30 33 33 32 37 39 31 59 31 34 35 31 48 31 30 44 36 36 34 46 38 49 54 57 39 44 42 36 46 56 38 30 32 54 58 56 37 30 35 30 35 40 42 41 32 30 30 54 30 42 30 30 34 32 30 186
internal_value=0 -0.178023 0.0503174 0.0834224 -0.224022 0.00763804 0.0440291 -0.00878346 0.145947 0.159945 0.291283 -0.0264831 -0.000232219 0.113927 0.133853 0.0194503 -0.0741935 0.0410207 0.11821 0.0207503 0.203841 0.0100317 0.093959 -0.0289968 0.150129 0.174617 0.196119 0.133168 0.226934 0.0335563 0.0326079 0.0430886 0.114448 0.00305198 0.0287977 -0.0461949 0.0147011 0.0963904 0.0416689 0.171904 -0.0254053 0.125873 0.164002 -0.0978602 -0.11875 -0.026136 0.00453104 0.0658894 -0.0212719 -0.0755053 0.307852 0.129187 0.367127 -0.133558 0.21848 -0.0203972 0.334593 -0.0396421 -0.126652 0.275674 -0.174856 -0.111474 -0.0768342 -0.125931 -0.253378 -0.183107 -0.260248 -0.240977 -0.263899 -0.250496 -0.266478 -0.265789 -0.265612 -0.265416 -0.265918 -0.265267
internal_weight=0 150.097 504.941 323.65 120.294 29.8039 198.552 181.291 125.098 117.694 19.5061 158.438 121.05 22.8528 98.1882 152.696 28.5878 124.108 35.5522 21.9603 14.7203 88.5559 26.6694 14.088 90.95 75.2665 67.5958 43.2362 22.2715 20.9647 15.6835 83.8451 30.1347 53.7104 47.366 31.0794 22.0474 14.3713 19.9436 16.2866 15.49 45.8566 35.4332 37.2049 14.611 61.8865 47.4192 26.8416 19.1947 20.5776 24.3596 15.1928 15.9732 22.0548 25.5039 18.5462 15.6122 12.8209 14.4673 13.5919 18.6587 37.3881 25.2012 16.5703 104.804 12.1869 98.5569 15.6957 82.8612 13.3742 69.487 63.6774 58.0158 52.3621 11.9217 40.4404
internal_count=3125 777 2348 1483 635 142 920 865 563 528 86 760 577 105 442 713 136 577 161 101 67 416 124 65 408 336 301 192 99 93 72 397 143 254 223 147 103 67 95 76 75 207 158 180 71 292 224 126 90 98 109 71 71 106 112 88 68 61 68 60 92 183 123 81 560 60 528 84 444 72 372 342 312 282 64 218
shrinkage=0.2


Tree=2
num_leaves=79
num_cat=0
split_feature=30 24 21 18 49 58 51 52 51 32 45 17 54 42 41 54 32 11 45 49 13 58 8 13 45 20 43 58 18 30 57 57 58 57 42 53 14 30 20 11 18 45 30 18 17 11 3 18 9 11 1 9 45 56 56 46 30 57 58 3 13 18 11 58 43 43 20 30 11 13 3 11 52 9 32 41 51 1
split_gain=108.08 29.6971 14.2438 9.72405 20.293 11.713 13.117 8.28667 8.28476 8.17053 8.58355 7.18503 7.1546 6.65176 7.26497 6.39549 7.67559 6.76673 8.21962 6.27553 5.58185 5.57861 5.10497 9.08073 8.67721 7.5325 11.2025 6.93811 6.83954 12.4328 6.87045 5.33817 7.27643 6.17259 5.03218 5.1296 6.47409 7.06876 7.75923 5.47766 4.7975 4.74243 4.4484 4.42895 4.38146 4.10976 4.08894 4.00256 3.96371 3.66561 3.55679 6.54876 4.26061 5.57778 5.06577 5.27895 3.47493 3.43117 3.32365 3.14017 3.09152 3.01672 2.46676 2.34008 2.03098 1.33884 0.555555 0.461472 0.160404 0.0714725 0.122716 0.00167668 0.0017582 0.00013722 0.00012445 2.09577e-07 3.21047e-08 7.10543e-15
threshold=0.18500000000000003 5114.1100000000006 0.20500000000000004 13.860000000000001 5.2650000000000006 1.2250000000000003 1.0150000000000003 99.88000000000001 0.65500000000000014 17.185000000000006 18.165000000000003 11.710000000000003 8.5250000000000004 53.105000000000011 39.035000000000004 26.060000000000006 11.205000000000002 1.8550000000000002 6.79 0.32500000000000007 11.750000000000002 0.18500000000000003 9.6250000000000018 0.36500000000000005 11.810000000000002 90.815000000000012 17.360000000000003 0.37500000000000006 6.9400000000000004 1.0950000000000004 51.305000000000007 183.66000000000003 0.35500000000000004 310.75500000000005 14.915000000000001 13.295000000000002 13.445000000000002 1.385 60.620000000000012 2.2950000000000004 9.4250000000000025 -1.4449999999999996 5.3400000000000007 9.7850000000000019 10.365 1.3950000000000002 74.360000000000014 9.0050000000000008 89.795000000000016 1.7050000000000003 1.3450000000000004 38.385000000000012 15.400000000000002 9.7750000000000004 11.850000000000001 6.745000000000001 3.0750000000000006 360.29500000000002 0.60500000000000009 22.235000000000003 1.0250000000000001 10.605000000000002 2.0050000000000003 0.055000000000000007 17.605000000000004 9.1550000000000029 74.63000000000001 1.0000000180025095e-35 11.875000000000002 4.9000000000000012 155.72500000000002 0.74500000000000011 83.560000000000016 99.980000000000004 4.7550000000000008 6.8950000000000005 0.6150000000000001 24.235000000000003
decision_type=2 2 2 2 2 2 2 2 2 2 2 2 2 2 2 2 2 2 2 2 2 2 2 2 2 2 2 2 2 2 2 2 2 2 2 2 2 2 2 2 2 2 2 2 2 2 2 2 2 2 2 2 2 2 2 2 2 2 2 2 2 2 2 2 2 2 2 2 2 2 2 2 2 2 2 2 2 2
left_child=1 19 3 5 20 22 8 11 12 10 15 44 -7 14 -11 16 17 18 -6 67 41 -20 23 27 31 34 -27 -2 60 -30 45 43 61 -34 -26 36 47 -38 -39 49 -40 -5 -12 66 -3 -31 -4 -36 -21 64 59 -52 54 -54 55 -53 -41 -17 -35 -43 -25 65 -55 -47 -37 -33 -24 68 69 71 -71 72 -1 75 -75 -73 -77 -78
right_child=2 7 46 4 9 6 -8 -9 -10 13 42 -13 -14 -15 -16 57 -18 -19 21 48 -22 -23 24 28 25 26 -28 -29 29 30 -32 32 33 58 35 39 37 38 40 56 -42 50 -44 -45 -46 63 -48 -49 -50 -51 51 52 53 62 -56 -57 -58 -59 -60 -61 -62 -63 -64 -65 -66 -67 -68 -69 -70 70 -72 73 -74 74 -76 76 77 -79
leaf_value=-0.2507559601826192 0.067259476015765984 -0.062550696962450927 -0.27908060726373951 0.020970354789034251 -0.068883032506748515 0.041908648624647722 0.30008598738591608 0.21020526339930257 -0.079565169356503304 0.14677359880835841 -0.28134459618103458 -0.16935526343904786 0.3001301047306657 0.2712248780474476 -0.080723821300294096 -0.17343756413890474 0.24426190080577156 -0.12477509342331444 0.29163758023828595 -0.20739117067022086 -0.019219002029175668 0.048805964583952817 -0.17610222224940106 0.070414144407490845 -0.17530423056362732 0.34450757742091587 0.022001934300608303 -0.19022086739111116 0.35355246883629254 0.26424236612223306 -0.084571500038638253 -0.2447224520568986 0.16251432095498375 0.073864427305405225 0.025063617737554712 -0.13158896436179215 -0.059746026635262406 -0.034886676910782143 0.3554542810585235 -0.065619288069625401 0.14507162121619413 0.15448795383589772 -0.062378904403613482 -0.02045965498138641 0.16596809592190537 0.15896262999427108 -0.069215744838358378 -0.17140925973244686 0.021549583160267657 -0.20428691699587606 -0.026902977748571116 0.057458393422932776 0.11981742820779695 0.38740679048727755 0.00077452693997759033 0.26002407407055006 0.11879326806469133 0.010568341220500788 -0.10028301653144359 0.3275733119384705 -0.12133794953616905 -0.0099133841847140313 0.23108052442211538 -0.0091225829960478386 0.0089733446879613123 -0.12079476560611656 -0.25798694426481522 -0.18604310928948042 -0.21063295178683206 -0.20929592473940209 -0.25116800239592046 -0.25002355212206606 -0.25575702325019095 -0.25015203025227389 -0.25157376726596126 -0.25004269616965336 -0.2500602037938906 -0.25006020379389066
leaf_weight=6.6152409464120847 7.5898936688900021 6.8694868385791832 6.0482342988252631 9.4265618026256544 10.038821309804918 12.201375469565397 11.493755921721457 6.195349544286727 12.06456784904003 13.266133263707166 6.4017848819494239 10.918730989098547 6.6210633069276801 7.1604323834180823 9.7353910803794843 9.1286126822233218 7.1484638750553122 9.7394941300153715 7.2222938984632474 5.7981339395046216 7.9604820013046256 7.9494138956069946 5.9139229506254214 6.6328265070915204 6.276635378599166 6.6578512787818935 12.207855090498922 9.3344736993312818 8.3908564448356611 6.7735436111688676 7.7201090455055228 6.2976038157939929 9.5811094641685504 7.0183496326208141 12.111207753419878 6.7131489068269792 7.8172461390495291 6.2256496995687511 6.8916089534759548 6.7110174894332912 11.690218091011046 7.4359999597072628 8.830012768507002 6.4546481966972342 6.5619632303714752 6.4600311964750272 9.6204398572444898 6.3076519668102256 6.3244556039571762 8.7531303316354734 7.4572482258081427 8.8029297739267403 10.977019503712656 7.6082427948713329 9.6042060106992704 12.387821286916731 10.453916683793066 7.2913094013929358 11.677642211318014 9.6126559525728208 6.8226156532764435 6.328487589955329 8.6032425761222822 6.8010365217924118 10.610849276185034 7.8131436556577682 7.53932785987854 5.5450647622346869 4.8869253098964682 4.8357435911893827 6.6494719833135605 9.4426572173833829 4.8908990621566772 4.8082457482814771 5.0485261976718903 4.9625318348407772 21.615593880414966 5.2838118374347678
leaf_count=41 36 32 31 42 46 57 52 28 57 59 32 55 30 32 44 45 32 47 32 30 38 37 30 32 29 30 57 44 37 30 37 32 45 33 56 34 38 30 31 31 55 33 44 30 31 30 50 30 30 41 33 39 47 32 43 53 47 36 56 41 32 30 36 30 51 41 37 27 30 30 41 59 29 30 31 31 135 33
internal_value=0 -0.168229 0.0375493 0.0434249 0.0770684 0.0203368 0.117688 0.0036842 0.049814 0.015194 -0.0206709 -0.0488604 0.132742 0.102889 0.0504854 0.0141397 0.0554323 0.0168103 0.0715085 -0.222529 0.141443 0.164403 0.00413028 0.0517473 -0.0127147 0.0198514 0.135817 -0.0747514 0.0949099 0.140223 0.0757283 -0.0693902 -0.0337317 0.0319836 -0.00190389 0.00963944 0.0525764 0.106095 0.158355 -0.041044 0.223098 0.155357 -0.154408 -0.15665 0.0490926 0.137498 -0.150225 -0.0422197 -0.0879509 -0.0987958 0.170715 0.149517 0.172207 0.229905 0.121266 0.175876 0.046693 -0.0917293 -0.0349092 0.25208 -0.0268142 -0.124647 0.304446 0.0727589 -0.0454954 -0.176103 -0.221991 -0.241816 -0.245729 -0.248042 -0.233538 -0.2507 -0.252882 -0.25021 -0.25088 -0.25005 -0.250057 -0.25006
internal_weight=0 127.253 516.416 500.747 203.789 296.958 42.3808 30.5455 30.887 103.912 73.7502 24.3502 18.8224 30.162 23.0015 58.5184 42.0985 34.95 25.2105 96.7073 99.8764 15.1717 254.578 66.5254 188.052 119.428 18.8657 16.9244 49.601 36.1456 27.7547 68.6242 48.7163 28.2771 100.562 94.2856 51.0436 32.6247 24.8075 43.2421 18.5818 91.9159 15.2318 19.9079 13.4315 20.0346 15.6687 18.4189 12.1226 26.0771 82.4894 65.4407 57.9835 27.1885 30.795 21.1908 17.1649 16.4199 18.696 17.0487 13.4554 20.4392 16.2115 13.2611 17.324 14.1107 13.4533 84.5847 79.0396 74.1527 11.4852 62.6675 11.5061 51.1614 9.85677 41.3046 31.8619 26.8994
internal_count=3125 723 2402 2321 923 1398 196 146 144 486 351 118 87 135 103 275 194 162 115 577 437 69 1202 308 894 560 87 80 228 164 127 334 237 134 473 444 240 154 116 204 86 399 76 97 63 90 81 86 60 126 357 283 250 115 135 92 78 81 89 74 64 103 68 60 85 73 67 517 490 460 71 389 70 319 61 258 199 168
shrinkage=0.2


Tree=3
num_leaves=80
num_cat=0
split_feature=49 51 18 0 35 23 5 0 43 51 11 51 50 9 46 7 50 28 23 43 21 58 23 11 58 51 0 29 9 29 35 51 20 29 20 44 46 41 1 21 23 8 5 5 32 29 15 18 19 20 23 20 58 56 34 51 0 32 42 5 54 54 1 0 21 29 35 29 11 19 15 11 5 32 41 41 20 41 51
split_gain=78.0673 17.749 15.0308 11.8225 7.19016 7.13857 6.83865 6.20533 7.08631 7.35661 7.2416 7.42998 5.85388 5.79212 6.35571 5.61629 9.01037 7.86441 5.40018 7.03476 6.38713 5.20666 6.77726 8.12208 10.5011 5.5546 5.97067 7.27321 10.4058 6.66955 6.08746 5.47639 5.06662 5.32411 4.83141 8.54809 7.85424 6.88719 8.46038 4.7266 5.84666 4.5864 4.55767 6.66852 8.74346 4.46842 5.55492 5.66906 4.46361 4.3549 3.93718 3.92961 6.0177 3.89015 3.82738 3.19136 3.00273 2.86412 2.84488 2.81327 2.27057 1.84642 1.75668 1.68152 1.11496 0.903567 0.167225 0.167205 0.184566 0.0608069 0.000167098 0.000163456 0.000156692 0.000159075 0.000118273 8.17386e-06 1.15697e-07 4.27818e-08 2.07656e-12
threshold=0.78500000000000014 0.43500000000000005 3.1850000000000005 106.57500000000002 7.870000000000001 3663.0750000000003 747.94500000000005 57.770000000000003 55.820000000000007 3.4250000000000003 1.2650000000000003 2.2150000000000003 5.3950000000000005 79.475000000000009 6.6250000000000009 99354631.785000011 0.12500000000000003 7.995000000000001 1986.4100000000001 9.6050000000000022 0.025000000000000005 0.35500000000000004 343.76000000000005 2.2950000000000004 0.055000000000000007 0.47500000000000003 81.825000000000003 5.1550000000000011 87.215000000000018 3.3950000000000005 16.580000000000002 0.83500000000000008 55.125000000000007 5.2750000000000012 86.460000000000022 15.665000000000001 23.005000000000006 20.270000000000007 34.315000000000005 1.0000000180025095e-35 27147.070000000003 8.7650000000000023 57.465000000000011 208.27000000000004 5.5750000000000002 7.3450000000000006 25.945000000000004 14.285000000000002 3.0650000000000004 35.800000000000004 3516.1000000000004 76.445000000000007 0.68500000000000016 20.720000000000002 402637.37500000006 1.3750000000000002 128.965 14.470000000000002 7.3250000000000011 110.69000000000001 11.560000000000002 9.6400000000000023 25.925000000000004 158.70000000000002 0.075000000000000025 6.2350000000000012 1.6600000000000001 97.980000000000004 13.295000000000002 0.25500000000000006 15.005000000000001 0.87500000000000011 30.400000000000002 9.5050000000000008 37.485000000000007 20.890000000000004 99.510000000000005 6.8950000000000005 0.8650000000000001
decision_type=2 2 2 2 2 2 2 2 2 2 2 2 2 2 2 2 2 2 2 2 2 2 2 2 2 2 2 2 2 2 2 2 2 2 2 2 2 2 2 2 2 2 2 2 2 2 2 2 2 2 2 2 2 2 2 2 2 2 2 2 2 2 2 2 2 2 2 2 2 2 2 2 2 2 2 2 2 2 2
left_child=1 15 67 5 13 21 7 8 10 41 39 61 34 50 -15 16 17 66 51 20 -20 22 -2 31 48 -23 27 29 -29 -27 -28 -24 49 -34 35 -9 -37 -38 -39 -7 -41 -10 -4 44 -44 65 47 -47 -25 62 58 56 55 -36 -19 64 -6 60 -5 -22 -33 -12 -21 -58 -53 -35 -1 68 69 70 71 -3 -72 -74 75 76 77 -73 -79
right_child=3 2 42 4 18 6 -8 12 9 -11 11 -13 -14 14 -16 -17 -18 54 19 32 59 25 23 24 -26 26 30 28 -30 -31 -32 57 33 45 53 36 37 38 -40 40 -42 -43 43 -45 -46 46 -48 -49 -50 -51 -52 52 -54 -55 -56 -57 63 -59 -60 -61 -62 -63 -64 -65 -66 -67 -68 -69 -70 -71 72 74 73 -75 -76 -77 -78 78 -80
leaf_value=-0.21067441027232181 -0.18524336709415765 -0.24053018330137263 -0.21726578387207041 0.010654842464640928 -0.25299001133285109 0.23693068361793831 -0.1030299517275271 0.12260445674707326 0.093324019974102404 0.16616373710261684 0.36996424810032336 0.10560154248410197 0.17581703760072323 0.025094218012309429 0.23581983293661188 0.083060064733646952 0.12254102231037722 0.074211525760586247 0.24101423545453071 0.020810391790984192 -0.087374754449090375 -0.078286596998848226 0.066464720314743819 0.12561695229493949 0.24610750727909508 0.038386316051972118 0.30168691302980144 0.10896334036139269 -0.15975728704880379 0.28214098500793455 0.046831666711574814 0.036415767526697118 0.13101343858477973 -0.078749590468758179 0.042687585965394563 -0.25453421215666172 0.14837612231918995 0.044821148792423368 -0.25897876939902753 -0.047409022640971896 0.18007045750896966 -0.11102994363716906 0.1710996109171109 -0.18774729105679064 -0.10933743175579164 0.04790382454630001 0.14334393514207625 -0.20975657447431428 -0.071477303869846784 -0.264806920336562 0.083122320766080934 -0.22040460621663802 0.10197707632565725 0.23057655001490165 -0.12558956335612731 0.018774222454495382 -0.020541028921866801 -0.17997568984379705 -0.17347041914965511 0.097325143385856794 -0.12508984832481237 0.24185310567370141 -0.13437538321291434 -0.17051752916466173 -0.097534875869432144 -0.18879707069649335 -0.25767852419361259 -0.19698651116783311 -0.19949192848371883 -0.26432053907671005 -0.23913969498223617 -0.23896347101775417 -0.24149772129756142 -0.23993776588694993 -0.24003174456827792 -0.23922943749215625 -0.23894023027444711 -0.23898475712477515 -0.23898457695927805
leaf_weight=4.8664878010749844 7.9861270785331717 4.1786128133535376 6.5414123684167889 6.8170034587383288 7.5330020636320141 7.1041296422481564 7.304954767227172 13.196307837963102 7.4439893066883114 13.869389355182646 11.194770500063902 10.096748337149618 12.729374483227728 11.236534193158151 11.672483444213865 12.436301559209822 7.4552100896835318 7.499094679951666 7.9188355356454876 6.0164183825254458 5.9964283704757673 9.183429539203642 10.506648436188696 7.2031044363975587 10.624344140291212 10.369297921657564 9.0019340366125089 11.565787255764009 11.490857794880865 7.9191394150257102 6.4244764596223822 6.9421392381191271 9.8633222430944425 5.8850548267364484 12.277086019515993 7.0897779613733318 7.1757762432098415 8.2468701303005201 6.6020887792110434 11.086924567818643 7.629478156566619 10.718607679009436 9.2777729183435493 7.5355594009160987 8.5409295856952649 8.0832317471504229 8.588074639439581 5.9152135103940955 12.699673563241957 5.9375018179416648 10.581181049346922 6.2020736783742958 8.5715096741914731 6.8767765164375296 7.8488808870315552 5.840373381972312 6.2880706489086133 11.338797494769095 6.6124535799026489 7.3320684731006622 6.9857274442911148 7.5248747169971457 5.6651522070169449 5.7018474191427231 5.6410138607025146 6.0550579577684402 8.0118400901555997 4.1715949177741996 4.5272623449563971 4.2980885505676261 4.5164489299058905 5.8680388480424979 4.2499946951866132 6.7959936708211899 5.693564921617507 6.3048948496580115 4.2287458330392829 4.095488101243971 6.8257920444011688
leaf_count=33 41 30 34 31 39 30 35 58 32 59 46 43 53 52 53 58 35 36 34 31 30 44 49 32 45 48 41 52 55 36 30 32 48 30 55 32 32 37 32 48 33 48 44 36 42 40 41 31 57 33 48 31 41 30 41 30 33 53 32 36 34 32 30 30 30 30 50 29 31 25 33 43 30 49 41 46 31 30 50
internal_value=0 -0.132097 -0.181087 0.0348437 -0.00652421 0.058445 0.0862318 0.0948264 0.131171 0.0564812 0.174959 0.243882 0.0523711 0.0605221 0.132462 -0.0326784 -0.0730174 -0.124669 -0.0309037 -0.00056474 0.0987517 0.025125 -0.0111861 0.00977969 0.0855575 0.0660231 0.0893668 0.0497484 -0.0249603 0.143935 0.19555 -0.0548852 -0.0345954 0.00142186 0.0268054 -0.010922 -0.0714435 -0.0125065 -0.0902532 0.0980386 0.0453198 -0.0272749 -0.0684239 -0.0300226 0.0366794 -0.0355989 0.016714 -0.0609737 -0.00014603 -0.125338 -0.00811718 -0.0860812 -0.0355519 0.110145 -0.0279658 -0.102215 -0.154034 -0.105346 -0.0800055 0.0142295 -0.0445898 0.318466 -0.0544493 -0.0918629 -0.16188 -0.134557 -0.239917 -0.235736 -0.238361 -0.241445 -0.239582 -0.239352 -0.240132 -0.240538 -0.239203 -0.23903 -0.23897 -0.238977 -0.238985
internal_weight=0 145.768 97.6502 484.363 175.954 308.409 168.168 160.863 86.6689 32.032 54.6369 28.8164 74.1941 46.9197 22.909 48.1178 35.6815 28.2263 129.034 83.2564 21.2473 140.241 74.2866 66.3004 30.5271 65.9549 56.7715 41.3451 23.0566 18.2884 15.4264 35.7733 62.009 44.39 61.4647 42.3108 29.1145 22.0247 14.849 25.8205 18.7164 18.1626 31.8957 25.3543 17.8187 34.5266 22.5865 13.9984 19.9028 17.6191 24.0106 45.7779 26.255 19.1539 15.348 17.6835 19.5229 25.2667 13.4295 13.3285 13.9279 18.7196 11.6816 11.9899 11.8431 11.9401 12.8783 65.7545 61.5829 57.0557 52.7576 37.1951 15.5624 11.046 33.0165 27.323 21.0181 16.7893 10.9213
internal_count=3125 877 624 2248 864 1384 735 700 371 139 232 121 329 216 105 253 195 160 648 414 100 649 343 302 134 306 262 191 107 84 71 168 314 220 276 191 133 101 69 111 81 80 156 122 86 172 112 71 89 94 111 234 132 85 77 91 102 119 63 66 66 78 61 63 61 60 83 468 439 408 383 271 112 79 241 200 154 123 80
shrinkage=0.2


Tree=4
num_leaves=83
num_cat=0
split_feature=30 47 23 13 19 58 23 29 29 52 18 51 21 9 43 30 30 21 14 0 14 42 9 18 0 1 30 31 29 13 23 8 13 14 49 3 23 13 19 30 23 45 29 43 45 41 17 0 51 9 45 53 56 5 29 9 19 56 29 15 56 41 8 58 54 29 49 3 52 20 58 51 9 46 11 13 57 45 11 41 53 53
split_gain=56.7658 21.6861 8.90444 10.2593 7.10943 7.04556 6.43999 6.22086 15.1996 6.59269 6.24431 6.0598 6.07987 5.88571 6.17002 5.75989 6.6798 5.62966 5.47321 5.43681 6.21326 8.29508 5.372 5.52004 5.40567 5.23612 4.94906 4.94447 4.81583 7.1004 4.41717 4.26248 4.20222 13.3086 4.17303 4.14544 3.85871 4.53696 3.84713 8.60498 6.06153 3.74041 7.01744 10.7529 3.6449 3.58698 3.42303 3.24464 6.13817 3.48884 3.13993 3.02865 6.54141 3.37016 3.00656 3.56985 2.78021 2.75775 2.68101 2.64315 2.62377 2.46756 2.4194 1.91897 1.52045 2.55546 1.12464 0.686132 0.277038 0.622266 0.231406 0.025729 0.00527497 0.00070177 0.000173855 0.000139786 0.000127388 0.000102994 7.89359e-05 4.13248e-06 3.65909e-06 3.3218e-06
threshold=0.18500000000000003 0.65500000000000014 3478.7900000000004 14.250000000000002 1.3450000000000004 0.38500000000000006 396.59000000000009 1.425 6.8850000000000007 88.135000000000019 20.595000000000002 0.81500000000000006 0.055000000000000007 57.640000000000008 5.3650000000000011 3.5000000000000004 5.6450000000000005 0.085000000000000006 46.000000000000007 77.620000000000019 23.785000000000004 33.955000000000005 64.575000000000003 17.155000000000005 89.640000000000015 1.3450000000000004 1.9850000000000001 2.5800000000000005 9.7700000000000014 4.2750000000000012 35165.140000000007 43.095000000000006 1.6250000000000002 7.3500000000000005 6.4250000000000016 52.64500000000001 1758.8550000000002 0.72500000000000009 3.5550000000000002 2.9250000000000003 6541.1000000000013 12.975000000000003 8.5550000000000015 26.000000000000004 9.8750000000000018 16.555000000000003 11.710000000000003 69.155000000000015 1.2650000000000003 84.465000000000018 18.940000000000001 3.9550000000000005 13.865 58.920000000000009 3.8950000000000005 69.615000000000023 6.5650000000000004 18.705000000000002 6.7250000000000005 20.460000000000004 17.165000000000003 14.515000000000002 19.640000000000004 0.52500000000000013 16.855000000000004 6.5550000000000006 0.76500000000000012 154.53500000000005 84.315000000000012 88.975000000000009 2.2150000000000003 0.31500000000000006 82.725000000000009 8.865000000000002 5.9250000000000007 2.4500000000000006 192.67000000000004 0.48500000000000004 1.2150000000000001 23.575000000000003 2.3250000000000006 7.8650000000000011
decision_type=2 2 2 2 2 2 2 2 2 2 2 2 2 2 2 2 2 2 2 2 2 2 2 2 2 2 2 2 2 2 2 2 2 2 2 2 2 2 2 2 2 2 2 2 2 2 2 2 2 2 2 2 2 2 2 2 2 2 2 2 2 2 2 2 2 2 2 2 2 2 2 2 2 2 2 2 2 2 2 2 2 2
left_child=1 6 4 11 5 36 66 9 10 56 17 25 22 -7 -15 26 -17 47 34 20 21 -14 23 -13 -25 -4 -5 -3 29 51 38 32 33 35 41 -27 37 -2 39 45 -40 44 -43 -44 63 62 -29 -9 49 -49 -42 -16 -53 -54 -34 -56 -6 -57 -18 -21 -52 -30 -24 -10 67 -66 68 -39 71 -70 73 -1 74 -71 75 77 -77 -73 -75 -80 -79 -82
right_child=2 27 3 15 7 13 -8 8 18 -11 -12 12 19 14 28 16 58 -19 -20 59 -22 -23 30 24 -26 31 -28 46 61 -31 -32 -33 54 -35 -36 -37 -38 64 40 -41 50 42 43 -45 -46 -47 -48 48 -50 -51 60 52 53 -55 55 57 -58 -59 -60 -61 -62 -63 -64 -65 65 -67 -68 -69 69 70 -72 72 -74 78 -76 76 -78 80 79 -81 81 -83
leaf_value=-0.24796829876366014 -0.0045683564151851961 0.1527657429133592 0.13866863736343915 -0.097130148820021439 -0.18259968390837533 -0.19810505992415359 -0.041747478937533035 -0.02288045327641652 -0.063355014254353151 0.073147433293537664 0.29908719352182328 0.19182743468450147 -0.13755230426652884 0.16764017539664422 -0.051845153591351723 -0.22001722419920267 0.083176525617209535 0.21874798261622078 -0.2062772763168674 0.005867752708779918 0.22300000555325342 0.1342019682511176 0.27089147864255125 0.076334769628165045 -0.13738135219780101 -0.19089613513533729 0.12091994792078822 0.038737928561671769 -0.030341261450707209 -0.15963429910413821 0.2676652812095382 0.11450664123820189 0.042330875181822561 0.25327926415938906 -0.14564787342686328 0.027641799212919812 0.0075955430497129262 -0.26744429068996017 0.2767768714077482 -0.12832838592143112 0.20891590419095774 -0.11082740192398355 0.23991006619748378 -0.031907838260955813 -0.16246011183816955 0.016091355664724163 -0.1201085884296219 0.11486806099283871 0.26196483594587233 -0.077056074137311761 -0.036027758965585147 0.25420704242142261 0.11301356039879462 -0.083384699508891116 0.020103312950073338 -0.066348310556734319 -0.037171833725537749 -0.22372143548431353 -0.094764683442335157 -0.16876134024688005 0.134921557010066 -0.21055371716452528 0.10529517167396603 0.086117379484377324 -0.22825662822379755 -0.029244504341587804 -0.1067393230098409 -0.17270174701353475 -0.13243189688171714 -0.23440650131266311 -0.17529943661942912 -0.23182679495526695 -0.23975141761055699 -0.23193722597125094 -0.2329278665023094 -0.23299584270869345 -0.23146207512597539 -0.23098451418254817 -0.23071826675122772 -0.23101357544261805 -0.23064473985029532 -0.2308952643024289
leaf_weight=4.8967404887080184 7.1134015619754818 7.13604308664799 12.77467720210552 6.406257793307307 11.940836995840074 5.6023972779512397 9.488603860139845 12.785702392458914 6.719322621822359 10.811232864856718 7.0569753050804129 7.0872754901647594 8.0546350032091194 9.0974332094192487 6.3548493385314968 10.937294676899912 6.4681588858365995 11.48905089497566 5.7649174183607093 7.490590035915373 8.2780451327562314 10.160456508398054 7.3014554083347374 11.144254371523859 8.2303093075752241 6.4505036622285861 11.89361849427223 11.069742865860464 6.062533885240553 6.6902928650379172 10.253248274326323 10.578279361128805 7.2827553153038052 7.7684915065765372 7.1145226657390586 7.5191739797592163 8.5452616512775403 8.2221374884247798 13.264201894402502 6.6311975568532935 7.6786599010229137 7.1706083118915585 12.694914534687998 10.751886487007139 7.2149048596620551 7.037302926182746 10.644361168146132 9.0058749020099658 6.7983854115009299 6.5398265719413748 7.0959289819002134 7.6371959745883968 7.7483649551868421 6.3665312230587006 6.7428374737501171 8.3162345439195651 9.3958133608102781 9.5905785113573057 7.1098810136318207 6.4542452245950699 7.2713774144649506 6.094320610165596 6.8307165056467056 7.03025121986866 5.2042633444070798 5.1200078576803207 3.4396575242280951 4.8677605241537085 3.7684219181537655 3.6543545424938229 3.5414991974830619 5.8904401883483031 3.5687967985868445 4.1419046819210035 3.6351425573229781 3.7302498593926412 5.1655741333961487 3.4833414480090132 4.1547904014587402 3.4857031852006912 5.4148932322859746 3.4761243835091591
leaf_count=36 38 31 54 33 59 26 46 59 30 49 30 32 36 41 30 59 30 51 30 35 34 44 31 48 40 30 57 52 30 35 43 46 33 34 36 33 42 47 56 32 35 34 57 51 35 33 59 44 31 32 30 35 36 31 33 37 46 45 36 32 31 32 30 33 30 30 18 30 30 30 30 50 28 35 30 31 44 30 36 30 47 30
internal_value=0 -0.139005 0.0232309 0.0491636 -0.0036411 -0.0447547 -0.19573 0.0239148 0.0451414 -0.0540887 0.123758 0.0667955 0.0915458 -0.00264598 0.0168903 -0.040318 -0.103697 0.0972173 -0.0203212 0.0261227 0.0793271 0.0140334 0.118048 0.040796 -0.0144518 0.0217239 0.0445869 0.00833558 -0.0123177 0.0255411 0.145912 -0.00152842 -0.0243985 0.0434289 -0.00205731 -0.0732682 -0.111199 -0.144452 0.126131 0.0704808 0.169946 0.0177477 0.0623132 0.115264 -0.0473377 0.132756 -0.0391294 0.0574711 0.10345 0.0341287 0.105671 0.0696184 0.105104 0.024428 -0.0705724 -0.10393 -0.118559 -0.150635 -0.00999899 -0.0749578 0.0504907 -0.120683 0.190851 0.0130712 -0.18695 -0.129563 -0.218055 -0.232212 -0.22423 -0.206667 -0.221407 -0.234405 -0.232472 -0.231985 -0.231629 -0.231455 -0.232105 -0.231138 -0.231234 -0.230853 -0.230811 -0.230743
internal_weight=0 103.786 511.114 260.103 251.012 100.727 74.9362 150.285 118.137 32.1479 53.6758 217.287 140.264 61.6539 56.0515 42.8152 24.5153 46.6188 64.4613 40.438 26.4931 18.2151 99.8259 26.4618 19.3746 77.0235 18.2999 28.8501 46.9541 34.7972 73.3641 64.2489 53.6706 21.7382 58.6964 13.9697 39.0728 30.5276 63.1108 27.8007 35.3102 51.5819 30.6174 23.4468 20.9645 21.1695 21.7141 35.1298 22.3441 15.5457 22.046 28.1069 21.7521 14.1149 31.9324 24.6497 21.3367 17.9068 13.578 13.9448 14.3673 12.1569 14.1322 13.7496 23.4142 10.3243 65.4476 13.0899 62.008 22.7467 18.9783 39.2613 34.3646 15.4368 30.7958 27.1606 8.89582 18.2648 11.7824 7.64049 12.3744 8.89102
internal_count=3125 723 2402 1182 1220 513 581 707 553 154 247 967 622 296 270 215 125 217 306 181 114 80 441 120 88 345 90 142 229 167 321 291 245 97 276 63 217 175 278 126 152 240 142 108 98 94 111 166 107 76 96 132 102 67 148 115 105 82 66 67 61 62 61 63 137 60 535 77 517 191 161 326 290 131 262 232 75 157 101 66 107 77
shrinkage=0.2


Tree=5
num_leaves=84
num_cat=0
split_feature=30 24 23 21 23 44 9 3 8 58 44 19 30 19 13 41 20 52 56 9 53 51 29 29 3 19 56 53 57 11 29 14 58 15 13 23 58 45 32 53 23 17 1 32 23 53 54 45 41 44 57 41 41 3 11 56 46 3 46 15 15 51 46 54 20 11 12 29 54 23 11 23 11 20 58 15 51 13 29 11 11 53 3
split_gain=41.0104 18.811 6.25668 6.19338 4.71141 6.71666 5.44037 5.50278 4.93121 4.85892 7.61446 6.36074 6.10188 6.96015 5.23155 6.57694 5.03107 4.40315 4.30067 5.63693 5.07004 4.64459 4.88147 6.9035 6.27922 4.84198 4.71828 4.36438 4.28425 5.22655 4.17897 4.08289 4.80814 4.04756 4.00306 3.97302 7.94333 5.85216 4.18592 3.88782 3.77907 3.64623 3.63907 3.37109 3.71995 3.24749 3.96687 7.83577 4.6897 3.7981 3.66294 3.42911 3.36887 3.02262 5.54738 2.89524 2.76627 2.71933 2.55948 3.65132 2.4807 2.74884 2.45214 2.41341 2.25203 2.06997 1.72305 0.748656 1.48056 0.545393 0.286977 0.05584 0.00490548 5.20742e-05 5.80029e-05 6.35175e-05 2.28601e-05 1.44545e-05 1.4324e-05 3.58343e-06 1.73291e-06 5.0964e-07 2.10489e-08
threshold=0.17500000000000002 5114.1100000000006 396.59000000000009 0.23500000000000001 1758.8550000000002 19.205000000000002 60.475000000000001 248.65500000000003 1.0000000180025095e-35 1.0350000000000004 16.765000000000004 0.9850000000000001 1.6250000000000002 6.0450000000000008 1.7250000000000003 15.375000000000002 84.375000000000014 99.88000000000001 4.8050000000000006 96.645000000000024 20.860000000000003 0.27500000000000008 5.0850000000000009 12.375000000000002 159.63500000000002 1.2750000000000001 27.600000000000005 7.6250000000000009 78.495000000000019 1.3450000000000004 0.75500000000000012 16.23 0.35500000000000004 12.160000000000002 2.5250000000000004 35165.140000000007 0.47500000000000003 12.850000000000001 36.250000000000007 13.915000000000001 1048.9450000000002 11.650000000000002 20.520000000000007 6.8650000000000011 16371.060000000003 15.375000000000002 13.845000000000001 18.365000000000006 15.840000000000002 20.050000000000004 183.66000000000003 30.015000000000004 15.065000000000003 79.520000000000024 1.7050000000000003 32.95000000000001 71.355000000000004 121.87500000000001 54.670000000000009 30.480000000000004 75.135000000000005 1.425 6.745000000000001 10.025 76.135000000000005 2.2550000000000003 32.490000000000002 39.530000000000008 10.025 873.83000000000015 12.705000000000002 14.975000000000001 0.14000000000000004 73.320000000000007 2.2300000000000009 11.055000000000001 1.9950000000000003 4.4650000000000007 0.28500000000000009 1.0050000000000001 1.3150000000000002 6.0250000000000012 21.670000000000005
decision_type=2 2 2 2 2 2 2 2 2 2 2 2 2 2 2 2 2 2 2 2 2 2 2 2 2 2 2 2 2 2 2 2 2 2 2 2 2 2 2 2 2 2 2 2 2 2 2 2 2 2 2 2 2 2 2 2 2 2 2 2 2 2 2 2 2 2 2 2 2 2 2 2 2 2 2 2 2 2 2 2 2 2 2
left_child=1 2 67 4 5 9 7 8 -6 10 12 -11 14 16 15 33 62 41 53 20 21 -20 24 26 28 -25 45 -21 64 -30 -26 32 39 -2 -31 36 37 -10 60 -7 42 -3 -34 -27 57 46 51 48 49 -48 -50 52 -24 -8 -55 -28 -32 -45 59 -33 61 -39 -14 -54 -23 -22 -5 70 -69 -61 71 72 -1 76 75 78 77 79 -75 -74 -80 82 -81
right_child=3 17 -4 66 6 31 18 -9 35 11 -12 -13 13 -15 -16 -17 -18 -19 19 27 65 22 23 25 30 43 55 -29 29 34 56 58 40 -35 -36 -37 -38 38 -40 -41 -42 -43 -44 44 -46 -47 47 -49 50 -51 -52 -53 63 54 -56 -57 -58 -59 -60 69 -62 -63 -64 -65 -66 -67 -68 68 -70 -71 -72 -73 73 74 -76 -77 -78 -79 80 81 -82 -83 -84
leaf_value=-0.23256154648312025 -0.066453860287590122 0.034145655508823806 -0.027996488370067033 -0.21880382566597475 0.1544807245841151 -0.19093939965668544 0.19946993553478329 -0.18771441568951661 0.11730901795394322 -0.0091760768504381435 0.21100235408546461 0.23902655071296186 0.093084217742230177 -0.13091767602723034 -0.20564192588911068 -0.14648059547330813 0.23187912702050958 0.15012773357953321 -0.15625309032561641 0.01836722723925463 0.081050989701555151 0.12455212463924298 -0.0068288845246169882 -0.078842907331159132 -0.11694546576001581 0.23167514668518599 0.20040006507949901 -0.19768951391999973 0.072178045221052339 0.34890850928181649 0.12610639092927528 -0.041618761793044724 0.0044762800430555184 0.1321520940507773 0.14947350634077186 0.10193029494786146 -0.17604653535439385 -0.057745903355656283 0.091952811144465824 0.011475784810656628 -0.088440059281423095 -0.12640389977732291 0.19217057216650041 0.084801608542375825 0.16433157439178703 -0.16237014987991927 0.10654093174734514 -0.12507400490297349 0.067133287363938351 -0.10857051458331907 0.27384210963674216 0.06165306749232146 -0.077151231179627563 -0.058581697176704375 0.19248123093966896 0.012389027255265707 -0.033090974106927004 -0.071029733687867511 -0.010064332688781432 -0.18629157275391384 0.011614102519422406 -0.23233683486269796 -0.06212089987340555 -0.22706225521851331 -0.032768795990091595 0.22720522024200546 -0.050312907486308435 -0.23629605269481027 -0.055736355083571935 -0.27506415367320552 -0.16494283846204491 -0.25294205299860961 -0.22456323470033202 -0.22497265970571745 -0.22584301608522961 -0.22552226990776647 -0.2250772138855234 -0.22486698004967584 -0.22460140470167103 -0.22433133918604928 -0.22440768497454533 -0.22424272584525939 -0.22435440263642792
leaf_weight=3.5810892283916465 6.9744166731834474 12.865142837166792 8.3458521515130979 5.1838148683309537 7.7431191056966773 8.9894373789429647 11.870451867580416 6.5534693449735633 12.995703242719172 7.6847873032093075 6.5451164171099654 8.9284939318895322 11.554210290312772 6.8073267042636862 8.7145903259515745 11.313983172178267 7.6928374320268622 6.4875163882970801 4.7537953108549109 8.3142780959606153 7.4013162404298773 7.6802677214145643 10.517008930444719 6.2235967814922324 7.343111768364909 7.4978010207414618 6.195706903934477 6.7971851527690879 10.088111683726313 8.6067545413970965 10.822002157568933 6.2619102895259919 9.1773013472557121 9.9751563444733602 7.5636219233274451 9.8879093527793867 12.448172912001608 8.1949597746133858 6.7910460382699958 6.5693655386567107 6.7414371967315665 10.100794687867163 7.5156333595514289 11.953519806265833 13.238640576601027 6.635920748114585 6.6255605220794695 9.6067512482404691 7.0896575897932035 6.5083380043506622 6.6411205381155014 6.8925762027502051 8.7748891860246676 7.2993930876255018 6.7996263355016708 6.9529026001691818 7.3185638636350623 7.1637876480817786 5.7801639065146437 5.3024825155734998 6.7971361130475989 6.4433033913373938 6.287765145301818 8.4150274321436864 6.9181941598653793 8.138282969594 4.5662965923547745 4.0139911025762549 3.3181997314095497 5.792300209403038 3.1440356522798529 3.1984896734356871 3.0188230201602009 3.4512249380350131 3.0370101556181899 4.5098895728588095 2.9541691392660132 2.9492410644888869 3.0227012485265732 2.9009137749671918 4.7491780966520309 2.8923803046345711 3.4836967140436172
leaf_count=32 36 59 41 34 33 52 51 36 59 35 33 39 53 33 49 59 33 28 22 37 35 33 47 32 33 33 29 34 46 37 47 33 43 48 34 46 58 42 29 32 33 59 35 54 56 32 29 45 34 32 30 32 41 32 30 36 35 35 32 31 34 33 30 42 30 36 27 36 30 31 29 22 31 35 30 45 30 30 31 30 49 30 36
internal_value=0 -0.127163 -0.189202 0.0179657 0.0210619 -0.00791781 0.0341436 -0.0123297 0.00379028 0.0262502 0.00479736 0.124216 -0.0146722 0.0487761 -0.0701659 -0.0283941 0.0966806 0.00463324 0.0478152 0.0394054 0.0473962 0.0391645 0.0437346 0.022162 0.0882621 0.0852204 -0.00981801 -0.0788158 0.136857 0.185147 0.0103518 -0.0587759 -0.0192828 0.0504296 0.255624 -0.0145679 -0.0360309 0.00625075 -0.0448814 -0.105474 0.0379422 -0.0364667 0.0889816 0.110841 0.0828399 -0.0285661 -0.0160727 0.0299493 0.0853854 -5.48363e-05 0.167111 -0.0645847 -0.0959886 0.125108 0.0625001 0.100981 0.0618804 0.0264073 -0.125335 -0.163722 -0.0882325 -0.134595 0.0383877 -0.150538 0.0499979 0.157594 -0.139894 -0.214014 -0.154583 -0.232637 -0.223306 -0.2275 -0.225494 -0.224809 -0.225043 -0.224888 -0.224568 -0.224469 -0.224634 -0.224374 -0.224483 -0.224312 -0.224344
internal_weight=0 92.0243 62.5709 506.861 497.111 154.609 342.503 77.8548 71.3013 92.4787 75.8654 16.6133 69.3203 32.3421 36.9781 28.2636 25.5348 29.4535 264.648 238.678 223.567 208.027 203.273 136.933 66.3406 46.0773 90.8555 15.1115 40.857 26.2585 25.4837 62.13 38.9932 16.9496 16.1704 63.5582 53.6703 41.2221 28.2264 15.5588 23.4344 22.9659 16.6929 39.8537 32.3559 77.7069 71.0709 36.4714 26.8647 13.1339 13.7308 34.5995 27.7069 25.9695 14.099 13.1486 18.1406 19.1173 23.1369 17.3567 21.4354 14.6383 17.842 17.1899 14.5985 15.5396 9.75011 54.225 7.33219 11.0948 46.8928 43.7488 40.5503 36.9692 18.77 15.733 18.1992 15.2451 11.2231 12.2958 7.77188 9.27699 6.38461
internal_count=3125 713 567 2412 2351 770 1581 370 334 448 374 74 341 149 192 143 116 146 1211 1098 1027 956 934 639 295 210 429 71 180 117 115 322 195 84 71 301 255 197 138 84 111 118 78 178 145 364 332 170 125 61 64 162 130 113 62 65 82 89 127 95 109 75 83 83 63 71 61 526 66 62 460 431 409 377 190 160 187 157 115 127 80 96 66
shrinkage=0.2


end of trees

feature_importances:
Column_11=38
Column_23=24
Column_29=23
Column_0=20
Column_58=20
Column_3=19
Column_13=19
Column_41=19
Column_49=19
Column_51=18
Column_19=16
Column_30=16
Column_18=15
Column_20=15
Column_9=14
Column_43=13
Column_45=12
Column_14=11
Column_46=11
Column_53=11
Column_56=11
Column_32=10
Column_15=8
Column_42=8
Column_54=8
Column_1=7
Column_5=7
Column_21=7
Column_52=7
Column_57=7
Column_8=5
Column_44=5
Column_17=4
Column_35=4
Column_12=3
Column_24=3
Column_7=2
Column_47=2
Column_50=2
Column_28=1
Column_31=1
Column_33=1
Column_34=1
Column_37=1

parameters:
[boosting: gbdt]
[objective: binary]
[metric: binary_logloss]
[tree_learner: serial]
[device_type: cpu]
[data: ]
[valid: ]
[num_iterations: 10000]
[learning_rate: 0.2]
[num_leaves: 95]
[num_threads: 0]
[force_col_wise: 0]
[force_row_wise: 0]
[histogram_pool_size: -1]
[max_depth: -1]
[min_data_in_leaf: 30]
[min_sum_hessian_in_leaf: 0.001]
[bagging_fraction: 1]
[pos_bagging_fraction: 1]
[neg_bagging_fraction: 1]
[bagging_freq: 0]
[bagging_seed: 32458]
[feature_fraction: 0.9]
[feature_fraction_bynode: 1]
[feature_fraction_seed: 15412]
[extra_trees: 0]
[extra_seed: 19498]
[early_stopping_round: 50]
[first_metric_only: 0]
[max_delta_step: 0]
[lambda_l1: 0]
[lambda_l2: 0]
[min_gain_to_split: 0]
[drop_rate: 0.1]
[max_drop: 50]
[skip_drop: 0.5]
[xgboost_dart_mode: 0]
[uniform_drop: 0]
[drop_seed: 818]
[top_rate: 0.2]
[other_rate: 0.1]
[min_data_per_group: 100]
[max_cat_threshold: 32]
[cat_l2: 10]
[cat_smooth: 10]
[max_cat_to_onehot: 4]
[top_k: 20]
[monotone_constraints: ]
[monotone_constraints_method: basic]
[monotone_penalty: 0]
[feature_contri: ]
[forcedsplits_filename: ]
[refit_decay_rate: 0.9]
[cegb_tradeoff: 1]
[cegb_penalty_split: 0]
[cegb_penalty_feature_lazy: ]
[cegb_penalty_feature_coupled: ]
[path_smooth: 0]
[interaction_constraints: ]
[verbosity: -1]
[saved_feature_importance_type: 0]
[max_bin: 255]
[max_bin_by_feature: ]
[min_data_in_bin: 3]
[bin_construct_sample_cnt: 200000]
[data_random_seed: 4078]
[is_enable_sparse: 1]
[enable_bundle: 1]
[use_missing: 1]
[zero_as_missing: 0]
[feature_pre_filter: 1]
[pre_partition: 0]
[two_round: 0]
[header: 0]
[label_column: ]
[weight_column: ]
[group_column: ]
[ignore_column: ]
[categorical_feature: ]
[forcedbins_filename: ]
[objective_seed: 21231]
[num_class: 1]
[is_unbalance: 0]
[scale_pos_weight: 1]
[sigmoid: 1]
[boost_from_average: 1]
[reg_sqrt: 0]
[alpha: 0.9]
[fair_c: 1]
[poisson_max_delta_step: 0.7]
[tweedie_variance_power: 1.5]
[lambdarank_truncation_level: 20]
[lambdarank_norm: 1]
[label_gain: ]
[eval_at: ]
[multi_error_top_k: 1]
[auc_mu_weights: ]
[num_machines: 1]
[local_listen_port: 12400]
[time_out: 120]
[machine_list_filename: ]
[machines: ]
[gpu_platform_id: -1]
[gpu_device_id: -1]
[gpu_use_dp: 0]

end of parameters

pandas_categorical:null
