tree
version=v3
num_class=1
num_tree_per_iteration=1
label_index=0
max_feature_idx=77
objective=binary sigmoid:1
feature_names=Column_0 Column_1 Column_2 Column_3 Column_4 Column_5 Column_6 Column_7 Column_8 Column_9 Column_10 Column_11 Column_12 Column_13 Column_14 Column_15 Column_16 Column_17 Column_18 Column_19 Column_20 Column_21 Column_22 Column_23 Column_24 Column_25 Column_26 Column_27 Column_28 Column_29 Column_30 Column_31 Column_32 Column_33 Column_34 Column_35 Column_36 Column_37 Column_38 Column_39 Column_40 Column_41 Column_42 Column_43 Column_44 Column_45 Column_46 Column_47 Column_48 Column_49 Column_50 Column_51 Column_52 Column_53 Column_54 Column_55 Column_56 Column_57 Column_58 Column_59 Column_60 Column_61 Column_62 Column_63 Column_64 Column_65 Column_66 Column_67 Column_68 Column_69 Column_70 Column_71 Column_72 Column_73 Column_74 Column_75 Column_76 Column_77
feature_infos=[0.0056756030013792001:0.62609382483227738] [0.0040257160163753086:0.62207135271318592] [0.0048099989797633037:0.73351133621015641] [0.0045482224501089972:0.63611740955842344] [0.0043165968277844632:0.70872110824448542] [0.002524993609383601:0.61139600371527403] [0.0068914067188254316:0.71358460473244378] [0.0084328064395613137:0.601847645009844] [0.0073878115770000764:0.76977958694509907] [0.0043541744299960454:0.7237385516960998] [0.003746517833449712:0.76566786161626954] [0.0076577062718570232:0.80754125118255615] [0.0070971441455185413:0.86186343431472778] [0.03914307408803859:0.84459196526736324] [0.002136752136752137:1] [0:1] [0:1] [0:0.80687027601446093] [3.2687949849608061e-08:0.86786392078985597] [0:0.8672795597906322] [0:1] [0:1] [0:1] [0:1] [0:1] [0:0.63259234121673757] [0:1] [0.0048403742429264469:0.79436225027872365] [0:1] [0:0.89692722371967648] [0:0.60700712589073635] [0:1] [0:0.50814353550001423] [0:1] [0:1] [0:1] [0:1] [0:0.99970609925660503] [0:1] [0:1] [0:0.29370400654129192] [0:0.98701298701298701] [0:0.6433689782239228] [0:0.79913836121014803] [0:1] [0:0.29253904403218506] [0:0.94555049191697438] [0:1] [0:0.91478088211578767] [0:1] [0:1] [0:0.85213053016453388] [0:0.73059819077620924] [0:0.85262682364582376] [0.0059419582893115493:0.60780116101916304] [0:1] [0:1] [0:0.97721396250808024] [0:1] [0:1] [0:0.048127652519893899] [0:0.7170045703452177] [0:0.050371516771864064] [0:0.53406024943117869] [0:0.77762837500000004] [0:0.53955774036618609] [0:1] [0:0.98710232158211519] [0:1] [0:1] [0:0.94908267102428889] [0:1] [0:1] [0:1] [0:1] [0:1] [0:0.79830039372850981] [-67.730000000000004:696.33000000000004]
tree_sizes=1687 1688 1680 1680 1691 1697 1681 1681 1679 1687 1696 1699 1684 1684 1687 1700 1692 1694 1694 1704 1687

Tree=0
num_leaves=15
num_cat=0
split_feature=0 0 9 0 18 49 62 13 4 16 62 2 32 10
split_gain=264.822 53.5311 17.9076 14.1392 10.6145 11.306 10.1704 10.5392 10.1658 9.86574 14.6792 15.0552 14.0639 13.8753
threshold=0.23889670983349257 0.41883866033997902 0.11939493870883526 0.32645147240155042 0.30649901119898154 0.00023106176560623546 0.038760184394035453 0.54150049406782952 0.2443135768036365 0.51507801762470706 0.038770134505664126 0.44800550276788348 0.00012937530211265606 0.36346237932067582
decision_type=2 2 2 2 2 2 2 2 2 2 2 2 2 2
left_child=2 3 -1 8 5 -3 -5 -8 -2 10 -6 12 -12 -13
right_child=1 4 -4 6 9 -7 7 -9 -10 -11 11 13 -14 -15
leaf_value=-0.97884250337762713 -0.72795242070128219 -0.85643695890679528 -0.900821296485951 -0.73793144035299185 -0.61383296736373394 -0.67164655830284714 -0.81660240255265271 -0.63213367240920859 -0.85400123306403675 -0.77332638466914383 -0.7395221184543852 -0.89094307501254133 -0.89889383863748074 -0.67909755964279039
leaf_weight=99.545584797859192 6.7488532066345206 15.395821377635004 41.758529216051102 20.668362945318222 12.02139477431774 4.218033254146575 147.63116389513016 3.1635249406099311 123.16657102108002 47.452874109148979 15.395821377635004 3.3744266033172599 8.6469681710004789 36.907790973782539
leaf_count=472 32 73 198 98 57 20 700 15 584 225 73 16 41 175
internal_value=-0.836526 -0.798639 -0.955785 -0.82257 -0.748348 -0.816697 -0.803716 -0.812732 -0.847453 -0.737519 -0.715264 -0.734219 -0.79684 -0.696844
internal_weight=0 444.792 141.304 301.378 143.413 19.6139 171.463 150.795 129.915 123.799 76.3464 64.325 24.0428 40.2822
internal_count=2779 2109 670 1429 680 93 813 715 616 587 362 305 114 191
shrinkage=1


Tree=1
num_leaves=15
num_cat=0
split_feature=0 0 9 71 11 10 1 27 38 42 1 62 42 4
split_gain=222.856 40.901 16.823 11.3906 14.059 9.68595 9.27359 12.4777 9.73636 8.97367 8.61191 9.89079 9.521 9.07687
threshold=0.23889670983349257 0.41883866033997902 0.11939493870883526 0.82310121752198484 0.30127656459808355 0.30139225118492702 0.39613761336030473 0.014743819115918886 0.00036290920735684374 0.004412119648058088 0.31882338120506887 0.0387553264794245 0.0046860280727877689 0.35953842195557784
decision_type=2 2 2 2 2 2 2 2 2 2 2 2 2 2
left_child=2 3 -1 10 5 9 7 -6 -9 -5 -2 13 -13 -12
right_child=1 -3 -4 4 6 -7 -8 8 -10 -11 11 12 -14 -15
leaf_value=-0.13650738191542974 -0.024227202897194589 0.076582680053070964 -0.059492594189476104 -0.071038382913616721 0.1878022024103724 -0.095276390447417689 -0.0042226219266183283 0.048222207160675296 0.22990078347453699 0.089600686611958621 0.25554955445662081 -0.058117179014746917 0.021894741358658217 0.015393609320556924
leaf_weight=93.704347014427185 87.499600932002068 148.11544054746628 40.674957275390625 5.4992664456367519 9.8910186439752561 10.353587314486502 14.26611118018627 37.402975931763649 3.2023284286260596 9.4589343816041929 3.2362706065177909 17.420206665992737 101.67472517490387 3.0636542737483978
leaf_count=472 416 680 198 26 46 49 67 176 15 45 15 82 478 14
internal_value=0 0.0335164 -0.113196 0.0124622 0.0422718 -0.0209224 0.0669707 0.0870841 0.0625502 0.030543 -0.000150092 0.0166507 0.0101913 0.138762
internal_weight=0 451.084 134.379 302.969 90.0742 25.3118 64.7624 50.4963 40.6053 14.9582 212.894 125.395 119.095 6.29992
internal_count=2779 2109 670 1429 424 120 304 237 191 71 1005 589 560 29
shrinkage=0.1


Tree=2
num_leaves=15
num_cat=0
split_feature=1 13 5 1 15 70 20 30 72 7 63 5 74 28
split_gain=185.604 31.6144 16.5979 14.9338 11.9083 14.4891 10.3751 10.6835 9.50592 8.99455 10.8358 11.225 8.70338 7.70232
threshold=0.2351208655853694 0.30657829863550184 0.12088350555057881 0.44098922568939775 0.51507801762470706 0.009934635668127462 0.11968314389500231 0.0051603325415676971 0.97450950056155317 0.25953524886852769 0.0029974173912297388 0.44280011728592922 0.49937510188556222 0.18061526008471715
decision_type=2 2 2 2 2 2 2 2 2 2 2 2 2 2
left_child=2 13 -1 9 5 -5 7 -6 -8 -3 12 -12 -11 -2
right_child=1 3 -4 4 6 -7 8 -9 -10 10 11 -13 -14 -15
leaf_value=-0.13299086861482781 -0.021461960089908649 -0.076604610514330596 -0.05730265450059089 0.089205417880283772 0.042903800258881665 0.23529861975728164 0.043268541796722411 -0.10154823869559251 0.30072059600528217 0.18597107501344085 0.040936640214587275 -0.034653960364443126 0.0051907697515566767 0.022072924108695921
leaf_weight=83.52376651763916 103.9502894282341 7.2575355619192115 44.361503705382347 56.592422798275948 29.064042642712593 7.7139764428138724 3.1073746085166922 6.2147492170333853 2.6634639501571655 8.2837337404489499 137.2780958712101 22.925767242908478 3.9248770028352729 66.725813195109367
leaf_count=448 493 34 222 251 131 34 14 28 12 37 637 105 18 315
internal_value=0 0.0295955 -0.106736 0.0499775 0.0798693 0.10673 0.0377901 0.017457 0.162093 0.0324494 0.0370399 0.0301193 0.127853 -0.004442
internal_weight=0 455.702 127.885 285.026 105.356 64.3064 41.0496 35.2788 5.77084 179.67 172.412 160.204 12.2086 170.676
internal_count=2779 2109 670 1301 470 285 185 159 26 831 797 742 55 808
shrinkage=0.1


Tree=3
num_leaves=15
num_cat=0
split_feature=12 9 0 11 8 10 30 2 56 67 8 4 68 17
split_gain=161.86 33.6959 18.8376 11.1279 9.51976 8.55587 8.35302 9.47778 8.18304 10.5191 15.7948 7.51803 7.97197 8.49125
threshold=0.23929586261510852 0.11939493870883526 0.441271776536865 0.60604137182235729 0.53634060182429422 0.54388467125339701 0.0020011876484560573 0.52404115040908306 0.00043753564194836102 0.039552880481513335 0.21783544627381082 0.13668751470393567 0.59954507160909865 0.4202917034502564
decision_type=2 2 2 2 2 2 2 2 2 2 2 2 2 2
left_child=1 -1 3 5 -4 -2 7 -6 9 11 -11 -3 -13 -14
right_child=2 8 4 -5 6 -7 -8 -9 -10 10 -12 12 13 -15
leaf_value=-0.12799732087126292 0.016221419896443764 0.14476716006151 0.08433120932018108 0.19998044937344636 -0.091957356241919044 0.21418633531958245 0.05953658456181038 0.12743152837152549 -0.13718438015820353 0.30893067094980275 -0.02137893058257969 -0.067981263911126022 0.033103453113713426 -0.14138908996253069
leaf_weight=83.408520579338074 287.38351275026798 2.1375597864389411 86.522299021482468 3.3892767280340186 9.3908444494009 2.1998837590217581 20.380187138915062 2.4916022717952719 7.6810768991708747 2.2269135117530814 4.1372145116329193 48.413251772522926 17.762731552124027 3.3082007616758338
leaf_count=478 1336 11 378 15 41 10 89 11 39 11 20 238 86 16
internal_value=0 -0.0827545 0.0334532 0.0198337 0.0670443 0.0177253 0.0206839 -0.0459542 -0.0387045 -0.0290049 0.0942019 -0.0399527 -0.0456353 0.00570759
internal_weight=0 169.075 411.758 292.973 118.785 289.583 32.2626 11.8824 85.6669 77.9859 6.36413 71.6217 69.4842 21.0709
internal_count=2779 899 1880 1361 519 1346 141 52 421 382 31 351 340 102
shrinkage=0.1


Tree=4
num_leaves=15
num_cat=0
split_feature=0 5 9 6 4 34 3 19 22 34 51 37 22 14
split_gain=138.43 23.0586 14.4929 11.7645 9.3646 10.8056 9.02778 10.3824 8.33226 7.02754 6.74039 7.23696 7.32138 8.3445
threshold=0.23889670983349257 0.32100450745215542 0.11939493870883526 0.46596905060001365 0.2443135768036365 0.17655389618775905 0.49891326976171274 0.087552006442088312 0.00044478006216449733 0.18252042900919307 0.81590783820840962 0.99770227854694093 0.00038875457686354695 0.44282990376740378
decision_type=2 2 2 2 2 2 2 2 2 2 2 2 2 2
left_child=2 4 -1 10 5 -2 9 8 -8 -5 -3 -12 13 -13
right_child=1 3 -4 6 -6 -7 7 -9 -10 -11 11 12 -14 -15
leaf_value=-0.12414729917559444 -0.026633829458896488 0.031208641522130931 -0.048556892954524533 0.10766317875598859 -0.033384374941834848 0.23754876276232789 0.019783240241364877 0.14491208235282491 -0.15441460088728293 -0.040791127152528805 0.079669439791772073 -0.059528288884352999 -0.052971972099620707 0.20786187026352862
leaf_weight=76.304449319839478 3.390874207019805 264.98491322994232 37.993845552206039 43.324175044894218 76.946589514613152 2.8491623252630234 20.277361318469055 5.8690010905265799 3.1759213209152213 3.4420745819807044 6.8932198137044898 2.2006983309984198 27.447841361165047 2.484962210059166
leaf_count=472 16 1207 198 186 369 13 88 25 14 15 31 10 124 11
internal_value=0 0.0238589 -0.0990203 0.0342957 -0.0238297 0.0939903 0.0694618 0.0259609 -0.00380572 0.0967367 0.0254943 -0.0133053 -0.0332501 0.0822776
internal_weight=0 463.287 114.298 380.1 83.1866 6.24004 76.0885 29.3223 23.4533 46.7662 304.012 39.0267 32.1335 4.68566
internal_count=2779 2109 670 1711 398 29 328 127 102 201 1383 176 145 21
shrinkage=0.1


Tree=5
num_leaves=15
num_cat=0
split_feature=1 12 15 32 72 19 19 69 73 33 33 56 30 10
split_gain=121.067 26.9405 11.9892 10.0421 9.82172 8.03339 12.456 8.0955 12.7841 6.64114 8.63933 7.0432 7.52045 9.73932
threshold=0.18522922426654251 0.30640555918216711 0.38207070707070712 0.00021041257926014391 0.97114018198904406 0.054730908602872101 0.037552006442088316 0.00024706182235819497 0.94361542715450353 0.81915290733769763 0.81868924218252692 0.00043753564194836102 0.0011460807600950122 0.28269619886814479
decision_type=2 2 2 2 2 2 2 2 2 2 2 2 2 2
left_child=-1 2 9 -3 -4 6 -6 8 -7 10 11 12 13 -2
right_child=1 3 4 -5 5 7 -8 -9 -10 -11 -12 -13 -14 -15
leaf_value=-0.1142059200756796 0.10791605829172134 0.04229994497232345 -0.093606174506595197 -0.00092695790520863099 0.14250491483525587 0.18461797964748417 -0.14368418160208654 0.29809188573917345 -0.036298071356956889 -0.052791666478882629 0.136187906695552 -0.13169663028153633 -0.028960453193487858 -0.044059474635721997
leaf_weight=80.523469358682632 10.727663382887842 272.50892943143845 3.9452469646930721 66.945000424981117 2.7746119052171734 6.0145439952611905 3.3654758930206299 2.2257885783910742 4.6405527144670486 60.119550660252571 3.9457205086946479 4.8846638202667227 44.352216750383377 6.9477964639663687
leaf_count=522 52 1203 19 304 13 28 16 10 22 294 19 27 217 33
internal_value=0 0.018039 -0.0166597 0.033775 0.0499852 0.0797682 -0.0143597 0.124637 0.0884037 -0.0283456 -0.00760427 -0.0160835 -0.00697897 0.0481781
internal_weight=0 493.398 153.944 339.454 22.9662 19.021 6.14009 12.8809 10.6551 130.978 70.8581 66.9123 62.0277 17.6755
internal_count=2779 2257 750 1507 108 89 29 60 50 642 348 329 302 85
shrinkage=0.1


Tree=6
num_leaves=15
num_cat=0
split_feature=1 5 0 48 15 6 42 33 0 9 4 51 8 18
split_gain=104.979 22.2092 8.85727 7.42004 8.98774 9.37177 8.55041 7.54436 11.5005 9.91626 15.5002 9.67667 9.55497 9.66889
threshold=0.18522922426654251 0.32100450745215542 0.441271776536865 2.3282535074987907e-05 0.27044822949350072 0.31185548022054149 0.0037419720540730205 0.83076025367985107 0.39445475549020315 0.29294518716324031 0.29023988133539591 0.81588046160877525 0.27892202514814585 0.30052559182141297
decision_type=2 2 2 2 2 2 2 2 2 2 2 2 2 2
left_child=-1 -2 3 4 5 -3 -5 9 -9 10 -8 12 13 -12
right_child=1 2 -4 6 -6 -7 7 8 -10 -11 11 -13 -14 -15
leaf_value=-0.11088235480521536 -0.024008437715165108 -0.064854467908410443 0.049445058987283685 -0.10346406878578973 -0.043980753944706429 0.1841487527704686 -0.081221503825217284 -0.088035223093997542 0.10060278692331709 0.022805516674080775 0.27146062859966369 0.25289734497134453 0.042246990514016369 0.034397191814550407
leaf_weight=74.932167083024979 107.87457774579525 2.4936498850584021 123.14836026728153 5.1434513479471198 33.048088401556015 3.8377311527729034 4.8152343481779125 12.164967045187952 4.4011638164520255 171.65929868817329 4.5347766131162706 4.2075727432966223 15.117299675941466 2.7722479999065399
leaf_count=522 540 12 519 25 151 17 23 57 20 771 21 19 69 13
internal_value=0 0.0161204 0.0272963 0.0169721 -0.0230702 0.0860774 0.0239861 0.0269702 -0.0379193 0.0322629 0.0838873 0.11374 0.0876295 0.18152
internal_weight=0 495.218 387.344 264.195 39.3795 6.33138 224.816 219.673 16.5661 203.106 31.4471 26.6319 22.4243 7.30702
internal_count=2779 2257 1717 1198 180 29 1018 993 77 916 145 122 103 34
shrinkage=0.1


Tree=7
num_leaves=15
num_cat=0
split_feature=1 12 16 27 27 18 32 42 12 8 37 28 8 73
split_gain=91.2576 18.8701 9.62361 9.01616 12.6611 8.31439 7.44052 7.04845 9.274 9.38263 8.86208 8.522 7.00885 7.03065
threshold=0.18522922426654251 0.30640555918216711 0.38207070707070712 0.014663780245276767 0.014735438575345769 0.31375850335514965 0.00021041257926014391 0.0059599201795687423 0.34659881889820104 0.35075734551480564 0.99771016447768501 0.17721832341823385 0.28141871006000935 0.9431569652318178
decision_type=2 2 2 2 2 2 2 2 2 2 2 2 2 2
left_child=-1 2 -2 -4 -5 -6 -3 -8 9 -9 -10 -12 -7 -14
right_child=1 6 3 4 5 12 7 8 10 -11 11 -13 13 -15
leaf_value=-0.10782503406581041 -0.025619272101763697 0.034598954452414669 -0.13983703181597781 0.27544262346637671 -0.028726568250214725 -0.049494895018297271 -0.071880987556908083 0.032817567971687701 -0.055238188176776726 0.21755129364202302 -0.029222086475523643 0.10220122092187967 0.055488917148787821 0.26133833380542887
leaf_weight=69.625249549746513 128.71071854233742 277.41417689621449 2.3826451450586346 2.5245120525360134 9.4355852454900759 2.1736201792955381 12.020044311881064 9.9843878298997861 21.637048929929733 3.7941453903913489 9.7304174304008502 10.009422093629835 3.35145503282547 3.2859560698270798
leaf_count=522 642 1203 12 11 45 11 56 46 97 17 44 44 15 14
internal_value=0 0.0144254 -0.0149424 0.0444099 0.0655447 0.0365043 0.0273681 -0.00249328 0.0126284 0.083687 -0.0110342 0.0374183 0.106359 0.157398
internal_weight=0 496.454 151.864 23.1538 20.7711 18.2466 344.59 67.1755 55.1554 13.7785 41.3769 19.7398 8.81103 6.63741
internal_count=2779 2257 750 108 96 85 1507 304 248 63 185 88 40 29
shrinkage=0.1


Tree=8
num_leaves=15
num_cat=0
split_feature=9 5 24 6 15 24 68 5 11 28 28 2 1 70
split_gain=79.9492 17.3413 6.94036 6.614 7.93689 7.49249 6.99779 9.45653 8.2758 6.05317 5.80336 9.2961 8.80163 8.56947
threshold=0.11939493870883526 0.32100450745215542 0.00051164926833497141 0.46596905060001365 0.53446327683615824 0.00039093647084492879 0.60143218197135651 0.46059552956329392 0.5536104440689088 0.1667819280611724 0.18373714115067549 0.22819995683893032 0.24865951155708568 0.0023861695015969697
decision_type=2 2 2 2 2 2 2 2 2 2 2 2 2 2
left_child=-1 2 10 -3 5 -5 9 -8 -9 -7 13 -12 -13 -2
right_child=1 3 -4 4 -6 6 7 8 -10 -11 11 12 -14 -15
leaf_value=-0.11059538894734303 -0.039210492531067689 0.015690579559258511 -0.094852088336703666 0.1462880152743761 0.015426962684699008 -0.046012705831521027 -0.16340506906098262 0.11678910915392199 -0.055848019808838315 0.12740780682800304 0.1864727476377056 -0.13524157642690177 0.045389560791268185 0.050238949196134967
leaf_weight=59.15958559513092 68.888564795255661 311.88640487194061 11.828881934285162 11.723695978522299 38.335397630929947 2.4002117961645153 2.801035374402999 6.3963107466697675 4.9070287644863129 12.466930061578749 3.3879282325506237 3.5215024799108496 11.530037894845007 12.681906789541243
leaf_count=484 362 1387 61 48 161 10 12 26 20 51 18 19 55 65
internal_value=0 0.0123045 -0.0224178 0.0222383 0.0480782 0.078836 0.0515407 0.00108252 0.0418435 0.0994101 -0.0138505 0.0368148 0.00312857 -0.0253036
internal_weight=0 502.756 111.839 390.917 79.0306 40.6952 28.9715 14.1044 11.3033 14.8671 100.01 18.4395 15.0515 81.5705
internal_count=2779 2295 580 1715 328 167 119 58 46 61 519 92 74 427
shrinkage=0.1


Tree=9
num_leaves=15
num_cat=0
split_feature=1 5 1 5 13 10 2 13 37 20 3 76 24 11
split_gain=70.9439 14.5152 6.69134 6.59578 5.65104 7.11875 7.40541 6.35013 10.3881 7.55781 8.40468 8.24604 7.44664 7.87404
threshold=0.14400623034931778 0.31968594425413438 0.33909929542911788 0.31370683444283104 0.30479476124020116 0.41224436522053465 0.42760258667326961 0.33008417694733599 0.99770534635473951 0.1174388554631976 0.41870030741965619 0.0011917411590319353 0.00076695521565197245 0.28571987152099615
decision_type=2 2 2 2 2 2 2 2 2 2 2 2 2 2
left_child=-1 2 3 -2 5 -3 -7 8 -6 -10 11 -11 13 -9
right_child=1 4 -4 -5 7 6 -8 12 9 10 -12 -13 -14 -15
leaf_value=-0.11289670617416102 -0.017667045588521498 0.0084171970887658831 0.12774069440625929 -0.10587189865045993 0.15118083580784053 -0.14836787266464066 0.031393187013877034 -0.086876972545185713 0.13949024943016972 0.0075451975198753051 -0.11467299702337613 0.20589659121772033 -0.12227526500931148 0.026488747354168243
leaf_weight=51.144075818359852 99.403665900230408 101.30020506680012 2.9384099692106238 9.2682061642408353 10.322403922677038 6.1092952489852888 3.6674061119556427 6.2883065044879904 5.2097955942153957 13.023488819599153 4.5816723257303229 2.497921109199523 3.5512942671775809 238.55438242852688
leaf_count=459 532 467 14 47 45 28 16 29 22 58 20 11 16 1015
internal_value=0 0.010681 -0.0211634 -0.0251897 0.0196764 0.00055252 -0.0809365 0.0271553 0.066632 0.0321536 0.00433685 0.0394667 0.0214919 0.0235772
internal_weight=0 506.716 111.61 108.672 395.106 111.077 9.7767 284.029 35.6353 25.3129 20.1031 15.5214 248.394 244.843
internal_count=2779 2320 593 579 1727 511 44 1216 156 111 89 69 1060 1044
shrinkage=0.1


Tree=10
num_leaves=15
num_cat=0
split_feature=7 12 19 42 12 7 77 54 24 12 30 28 18 42
split_gain=63.5956 14.4541 8.19642 8.16978 12.9167 9.33691 8.82685 7.84929 7.78765 8.04374 8.2142 7.58209 7.34437 7.03108
threshold=0.14473714711547683 0.24291502684354785 0.16591732653335126 0.0078130504920233754 0.24473980814218524 0.36994420232884234 0.13500000000000004 0.018071048269452623 0.00080178028912043385 0.30977037549018865 0.00086104513064133028 0.18175084677831307 0.31375850335514965 0.0047054019638700251
decision_type=2 2 2 2 2 2 2 2 2 2 2 2 2 2
left_child=-1 -2 3 4 -3 6 -5 13 9 12 -11 -8 -7 -4
right_child=1 2 7 5 -6 8 11 -9 -10 10 -12 -13 -14 -15
leaf_value=-0.11354969641283921 -0.028195714029350796 0.3290304224947681 -0.033815842324778661 -0.0060479551590290111 0.0077527685281248834 -0.010453047545829246 0.27546528433866752 -0.019241877754084757 -0.14526922221203642 -0.037448856893914688 0.042613754640752961 0.098467509868595982 0.21105227290255335 0.061002226013625961
leaf_weight=45.778644278645515 84.726136200129986 1.2618519514799107 10.884196206927298 3.8869681358337393 150.90763694047928 2.1645260155200949 4.1234298795461637 93.631634026765823 2.3431346565484992 14.673776820302008 101.14238788187504 5.8592355698347092 4.8528990298509598 27.784651562571526
leaf_count=446 468 6 50 17 666 10 18 432 11 62 426 26 20 121
internal_value=0 0.00950823 0.0170511 0.0264278 0.0104169 0.0439497 0.121798 -0.00358866 0.035324 0.038769 0.0324699 0.171578 0.142729 0.0343136
internal_weight=0 508.242 423.516 291.216 152.169 139.046 13.8696 132.3 125.177 122.834 115.816 9.98267 7.01743 38.6688
internal_count=2779 2333 1865 1262 672 590 61 603 529 518 488 44 30 171
shrinkage=0.1


Tree=11
num_leaves=15
num_cat=0
split_feature=5 12 19 19 42 17 41 41 42 12 12 24 48 15
split_gain=56.043 11.3764 6.82365 6.57428 9.35747 8.84598 7.17787 7.07165 6.52225 9.29327 7.37589 7.60443 7.28983 6.58567
threshold=0.12088350555057881 0.24291502684354785 0.16591732653335126 0.20499932894913434 0.0037522907569320484 0.26848399998184808 0.61688311688311692 0.69480519480519487 0.0078130504920233754 0.24473980814218524 0.34137502312660223 0.00076116443006299264 0.0013760885341074023 0.55698383249403671
decision_type=2 2 2 2 2 2 2 2 2 2 2 2 2 2
left_child=-1 3 8 6 5 -5 -2 -8 9 -3 -10 12 13 -12
right_child=1 2 -4 4 -6 -7 7 -9 10 -11 11 -13 -14 -15
leaf_value=-0.11183265354756189 -0.059752956645623669 0.26632241502048015 -0.0037136286853284477 0.030142927556583422 -0.010183032531819802 0.32494000287897867 0.15237103603631899 -0.043229830048216608 0.096788054635837728 0.0069715565815035496 0.05100738995752592 -0.14269729338183648 -0.041279054417134003 -0.026160401247100857
leaf_weight=41.894338212907314 47.539697907865047 1.3943755328655232 132.47714839875698 2.4698364511132267 23.914050899446011 1.7314769402146337 3.3922584354877463 4.0610726848244667 19.208529859781265 151.2114547342062 94.081159308552742 2.4948883205652228 11.680488109588621 12.532500028610228
leaf_count=448 271 6 606 15 128 10 17 22 83 666 394 12 49 52
internal_value=0 0.00850031 0.015116 -0.0253375 0.0139979 0.151637 -0.0454479 0.0457946 0.0236412 0.00934127 0.039229 0.0300756 0.0337195 0.0419363
internal_weight=0 508.189 425.081 83.1084 28.1154 4.20131 54.993 7.45333 292.603 152.606 139.998 120.789 118.294 106.614
internal_count=2779 2331 1868 463 153 25 310 39 1262 672 590 507 495 446
shrinkage=0.1


Tree=12
num_leaves=15
num_cat=0
split_feature=7 12 28 39 7 4 40 17 49 27 38 73 15 9
split_gain=50.3248 9.81272 6.42291 8.65962 7.03102 8.61459 6.3236 6.2162 7.93328 8.73839 8.84855 9.21086 8.2304 7.80893
threshold=0.14473714711547683 0.30640555918216711 0.18075475256784052 0.82189044650299981 0.32018118864694894 0.25810452786026145 0.15629599345870812 0.42527486933905151 0.00015512044646431351 0.014651162352728482 0.00032346895286713002 0.94618334909110391 0.41694880121605754 0.26830560839748224
decision_type=2 2 2 2 2 2 2 2 2 2 2 2 2 2
left_child=-1 2 6 4 5 -4 7 8 13 -10 11 -11 -12 -2
right_child=1 -3 3 -5 -6 -7 -8 -9 9 10 12 -13 -14 -15
leaf_value=-0.11096499698089034 -0.011309751232617262 0.016936961171602857 0.032826099928482164 -0.0024140180437692525 -0.028509532720560782 0.2876889171364907 -0.12923922345704719 -0.12210761824106497 -0.11178392716309352 0.29189222815513743 -0.018249440018890374 0.0089227411855060806 0.13282426460492494 -0.091373976664918685
leaf_weight=38.456308588385582 37.017317451536655 351.88116365671158 2.3873415589332572 53.533301070332527 2.5033840537071228 2.9838613718748093 5.9614058732986441 5.8889094293117514 3.8457610756158855 2.7423164695501354 14.15003126114607 1.981518968939781 4.8394935131072989 18.157167986035347
leaf_count=446 211 1515 13 274 12 14 36 31 20 13 72 10 21 91
internal_value=0 0.0076821 -0.0131947 0.0119885 0.1099 0.17441 -0.0295447 -0.0228386 -0.0157727 0.0280422 0.0507188 0.173194 0.0202518 -0.0376578
internal_weight=0 507.873 155.992 61.4079 7.87459 5.3712 94.5839 88.6225 82.7336 27.5591 23.7134 4.72384 18.9895 55.1745
internal_count=2779 2333 818 313 39 27 505 469 438 136 116 23 93 302
shrinkage=0.1


Tree=13
num_leaves=15
num_cat=0
split_feature=7 12 4 4 40 14 1 3 13 56 66 19 18 77
split_gain=44.7618 8.21457 6.99541 6.90153 10.5027 6.55272 10.587 6.69617 6.66287 8.64276 8.25449 7.72933 15.6697 6.42814
threshold=0.14473714711547683 0.24291502684354785 0.2443135768036365 0.30594301896825071 0.15695012264922323 0.2709922107581258 0.30820607267013683 0.41997991494336917 0.20792409957943495 0.00041492144022968171 0.12914572864321613 0.23698161320628106 0.25106783608508765 0.38500000000000006
decision_type=2 2 2 2 2 2 2 2 2 2 2 2 2 2
left_child=-1 5 -3 4 -4 6 8 -7 9 10 11 13 -13 -2
right_child=1 2 3 -5 -6 7 -8 -9 -10 -11 -12 12 -14 -15
leaf_value=-0.10982915316336073 -0.076190461337580506 0.13226264807470345 -0.03702642740453007 0.015631865583271214 0.15566039257759956 -0.063655220718029537 0.11951241284288028 0.11603891974734376 -0.079068896708978695 -0.11974168250382911 0.24511005516421958 -0.083350899569525905 0.25876352149675685 0.061240435249563879
leaf_weight=35.138129442930222 8.3843000158667653 4.8169477432966223 44.575194373726845 373.92339789867401 3.0204578042030326 35.137434907257557 6.7124482542276374 2.203828662633895 11.794444888830183 4.1804940328001967 1.757167950272559 2.2637454420328131 3.2766486555337906 5.7289926186203948
leaf_count=446 58 22 219 1609 15 193 32 10 69 31 8 14 17 36
internal_value=0 0.00687701 0.012436 0.0110667 -0.0247984 -0.0222245 0.00387774 -0.0530499 -0.0168839 0.0117756 0.0374545 0.0188888 0.118979 -0.0204033
internal_weight=0 507.776 426.336 421.519 47.5957 81.4395 44.0982 37.3413 37.3858 25.5913 21.4109 19.6537 5.54039 14.1133
internal_count=2779 2333 1865 1843 234 468 265 203 233 164 133 125 31 94
shrinkage=0.1


Tree=14
num_leaves=15
num_cat=0
split_feature=7 5 24 76 28 69 10 13 8 7 0 32 11 73
split_gain=39.8741 6.86978 5.99101 5.86993 11.5883 5.69424 5.37916 6.27043 8.05548 9.19154 8.3913 8.14699 7.91281 6.0205
threshold=0.14473714711547683 0.32100450745215542 0.00051164926833497141 0.0013682966295927739 0.17690200947763016 5.2547814156090822e-05 0.69866028098197053 0.53416015997226951 0.50375437528774403 0.45831308882343519 0.53908603434295443 0.00011316784668315848 0.62490424513816845 0.94430044419073444
decision_type=2 2 2 2 2 2 2 2 2 2 2 2 2 2
left_child=-1 2 3 -2 -5 -6 7 12 11 -10 -11 -9 -3 -13
right_child=1 6 -4 4 5 -7 -8 8 9 10 -12 13 -14 -15
leaf_value=-0.10882010838664496 -0.016200012280683875 0.00657823000055675 -0.086162505660831112 -0.10011629438582775 0.22649645114468311 0.043181282362285495 -0.1366117016736384 0.1365375289628584 -0.048308601715481514 0.10050509353596433 -0.066857341906963227 -0.12760796804901836 0.13152000521080298 0.096081148817230386
leaf_weight=32.074016243219376 89.644058085978031 340.28314831852913 10.940117463469504 2.9432815760374051 3.4897735789418221 3.2938461005687714 2.4116018116474143 14.015420168638231 13.124036595225336 13.312214612960817 3.8657605051994315 2.3743335753679267 5.1455703675746909 2.4394028335809708
leaf_count=446 502 1485 63 16 18 17 10 57 54 54 16 10 21 10
internal_value=0 0.00614921 -0.0159266 -0.00819406 0.0655896 0.137486 0.0122837 0.0131937 0.0466204 0.0147016 0.0628416 0.0979878 0.00843939 -0.0142516
internal_weight=0 507.283 110.311 99.371 9.7269 6.78362 396.971 394.56 49.1312 30.302 17.178 18.8292 345.429 4.81374
internal_count=2779 2333 616 553 51 35 1717 1707 201 124 70 77 1506 20
shrinkage=0.1


Tree=15
num_leaves=15
num_cat=0
split_feature=5 17 38 62 8 38 15 12 27 12 4 51 63 14
split_gain=35.5947 6.21786 8.06478 6.19774 6.57564 8.72452 7.24577 6.15496 8.7233 7.9416 7.19126 6.64924 6.86482 6.62557
threshold=0.12088350555057881 0.27242634763515122 0.00080087263034709798 0.038793383589206476 0.45923908504701499 0.00036232054684207191 0.41694880121605754 0.46658149361610418 0.014585059661915813 0.50715538859367382 0.51051460996559272 0.8158388025594151 0.003870169113683927 0.49749974903378008
decision_type=2 2 2 2 2 2 2 2 2 2 2 2 2 2
left_child=-1 2 3 4 5 -2 -7 10 -9 11 -3 -10 -13 -11
right_child=1 7 -4 -5 -6 6 -8 8 9 13 -12 12 -14 -15
leaf_value=-0.10778254163610024 -0.014979177895289929 0.0052760311878505273 0.079597252159870679 -0.099377129551573434 -0.08552441036711099 0.011782090113691353 0.22243119181455331 0.18852393754245314 -0.02560973728940328 0.029293062855053609 -0.14329332303908779 0.1033265872721503 -0.075803896259596701 -0.033824415030075307
leaf_weight=29.32720435410738 73.218684710562229 282.40001893043518 8.2324031144380552 9.6898279339075071 11.629394844174383 3.6942617595195761 2.9264640510082245 3.4188528656959525 6.3487974256277075 49.463178813457489 3.2959914505481711 24.994494259357456 2.3396507501602164 25.055840119719505
leaf_count=448 373 1321 36 47 49 17 12 14 27 205 14 103 10 103
internal_value=0 0.00552924 -0.0155823 -0.0233281 -0.0152718 -0.00503877 0.104892 0.0113418 0.0312542 0.0262849 0.00356203 0.0665812 0.087994 0.00807081
internal_weight=0 506.708 109.391 101.159 91.4688 79.8394 6.62073 397.317 111.621 108.202 285.696 33.6829 27.3341 74.519
internal_count=2779 2331 534 498 451 402 29 1797 462 448 1335 140 113 308
shrinkage=0.1


Tree=16
num_leaves=15
num_cat=0
split_feature=7 40 28 13 34 62 1 12 2 9 6 5 18 13
split_gain=31.9952 5.81014 6.3685 9.7632 9.44808 8.99024 7.80465 8.42291 8.40793 8.01973 7.42738 8.456 7.88116 7.32162
threshold=0.14473714711547683 0.15776778413736714 0.18258780167705332 0.49206436466600639 0.17633595740434177 0.038760184394035453 0.4254717285983029 0.54343494772911083 0.5018820438710897 0.36392451110490637 0.32532690621980215 0.40900828861690647 0.28240791498670664 0.24386592015284606
decision_type=2 2 2 2 2 2 2 2 2 2 2 2 2 2
left_child=-1 2 6 5 -5 -4 9 13 -9 10 -2 12 -12 -8
right_child=1 -3 3 4 -6 -7 7 8 -10 -11 11 -13 -14 -15
leaf_value=-0.10722710818146707 -0.016777658438454204 -0.13016276730329546 0.089900224545438154 0.031732419813231792 0.15220727850096127 0.0022656449600142316 -0.11981011584936752 -0.073103815025684082 0.035219023780342716 -0.041411025004267459 -0.039076887927490041 -0.057576646053909192 0.061286844930909246 0.042382426626410952
leaf_weight=26.752438053488731 104.10136243700981 3.1611991003155699 12.990074947476385 17.739804983139042 10.282764136791227 118.45378863811493 2.8856831789016715 16.487726226449016 12.673378393054007 66.973084792494774 9.5748557001352292 9.9623551666736585 42.790963940322399 78.373396709561348
leaf_count=446 564 21 60 73 42 537 13 68 52 294 45 45 193 326
internal_value=0 0.00498463 0.0058335 0.0223509 0.0759402 0.0109262 -0.00182735 0.0200774 -0.0260268 -0.0121902 -0.000431465 0.0268702 0.0429358 0.0366226
internal_weight=0 506.45 503.289 159.466 28.0226 131.444 343.823 110.42 29.1611 233.403 166.43 62.3282 52.3658 81.2591
internal_count=2779 2333 2312 712 115 597 1600 459 120 1141 847 283 238 339
shrinkage=0.1


Tree=17
num_leaves=15
num_cat=0
split_feature=7 71 11 13 29 66 37 11 9 42 37 7 22 12
split_gain=28.6242 5.38854 9.52365 9.75205 8.4057 11.2705 7.67915 8.7597 7.17443 7.1696 8.11944 6.96052 6.91788 12.0836
threshold=0.14473714711547683 0.8230410458713443 0.34930454194545751 0.34748959201836344 0.29288409703504048 0.12311557788944726 0.99770844270028514 0.44275753200054174 0.28834594906421696 0.017276809395565359 0.99770679226725234 0.14625457333617889 0.00049508294606338604 0.35903561115264898
decision_type=2 2 2 2 2 2 2 2 2 2 2 2 2 2
left_child=-1 4 3 -3 5 6 7 9 -4 11 -11 -2 -10 -14
right_child=1 2 8 -5 -6 -7 -8 -9 12 10 -12 -13 13 -15
leaf_value=-0.10650279831650795 0.32038624680032401 0.0037693536247703444 0.136949595326225 -0.11670069548683625 -0.11527633481533427 0.16710141547702845 0.012730611518598342 -0.062673051649643097 0.043543770296549378 0.10578090147452548 -0.060581704125636307 -0.01581769356259002 0.13991239591442081 -0.077387829922049178
leaf_weight=24.362821500748396 0.61901383101940055 52.024446569383144 6.9227228313684455 7.7161322832107535 6.4865039065480223 3.9720497727394095 168.71565786749125 34.15906335413456 76.89773653447628 10.650371611118315 4.04900999367237 118.43089760094881 3.2638654857873908 11.850026622414587
leaf_count=446 3 265 31 35 42 18 742 145 321 46 18 601 14 52
internal_value=0 0.00447059 0.0197366 -0.0117906 -0.00250855 -0.000360939 -0.00233694 -0.0174769 0.0387741 -0.00593401 0.0599556 -0.0140696 0.0313876 -0.0304616
internal_weight=0 505.757 158.675 59.7406 347.083 340.596 336.624 167.908 98.9344 133.749 14.6994 119.05 92.0116 15.1139
internal_count=2779 2333 718 300 1615 1573 1555 813 418 668 64 604 387 66
shrinkage=0.1


Tree=18
num_leaves=15
num_cat=0
split_feature=5 12 14 0 6 37 60 33 38 56 13 3 30 11
split_gain=25.7415 4.61291 5.94781 6.45979 8.68202 7.59166 6.92672 7.12155 5.646 7.22637 5.35374 5.22284 5.12067 7.51297
threshold=0.12088350555057881 0.24291502684354785 0.2709922107581258 0.26563045872809177 0.25866820589001333 0.99770452351636874 0.036409862676834666 0.81697210936210685 0.00020573684991276057 0.00045228403437358661 0.2047320409571243 0.41997991494336917 0.0015261282660332545 0.26006768643856054
decision_type=2 2 2 2 2 2 2 2 2 2 2 2 2 2
left_child=-1 2 3 4 5 8 7 -5 9 10 -2 12 13 -4
right_child=1 -3 11 6 -6 -7 -8 -9 -10 -11 -12 -13 -14 -15
leaf_value=-0.10578425377575823 0.089237726984748911 0.0081106821029604207 0.023812849083547992 0.060807335836875177 -0.12764467751668371 0.16887263996561921 -0.012305733642096578 0.28159225763916562 -0.093225541695565906 -0.11599742534636487 -0.061429842556746099 0.098698348761195168 -0.099216068024617132 -0.11622008431417558
leaf_weight=22.290877278894186 9.8705602996051436 427.00036522746086 11.969015546143057 3.9972498118877393 5.7707771360874167 2.6390487551689139 5.4706962555646896 2.3024827837944031 6.0160299688577643 3.1325239166617385 3.0988091304898253 2.2645370364189139 15.966963708400725 5.6351983249187461
leaf_count=448 65 1868 68 19 35 15 28 11 40 27 20 10 94 31
internal_value=0 0.00402288 -0.0183169 0.00707859 -0.0171874 0.00855992 0.0700147 0.141502 -0.0105681 0.0203145 0.0532383 -0.0482921 -0.0582073 -0.0210124
internal_weight=0 505.134 78.1339 42.2982 30.5277 24.757 11.7704 6.29973 22.1179 16.1019 12.9694 35.8357 33.5712 17.6042
internal_count=2779 2331 463 260 202 167 58 30 152 112 85 203 193 99
shrinkage=0.1


Tree=19
num_leaves=15
num_cat=0
split_feature=9 71 11 18 29 66 71 15 12 22 10 68 71 19
split_gain=23.2816 4.42844 7.23955 11.364 6.85148 8.56945 7.12221 5.95801 5.90568 6.11287 8.91054 5.82799 5.79946 5.61161
threshold=0.089414138236826826 0.8230410458713443 0.34930454194545751 0.30475058611291744 0.29288409703504048 0.12311557788944726 0.82252811923966529 0.42015804383479954 0.33647924661636358 0.00049508294606338604 0.35789701317305783 0.70640269587194615 0.82248335740199374 0.20974365856931956
decision_type=2 2 2 2 2 2 2 2 2 2 2 2 2 2
left_child=-1 4 3 7 5 6 11 -3 -4 13 -11 12 -2 -10
right_child=1 2 8 -5 -6 -7 -8 -9 9 10 -12 -13 -14 -15
leaf_value=-0.10571904784411806 -0.001105795563228462 0.016500780973782738 0.10706390403200952 -0.060481421108406964 -0.11053242436220088 0.142291273178871 -0.048143802012914738 0.18248430234387225 0.046565063691595993 0.095056804724204677 -0.082629807314449438 0.12085603836133517 0.12942819305835276 -0.042076059557894917
leaf_weight=20.262784939259291 297.36798567697406 31.268868338316679 9.9337987303733808 25.580068435519934 5.7979368865489951 4.1285338848829261 31.231642089784145 2.323255166411399 67.313053697347641 3.8775708973407736 10.369732409715651 4.0701843202114096 3.4430197775363913 7.9896525442600241
leaf_count=440 1381 168 43 122 41 18 147 10 278 17 46 18 16 34
internal_value=0 0.00360225 0.0174362 -0.0102616 -0.00274048 -0.000903634 -0.00266252 0.0279803 0.0339106 0.0257957 -0.0342703 0.00199652 0.000388269 0.0371602
internal_weight=0 504.695 158.656 59.1722 346.039 340.241 336.113 33.5921 99.4838 89.55 14.2473 304.881 300.811 75.3027
internal_count=2779 2339 718 300 1621 1580 1562 178 418 375 63 1415 1397 312
shrinkage=0.1


Tree=20
num_leaves=15
num_cat=0
split_feature=7 40 39 5 8 12 12 4 42 37 39 76 1 22
split_gain=21.0095 5.02268 4.06329 4.09057 6.18146 8.67441 6.28425 6.03196 6.02766 5.67463 5.15881 6.13736 8.18117 11.6024
threshold=0.14473714711547683 0.15776778413736714 0.83530945839644033 0.47876746334562931 0.53634060182429422 0.55258008837699901 0.62032100558280956 0.51400519645008658 0.010733713546109068 0.99771240469082179 0.8247060394726029 0.00015576608319255855 0.48606770524123549 0.0003819507690689255
decision_type=2 2 2 2 2 2 2 2 2 2 2 2 2 2
left_child=-1 2 3 -2 10 -6 9 -8 -9 -7 11 12 -5 -14
right_child=1 -3 -4 4 5 6 7 8 -10 -11 -12 -13 13 -15
leaf_value=-0.1050262731569238 -0.00070328184232624959 -0.12758818331088367 0.13861962343652298 0.086470530879333138 -0.11211524577199461 -0.023990849330328447 -0.14293281310868131 -0.072836050498677488 0.14021247238458906 0.13522026097876169 -0.06694430882806908 0.097737861729540215 0.17634622896947652 -0.035417628697767004
leaf_weight=18.580319929867983 413.401072666049 2.9169451855123034 2.2326146364212027 14.206095501780508 7.0645706355571773 3.6085072606802004 3.5618408322334272 2.8905716687440872 2.4565775692462921 5.8972781449556351 4.129982501268386 17.598299711942673 2.9509649723768261 20.993287727236748
leaf_count=446 1951 21 10 59 29 15 15 12 10 24 17 72 12 86
internal_value=0 0.00325258 0.00401438 0.00341184 0.023342 -0.0179119 0.0182278 -0.0421146 0.0250423 0.0747819 0.0408962 0.0488853 0.0263502 -0.00931919
internal_weight=0 503.909 500.992 498.759 85.358 25.4793 18.4148 8.90899 5.34715 9.50579 59.8786 55.7486 38.1503 23.9443
internal_count=2779 2333 2312 2302 351 105 76 37 22 39 246 229 157 98
shrinkage=0.1


end of trees

feature_importances:
Column_12=20
Column_5=14
Column_1=13
Column_7=12
Column_0=11
Column_4=10
Column_9=10
Column_13=10
Column_42=10
Column_11=9
Column_8=8
Column_15=8
Column_19=8
Column_28=8
Column_10=7
Column_18=7
Column_37=7
Column_24=6
Column_2=5
Column_6=5
Column_22=5
Column_27=5
Column_30=5
Column_38=5
Column_62=5
Column_71=5
Column_3=4
Column_14=4
Column_17=4
Column_32=4
Column_33=4
Column_40=4
Column_56=4
Column_73=4
Column_34=3
Column_39=3
Column_51=3
Column_66=3
Column_68=3
Column_76=3
Column_16=2
Column_20=2
Column_29=2
Column_41=2
Column_48=2
Column_49=2
Column_63=2
Column_69=2
Column_70=2
Column_72=2
Column_77=2
Column_54=1
Column_60=1
Column_67=1
Column_74=1

parameters:
[boosting: gbdt]
[objective: binary]
[metric: binary_logloss]
[tree_learner: serial]
[device_type: cpu]
[data: ]
[valid: ]
[num_iterations: 10000]
[learning_rate: 0.1]
[num_leaves: 15]
[num_threads: 0]
[force_col_wise: 0]
[force_row_wise: 0]
[histogram_pool_size: -1]
[max_depth: -1]
[min_data_in_leaf: 10]
[min_sum_hessian_in_leaf: 0.001]
[bagging_fraction: 0.8]
[pos_bagging_fraction: 1]
[neg_bagging_fraction: 1]
[bagging_freq: 0]
[bagging_seed: 10961]
[feature_fraction: 0.8]
[feature_fraction_bynode: 1]
[feature_fraction_seed: 53]
[extra_trees: 0]
[extra_seed: 11644]
[early_stopping_round: 50]
[first_metric_only: 0]
[max_delta_step: 0]
[lambda_l1: 0]
[lambda_l2: 0]
[min_gain_to_split: 0]
[drop_rate: 0.1]
[max_drop: 50]
[skip_drop: 0.5]
[xgboost_dart_mode: 0]
[uniform_drop: 0]
[drop_seed: 30626]
[top_rate: 0.2]
[other_rate: 0.1]
[min_data_per_group: 100]
[max_cat_threshold: 32]
[cat_l2: 10]
[cat_smooth: 10]
[max_cat_to_onehot: 4]
[top_k: 20]
[monotone_constraints: ]
[monotone_constraints_method: basic]
[monotone_penalty: 0]
[feature_contri: ]
[forcedsplits_filename: ]
[refit_decay_rate: 0.9]
[cegb_tradeoff: 1]
[cegb_penalty_split: 0]
[cegb_penalty_feature_lazy: ]
[cegb_penalty_feature_coupled: ]
[path_smooth: 0]
[interaction_constraints: ]
[verbosity: -1]
[saved_feature_importance_type: 0]
[max_bin: 255]
[max_bin_by_feature: ]
[min_data_in_bin: 3]
[bin_construct_sample_cnt: 200000]
[data_random_seed: 4071]
[is_enable_sparse: 1]
[enable_bundle: 1]
[use_missing: 1]
[zero_as_missing: 0]
[feature_pre_filter: 1]
[pre_partition: 0]
[two_round: 0]
[header: 0]
[label_column: ]
[weight_column: ]
[group_column: ]
[ignore_column: ]
[categorical_feature: ]
[forcedbins_filename: ]
[objective_seed: 602]
[num_class: 1]
[is_unbalance: 0]
[scale_pos_weight: 1]
[sigmoid: 1]
[boost_from_average: 1]
[reg_sqrt: 0]
[alpha: 0.9]
[fair_c: 1]
[poisson_max_delta_step: 0.7]
[tweedie_variance_power: 1.5]
[lambdarank_truncation_level: 20]
[lambdarank_norm: 1]
[label_gain: ]
[eval_at: ]
[multi_error_top_k: 1]
[auc_mu_weights: ]
[num_machines: 1]
[local_listen_port: 12400]
[time_out: 120]
[machine_list_filename: ]
[machines: ]
[gpu_platform_id: -1]
[gpu_device_id: -1]
[gpu_use_dp: 0]

end of parameters

pandas_categorical:null
