tree
version=v3
num_class=1
num_tree_per_iteration=1
label_index=0
max_feature_idx=77
objective=binary sigmoid:1
feature_names=Column_0 Column_1 Column_2 Column_3 Column_4 Column_5 Column_6 Column_7 Column_8 Column_9 Column_10 Column_11 Column_12 Column_13 Column_14 Column_15 Column_16 Column_17 Column_18 Column_19 Column_20 Column_21 Column_22 Column_23 Column_24 Column_25 Column_26 Column_27 Column_28 Column_29 Column_30 Column_31 Column_32 Column_33 Column_34 Column_35 Column_36 Column_37 Column_38 Column_39 Column_40 Column_41 Column_42 Column_43 Column_44 Column_45 Column_46 Column_47 Column_48 Column_49 Column_50 Column_51 Column_52 Column_53 Column_54 Column_55 Column_56 Column_57 Column_58 Column_59 Column_60 Column_61 Column_62 Column_63 Column_64 Column_65 Column_66 Column_67 Column_68 Column_69 Column_70 Column_71 Column_72 Column_73 Column_74 Column_75 Column_76 Column_77
feature_infos=[0.0056756030013792001:0.62609382483227738] [0.003990997882719889:0.62207135271318592] [0.0048099989797633037:0.71356635758517795] [0.0029009541265427449:0.63611740955842344] [0.0043165968277844632:0.63143634036460639] [0.0033710549346267263:0.61139600371527403] [0.0068914067188254316:0.68604930783120388] [0.0084698663437468933:0.61327389249024677] [0.016535952407699474:0.72705371771439364] [0.0030612604391404286:0.75958207217581364] [0.003746517833449712:0.76566786161626954] [0.0076577062718570232:0.83473736047744751] [0.0070971441455185413:0.8679804801940918] [0.036014811852781069:0.79134186368463733] [0.002136752136752137:1] [0:1] [0:1] [0:0.80687027601446093] [1.2302117550967357e-07:0.97287506535960644] [0:1] [0:0.48334086123939846] [0:0.89502163219344522] [0:0.011404009814626677] [0:0.89502163219344522] [0:0.011404009814626677] [0:0.30987844163486572] [0:0.20046534263243324] [0.0048403742429264469:0.54764290234127821] [0:1] [0:0.89692722371967648] [0:0.51225653206650834] [0:0.48334086123939846] [0:0.50814353550001423] [0:0.99738304242929099] [0:0.3313726180831954] [0:1] [0:0.75314960629921257] [0:1] [0:1] [0:1] [0:0.21112019623875716] [0:1] [0:0.6433689782239228] [0:0.79913836121014803] [0:0.95994832041343658] [0:0.16764932972248303] [0:0.18439897370542899] [0:1] [0:0.52844299306563458] [0:1] [0:1] [0.80870712979890313:0.85213053016453388] [0:0.544342529523131] [0:0.58931634643715802] [0.0059419582893115493:0.60780116101916304] [0:1] [0:1] [0:1] [0:1] [0:0.90687075414911] [0:0.048127652519893899] [0:0.50063639686982819] [0:0.050371516771864064] [0:0.53406024943117869] [0:0.77762837500000004] [0:0.53955774036618609] [0:0.94572864321608052] [0:0.89681857265692166] [0:1] [0:1] [0:0.79670207234643098] [0.6686273819168046:1] [0:1] [0:1] [0:1] [0:1] [0:0.79830039372850981] [-104.73999999999999:696.33000000000004]
tree_sizes=1685 1681 1684 1679 1688 1687 1678 1684 1682 1691 1706 1687 1700 1698 1697 1703 1693 1688 1703 1696 1693 1697 1689 1690 1699 1684

Tree=0
num_leaves=15
num_cat=0
split_feature=0 0 0 71 1 37 14 27 33 33 19 68 32 75
split_gain=260.628 60.4735 17.1714 9.81104 17.0156 12.1358 13.2902 15.8088 12.263 11.6624 10.7439 10.6056 12.0866 10.0769
threshold=0.21228366309896959 0.43292865247800261 0.32676788316302025 0.82448296408486266 0.43089775317965245 0.99770452351636874 0.39553393890094002 0.015106724771747975 0.82033171705423313 0.82072661830927263 0.14553751174339016 0.59691659646166817 0.00022036452557650207 0.13699138390901944
decision_type=2 2 2 2 2 2 2 2 2 2 2 2 2 2
left_child=-1 2 -2 5 10 6 7 -4 -7 -10 13 12 -9 -5
right_child=1 -3 3 4 -6 8 -8 11 9 -11 -12 -13 -14 -15
leaf_value=-0.96646489517233447 -0.85091523756102805 -0.74213309711811837 -0.80380928059376167 -0.63838020666936113 -0.98098667646672844 -0.85637389847383971 -0.87685487889229397 -0.63217918459158051 -0.58567151900822734 -0.80469748462712665 -0.60723416396050922 -0.53032739696403719 -0.8366107059166672 -0.84326397644892803
leaf_weight=123.95173591375351 143.7671494781971 120.15729501843452 17.496588572859764 3.7944408953189903 2.5296272635459891 70.618761107325554 8.6428931504487974 7.1672772467136401 2.5296272635459891 62.397472500801086 6.9564749747514716 4.2160454392433158 4.8484522551298141 6.5348704308271408
leaf_count=588 682 570 83 18 12 335 41 34 12 296 33 20 23 31
internal_value=-0.837717 -0.803149 -0.824618 -0.805497 -0.738751 -0.812931 -0.766218 -0.737868 -0.827533 -0.796164 -0.703302 -0.666788 -0.714669 -0.768001
internal_weight=0 461.657 341.5 197.733 19.8154 177.917 42.3713 33.7284 135.546 64.9271 17.2858 16.2318 12.0157 10.3293
internal_count=2778 2190 1620 938 94 844 201 160 643 308 82 77 57 49
shrinkage=1


Tree=1
num_leaves=15
num_cat=0
split_feature=0 0 1 10 11 62 16 2 27 32 72 70 17 77
split_gain=220.559 46.2833 14.2233 9.76095 9.6431 9.40038 8.95894 16.7045 12.7594 15.4413 12.1282 12.0533 10.5611 9.79322
threshold=0.21228366309896959 0.43292865247800261 0.30249854277165789 0.38586776744631873 0.60410505533218395 0.038760218847330566 0.52916666666666679 0.44743299835834366 0.014753612107150392 0.00013221871534590125 0.97206273350294536 0.0037231671989898245 0.24667609965328013 0.18500000000000003
decision_type=2 2 2 2 2 2 2 2 2 2 2 2 2 2
left_child=-1 2 3 -2 5 -4 7 8 13 -10 -11 -9 -13 -3
right_child=1 6 4 -5 -6 -7 -8 11 9 10 -12 12 -14 -15
leaf_value=-0.12270868777125524 -0.026783956407187351 0.10981886631602011 0.079093182680516017 0.11004884300595473 0.20913505374998029 0.015762468995128839 0.049118005471366244 0.19154223059666897 0.15987442693791751 0.15749082881306528 -0.10781400595309905 0.20020490721041762 0.033872498475899904 -0.088936546556275836
leaf_weight=117.38727200031281 97.379977598786354 3.4961149692535392 26.367166861891747 5.5081723928451529 2.8101715147495261 210.96221588551998 48.290088012814522 24.47280478477478 13.984459877014162 2.6220862269401541 5.0256652683019638 5.462679639458659 12.673416763544081 8.5217802375555021
leaf_count=588 464 16 124 26 13 993 221 112 64 12 23 25 58 39
internal_value=0 0.0306083 0.0116504 -0.0194585 0.024979 0.0227985 0.0828215 0.104164 0.0514981 0.0973953 -0.0168523 0.145756 0.0839726 -0.0311168
internal_weight=0 467.577 343.028 102.888 240.14 237.329 124.549 76.259 33.6501 21.6322 7.64775 42.6089 18.1361 12.0179
internal_count=2778 2190 1620 490 1130 1117 570 349 154 99 35 195 83 55
shrinkage=0.1


Tree=2
num_leaves=15
num_cat=0
split_feature=1 4 13 68 19 8 76 28 31 4 13 6 4 42
split_gain=187.747 34.8767 13.7061 9.42763 10.7484 11.6183 13.1314 10.3345 9.43746 8.68424 10.0925 11.5551 10.2003 9.71496
threshold=0.18177817253035128 0.34373013074565917 0.47357639631446496 0.59324347093513075 0.16261575627432562 0.50618677969691539 4.738789835431387e-05 0.18581381093463897 0.1174529388509364 0.34869020052706434 0.26562619108039748 0.34946803175533153 0.51538168480477276 0.012438096842931399
decision_type=2 2 2 2 2 2 2 2 2 2 2 2 2 2
left_child=-1 -2 9 -4 5 7 -7 -5 -6 13 -11 -12 -13 -3
right_child=1 2 3 4 8 6 -8 -9 -10 10 11 12 -14 -15
leaf_value=-0.12397524484322003 -0.0086114590157888079 0.17376791966510313 -0.00059945791190892767 0.164776842686784 0.16988816100259374 0.17440426404246159 0.024356893105155236 -0.059334056657456752 -0.069971752963821576 -0.026202083624711166 -0.036831087693309943 0.0513379637261559 -0.092076271123630218 -0.057879719160529079
leaf_weight=101.37485593557358 183.11471734941006 8.1403615027666074 12.098887175321577 31.002044141292572 2.1940997391939145 7.9292454719543484 22.056918323040009 2.2038754671812049 6.4996717125177383 28.618879690766335 18.535572379827499 151.88683651387691 5.1267991960048667 2.3282572329044333
leaf_count=537 875 38 55 139 10 35 98 10 30 134 87 696 23 11
internal_value=0 0.0257492 0.0468192 0.0810682 0.0948134 0.109156 0.0640339 0.149903 -0.00943685 0.033418 0.0288632 0.0378402 0.0466552 0.122249
internal_weight=0 481.736 298.621 83.9847 71.8859 63.1921 29.9862 33.2059 8.69377 214.637 204.168 175.549 157.014 10.4686
internal_count=2778 2241 1366 377 322 282 133 149 40 989 940 806 719 49
shrinkage=0.1


Tree=3
num_leaves=15
num_cat=0
split_feature=0 0 12 56 23 15 18 37 8 31 17 13 32 71
split_gain=161.432 29.2353 10.6303 13.0457 9.32033 8.3902 8.7726 9.11149 13.0467 12.1294 9.18283 8.62489 12.4317 11.9081
threshold=0.21228366309896959 0.43292865247800261 0.30335898697376257 0.00034314593042691688 0.40865584069223027 0.40374564459930318 0.31934579680415914 0.99770326785550223 0.26902624469735897 0.11859369325777931 0.37264884306550722 0.27778483930613879 0.00011231482271318491 0.82080809059208915
decision_type=2 2 2 2 2 2 2 2 2 2 2 2 2 2
left_child=4 2 5 -4 -1 6 7 -2 9 -9 -11 13 -13 -7
right_child=1 -3 3 -5 -6 11 -8 8 -10 10 -12 12 -14 -15
leaf_value=-0.11740087896024841 -0.046624670656916112 0.064725772321109251 0.019875873576691593 0.22196140858912902 0.085373636727367641 0.10187267484168039 -0.089331078811231646 0.14833035927137858 -0.029887704861248907 -0.030179807410580489 0.14768087167919772 0.040828283700648615 0.30607050882443687 -0.1420366195725479
leaf_weight=102.21188706159592 41.992566704750061 130.19926846027374 210.04461176693439 3.2437850385904303 2.3181646466255179 4.0527517497539538 16.783281996846199 10.660955816507341 30.772913321852684 12.501368373632433 3.7806616574525824 5.3631901443004599 2.6353148221969604 3.9549836218357086
leaf_count=575 202 570 973 15 13 19 80 51 146 60 18 25 12 19
internal_value=0 0.0243374 0.00912987 0.0229493 -0.112904 -0.0131159 -0.0224437 -0.011185 0.0146 0.0654117 0.0111192 0.0547708 0.128219 -0.018593
internal_weight=0 475.986 345.786 213.288 104.53 132.498 116.492 99.7085 57.7159 26.943 16.282 16.0062 7.9985 8.00774
internal_count=2778 2190 1620 988 588 632 557 477 275 129 78 75 37 38
shrinkage=0.1


Tree=4
num_leaves=15
num_cat=0
split_feature=0 0 12 4 64 5 18 13 63 73 77 3 9 70
split_gain=139.555 25.4652 11.0518 9.57658 8.85954 8.85001 8.53046 9.04339 8.39924 8.38619 8.31245 8.89775 7.85146 9.26911
threshold=0.17666983583487672 0.41929768957930785 0.24031309783458712 0.24239716386413526 0.74384037500000011 0.40440077937660718 0.30647505858931418 0.53861318198734487 0.0032143378077231781 0.94279750967764964 0.49500000000000005 0.32042914019374175 0.48485897094657626 0.00075206120478348069
decision_type=2 2 2 2 2 2 2 2 2 2 2 2 2 2
left_child=-1 2 -2 8 -5 9 7 -3 -4 -6 11 -11 -8 -14
right_child=1 6 3 4 5 -7 12 -9 -10 10 -12 -13 13 -15
leaf_value=-0.11743197354935982 -0.029571628353685677 -0.034437850108769749 0.29279602562909335 0.0032535863622629442 -0.10252624478832616 -0.019635706887674659 0.085931863202816969 0.14712523827188659 0.025666729746079427 -0.044900513370955242 0.2367498938150201 0.10246271803063134 -0.10749654748430289 0.047546978087612095
leaf_weight=86.677184924483299 73.293511345982552 17.454338118433956 2.2922040969133368 213.1863878518343 2.3476516008377066 12.441824585199354 70.748464941978455 3.2548932731151572 2.4194532930850983 5.0595178008079591 3.5797666162252417 21.545392319560051 4.1262649148702613 58.858298569917679
leaf_count=522 364 77 11 992 11 57 308 14 12 24 16 99 18 253
internal_value=0 0.020209 0.00476668 0.0143408 0.0117623 0.0520951 0.0538215 -0.00590137 0.155624 0.0795282 0.0936877 0.0744383 0.0630699 0.0373897
internal_weight=0 490.608 336.166 262.872 258.161 44.9742 154.442 20.7092 4.71166 32.5323 30.1847 26.6049 133.733 62.9846
internal_count=2778 2256 1586 1222 1199 207 670 91 23 150 139 123 579 271
shrinkage=0.1


Tree=5
num_leaves=15
num_cat=0
split_feature=1 0 4 59 9 13 18 33 37 8 32 69 17 60
split_gain=121.89 19.623 8.91493 7.35882 7.21743 7.47838 6.70777 9.38394 8.29797 6.7204 7.42828 9.50434 9.37891 9.54865
threshold=0.18177817253035128 0.41929768957930785 0.29929028699786775 0.16325565396852698 0.44756164038652102 0.50280955797944593 0.30647505858931418 0.82274827697313102 0.99770482791900306 0.53400378528435011 0.00013221871534590125 0.0028555817681729799 0.21730135654472429 0.036452676005747135
decision_type=2 2 2 2 2 2 2 2 2 2 2 2 2 2
left_child=3 2 -2 -1 5 -4 7 8 -3 10 11 -8 -12 -14
right_child=1 6 4 -5 -6 -7 9 -9 -10 -11 12 -13 13 -15
leaf_value=-0.11654877329921715 -0.021145686689615348 0.10865276923765965 0.015711322945211253 0.086416168628563744 -0.047938143244718921 0.10027544881380993 0.092271296554236978 0.16605119971427762 -0.064948683533054816 0.014524450670904672 0.20663685899585624 -0.034205028013500137 -0.035844040297284024 0.12813798881544039
leaf_weight=81.778293013572693 94.701706647872925 3.4004800468683305 211.04546298086643 1.8262399435043324 16.874218106269836 11.002887368202208 74.823504343628883 2.7650050520896903 14.468741670250891 30.56198662519455 2.396276623010638 6.4541094601154319 17.142238318920139 4.4787579774856559
leaf_count=527 468 15 977 10 77 49 318 12 64 130 10 28 74 19
internal_value=0 0.0185229 0.00481881 -0.112115 0.0151104 0.0199016 0.0477387 -0.00538531 -0.0319126 0.0558073 0.0677897 0.082228 0.0189285 -0.0018754
internal_weight=0 490.115 333.624 83.6045 238.923 222.048 156.491 20.6342 17.8692 135.857 105.295 81.2776 24.0173 21.621
internal_count=2778 2241 1571 537 1103 1026 670 91 79 579 449 346 103 93
shrinkage=0.1


Tree=6
num_leaves=15
num_cat=0
split_feature=9 0 36 77 77 71 76 48 37 77 2 3 12 33
split_gain=106.39 16.9263 9.45171 9.13331 13.0365 8.92229 9.16529 10.5871 7.98952 7.25095 7.85485 7.24806 9.32272 8.09605
threshold=0.12875264933131061 0.32676788316302025 0.4261811023622048 1.7050000000000003 3.6900000000000004 0.82448296408486266 7.8153105217977508e-06 1.4412997903563942e-05 0.99770400032434103 1.8950000000000002 0.2959517104550361 0.43509194693969205 0.62172287702560436 0.81427852915982302
decision_type=2 2 2 2 2 2 2 2 2 2 2 2 2 2
left_child=2 3 -1 -2 9 11 -7 -8 -9 -5 -11 13 -13 -3
right_child=1 5 -4 4 -6 6 7 8 -10 10 -12 12 -14 -15
leaf_value=-0.11694979574026974 -0.018004911341746872 -0.041184223767802931 0.14268276812512454 0.29946773399465781 -0.14318750182559611 0.20105622956631045 -0.087413794042843995 -0.067134231080219334 0.096164144789667505 -0.058563948117021959 0.17196561478230515 0.055531217222138586 -0.054603089742012979 0.019634112998135556
leaf_weight=73.071051076054573 142.7743444442749 24.846447452902794 1.4295736700296391 2.0394198000431043 2.1002756506204596 4.9384045451879492 4.5098717957735053 3.3895391821861294 25.812202051281929 2.4211606979370117 3.7943641543388367 86.397326186299324 8.4364561885595304 183.81941656768322
leaf_count=498 715 113 8 10 10 21 20 15 112 12 18 365 36 825
internal_value=0 0.0162057 -0.111968 -0.0114277 0.0792561 0.0285731 0.0738247 0.0551866 0.0772096 0.135852 0.0821664 0.0228104 0.0457336 0.0123923
internal_weight=0 495.279 74.5006 153.13 10.3552 342.15 38.65 33.7116 29.2017 8.25494 6.21552 303.5 94.8338 208.666
internal_count=2778 2272 506 765 50 1507 168 147 127 40 30 1339 401 938
shrinkage=0.1


Tree=7
num_leaves=15
num_cat=0
split_feature=1 12 16 71 60 17 64 70 27 5 71 71 7 54
split_gain=92.9037 13.8957 9.31423 8.78521 11.0917 9.59188 11.3772 8.18267 8.14859 9.86661 9.20165 9.81964 7.65362 10.1345
threshold=0.18177817253035128 0.30335898697376257 0.38207070707070712 0.82424080988106574 0.036399597977453589 0.42236406976000179 0.74377968750000012 0.0020704894897125461 0.014664721879049028 0.4347330396834907 0.82156243762694758 0.82339914057271668 0.45763864446606839 0.018315990484359074
decision_type=2 2 2 2 2 2 2 2 2 2 2 2 2 2
left_child=-1 2 -2 12 -5 6 -6 -7 -4 10 -10 -12 -3 -14
right_child=1 3 8 4 5 7 -8 -9 9 -11 11 -13 13 -15
leaf_value=-0.10598961353738022 -0.02268771384267736 0.011431971197358235 -0.11362358923349057 0.18284793075726491 -0.027981038955083543 0.052037351011994727 0.10028261017181644 -0.15342882850773784 0.11971421548708649 0.2448541929408759 -0.10863041212977008 0.094219187128406989 0.032056095006456793 0.14067082423647995
leaf_weight=72.861602067947388 119.07588744163513 242.69406050443649 2.8078853935003307 6.8151345402002326 9.3033290654420835 3.7174401730298987 26.944453001022339 4.0498638302087784 8.1203215569257789 2.7350692301988593 5.7312588691711408 4.0890468209981918 46.381083086133003 10.543515443801878
leaf_count=537 591 1082 13 29 41 16 116 18 37 12 28 19 194 45
internal_value=0 0.0149861 -0.0113364 0.0256939 0.0641342 0.045753 0.0673626 -0.0550925 0.0462215 0.0679295 0.0409571 -0.0241665 0.0191725 0.0521736
internal_weight=0 493.008 142.559 350.449 50.8302 44.0151 36.2478 7.7673 23.4836 20.6757 17.9406 9.82031 299.619 56.9246
internal_count=2778 2241 700 1541 220 191 157 34 109 96 84 47 1321 239
shrinkage=0.1


Tree=8
num_leaves=15
num_cat=0
split_feature=9 1 43 13 8 42 5 28 24 37 42 32 42 72
split_gain=82.05 11.7422 8.44967 7.08999 10.5576 7.6073 8.53647 6.64526 7.31344 6.52132 5.87539 6.63171 5.56574 7.37827
threshold=0.12875264933131061 0.30249854277165789 0.0047156915329512354 0.52961232840970474 0.50618677969691539 0.0080270546104542293 0.47420452232729987 0.18471751789826088 0.00041216366932227843 0.99770862819564032 0.01818805321249772 6.6820210981261921e-05 0.0042061667624227932 0.97254979486121618
decision_type=2 2 2 2 2 2 2 2 2 2 2 2 2 2
left_child=2 7 -1 -3 10 6 -6 -2 -9 -7 -5 -12 -10 -14
right_child=1 3 -4 4 5 9 -8 8 12 -11 11 -13 13 -15
leaf_value=-0.11199873623983075 -0.023366658912315978 0.016065201157817136 0.13200737970360418 0.13162984601406189 0.067073247176964598 -0.072034713114587312 -0.12009227959733336 0.17082490468681366 -0.13450186147447649 0.084140532463236425 0.12913294230436459 -0.077805629695730724 0.15812954138780649 -0.089939568209280299
leaf_weight=63.268895700573921 100.9357804954052 332.56526276469231 1.4517463892698277 18.434063553810123 3.7922597676515597 3.3042530119419125 6.817882627248764 3.7971871942281705 2.1712286174297333 14.01060977578163 2.9157138317823401 3.3028305768966675 2.9529673904180527 2.0185481905937195
leaf_count=498 522 1476 8 76 16 14 29 19 12 58 12 14 14 10
internal_value=0 0.0131759 -0.106525 0.02146 0.0555832 0.0134798 -0.0531959 -0.015343 0.0586863 0.0543371 0.103275 0.0192225 -0.000928252 0.0574079
internal_weight=0 497.019 64.7206 385.143 52.5776 27.925 10.6101 111.876 10.9399 17.3149 24.6526 6.21854 7.14274 4.97152
internal_count=2778 2272 506 1695 219 117 45 577 55 72 102 26 36 24
shrinkage=0.1


Tree=9
num_leaves=15
num_cat=0
split_feature=1 11 19 72 39 60 19 46 49 8 1 10 77 14
split_gain=72.293 12.055 12.9069 14.6475 8.77095 9.5494 7.93909 11.2446 10.5815 10.9448 9.80197 8.05508 8.33137 7.81108
threshold=0.11992217309839164 0.31278118491172796 0.20534156489061869 0.9713426467105214 0.82175395958813247 0.036411769175508403 0.070762313783384795 0.077655426840568573 0.00036704970918595626 0.28630919588389836 0.25168487705550618 0.40151133922278931 2.5150000000000001 0.17377771029456426
decision_type=2 2 2 2 2 2 2 2 2 2 2 2 2 2
left_child=-1 6 -3 -4 -5 -6 7 -2 11 -10 -9 12 13 -8
right_child=1 2 3 4 5 -7 8 10 9 -11 -12 -13 -14 -15
leaf_value=-0.11312475573486347 -0.077458618678009822 0.029930594042116856 0.18276076681836961 -0.085345643016591366 0.03246118605703565 -0.12791298621697791 0.14346844894264296 -0.069311628754768748 -0.056677157594995677 0.19777457561562142 0.25798326740022665 0.10837950719732126 0.16679085239893315 -0.020357943005508135
leaf_weight=51.817902743816376 28.108460903167728 287.59896846115589 3.1618954688310614 22.023064211010933 19.518931657075886 4.5849987566471091 2.9836813658475867 1.686356753110885 2.5224907994270316 5.1247099041938782 2.0005329698324203 5.7611307352781287 2.5364042222499839 118.39522922039032
leaf_count=456 146 1245 14 101 89 21 21 10 13 23 10 26 12 591
internal_value=0 0.0108915 0.0218275 -0.0254535 -0.0397261 0.00195515 -0.0108931 -0.0559208 -0.000467596 0.113842 0.108281 -0.00720857 -0.0125825 -0.0163308
internal_weight=0 506.007 336.888 49.2889 46.127 24.1039 169.119 31.7954 137.324 7.6472 3.68689 129.676 123.915 121.379
internal_count=2778 2322 1470 225 211 110 852 166 686 36 20 650 624 612
shrinkage=0.1


Tree=10
num_leaves=15
num_cat=0
split_feature=7 11 19 68 42 19 26 17 39 11 10 70 48 72
split_gain=64.3629 9.30517 10.4006 8.50813 8.98865 8.90668 7.41991 8.00347 13.0422 7.81739 7.04475 7.53206 9.55407 9.21089
threshold=0.12800350819974518 0.31278118491172796 0.12847939873842443 0.59978096040438078 0.0042247864625984104 0.15181183733727019 0.079507105101797607 0.29780704362580479 0.82430024773108856 0.3032629936933518 0.22224859189213325 0.00099346356681274625 1.2699564586357041e-05 0.97370919189835503
decision_type=2 2 2 2 2 2 2 2 2 2 2 2 2 2
left_child=-1 3 10 6 5 -5 7 8 -2 -9 -3 -12 13 -13
right_child=1 2 -4 4 -6 -7 -8 9 -10 -11 11 12 -14 -15
leaf_value=-0.11007564646887452 -0.025064216617397113 0.1826807547473564 -0.00011237887577366398 -0.039443186760897191 0.0072096760030202732 0.21794170461785375 0.11677245933137897 -0.086887766481677231 0.13980204895359943 0.10102214353830992 -0.0079797813600535148 -0.026224689366650268 0.056552203883690914 0.11797397910821227
leaf_weight=49.002836376428604 62.921094790101051 3.1840719282627097 150.06037117540836 1.9889274835586537 57.256275355815887 4.1492709815502167 3.4719014167785636 29.865373693406582 5.1944209784269324 2.3911795169115058 36.569800287485123 28.642511963844299 114.07108803093433 5.24017509818077
leaf_count=462 331 14 669 10 272 20 18 162 25 11 159 121 482 22
internal_value=0 0.00996193 0.0195135 -0.00932907 0.0195387 0.134543 -0.0269522 -0.0319237 -0.0124917 -0.072958 0.0352031 0.0326582 0.0427028 -0.00392344
internal_weight=0 505.006 337.768 167.238 63.3945 6.1382 103.844 100.372 68.1155 32.2566 187.708 184.524 147.954 33.8827
internal_count=2778 2316 1467 849 302 30 547 529 356 173 798 784 625 143
shrinkage=0.1


Tree=11
num_leaves=15
num_cat=0
split_feature=1 2 15 12 76 30 0 3 68 3 1 44 68 11
split_gain=56.6628 8.29427 12.6364 7.27358 6.70371 6.03447 6.16942 6.99286 6.60632 7.20964 5.6913 6.8349 8.17079 5.73739
threshold=0.11992217309839164 0.47231709555459117 0.53446327683615824 0.42919799685478216 0.00015690145270418784 0.0052375296912114027 0.48184732929073854 0.48887811722314051 0.59796124684077523 0.50578603899591223 0.30249854277165789 0.62661498708010355 0.59172704296545919 0.47323030233383184
decision_type=2 2 2 2 2 2 2 2 2 2 2 2 2 2
left_child=-1 10 3 -3 5 6 -4 -8 -9 -10 -2 12 13 -12
right_child=1 2 4 -5 -6 -7 7 8 9 -11 11 -13 -14 -15
leaf_value=-0.10979858295514806 -0.015502392545857988 -0.018848052462686983 0.12532889920211257 0.10100584881448299 0.10275672770672997 -0.099041943640810259 -0.14236135857411888 -0.050090933868341951 0.19101666962758096 0.0039024898281418865 -0.024898572933872872 0.14438860456268707 0.012976216699883714 -0.15530319169727824
leaf_weight=43.7909971550107 115.91828488558531 6.0617841184139243 3.6382401436567333 30.743563577532768 5.3418988138437262 7.1794906109571448 3.6143644750118282 9.074532553553583 3.2098899930715543 5.7442638874053955 15.257119268178942 3.7620144933462134 292.52276717126369 4.3317783027887335
leaf_count=456 617 26 15 126 22 30 15 38 13 24 71 16 1290 19
internal_value=0 0.00876918 0.0395575 0.0812661 -0.00105062 -0.0181336 0.00484304 -0.0154109 0.01004 0.0709793 0.00344935 0.0104042 0.00878922 -0.0537355
internal_weight=0 506.4 74.608 36.8053 37.8027 32.4608 25.2813 21.6431 18.0287 8.95415 431.792 315.874 312.112 19.5889
internal_count=2778 2322 309 152 157 135 105 90 75 37 2013 1396 1380 90
shrinkage=0.1


Tree=12
num_leaves=15
num_cat=0
split_feature=7 15 71 42 37 15 12 48 76 42 1 28 62 7
split_gain=50.4963 7.07993 7.34569 9.40029 8.18192 9.46943 8.82773 9.82478 8.88563 8.17348 7.3571 6.56094 8.63684 8.74152
threshold=0.12800350819974518 0.40374564459930318 0.82448296408486266 0.004947541320993387 0.99770806219699215 0.54052388289676434 0.35771091282367712 0.00027354458958232547 0.00026459621123446148 0.007165396396961665 0.30660598760505647 0.16947550826345614 0.038757435021085425 0.14625457333617889
decision_type=2 2 2 2 2 2 2 2 2 2 2 2 2 2
left_child=-1 11 4 -4 5 6 7 -3 -8 -5 -6 -2 -13 -14
right_child=1 2 3 9 10 -7 8 -9 -10 -11 -12 12 13 -15
leaf_value=-0.10673997743436872 -0.030876704243585081 0.017819657103560455 0.18200439259938511 -0.10428520042413275 -0.11357036079012897 -0.10454683613020077 0.020573357302560817 0.17692951281517619 -0.068227124218739083 0.074384652775387361 0.037237702825481889 0.11947791161247959 0.26690373405293766 0.0010419262784703215
leaf_weight=41.465690948069096 61.861230820417404 15.482177384197714 6.1598191708326366 3.2790142446756354 3.3328540027141562 9.2410163134336454 23.959153801202774 5.1790898740291587 21.273439466953278 11.682579413056372 110.03558547794819 6.4920497536659232 1.2435423359274853 225.74816334247589
leaf_count=462 318 70 25 14 16 41 101 22 92 49 462 29 8 1069
internal_value=0 0.00805479 0.0221096 0.0780329 0.0158435 -0.00974785 0.00354685 0.0577032 -0.0211906 0.035227 0.0328042 -0.00192079 0.00575104 0.00249841
internal_weight=0 504.97 209.625 21.1214 188.503 75.1349 65.8939 20.6613 45.2326 14.9616 113.368 295.345 233.484 226.992
internal_count=2778 2316 892 88 804 326 285 92 193 63 478 1424 1106 1077
shrinkage=0.1


Tree=13
num_leaves=15
num_cat=0
split_feature=1 13 68 12 13 19 22 48 13 30 62 38 62 30
split_gain=44.8872 6.34908 9.31746 12.8976 8.17518 9.65679 8.97968 10.6835 7.7233 10.0174 7.45067 9.75148 7.17881 6.98634
threshold=0.11992217309839164 0.30442064949205894 0.60084245998315089 0.46860548853874212 0.32110214425162525 0.12847939873842443 0.00045836332625841226 0.00034288824383164011 0.2960861777336295 0.0049228028503562954 0.038763932912543764 0.00023987915976952771 0.038770878696838575 0.0012767220902612829
decision_type=2 2 2 2 2 2 2 2 2 2 2 2 2 2
left_child=-1 2 -2 8 6 13 7 -3 9 10 11 -4 -8 -6
right_child=1 4 3 -5 5 -7 12 -9 -10 -11 -12 -13 -14 -15
leaf_value=-0.10709360461059558 -0.024144684160440185 0.0088303718353177976 -0.010554502460476511 0.25038667263872133 -0.0051105447653217737 -0.011270289979129018 0.26984608170736796 0.2323003376520697 -0.082762466712709107 0.21349243593162323 0.0017643829450751524 0.19634871430097264 0.06170621170729134 0.039504736742645853
leaf_weight=36.922962874174118 120.89831257611513 17.843879520893104 4.2812404781579954 2.3697586506605139 49.881599768996239 115.45520249009132 3.4415839165449134 2.4307477772235861 7.499874845147132 2.6864547282457343 52.654472306370735 4.8680190294981003 3.1958156675100327 118.42508736252785
leaf_count=456 632 81 20 10 215 510 15 10 35 12 250 22 14 496
internal_value=0 0.00711761 -0.00701287 0.020841 0.0159986 0.0110029 0.0686731 0.0356224 0.0132848 0.0244546 0.0162376 0.0995319 0.16963 0.026282
internal_weight=0 505.932 195.258 74.3598 310.674 283.762 26.912 20.2746 71.9901 64.4902 61.8037 9.14926 6.6374 168.307
internal_count=2778 2322 981 349 1341 1221 120 91 339 304 292 42 29 711
shrinkage=0.1


Tree=14
num_leaves=15
num_cat=0
split_feature=5 40 13 8 32 7 1 30 77 60 70 8 42 11
split_gain=39.9715 5.77569 5.41947 7.95767 5.54648 5.40698 8.10362 7.33523 6.37474 7.72126 4.86591 7.32601 7.69206 6.70571
threshold=0.11888652330868238 0.15793131643499594 0.52961232840970474 0.50618677969691539 0.00019633768375558022 0.46115491359454369 0.44332665007367567 0.0047209026128266045 0.03500000000000001 0.036435628039345712 0.0016991012404367529 0.49690183285047246 0.0057757604727292121 0.21616840362548831
decision_type=2 2 2 2 2 2 2 2 2 2 2 2 2 2
left_child=-1 2 10 4 -4 6 -5 8 -7 -10 11 -2 -13 -12
right_child=1 -3 3 5 -6 7 -8 -9 9 -11 13 12 -14 -15
leaf_value=-0.10600887894263174 -0.0039865654131119232 -0.13000471584732065 0.092639626136733058 0.10760762243709535 -0.060943100422811772 0.16184706015736236 -0.1005931072546169 -0.078745542657338324 -0.080331051332001746 0.11336761182081244 -0.038797242759641623 0.049785800143942897 -0.1709500063055468 0.018600488375262042
leaf_weight=33.751307897269726 199.36065245419741 3.0856450498104087 23.293947204947475 2.3965120017528561 2.6154510825872412 4.9327584654092815 8.500301241874693 4.2801690697669974 4.0500531494617444 4.1839246898889542 22.441287219524384 2.2571378648281089 5.2521742880344391 218.86278642714024
leaf_count=453 949 19 96 10 11 20 36 18 17 17 132 10 22 968
internal_value=0 0.00639062 0.00722829 0.0370789 0.0771361 0.000462042 -0.054804 0.0349795 0.0719487 0.0180929 0.00361477 -0.00763886 -0.104602 0.0132625
internal_weight=0 505.513 502.427 54.2531 25.9094 28.3437 10.8968 17.4469 13.1667 8.23398 448.174 206.87 7.50931 241.304
internal_count=2778 2325 2306 225 107 118 46 72 54 34 2081 981 32 1100
shrinkage=0.1


Tree=15
num_leaves=15
num_cat=0
split_feature=5 40 7 8 70 1 70 76 72 15 48 22 19 19
split_gain=35.5656 5.03884 4.26382 5.72144 5.14202 5.69266 6.89726 5.48989 8.55903 8.53533 8.05616 6.45757 5.50733 5.94879
threshold=0.11888652330868238 0.15793131643499594 0.45763864446606839 0.5283622486263394 0.012970734605957069 0.44137617659382328 0.0010491718042041152 0.00014053229032778497 0.97276944998357373 0.49753571428571436 1.2699564586357041e-05 0.00048446812924994478 0.16562877466111933 0.14647698295530806
decision_type=2 2 2 2 2 2 2 2 2 2 2 2 2 2
left_child=-1 2 3 4 5 -2 -7 9 11 10 -8 -9 13 -10
right_child=1 -3 -4 -5 -6 6 7 8 12 -11 -12 -13 -14 -15
leaf_value=-0.10483347400890899 0.0020009775455186955 -0.12647999835980697 0.028862960616874503 -0.058787914954901023 -0.073704983660497603 -0.071689056116602243 -0.099188642870017718 0.16766310826156022 0.018606208551770833 -0.12527767425878847 0.089917073052629637 -0.013175625028333655 -0.099165914316436898 0.18588874880543277
leaf_weight=30.864458829164505 356.27825293689966 2.8657738566398612 72.875156357884407 14.616852909326552 8.1646782979369146 5.1512840539216986 2.9629587978124645 10.984801396727564 9.9378566294908506 3.8883856832981101 9.3988818973302823 2.4073868393898001 2.8649595379829398 2.7043087035417548
leaf_count=453 1693 19 302 63 39 22 13 45 41 16 39 10 12 11
internal_value=0 0.0057436 0.00649807 0.00270209 0.00486918 0.00644706 0.0379385 0.0504463 0.0765945 0.00394457 0.0445911 0.135155 0.0260203 0.0543899
internal_weight=0 505.102 502.236 429.361 414.744 406.579 50.3008 45.1495 28.8993 16.2502 12.3618 13.3922 15.5071 12.6422
internal_count=2778 2325 2306 2004 1941 1902 209 187 119 68 52 55 64 52
shrinkage=0.1


Tree=16
num_leaves=15
num_cat=0
split_feature=7 13 5 19 51 2 68 16 77 12 13 76 8 16
split_gain=31.8224 4.54317 7.02133 6.88643 8.26297 7.45784 7.72734 5.99309 5.66796 5.35641 5.32351 5.25568 8.09708 4.71326
threshold=0.12800350819974518 0.47357639631446496 0.54793013412930691 0.16261575627432562 0.81582253199268751 0.35428541148044107 0.5929401853411963 0.30943204868154162 0.6150000000000001 0.59904006123542797 0.65096769049194114 4.8743727965288646e-05 0.50998374568973626 0.40374564459930318
decision_type=2 2 2 2 2 2 2 2 2 2 2 2 2 2
left_child=-1 2 13 5 -5 -3 8 -6 -7 11 -11 -8 -13 -2
right_child=1 3 -4 4 7 6 9 -9 -10 10 -12 12 -14 -15
leaf_value=-0.10138534032333689 -0.005554675606862956 0.14631913948858469 -0.12350227072507594 0.12596460877360435 0.015709737445409735 -0.00099314982278989852 0.12300621904444933 -0.13871513921537276 -0.15860021636627025 -0.031911284182366294 0.12856872024302957 0.072308941182455053 -0.021934235501337222 0.017394997852376991
leaf_weight=29.589595258235931 268.4758293107152 5.6571766883134833 4.5007611513137809 2.3772048354148856 4.0470483005046827 6.8727141469717008 9.5203602761030179 6.6306404024362564 3.4158868342638016 14.472034275531771 2.411516621708869 26.997146606445312 13.764599248766897 134.23081828653812
leaf_count=462 1316 24 19 10 18 30 39 30 15 60 10 111 57 577
internal_value=0 0.00532352 0.000706751 0.0248728 -0.0426467 0.0354786 0.0273829 -0.0801852 -0.0533198 0.0397451 -0.00898955 0.0561091 0.0404845 0.00209495
internal_weight=0 503.374 407.207 96.1663 13.0549 83.1114 77.4543 10.6777 10.2886 67.1657 16.8836 50.2821 40.7617 402.707
internal_count=2778 2316 1912 404 58 346 322 48 45 277 70 207 168 1893
shrinkage=0.1


Tree=17
num_leaves=15
num_cat=0
split_feature=1 40 71 15 60 64 9 9 6 37 19 73 37 68
split_gain=28.5023 4.18389 4.15611 6.29265 6.08809 5.42592 8.31579 5.10332 7.64308 13.4085 8.84119 5.03267 5.01694 8.28175
threshold=0.11992217309839164 0.15793131643499594 0.82424080988106574 0.095067771084337366 0.036400965683023881 0.74377968750000012 0.38127421343363749 0.24457339916681306 0.34842944118716923 0.99770353420780722 0.22235941484364516 0.94277521094600159 0.99771388389737281 0.62213984835720304
decision_type=2 2 2 2 2 2 2 2 2 2 2 2 2 2
left_child=-1 2 12 -4 11 6 -6 -7 9 -9 -10 -5 13 -2
right_child=1 -3 3 4 5 7 -8 8 10 -11 -12 -13 -14 -15
leaf_value=-0.10269566608977852 -0.0021810927560064726 -0.12419790081822069 -0.1269606562169984 0.067364749100599267 0.033387387826708456 -0.098528649747270797 -0.13768438643788977 -0.05290020532183487 0.045947114877853933 0.24970150216130085 -0.12556847477005167 0.2319388347570599 0.020071562975691001 -0.11627864663852563
leaf_weight=25.990735292434692 318.06134276837111 2.5059588029980651 2.4862704128026953 8.6765498146414739 6.6865504235029203 2.5442339628934851 4.9413620084524155 2.2251461595296851 26.903308302164081 4.2826496958732605 3.3833690285682669 2.3644995093345633 112.14186116307974 6.4914838075637809
leaf_count=456 1492 17 17 41 30 13 22 11 113 18 15 10 492 31
internal_value=0 0.00469236 0.00533681 0.0290327 0.0352874 0.0207033 -0.0393107 0.0384425 0.0479137 0.146236 0.0267869 0.102609 0.00183726 -0.00446319
internal_weight=0 503.695 501.189 64.4939 62.0077 50.9666 11.6279 39.3387 36.7945 6.5078 30.2867 11.041 436.695 324.553
internal_count=2778 2322 2305 290 273 222 52 170 157 29 128 51 2015 1523
shrinkage=0.1


Tree=18
num_leaves=15
num_cat=0
split_feature=5 51 49 30 70 75 68 60 38 61 30 60 68 22
split_gain=25.5056 3.66817 4.43084 8.47691 5.41845 5.57913 4.68369 6.46664 6.71645 8.11602 4.63479 4.42505 4.40859 5.18604
threshold=0.11888652330868238 0.81622255484460704 0.00067581887112346071 0.0047209026128266045 0.0078734308846468114 0.13763691614100423 0.62245998315080042 0.036401200541556149 0.000493003181121422 0.002779088530371569 0.00080166270783847996 0.037064641357206017 0.60844144903117114 0.00044516481579067851
decision_type=2 2 2 2 2 2 2 2 2 2 2 2 2 2
left_child=-1 2 6 12 -5 -6 -2 -8 10 -10 -9 -3 13 -4
right_child=1 11 3 4 5 -7 7 8 9 -11 -12 -13 -14 -15
leaf_value=-0.10186115930071092 0.0057048143414840545 -0.12471743855273079 0.15792579560362993 -0.16918454386682194 -0.044763790265954048 0.11561978912518889 0.097654363813257483 0.047295178510691864 0.14037303842817359 -0.040668649171091774 -0.098252889919636377 0.032731914324279722 0.023203610672552819 0.0024128106806081875
leaf_weight=23.736768830567598 428.44298391416669 4.694417215883731 8.9784326106309944 2.1247920244932166 6.7550543770194036 3.1947044134140015 3.4709069132804862 2.4908637255430248 3.5599984377622595 8.133678272366522 17.984663859009743 2.8801237046718597 7.6215452402830115 2.8172506690025321
leaf_count=453 1990 24 37 9 30 13 15 12 15 38 85 13 32 12
internal_value=0 0.00421488 0.00527048 0.0415689 -0.0242239 0.00673275 0.00280734 -0.0320243 -0.046016 0.0144473 -0.0805469 -0.0648493 0.082482 0.120783
internal_weight=0 503.149 495.575 31.4918 12.0746 9.94976 464.083 35.6401 32.1692 11.6937 20.4755 7.57454 19.4172 11.7957
internal_count=2778 2325 2288 133 52 43 2155 165 150 53 97 37 81 49
shrinkage=0.1


Tree=19
num_leaves=15
num_cat=0
split_feature=2 14 66 49 0 11 45 26 9 36 45 4 37 4
split_gain=22.9377 3.99859 7.82155 8.15811 6.92824 6.53057 5.25086 5.11693 4.09484 3.82909 5.47204 5.0944 9.57648 7.84642
threshold=0.083956653942776363 0.15515515515515518 0.14874371859296487 4.7389737914145108e-05 0.19864116626368797 0.14289146661758426 0.11982834933283705 0.099761173347060153 0.12875264933131061 0.49035433070866152 0.055107605075358813 0.25201371661987965 0.99770419057598736 0.27105314714227835
decision_type=2 2 2 2 2 2 2 2 2 2 2 2 2 2
left_child=-1 2 3 -2 -3 -5 7 8 -6 10 11 12 -10 -13
right_child=1 4 -4 5 6 -7 -8 -9 9 -11 -12 13 -14 -15
leaf_value=-0.098780281245688273 -0.10258780998168036 -0.091668329945113827 0.23538551675463917 -0.045099796477038934 -0.089888433208864651 0.23237654616228154 -0.14232634312791073 0.14375147566270122 0.011846426385180762 -0.13246375782145006 0.14142902495390305 -0.05973290553987614 0.18304089797114995 0.005619836998794309
leaf_weight=22.737443670630455 3.0685836896300298 7.6558734998106948 2.1731021106243134 1.4218734912574293 4.5830482468008986 2.102307204157114 2.4331367611885062 2.6413069218397132 11.619533807039263 2.0151560604572287 2.9507298022508612 19.180923141539097 4.5459759235382071 435.33242609351873
leaf_count=454 21 67 13 14 28 12 12 11 63 11 13 100 22 1937
internal_value=0 0.00390981 0.0708564 0.0166245 0.00271935 0.120425 0.00420836 0.00494674 0.0041833 0.00508972 0.00567497 0.00482391 0.0599888 0.00286189
internal_weight=0 501.724 8.76587 6.59276 492.958 3.52418 485.302 482.869 480.228 475.645 473.63 470.679 16.1655 454.513
internal_count=2778 2324 60 47 2264 26 2197 2185 2174 2146 2135 2122 85 2037
shrinkage=0.1


Tree=20
num_leaves=15
num_cat=0
split_feature=5 40 71 72 24 10 9 48 37 75 18 12 4 42
split_gain=20.488 3.62322 3.49505 5.94322 7.9739 14.7192 12.8777 6.05036 5.75153 7.13562 6.93138 6.18839 6.74561 8.14997
threshold=0.11888652330868238 0.15793131643499594 0.82317239618188875 0.97448658002704625 0.0004983460464373276 0.36308507657683914 0.33803784434302148 0.00011943638122883408 0.99770985056246864 0.1411323382588896 0.14120475415183467 0.50504213571548473 0.4524391729580321 0.014622365936836454
decision_type=2 2 2 2 2 2 2 2 2 2 2 2 2 2
left_child=-1 2 8 4 -4 6 -6 -5 10 -10 -2 12 -12 -14
right_child=1 -3 3 7 5 -7 -8 -9 9 -11 11 -13 13 -15
leaf_value=-0.10003403078101103 0.31492792757791832 -0.12002632240665911 0.023071829772364542 0.18466112591205025 -0.038432706189180071 -0.12448354581674506 0.1703236534784103 0.022363943698172829 0.020411173170364567 -0.058084899854375927 -0.012078214487721525 -0.066233411991414151 -0.015865129655355324 0.16364558168159793
leaf_weight=19.907645530998707 0.64589101076125999 2.3670158870518199 111.79830757528543 4.1278519630432111 8.8613555729389208 11.184529989957808 4.4334518164396277 5.1787958741188049 135.18199303001165 12.665775656700133 175.90843850374222 19.861778736114502 5.1745538264512998 4.9471706449985504
leaf_count=453 3 19 508 17 43 49 19 23 589 62 865 86 22 20
internal_value=0 0.00340385 0.00398821 0.0170329 0.0117529 -0.0399412 0.0311818 0.0943489 -0.00137066 0.0136866 -0.0121492 -0.0131753 -0.00751046 0.0718739
internal_weight=0 502.337 499.97 145.584 136.278 24.4793 13.2948 9.30665 354.386 147.848 206.538 205.892 186.03 10.1217
internal_count=2778 2325 2306 659 619 111 62 40 1647 651 996 993 907 42
shrinkage=0.1


Tree=21
num_leaves=15
num_cat=0
split_feature=7 67 67 10 51 19 4 26 3 38 10 42 60 8
split_gain=18.3334 3.35946 6.59678 6.82289 12.2636 4.81826 9.32066 8.46305 6.2156 9.29574 6.69539 6.37779 5.61408 6.19245
threshold=0.12800350819974518 0.36930352536543426 0.10533104041272572 0.20707904711026681 0.81587662248628889 0.055717353375385859 0.42801289444416307 0.08325361314777445 0.47906761149495852 0.0006904987838273766 0.48684041192547373 0.0063065688480407793 0.036429141799292665 0.54166222955694976
decision_type=2 2 2 2 2 2 2 2 2 2 2 2 2 2
left_child=-1 2 5 -4 -5 6 7 -2 9 11 -10 -8 13 -7
right_child=1 -3 3 4 -6 12 8 -9 10 -11 -12 -13 -14 -15
leaf_value=-0.095722004169709746 -0.083745048459254123 -0.12414524774727952 0.25213224639685894 0.1699140332088529 -0.10349338238896402 0.0030149131387167088 0.076296788015092015 0.13244867029231885 -0.076773288602981646 0.14321764262623518 0.022959637693463545 -0.10086306567744618 0.030244125652562778 -0.076314213042724205
leaf_weight=19.470812305808067 25.063181426376108 2.0635526031255713 2.0043566748499853 3.4907927364110947 3.0952907875180244 330.96273732930422 3.9805396348237974 1.9516749531030644 12.140427693724634 6.9728391319513312 15.10792715847492 4.1513426899909973 78.976818822324276 10.141576424241064
leaf_count=462 137 15 11 16 17 1549 18 9 51 29 64 18 339 43
internal_value=0 0.00318424 0.00371181 0.0905839 0.0414195 0.0021871 -0.0222291 -0.0681262 0.00704626 0.0584995 -0.0214761 -0.0141437 0.00621895 0.000656331
internal_weight=0 500.103 498.04 8.59044 6.58608 489.449 69.3679 27.0149 42.3531 15.1047 27.2484 8.13188 420.081 341.104
internal_count=2778 2316 2301 44 33 2257 326 146 180 65 115 36 1931 1592
shrinkage=0.1


Tree=22
num_leaves=15
num_cat=0
split_feature=5 40 15 14 9 11 18 1 45 67 15 7 9 11
split_gain=16.5021 3.18073 2.93968 3.74883 5.48033 6.69715 5.5539 4.93735 3.90072 5.47595 3.28779 4.37363 3.23674 3.20904
threshold=0.11888652330868238 0.15793131643499594 1.0000000180025095e-35 0.15515515515515518 0.25729964368809838 0.14289146661758426 0.2069322049605832 0.18177817253035128 0.11982834933283705 0.10533104041272572 0.11739380022962113 0.16708007192439034 0.12875264933131061 0.32917080819606787
decision_type=2 2 2 2 2 2 2 2 2 2 2 2 2 2
left_child=-1 2 -2 4 5 6 -4 -5 9 10 -9 -12 -13 -11
right_child=1 -3 3 7 -6 -7 -8 8 -10 13 11 12 -14 -15
leaf_value=-0.09825079822547951 -0.11839350754569547 -0.11783618519353341 0.16920636113834789 -0.097126555197089015 -0.089832236395013795 0.22764999272184738 -0.074552479518461279 -0.075321655551612729 -0.1343500288802128 0.0070205767971667837 0.15126423700085184 -0.08490242234912472 0.0041797600442491254 0.1742198742094421
leaf_weight=16.714979819953442 1.9777221977710713 2.1777043789625159 1.5822608843445762 4.9118746370077124 1.7094327211380003 2.8305061161518097 2.2839233949780464 5.2801491171121588 2.0398909896612158 1.864862099289893 2.0089137628674498 4.1148497909307471 464.86773644387722 2.985786646604538
leaf_count=453 17 19 9 43 9 14 20 31 11 10 11 26 2092 13
internal_value=0 0.00275546 0.00328231 0.00376701 0.0699798 0.110774 0.0252074 0.00262662 0.00364072 0.00422578 0.00314913 0.00402884 0.00339815 0.109939
internal_weight=0 500.636 498.458 496.48 8.40612 6.69669 3.86618 488.074 483.162 481.122 476.272 470.991 468.983 4.85065
internal_count=2778 2325 2306 2289 52 43 29 2237 2194 2183 2160 2129 2118 23
shrinkage=0.1


Tree=23
num_leaves=15
num_cat=0
split_feature=2 13 12 10 8 34 7 71 34 61 68 68 20 20
split_gain=14.9933 3.0009 6.15425 4.45402 4.93027 4.1475 3.7911 3.67638 5.11317 4.86704 3.03344 4.51025 4.75592 3.13128
threshold=0.083956653942776363 0.52961232840970474 0.56922969222068798 0.50646929436549126 0.49520477043520056 0.17794738356051801 0.45025799734415267 0.82448296408486266 0.17895562560905451 0.0030098846749601811 0.71184498736310042 0.65051390058972214 0.11805701558930427 0.11899004002699985
decision_type=2 2 2 2 2 2 2 2 2 2 2 2 2 2
left_child=-1 10 3 4 5 -3 -6 8 9 -4 11 13 -13 -2
right_child=1 2 7 -5 6 -7 -8 -9 -10 -11 -12 12 -14 -15
leaf_value=-0.094841729913107103 -0.0062078654524990243 0.11113868088311468 -0.10423031564660279 0.11144388647076611 -0.1079108908946672 -0.0047629918132934337 0.054450316120173661 0.05813211510069502 0.044528571251557271 0.043395751328362757 0.10177877762181792 0.063903863163243396 -0.10246661393412343 0.011101550990286368
leaf_weight=16.310191217809916 257.7682001106441 7.5107926428318077 9.6020169556140953 9.7354068309068662 3.7634915113449088 5.2426082491874695 2.3275721669197083 5.6555310785770407 5.6773813515901557 2.9100930690765372 2.905497431755065 2.1905409097671491 7.969038113951683 175.77702564001083
leaf_count=454 1205 32 42 41 16 22 10 25 24 12 13 10 41 831
internal_value=0 0.00259044 0.0252242 0.0565201 0.0281454 0.0634944 -0.045868 -0.0122861 -0.0341807 -0.0698951 -6.63913e-05 -0.000733301 -0.0665949 0.000810082
internal_weight=0 499.035 52.4249 28.5799 18.8445 12.7534 6.09106 23.845 18.1895 12.5121 446.61 443.705 10.1596 433.545
internal_count=2778 2324 224 121 80 54 26 103 78 54 2100 2087 51 2036
shrinkage=0.1


Tree=24
num_leaves=15
num_cat=0
split_feature=13 43 51 60 69 70 17 75 68 6 68 60 38 61
split_gain=13.3872 4.205 2.94026 3.53263 3.27792 6.99241 4.54576 4.45526 4.27963 4.44554 3.65037 5.07491 5.49431 5.95556
threshold=0.10796144186881586 0.059471782215235691 0.81622255484460704 0.037064641357206017 0.00066657337736124051 0.0042988189853673036 0.42236406976000179 0.13921338472683195 0.60203875315922495 0.4517502921096373 0.62245998315080042 0.036401200541556149 0.000493003181121422 0.002779088530371569
decision_type=2 2 2 2 2 2 2 2 2 2 2 2 2 2
left_child=1 -1 4 -4 10 6 -6 8 9 -7 -2 -12 -13 -14
right_child=2 -3 3 -5 5 7 -8 -9 -10 -11 11 12 13 -15
leaf_value=-0.09534229382236345 0.0039386080307777906 0.17673768496944225 -0.11754788512486646 0.025754267329650228 0.11671484464533007 -0.093592187986522871 -0.0050590367697646837 0.11267271297943525 -0.08462383098657357 0.092745344745321923 0.084703493935138222 -0.074726495912541629 0.11770308710047016 -0.036608890496055251
leaf_weight=16.983797132968906 422.98512565344572 0.58768811821937461 4.3503033723682156 2.8454296439886093 11.080602973699571 1.9281684011220912 4.2379048019647589 2.4223049879074088 7.4907621145248413 3.8107002675533295 3.4832362532615653 19.666500397026542 3.6547492444515211 7.9230162054300308
leaf_count=471 1967 3 25 13 47 11 18 10 32 16 15 97 15 38
internal_value=0 -0.0862424 0.00257576 -0.0608815 0.00351016 0.0349955 0.0830258 -0.0120117 -0.034841 0.0301389 0.00137975 -0.0297875 -0.0425514 0.0121027
internal_weight=0 17.5715 495.879 7.19573 488.683 30.9704 15.3185 15.6519 13.2296 5.73887 457.713 34.7275 31.2443 11.5778
internal_count=2778 474 2304 38 2266 134 65 69 59 27 2132 165 150 53
shrinkage=0.1


Tree=25
num_leaves=15
num_cat=0
split_feature=2 6 1 75 75 74 17 17 68 9 75 17 56 64
split_gain=11.9526 2.80147 3.87854 4.33609 10.954 4.79444 3.78269 3.80576 3.61717 9.28541 8.62903 7.14573 5.51317 6.96488
threshold=0.083956653942776363 0.13845020434833077 0.23659569147160567 0.13802143333063499 0.13771060229610213 0.54105308917024408 0.25729200649650102 0.3260784055070573 0.59256950294861011 0.19215251255710217 0.1394339242755406 0.37137658767947596 0.00031954850254655581 0.7437650208333334
decision_type=2 2 2 2 2 2 2 2 2 2 2 2 2 2
left_child=-1 6 3 4 5 -3 -2 -8 11 10 -10 -4 13 -13
right_child=1 2 8 -5 -6 -7 7 -9 9 -11 -12 12 -14 -15
leaf_value=-0.092203659967500851 -0.063910611736244932 -0.084481038807288189 -0.034898766049375293 -0.063907288399770432 0.15887338663458916 0.10771106743077836 0.24000724669751372 0.031385631031622778 -0.0065908482335328275 0.0049600702742690177 0.21079180811420298 -0.11598168854939689 0.13430223160422503 0.117975752821961
leaf_weight=13.811235390603541 1.3594888970255841 6.9583226684480923 49.619377441704273 18.326679363846779 3.6209015175700179 1.5956159532070158 1.6989718973636629 1.8017463088035581 3.1961771100759497 395.05010721087456 4.2597222030162811 2.9220790863037092 4.8477413356304169 2.2539538517594337
leaf_count=454 19 50 244 119 20 9 8 14 18 1755 22 14 22 10
internal_value=0 0.00210697 0.00136164 -0.0331762 0.0130831 -0.0486303 0.0776569 0.132634 0.00364111 0.00704667 0.117605 -0.0193415 0.0576696 -0.0141026
internal_weight=0 497.511 492.651 30.5015 12.1748 8.55394 4.86021 3.50072 462.149 402.506 7.4559 59.6432 10.0238 5.17603
internal_count=2778 2324 2283 198 79 59 41 22 2085 1795 40 290 46 24
shrinkage=0.1


end of trees

feature_importances:
Column_1=17
Column_68=15
Column_13=14
Column_0=13
Column_19=12
Column_8=11
Column_9=11
Column_7=10
Column_12=10
Column_37=10
Column_42=10
Column_60=10
Column_71=10
Column_4=9
Column_5=9
Column_11=9
Column_17=9
Column_70=9
Column_15=8
Column_77=8
Column_2=7
Column_10=7
Column_75=7
Column_30=6
Column_32=6
Column_48=6
Column_72=6
Column_76=6
Column_3=5
Column_18=5
Column_40=5
Column_6=4
Column_14=4
Column_16=4
Column_33=4
Column_38=4
Column_51=4
Column_62=4
Column_64=4
Column_22=3
Column_26=3
Column_27=3
Column_28=3
Column_45=3
Column_49=3
Column_61=3
Column_67=3
Column_20=2
Column_24=2
Column_31=2
Column_34=2
Column_36=2
Column_39=2
Column_43=2
Column_56=2
Column_69=2
Column_73=2
Column_23=1
Column_44=1
Column_46=1
Column_54=1
Column_59=1
Column_63=1
Column_66=1
Column_74=1

parameters:
[boosting: gbdt]
[objective: binary]
[metric: binary_logloss]
[tree_learner: serial]
[device_type: cpu]
[data: ]
[valid: ]
[num_iterations: 10000]
[learning_rate: 0.1]
[num_leaves: 15]
[num_threads: 0]
[force_col_wise: 0]
[force_row_wise: 0]
[histogram_pool_size: -1]
[max_depth: -1]
[min_data_in_leaf: 10]
[min_sum_hessian_in_leaf: 0.001]
[bagging_fraction: 0.8]
[pos_bagging_fraction: 1]
[neg_bagging_fraction: 1]
[bagging_freq: 0]
[bagging_seed: 10961]
[feature_fraction: 0.8]
[feature_fraction_bynode: 1]
[feature_fraction_seed: 53]
[extra_trees: 0]
[extra_seed: 11644]
[early_stopping_round: 50]
[first_metric_only: 0]
[max_delta_step: 0]
[lambda_l1: 0]
[lambda_l2: 0]
[min_gain_to_split: 0]
[drop_rate: 0.1]
[max_drop: 50]
[skip_drop: 0.5]
[xgboost_dart_mode: 0]
[uniform_drop: 0]
[drop_seed: 30626]
[top_rate: 0.2]
[other_rate: 0.1]
[min_data_per_group: 100]
[max_cat_threshold: 32]
[cat_l2: 10]
[cat_smooth: 10]
[max_cat_to_onehot: 4]
[top_k: 20]
[monotone_constraints: ]
[monotone_constraints_method: basic]
[monotone_penalty: 0]
[feature_contri: ]
[forcedsplits_filename: ]
[refit_decay_rate: 0.9]
[cegb_tradeoff: 1]
[cegb_penalty_split: 0]
[cegb_penalty_feature_lazy: ]
[cegb_penalty_feature_coupled: ]
[path_smooth: 0]
[interaction_constraints: ]
[verbosity: -1]
[saved_feature_importance_type: 0]
[max_bin: 255]
[max_bin_by_feature: ]
[min_data_in_bin: 3]
[bin_construct_sample_cnt: 200000]
[data_random_seed: 4071]
[is_enable_sparse: 1]
[enable_bundle: 1]
[use_missing: 1]
[zero_as_missing: 0]
[feature_pre_filter: 1]
[pre_partition: 0]
[two_round: 0]
[header: 0]
[label_column: ]
[weight_column: ]
[group_column: ]
[ignore_column: ]
[categorical_feature: ]
[forcedbins_filename: ]
[objective_seed: 602]
[num_class: 1]
[is_unbalance: 0]
[scale_pos_weight: 1]
[sigmoid: 1]
[boost_from_average: 1]
[reg_sqrt: 0]
[alpha: 0.9]
[fair_c: 1]
[poisson_max_delta_step: 0.7]
[tweedie_variance_power: 1.5]
[lambdarank_truncation_level: 20]
[lambdarank_norm: 1]
[label_gain: ]
[eval_at: ]
[multi_error_top_k: 1]
[auc_mu_weights: ]
[num_machines: 1]
[local_listen_port: 12400]
[time_out: 120]
[machine_list_filename: ]
[machines: ]
[gpu_platform_id: -1]
[gpu_device_id: -1]
[gpu_use_dp: 0]

end of parameters

pandas_categorical:null
