tree
version=v3
num_class=1
num_tree_per_iteration=1
label_index=0
max_feature_idx=77
objective=binary sigmoid:1
feature_names=Column_0 Column_1 Column_2 Column_3 Column_4 Column_5 Column_6 Column_7 Column_8 Column_9 Column_10 Column_11 Column_12 Column_13 Column_14 Column_15 Column_16 Column_17 Column_18 Column_19 Column_20 Column_21 Column_22 Column_23 Column_24 Column_25 Column_26 Column_27 Column_28 Column_29 Column_30 Column_31 Column_32 Column_33 Column_34 Column_35 Column_36 Column_37 Column_38 Column_39 Column_40 Column_41 Column_42 Column_43 Column_44 Column_45 Column_46 Column_47 Column_48 Column_49 Column_50 Column_51 Column_52 Column_53 Column_54 Column_55 Column_56 Column_57 Column_58 Column_59 Column_60 Column_61 Column_62 Column_63 Column_64 Column_65 Column_66 Column_67 Column_68 Column_69 Column_70 Column_71 Column_72 Column_73 Column_74 Column_75 Column_76 Column_77
feature_infos=[0.0056756030013792001:0.61309176748595107] [0.003990997882719889:0.5764078813007234] [0.0048099989797633037:0.73351133621015641] [0.0029009541265427449:0.60539689333075353] [0.0043165968277844632:0.70872110824448542] [0.002524993609383601:0.58131152463310398] [0.0068914067188254316:0.71358460473244378] [0.0084328064395613137:0.61327389249024677] [0.0073878115770000764:0.76977958694509907] [0.0030612604391404286:0.75958207217581364] [0.003746517833449712:0.75315604513065726] [0.0076577062718570232:0.83473736047744751] [0.0070971441455185413:0.8679804801940918] [0.036014811852781069:0.84459196526736324] [0.0021505376344086021:0.75] [0:1] [0:1] [0:0.80687027601446093] [3.2687949849608061e-08:0.97287506535960644] [0:1] [0:1] [0:1] [0:1] [0:1] [0:1] [0:0.63259234121673757] [0:1] [0.0048403742429264469:0.79436225027872365] [0:1] [0:0.72452830188679251] [0:0.60700712589073635] [0:1] [0:0.50814353550001423] [0:1] [0:1] [0:1] [0:1] [0:1] [0:0.905813140315475] [0:1] [0:0.29370400654129192] [0:1] [0:0.52099721354864592] [0:0.79913836121014803] [0:1] [0:0.29253904403218506] [0:0.94555049191697438] [0:1] [0:0.91478088211578767] [0:0.90575152471330678] [0:1] [0:0.85213053016453388] [0:0.73059819077620924] [0:0.85262682364582376] [0.0059419582893115493:0.60780116101916304] [0:1] [0:1] [0:1] [0:0.99992331740694851] [0:1] [0:0.048127652519893899] [0:0.7170045703452177] [0:0.050371516771864064] [0:0.53406024943117869] [0:0.77762837500000004] [0:0.53955774036618609] [0:1] [0:0.98710232158211519] [0:0.97206402695871941] [0:0.89570333071852315] [0:0.94908267102428889] [0:1] [0:1] [0:1] [0:1] [0:1] [0:0.66089312530894728] [-104.73999999999999:696.33000000000004]
tree_sizes=1692 1681 1682 1680 1691 1684 1686 1688 1691 1668 1697 1695

Tree=0
num_leaves=15
num_cat=0
split_feature=0 0 2 13 4 70 8 32 33 19 62 37 49 61
split_gain=269.993 72.9425 18.8664 15.9089 12.9547 10.9216 12.9538 12.7289 10.7123 10.8718 10.5601 10.0118 10.2227 11.4359
threshold=0.24344961489201858 0.43183352343225551 0.10055757087103613 0.50410999154267333 0.29921539111565865 0.00099346356681274625 0.41206726915752828 0.0001232619636611789 0.83074257153410302 0.1622198362635888 0.038830234833659494 0.9977043332647223 0.0028951892057362196 0.0025497124616799282
decision_type=2 2 2 2 2 2 2 2 2 2 2 2 2 2
left_child=2 3 -1 4 -2 6 -3 8 9 11 -9 -7 -13 -14
right_child=1 5 -4 -5 -6 7 -8 10 -10 -11 -12 12 13 -15
leaf_value=-0.97996869752048332 -0.86594286417641009 -0.6461314842665864 -0.90427871399818516 -0.72915627986353515 -0.81697752039592375 -0.80105012203734172 -0.86462976219592436 -0.81598556726665838 -0.8350241567897434 -0.82286061348332795 -0.65098445806658845 -0.65474145358276103 -0.67602926928445617 -0.98098667646672832
leaf_weight=98.233858734369278 70.407958835363388 3.5836386233568183 49.538533911108971 17.074984028935432 232.30410370230675 6.1132658869028083 11.172520413994787 19.39380902051926 5.4808590710163108 5.6916613429784766 4.8484522551298133 56.705811157822609 2.9512318074703208 2.1080227196216583
leaf_count=466 334 17 235 81 1102 29 53 92 26 27 23 269 14 10
internal_value=-0.837717 -0.79827 -0.954595 -0.823069 -0.828366 -0.731091 -0.811566 -0.719595 -0.700155 -0.690107 -0.782985 -0.678976 -0.666893 -0.803095
internal_weight=0 437.836 147.772 319.787 302.712 118.049 14.7562 103.293 79.0509 73.57 24.2423 67.8783 61.7651 5.05925
internal_count=2778 2077 701 1517 1436 560 70 490 375 349 115 322 293 24
shrinkage=1


Tree=1
num_leaves=15
num_cat=0
split_feature=1 0 7 9 37 68 70 13 24 14 77 64 49 0
split_gain=227.121 56.1118 15.6814 13.3291 12.4549 13.5919 13.7342 10.8169 9.02935 11.5628 18.0747 11.3967 11.6454 9.10749
threshold=0.2351208655853694 0.42451620253753114 0.14473714711547683 0.27504528273568585 0.99770907053071822 0.60401010951979794 0.0023676000891331805 0.50410999154267333 0.00044086434171576746 0.45098962598962605 0.49500000000000005 0.74385635416666684 0.00041767725528057086 0.46547479853251222
decision_type=2 2 2 2 2 2 2 2 2 2 2 2 2 2
left_child=2 3 -1 -2 -3 6 -6 -5 9 10 -7 12 -11 -10
right_child=1 4 -4 7 5 8 -8 -9 13 11 -12 -13 -14 -15
leaf_value=-0.13556852292179392 -0.02197357029524109 0.045275476909884066 -0.063092609422135432 0.018275589649225592 0.090904519944504422 -0.098788602975606599 0.19754499849452117 0.10634865420359066 0.08726822414247154 0.12872191375395733 0.2056270306347372 0.21687095136156068 -0.072744879702494672 -0.12243594598797879
leaf_weight=93.830759793519974 86.973899722099304 44.123609453439713 43.784356266260147 212.05900165438652 23.33313325047493 6.271543160080908 25.034847125411034 14.926532328128813 3.8634143173694593 10.480684027075769 2.8308630734682083 9.0177282691001874 3.950613245368003 4.4639791548252106
leaf_count=472 415 203 213 1000 106 29 113 68 18 48 13 41 18 21
internal_value=0 0.0343966 -0.112509 0.0113129 0.0887367 0.110224 0.146101 0.0240673 0.0677744 0.0915454 -0.00411485 0.128679 0.0735697 -0.0251457
internal_weight=0 447.33 137.615 313.959 133.37 89.2468 48.368 226.986 40.8788 32.5514 9.10241 23.449 14.4313 8.32739
internal_count=2778 2093 685 1483 610 407 219 1068 188 149 42 107 66 39
shrinkage=0.1


Tree=2
num_leaves=15
num_cat=0
split_feature=5 2 2 14 13 19 15 13 1 67 75 33 34 20
split_gain=193.23 38.7172 17.6342 15.1453 13.5726 15.1565 12.7942 10.9894 10.9178 13.2373 9.88546 8.73843 10.7268 10.4337
threshold=0.26587707477030148 0.44406900444986858 0.10055757087103613 0.35257132132132135 0.26639790569205207 0.20507314454435646 0.52982456140350886 0.31209112047025778 0.2896196030130288 0.053310404127257092 0.13866125748018263 0.81533749322184423 0.17698023434656526 0.11791266086498155
decision_type=2 2 2 2 2 2 2 2 2 2 2 2 2 2
left_child=2 4 -1 -3 -2 8 7 -5 -6 -10 11 -7 -13 -14
right_child=1 3 -4 6 5 10 -8 -9 9 -11 -12 12 13 -15
leaf_value=-0.13172573781385621 -0.014471177579955828 -0.098664260915181851 -0.057236531203077513 -0.016954114074924885 -0.043012037027635161 -0.045413520086351633 0.023269382460115604 0.12301005714261511 0.044968632874315684 0.23738294923386696 -0.046090621164877499 0.28344781531367313 0.18221759086229927 -0.065990502498037271
leaf_weight=86.395205542445183 105.01887458562851 4.279028207063674 50.275141775608063 6.0861074477434149 13.922288700938223 5.9979017078876486 20.512109279632568 71.669122532010078 167.90673458576202 3.6532032638788214 37.634368762373924 2.5652362555265409 3.0365419238805771 3.8293473869562149
leaf_count=464 500 20 250 28 66 28 92 316 776 17 177 12 14 18
internal_value=0 0.0315793 -0.104324 0.0855023 0.0154845 0.0286723 0.0935218 0.112055 0.0421545 0.0490659 -0.0184545 0.0489555 0.108971 0.0437832
internal_weight=0 446.111 136.67 102.546 343.564 238.546 98.2673 77.7552 185.482 171.56 53.0634 15.429 9.43113 6.86589
internal_count=2778 2064 714 456 1608 1108 436 344 859 793 249 72 44 32
shrinkage=0.1


Tree=3
num_leaves=15
num_cat=0
split_feature=12 7 0 70 1 20 37 65 19 48 68 68 30 8
split_gain=166.446 28.0614 27.426 9.3644 10.1005 8.06083 8.38627 8.91987 8.42747 15.0427 9.9229 9.05887 8.85621 7.98165
threshold=0.23675692826509478 0.14473714711547683 0.44192193132282381 0.00099346356681274625 0.44303291685502494 0.12041145623235176 0.9977043332647223 0.01094519382790997 0.11707153402227889 1.9452507660054832e-05 0.60075821398483575 0.60537489469250216 0.0015736342042755346 0.48549620576680791
decision_type=2 2 2 2 2 2 2 2 2 2 2 2 2 2
left_child=1 -1 -2 4 -4 6 -5 8 9 11 -10 12 -8 -11
right_child=2 -3 3 5 -6 -7 7 -9 10 13 -12 -13 -14 -15
leaf_value=-0.12774723711036998 0.017368924583130285 -0.044489154993486296 0.17604764609943913 -0.0030459428795215288 -0.050495125099802488 -0.0035298754081934101 -0.080232661492950219 0.21440021729665815 -0.10600988550860171 0.22354015546591849 0.072301577576045536 -0.062231677911675533 0.1251374913474794 0.1211101159607848
leaf_weight=81.634270429611206 304.81620995700359 80.302545085549355 2.4439879953861228 8.0689070224761945 10.106726154685019 9.2838616967201215 2.554611116647723 6.6966697424650183 3.7310196012258556 11.612717390060423 19.08509461581707 5.5141850411891928 11.793567165732382 22.056592956185341
leaf_count=469 1420 399 11 36 46 41 11 29 16 49 83 25 50 93
internal_value=0 -0.0864605 0.0329657 0.0750574 -0.00638068 0.085238 0.0942829 0.10374 0.0940334 0.115724 0.0431431 0.0467063 0.0885725 0.156439
internal_weight=0 161.937 417.764 112.948 12.5507 100.397 91.1134 83.0445 76.3478 53.5317 22.8161 19.8624 14.3482 33.6693
internal_count=2778 868 1910 490 57 433 392 356 327 228 99 86 61 142
shrinkage=0.1


Tree=4
num_leaves=15
num_cat=0
split_feature=5 0 5 12 5 13 61 15 37 42 17 63 70 19
split_gain=140.752 26.3687 16.1257 10.9184 9.84394 7.87971 7.81185 7.89712 11.0554 10.8046 9.44949 8.20816 7.89527 7.23366
threshold=0.26587707477030148 0.42451620253753114 0.11950918244566829 0.30371224880218511 0.45294306375372573 0.26790564556519975 0.0039199504569330888 0.52565789473684221 0.99770867100226079 0.0078985728024302121 0.29116321975703041 0.002981583214837014 0.010900245116244522 0.20346933297543954
decision_type=2 2 2 2 2 2 2 2 2 2 2 2 2 2
left_child=2 3 -1 -2 13 -3 7 11 -9 -10 -11 -7 -13 -5
right_child=1 5 -4 4 -6 6 -8 8 9 10 -12 12 -14 -15
leaf_value=-0.12424968005845316 -0.016151781891387631 -0.090874548504713687 -0.050092059872978156 0.038427034565045509 -0.085293635844871846 0.25655301475513004 -0.057494305790729408 -0.071347086300859328 0.19508999547351044 -0.092378565891743813 0.094923124377743223 0.067500522153381856 0.15802773065978373 -0.0069447888939054405
leaf_weight=74.997891023755074 110.78523705899715 3.3316448181867591 48.147764205932617 146.01550641655922 8.0606463700532895 2.5980357080698004 5.036591872572898 8.8354072272777575 4.7161715924739829 4.7370781600475294 6.2438868433237076 95.385720327496529 10.716410815715788 46.274701878428459
leaf_count=463 531 15 251 669 37 11 22 40 20 21 27 409 45 217
internal_value=0 0.0253209 -0.0952554 0.00904001 0.02297 0.0610946 0.0647564 0.0693778 0.0181303 0.0684942 0.0141231 0.0809438 0.0766439 0.0275083
internal_weight=0 452.737 123.146 311.136 200.351 141.601 138.269 133.233 24.5325 15.6971 10.981 108.7 106.102 192.29
internal_count=2778 2064 714 1454 923 610 595 573 108 68 48 465 454 886
shrinkage=0.1


Tree=5
num_leaves=15
num_cat=0
split_feature=1 0 5 12 1 7 32 4 12 7 76 12 73 72
split_gain=121.152 21.632 13.4225 8.6008 10.7929 14.3394 9.79695 9.1956 9.41497 9.05304 8.74858 8.92853 8.03115 15.1721
threshold=0.2351208655853694 0.41843358714217094 0.11950918244566829 0.30371224880218511 0.40580410031038172 0.42896017121064883 0.00035187238761409201 0.39277895046174977 0.39225900173187261 0.24879457700125762 0.00047394512157294223 0.16504152864217761 0.94395258397702342 0.97320876022828851
decision_type=2 2 2 2 2 2 2 2 2 2 2 2 2 2
left_child=2 3 -1 10 6 7 9 8 -6 -5 -2 -12 -8 -14
right_child=1 -3 -4 4 5 -7 12 -9 -10 -11 11 -13 13 -15
leaf_value=-0.12115751119629303 -0.039889416900797017 0.052969538275143738 -0.049302829445655588 -0.11944727473277737 0.092558192256482846 0.15481419241147121 -0.10913933569229889 -0.12413754398585729 -0.10417910656455283 0.04430053713640951 0.19080983341939386 0.0056671693055154182 0.23381987460411924 -0.02388777255835163
leaf_weight=69.503127336502075 62.847679257392883 151.97715443372726 41.531326621770859 3.4631433039903632 5.4246900230646187 3.2948939204215995 8.0025687813758868 12.849790558218954 4.4098685532808304 134.6695771664381 2.746898040175437 50.337060377001762 2.6180512905120876 17.93109405040741
leaf_count=463 304 650 222 16 25 15 37 59 20 614 14 244 12 83
internal_value=0 0.0220876 -0.094281 0.00687885 0.019829 -0.0401229 0.0291731 -0.0684374 0.00434014 0.0401952 -0.0146427 0.0152476 -0.0241518 0.00894531
internal_weight=0 460.572 111.034 308.595 192.664 25.9792 166.684 22.6843 9.83456 138.133 115.932 53.084 28.5517 20.5491
internal_count=2778 2093 685 1443 881 119 762 104 45 630 562 258 132 95
shrinkage=0.1


Tree=6
num_leaves=15
num_cat=0
split_feature=9 5 6 77 13 5 19 42 75 1 77 12 42 71
split_gain=105.81 24.1667 11.8835 9.76509 7.40119 11.2529 10.2755 9.65012 9.52902 7.50425 7.28637 7.05861 16.6277 13.1314
threshold=0.11980136523903429 0.32109580819357364 0.46543390773590121 0.66500000000000015 0.27503682787434086 0.38405037949020404 0.22466111931284391 0.05383715388489712 0.13854502016509854 0.37474188902557642 0.79500000000000015 0.35819138586521154 0.014432740794595559 0.82408084134643622
decision_type=2 2 2 2 2 2 2 2 2 2 2 2 2 2
left_child=-1 3 4 -2 5 7 11 9 -8 -3 -5 12 13 -6
right_child=1 2 -4 10 6 -7 8 -9 -10 -11 -12 -13 -14 -15
leaf_value=-0.11339671063377768 -0.044069368265304144 -0.0041789041419449139 0.06453834694573625 0.13697816408991001 0.018589512393118558 -0.07010026092425159 0.065119538506539759 0.22364225808669663 -0.06006410798777502 0.14174900548107736 0.0017092137996670403 0.024282702387599185 0.17123737801735361 0.1812347232077286
leaf_weight=72.504074335098267 78.917939722537994 43.761988058686256 71.631612375378609 4.674920096993449 40.936236411333084 21.163593009114265 8.3337592631578463 2.160854920744895 22.491590321063995 3.832578405737876 26.871167689561844 152.72937524318695 11.792851790785788 5.6489685624837866
leaf_count=506 403 208 301 23 186 99 38 10 106 18 134 668 53 25
internal_value=0 0.0159534 0.0277974 -0.0252713 0.0193851 -0.00902336 0.0277126 0.0169559 -0.0262202 0.00757202 0.0217552 0.0355877 0.0651641 0.038312
internal_weight=0 494.947 384.483 110.464 312.852 70.919 241.933 49.7554 30.8253 47.5946 31.5461 211.107 58.3781 46.5852
internal_count=2778 2272 1712 560 1411 335 1076 236 144 226 157 932 264 211
shrinkage=0.1


Tree=7
num_leaves=15
num_cat=0
split_feature=9 12 7 7 56 52 2 0 42 30 19 16 19 17
split_gain=92.1561 20.1843 12.4094 8.40695 8.18822 7.61077 7.46596 9.89428 7.17623 14.8268 7.97774 10.0286 9.98347 15.8228
threshold=0.11980136523903429 0.30371224880218511 0.4675414683177585 0.24879457700125762 0.0004159046663913634 0.41788057793426042 0.24298493796081033 0.28837359800821771 0.017332355066105032 0.0013361045130641333 0.13312978123741784 0.43873826903023988 0.1622198362635888 0.28028669869947159
decision_type=2 2 2 2 2 2 2 2 2 2 2 2 2 2
left_child=-1 4 3 -3 5 8 -5 -8 10 -10 -2 12 13 -12
right_child=1 2 -4 6 -6 -7 7 -9 9 -11 11 -13 -14 -15
leaf_value=-0.11045504581796413 -0.058739466361724883 -0.10310807442155293 0.070662160970107885 0.17325611784535005 -0.11790892882199155 0.1893147020854106 -0.075441024304337703 0.023303339809078859 0.159539120336296 -0.038075626774769077 -0.038570048010621007 0.20088567105057706 -0.025812802039703521 0.19467067233967036
leaf_weight=67.261851221323013 40.573753044009209 5.5274898260831824 55.290135487914085 3.2012634277343741 7.6613158285617819 1.8586392551660527 10.532349258661268 277.71909426152706 6.8397918790578833 8.5337984859943372 5.9815423488616926 2.3163995593786231 64.116170674562454 5.6614254117012024
leaf_count=506 202 28 230 16 43 10 51 1225 32 41 30 11 325 28
internal_value=0 0.0142838 0.0271633 0.019065 -0.0173241 -0.0116529 0.021382 0.0196953 -0.0144399 0.0498442 -0.0227693 -0.00407658 -0.0103435 0.0748439
internal_weight=0 495.813 352.27 296.98 143.543 135.882 291.453 288.251 134.023 15.3736 118.649 78.0755 75.7591 11.643
internal_count=2778 2272 1550 1320 722 679 1292 1276 669 73 596 394 383 58
shrinkage=0.1


Tree=8
num_leaves=15
num_cat=0
split_feature=9 12 32 51 13 7 70 17 11 40 6 75 51 20
split_gain=80.4305 16.3613 10.4596 10.3293 9.96025 9.60803 8.00778 8.04678 9.24624 7.93167 7.63554 10.7233 10.317 9.77651
threshold=0.11980136523903429 0.30371224880218511 0.00029429326964087701 0.81597913619744078 0.39655504837182592 0.41207302355142045 0.0010491718042041152 0.37760234760434669 0.35542014241218572 0.15596892886345057 0.31150099259528802 0.13878891096014101 0.81592154936014627 0.11922241592469009
decision_type=2 2 2 2 2 2 2 2 2 2 2 2 2 2
left_child=-1 -2 5 4 -4 6 7 -3 -9 -7 13 -12 -13 -8
right_child=1 2 3 -5 -6 9 10 8 -10 -11 11 12 -14 -15
leaf_value=-0.10774269034189746 -0.015867895080243968 -0.039695324178992825 -0.0051594705940767012 0.10133698735492502 -0.1123359549228275 0.060826193840399126 0.04057928997682328 -0.069165846322589736 0.16806018052961905 -0.066121527745627379 0.042392625188244604 -0.03024655465888311 0.11622764629312486 0.19553376671588074
leaf_weight=62.314692094922066 142.17963799834251 35.679688304662704 28.615401417016983 6.149290367960929 12.440867304801939 104.1118311882019 13.540085777640344 2.6524294763803473 4.3173112422227859 5.1659028232097617 83.159621581435204 47.183074161410332 5.3544175922870627 5.8226529061794272
leaf_count=506 722 161 132 27 56 432 65 13 19 22 362 211 23 27
internal_value=0 0.0127875 0.0242903 -0.0195326 -0.0376361 0.0310289 0.0178764 -0.0204975 0.0777806 0.054825 0.0284312 0.0200488 -0.0153185 0.0871763
internal_weight=0 496.372 354.193 47.2056 41.0563 306.987 197.709 42.6494 6.96974 109.278 155.06 135.697 52.5375 19.3627
internal_count=2778 2272 1550 215 188 1335 881 193 32 454 688 596 234 92
shrinkage=0.1


Tree=9
num_leaves=15
num_cat=0
split_feature=2 5 37 15 77 37 73 5 13 11 77 5 71 38
split_gain=70.6911 14.8488 8.33428 10.3558 8.28422 8.10264 8.01535 7.9593 10.1362 7.54275 10.4698 9.2137 7.98409 7.69553
threshold=0.12511217759840623 0.32109580819357364 0.99770867100226079 0.35824886263867833 1.425 0.99770551758122139 0.94455910947785304 0.3857583350545058 0.28744234854302347 0.41491317749023443 1.2850000000000004 0.44813570768240879 0.82414761720263474 0.0002946245876433095
decision_type=2 2 2 2 2 2 2 2 2 2 2 2 2 2
left_child=-1 -2 5 4 6 7 -4 -3 -9 11 12 -10 13 -11
right_child=1 2 3 -5 -6 -7 -8 8 9 10 -12 -13 -14 -15
leaf_value=-0.10827472362732114 -0.021295237890019292 0.049007049356011044 0.053611082892009013 0.049525406313601104 -0.14876815224749462 -0.020042036212525746 -0.020348732919464346 -0.11402034650125624 0.023446400985977188 -0.14210902644147574 0.14851223148968326 0.19232429064084636 0.075872621931516171 -0.016638761072815034
leaf_weight=54.995390318334103 109.80180062353611 55.468395665287971 24.648306965827942 139.9955198019743 3.4908687472343436 76.188781231641769 36.134990736842155 7.362758755683898 14.006520852446558 8.5036315321922391 3.2437083125114432 4.1991932392120352 4.6198778301477423 11.497723758220671
leaf_count=487 575 253 111 591 16 340 168 36 62 38 14 18 20 49
internal_value=0 0.0111832 0.0203423 0.034269 0.00103916 0.00497254 0.0096428 0.022473 -0.0050716 0.01234 -0.020366 0.0623985 -0.0426148 -0.0699828
internal_weight=0 499.162 389.36 204.27 64.2742 185.091 60.7833 108.902 53.4334 46.0707 27.8649 18.2057 24.6212 20.0014
internal_count=2778 2291 1716 886 295 830 279 490 237 201 121 80 107 87
shrinkage=0.1


Tree=10
num_leaves=15
num_cat=0
split_feature=7 11 76 18 51 75 68 76 40 30 17 68 28 49
split_gain=63.6944 12.1851 10.1472 9.03739 7.63271 11.1964 9.20765 8.41379 7.57148 7.12811 12.3829 11.4297 8.13809 7.86748
threshold=0.14473714711547683 0.31222338974475866 0.0033689720311531287 0.14179662905772197 0.81583928244972592 0.13880032712501533 0.5950968828980624 0.0029153202617249389 0.15703188879803762 0.002238717339667459 0.32310186315258999 0.60197135636057297 0.18366641256768335 0.00017454729554713074
decision_type=2 2 2 2 2 2 2 2 2 2 2 2 2 2
left_child=-1 3 8 -2 5 -5 -7 -6 9 10 -3 12 -11 -12
right_child=1 2 -4 4 7 6 -8 -9 -10 11 13 -13 -14 -15
leaf_value=-0.10955788346140634 0.38592712706972665 -4.6247854199012114e-05 -0.12495386469983677 0.0009183239963747457 -0.030606620325950608 -0.068915933786945618 0.19874543116642873 0.096284877379989739 -0.14785784939215005 0.051717777524134811 0.023752650190805122 0.011143120577274986 0.13294401104952083 0.10749026947699965
leaf_weight=48.949401669204235 0.57054777443408866 155.73202782869339 4.6734062284231177 38.15842642635107 122.67316266894341 1.6728476807475079 5.5464898943901062 5.4579800218343726 2.5591487586498252 45.849209696054459 26.665064588189125 55.086253181099892 16.874423712491989 19.370820581912994
leaf_count=474 3 684 22 194 622 10 27 27 12 194 120 237 70 82
internal_value=0 0.00995746 0.0213408 -0.0114132 -0.0127198 0.0225241 0.136724 -0.0252014 0.0234632 0.0248351 0.013423 0.04438 0.0735699 0.0589875
internal_weight=0 500.89 326.81 174.079 173.509 45.3778 7.21934 128.131 322.137 319.578 201.768 117.81 62.7236 46.0359
internal_count=2778 2304 1421 883 880 231 37 649 1399 1387 886 501 264 202
shrinkage=0.1


Tree=11
num_leaves=15
num_cat=0
split_feature=5 12 20 39 0 5 22 27 20 18 42 15 18 56
split_gain=55.8179 11.0737 6.88181 8.66719 8.01775 9.13697 7.61621 9.17848 6.76238 6.72164 13.851 8.3715 7.91608 7.00679
threshold=0.11950918244566829 0.23675692826509478 0.12262958980121298 0.81836306693435723 0.39400809002741211 0.32109580819357364 0.00056238317370116441 0.015261341037153105 0.12617156181752157 0.29240743641742756 0.0066474190617500763 0.15358271865121184 0.28636093746163277 0.00034609560891196196
decision_type=2 2 2 2 2 2 2 2 2 2 2 2 2 2
left_child=-1 9 6 -4 5 -5 -3 -8 -6 10 11 13 -13 -2
right_child=1 2 3 4 8 -7 7 -9 -10 -11 -12 12 -14 -15
leaf_value=-0.10954350525879575 0.1366871546992032 0.017536717263492613 -0.12591341147994439 -0.069432478834565936 -0.15237410222239886 0.049869699975247865 -0.033506375289535088 0.21419499814164486 0.016103133889280589 -0.066070615387841078 0.16917023623445465 -0.061155394873164598 0.13406086498165806 -0.034384783853940226
leaf_weight=43.362326294183731 5.3220606446266157 372.96510602533817 6.6918020099401465 8.6171845048665983 5.7960290908813459 25.172059088945389 2.3171457052230826 4.2210018336772919 4.0451377630233765 27.791714742779732 4.2110374420881262 28.50761200487614 2.2404493242502204 4.352029986679554
leaf_count=463 34 1647 33 43 26 114 10 18 18 151 21 160 12 28
internal_value=0 0.0087096 0.0148048 -0.0199435 -0.00369043 0.0194444 0.0194124 0.126409 -0.0831228 -0.0274637 -0.0034244 -0.0214047 -0.046931 0.059728
internal_weight=0 502.25 429.825 50.3222 43.6304 33.7892 379.503 6.53815 9.84117 72.4249 44.6332 40.4222 30.7481 9.67409
internal_count=2778 2315 1909 234 201 157 1675 28 44 406 255 234 172 62
shrinkage=0.1


end of trees

feature_importances:
Column_5=12
Column_0=9
Column_12=9
Column_7=8
Column_13=8
Column_19=7
Column_1=6
Column_37=6
Column_2=5
Column_20=5
Column_42=5
Column_68=5
Column_70=5
Column_77=5
Column_9=4
Column_15=4
Column_17=4
Column_75=4
Column_11=3
Column_18=3
Column_30=3
Column_32=3
Column_49=3
Column_51=3
Column_76=3
Column_4=2
Column_6=2
Column_8=2
Column_14=2
Column_33=2
Column_40=2
Column_56=2
Column_61=2
Column_71=2
Column_73=2
Column_16=1
Column_22=1
Column_24=1
Column_27=1
Column_28=1
Column_34=1
Column_38=1
Column_39=1
Column_48=1
Column_52=1
Column_62=1
Column_63=1
Column_64=1
Column_65=1
Column_67=1
Column_72=1

parameters:
[boosting: gbdt]
[objective: binary]
[metric: binary_logloss]
[tree_learner: serial]
[device_type: cpu]
[data: ]
[valid: ]
[num_iterations: 10000]
[learning_rate: 0.1]
[num_leaves: 15]
[num_threads: 0]
[force_col_wise: 0]
[force_row_wise: 0]
[histogram_pool_size: -1]
[max_depth: -1]
[min_data_in_leaf: 10]
[min_sum_hessian_in_leaf: 0.001]
[bagging_fraction: 0.8]
[pos_bagging_fraction: 1]
[neg_bagging_fraction: 1]
[bagging_freq: 0]
[bagging_seed: 10961]
[feature_fraction: 0.8]
[feature_fraction_bynode: 1]
[feature_fraction_seed: 53]
[extra_trees: 0]
[extra_seed: 11644]
[early_stopping_round: 50]
[first_metric_only: 0]
[max_delta_step: 0]
[lambda_l1: 0]
[lambda_l2: 0]
[min_gain_to_split: 0]
[drop_rate: 0.1]
[max_drop: 50]
[skip_drop: 0.5]
[xgboost_dart_mode: 0]
[uniform_drop: 0]
[drop_seed: 30626]
[top_rate: 0.2]
[other_rate: 0.1]
[min_data_per_group: 100]
[max_cat_threshold: 32]
[cat_l2: 10]
[cat_smooth: 10]
[max_cat_to_onehot: 4]
[top_k: 20]
[monotone_constraints: ]
[monotone_constraints_method: basic]
[monotone_penalty: 0]
[feature_contri: ]
[forcedsplits_filename: ]
[refit_decay_rate: 0.9]
[cegb_tradeoff: 1]
[cegb_penalty_split: 0]
[cegb_penalty_feature_lazy: ]
[cegb_penalty_feature_coupled: ]
[path_smooth: 0]
[interaction_constraints: ]
[verbosity: -1]
[saved_feature_importance_type: 0]
[max_bin: 255]
[max_bin_by_feature: ]
[min_data_in_bin: 3]
[bin_construct_sample_cnt: 200000]
[data_random_seed: 4071]
[is_enable_sparse: 1]
[enable_bundle: 1]
[use_missing: 1]
[zero_as_missing: 0]
[feature_pre_filter: 1]
[pre_partition: 0]
[two_round: 0]
[header: 0]
[label_column: ]
[weight_column: ]
[group_column: ]
[ignore_column: ]
[categorical_feature: ]
[forcedbins_filename: ]
[objective_seed: 602]
[num_class: 1]
[is_unbalance: 0]
[scale_pos_weight: 1]
[sigmoid: 1]
[boost_from_average: 1]
[reg_sqrt: 0]
[alpha: 0.9]
[fair_c: 1]
[poisson_max_delta_step: 0.7]
[tweedie_variance_power: 1.5]
[lambdarank_truncation_level: 20]
[lambdarank_norm: 1]
[label_gain: ]
[eval_at: ]
[multi_error_top_k: 1]
[auc_mu_weights: ]
[num_machines: 1]
[local_listen_port: 12400]
[time_out: 120]
[machine_list_filename: ]
[machines: ]
[gpu_platform_id: -1]
[gpu_device_id: -1]
[gpu_use_dp: 0]

end of parameters

pandas_categorical:null
