tree
version=v3
num_class=1
num_tree_per_iteration=1
label_index=0
max_feature_idx=58
objective=binary sigmoid:1
feature_names=Column_0 Column_1 Column_2 Column_3 Column_4 Column_5 Column_6 Column_7 Column_8 Column_9 Column_10 Column_11 Column_12 Column_13 Column_14 Column_15 Column_16 Column_17 Column_18 Column_19 Column_20 Column_21 Column_22 Column_23 Column_24 Column_25 Column_26 Column_27 Column_28 Column_29 Column_30 Column_31 Column_32 Column_33 Column_34 Column_35 Column_36 Column_37 Column_38 Column_39 Column_40 Column_41 Column_42 Column_43 Column_44 Column_45 Column_46 Column_47 Column_48 Column_49 Column_50 Column_51 Column_52 Column_53 Column_54 Column_55 Column_56 Column_57 Column_58
feature_infos=[-18.510000000000002:726.59000000000003] [-1164.79:8776] [-506.98000000000002:1180.3199999999999] [-764:2052498] [-506.98000000000002:1180.3199999999999] [-764:2052498] [0:12109447000] [0:1215279900.4100001] [-774:41406] [-376.13:408.38] [0:83.189999999999998] [0:538.51999999999998] [-1164.79:8776] [0:15975] [-308.38:476.13] [-393.42000000000002:5623.0500000000002] [0:50] [0:25.399999999999999] [-108918.83:2421.3299999999999] [-2.71:16985.009999999998] [-5523.0500000000002:493.42000000000002] [-18.969999999999999:103.33] [-0.27000000000000002:0.34000000000000002] [-3497.2600000000002:653357.80000000005] [0:1298053.53] [0:7.7400000000000002] [0:1153069527.03] [0:73553443.75] [0:12.92] [0:45380.449999999997] [-0.64000000000000001:16986.16] [0:7.9400000000000004] [-178500:40300] [-11841777.779999999:137802405.41] [-666620.80000000005:5297878.1299999999] [-774:18875] [-1.1599999999999999:2.3500000000000001] [0:5085.3000000000002] [-31.84:20.870000000000001] [-5083.5900000000001:2.3100000000000001] [0:1395.48] [-26340:697500] [-185.11000000000001:52830] [-28120:697500] [-187.91:24747.200000000001] [-178500:61500] [-636:23281.700000000001] [0:9.9499999999999993] [0:11.630000000000001] [-174.78999999999999:121.95999999999999] [-0.64000000000000001:17221.77] [0:538.51999999999998] [-5523.0500000000002:493.42000000000002] [-5083.5900000000001:146.65000000000001] [-5277.2799999999997:328.42000000000002] [-51.920000000000002:101.97] [-1318.8:4437.6400000000003] [-2.8199999999999998:362103.70000000001] [-392.67000000000002:38.490000000000002]
tree_sizes=3306 3303 3321 3294 3312

Tree=0
num_leaves=31
num_cat=0
split_feature=19 24 19 54 18 49 13 32 49 41 54 53 32 54 3 46 50 49 19 50 9 46 49 50 41 15 9 32 41 43
split_gain=211.577 45.0117 31.8141 22.8249 22.592 19.6999 19.0487 14.879 14.461 14.255 12.5166 12.5131 11.1736 10.4862 10.4828 9.26178 10.8287 8.84789 8.63713 14.0262 8.05643 8.02646 7.72345 9.71678 7.50105 9.56924 7.34225 11.2635 9.7905 9.14394
threshold=0.31500000000000006 5114.1100000000006 1.175 27.360000000000003 13.860000000000001 5.0750000000000011 14.800000000000002 17.185000000000006 2.3750000000000004 15.165000000000001 26.190000000000001 7.3150000000000004 13.560000000000002 11.175000000000002 391.56000000000006 14.245000000000003 0.18500000000000003 2.1350000000000002 3.2650000000000001 3.0750000000000006 68.515000000000015 6.745000000000001 0.50500000000000012 0.57500000000000007 103.89000000000001 59.040000000000013 67.945000000000007 1.1500000000000001 3.2000000000000006 10.715000000000002
decision_type=2 2 2 2 2 2 2 2 2 2 2 2 2 2 2 2 2 2 2 2 2 2 2 2 2 2 2 2 2 2
left_child=1 8 9 4 10 6 17 11 -1 15 22 -5 -3 -7 -15 16 -2 24 19 21 -9 -19 -4 -24 25 -6 28 -28 -18 -29
right_child=2 12 3 7 5 13 -8 20 -10 -11 -12 -13 -14 14 -16 -17 26 18 -20 -21 -22 -23 23 -25 -26 -27 27 29 -30 -31
leaf_value=-1.1110881121040614 -1.0146082324804533 -0.7139925684620827 -1.0337383201907133 -0.45696617572637571 -0.67180940270466616 -0.88616335785442224 -0.96831342022162425 -0.86156753079837367 -0.67791868877987815 -0.97414073924721112 -0.42207893682319114 -0.95749125631696286 -0.95513861198986261 -0.67057807372826672 -0.96831342022162425 -0.88792020264413996 -0.57871551965381574 -0.75326655037416024 -0.46613010483919376 -1.119823714886883 -0.63968545714486569 -0.47725773304761576 -0.42540153100444678 -0.77902292354471991 -0.37579994644141568 -1.119823714886883 -0.33999131587452203 -0.7615223423676899 -1.0218644726464139 -0.40961920864348228
leaf_weight=114.47406607866287 5.7025826275348654 16.262920826673511 4.6465488076210013 2.1120676398277274 19.64222905039788 16.262920826673508 5.2801690995693198 11.616372019052507 3.1681014597415915 32.948255181312561 4.0129285156726828 36.961183696985245 14.573266714811323 45.409454256296158 5.2801690995693198 41.396525740623474 2.9568946957588178 6.5474096834659639 32.737048417329788 2.1120676398277274 14.995680242776869 11.827578783035277 3.1681014597415915 164.31886237859726 2.9568946957588187 2.1120676398277274 3.5905149877071407 23.443950802087787 6.124996155500412 3.3793082237243643
leaf_count=542 27 77 22 10 93 77 25 55 15 156 19 175 69 215 25 196 14 31 155 10 71 56 15 778 14 10 17 111 29 16
internal_value=-0.832863 -1.04304 -0.771857 -0.744313 -0.722661 -0.665666 -0.600689 -0.851879 -1.09942 -0.862176 -0.77125 -0.930436 -0.827959 -0.746425 -0.701592 -0.819575 -0.756978 -0.575783 -0.529865 -0.631711 -0.736539 -0.575606 -0.77939 -0.772334 -0.674681 -0.715306 -0.71978 -0.672658 -0.877583 -0.717188
internal_weight=0 148.478 511.543 392 326.314 150.168 83.2155 65.6853 117.642 119.543 176.146 39.0733 30.8362 66.9525 50.6896 86.5948 45.1982 77.9353 53.2241 20.4871 26.6121 18.375 172.134 167.487 24.7112 21.7543 39.4957 30.4138 9.08189 26.8233
internal_count=3125 703 2422 1856 1545 711 394 311 557 566 834 185 146 317 240 410 214 369 252 97 126 87 815 793 117 103 187 144 43 127
shrinkage=1


Tree=1
num_leaves=31
num_cat=0
split_feature=23 22 23 35 30 52 19 5 45 52 1 56 3 38 58 45 30 23 15 52 58 45 58 30 52 52 10 33 58 51
split_gain=155.915 31.813 26.4743 20.4477 12.5429 10.6378 10.3666 9.59156 11.2985 9.30304 11.7403 10.8648 11.6716 9.19162 9.06884 8.92834 12.6945 8.91167 9.28605 9.70242 8.55156 7.65807 7.63527 14.5231 7.68027 10.0006 7.2507 8.20208 7.03483 8.77587
threshold=213.65000000000001 1.0000000180025095e-35 3478.7900000000004 5.1750000000000007 0.10500000000000002 99.88000000000001 1.3450000000000004 50.495000000000012 10.585000000000003 61.985000000000007 59.150000000000013 24.725000000000005 96.75500000000001 -2.8799999999999994 0.45500000000000007 12.640000000000002 1.425 23405.015000000003 9.5850000000000026 65.030000000000015 1.7050000000000003 2.0600000000000001 0.46500000000000002 2.8950000000000005 94.410000000000011 91.945000000000007 25.595000000000002 6708048.1900000004 0.38500000000000006 1.0950000000000004
decision_type=2 2 2 2 2 2 2 2 2 2 2 2 2 2 2 2 2 2 2 2 2 2 2 2 2 2 2 2 2 2
left_child=1 4 6 14 -1 26 7 8 21 10 11 -5 -13 -7 -4 16 -16 22 -19 -20 -9 -2 -11 24 25 -24 27 -3 -6 -30
right_child=2 5 3 9 28 13 -8 20 -10 17 -12 12 -14 -15 15 -17 -18 18 19 -21 -22 -23 23 -25 -26 -27 -28 -29 29 -31
leaf_value=-0.26171434636876956 -0.070826333432664368 0.36646553337819776 0.28390078117239359 0.11919662331690631 -0.20132108580945265 0.54337083030307498 0.038336515835211901 -0.10904083551893753 -0.21076769621128638 0.021854373028381349 -0.21300030847164719 -0.13107222840795393 0.28625143469046205 0.038291903462765342 0.23262997206462238 0.34817883453185028 -0.076370664710576922 0.42177772977998496 0.49448668019382724 0.10611845139806753 0.14170264179403688 0.17503254046535299 0.055562733382592149 0.38216026515583584 -0.29147308749199008 0.40812235630580551 -0.11381347051821229 -0.12361579681550559 -0.15941711945248538 0.17689238036006491
leaf_weight=92.694199293851852 7.0734598487615647 3.0292358547449174 28.203481405973434 28.218004271388054 14.485049784183504 2.387260913848877 149.46477809548378 62.014004841446877 5.5255723297595969 65.227390825748444 8.7966475337743741 18.253241911530498 3.1421229243278495 3.6368771940469733 9.707189887762075 5.5372998267412177 11.76176857948303 5.275115653872489 2.796403005719184 32.21912582218647 5.9638019055128089 17.87115490436554 25.217020511627204 7.5842324495315543 2.1474259793758383 3.6890699267387381 19.784967929124832 2.4878530502319336 6.395207926630972 6.0300971120595932
leaf_count=497 33 14 127 129 71 11 688 301 27 300 43 88 15 17 44 25 54 24 13 148 28 83 117 34 10 17 95 12 31 29
internal_value=0 -0.179825 0.0518076 0.0966852 -0.226817 -0.00040836 0.00514463 -0.0452476 0.0479956 0.0672779 -5.57047e-05 0.0377002 -0.0697841 0.238446 0.204581 0.121746 0.063344 0.0945606 0.174402 0.137134 -0.0870427 0.105315 0.0635892 0.134045 0.0734475 0.100557 -0.0572769 0.14547 -0.106612 0.00379649
internal_weight=0 150.931 505.688 257.776 119.605 31.3262 247.913 98.448 30.4702 202.566 58.41 49.6134 21.3954 6.02414 55.2097 27.0063 21.469 144.156 40.2906 35.0155 67.9778 24.9446 103.865 38.6377 31.0535 28.9061 25.3021 5.51709 26.9104 12.4253
internal_count=3125 777 2348 1188 628 149 1160 472 143 938 275 232 103 28 250 123 98 663 185 161 329 116 478 178 144 134 121 26 131 60
shrinkage=0.2


Tree=2
num_leaves=31
num_cat=0
split_feature=19 24 30 1 19 19 20 58 46 29 11 58 11 29 19 30 21 29 5 8 1 46 46 29 8 1 19 19 29 41
split_gain=106.636 30.3314 13.0856 12.8311 11.6577 15.0037 10.2587 9.93983 10.8108 10.7564 9.65437 8.81792 8.76762 8.6758 13.5237 10.057 8.35954 8.3169 8.19528 8.38256 9.07189 8.7087 8.08972 7.74425 7.13085 7.28178 8.93702 7.05083 7.71286 6.9425
threshold=0.31500000000000006 5114.1100000000006 1.7550000000000001 55.130000000000003 2.8350000000000004 2.5550000000000002 53.885000000000005 0.35500000000000004 7.0450000000000008 5.1550000000000011 2.1650000000000005 0.49500000000000005 2.9150000000000005 0.9900000000000001 0.92500000000000016 1.5550000000000004 0.015000000000000001 23.275000000000002 257.42000000000007 12.065000000000003 10.305000000000001 16.475000000000005 26.060000000000006 15.530000000000003 5.0050000000000008 4.955000000000001 5.8550000000000013 1.0550000000000004 3.9350000000000005 5.7400000000000011
decision_type=2 2 2 2 2 2 2 2 2 2 2 2 2 2 2 2 2 2 2 2 2 2 2 2 2 2 2 2 2 2
left_child=1 -1 7 6 5 -5 16 8 12 13 18 -12 -2 -9 -15 -16 24 -6 19 -8 -21 -22 23 -23 -4 -26 -27 -10 -29 -11
right_child=2 -3 3 4 17 -7 10 9 27 29 11 -13 -14 14 15 -17 -18 -19 -20 20 21 22 -24 -25 25 26 -28 28 -30 -31
leaf_value=-0.22811929261524716 0.16006590468889181 0.0021997281075800414 0.043774859684797426 0.023208684999761878 -0.14526582287962203 0.5890184138110407 0.11972230939591724 -0.11033126437944385 -0.179192540024318 0.16277509958655537 0.13994603311463691 0.36533017911298815 -0.27752632081495787 -0.033511735020837069 0.24646831983666018 -0.15139978399441939 -0.024433118675553735 0.19832385145457856 0.31055144669113266 -0.19661624390357973 0.29012206292482529 -0.17824630774264458 0.073920303809530671 0.12577170125924569 0.5520156894479209 -0.14158393706203307 0.37652620852319807 0.14267823518467077 -0.088327681426509347 -0.026205799036411338
leaf_weight=91.697751000523567 12.310350418090819 30.471668988466263 17.685395568609241 11.863844707608221 26.348098084330562 2.2264468222856513 49.880440607666969 6.5121590346097937 24.833274364471436 8.5346176922321302 59.97260308265686 7.8526877611875525 2.1515843421220771 13.014924719929693 27.715531975030903 2.7978138923645011 54.024020150303841 3.1554893106222144 5.4416419118642798 7.5224625319242469 4.9701469838619223 12.647245824337007 30.407475888729095 4.5598762929439536 2.5306310206651679 2.4459869563579559 2.9232625663280487 7.3244532197713843 27.441653445363045 87.445118993520737
leaf_count=557 58 146 78 55 127 10 220 30 126 39 266 34 11 62 127 13 249 14 24 34 22 57 136 20 11 11 13 34 129 412
internal_value=0 -0.170673 0.0367283 0.0634472 -0.0370444 0.112614 0.080113 -0.000477052 -0.0601584 0.0297933 0.106154 0.166041 0.0949628 0.10497 0.137181 0.209987 0.0201675 -0.108518 0.0709658 0.0591123 0.00881457 0.0382023 0.0119062 -0.0976817 0.114343 0.272323 0.140499 -0.0977989 -0.0396598 -0.00940142
internal_weight=0 122.169 526.539 306.458 43.5939 14.0903 262.864 220.081 74.0613 146.02 183.255 67.8253 14.4619 50.0404 43.5283 30.5133 79.6093 29.5036 115.429 109.988 60.1072 52.5847 47.6146 17.2071 25.5853 7.89988 5.36925 59.5994 34.7661 95.9797
internal_count=3125 703 2422 1381 206 65 1175 1041 358 683 813 300 69 232 202 140 362 141 513 489 269 235 213 77 113 35 24 289 163 451
shrinkage=0.2


Tree=3
num_leaves=31
num_cat=0
split_feature=49 47 18 56 57 56 3 57 3 35 14 56 54 54 15 45 33 25 49 15 57 14 56 49 18 42 54 49 42 57
split_gain=83.9107 18.7007 20.5573 13.0544 11.0421 8.75065 8.66201 9.54978 8.20169 15.8255 7.6157 14.2025 11.4665 9.21106 7.44424 7.12697 6.99366 9.54356 6.98465 6.01899 6.23228 5.902 5.53012 8.07118 13.4048 9.75202 7.48784 8.36841 7.4501 7.21197
threshold=0.78500000000000014 0.65500000000000014 3.1850000000000005 34.220000000000006 121.38000000000001 8.5650000000000031 257.20000000000005 100.105 94.00500000000001 50.670000000000009 4.2350000000000003 3.8650000000000007 6.0950000000000006 3.3950000000000005 3.4250000000000003 58.175000000000004 6708048.1900000004 4.535000000000001 11.815000000000001 35.755000000000003 574.75500000000011 74.640000000000015 30.190000000000005 5.535000000000001 14.395000000000001 4.0850000000000009 16.160000000000004 4.5200000000000005 8.9600000000000026 22.460000000000004
decision_type=2 2 2 2 2 2 2 2 2 2 2 2 2 2 2 2 2 2 2 2 2 2 2 2 2 2 2 2 2 2
left_child=1 2 -1 4 6 10 7 18 -5 -10 12 -12 -6 -13 -9 -11 17 -3 21 20 -15 22 23 24 25 -2 27 -26 -27 -30
right_child=3 16 -4 8 5 -7 -8 14 9 15 11 13 -14 19 -16 -17 -18 -19 -20 -21 -22 -23 -24 -25 26 28 -28 -29 29 -31
leaf_value=-0.22836333456260421 -0.21142741534423029 -0.27391522588484002 -0.051046780421320617 -0.1193799291705666 -0.21862861556494148 0.0023304222311717623 -0.29178379814702121 -0.05209595298898894 0.42795016328224422 -0.10330818271406345 0.41488981393041269 -0.17106073970343452 0.29775616051358633 0.31201593808840494 0.25196301904178076 0.25283359348673867 -0.069900236431639881 0.21283720623723715 0.29392450330992054 -0.12165899715437874 -0.084139601153109922 -0.1665756854861446 0.27304358109596344 -0.037988933073010787 0.16525910596670199 0.16175050415567491 0.38112825879500162 -0.10081127356276814 -0.26267390457993617 0.035150817872608778
leaf_weight=79.735689133405685 6.0341985672712317 1.940417736768725 38.918724626302719 32.483781427145004 5.3955726474523571 198.50069612264633 2.4591524302959433 3.8258132040500668 3.532493099570277 12.838224172592161 6.8657530844211605 4.5081772208213833 2.5250010937452316 7.8832221627235395 20.367012813687325 2.7245980799198142 17.92756775021553 9.4970326870679838 5.4145389646291724 2.3879382610321036 1.9892975538969038 4.3567669689655295 5.1605793237686148 26.69852215051651 42.354215770959854 19.005113959312439 5.5441013723611823 5.3225512057542792 3.4408822655677787 59.345521226525307
leaf_count=550 27 10 185 160 26 930 12 17 16 64 29 21 11 35 90 12 89 43 23 12 10 20 23 118 179 85 23 23 15 267
internal_value=0 -0.134838 -0.170203 0.0369521 0.0481258 0.0178824 0.0813638 0.0857996 -0.058233 0.0457865 0.115714 0.172594 -0.0540102 0.0733886 0.20388 -0.0409581 0.00805961 0.130257 0.0701616 0.163273 0.232191 0.0633267 0.0691196 0.0628461 0.081933 0.0339366 0.161137 0.135555 0.0520384 0.0188291
internal_weight=0 148.019 118.654 490.964 439.385 230.056 209.329 206.87 51.5791 19.0953 31.555 23.6344 7.92057 16.7686 24.1928 15.5628 29.365 11.4375 182.677 12.2605 9.87252 177.262 172.906 167.745 141.047 87.8257 53.2209 47.6768 81.7915 62.7864
internal_count=3125 877 735 2248 1996 1074 922 910 252 92 144 107 37 78 107 76 142 53 803 57 45 780 760 737 619 394 225 202 367 282
shrinkage=0.2


Tree=4
num_leaves=31
num_cat=0
split_feature=49 11 0 18 43 30 3 3 5 18 0 7 18 11 58 11 15 8 18 49 41 9 41 9 15 35 0 11 11 30
split_gain=58.8664 15.717 15.4275 11.3533 9.80641 10.1831 7.25954 6.84768 7.47398 6.54288 7.37181 6.29141 8.93216 8.97533 6.24895 12.9836 8.32969 8.50829 6.86804 6.08614 5.57414 5.40267 7.82341 6.09577 5.33481 6.01539 8.44923 4.99112 4.87394 4.8842
threshold=0.78500000000000014 0.88500000000000012 106.57500000000002 3.1850000000000005 9.6050000000000022 1.7550000000000001 872.49000000000012 91.375000000000014 135.87000000000003 13.860000000000001 21.150000000000002 99354631.785000011 9.4850000000000012 0.67500000000000016 0.95500000000000007 1.8950000000000002 30.860000000000003 2.9850000000000008 12.625000000000002 5.3750000000000009 46.935000000000009 76.915000000000006 6.8950000000000005 93.895000000000024 11.055000000000001 7.3150000000000004 211.21500000000003 1.6850000000000003 1.3550000000000002 14.335000000000003
decision_type=2 2 2 2 2 2 2 2 2 2 2 2 2 2 2 2 2 2 2 2 2 2 2 2 2 2 2 2 2 2
left_child=1 11 6 -3 5 21 9 -5 -9 14 19 12 -1 -14 18 16 17 -16 -2 28 -12 -4 24 -24 -23 -26 -27 -7 29 -11
right_child=2 3 4 7 -6 27 -8 8 -10 10 20 -13 13 -15 15 -17 -18 -19 -20 -21 -22 22 23 -25 25 26 -28 -29 -30 -31
leaf_value=-0.10822300410225755 0.027618250413479026 -0.23029713304654803 -0.094611728938733708 -0.2047080746457946 -0.051484618229591356 0.33034712137646588 -0.17689678001320058 0.15065285461581771 -0.10519870711001436 -0.20740457452425654 0.11154383292055342 0.091894506675648718 -0.052800636048873265 0.46990069827459724 0.35896750958987855 0.36063528465933692 0.27380542421941617 -0.012877350391649568 -0.13798965749402411 -0.15964497955549084 0.29995078371620226 0.37524789581792795 0.038873509446153191 -0.19505383696498702 0.27314175957211756 0.24411180846642219 -0.22504269204761351 0.041074147359407905 0.11402636448221895 0.081200696084298016
leaf_weight=35.992770135402679 125.66280454397202 52.640807405114174 14.216246515512465 10.582489401102068 117.79111874103546 6.6947738677263242 5.264284834265708 7.5470270067453411 11.566428765654562 4.6407836526632327 82.414665654301643 12.058008611202238 3.1116856485605231 2.274527445435524 2.6775076538324347 6.5435958802700034 5.9675165116786948 30.492972493171692 10.884467482566832 6.3403903990983954 6.7994330674409857 3.6376578211784354 17.183813437819484 6.0156921148300162 4.4554170221090299 2.6255441159009933 3.698401466012001 3.7068775445222855 19.407398015260696 4.7425337135791779
leaf_count=219 569 431 70 54 568 29 26 36 55 20 355 58 14 10 12 28 26 139 50 28 29 17 84 29 19 13 19 16 82 20
internal_value=0 -0.119698 0.0290628 -0.174517 -0.0175551 0.0466632 0.0559756 -0.075637 -0.00417466 0.0599743 0.0953448 -0.0352317 -0.0722769 0.167929 0.035839 0.0998709 0.0562729 0.0171378 0.0144173 0.0177427 0.125903 0.010422 0.0501169 -0.0217845 0.165819 0.0951437 -0.0302615 0.227258 0.0568076 -0.0615372
internal_weight=0 135.774 491.864 82.3368 180.026 62.2344 311.838 29.6959 19.1135 306.574 124.345 53.437 41.379 5.38621 182.229 45.6816 39.138 33.1705 136.547 35.1311 89.2141 51.8328 37.6165 23.1995 14.417 10.7794 6.32395 10.4017 28.7907 9.38332
internal_count=3125 877 2248 576 864 296 1384 145 91 1358 534 301 243 24 824 205 177 151 619 150 384 251 181 113 68 51 32 45 122 40
shrinkage=0.2


end of trees

feature_importances:
Column_19=10
Column_49=10
Column_11=7
Column_18=7
Column_30=7
Column_58=7
Column_3=6
Column_15=6
Column_41=6
Column_54=6
Column_29=5
Column_46=5
Column_52=5
Column_56=5
Column_1=4
Column_9=4
Column_45=4
Column_57=4
Column_0=3
Column_5=3
Column_8=3
Column_23=3
Column_32=3
Column_35=3
Column_50=3
Column_14=2
Column_24=2
Column_33=2
Column_42=2
Column_43=2
Column_7=1
Column_10=1
Column_13=1
Column_20=1
Column_21=1
Column_22=1
Column_25=1
Column_38=1
Column_47=1
Column_51=1
Column_53=1

parameters:
[boosting: gbdt]
[objective: binary]
[metric: auc]
[tree_learner: serial]
[device_type: cpu]
[data: ]
[valid: ]
[num_iterations: 10000]
[learning_rate: 0.2]
[num_leaves: 31]
[num_threads: 0]
[force_col_wise: 0]
[force_row_wise: 0]
[histogram_pool_size: -1]
[max_depth: -1]
[min_data_in_leaf: 10]
[min_sum_hessian_in_leaf: 0.001]
[bagging_fraction: 0.8]
[pos_bagging_fraction: 1]
[neg_bagging_fraction: 1]
[bagging_freq: 0]
[bagging_seed: 10438]
[feature_fraction: 0.5]
[feature_fraction_bynode: 1]
[feature_fraction_seed: 6707]
[extra_trees: 0]
[extra_seed: 23424]
[early_stopping_round: 50]
[first_metric_only: 0]
[max_delta_step: 0]
[lambda_l1: 0]
[lambda_l2: 0]
[min_gain_to_split: 0]
[drop_rate: 0.1]
[max_drop: 50]
[skip_drop: 0.5]
[xgboost_dart_mode: 0]
[uniform_drop: 0]
[drop_seed: 18682]
[top_rate: 0.2]
[other_rate: 0.1]
[min_data_per_group: 100]
[max_cat_threshold: 32]
[cat_l2: 10]
[cat_smooth: 10]
[max_cat_to_onehot: 4]
[top_k: 20]
[monotone_constraints: ]
[monotone_constraints_method: basic]
[monotone_penalty: 0]
[feature_contri: ]
[forcedsplits_filename: ]
[refit_decay_rate: 0.9]
[cegb_tradeoff: 1]
[cegb_penalty_split: 0]
[cegb_penalty_feature_lazy: ]
[cegb_penalty_feature_coupled: ]
[path_smooth: 0]
[interaction_constraints: ]
[verbosity: -1]
[saved_feature_importance_type: 0]
[max_bin: 255]
[max_bin_by_feature: ]
[min_data_in_bin: 3]
[bin_construct_sample_cnt: 200000]
[data_random_seed: 4081]
[is_enable_sparse: 1]
[enable_bundle: 1]
[use_missing: 1]
[zero_as_missing: 0]
[feature_pre_filter: 1]
[pre_partition: 0]
[two_round: 0]
[header: 0]
[label_column: ]
[weight_column: ]
[group_column: ]
[ignore_column: ]
[categorical_feature: ]
[forcedbins_filename: ]
[objective_seed: 31546]
[num_class: 1]
[is_unbalance: 0]
[scale_pos_weight: 1]
[sigmoid: 1]
[boost_from_average: 1]
[reg_sqrt: 0]
[alpha: 0.9]
[fair_c: 1]
[poisson_max_delta_step: 0.7]
[tweedie_variance_power: 1.5]
[lambdarank_truncation_level: 20]
[lambdarank_norm: 1]
[label_gain: ]
[eval_at: ]
[multi_error_top_k: 1]
[auc_mu_weights: ]
[num_machines: 1]
[local_listen_port: 12400]
[time_out: 120]
[machine_list_filename: ]
[machines: ]
[gpu_platform_id: -1]
[gpu_device_id: -1]
[gpu_use_dp: 0]

end of parameters

pandas_categorical:null
