tree
version=v3
num_class=1
num_tree_per_iteration=1
label_index=0
max_feature_idx=58
objective=binary sigmoid:1
feature_names=Column_0 Column_1 Column_2 Column_3 Column_4 Column_5 Column_6 Column_7 Column_8 Column_9 Column_10 Column_11 Column_12 Column_13 Column_14 Column_15 Column_16 Column_17 Column_18 Column_19 Column_20 Column_21 Column_22 Column_23 Column_24 Column_25 Column_26 Column_27 Column_28 Column_29 Column_30 Column_31 Column_32 Column_33 Column_34 Column_35 Column_36 Column_37 Column_38 Column_39 Column_40 Column_41 Column_42 Column_43 Column_44 Column_45 Column_46 Column_47 Column_48 Column_49 Column_50 Column_51 Column_52 Column_53 Column_54 Column_55 Column_56 Column_57 Column_58
feature_infos=[0:1] [0:1] [0:1] [0:1] [0:1] [0:1] [0:0.63259234121673757] [0:1] [0.0048403742429264469:0.79436225027872365] [0:1] [0:0.89692722371967648] [0:0.60700712589073635] [0:1] [0:0.50814353550001423] [0:1] [0:1] [0:1] [0:1] [0:1] [0:0.905813140315475] [0:1] [0:0.29370400654129192] [0:1] [0:0.52099721354864592] [0:0.79913836121014803] [0:1] [0:0.29253904403218506] [0:0.94555049191697438] [0:1] [0:0.91478088211578767] [0:0.90575152471330678] [0:1] [0:0.85213053016453388] [0:0.73059819077620924] [0:0.85262682364582376] [0.0059419582893115493:0.60780116101916304] [0:1] [0:1] [0:1] [0:1] [0:1] [0:0.048127652519893899] [0:0.7170045703452177] [0:0.050371516771864064] [0:0.53406024943117869] [0:0.77762837500000004] [0:0.53955774036618609] [0:1] [0:0.98710232158211519] [0:0.97206402695871941] [0:0.89570333071852315] [0:0.94908267102428889] [0:1] [0:1] [0:1] [0:1] [0:1] [0:0.79830039372850981] [-104.73999999999999:696.33000000000004]
tree_sizes=6737 6795 6764 6816 6770 6799 6785 6797 6800 6809 6806 6807 6806 6769 6785 6790 6830 6795 6817 6821 6770 6808 6818 6799 6833 6839 6808 6816 6833

Tree=0
num_leaves=63
num_cat=0
split_feature=23 0 18 24 30 52 11 9 32 0 20 23 20 3 18 53 53 21 9 18 58 29 54 19 43 23 58 3 29 57 8 42 23 30 56 57 29 18 30 19 56 1 29 29 29 15 41 31 43 21 51 18 42 15 57 1 11 18 57 3 3 58
split_gain=236.403 43.0585 39.6609 38.1069 21.4119 17.0887 16.9755 14.153 13.1385 13.0514 12.6169 12.5173 13.2958 12.4541 12.0491 13.4448 11.229 10.563 10.4564 10.3399 11.003 10.1207 9.91132 9.60239 11.0785 9.58347 10.9435 9.62686 9.44539 8.90645 10.8866 8.83127 8.71804 8.53688 8.36607 8.34302 8.2851 8.65016 7.90679 7.60268 10.2235 7.54959 7.4686 7.39306 11.076 10.0653 8.40994 7.34202 7.26774 9.28631 10.4123 7.57086 8.69129 7.18903 10.3866 7.18047 7.01098 6.5673 9.76471 6.46919 6.46114 7.39336
threshold=0.003749719651568503 0.16770903234465176 0.99770982202472169 0.0035834151964902316 4.6212353121247091e-05 0.8252380449203387 0.0019418052256532068 0.17293924414720976 0.81586432815356502 0.14230975707958668 0.82303737686825651 0.018333528802638881 0.82248849400631674 0.00080420326290556209 0.99770771023144633 0.97157949223375895 0.97213627021782156 0.1555600981193786 0.1790140435530897 0.99771092548427076 0.36500000000000005 0.0001341517497177875 0.94261644397666677 0.00034878135500231942 0.038775013092252147 0.035579950181478907 1.3950000000000002 0.00039496177302263423 2.600387034349299e-05 0.0013682966295927739 0.014759921053424536 0.0051321542916519421 0.018887305719198114 0.0021925848305743285 0.13944326477407412 0.00057365922450690917 0.00013999758103531691 0.99770269234427189 0.00010272682318035182 0.00030698645845351829 0.13885014311719421 0.12029225041470547 4.4347685857119823e-05 0.00012286324786324788 0.00014806079664570233 0.18151218696065657 0.036408771275419992 0.32209737827715362 0.038764277445494898 0.15564186426819299 0.0014205600534799082 0.99770410496274664 0.0046312056133301039 0.17821228558345956 0.00014606583882135682 0.11743583759439641 0.0010391923990498814 0.99771603849726864 0.00019811646827682788 0.00043643480471561844 0.00052447520092418804 0.025000000000000005
decision_type=2 2 2 2 2 2 2 2 2 2 2 2 2 2 2 2 2 2 2 2 2 2 2 2 2 2 2 2 2 2 2 2 2 2 2 2 2 2 2 2 2 2 2 2 2 2 2 2 2 2 2 2 2 2 2 2 2 2 2 2 2 2
left_child=3 2 6 4 -1 47 11 23 -7 -6 28 29 22 25 18 21 -11 -12 -3 20 43 -16 -13 -4 56 26 27 42 -8 30 53 -31 33 -29 -21 -22 37 -19 -18 -39 -41 -34 -9 46 -45 59 -17 -5 49 -20 -51 -50 -53 -2 -55 -30 -25 -36 -59 -46 61 -26
right_child=1 14 7 5 9 8 10 13 -10 16 17 12 -14 -15 15 19 38 36 48 34 35 -23 -24 24 60 -27 -28 32 55 31 -32 -33 41 -35 57 -37 -38 39 -40 40 -42 -43 -44 44 45 -47 -48 -49 51 50 -52 52 -54 54 -56 -57 -58 58 -60 -61 -62 -63
leaf_value=-0.90904014378278941 -0.84007709531340224 -0.87872038690858645 -0.85141185998048186 -0.8040787223429553 -0.89646936600081972 -0.688112535131015 -0.85506236649723599 -0.81066771025272455 -0.84481064760334745 -0.79654845044607603 -0.68811253513101522 -0.68712418694454969 -0.83438806672789412 -0.88793856846729213 -0.86206181594892528 -0.80168272673940277 -0.88973556516995655 -0.83043467398203252 -0.85528457124173396 -0.82766036328318227 -0.79090074652341658 -0.73555324808135425 -0.79529340512992941 -0.81462110299858614 -0.77395763475543833 -0.7238649564848938 -0.85302548967267022 -0.76768240817470557 -0.87787538693237177 -0.73159985533549254 -0.85965540297318344 -0.86206181594892528 -0.86824973502940439 -0.86637460803531985 -0.89527031501416277 -0.90950252889926453 -0.82817559241296879 -0.67229896414756851 -0.79090074652341658 -0.83651681666797351 -0.69386292457954102 -0.75855480587545809 -0.71499560580287391 -0.87985208330530251 -0.67229896414756873 -0.8502016377113405 -0.67229896414756873 -0.86996860144064847 -0.87229412658527294 -0.74007141121948172 -0.8502016377113405 -0.84229485221961731 -0.7369908454434857 -0.81605870036071759 -0.69386292457954102 -0.79927263704406459 -0.70464490479552722 -0.77904056828583179 -0.86672811558338492 -0.79090074652341658 -0.87787538693237177 -0.83043467398203252
leaf_weight=108.13496848940849 17.284731805324558 27.613413006067276 10.32868120074272 5.6913141310215059 19.181836515665054 3.1618411839008322 12.858154147863386 2.5294729471206656 2.318683534860611 8.8531553149223345 3.1618411839008358 3.3726305961608904 12.647364735603331 2.3186835348606101 2.1078941226005536 2.3186835348606136 10.117891788482664 3.1618411839008358 7.3776294291019466 36.044989496469498 2.5294729471206656 6.3236823678016663 5.6913141310214996 2.1078941226005545 11.804207086563116 9.6963129639625532 4.4265776574611655 39.839198917150497 3.1618411839008322 3.3726305961608878 58.17787778377533 2.1078941226005554 4.8481564819812766 2.3186835348606101 10.539470613002779 3.5834200084209442 7.3776294291019431 3.1618411839008314 2.5294729471206656 2.740262359380722 2.318683534860611 2.318683534860611 10.539470613002775 3.3726305961608869 2.5294729471206665 2.5294729471206665 2.740262359380722 16.441574156284332 21.500520050525665 5.9021035432815534 3.3726305961608887 12.647364735603331 2.3186835348606101 6.9560506045818311 2.318683534860611 35.834200084209442 4.6373670697212219 4.2157882452011135 12.858154147863386 2.1078941226005554 3.1618411839008322 11.382628262042997
leaf_count=513 82 131 49 27 91 15 61 12 11 42 15 16 60 11 10 11 48 15 35 171 12 30 27 10 56 46 21 189 15 16 276 10 23 11 50 17 35 15 12 13 11 11 50 16 12 12 13 78 102 28 16 60 11 33 11 170 22 20 61 10 15 54
internal_value=-0.837871 -0.819761 -0.808516 -0.887398 -0.897407 -0.833453 -0.823075 -0.786402 -0.754408 -0.866486 -0.804455 -0.835348 -0.801264 -0.773776 -0.839602 -0.827414 -0.839737 -0.772654 -0.853763 -0.833363 -0.803567 -0.76718 -0.755044 -0.809324 -0.796189 -0.770317 -0.777058 -0.771668 -0.8179 -0.843551 -0.847546 -0.781778 -0.781778 -0.77311 -0.843525 -0.860426 -0.786903 -0.760152 -0.869969 -0.73312 -0.771134 -0.83276 -0.733513 -0.781284 -0.805133 -0.769971 -0.7316 -0.853025 -0.840789 -0.81342 -0.780119 -0.853287 -0.82598 -0.821022 -0.78551 -0.805646 -0.739012 -0.864235 -0.845077 -0.726209 -0.810826 -0.801683
internal_weight=0 482.497 307.963 176.431 148.817 27.6134 185.705 122.258 5.48052 40.6824 73.7763 111.929 21.7113 78.8352 174.534 93.8013 21.5005 21.9221 80.7323 85.3697 21.7113 8.43158 9.06394 43.4226 33.0939 76.5166 66.8202 62.3937 51.8542 90.2179 84.7373 5.48052 49.3247 42.1579 63.6584 6.11289 18.7603 11.3826 12.6474 8.22079 5.05895 7.16684 13.0689 15.5984 10.5395 7.16684 5.05895 22.1329 53.1189 16.6524 9.27473 36.4666 14.966 26.5595 9.27473 38.996 6.74526 27.6134 17.0739 4.63737 26.3487 23.1868
internal_count=3126 2289 1461 837 706 131 881 580 26 193 350 531 103 374 828 445 102 104 383 405 103 40 43 206 157 363 317 296 246 428 402 26 234 200 302 29 89 54 60 39 24 34 62 74 50 34 24 105 252 79 44 173 71 126 44 185 32 131 81 22 125 110
shrinkage=1


Tree=1
num_leaves=63
num_cat=0
split_feature=23 0 24 30 30 52 52 8 23 19 1 0 41 39 41 14 23 46 19 29 53 19 57 19 1 14 19 19 23 10 58 58 11 57 29 3 29 51 52 58 54 49 11 30 56 49 9 23 56 41 3 19 43 46 53 51 41 22 3 3 57 14
split_gain=216.268 38.1661 35.9013 35.1561 20.6476 16.0901 14.9819 13.9495 13.2822 13.2339 12.7352 12.2182 11.2482 11.015 10.7041 12.7318 11.5132 10.5497 10.5347 13.1689 10.1125 9.95252 10.9343 10.9192 9.85094 9.82972 9.33674 9.32639 9.14623 8.83215 8.81971 8.40982 8.12834 10.1609 8.04437 8.01409 7.60779 10.2452 8.78485 10.5228 7.60681 7.25817 14.5906 7.24801 7.14415 10.8404 8.9216 8.86211 7.90372 7.33512 7.09913 11.388 7.39067 6.8565 6.8174 8.86826 6.59829 6.1915 6.11577 6.08011 16.0175 7.03039
threshold=0.003749719651568503 0.16770903234465176 0.0035834151964902316 0.0001769020651329268 4.6212353121247091e-05 0.82437876439716828 0.8252380449203387 0.015075745020640614 0.0076231021251082056 0.00027990807477401331 0.12072279969700596 0.14230975707958668 0.036413910532714415 0.99950549558583546 0.036510782769672866 0.82639472836294769 0.010993840846090149 0.010642479101990185 0.00021574407866388197 0.00012205692630220932 0.97213627021782156 0.00036644117044547486 0.00015348432116433269 0.00030580913742397458 0.12188920598865885 0.82451845623079534 0.00090948049532250366 0.00030580913742397458 0.0053681055956596854 0.29288409703504048 0.03500000000000001 0.24500000000000002 0.0018586698337292164 0.00024652950609309831 0.00025389050153201101 0.00038833329599437391 2.8422835026608612e-05 0.00088204709203000824 0.82251491082854911 0.19500000000000003 0.94430668783559601 0.60712721145745585 0.0033076009501187653 0.00010272682318035182 0.13894977510155201 0.60062342038753169 0.1785896720551369 0.0068298842877214418 0.13919470372976489 0.036405365826702042 0.00047960270048342596 0.00024635442543201802 0.038773386896722807 0.010638777427352581 0.97239508125329477 0.0016619624155091736 0.03641968528956676 0.69480519480519487 0.00051565021901734905 0.00042024106032255019 0.00057876287580675733 0.82141032794486313
decision_type=2 2 2 2 2 2 2 2 2 2 2 2 2 2 2 2 2 2 2 2 2 2 2 2 2 2 2 2 2 2 2 2 2 2 2 2 2 2 2 2 2 2 2 2 2 2 2 2 2 2 2 2 2 2 2 2 2 2 2 2 2 2
left_child=2 3 4 8 -1 7 29 14 9 10 18 -6 -10 -8 15 21 -16 44 -2 30 -13 23 25 -5 -12 36 34 -9 -19 57 -20 -25 33 35 -17 -32 38 -38 39 -23 -36 54 -43 -22 45 46 -3 49 -46 -47 51 -14 -53 -33 55 -29 -56 -4 -58 -30 -61 -62
right_child=1 17 6 5 11 -7 13 27 12 -11 24 20 50 -15 16 26 -18 28 19 -21 43 22 -24 31 -26 -27 -28 41 59 -31 32 53 -34 -35 40 -37 37 -39 -40 -41 -42 42 -44 -45 48 47 -48 -49 -50 -51 -52 52 -54 -55 56 -57 58 -59 -60 60 61 -63
leaf_value=-0.069669436507180854 -0.033252250473399581 -0.040060296792920731 0.072109163235849399 0.12495261048289832 -0.057051640510149285 0.088371709473952537 0.15083230710593021 0.099315099955440231 0.065073009537444867 -0.034540525944434838 0.11182704547483679 0.038616712661960061 -0.071769922723967997 0.01097693820598046 -0.036306616083598246 -0.022823978071927167 0.067822698502473411 -0.02862866580116806 -0.032277758648178577 -0.016344717449416454 -0.050349673507458198 0.085364894867206623 0.12064271947894306 -0.011198013628259021 0.01521057745328684 0.14456781596086971 0.11368537136898203 -0.032436359969223609 -0.015623342033882279 -0.04054319476365089 0.019564309065983464 0.0090842897609218938 0.090233514473702758 -0.011413099244076921 -0.0075255557429229252 0.14261692791825406 -0.0064580254776286485 0.081958043818889992 -0.07230701712688023 -0.048561945699933579 0.12011022115619263 0.014226483325449617 0.12847662188495582 0.043798644289428652 -0.071636911074417747 -0.019526323882011073 0.040374249689294615 0.10791350838680919 0.010326455314424618 0.083039431449870443 -0.014602387362231012 -0.033114990104147909 0.058593706260627688 0.11386781956518655 0.067017374980681582 0.086637027169558081 -0.0066458487654743091 -0.012257411836728028 -0.064279790493767391 0.10937575758303414 0.018284258474376074 -0.022101983664150442
leaf_weight=105.01858024299145 16.882725208997726 6.3191005885601061 3.816919490695005 2.783603951334956 18.728357031941414 17.664241433143616 2.6587451398372641 3.2030967473983756 16.001808539032936 22.814406216144562 4.8905101716518384 8.995974004268648 2.3236630856990841 2.9924644529819489 6.9999786466360074 10.173278719186785 4.276127502322197 41.015166357159615 3.8000618070364025 20.719854667782784 9.9066095352172834 4.7376893162727338 10.828556865453718 9.8090944588184374 5.7286224961280823 3.4479150474071494 2.1462634205818167 2.5361704379320171 35.857045084238052 13.125645384192465 2.7408987134695071 3.033415660262107 7.9658858925104132 7.5270329266786575 2.3290543407201758 2.5580523014068604 3.8157249242067364 23.180966854095459 2.131305530667305 2.1243124306201935 2.3403338193893433 14.375367581844332 3.4687910228967658 2.5757605433464041 3.5817511975765255 3.8128460496664029 7.5861279368400574 6.6454721093177795 16.447792813181877 3.2113765478134155 13.106166213750837 2.5544369220733669 15.693936809897421 3.2167282700538635 2.1467601507902172 4.0779733806848526 14.479905992746355 5.0544190555810928 6.7480180561542502 3.8474465906620017 28.809665992856026 17.21485635638237
leaf_count=513 80 30 18 13 91 82 12 15 75 108 23 42 11 14 33 48 20 196 18 98 48 22 50 46 27 16 10 12 171 63 13 14 37 36 11 12 18 107 10 10 11 67 16 12 17 18 36 31 78 15 62 12 74 15 10 19 68 24 32 18 136 82
internal_value=0 0.0170582 -0.0480621 0.0275457 -0.058004 0.0432608 0.00415933 0.0378915 0.00958473 -0.00131104 0.00910062 -0.0275344 0.0305578 0.0767752 0.0489892 0.0549886 0.00318133 -0.00167229 0.000460205 0.0130211 -0.00179645 0.0645216 0.0761389 0.0335307 0.0597061 0.0639193 0.0162091 0.0167176 -0.00921003 -0.0144963 0.0377632 0.0176843 0.0505644 0.0259269 0.0021139 0.0789676 0.0561931 0.0694613 0.0163636 0.0439043 0.0564465 0.0111866 0.036436 -0.030922 0.0183965 0.0349047 0.00382153 0.0665235 -0.00433051 0.0273653 0.0141583 0.0324813 0.0457562 0.0630127 -0.00383752 0.0409788 -0.0165188 0.0240416 -0.0249668 8.0386e-05 0.0113711 0.00317833
internal_weight=0 485.731 172.873 311.383 145.225 166.075 27.6482 148.41 145.308 95.6281 72.8136 40.2067 49.68 5.65121 97.3743 86.0982 11.2761 174.349 62.1945 45.3118 21.4783 69.1093 50.2665 18.8428 10.6191 39.4379 16.9889 51.0361 126.744 21.997 24.5919 16.0592 20.7919 12.826 14.8427 5.29895 35.99 26.9967 8.99331 6.862 4.66939 47.833 17.8442 12.4824 47.6045 27.5749 13.9052 13.6697 20.0295 7.02422 33.6782 20.572 18.2484 6.25014 29.9888 6.61414 23.3747 8.87134 21.2279 85.729 49.872 46.0245
internal_count=3126 2289 837 1461 706 775 131 693 686 452 344 193 234 26 454 401 53 828 294 214 102 321 233 88 50 183 80 239 603 105 116 75 98 61 70 25 167 125 42 32 22 224 83 60 225 130 66 64 95 33 159 97 86 29 141 31 110 42 100 407 236 218
shrinkage=0.05


Tree=2
num_leaves=63
num_cat=0
split_feature=23 25 30 13 30 19 23 49 18 9 14 13 52 58 7 20 43 49 11 19 54 32 41 18 56 10 43 1 5 14 35 8 51 18 49 41 18 51 58 46 8 3 49 46 51 32 49 23 54 54 29 19 30 53 56 3 51 57 3 32 23 56
split_gain=198.115 33.2992 33.0402 21.0052 18.1752 14.0351 12.4312 11.9843 14.5736 11.4313 11.3178 10.1264 9.62303 9.28001 9.26196 8.9844 8.15691 8.11931 8.26685 7.89903 10.163 7.95898 10.6251 7.71076 7.86919 7.65115 7.55698 8.11966 12.1147 8.97138 7.96514 10.7404 7.75073 7.74332 9.44499 7.75842 7.51917 7.38657 8.84475 7.31101 7.26987 7.42834 7.69018 7.0915 6.92308 12.6827 7.28792 11.9971 6.87355 10.351 9.19101 8.76046 12.7088 7.48018 7.64185 6.88878 6.67731 6.46017 13.8767 9.65468 7.55736 7.32675
threshold=0.003749719651568503 0.5904392764857882 0.00016336214001459962 0.00040518638573743931 4.6212353121247091e-05 0.00036879581250456222 0.0075824003028673983 0.60399326032013489 0.99771029765383779 0.17998656156923151 0.82767963095397146 0.00029429326964087701 0.8252380449203387 0.38500000000000006 0.053956950018574042 0.81738637831237615 0.038764787354262566 0.59169334456613321 0.0015736342042755346 0.00032405761338190185 0.94592111600692164 0.81598032449725788 0.036514588859416455 0.9977077768195225 0.13990977078416603 0.29288409703504048 0.038760218847330566 0.1191540108985302 0.00040080126160227001 0.81425691764835328 0.018441987187637992 0.01511039714345979 0.0014205600534799082 0.99770274466347475 0.60210614995787715 0.03640813577586207 0.99771048314919286 0.0011605882789868531 0.49500000000000005 0.010549937236050034 0.014664816042426254 0.00038647527690085343 0.59358045492839095 0.010611878591652642 0.0024975859763797076 0.81588825411334553 0.59944397641112046 0.014309464862764779 0.94305617496476812 0.94277431899673558 0.00039368650217706824 0.00030463181639443088 0.00017513598794357976 0.97186313384828138 0.13756530565224706 0.00044347238686538791 0.0023490306766693904 0.00069878135389044407 0.00044347238686538791 0.81589303016453385 0.019358327324456043 0.13967937182033865
decision_type=2 2 2 2 2 2 2 2 2 2 2 2 2 2 2 2 2 2 2 2 2 2 2 2 2 2 2 2 2 2 2 2 2 2 2 2 2 2 2 2 2 2 2 2 2 2 2 2 2 2 2 2 2 2 2 2 2 2 2 2 2 2
left_child=1 4 6 5 -1 15 9 8 44 -2 17 23 25 -6 -14 56 39 -10 -19 20 -5 -21 -23 24 -8 -3 32 28 33 -29 31 -31 -11 35 40 -28 -25 38 -13 -15 -35 -42 -43 -44 45 -7 47 -46 49 53 51 52 -50 54 55 -17 -4 58 59 -9 -61 -62
right_child=2 12 3 19 13 7 11 57 10 26 -12 37 14 16 -16 48 -18 18 -20 21 -22 22 -24 36 -26 -27 27 29 -30 30 -32 -33 -34 34 -36 -37 -38 -39 -40 -41 41 42 43 -45 46 -47 -48 -49 50 -51 -52 -53 -54 -55 -56 -57 -58 -59 -60 60 61 -63
leaf_value=-0.066124974595848804 -0.020779678735912539 0.022614262988215266 0.0096706432359402617 0.11866650421444391 -0.047745840979134382 0.085534084475479555 0.0096711852887261703 0.0151445261815105 -0.0041580667920316913 0.073740573151140229 0.0086084201864798614 -0.050322040056723187 0.00016831145922973406 -0.028965644133600567 0.1279520663217143 0.087251241448800129 -0.026924014142867117 0.059909451107480416 0.11334503908186376 -0.022430483753821059 -0.0062052710147940358 0.09724266134300516 -0.034542074483558685 0.092611923743972799 0.093958922392661473 -0.044792324436174855 0.037583316355568969 -0.07141026345995552 -0.03195201418949991 -0.0058183456861136537 0.015149877541563628 0.13218425999693764 -0.015695293805747461 -0.023484789017040333 -0.021738007035253686 -0.06145165149550158 0.029270275051306773 -0.056342525893986431 0.080048279980207471 0.079984698331797194 0.16145537809964519 0.13325014390603832 -0.048540035883447595 0.073096097430515233 -0.037127497385240425 -0.060603057087798097 0.11016297177839039 0.073684865801351238 0.0021085732010225271 0.1407330952025154 0.0698300818376386 -0.00085658037887819055 0.11050064909243507 -0.048256349978875422 0.13077923740703468 -0.033682081751683336 -0.061894801498334373 0.081291821328611069 -0.042768242712310861 0.03786638508433432 0.14792196987004855 0.05289098497320828
leaf_weight=106.91757079958916 66.172677755355835 8.9509632736444527 8.6161486059427244 2.850734904408454 22.413016468286514 2.1890179812908199 35.981688767671585 28.78764970600605 2.1669448763132086 7.5064992904663068 4.9234215021133414 2.3212149739265424 2.7463812232017508 2.3240935653448132 2.9318795651197433 2.174981087446211 10.410816267132757 10.784461826086043 22.010138809680939 30.4882453083992 3.8033220171928406 3.4994913190603247 2.716907262802124 7.820412531495097 2.9999953955411902 7.947805404663085 3.1873930841684359 2.5145258456468573 30.518115997314453 2.2949418723583213 27.431020081043243 3.6558774411678314 3.5767554640769958 2.0915440618991878 5.0308784693479529 5.2102225720882416 11.686864793300627 6.6945748925209045 2.959918737411499 4.5627445131540298 2.1372977048158628 2.1739353835582733 2.121276319026947 2.7538680732250214 4.2555987536907178 4.6141443848609924 3.5174814313650122 5.733072966337204 6.1007151156663877 3.0343706905841819 7.7173108309507361 36.283396422863007 4.8574081659317017 2.1155149191617966 2.432547315955162 2.5678865611553192 5.2425782531499854 5.8262308388948432 6.5077524781227103 15.670259699225427 3.8023185580968839 4.3470840752124786
leaf_count=537 316 42 41 13 110 10 169 133 10 35 23 11 13 11 13 10 51 49 99 145 18 16 13 36 14 39 15 12 146 11 129 17 17 10 24 25 54 32 14 21 10 10 10 13 20 22 16 26 29 14 36 170 22 10 11 12 25 27 30 72 17 20
internal_value=0 -0.046693 0.016085 0.0288044 -0.0553967 0.035454 0.00279058 0.0459563 0.0620282 -0.00458873 0.079584 0.0204236 0.00983394 -0.0265117 0.0661474 0.0192577 0.00100186 0.089579 0.0957728 -0.00283052 0.0472924 -0.0119171 0.0396455 0.0290004 0.0161579 -0.00908831 0.0058942 0.00115249 -0.0108809 0.0196652 0.0265256 0.0789634 0.0448781 0.0151467 0.0352328 -0.023862 0.0546638 -0.0214652 0.0227467 0.0432173 0.0606465 0.0798014 0.0550437 0.0201697 0.027551 -0.0135813 0.0482696 0.0264741 0.0268085 0.0605546 0.0192404 0.0109762 0.0501555 0.0343688 0.058729 0.0217754 -0.0174016 0.0310591 0.0261083 0.0346286 0.0581765 0.0972302
internal_weight=0 169.205 488.479 249.637 146.628 206.278 238.841 125.136 60.1943 168.377 39.885 70.4647 22.577 39.7107 5.67826 81.1429 17.2977 34.9615 32.7946 43.3587 6.65406 36.7046 6.2164 58.489 38.9817 16.8988 102.204 91.1209 55.2245 35.8964 33.3818 5.95082 11.0833 24.7064 16.3088 8.39762 19.5073 11.9757 5.28113 6.88684 11.2779 9.18638 7.04908 4.87514 20.3093 6.80316 13.5062 9.98867 67.2841 12.3253 54.9588 47.2415 10.9581 9.29093 7.17541 4.74287 13.8587 64.9413 59.1151 52.6073 23.8197 8.1494
internal_count=3126 837 2289 1159 730 954 1130 574 275 800 181 330 107 193 26 380 83 158 148 205 31 174 29 273 183 81 484 432 263 169 157 28 52 117 77 40 90 57 25 32 53 43 33 23 94 32 62 46 314 57 257 221 51 43 33 22 66 299 272 242 109 37
shrinkage=0.05


Tree=3
num_leaves=63
num_cat=0
split_feature=23 24 0 30 30 13 32 0 23 19 35 49 19 49 20 35 46 12 32 52 53 30 19 13 15 46 9 49 49 42 44 29 32 51 21 14 30 49 49 58 3 56 32 54 3 46 30 23 30 57 31 23 49 11 51 42 29 57 57 9 54 56
split_gain=181.644 32.5668 31.3605 27.1674 19.4202 14.6809 12.966 11.1418 10.6566 11.9497 10.8467 9.95929 9.74524 9.47521 9.46799 9.41898 9.16438 9.11815 8.83661 8.41033 8.28753 8.25115 8.23118 11.2622 14.1007 12.2035 8.09227 7.19472 9.47133 8.60177 8.27571 7.37026 7.10264 10.7291 8.17072 12.0717 7.65792 12.6181 9.77549 8.07273 7.52714 7.03417 9.03075 7.01284 6.93612 8.38471 9.53675 7.08729 6.80108 6.71918 6.66313 6.58979 6.57701 13.4261 6.50347 6.45206 6.97052 6.23979 9.52445 6.60753 6.20624 6.20294
threshold=0.003749719651568503 0.0035834151964902316 0.16770903234465176 0.0001769020651329268 4.6212353121247091e-05 0.00029429326964087701 0.81587675959780626 0.14230975707958668 0.0076231021251082056 0.00027990807477401331 0.018717677221876731 0.62717775905644491 0.0003228802923523582 0.60507160909856794 0.82440664882063575 0.019791539032391562 0.010642479101990185 0.12185349454117832 0.81598891681901287 0.82243786176370459 0.97213627021782156 0.00013687098217439426 0.00021574407866388197 0.00014430322158719331 0.17908550831836381 0.010878234646687494 0.18401809079978312 0.62416175231676507 0.70328559393428824 0.0027808467195773426 0.0040956696257596322 0.00072488308337364962 0.81606693327239499 0.0024418777389883391 0.15547833197056421 0.83090760489441806 0.00028051192690795214 0.60601516427969682 0.60493681550126366 0.46500000000000002 0.00039578241841518527 0.13793373642773674 0.81587799360146251 0.94541359687460991 0.00043643480471561844 0.010792931611149774 0.00024842819130148119 0.0055381021849537438 0.00010272682318035182 0.0012862413806163811 0.29151061173533088 0.0046037527011543221 0.60375737152485265 0.002891923990498813 0.003296070712322663 0.0034383418598747553 7.0250766005483002e-05 9.0950813984983422e-05 0.00014806100272043356 0.18313201882952054 0.94320691439070969 0.13894977510155201
decision_type=2 2 2 2 2 2 2 2 2 2 2 2 2 2 2 2 2 2 2 2 2 2 2 2 2 2 2 2 2 2 2 2 2 2 2 2 2 2 2 2 2 2 2 2 2 2 2 2 2 2 2 2 2 2 2 2 2 2 2 2 2 2
left_child=1 4 3 8 -1 11 19 -6 9 10 22 14 -7 -14 32 49 61 -12 -15 50 -9 26 -2 24 25 57 -18 29 31 -23 44 -29 33 34 35 43 37 39 -38 41 -36 -35 -43 -5 45 -31 -47 -46 -22 55 -3 -26 -16 -54 -34 56 -10 -24 59 -59 -56 -4
right_child=2 6 16 5 7 12 -8 20 15 -11 17 -13 13 18 52 -17 21 -19 -20 -21 48 27 23 -25 51 -27 -28 28 -30 30 -32 -33 54 36 40 -37 38 -39 -40 -41 -42 42 -44 -45 47 46 -48 -49 -50 -51 -52 -53 53 -55 60 -57 -58 58 -60 -61 -62 -63
leaf_value=-0.067101211272079894 -0.029133626668084174 0.060854061970788215 0.031923280838121001 0.039159372784259572 -0.054553840447713865 0.083087076575316443 -0.033853487317282577 0.034716951374639801 0.076230203239323724 -0.033032126588255724 0.10805233468515532 0.11036512407701977 -0.033631515390809608 0.0066531587205303422 0.09913539730418694 -0.039538601583138142 -0.033718949481068065 0.013976503199319999 0.10585927203793669 0.071129208656528761 -0.047755178670565418 -0.036263223225448379 -0.070949995401311569 -0.041246764565014984 0.028810514587102088 0.085649233793330101 0.0099322581568875128 -0.045019395838596737 0.055321888936961772 0.088630853288325581 -0.0083245570922708383 0.046234385666915366 0.05793393695332201 -0.071046140839742505 0.047474786195518315 -0.07227059980477421 0.095581739496296128 0.14796899494279575 0.038235852589588094 0.080199367997599483 -0.029602320757491453 0.10704859891063152 0.0013224563951363861 0.13167008217321835 0.0077766967538458161 -0.01860619624964439 0.084813221339717984 0.10820864147182208 0.043830169637934915 0.09494479926650401 -0.038743585895011146 0.12574693831250144 0.1074138933969733 -0.054286681382429307 -0.062215499479203566 -0.0083417015898278237 0.024394226363523126 -0.0017052521077673567 -0.012763471254270116 0.11444615480647971 0.0396423411480476 -0.0045064044021574214
leaf_weight=98.804941549897194 16.771660163998604 2.6059911847114581 28.030688643455505 32.349681317806244 17.935135900974274 3.7835727930068961 12.297531574964522 9.1949810832738894 8.9761208742856962 22.426741421222687 4.6477427035570127 5.6248406767845145 13.062013506889345 12.607982918620108 11.352936297655107 4.7783091664314261 43.095937043428421 5.7773415148258209 2.7308320850133887 7.8621449768543243 9.5221830010414106 7.1179229170083991 3.120415508747107 8.2026081383228284 2.9688371568918219 4.3747450560331336 14.088259831070898 17.280362650752075 3.5525339245796195 3.6960830390453401 13.330790609121321 2.5376275032758704 3.0382797271013242 2.4939474910497763 4.5472888350486746 2.3426232635974875 18.818631649017338 2.2345270067453376 12.281342819333075 4.7688768953084937 10.439145490527151 2.45929892361164 11.300782278180121 2.1870627850294104 2.5205976068973523 10.438054010272024 2.8344564586877814 5.7955806404352188 2.5752759575843802 4.1447029113769522 4.7221811860799789 4.2818272411823273 2.7169080525636664 2.4335175454616547 4.7078751176595688 9.369387745857237 23.373393192887306 2.1231443583965328 17.724800765514374 2.8925656825304031 2.1916726231575012 20.038075223565102
leaf_count=513 81 12 130 146 91 17 60 42 41 108 21 25 62 59 50 23 208 27 12 36 48 34 15 39 14 20 67 83 17 17 63 12 14 12 21 11 83 10 55 21 49 11 52 10 12 50 13 27 12 19 23 20 12 11 22 44 107 10 84 13 10 95
internal_value=0 -0.0453869 0.0151837 0.0245657 -0.0552841 0.0381219 0.00431262 -0.0255195 0.00873223 -0.00111584 0.00870472 0.0452005 0.00770676 -0.00233544 0.0424376 0.0272672 -0.00184315 0.0559177 0.0243152 0.0352105 -0.00106315 -0.00891531 0.000824563 0.0118217 0.023434 0.00841697 -0.0229648 0.00271074 -0.019858 0.0142437 0.0235536 -0.0333347 0.0374028 0.0411845 0.0249166 0.0375674 0.0567067 0.035005 0.0729359 0.022998 -0.00621505 0.00621532 0.0202186 0.0450177 0.0403606 0.0220274 0.00347989 0.0777682 -0.0282587 0.0342273 -0.0033254 0.0860556 0.0778753 0.0310122 -0.00301879 0.0281952 0.0387773 -0.00464797 0.00444988 0.0652794 -0.0298599 0.0167371
internal_weight=0 165.52 490.785 316.428 138.033 170.474 27.4878 39.2276 145.954 95.3124 72.8857 138.289 32.1844 28.4008 132.664 50.6419 174.357 10.4251 15.3388 15.1903 21.2924 126.288 62.4606 45.6889 37.4863 30.2357 57.1842 69.104 23.3705 45.7335 38.6156 19.818 116.161 106.223 51.8658 36.8794 54.3574 23.2574 31.1 21.0229 14.9864 16.254 13.7601 34.5367 25.2848 16.9686 13.2725 8.31618 12.0975 45.8636 7.32817 7.25066 16.5034 5.15043 9.93783 41.7189 32.3495 25.8609 22.7405 5.01571 6.89955 48.0688
internal_count=3126 837 2289 1461 706 775 131 193 686 452 344 625 150 133 600 234 828 48 71 71 102 603 296 215 176 142 275 328 112 216 182 95 527 481 237 167 244 106 138 96 70 75 63 156 119 80 63 39 60 211 35 34 73 23 46 192 148 122 107 23 32 225
shrinkage=0.05


Tree=4
num_leaves=63
num_cat=0
split_feature=23 24 0 18 30 11 49 32 51 0 3 18 49 23 42 52 29 14 21 52 56 23 57 52 58 14 56 43 49 0 52 21 51 58 58 29 49 49 29 52 0 23 33 29 11 3 57 57 52 23 29 19 49 3 3 0 52 32 14 23 43 49
split_gain=166.737 30.7924 27.9712 24.7749 18.8482 12.2018 15.2648 11.698 10.5855 10.4417 9.59772 9.46402 11.1437 9.43407 9.86699 9.4196 11.7438 9.41875 7.73107 7.55412 7.54748 7.53631 7.58649 7.10305 7.0621 9.08231 7.00367 6.87772 9.06959 8.60325 7.64155 6.8035 7.17112 6.73731 6.47027 6.37996 10.4755 14.2185 6.94964 6.36562 10.5097 6.28812 6.10411 6.05391 6.08807 6.05087 11.2172 8.07287 7.76709 6.58003 6.5648 6.89798 6.86366 6.03792 9.04948 6.02024 5.80889 6.45021 11.2425 5.80391 11.0121 7.25577
threshold=0.003749719651568503 0.0035834151964902316 0.16770903234465176 0.99770982202472169 4.6212353121247091e-05 0.0019418052256532068 0.59182813816343727 0.81587675959780626 0.00065921414246453256 0.14230975707958668 0.00080420326290556209 0.99770771023144633 0.61191238416175242 0.018333528802638881 0.0030175260357391182 0.82303884446949171 0.00011258264796000647 0.82725525945601863 0.15621422730989373 0.82344463621100594 0.14068451324586481 0.014309464862764779 0.0016724764516647189 0.82082350040505803 0.99500000000000011 0.8222079891863856 0.14144680170951882 0.038764277445494898 0.5985004212299917 0.22948597503690782 0.82417330022424951 0.15564186426819299 0.0014205600534799082 0.095000000000000015 0.85500000000000009 2.600387034349299e-05 0.60119629317607426 0.60588037068239264 0.00026910982099661348 0.82251491082854911 0.19490672392967387 0.023735342813950528 0.399036646799311 0.0007611675536203839 0.0010273159144893113 0.0005427558684668591 0.0003102645208138805 0.00075877956992732008 0.82342922639803706 0.048320634292966506 1.1187711659409774e-05 0.00032994421852962027 0.59570345408593095 0.00048116363133394573 0.00042091316159360089 0.21083747148033824 0.82350700926349907 0.81585278793418659 0.81687387521906218 0.017159802063478075 0.038784411951159017 0.60203875315922495
decision_type=2 2 2 2 2 2 2 2 2 2 2 2 2 2 2 2 2 2 2 2 2 2 2 2 2 2 2 2 2 2 2 2 2 2 2 2 2 2 2 2 2 2 2 2 2 2 2 2 2 2 2 2 2 2 2 2 2 2 2 2 2 2
left_child=1 4 3 5 -1 13 33 19 -5 -6 17 23 21 20 -15 35 -17 45 -11 -3 24 22 43 55 -2 -26 -22 31 -29 30 39 -25 34 -7 -33 -8 38 -38 41 40 -30 -37 -21 44 -13 46 49 56 -47 50 -10 52 -52 54 -14 -4 57 58 -48 61 -61 -53
right_child=2 7 11 8 9 6 15 -9 10 18 -12 12 53 14 -16 16 -18 -19 -20 42 26 -23 -24 27 25 -27 -28 28 29 -31 -32 32 -34 -35 -36 36 37 -39 -40 -41 -42 -43 -44 -45 -46 48 47 -49 -50 -51 51 59 -54 -55 -56 -57 -58 -59 -60 60 -62 -63
leaf_value=-0.065941556080525668 -0.020956686709534472 0.0060678096739811734 -0.064997419607567816 -0.021206163752531561 -0.053209488976842495 0.043826710513997683 -0.0097681969277956891 -0.03264219788573601 0.028285355441552525 0.022667276729487429 -0.050943037876234769 0.10460734794999815 -0.012181656301272655 0.071499530079647142 0.0036240875989847036 0.096024138277561122 0.019038888582429535 0.014927605855706239 -0.039436316382058814 0.11992059945993257 0.10617452550929413 0.103165969728506 -0.033791019414240418 -0.0205187530053728 0.0015773048005278591 0.10690354788280926 -0.0042930544858754823 -0.039227829075410225 -0.0017707546074849298 -0.032551265248151891 0.11453843580975956 0.039244497994659705 -0.0071955882665701637 -0.057657290890141148 0.14800403022610206 0.047138988276709697 -0.063408999913143888 0.059962101113516957 0.091762996133245997 -0.028300369687300316 0.13850647491469384 -0.028968369281851182 0.013925161198133841 0.10610766834781211 0.018758423528947087 0.13138094490889288 -0.039802191206079501 0.086077450709034761 0.028448695662821794 0.11345083993237531 0.085927041150276051 0.10245909213312068 -0.023896812979230395 -0.04349925163596912 0.040261751599166201 -0.01616616522030833 0.051884657513130317 -0.046546585643154725 0.10394571524580261 -0.041943130173461074 0.078057255195543379 0.055541225723550774
leaf_weight=95.596773117780685 53.080970659852028 9.6387915909290331 10.539640009403231 6.6982480436563483 17.480475038290024 2.1387702077627164 11.309966444969175 12.120745956897734 18.619769364595413 13.132417038083078 2.6411278992891303 2.221699163317683 32.033104076981544 8.7828853279352206 13.715640887618063 11.794418051838877 8.541007846593855 20.924464255571365 8.1034922450780851 3.486960604786872 2.791210174560546 3.089831441640853 5.2642332166433325 4.8633489012718192 29.144081905484203 2.2013387680053702 2.952585443854332 19.154290184378624 3.5714214146137255 7.855441987514495 2.391505539417266 3.0795547515153867 3.1241854578256607 6.9491691589355469 2.4597885757684708 15.584833025932317 5.5369732677936536 4.0390725135803223 7.1523765474557868 4.6169067323207855 2.1324866712093353 3.2862622439861289 2.2249669432640076 2.469133034348487 29.306105971336365 5.020099237561225 3.0006048828363472 3.3791129887104026 2.8865118771791458 4.9079639464616767 2.1852223426103583 17.274092003703117 4.0768605321645737 9.1182505041360837 11.068066313862799 15.735199660062788 4.2736678570508948 7.2229454070329666 2.4880432039499283 3.0626242756843549 5.0878493636846542 15.757067948579786
leaf_count=513 253 46 52 31 91 10 54 60 83 62 13 10 153 39 64 52 39 97 40 15 13 14 25 23 138 10 14 93 17 38 11 14 15 33 11 71 26 18 32 22 10 15 10 11 136 22 14 15 13 21 10 74 19 44 52 77 19 33 11 14 22 69
internal_value=0 -0.0441565 0.0143476 0.0231563 -0.0540217 0.011613 0.0270476 0.00407623 0.0400026 -0.0245897 0.043341 -0.00176793 0.00892229 0.00115611 0.030121 0.0352675 0.0636898 0.0454133 -0.00103107 0.0330687 -0.00607098 0.0279809 0.0220638 -0.0144808 -0.00984409 0.0089742 0.0493889 -0.003984 -0.0144702 0.00858594 0.0340062 0.0268091 0.0533771 -0.0337739 0.08754 0.0229463 0.0333397 -0.0113724 0.0497927 0.0153456 0.0506739 0.0338855 0.0786322 0.0307127 0.024808 0.0518409 0.0482084 0.0154972 0.0938029 0.0575945 0.0534449 0.063319 0.0144274 -0.00653461 0.00128543 -0.0357539 0.00145568 -0.0154987 0.0253598 0.0707534 0.0329659 0.0800776
internal_weight=0 161.785 492.602 318.508 134.313 189.002 76.3328 27.4715 129.506 38.7164 122.808 174.094 94.5704 112.669 22.4985 67.2449 20.3354 120.167 21.2359 15.3507 90.1702 42.351 39.2612 79.5238 84.4264 31.3454 5.7438 53.2489 39.7221 20.5678 12.7123 13.5269 8.66353 9.08794 5.53934 46.9095 35.5995 9.57605 26.0235 10.3208 5.70391 18.8711 5.71193 33.9969 31.5278 99.2424 91.3358 20.3644 7.90661 70.9714 66.0635 47.4437 6.26208 52.2194 43.1012 26.2748 16.9853 12.7116 5.48865 41.1816 8.15047 33.0312
internal_count=3126 837 2289 1461 706 881 350 131 580 193 549 828 445 531 103 307 91 536 102 71 428 196 182 383 401 148 27 254 191 98 60 63 40 43 25 216 162 44 118 49 27 86 25 157 146 439 404 92 35 312 291 208 29 249 205 129 77 58 25 179 36 143
shrinkage=0.05


Tree=5
num_leaves=63
num_cat=0
split_feature=23 24 0 30 30 13 32 0 49 19 49 49 11 23 46 49 20 23 51 53 32 52 19 43 58 1 42 15 42 0 32 51 21 14 3 58 30 31 9 30 49 49 58 56 45 19 9 13 51 54 54 49 11 44 43 30 56 56 44 23 20 19
split_gain=153.172 29.1208 25.0014 21.766 18.3647 11.7489 10.5737 9.80167 9.03667 8.42997 8.21795 8.09218 8.03624 11.0072 7.86359 7.75192 7.55783 7.33996 7.33242 7.32779 7.29209 6.67036 6.5593 7.48687 8.72119 7.57898 7.93319 7.0295 6.50975 6.2428 6.14718 8.56728 6.56114 10.5578 6.76008 6.25658 6.04663 5.98981 5.96077 5.94911 10.2015 7.7581 6.66781 6.29566 7.81305 6.0535 6.06577 5.80911 5.79118 5.55611 5.50195 5.44763 11.4881 5.31244 8.52663 7.07036 5.66945 8.77583 5.54269 5.70629 6.20671 6.74669
threshold=0.003749719651568503 0.0035834151964902316 0.16770903234465176 0.0001769020651329268 4.6212353121247091e-05 0.00029429326964087701 0.81587675959780626 0.14230975707958668 0.59071609098567823 0.0003228802923523582 0.62717775905644491 0.60507160909856794 0.0019893111638954876 0.0076231021251082056 0.010642479101990185 0.59607413647851726 0.82440664882063575 0.0053681055956596854 0.0033889177746416108 0.97213627021782156 0.81598891681901287 0.82243786176370459 0.00027990807477401331 0.038786775447203777 0.44500000000000006 0.12083144297384817 0.0027216092678751381 0.17836271471006071 0.004294985739056862 0.14780566366930617 0.81606693327239499 0.0024418777389883391 0.15547833197056421 0.83090760489441806 0.00039578241841518527 0.34500000000000003 0.00010272682318035182 0.30961298377028723 0.18313201882952054 0.00028051192690795214 0.60601516427969682 0.60493681550126366 0.46500000000000002 0.13793373642773674 0.74382768750000017 0.00034348341036937282 0.17917711223054375 6.34081151013677e-05 0.003296070712322663 0.94482401840983288 0.94320691439070969 0.60375737152485265 0.002891923990498813 0.002974173132288694 0.038758227446873024 5.7397508653778236e-05 0.14029376905721161 0.13990977078416603 0.0030887564087463937 0.0078215228963642008 0.82098346893968766 0.00025989361727177051
decision_type=2 2 2 2 2 2 2 2 2 2 2 2 2 2 2 2 2 2 2 2 2 2 2 2 2 2 2 2 2 2 2 2 2 2 2 2 2 2 2 2 2 2 2 2 2 2 2 2 2 2 2 2 2 2 2 2 2 2 2 2 2 2
left_child=1 4 3 8 -1 10 21 -6 -2 -7 16 -11 13 22 53 -14 30 -16 29 -9 -13 37 23 24 -10 26 27 38 -15 -17 31 32 33 35 -34 49 -21 -3 -26 40 42 -41 43 -33 -45 46 -46 -20 -32 -5 -50 -18 -53 -4 55 -55 57 58 -56 60 61 -60
right_child=2 6 14 5 7 9 -8 19 12 11 -12 20 15 28 17 18 51 -19 47 36 -22 -23 -24 -25 25 -27 -28 -29 -30 -31 48 39 34 -35 -36 -37 -38 -39 -40 41 -42 -43 -44 44 45 -47 -48 -49 50 -51 -52 52 -54 54 56 -57 -58 -59 59 -61 -62 -63
leaf_value=-0.064872770886169426 -0.041856017930036904 0.046338331597828852 -0.052679915674274595 0.047752666162638957 -0.051923252818860656 0.075529255350562208 -0.031471647001516549 0.032189763530608873 -0.041843454949853719 -0.03223865369050341 0.097960410754379154 0.0052135769229686183 0.01515717014476608 0.035095994438857414 -0.026063010374218695 0.13156579268535826 0.087469264405356059 -6.3985287736878721e-05 0.075330609487438249 -0.046043946017527065 0.093808498925024936 0.062261891653433245 -0.039014406476479496 0.0821985195980596 -0.035903837697987821 0.095500563522133708 -0.020977896944047853 0.08587697322775871 -0.014088033043079928 0.031465826033545329 0.05201127122856361 -0.069689481294023137 0.04421087506927001 -0.070966579184708153 -0.028559407962668332 0.017334370949021152 0.039831779726761454 -0.044521172298114663 0.046019798089270855 0.083805511788447001 0.12967000775387269 0.033478547515572353 0.071130660175282273 0.089664995707035428 0.082748601783932813 -0.049587548848729547 -0.012779316463352872 -0.034330875421714771 -0.061236124738977438 0.12202471246637546 0.03397844425192785 0.094496142482916476 -0.053757281018284857 0.0074247915655477753 -0.029439888058945186 0.09588324182524148 -0.036793921332131704 0.1147842459029158 -0.054155245082653819 -0.020373095652268872 0.060427869415972203 0.060409733905285715
leaf_weight=92.394357144832611 8.6663445979356748 3.3078260868787792 2.7043205797672263 15.932013630867006 17.029352501034737 3.9021058827638617 11.947466358542441 9.3249062746763247 12.010546818375586 12.834316462278368 5.8712002485990515 12.716002032160757 25.691089019179344 30.352616474032402 39.764214619994164 4.5415817648172361 11.819625943899156 85.554730653762817 2.2718627005815506 9.2530735284090024 2.8416272401809684 8.1508262455463392 14.611296877264975 2.5771768093109122 4.3251884579658526 2.3015109598636618 17.103494420647621 4.0134161561727515 8.6432857364416105 2.3706105500459671 3.1261687576770765 2.4173165410757163 4.623592182993888 2.2868943512439719 10.303080379962919 16.454217731952667 2.6331076174974433 4.0162856876850128 4.5625993758440018 19.609525859355927 2.3632776439189902 12.563872560858725 4.931139111518859 2.9694097489118567 2.8530701249837858 4.1264630556106567 3.9796899110078812 2.5780764371156693 4.6314488351345062 2.990696817636489 2.256404772400856 2.8408846259117118 2.4196930229663849 3.6908236145973188 6.8638089895248475 5.8225847333669662 5.8293664455413809 2.1349757313728324 3.0705246627330807 5.750260964035987 10.332056552171705 2.209991380572319
leaf_count=513 42 15 13 70 91 17 60 42 58 62 25 59 118 137 196 20 50 407 10 48 12 36 72 12 21 10 83 18 41 11 14 12 21 11 49 73 12 20 21 83 10 55 21 13 13 19 18 12 22 13 10 12 11 17 32 26 28 10 15 27 47 10
internal_value=0 -0.0429791 0.0135706 0.0218548 -0.0528121 0.0338314 0.00386359 -0.0236718 0.00766919 0.00662124 0.0400472 -0.00284927 0.0107804 0.00341343 -0.00170209 0.0305487 0.0375378 -0.00831358 0.0641672 -0.000990054 0.0213956 0.0311442 -0.00976233 -0.000647916 -0.00546573 0.00805849 0.00135125 0.0309536 0.0241946 0.0972354 0.0330531 0.0365155 0.0220349 0.0331529 -0.00601854 0.0398836 -0.0270202 -0.00348583 0.00615215 0.0501598 0.0311163 0.0641526 0.0201698 0.00479625 0.0177233 -0.00176941 0.0271091 0.017038 -0.00442847 0.0594912 -0.0300446 0.0686309 0.0263044 0.0154135 0.0194426 0.0615649 0.00837004 0.0170414 0.00964846 0.0222074 0.0378902 -0.00620773
internal_weight=0 158.057 494.012 320.284 130.635 173.664 27.4224 38.2404 146.621 32.2941 141.37 28.3919 137.954 100.501 173.728 37.4532 135.498 125.319 11.7621 21.2111 15.5576 15.4749 61.5052 46.8939 44.3168 32.3062 30.0047 12.9012 38.9959 6.91219 118.418 108.404 52.5905 37.6638 14.9267 35.3769 11.8862 7.32411 8.88779 55.8138 23.6404 32.1734 21.2771 16.3459 13.9286 10.9592 6.83276 4.84994 10.014 18.9227 6.88785 17.0802 5.26058 48.4087 45.7044 9.51341 36.191 30.3616 28.2266 21.3628 15.6126 5.28052
internal_count=3126 837 2289 1461 706 775 131 193 686 150 625 133 644 473 828 171 600 603 53 102 71 71 295 223 211 153 143 60 178 31 527 481 237 167 70 156 60 35 42 244 106 138 96 75 63 50 31 22 46 83 32 73 23 225 212 43 169 141 131 99 72 25
shrinkage=0.05


Tree=6
num_leaves=63
num_cat=0
split_feature=49 24 0 23 18 11 43 52 33 52 10 23 30 49 23 42 57 9 35 23 21 43 58 14 20 3 23 49 49 49 49 3 13 18 19 23 3 11 11 30 30 1 45 9 5 30 53 43 19 30 53 5 23 53 0 0 44 53 30 30 9 49
split_gain=141.231 25.8877 24.2564 24.0607 18.2972 11.6618 9.86721 9.76645 9.62313 10.7074 9.34255 8.9969 8.91013 9.39672 8.89703 8.60538 10.232 8.18036 7.69668 7.61872 7.50073 13.1143 7.28388 7.55302 6.70567 6.63852 6.5813 6.51063 6.40563 6.54602 6.93013 6.2943 9.77277 9.76898 7.49092 7.33453 6.25431 6.14161 7.72948 8.34575 5.90943 5.75594 8.77607 6.8086 5.75068 9.61635 5.68844 6.99826 5.59215 10.9721 8.66746 8.0585 7.15243 5.48158 5.329 5.61113 5.03381 4.97913 5.9265 11.1831 4.74609 4.74247
threshold=0.59162594776748112 0.0035834151964902316 0.16770903234465176 0.0040317380772163383 0.99770982202472169 0.0019418052256532068 0.038758861387503112 0.82350700926349907 0.399036646799311 0.82367945240862717 0.275256064690027 0.018333528802638881 0.00013687098217439426 0.62416175231676507 0.0037232152282780143 0.0026660234399080011 0.00013600183528623508 0.18260744850566227 0.019791539032391562 0.0036687616653499023 0.15564186426819299 0.038764098288360305 1.3950000000000002 0.82707843799853842 0.82338373075974791 0.00080420326290556209 0.023009806264419373 0.70328559393428824 0.59556866048862689 0.59765796124684079 0.59951137320977266 0.0005427558684668591 0.00013221871534590125 0.99771170551602129 0.00032994421852962027 0.010434231193363326 0.00039680031091989242 0.0013242280285035632 0.00076603325415676969 5.3276661878635182e-05 7.9767819718840519e-05 0.11769336239876309 0.74375004166666681 0.18436191030043933 0.00041179839689235964 6.6816586996962368e-05 0.97383907492722732 0.038773173286293108 0.00022045336278205677 0.00011450067110933198 0.97215346061870167 0.00059261068485171422 0.004831116772788511 0.97253451450487838 0.086417930479130337 0.058978660582472156 0.0030748722540769107 0.97357930886948296 0.0001404031365530883 0.00011096851673063792 0.18610458399805105 0.60203875315922495
decision_type=2 2 2 2 2 2 2 2 2 2 2 2 2 2 2 2 2 2 2 2 2 2 2 2 2 2 2 2 2 2 2 2 2 2 2 2 2 2 2 2 2 2 2 2 2 2 2 2 2 2 2 2 2 2 2 2 2 2 2 2 2 2
left_child=1 3 4 -1 5 11 41 14 9 10 -3 15 17 -14 -7 16 56 -8 54 -6 -19 -22 23 25 -17 31 -24 -15 40 -30 -31 32 34 -34 35 -21 -26 38 -5 -40 -9 42 -4 -43 45 -23 47 -36 -16 52 -51 53 -50 -52 55 -13 -2 58 59 -38 -39 -49
right_child=2 8 6 37 19 7 12 28 -10 -11 -12 18 13 27 48 24 -18 20 -20 22 21 44 26 -25 36 -27 -28 -29 29 30 -32 -33 33 -35 46 -37 57 60 39 -41 -42 43 -44 -45 -46 -47 -48 61 49 50 51 -53 -54 -55 -56 -57 -58 -59 -60 -61 -62 -63
leaf_value=-0.060934212325491288 -0.028529519840424206 0.092646871873827807 -0.010667105445126659 -0.039191702172074072 -0.046944823458282034 -0.065815104967624008 -0.03061422781637399 0.078286976669179872 -0.022162337051301821 0.11623425029648256 -0.023478662321420395 0.0093397205205880234 0.016850053918536421 -0.026825743792683817 -0.035567152522591759 -0.027009778341156029 0.081269132661948837 -0.028969052818620653 -0.040156850427805112 -0.015895739911439017 0.095938644403533613 -0.046624839349220147 -0.026809027569926841 0.014554267741813716 -0.070662114542890037 -0.043281890426934116 0.063258089869171016 0.047224173237540967 0.13305112979991365 0.0041079264241488441 0.10070102187321409 0.093451427618461147 0.080717195201264955 -0.016285143601881231 0.086152450325665264 0.075385610645741882 0.0036232283122230855 -0.041952437732489793 -0.0065062405367555913 0.088938229840885508 -0.026656403773398171 -0.02061923982106607 0.090944269413044287 0.079722276963835395 -0.032936474375855999 0.093514379810131387 0.10956122280592923 0.061665947165170189 0.022394891621937033 -0.033458141022958902 0.082869399007324304 -0.070494610701269861 0.12971313125616082 0.024413135419323329 0.018711896804808961 0.10341301036418127 0.037078893029002871 0.088883735321310497 -0.034214585038082716 0.13029529030358203 0.036983209265951937 0.028357944345491368
leaf_weight=104.73919947445393 7.1310821175575274 2.3994089066982287 3.0885995179414767 4.4546812027692821 2.702751785516738 3.1028782576322547 47.014156997203827 2.2500090301036861 15.559995472431181 3.173782378435134 6.2268486171960831 2.2716726213693681 59.462622329592705 25.11902812123299 4.0275623351335517 42.841061189770699 5.3784549087285987 10.625072836875917 3.2788241356611243 6.9041783362627012 4.6626369357109096 2.0452938675880414 7.5002332031726819 21.324569389224052 2.2664076089859035 1.9731239974498738 2.7800218909978867 3.3661220371723166 3.9611775130033475 3.6338289529085159 3.797386109828949 7.4589216262102118 3.435568392276763 10.615034654736517 13.639279246330259 3.2302447110414505 8.4908492714166695 13.652610719203947 4.5916963517665845 4.5697992444038391 3.3220657110214233 6.8502128571271879 6.8110305964946747 2.2445146441459656 6.8325967341661453 3.0490338951349258 5.2126407325267783 21.381689369678497 2.5964699387550345 7.1879146844148627 4.5981482565402976 2.0305363386869422 3.8615681380033493 31.372369959950447 9.5586208403110486 5.2446885406970978 4.9550795555114746 2.149341791868209 5.5128561854362479 2.1922245472669593 2.2129378020763388 21.365513443946838
leaf_count=591 35 11 14 21 15 17 233 10 77 13 30 10 278 122 19 207 24 51 16 32 21 10 35 98 11 10 12 16 17 16 16 32 15 47 58 14 40 66 22 21 16 33 30 10 34 15 22 90 12 33 20 10 17 142 43 23 23 10 27 10 10 93
internal_value=0 -0.0406669 0.0132691 -0.0497028 0.0218416 0.0113921 -0.00123532 0.0262318 0.00366067 0.0377119 0.00882186 0.00029336 -0.00522871 0.00553822 0.0165861 -0.00718103 0.0238989 -0.0179856 0.0300081 0.0361222 0.00383081 0.0248381 0.0378925 0.0414514 -0.0157354 0.0474753 -0.00245277 -0.0180752 0.0596517 0.081139 0.0534675 0.0493958 0.0455652 0.00743328 0.0530342 0.0131993 0.00769821 -0.00980099 0.014833 0.0411019 0.0157198 0.0328608 0.0592424 0.00414434 -0.00295756 0.0372506 0.0595879 0.0549682 0.0211785 0.0256036 0.0168915 0.0264151 0.0865656 0.0318857 0.0434815 0.0749812 -0.00163141 0.017379 0.00788968 0.029617 -0.0309424 0.0450182
internal_weight=0 161.581 487.708 134.221 306.537 177.013 181.171 75.7419 27.36 11.8 8.62626 101.271 162.177 87.9478 58.7774 80.9174 17.4646 74.2288 20.3538 129.524 27.2146 16.5896 126.821 116.541 63.4527 95.2162 10.2803 28.4852 16.9645 11.3924 7.43122 93.2431 85.7841 14.0506 71.7335 10.1344 20.6117 29.4817 13.6162 9.1615 5.57207 18.9944 9.89963 9.09473 11.9269 5.09433 61.5991 56.3865 55.6746 51.647 45.189 38.0011 6.45804 35.9705 17.075 7.51636 12.0862 18.3453 16.1959 10.6831 15.8655 42.7472
internal_count=3126 862 2264 731 1397 824 867 345 131 54 41 479 780 416 270 387 82 364 92 573 131 80 558 511 305 413 47 138 75 49 32 403 371 62 309 46 98 140 64 43 26 87 44 43 59 25 263 241 253 234 205 172 29 162 76 33 58 87 77 50 76 183
shrinkage=0.05


Tree=7
num_leaves=63
num_cat=0
split_feature=49 24 19 0 18 11 32 43 52 29 11 30 49 8 9 11 8 19 45 21 43 19 41 0 11 58 58 44 19 21 53 35 15 42 3 29 41 11 0 9 41 14 54 44 3 11 49 52 19 29 18 58 19 53 11 5 21 44 30 29 58 52
split_gain=129.77 24.4288 23.3501 21.7366 16.269 10.4336 8.92857 8.84204 8.63258 14.0929 8.18035 8.11928 8.47428 7.87582 7.53988 6.60338 6.5867 6.59732 9.72424 6.58279 11.76 6.4344 13.5518 7.54497 6.40898 6.36972 6.2054 6.69386 7.36061 8.75043 8.89522 13.7864 6.53597 5.9214 5.90195 6.67423 7.71386 6.54351 7.38744 9.71931 9.70919 8.05246 6.34947 9.13264 5.96055 5.88331 5.87256 5.84807 5.79959 5.75039 6.46764 5.71878 5.69319 7.57228 5.67807 5.65712 8.08247 5.58251 5.96748 5.55602 6.88692 5.55115
threshold=0.59162594776748112 0.0035834151964902316 0.00017748114520371191 0.16770903234465176 0.99770982202472169 0.0019418052256532068 0.81587675959780626 0.038758861387503112 0.82350700926349907 0.00011258264796000647 0.0013242280285035632 0.00013687098217439426 0.62416175231676507 0.014734779431705187 0.18285892791185648 0.00076603325415676969 0.014652009823123514 0.00022045336278205677 0.7437899375 0.15564186426819299 0.038764098288360305 0.00040705874596473228 0.036433023872679056 0.082606361562206423 0.0016448931116389549 1.3950000000000002 1.2050000000000003 0.0032324340093148642 0.00028344003786264443 0.1555600981193786 0.97274079931544011 0.019072086297338354 0.17929757669684057 0.0026295072025573269 0.00077965208531595106 1.9452507660054832e-05 0.036438964412024759 0.00088479809976247043 0.093671990336867558 0.16907864232555583 0.036425432416003538 0.82249286820121503 0.94165849046506234 0.003186257494908494 0.00040971634404182229 0.001609263657957245 0.70328559393428824 0.82319514400103333 0.00021927604175251306 3.1144170295113696e-05 0.9977068921493667 0.15500000000000003 0.00024341112285815875 0.97131972617601436 0.0025118764845605706 0.00041179839689235964 0.15621422730989373 0.0032514662213337059 0.00095721383662608628 0.00014806079664570233 0.25500000000000006 0.82344463621100594
decision_type=2 2 2 2 2 2 2 2 2 2 2 2 2 2 2 2 2 2 2 2 2 2 2 2 2 2 2 2 2 2 2 2 2 2 2 2 2 2 2 2 2 2 2 2 2 2 2 2 2 2 2 2 2 2 2 2 2 2 2 2 2 2
left_child=1 2 -1 4 5 13 61 -5 16 -10 15 14 -13 48 -9 -4 -7 -18 -19 -16 -21 22 23 -15 26 34 27 -25 29 -29 -31 -32 47 -20 35 42 37 -37 41 45 -41 -39 -6 44 -44 -40 -14 -28 -2 -35 -51 -52 53 -17 -11 56 -22 -45 -59 -24 -61 -3
right_child=3 6 10 7 25 8 -8 11 9 54 -12 12 46 21 19 52 17 18 33 20 55 -23 59 24 -26 -27 32 28 -30 30 31 -33 -34 49 -36 36 -38 38 39 40 -42 -43 43 57 -46 -47 -48 -49 -50 50 51 -53 -54 -55 -56 -57 -58 58 -60 60 -62 -63
leaf_value=-0.063196753536134673 0.091106539923720725 0.0049098578710143797 -0.030888714345838598 0.030939602424728388 0.07568586441140851 -0.036181651485206773 -0.029612757525254843 -0.029208538070638917 0.093806127791558572 0.05416030137697584 -0.035395521641675531 0.015906196743587588 -0.025782626850840647 0.062917305681125385 -0.027037318347136314 -0.052530899636924568 -0.037130866674749269 0.12288065451080495 0.089634405347971347 0.094457406115993736 0.099665608734823802 -0.050958693320109133 0.00059784415334398567 -0.053755614112317308 -0.044163637574162841 -0.0034296937158135622 -0.050982066562047013 0.0790369150989578 -0.05309654675810134 -0.034238867726340334 0.11347599997025254 -0.04835474173684879 0.10600320996290405 -0.015654416552380129 -0.034441638097269925 -0.0061443380538257443 0.079710006768159147 0.0876378211952928 0.035000722349935377 0.054498195795863291 -0.01648327429285049 0.00057548244041736717 0.0090815983205133535 0.096721294128617963 -0.056307721846696336 -0.061475019004353731 0.04402915522072523 0.046551590083071394 0.016466297621966702 0.042008461895721369 -0.04366507555256887 0.02995884146566255 0.093508120410626602 0.052506104103834363 -0.036694299049750433 -0.031764876765013099 -0.027717152090682647 0.0012298695726680588 0.083169721324124785 0.018165497377868555 0.11516595910942679 0.066383934795170935
leaf_weight=88.291256442666054 3.0131499618291882 9.686525300145151 6.1863126307725933 19.147979989647865 4.4959574937820426 5.5450316965579978 11.666033923625944 47.230651587247849 10.113195523619654 2.9784188866615287 26.07418829202652 59.831722065806389 24.835879176855091 3.1770741045474997 10.297364473342897 2.849351301789282 4.4621492177247992 2.4782300591468802 2.962125986814498 4.3427821546793011 2.5928564071655256 7.569124534726142 4.139376685023306 8.6438243836164457 15.099468305706976 10.426432237029074 2.6283783316612226 3.903651759028441 5.5576553195714942 9.488515838980673 3.1598155647516242 2.2553950101137161 2.205341637134552 10.500645309686659 2.7988817393779746 7.0079542994499198 14.555326879024504 14.676986694335939 2.6575991809368125 31.545100346207619 5.6860017180442801 3.2426537573337546 9.1332006156444567 3.3318531364202491 5.6354846209287635 3.8981524407863617 3.4281948357820502 3.7009593993425369 19.096067562699318 22.447620406746864 5.079071030020712 5.4870049506425858 2.9246912896633148 4.3133050203323364 4.0690844357013702 6.7329531908035278 2.3959839791059494 8.3200769722461683 3.0316157490015021 3.2450510859489441 4.1958836913108826 5.9146391153335562
leaf_count=523 14 46 30 87 20 27 60 237 43 13 131 278 122 14 50 14 22 11 13 19 12 37 20 42 74 48 13 18 27 46 14 11 10 50 14 31 61 61 12 137 25 15 41 14 26 18 16 17 88 99 24 24 13 20 19 34 12 37 13 15 19 25
internal_value=0 -0.0395722 -0.048557 0.0125688 0.0206553 0.0107901 0.00347425 -0.00118822 0.0247708 0.0559814 -0.0180344 -0.00499297 0.00524771 0.000261288 -0.0172518 0.00978213 0.015687 0.0210714 0.0263764 0.00417011 0.024174 -0.00712362 -0.00247668 -0.0120609 -0.0162663 0.0340566 -0.00612675 -0.0159529 -0.00254182 0.0123973 -0.00505725 0.0460747 0.0318768 0.0212306 0.0373132 0.0390266 0.0466445 0.0396405 0.0448402 0.0337728 0.0436578 0.0718834 0.0203409 0.0118923 -0.0158699 -0.0223653 -0.017315 0.00604888 0.0266386 0.0165742 0.0268251 -0.00543188 0.0347245 0.0107217 0.00170271 -0.00186513 0.0384877 0.0398155 0.023113 0.047032 0.0728633 0.0282156
internal_weight=0 157.906 130.639 488.481 307.645 177.201 27.2672 180.836 76.1226 17.1607 42.3478 161.688 88.0958 101.079 73.5926 16.2737 58.9619 53.4168 48.9547 26.3619 16.0646 78.9695 71.4004 59.8201 56.643 130.443 41.5435 33.0089 24.365 18.8074 14.9037 5.41521 8.53468 46.4765 120.017 117.218 83.2698 68.7144 61.7065 43.7869 37.2311 17.9196 33.9482 29.4522 14.7687 6.55575 28.2641 6.32934 22.1092 43.5143 33.0137 10.5661 10.0873 7.16266 7.0475 11.7218 4.98884 14.6835 11.3517 11.5803 7.44093 15.6012
internal_count=3126 862 731 2264 1397 824 131 867 345 75 208 780 416 479 364 77 270 243 221 127 77 377 340 286 272 573 198 158 116 89 71 25 40 210 525 511 360 299 268 192 162 76 151 131 67 30 138 30 102 197 147 48 47 34 32 58 24 64 50 54 34 71
shrinkage=0.05


Tree=8
num_leaves=63
num_cat=0
split_feature=23 47 0 30 30 1 0 32 30 18 23 18 35 19 41 56 0 20 0 18 29 21 18 54 20 54 8 54 19 29 20 30 53 19 30 18 41 42 42 54 53 37 32 56 56 23 13 57 30 32 1 18 23 21 56 41 49 8 5 43 41 18
split_gain=120.712 24.9206 18.5738 16.966 13.8721 10.2946 8.83223 8.69053 8.14415 7.1225 6.7676 6.70764 6.65378 7.70898 8.97112 10.0192 7.3141 8.68674 9.36897 9.83509 8.73213 7.95022 6.94065 6.88743 7.18252 7.79984 7.32845 8.86336 6.8541 6.34134 6.26198 6.17628 5.98991 5.9229 11.1048 6.83159 7.07412 8.58419 5.92209 14.2373 5.77275 5.65055 5.81421 5.60329 9.23824 5.58843 6.02462 10.8882 6.43882 5.95582 5.90448 5.22724 5.71092 5.22052 5.19447 7.86219 6.97789 6.67484 11.3217 6.58168 6.70436 6.31403
threshold=0.003749719651568503 0.060301507537688447 0.12832505703932359 4.6212353121247091e-05 8.7420820872677625e-05 0.12267536081136408 0.14230975707958668 0.81587675959780626 7.9767819718840519e-05 0.99770372445945366 0.0069171794364932381 0.9977033344435785 0.01801440754962999 0.00049476916266573748 0.036413468446065432 0.13613620937661516 0.20534827539927528 0.81983507097319575 0.14400080526103881 0.99770526074149857 3.3361554587969686e-05 0.1555600981193786 0.99770594089113451 0.94391601405712056 0.82446095006633568 0.94423265604652429 0.014786569289179501 0.94484810104001304 0.00028344003786264443 0.0015779712949524273 0.82303737686825651 0.00017513598794357976 0.97213627021782156 0.00025518433315359574 7.3292203357901443e-05 0.99770263051248687 0.036409980106100803 0.0026852282758479851 0.0041999758992833491 0.94377597802237012 0.97316387418154593 0.00040017304780445601 0.81589241316270578 0.14033528238402737 0.13945883227163006 0.005414850739840711 0.00040518638573743931 0.00065938513413740416 0.00029758400640497333 0.81585799817184645 0.11842720749558135 0.99771366510797943 0.011686119535575901 0.15727718724448081 0.13800327125015313 0.036416424900530507 0.60375737152485265 0.014754930394431558 0.00040274938122850378 0.038777273228411575 0.036510782769672866 0.99772619793518758
decision_type=2 2 2 2 2 2 2 2 2 2 2 2 2 2 2 2 2 2 2 2 2 2 2 2 2 2 2 2 2 2 2 2 2 2 2 2 2 2 2 2 2 2 2 2 2 2 2 2 2 2 2 2 2 2 2 2 2 2 2 2 2 2
left_child=1 3 4 -1 8 10 -5 -3 33 30 -6 32 13 14 15 -11 17 28 21 -20 -21 -19 -22 -24 25 -25 -27 -28 -14 45 -4 -17 -8 34 35 53 37 -37 -7 -40 -33 42 -9 44 -29 -18 47 48 -47 51 -50 52 -49 -2 56 -56 -12 -57 -59 -60 -61 -58
right_child=2 7 9 6 5 38 11 41 -10 12 54 -13 16 -15 -16 31 29 18 19 20 22 -23 23 24 -26 26 27 43 -30 -31 -32 40 -34 -35 -36 36 -38 -39 39 -41 -42 -43 -44 -45 -46 46 -48 49 50 -51 -52 -53 -54 -55 55 57 61 58 59 60 -62 -63
leaf_value=-0.062304241298288904 -0.061816077667075212 0.027538641344774115 -0.025025223830805483 -0.049438854574081204 0.018957649344213699 -0.040797924759267738 0.018254328579165296 -0.031843351232499567 -0.056585928134216923 -0.055551534143857009 0.035253264383964852 0.048720441165946114 -0.05582327269579386 0.11476244233156326 -0.034137601446307057 0.054492295377109451 -0.042833183486786032 0.014739996126815931 0.084133668042145421 0.11801174283012338 -0.054575666616380164 -0.051155702139089779 -0.012747732623703377 0.091702443017398577 0.12173422072529222 0.068212294483606939 -0.06078882917366734 -0.0027098759254165945 0.0024263484402435604 0.047962955438261651 0.0086031027730317147 0.033771411342428032 -0.044030834545223829 -0.069686781222665681 0.085088384151433161 0.055699917373540492 0.082974183335883744 -0.069751960820602157 -0.035033147284005091 0.067540791746551629 -0.070921131471722326 -0.06618134947867188 0.06935519576419176 -0.050344033258440571 0.097748978237217093 -0.034055445353478174 -0.032130799347975685 -0.034216689278056586 0.09452222413429151 0.1115536471381478 -0.024175791264790303 0.056581709542398474 0.049784290729230664 0.02201996873634823 0.11524014194138621 0.089813539372207638 0.04088939249053225 -0.031072446460011723 -0.03265849944399523 0.062844506408323703 -0.0014925737054665876 -0.053038972348519176
leaf_weight=82.947333723306656 6.0488936156034594 15.628891274333002 37.599823996424675 16.091223701834679 72.30552650988102 7.771124720573428 6.9045049995183971 4.1028581708669645 6.9803950339555731 2.9453428834676769 48.051540687680244 5.2542874962091437 6.8857355862855938 2.2962964326143256 6.2490650415420523 20.512275367975239 12.918963029980658 13.335232198238375 7.7583544403314582 2.2843634188175193 3.0826712697744361 6.9695072323083869 9.6877536922693235 4.1041933894157472 2.2571719139814368 5.1522945165634182 4.3976111263036719 5.4808930754661542 18.944378241896629 4.5088482648134223 21.910141706466675 3.6100932359695426 8.754096180200575 2.4104432612657538 4.2834029644727698 2.6451911777257902 3.391544833779335 2.8144321888685226 7.0844351351261121 6.4746901094913483 2.072685718536377 5.5247713923454285 2.1700112521648407 2.1432620137929908 3.9290665686130524 16.428205505013469 15.817358419299124 5.3994881659746188 2.1026085913181296 2.1580789238214484 2.0882195830345154 6.5158164203166953 3.2360345870256424 2.6794744431972504 4.2778533697128287 6.8857877403497687 2.9274880141019812 5.362155780196189 2.4043594449758521 26.878083735704426 4.7674841880798331 4.6013733446598053
leaf_count=510 30 72 187 91 328 37 31 21 34 14 207 24 34 10 29 92 64 59 35 10 15 33 45 18 10 23 21 25 88 21 104 16 47 12 19 12 15 14 35 29 10 30 11 10 17 80 78 26 10 10 10 30 15 13 18 29 13 24 11 117 22 21
internal_value=0 -0.0399131 0.0116262 -0.0497445 0.021986 0.0268316 -0.0215909 0.00308513 -0.00899033 0.00258634 0.0307555 -0.000163624 0.00700176 0.025985 0.0202245 0.0318823 0.00273293 0.0117077 0.0207869 0.0323635 0.0229171 -0.0078784 0.0175181 0.0235 0.0362859 0.0286345 0.0163688 -0.000377183 -0.0131017 -0.00942441 -0.0126441 0.0417133 -0.0165668 0.00469693 0.0128979 -0.0046919 0.0262604 -0.00897044 -0.00599759 0.0139475 -0.00441321 -0.0293096 0.00316487 0.0226179 0.0392361 -0.0133058 -0.00620824 0.00460229 -0.0199433 0.033841 0.035377 0.0227721 -0.00273856 -0.0360797 0.0387912 0.0503859 0.0282406 0.0443935 0.036458 0.0470927 0.053152 -0.0165163
internal_weight=0 147.378 495.828 119.951 231.046 199.792 37.0041 27.4265 31.2538 264.782 178.462 20.9129 205.272 37.6858 35.3895 29.1404 167.586 96.4125 70.5824 50.2776 42.5193 20.3047 40.2349 37.1522 27.4645 25.2073 21.1031 15.9508 25.8301 71.1736 59.51 26.1951 15.6586 24.2734 21.8629 17.5795 8.85117 5.45962 21.3302 13.5591 5.68278 11.7976 6.27287 11.5532 9.40996 66.6648 53.7458 37.9285 20.619 17.3094 4.19083 15.1513 8.63552 8.72837 106.156 50.5757 55.5804 46.2979 39.4121 34.0499 31.6456 7.52886
internal_count=3126 837 2289 703 1040 891 193 134 149 1249 790 102 958 171 161 132 787 443 321 229 194 92 184 169 124 114 96 73 122 344 291 118 78 115 103 84 41 26 101 64 26 62 32 52 42 323 259 181 100 81 20 71 41 43 462 221 241 203 174 150 139 34
shrinkage=0.05


Tree=9
num_leaves=63
num_cat=0
split_feature=23 24 0 30 30 1 0 33 52 10 30 51 23 11 58 0 19 51 11 29 29 42 44 8 19 1 35 14 53 19 8 53 15 41 9 8 57 0 23 11 30 19 8 54 42 46 52 19 30 58 56 11 23 56 19 29 49 51 0 0 11 19
split_gain=111.152 23.7674 16.6407 16.5322 12.4071 9.16767 8.28223 8.05295 8.60964 8.05704 7.53822 7.50528 7.04604 8.04405 8.40966 7.94184 8.79048 7.2832 6.87523 8.1251 6.83783 6.44908 13.4116 6.26289 14.5888 6.06827 6.75399 9.09396 6.27623 8.01779 7.44953 5.9995 5.77262 5.72474 8.43935 6.89915 6.71031 8.42338 8.06247 5.94129 8.12892 5.79577 5.53159 5.78868 8.72285 7.63198 5.48347 5.4825 9.76841 9.84862 5.39352 5.8106 7.68208 6.02606 5.44253 5.11893 5.116 8.07045 5.08479 7.2272 5.36764 4.98706
threshold=0.003749719651568503 0.0035834151964902316 0.12832505703932359 4.6212353121247091e-05 8.7420820872677625e-05 0.12267536081136408 0.14230975707958668 0.399036646799311 0.82367945240862717 0.275256064690027 7.9767819718840519e-05 0.00075206120478348069 0.0048474200294651619 0.0010035629453681713 1.3550000000000002 0.050946181720574427 0.00037203344533580737 0.0037231671989898245 0.01988717339667459 1.1187711659409774e-05 7.4181583615545892e-05 0.0027171461721989449 0.0030271357222919465 0.014803330370325732 0.00053656405921453866 0.11913187986065495 0.018401529530621828 0.81605656714893093 0.97152983107566071 0.00025812763572745498 0.0150836547443276 0.97213627021782156 0.17778814882650606 0.036414324988947838 0.16689980903282595 0.014780542833037036 0.00055038966102099226 0.20016776271641393 0.0047002793425171335 0.0015617577197149647 0.00016807167918619169 0.00022280800484114413 0.016200055744719322 0.94377597802237012 0.0040589826495126919 0.012355202827092312 0.82339914057271668 0.00025518433315359574 7.3292203357901443e-05 1.7900000000000003 0.13981325229931943 0.0012054631828978624 0.03300287495614674 0.13919470372976489 0.00071139623210177735 0.00021780761167553624 0.5946925021061501 0.0022561836143504426 0.18115689169239033 0.15640853576701116 0.001454869358669834 0.00028579467992173179
decision_type=2 2 2 2 2 2 2 2 2 2 2 2 2 2 2 2 2 2 2 2 2 2 2 2 2 2 2 2 2 2 2 2 2 2 2 2 2 2 2 2 2 2 2 2 2 2 2 2 2 2 2 2 2 2 2 2 2 2 2 2 2 2
left_child=1 3 4 -1 10 11 -5 8 9 -3 47 32 13 -13 15 -15 17 46 19 21 -21 22 -14 24 33 28 27 -27 30 -30 -25 -8 55 34 -4 61 37 38 -36 -39 41 -41 -7 45 -45 -44 -17 48 49 -2 51 52 54 -53 -22 -6 -33 -58 59 60 -40 -35
right_child=2 7 23 6 5 42 31 -9 -10 -11 -12 12 18 14 -16 16 -18 -19 -20 20 50 -23 -24 25 -26 26 -28 -29 29 -31 -32 56 -34 35 36 -37 -38 39 58 40 -42 -43 43 44 -46 -47 -48 -49 -50 -51 -52 53 -54 -55 -56 -57 57 -59 -60 -61 -62 -63
leaf_value=-0.061407197030507815 -0.024313548288873339 0.08412037734193073 -0.019248591476580767 -0.048291064489129447 -0.050518048692437728 -0.051165584903681498 0.029305762895163685 -0.020773721285299921 0.10381516026560818 -0.022582389258438921 -0.055099106682733739 0.084881109906854685 0.049049018541536198 -0.073006991073334013 0.093960931171257311 -0.071109307301301647 0.056885913250295066 0.03259622225812335 0.090898598746479292 0.07010414059974461 -0.029730446671339034 0.038152617543798603 -0.044915475699858001 0.077167306371494687 0.11838626398652202 0.10327759695035735 0.00026940876745704426 0.011002187006967465 -0.038855977927831291 -0.0029647023762909321 -0.033239247220577396 -0.065155517459586809 0.039032188389521806 -0.06964821425138111 -0.016253280749062873 0.06142500047526335 0.088143213816127955 -0.041676718240193561 0.028736874879747826 -0.0069425970191365543 -0.050968772934470954 0.09523030473289168 0.041281093720889839 -0.05033825181047296 0.061951989291573695 -0.067738563358030981 0.0019065669777413854 -0.06837107733166721 0.078972934514165732 0.066681263633705828 0.085843401106584283 0.044424733994732457 0.071123016133274014 -0.011871187292095629 0.046205003609275812 0.024284308456065645 -0.035023456998376161 0.081177866327861808 0.10200525395972702 0.0023516832177624229 0.13046326479534373 -0.0084204145889382413
leaf_weight=80.170712038874626 13.671035662293447 2.4835647046566027 11.134960144758223 15.661001637578009 6.9236124157905561 5.094393432140353 9.4421372860670107 15.244055554270743 3.2288499027490607 6.1501899659633636 6.8145564645528784 3.2788087576627758 6.0934527516365113 3.7798100858926835 2.2880799174308768 5.7744967043399829 6.0272435545921317 5.4856318533420554 5.6975155174732199 17.328027576208115 9.9507575780153292 12.647912770509718 10.078187867999075 3.8253362625837317 3.2354494184255591 3.8286340683698645 105.7071894556284 8.8235101848840696 28.145712748169899 34.798528641462326 2.5438711494207382 4.6208309978246671 5.1386649161577216 4.2293491810560289 4.3983930051326778 2.8719789981842032 4.4120566397905341 6.5035610049962989 2.4006388038396818 2.291983559727667 2.6332854777574539 3.5189653337001801 2.5860826224088695 2.2959427684545499 7.0097125470638275 4.2330707311630249 4.6355223506689072 2.3358780592679969 4.3816439956426612 3.8001772910356513 4.9932311326265326 54.30969649553299 3.5623256415128699 5.2095405012369147 3.0931687057018271 3.415326327085495 4.5587379634380341 2.2227922976016998 4.9967884719371787 5.7277216762304306 2.8200575411319733 15.565940424799917
leaf_count=513 67 11 53 91 33 25 42 77 13 30 34 14 26 18 10 28 26 25 24 73 46 55 47 17 14 17 503 42 143 161 12 26 23 21 21 13 19 31 11 11 13 16 12 11 31 22 22 12 19 17 21 233 15 23 13 15 24 10 22 26 12 71
internal_value=0 -0.0389085 0.0110163 -0.0487068 0.0207915 0.0253341 -0.0208153 0.0032671 0.0341608 0.00811147 -0.00864882 0.029004 0.0321408 0.0107849 0.00210538 -0.00607169 0.00546888 -0.0140272 0.0371631 0.0347575 0.041593 0.0114076 -0.00950978 0.00244197 0.0144757 -0.00247875 0.00440158 0.0389254 -0.0142276 -0.0190136 0.0330708 -0.000171979 -0.00428072 0.00990198 0.0192193 -0.010995 0.0300077 0.0227398 0.0436786 -0.00575754 0.0219066 0.0549308 -0.00574723 0.00860203 0.0342471 -0.0263942 -0.0385958 0.00443736 0.0122199 -0.0045212 0.0355026 0.0322007 0.00604849 0.0394973 -0.0117235 -0.0258081 -0.0245821 0.00306402 0.0602105 0.0411357 0.0836863 -0.021502
internal_weight=0 143.783 496.347 116.676 231.934 200.93 36.5055 27.1067 11.8626 8.63375 31.0033 179.711 164.233 31.2696 27.9908 25.7027 21.9229 15.8957 132.964 127.266 98.4467 28.8196 16.1716 264.414 76.7411 187.673 118.359 12.6521 69.3134 62.9442 6.36921 20.8445 15.4776 73.5057 50.8384 22.6673 39.7035 35.2914 20.3436 14.9478 8.44423 5.81095 21.2192 16.1248 9.30566 6.81915 10.41 24.1887 21.8529 17.4712 81.1187 76.1255 16.6063 59.5192 13.0439 10.3389 11.4024 6.78153 15.9452 10.9484 5.2207 19.7953
internal_count=3126 837 2289 706 1040 891 193 131 54 41 149 790 719 143 129 119 101 75 576 552 424 128 73 1249 354 895 562 59 333 304 29 102 71 340 235 105 182 163 92 71 40 27 101 76 42 34 50 115 103 84 351 330 74 256 59 48 60 34 71 49 23 92
shrinkage=0.05


Tree=10
num_leaves=63
num_cat=0
split_feature=49 25 23 0 18 11 23 8 30 52 29 43 23 30 49 52 41 32 52 21 45 53 17 34 57 53 0 51 23 51 3 32 49 0 24 29 11 52 30 29 54 44 3 0 52 5 5 32 56 41 23 57 35 58 44 41 30 29 41 19 49 11
split_gain=103.21 21.1465 19.1742 16.7771 12.6032 8.20624 7.23788 7.49965 8.3998 7.11922 11.8223 7.02197 6.94323 6.60633 7.28009 6.3138 6.2995 7.14177 7.01432 7.54942 7.69164 6.25874 6.13016 8.8721 5.76901 5.64037 5.7833 5.62959 5.60691 5.61801 5.86828 5.39565 5.33398 5.17304 5.1249 5.02685 5.90747 4.97613 4.96812 4.84569 6.36035 7.32625 7.4465 6.14616 7.59896 6.19829 6.45614 5.63162 5.80869 6.32109 5.58388 5.18624 7.18752 5.06691 5.01729 4.92721 4.8424 5.18553 5.76161 7.50462 5.63303 7.22977
threshold=0.59162594776748112 0.5904392764857882 0.0040317380772163383 0.16770903234465176 0.99770982202472169 0.0019418052256532068 0.018333528802638881 0.014759921053424536 7.3292203357901443e-05 0.82350700926349907 0.00011258264796000647 0.038758861387503112 0.0037232152282780143 0.00013687098217439426 0.62416175231676507 0.82247235039273014 0.036413468446065432 0.81585934643510061 0.82306232608925378 0.15572363041700737 0.74377468750000009 0.97208183394836767 0.40807086614173232 0.38531023902659028 0.00026978804657404792 0.97156803196650554 0.1110253657227218 0.00073349179231969115 0.0036687616653499023 0.00073349179231969115 0.00077965208531595106 0.81584563528336385 0.70328559393428824 0.16430680445577778 0.048516539616500091 0.00012407273020480569 0.0020605700712589075 0.82249142920878693 4.7389737914145108e-05 1.9452507660054832e-05 0.94165849046506234 0.003186257494908494 0.00040971634404182229 0.092403704200778439 0.81773640120695534 0.00039756007757412354 0.00041912576183653142 0.81583137568555764 0.13811120589987405 0.036438964412024759 0.0060811049457038377 0.00075877956992732008 0.018214383968595614 0.03500000000000001 0.0032514662213337059 0.036487573220601248 0.0003894200202510185 0.00026910982099661348 0.036419077420424412 0.00022516264690023154 0.60588037068239264 0.0034619952494061761
decision_type=2 2 2 2 2 2 2 2 2 2 2 2 2 2 2 2 2 2 2 2 2 2 2 2 2 2 2 2 2 2 2 2 2 2 2 2 2 2 2 2 2 2 2 2 2 2 2 2 2 2 2 2 2 2 2 2 2 2 2 2 2 2
left_child=1 2 34 4 5 6 7 8 -2 12 -11 38 -7 16 -15 21 17 18 24 -20 -21 -8 -3 37 35 -17 -27 -10 -6 -30 39 -22 -16 -9 -1 -13 -37 -24 -5 40 -31 42 50 -41 45 -45 -47 -46 -49 51 -42 52 -50 -52 -43 -56 57 58 59 -14 61 -60
right_child=3 22 -4 11 28 9 15 33 27 10 -12 13 56 14 32 25 -18 -19 19 20 31 -23 23 -25 -26 26 -28 -29 29 30 -32 -33 -34 -35 -36 36 -38 -39 -40 43 41 54 -44 44 47 46 -48 48 49 -51 53 -53 -54 -55 55 -57 -58 -59 60 -61 -62 -63
leaf_value=-0.057241121175194934 0.092120925746538351 -0.029349625121924683 -0.0091259604779121966 -0.036145392490460303 -0.044033996795045216 -0.063308925139661312 0.098556823110950501 -0.019953299153384785 -0.070014547531970284 0.083750904398666282 -0.00020150040551312126 -0.048195144739990987 -0.031167932714982794 0.014226739920462687 -0.0248545787559987 -0.056863752396230684 -0.055557271883560279 0.066515929205088517 -0.020920766166174984 0.10545472635259308 -0.029098052170042472 0.014576738361839082 0.01253000142328904 -0.027619276403227512 -0.034060289357359642 0.060024987556038661 -0.021955828887898866 0.014211651585005078 -0.011937381139368753 0.076377481939556846 -0.036074801235394895 0.065557285423105668 0.041351867403316811 0.056234634506460525 0.020537060867181649 0.08413126336345686 -0.024552922647686024 0.084672873788984027 0.037225766417686559 0.059520025859211914 -0.054520505799068232 0.087880778136602222 -0.062549570162691789 -0.045715872394828085 -0.025728165582126414 0.089419218081934301 -0.010020629618243303 0.087186815912607796 0.050101997813852411 0.10375200797494721 0.079698444542973382 0.080828531207158757 -0.0041503808478939612 -0.011365760832686603 0.0022084830950962735 0.074310030276166714 -0.028656025243980112 0.051181330251291561 -0.029376492017278218 0.068385806221795659 0.072245736500117008 0.022953701262361473
leaf_weight=94.380067154765129 3.1980601400136974 7.2464522570371654 28.987538263201714 2.6760772615671184 2.5342839062213889 2.8187134712934485 4.5976579934358615 54.295286118984222 2.2303806245327022 10.327068597078325 7.0605700910091391 2.2454936355352393 2.4769233763217917 60.30334098637104 24.501728147268299 3.0100821405649176 8.8119896948337537 2.8780218064784995 9.1229473054409045 3.22903163731098 3.6188770085573196 4.2874774485826492 4.1220616698265058 4.9725767374038687 34.464358240365982 4.7096449285745603 3.9601566344499588 17.953175023198128 7.1748440563678733 4.2886115014553061 2.9501381516456595 2.5780982673168182 3.4735048562288275 2.32332819700241 2.1665389388799658 3.1678659617900848 2.0654843896627426 5.6893338412046432 16.736968785524368 30.851714298129082 2.2207402288913745 3.4020931571722057 5.2415571808814994 5.0454926341772062 2.8948925286531439 2.6010899543762207 4.3823154121637344 7.1796682327985755 11.434621900320058 3.230226904153823 3.3336528539657593 4.2725676298141471 13.097921192646025 2.8194144815206528 9.8024609982967359 3.124811813235282 5.2454867660999289 11.603421747684477 14.245362609624868 8.0301019400358182 2.5808560252189627 12.298397853970526
leaf_count=604 14 37 140 13 15 17 19 267 11 43 32 11 12 278 122 14 47 14 45 14 18 19 20 26 177 21 19 84 33 18 15 13 16 11 11 15 10 24 74 128 10 14 25 23 13 11 20 30 48 13 14 18 57 12 43 13 24 50 66 35 11 55
internal_value=0 -0.0368591 -0.0447883 0.0108505 0.017915 0.00920662 -0.000188075 -0.00698904 0.0168335 0.0215266 0.0496605 -0.00129067 0.0132772 -0.00472687 0.00444701 0.0262685 -0.0159465 -0.0104384 -0.0140996 0.011503 0.0428843 0.0580327 0.00832313 0.0267887 -0.0254221 0.00210475 0.0225781 0.00490425 0.029619 0.0310621 0.0335873 0.010281 -0.0166341 -0.0168269 -0.0554958 0.0143847 0.0412361 0.0543635 0.0271116 0.0353111 0.0194283 0.0112721 -0.0158123 0.0417085 0.0315583 -0.00349036 0.0270175 0.0415702 0.0465382 0.0374282 0.0134427 0.0299906 0.0211367 0.0379717 0.0338551 0.019637 0.0170993 0.0217838 0.0131767 0.044917 0.00172606 -0.00513059
internal_weight=0 147.565 125.534 489.009 309.135 177.252 100.565 80.0002 23.3816 76.6869 17.3876 179.874 59.2993 160.461 88.2786 20.565 72.1822 63.3702 60.4922 18.549 9.42601 8.88514 22.0304 14.784 41.9432 11.6799 8.6698 20.1836 131.883 129.349 122.174 6.19698 27.9752 56.6186 96.5466 7.47884 5.23335 9.8114 19.413 119.224 34.2333 29.9447 13.6154 84.9905 54.1388 12.0289 6.98341 42.1099 39.215 32.0353 8.37381 28.8051 24.5325 6.15307 16.3294 12.9273 56.4806 51.2351 39.6316 10.507 29.1246 26.5438
internal_count=3126 862 755 2264 1397 824 479 387 109 345 75 867 270 780 416 92 364 317 303 90 45 38 107 70 213 54 40 95 573 558 525 31 138 278 615 36 25 44 87 510 149 131 61 361 233 54 31 179 166 136 36 123 105 26 70 56 253 229 179 47 132 121
shrinkage=0.05


Tree=11
num_leaves=63
num_cat=0
split_feature=23 47 19 23 13 18 49 58 49 20 13 14 44 18 48 20 41 0 23 56 30 0 23 0 20 12 46 30 49 49 43 49 18 15 3 45 58 13 58 21 19 41 11 0 52 10 36 21 41 46 0 51 29 51 19 29 45 8 41 53 3 30
split_gain=95.1637 25.9993 15.1433 10.814 10.6955 9.15001 9.18713 8.59223 7.86777 7.37613 7.17389 8.42721 7.14901 7.02821 6.95314 6.82287 6.55701 7.79506 10.4474 7.04937 12.0423 9.14686 7.03565 9.91061 6.89688 6.4683 9.94666 5.97032 6.62307 6.96115 5.79426 5.78194 5.77728 6.70301 6.20643 5.47756 6.05515 5.31176 5.28198 5.23316 7.34488 5.3456 5.19459 6.416 5.13339 6.21448 5.30126 5.12637 5.01284 6.4643 7.54664 5.10947 4.94216 4.87204 5.72852 5.16436 4.86355 5.84616 5.30843 4.86184 5.05887 4.82539
threshold=0.003607990529242793 0.060301507537688447 0.00023811317822521215 0.050435013397075075 0.00040518638573743931 0.99770924175719999 0.60675652906486954 0.38500000000000006 0.5912889637742208 0.82289942235215385 0.00012155591572123178 0.82233569357234371 0.0037745400483761393 0.99771092548427076 0.37274290627687018 0.82319661160226842 0.036510782769672866 0.12832505703932359 0.0047002793425171335 0.13800327125015313 0.00011626674829867899 0.062307072876124019 0.0040941498234125665 0.10625419406791035 0.82398397966491743 0.11910471904144439 0.010967157097426431 9.38964372336167e-05 0.59833192923336154 0.59944397641112046 0.038791206140955325 0.59162594776748112 0.99771540591054408 0.1845809411433201 0.00037898962723705015 0.7438108541666667 1.3950000000000002 0.00046205465040234298 0.57500000000000007 0.15547833197056421 0.00074612720247331629 0.036424119971264372 0.0026900237529691212 0.1161253523017045 0.8252380449203387 0.29288409703504048 0.23305084745762716 0.15539656582174982 0.036402112345269681 0.010446783902815412 0.13426385720037584 0.0022933224392780219 0.00014886711820674087 0.0010863106291316945 0.00021397809711956641 8.4562973713917121e-05 0.74381572916666683 0.014706342091782929 0.036416424900530507 0.97352773766684242 0.00050843730610121852 0.00021752184048790828
decision_type=2 2 2 2 2 2 2 2 2 2 2 2 2 2 2 2 2 2 2 2 2 2 2 2 2 2 2 2 2 2 2 2 2 2 2 2 2 2 2 2 2 2 2 2 2 2 2 2 2 2 2 2 2 2 2 2 2 2 2 2 2 2
left_child=1 8 3 7 5 16 35 -2 -1 10 11 -9 -5 38 44 -10 17 18 22 20 47 30 23 -4 56 32 -27 -21 -29 -30 -22 -11 -15 34 -34 36 48 -6 -8 40 -39 59 -43 -44 45 46 -3 -20 51 -50 -51 -7 -17 54 -33 -55 57 -19 -58 -41 -61 -37
right_child=2 14 4 12 37 6 13 9 15 31 -12 -13 -14 25 -16 52 -18 24 19 27 21 -23 -24 -25 -26 26 -28 28 29 -31 -32 53 33 -35 -36 61 -38 39 -40 41 -42 42 43 -45 -46 -47 -48 -49 49 50 -52 -53 -54 55 -56 -57 58 -59 -60 60 -62 -63
leaf_value=-0.059155936584661686 -0.027250333396249705 0.063168058873004113 -0.023844785905697989 0.12831566595556065 -0.040194217769145391 0.087445435681507436 0.096722806133164238 -0.008467020730459825 -0.04578802164433031 -0.018477743564490952 -0.04465531177174404 0.071985112312617103 0.014763252791562896 -0.029663623510007748 -0.065746040206936127 -0.042579676911226987 -0.033740493026898626 0.026284912336632844 0.012910666624241594 -0.034745029917043715 0.09119144953961407 -0.042262486637639929 -0.041469274858903962 0.082106632298677124 0.037804313062888874 0.095233186571936662 0.014506262627767778 0.063003009597783058 -0.027188886710889683 0.046641552497913769 -0.005517647443680709 -0.055495812626815716 0.055325444973467752 0.073529077559136763 -0.0058750727507781691 0.10918958246285966 -0.035426931629228713 -0.031131993971175154 0.012067741709466765 0.085823012877917673 0.040523851554824179 -0.030260050357259583 -0.019235587515345664 0.091372971384720003 0.053317193095278992 -0.027133622658362007 -0.021272706676507675 0.094544966091311869 -0.059001692655558741 0.041325400777311769 -0.0071659353554558497 -0.00026465977374144021 0.056533921127149611 -0.019288885514780446 0.042752633371545383 0.055432057201160227 0.075133357428538092 -0.041686668542526624 -0.0037824288200362538 0.053216891922919798 -0.04691551144113177 0.044414292089115154
leaf_weight=78.115564972162247 41.907316759228706 5.0407142192125418 5.4053834825754183 2.3517204672098151 9.6280222833156568 6.3467272818088514 4.1867803484201422 32.303328230977058 9.4329299777746183 7.6484504640102413 12.260683029890059 3.619714990258216 3.3757535815238953 13.250090166926382 3.2410712689161292 1.8832530677318562 8.7264829277992231 3.8846826106309917 3.3142524808645275 2.3433843553066245 2.5665047317743328 10.858711138367651 9.8713274747133237 3.7302631139755249 8.5180290639400464 4.7142732888460186 20.020226612687111 24.608887761831284 5.026426061987876 8.7510516792535764 3.9060313254594803 3.0625171214342144 4.7560996711254111 3.5967132896184912 32.114244803786278 3.1047521084547034 3.8365942388772956 17.516988262534145 3.2909380495548248 4.2673446983099002 4.4935886263847342 7.4418720602989179 2.688671201467514 2.558830589056015 5.779263347387313 9.9920715987682325 2.9444732069969177 4.5816185772418976 2.2958972454071036 27.793164670467377 11.279888600111006 2.248719796538353 3.786699190735817 2.719082564115527 2.8778242170810699 15.462798476219175 2.3390614688396481 17.03784254193306 23.953745529055595 3.2303310185670853 2.0694499760866165 38.87078158557415
leaf_count=532 213 23 28 10 47 27 18 160 53 38 63 16 16 62 18 10 43 18 15 11 11 51 48 17 38 20 90 106 23 39 17 15 21 16 146 13 18 86 15 19 20 37 13 11 25 54 14 20 10 119 50 10 18 13 13 71 11 84 112 16 10 165
internal_value=0 -0.0402552 0.00917274 -0.00575599 0.0141198 0.0174818 0.025019 -0.00891176 -0.0527688 0.000700227 -0.0116316 -0.000360419 0.0613883 0.0131494 0.00295214 -0.0197331 0.00831633 0.0109248 0.0204567 0.0298687 0.00909867 -0.0142185 -0.0122043 0.0194172 -0.0036062 0.00873469 0.0298924 0.0427332 0.047463 0.0197061 0.0328297 0.0194027 -0.00100755 0.00837528 0.0020195 0.0356682 0.0251064 -0.00653637 0.0594662 0.000784157 -0.016503 0.0178803 -0.00339667 0.0347003 0.0123245 -0.000853627 0.0320312 0.0602794 0.0297545 0.0225355 0.0273266 0.0644989 0.0236137 0.0314135 -0.00789893 0.0442576 -0.011077 -0.0290664 0.00323808 0.0461011 0.0141174 0.0492054
internal_weight=0 120.216 512.614 127.589 385.025 331.13 181.706 121.862 93.2184 79.9544 48.1837 35.923 5.72747 85.9294 26.9976 15.1029 149.424 140.697 84.9638 65.9569 25.2271 17.3312 19.007 9.13565 55.7334 78.4516 24.7345 40.7297 38.3864 13.7775 6.47254 31.7707 53.7171 40.4671 36.8703 95.7765 53.801 53.8951 7.47772 44.2671 22.0106 22.2565 12.6894 5.2475 23.7565 17.9773 7.98519 7.89587 49.9644 41.369 39.0731 8.59545 5.66995 24.1222 5.94034 18.1819 47.2153 20.9225 26.2928 9.56713 5.29978 41.9755
internal_count=3126 747 2379 628 1751 1492 800 602 613 389 239 176 26 388 134 81 692 649 386 293 114 79 93 45 263 355 110 179 168 62 28 150 245 183 167 412 234 259 33 212 106 106 61 24 116 91 37 35 216 179 169 37 28 112 28 84 225 102 123 45 26 178
shrinkage=0.05


Tree=12
num_leaves=63
num_cat=0
split_feature=49 49 23 13 18 9 18 51 58 49 13 45 41 58 57 51 49 9 41 9 18 18 51 51 44 8 32 9 51 57 23 45 45 23 46 23 9 41 13 20 49 43 0 46 48 32 41 51 11 51 19 30 21 17 22 39 10 23 19 56 11 0
split_gain=88.3673 26.2812 13.7135 11.5492 10.7134 8.21843 11.7264 8.46058 9.11229 8.03554 7.34098 6.8338 6.75782 7.68557 6.41018 6.05858 6.05783 5.97851 6.17463 8.51068 5.95924 7.80609 6.79428 5.79512 5.64459 5.92415 7.08333 5.57948 5.39158 6.00857 6.00443 5.86426 9.17599 7.53723 5.31738 5.30432 5.29491 5.67816 5.47072 5.2449 6.55825 6.07791 7.29571 5.23864 5.11714 5.01799 4.97488 4.88301 4.80748 4.75944 4.69358 5.58989 4.78375 4.6509 6.39927 5.92575 8.55393 4.64413 5.67116 4.6309 6.25165 4.49113
threshold=0.59071609098567823 0.58899747262005064 0.0067129797998487038 0.00040518638573743931 0.99770274466347475 0.16907864232555583 0.99774618862693554 0.0023490306766693904 1.0150000000000003 0.60588037068239264 6.4545480394665765e-05 0.74387162500000004 0.036427034980106111 1.6150000000000004 0.00025247090577045937 0.012255812226101169 0.59711878685762432 0.17512790085424415 0.036402747844827589 0.18427742893742097 0.99770858538901985 0.99771170551602129 0.00069635296739211185 0.0035003342494243487 0.003798330313399692 0.015514546358513879 0.81586336837294338 0.18425385274309022 0.0070563767362400659 8.8878489051135782e-05 0.0040941498234125665 0.74380247916666675 0.74382389583333341 0.0050734569209974064 0.011384952774857569 0.0037914548132982786 0.17971150596870655 0.036410470545977021 0.00012695840086439765 0.82432372935085063 0.59892165122156704 0.03884405749565889 0.12052073547174877 0.011165237820256552 0.37274290627687018 0.81598032449725788 0.03650630664235191 0.0024975859763797076 0.0025950118764845611 0.0011977271039144324 0.00034054010779551353 0.00028433842748487066 0.15547833197056421 0.40807086614173232 0.60389610389610404 0.99950549558583546 0.32932614555256073 0.0083185200118092596 0.00025518433315359574 0.13853879316607617 0.0021912114014251785 0.16317943900147633
decision_type=2 2 2 2 2 2 2 2 2 2 2 2 2 2 2 2 2 2 2 2 2 2 2 2 2 2 2 2 2 2 2 2 2 2 2 2 2 2 2 2 2 2 2 2 2 2 2 2 2 2 2 2 2 2 2 2 2 2 2 2 2 2
left_child=1 44 4 15 12 6 -6 8 10 14 17 24 13 36 -10 20 -16 -7 19 -19 39 -22 -23 -13 28 -26 -27 -15 29 -9 -31 47 -33 -34 -12 -14 -2 38 -38 41 -41 42 57 -39 53 48 -47 -32 -5 -36 52 -52 -20 -1 -55 -56 -57 58 -4 -37 -61 -24
right_child=2 -3 3 45 5 7 -8 11 9 -11 34 23 35 27 16 -17 -18 18 50 -21 21 22 61 -25 25 26 -28 -29 -30 30 31 32 33 -35 49 59 37 43 -40 40 -42 -43 -44 -45 -46 46 -48 -49 -50 -51 51 -53 -54 54 55 56 -58 -59 -60 60 -62 -63
leaf_value=-0.019791360827560625 -0.056633464098822472 -0.055236149322255207 0.045455901218875071 -0.003682053360396207 -0.032014394199565192 0.083237172258434466 0.057399454406184526 -0.020781101174569532 0.090828525901581511 -0.026740135569315107 -0.038542086005810168 0.052633305866536688 -0.047074811333277067 0.080797175352069206 0.00057776116569927232 0.056720118193572547 0.0691919311905623 0.11763474256572633 -0.055691433614113772 -0.020359815438040541 0.048492978211200244 -0.027202944286684079 0.031718521456543837 -0.03586922950674637 -0.070216007592453153 -0.035095700517355083 0.07350465974319316 -0.02027320169632154 0.083569747107514247 0.08514861627937842 0.050395039593382665 0.081052495346378761 -0.046390762244584771 0.053405585674938298 0.051746726524085865 -0.032452524383423775 0.0097840389740879666 -0.058238080164537069 -0.067939750509391231 0.0092718447098557935 0.10170506771659926 -0.046351528268183277 -0.0066632892506781616 0.0036342995316736692 -0.064752454203192672 0.091768905495043018 -0.011370558858845425 -0.039897604174489773 -0.046557626683354586 -0.023005327759680019 0.075510385778750189 -0.01421711333710609 -0.0032201867601743539 0.089360364445582749 0.054213728596886203 0.022206150146792791 -0.06662810933458678 0.03541377918982145 -0.056650343677989691 0.083961546202465751 -0.00106769922839845 0.0093685919767628155
leaf_weight=13.81143072247505 13.980453819036482 81.045223698019981 2.3042562603950527 30.740323856472969 23.642235115170482 2.4462982714176169 4.3399796187877646 4.4054105579853049 5.1447964459657731 5.2458441704511634 22.194930613040928 2.5143962949514371 2.7839579731225959 2.8229197412729254 8.8547410666942579 11.371883586049078 5.0522907078266135 2.5207260549068442 6.0338166803121629 2.0068944692611694 29.493525475263596 7.2998559474945059 56.791032016277313 6.9963916093111038 2.377574682235716 2.8082659095525742 3.226587787270546 2.6448131501674652 6.4467119872570029 6.2883486896753338 2.2612508982419994 8.7533035874366778 3.6094516664743415 3.9763162881135941 3.5836987346410734 2.337050035595893 15.978327602148058 12.375960856676103 2.637746959924697 4.6755967885255805 3.2548646479845047 5.4591569304466239 36.478597015142441 4.7280829250812522 3.129101648926734 2.4217955917119971 2.2603950500488281 4.4323404580354691 8.3039976805448514 5.2470535486936569 3.3733297586441031 3.5756396502256393 15.508049085736273 2.7205004990100887 4.6031675636768332 6.8240266889333707 4.4947152882814407 25.414187967777252 3.318202942609787 4.9386205077171308 3.8445246964693069 37.20093347132206
leaf_count=73 76 556 10 150 116 11 21 21 22 25 113 11 16 13 43 48 23 11 29 10 126 34 239 32 12 14 14 12 28 28 10 38 17 17 17 11 80 68 14 21 14 26 173 24 18 10 11 21 41 26 14 16 75 12 21 33 25 110 16 22 17 171
internal_value=0 -0.0395091 0.00871 0.0165611 0.000193332 0.00671487 -0.0181465 0.0113875 0.0018528 0.0280567 -0.00772293 0.0262874 -0.0165057 -0.0243571 0.0431448 0.0211671 0.0255046 0.00781631 0.00222846 0.0564678 0.0192572 0.0258553 0.0192638 -0.0124715 0.0338746 -0.00336795 0.0229684 0.0319081 0.0416734 0.033665 0.0418454 0.0300228 0.0461709 0.0059206 -0.0254855 0.0146468 -0.030547 -0.0203371 -0.00122879 0.00859104 0.0472088 0.00439427 0.00849748 -0.0411347 -0.00368838 -0.00693534 0.0419768 -0.00939465 -0.0128009 0.00733057 -0.00639099 0.0293405 -0.0179172 0.00219924 0.0184912 0.00638214 -0.0130703 0.0263165 -0.0148041 0.030099 0.0467429 0.0228727
internal_weight=0 116.628 512.728 266.789 245.939 176.867 27.9822 148.884 90.7881 24.2977 66.4904 58.0964 69.0725 55.1683 19.0518 223.062 13.907 35.4648 33.0185 4.52762 211.69 130.785 101.292 9.51079 48.5856 8.41243 6.03485 5.46773 40.1731 33.7264 29.321 23.0327 16.3391 7.58577 31.0257 13.9042 49.7006 35.7201 18.6161 80.9049 7.93046 72.9744 67.5152 17.104 35.5829 43.7265 4.68219 6.69359 39.0443 8.83075 28.4908 6.94897 21.5419 32.4538 18.6424 15.9219 11.3187 31.0366 5.62246 11.1202 8.78315 93.992
internal_count=3126 738 2388 1200 1188 835 137 698 435 113 322 263 353 287 88 988 66 166 155 21 940 570 444 43 220 40 28 25 180 152 131 103 72 34 156 66 262 186 94 370 35 335 309 92 182 212 21 31 191 43 134 30 104 164 91 79 58 136 26 50 39 410
shrinkage=0.05


Tree=13
num_leaves=63
num_cat=0
split_feature=23 24 18 13 30 23 58 58 41 49 33 52 10 56 58 30 23 53 42 54 20 23 49 56 56 23 46 49 54 29 29 57 46 18 9 35 12 9 29 57 53 9 32 20 14 49 8 41 53 45 32 32 15 32 32 45 53 57 1 32 23 18
split_gain=82.3983 23.3651 11.7321 10.0009 8.48798 7.77921 9.73973 7.13494 6.71802 6.96075 6.3665 6.38428 6.52217 6.1025 7.54817 6.00281 5.79598 5.77011 5.56494 5.95601 6.61528 5.51497 5.46782 5.08615 8.38363 5.74099 5.15653 6.16916 6.89054 8.05667 5.04655 6.82403 5.86636 4.95633 5.10392 4.77492 5.35027 5.24581 4.74782 4.61608 4.56441 7.23021 4.71136 9.44857 5.65935 5.9024 5.76607 4.48139 4.35405 4.80243 5.57497 7.80286 7.15247 6.37206 5.1481 4.97458 4.27631 5.39324 4.42511 6.07106 4.26405 6.67559
threshold=0.0036213945585380752 0.0035834151964902316 0.99770903723668003 0.00040518638573743931 4.6212353121247091e-05 0.0047002793425171335 1.2150000000000001 0.52500000000000013 0.036510782769672866 0.60119629317607426 0.399036646799311 0.82367945240862717 0.275256064690027 0.14043595220155555 0.115 0.00029287446723338126 0.0053408371867754573 0.97450759051701097 0.0026907733341123468 0.94572399521915207 0.81847166942575711 0.0035366998991911221 0.59139005897219887 0.13988693845441735 0.13944326477407412 0.045467779857668707 0.010418157618951261 0.60663858466722831 0.94368321529871391 0.00033301080470891795 0.00049770198355104033 0.0013134902488954839 0.011346373099190074 0.99788717936580873 0.16875643433636944 0.018811654579460001 0.12074643966928182 0.18078225812789303 0.00062741896468311565 0.00053278592208825463 0.9727990556739784 0.17912799515902147 0.81586186014625228 0.82042137766663148 0.82472671261404995 0.60953664700926713 0.014932616687257061 0.036404585267462423 0.9710427697173899 0.7438108541666667 0.8158570612431445 0.81586928702010975 0.17977014429455346 0.81583137568555764 0.81587858775137123 0.74379114583333339 0.97207228372565657 0.0012278855923196291 0.11791618171191627 0.81582148080438766 0.0048874313262654749 0.99770282076413319
decision_type=2 2 2 2 2 2 2 2 2 2 2 2 2 2 2 2 2 2 2 2 2 2 2 2 2 2 2 2 2 2 2 2 2 2 2 2 2 2 2 2 2 2 2 2 2 2 2 2 2 2 2 2 2 2 2 2 2 2 2 2 2 2
left_child=1 4 5 13 -1 6 17 -6 9 15 11 12 -3 23 -15 60 -11 35 -18 -20 -21 -9 -8 24 25 26 -4 33 38 40 31 32 -5 34 -28 36 37 -2 39 -29 41 -30 43 -42 45 -44 -47 -39 -36 50 52 -52 53 -50 -51 -55 57 58 59 -24 61 -7
right_child=2 10 3 30 7 8 22 21 -10 16 -12 -13 -14 14 -16 -17 18 -19 19 20 -22 -23 56 -25 -26 -27 27 28 29 -31 -32 -33 -34 -35 48 -37 -38 47 -40 -41 42 -43 44 -45 -46 46 -48 -49 49 54 51 -53 -54 55 -56 -57 -58 -59 -60 -61 -62 -63
leaf_value=-0.05887957865611082 -0.03794089211305425 0.074713275598983928 -0.019467465486630198 -0.027166505148792031 -0.045325562289605471 -0.0076832843275144837 -0.029683528454942067 0.043417323656826316 -0.036490515134181389 -0.048949178207777506 -0.018850090662667199 0.091100572543333702 -0.020593892563110595 0.013476972917868521 -0.061931110042151176 0.066358948881347829 0.044272789572226197 0.027230919679174927 -0.031692795492201907 -0.038186484599624558 0.029838221086230788 -0.047430604262525308 -0.029319966434938206 0.062214878710235913 -0.022363275219565496 0.060114474921575768 0.0085112551472726252 -0.046092603200417921 -0.013945918559041818 0.071944859870267525 0.059678248744387374 -0.04407572890715783 0.031064489772178017 0.10138122024967638 0.095952022136673365 -0.067630759013350347 0.048753993874600048 0.027569476621483041 0.04203964993734479 0.025448327555610002 0.048231793134645637 0.084879231378229031 -0.016529523005315763 -0.053157453238880784 -0.041634268133506437 0.022931874340100529 0.12016813591671412 -0.018228772225969515 -0.025073563719128469 0.086898380198454514 -0.056487081763620731 0.054648996897811219 0.073404120825730695 0.056512070433188025 0.037409863650434499 -7.5758244976479737e-05 0.083745070541418831 0.087359199192760542 -0.050961183518987298 0.083878985024233244 0.010214648877332224 0.075711683989433065
leaf_weight=68.947001770138741 27.626056954264641 2.5658556520938891 7.1488443166017523 7.8448622226715186 12.772965982556345 3.8768014907836896 3.8184788972139385 5.4009372144937506 8.375992074608801 7.1296656727790824 14.73844365775585 3.1724682599306098 5.9755588918924332 11.289149537682531 4.7001829892396918 5.466487616300582 6.0229399353265753 6.273586004972457 14.658681541681288 4.9186672866344479 13.073430612683294 2.4186064749956131 2.2937401980161649 8.1160495132207853 10.15616714954376 10.557113185524939 21.497958913445473 10.061087206006048 3.122358143329623 6.6568610966205588 2.4528220593929282 11.957989811897276 9.6400222331285459 2.4852737784385672 2.9371788650751105 5.4821316748857489 2.7875588387250891 6.9038444459438351 2.7713497728109351 2.9060547053813925 3.2537577152252215 4.5446129888296127 3.0067782551050168 7.8215425610542297 2.6954577118158332 3.2158387005329132 2.8990774005651474 23.601518884301186 6.425081789493567 6.8012567907571819 4.6099770963191977 2.402442678809166 7.4987991005182257 9.6725928783416766 23.115604057908058 6.489334598183631 3.7159620076417914 2.3166555911302567 2.7095680683851242 2.4491886645555496 119.15433590114117 6.2979896366596222
leaf_count=511 145 11 34 38 77 19 20 25 42 36 77 13 30 53 23 23 27 30 71 25 60 13 11 35 47 44 95 46 14 28 11 61 45 10 12 29 13 33 12 13 15 20 13 37 12 14 12 122 29 28 21 10 32 41 96 28 17 10 14 11 554 28
internal_value=0 -0.0382691 0.00842244 0.0167629 -0.0504664 0.00152312 -0.0105774 -0.0222976 0.00728466 0.00931491 0.00301811 0.0305328 0.00803655 0.0209317 -0.00868979 0.0150369 -0.0075246 -0.0186044 0.000112197 -0.00803391 0.0112417 0.0153178 0.0231356 0.0235217 0.0217246 0.024445 0.0220004 0.0240186 0.0103712 0.0221001 -0.00922796 -0.0149684 0.00493826 0.0317121 0.0298187 -0.0229349 -0.0189127 -0.0221575 -0.0173639 -0.0300596 0.0112423 0.0446329 5.93734e-05 -0.0233708 0.0220187 0.0408281 0.0690315 -0.00786391 0.036367 0.0337555 0.0217357 -0.0184121 0.0310934 0.0170464 0.0486605 0.0337909 0.038092 0.0207266 1.34556e-05 0.0291345 0.0128677 0.0439365
internal_weight=0 115.992 509.707 230.753 89.5395 278.953 89.9783 20.5925 188.975 180.599 26.4523 11.7139 8.54141 198.858 15.9893 134.796 45.8034 72.6747 38.6737 32.6508 17.9921 7.81954 17.3036 182.868 174.752 164.596 154.039 146.89 52.9548 37.2163 31.8957 29.4429 17.4849 93.9355 91.4502 66.4011 60.919 58.1314 15.7385 12.9671 30.5594 7.66697 22.8925 11.0753 11.8172 9.12169 6.11492 30.5054 69.9523 67.0151 37.0982 7.01242 30.0858 22.587 29.9169 16.1619 13.4851 9.76915 7.4525 4.74293 129.329 10.1748
internal_count=3126 757 2369 1029 626 1340 455 115 885 843 131 54 41 874 76 624 219 372 183 156 85 38 83 798 763 716 672 638 236 165 155 144 83 402 392 342 313 300 71 59 137 34 103 52 51 39 26 155 297 285 161 31 130 98 124 69 63 46 36 22 601 47
shrinkage=0.05


Tree=14
num_leaves=63
num_cat=0
split_feature=19 47 23 0 49 45 9 18 3 49 51 51 58 51 3 0 48 49 49 41 23 32 21 11 13 18 58 18 53 54 54 9 41 46 1 42 41 0 0 32 42 3 58 45 29 29 21 51 3 49 46 0 23 23 51 29 49 18 29 52 10 36
split_gain=76.4096 25.9841 11.8767 10.9015 8.90721 8.11276 6.73442 6.57347 6.65306 6.35118 6.21284 7.74691 6.96489 6.09139 6.01402 5.93422 5.91883 5.53643 5.41802 6.86327 5.34212 5.08498 5.01491 4.815 5.34237 9.03458 8.83785 8.01559 7.86914 11.1271 9.06056 6.96223 5.76148 5.74188 4.49207 5.21631 5.72376 5.16731 5.07458 4.61342 4.46699 6.69309 6.29217 5.92054 6.1555 6.33 4.40179 4.35858 4.22666 7.60728 10.9962 4.58535 5.14898 4.19834 4.67352 5.362 4.62286 4.15957 4.14035 3.93148 5.11299 4.37708
threshold=0.00017748114520371191 0.060301507537688447 0.0047002793425171335 0.20534827539927528 0.59711878685762432 0.74378897916666675 0.18273515289162026 0.99771016447768501 0.00039244869870479269 0.60928390901432194 0.0014205600534799082 0.00077063061724727034 0.67500000000000016 0.011902993389289166 0.00043818080693063042 0.072869413501543426 0.37274290627687018 0.64859309182813829 0.59095197978096048 0.036402112345269681 0.0074094212313516273 0.81589241316270578 0.15605069501226496 0.00046912114014251784 0.0001187125024879866 0.99770188853106567 0.69500000000000006 0.9976999955271838 0.97200065705532268 0.94387052464455834 0.94514066039923661 0.17049517866825939 0.036410719219717072 0.011365292769560061 0.12528279945557647 0.0031746134790087764 0.036418732040229891 0.1574755066434036 0.12644611461548788 0.81587360603290693 0.0026393801111743611 0.00039938643972371773 0.27500000000000008 0.74378543750000015 0.00011016368327689083 0.00014342444766973073 0.15703188879803762 0.0008263388546386394 0.00042268108015440801 0.59556866048862689 0.010581853897369839 0.16027378875318751 0.0041676491554051122 0.005095333354633514 0.0034260565995691901 0.00012114981454604097 0.60978938500421231 0.99770130350725317 0.00026910982099661348 0.8252380449203387 0.29288409703504048 0.23305084745762716
decision_type=2 2 2 2 2 2 2 2 2 2 2 2 2 2 2 2 2 2 2 2 2 2 2 2 2 2 2 2 2 2 2 2 2 2 2 2 2 2 2 2 2 2 2 2 2 2 2 2 2 2 2 2 2 2 2 2 2 2 2 2 2 2
left_child=1 4 6 13 -1 40 7 9 -9 -2 11 -8 -13 17 -10 22 59 23 -12 -20 -7 -22 -15 -4 25 32 27 -26 -29 58 34 -27 -25 -28 35 38 37 -37 -31 -40 -5 42 -42 44 -43 -46 -34 -47 49 -21 -51 52 -50 -32 -55 -56 -57 -14 -30 60 61 -3
right_child=2 16 3 5 -6 20 10 8 14 -11 18 12 57 15 -16 -17 -18 -19 19 48 21 -23 -24 24 26 31 33 28 29 30 53 -33 46 -35 -36 36 -38 -39 39 -41 41 43 -44 -45 45 47 -48 -49 51 50 -52 -53 -54 54 55 56 -58 -59 -60 -61 -62 -63
